1 0 100 1 1
1 1 100 1 1
1 2 100 1 1
1 3 100 1 1
1 4 100 1 1
1 5 100 1 1
1 6 100 1 1
1 7 100 1 1
1 8 100 1 1
1 9 100 1 1
1 11 100 1 1
1 14 100 1 1
1 0 100 2 0.104645
2 0 100 2 0.895355
1 1 100 2 0.560739
2 1 100 2 0.439261
1 2 100 2 0.442684
2 2 100 2 0.557316
1 3 100 2 0.470816
2 3 100 2 0.529184
1 4 100 2 0.358625
2 4 100 2 0.641375
1 5 100 2 0.364909
2 5 100 2 0.635091
1 6 100 2 0.425577
2 6 100 2 0.574423
1 7 100 2 0.497775
2 7 100 2 0.502225
1 8 100 2 0.374016
2 8 100 2 0.625984
1 9 100 2 0.575171
2 9 100 2 0.424829
1 10 100 2 0.758843
2 10 100 2 0.241157
1 11 100 2 0.780993
2 11 100 2 0.219007
1 12 100 2 0.561989
2 12 100 2 0.438011
1 13 100 2 0.00159792
2 13 100 2 0.998402
2 15 100 2 1
1 16 100 2 0.0700249
2 16 100 2 0.929975
2 17 100 2 1
1 0 100 3 0.114917
2 0 100 3 0.304529
3 0 100 3 0.580553
1 1 100 3 0.379785
2 1 100 3 0.332545
3 1 100 3 0.28767
1 2 100 3 0.254785
2 2 100 3 0.412876
3 2 100 3 0.332338
1 3 100 3 0.237808
2 3 100 3 0.35451
3 3 100 3 0.407682
1 4 100 3 0.230798
2 4 100 3 0.319089
3 4 100 3 0.450113
1 5 100 3 0.243612
2 5 100 3 0.335522
3 5 100 3 0.420866
1 6 100 3 0.254105
2 6 100 3 0.335938
3 6 100 3 0.409957
1 7 100 3 0.234029
2 7 100 3 0.435722
3 7 100 3 0.330249
1 8 100 3 0.208087
2 8 100 3 0.285294
3 8 100 3 0.506619
1 9 100 3 0.262909
2 9 100 3 0.317853
3 9 100 3 0.419238
1 10 100 3 0.267862
2 10 100 3 0.356096
3 10 100 3 0.376042
1 11 100 3 0.222003
2 11 100 3 0.291232
3 11 100 3 0.486765
1 12 100 3 0.179744
2 12 100 3 0.289359
3 12 100 3 0.530897
1 13 100 3 0.107087
2 13 100 3 0.0915762
3 13 100 3 0.801337
1 14 100 3 0.291103
2 14 100 3 0.435658
3 14 100 3 0.273239
1 15 100 3 0.128956
2 15 100 3 0.596289
3 15 100 3 0.274756
1 16 100 3 0.151525
2 16 100 3 0.847391
3 16 100 3 0.00108376
1 17 100 3 0.6933
2 17 100 3 0.144702
3 17 100 3 0.161998
1 18 100 3 0.985026
2 18 100 3 0.000139613
3 18 100 3 0.0148345
1 19 100 3 0.0849198
2 19 100 3 0.232471
3 19 100 3 0.68261
1 20 100 3 1
1 0 100 4 0.103798
2 0 100 4 0.221209
3 0 100 4 0.298049
4 0 100 4 0.376943
1 1 100 4 0.327677
2 1 100 4 0.243356
3 1 100 4 0.220719
4 1 100 4 0.208248
1 2 100 4 0.220336
2 2 100 4 0.366082
3 2 100 4 0.228712
4 2 100 4 0.18487
1 3 100 4 0.148428
2 3 100 4 0.24481
3 3 100 4 0.334159
4 3 100 4 0.272603
1 4 100 4 0.121961
2 4 100 4 0.206925
3 4 100 4 0.321288
4 4 100 4 0.349826
1 5 100 4 0.134378
2 5 100 4 0.205325
3 5 100 4 0.272636
4 5 100 4 0.387662
1 6 100 4 0.131445
2 6 100 4 0.220771
3 6 100 4 0.28901
4 6 100 4 0.358774
1 7 100 4 0.160707
2 7 100 4 0.242454
3 7 100 4 0.263789
4 7 100 4 0.33305
1 8 100 4 0.0861197
2 8 100 4 0.230444
3 8 100 4 0.346935
4 8 100 4 0.336501
1 9 100 4 0.119864
2 9 100 4 0.202068
3 9 100 4 0.282134
4 9 100 4 0.395934
1 10 100 4 0.147405
2 10 100 4 0.213654
3 10 100 4 0.256209
4 10 100 4 0.382732
1 11 100 4 0.159402
2 11 100 4 0.260488
3 11 100 4 0.213607
4 11 100 4 0.366503
1 12 100 4 0.220758
2 12 100 4 0.254763
3 12 100 4 0.198655
4 12 100 4 0.325824
1 13 100 4 0.146686
2 13 100 4 0.457539
3 13 100 4 0.17104
4 13 100 4 0.224736
1 14 100 4 0.107843
2 14 100 4 0.65835
3 14 100 4 0.0855584
4 14 100 4 0.148248
1 15 100 4 0.313657
2 15 100 4 0.20237
3 15 100 4 0.347355
4 15 100 4 0.136618
1 16 100 4 0.0100659
2 16 100 4 0.00355175
3 16 100 4 0.356679
4 16 100 4 0.629703
1 17 100 4 0.0888291
2 17 100 4 0.114293
3 17 100 4 0.49708
4 17 100 4 0.299798
1 18 100 4 0.375199
2 18 100 4 0.0202748
3 18 100 4 0.0157914
4 18 100 4 0.588735
1 19 100 4 0.570648
2 19 100 4 0.142252
3 19 100 4 0.129593
4 19 100 4 0.157506
1 20 100 4 1
1 0 100 5 0.108326
2 0 100 5 0.227434
3 0 100 5 0.183395
4 0 100 5 0.237839
5 0 100 5 0.243005
1 1 100 5 0.3351
2 1 100 5 0.187129
3 1 100 5 0.169324
4 1 100 5 0.155702
5 1 100 5 0.152746
1 2 100 5 0.201807
2 2 100 5 0.313371
3 2 100 5 0.198032
4 2 100 5 0.138775
5 2 100 5 0.148014
1 3 100 5 0.117325
2 3 100 5 0.202713
3 3 100 5 0.282677
4 3 100 5 0.217297
5 3 100 5 0.179988
1 4 100 5 0.0907956
2 4 100 5 0.151731
3 4 100 5 0.239965
4 4 100 5 0.27763
5 4 100 5 0.239878
1 5 100 5 0.0963853
2 5 100 5 0.133294
3 5 100 5 0.198007
4 5 100 5 0.284787
5 5 100 5 0.287527
1 6 100 5 0.0825264
2 6 100 5 0.157822
3 6 100 5 0.171993
4 6 100 5 0.247479
5 6 100 5 0.34018
1 7 100 5 0.111898
2 7 100 5 0.15615
3 7 100 5 0.194401
4 7 100 5 0.229188
5 7 100 5 0.308364
1 8 100 5 0.102938
2 8 100 5 0.181766
3 8 100 5 0.177961
4 8 100 5 0.231593
5 8 100 5 0.305743
1 9 100 5 0.0758077
2 9 100 5 0.142783
3 9 100 5 0.222598
4 9 100 5 0.255263
5 9 100 5 0.303549
1 10 100 5 0.105789
2 10 100 5 0.163591
3 10 100 5 0.191345
4 10 100 5 0.244658
5 10 100 5 0.294617
1 11 100 5 0.0791082
2 11 100 5 0.15562
3 11 100 5 0.199088
4 11 100 5 0.242334
5 11 100 5 0.323849
1 12 100 5 0.0907506
2 12 100 5 0.12855
3 12 100 5 0.178485
4 12 100 5 0.276057
5 12 100 5 0.326157
1 13 100 5 0.138096
2 13 100 5 0.134742
3 13 100 5 0.168335
4 13 100 5 0.242291
5 13 100 5 0.316535
1 14 100 5 0.0842726
2 14 100 5 0.20684
3 14 100 5 0.178014
4 14 100 5 0.272296
5 14 100 5 0.258578
1 15 100 5 0.0818726
2 15 100 5 0.193652
3 15 100 5 0.249409
4 15 100 5 0.17041
5 15 100 5 0.304657
1 16 100 5 0.0990588
2 16 100 5 0.227883
3 16 100 5 0.122864
4 16 100 5 0.301693
5 16 100 5 0.248501
1 17 100 5 0.0603739
2 17 100 5 0.338847
3 17 100 5 0.190478
4 17 100 5 0.216147
5 17 100 5 0.194154
1 18 100 5 0.217265
2 18 100 5 0.21689
3 18 100 5 0.200995
4 18 100 5 0.182384
5 18 100 5 0.182465
1 19 100 5 0.143884
2 19 100 5 0.125402
3 19 100 5 0.546638
4 19 100 5 0.118522
5 19 100 5 0.0655534
3 20 100 5 0.135061
5 20 100 5 0.864939
5 21 100 5 1
3 22 100 5 0.0860572
4 22 100 5 0.901946
5 22 100 5 0.0119964
2 23 100 5 0.00171836
3 23 100 5 0.874722
4 23 100 5 0.0963948
5 23 100 5 0.0271646
2 24 100 5 0.997869
3 24 100 5 0.000229559
4 24 100 5 0.00190155
3 25 100 5 0.484741
4 25 100 5 0.515259
2 26 100 5 0.986969
4 26 100 5 0.0130314
5 27 100 5 1
3 28 100 5 0.166691
4 28 100 5 0.833309
1 0 100 6 0.0711427
2 0 100 6 0.212471
3 0 100 6 0.158293
4 0 100 6 0.178862
5 0 100 6 0.187849
6 0 100 6 0.191382
1 1 100 6 0.390924
2 1 100 6 0.154832
3 1 100 6 0.132267
4 1 100 6 0.119474
5 1 100 6 0.100742
6 1 100 6 0.10176
1 2 100 6 0.186868
2 2 100 6 0.304011
3 2 100 6 0.15768
4 2 100 6 0.130338
5 2 100 6 0.114618
6 2 100 6 0.106485
1 3 100 6 0.112192
2 3 100 6 0.151072
3 3 100 6 0.249139
4 3 100 6 0.18275
5 3 100 6 0.172226
6 3 100 6 0.132621
1 4 100 6 0.0741934
2 4 100 6 0.12594
3 4 100 6 0.18389
4 4 100 6 0.217519
5 4 100 6 0.20439
6 4 100 6 0.194068
1 5 100 6 0.0661485
2 5 100 6 0.103722
3 5 100 6 0.162485
4 5 100 6 0.213246
5 5 100 6 0.23215
6 5 100 6 0.222249
1 6 100 6 0.0559204
2 6 100 6 0.111958
3 6 100 6 0.154965
4 6 100 6 0.181371
5 6 100 6 0.24863
6 6 100 6 0.247156
1 7 100 6 0.0605887
2 7 100 6 0.111495
3 7 100 6 0.146927
4 7 100 6 0.165095
5 7 100 6 0.203985
6 7 100 6 0.311909
1 8 100 6 0.068576
2 8 100 6 0.123175
3 8 100 6 0.158353
4 8 100 6 0.168062
5 8 100 6 0.208392
6 8 100 6 0.273442
1 9 100 6 0.0619102
2 9 100 6 0.132822
3 9 100 6 0.16096
4 9 100 6 0.193522
5 9 100 6 0.204538
6 9 100 6 0.246248
1 10 100 6 0.077633
2 10 100 6 0.147025
3 10 100 6 0.156648
4 10 100 6 0.201684
5 10 100 6 0.182192
6 10 100 6 0.234817
1 11 100 6 0.0648056
2 11 100 6 0.142943
3 11 100 6 0.138317
4 11 100 6 0.169052
5 11 100 6 0.202374
6 11 100 6 0.282509
1 12 100 6 0.0994321
2 12 100 6 0.132739
3 12 100 6 0.157286
4 12 100 6 0.21644
5 12 100 6 0.203584
6 12 100 6 0.19052
1 13 100 6 0.0643298
2 13 100 6 0.0706328
3 13 100 6 0.100131
4 13 100 6 0.205644
5 13 100 6 0.266859
6 13 100 6 0.292404
1 14 100 6 0.0764237
2 14 100 6 0.127162
3 14 100 6 0.101268
4 14 100 6 0.187464
5 14 100 6 0.22453
6 14 100 6 0.283152
1 15 100 6 0.0867136
2 15 100 6 0.166492
3 15 100 6 0.173806
4 15 100 6 0.156936
5 15 100 6 0.146437
6 15 100 6 0.269614
1 16 100 6 0.0732806
2 16 100 6 0.0986709
3 16 100 6 0.261677
4 16 100 6 0.201133
5 16 100 6 0.136988
6 16 100 6 0.22825
1 17 100 6 0.0327838
2 17 100 6 0.0625276
3 17 100 6 0.268473
4 17 100 6 0.263596
5 17 100 6 0.295283
6 17 100 6 0.077337
1 18 100 6 0.145411
2 18 100 6 0.168528
3 18 100 6 0.186715
4 18 100 6 0.126377
5 18 100 6 0.203169
6 18 100 6 0.1698
1 19 100 6 0.00136443
2 19 100 6 0.0393903
3 19 100 6 1.30824e-05
4 19 100 6 0.0637138
5 19 100 6 0.718502
6 19 100 6 0.177016
1 20 100 6 0.310546
2 20 100 6 0.123097
4 20 100 6 0.566357
2 21 100 6 0.279758
3 21 100 6 0.39497
4 21 100 6 0.323503
5 21 100 6 0.00176848
1 22 100 6 0.000642592
2 22 100 6 0.654787
3 22 100 6 0.0639327
4 22 100 6 0.0313471
5 22 100 6 0.247601
6 22 100 6 0.00168989
3 24 100 6 1
2 26 100 6 0.00961059
3 26 100 6 0.0393287
4 26 100 6 0.942243
5 26 100 6 0.00881745
1 0 100 7 0.0517555
2 0 100 7 0.203903
3 0 100 7 0.143607
4 0 100 7 0.166915
5 0 100 7 0.1431
6 0 100 7 0.141676
7 0 100 7 0.149043
1 1 100 7 0.444133
2 1 100 7 0.145359
3 1 100 7 0.101386
4 1 100 7 0.0873691
5 1 100 7 0.0781415
6 1 100 7 0.0720982
7 1 100 7 0.0715128
1 2 100 7 0.172709
2 2 100 7 0.286584
3 2 100 7 0.159388
4 2 100 7 0.113564
5 2 100 7 0.0976051
6 2 100 7 0.0877939
7 2 100 7 0.0823554
1 3 100 7 0.081234
2 3 100 7 0.13484
3 3 100 7 0.229023
4 3 100 7 0.166473
5 3 100 7 0.15117
6 3 100 7 0.12687
7 3 100 7 0.11039
1 4 100 7 0.0569378
2 4 100 7 0.102322
3 4 100 7 0.15261
4 4 100 7 0.195397
5 4 100 7 0.186262
6 4 100 7 0.154733
7 4 100 7 0.151738
1 5 100 7 0.050655
2 5 100 7 0.0834763
3 5 100 7 0.130629
4 5 100 7 0.165352
5 5 100 7 0.197029
6 5 100 7 0.198987
7 5 100 7 0.173872
1 6 100 7 0.0490053
2 6 100 7 0.0762878
3 6 100 7 0.110702
4 6 100 7 0.148238
5 6 100 7 0.176722
6 6 100 7 0.214653
7 6 100 7 0.224391
1 7 100 7 0.0478443
2 7 100 7 0.0608972
3 7 100 7 0.115972
4 7 100 7 0.125583
5 7 100 7 0.164603
6 7 100 7 0.220488
7 7 100 7 0.264612
1 8 100 7 0.0533075
2 8 100 7 0.0933545
3 8 100 7 0.106787
4 8 100 7 0.149986
5 8 100 7 0.147691
6 8 100 7 0.234889
7 8 100 7 0.213986
1 9 100 7 0.0442108
2 9 100 7 0.0915901
3 9 100 7 0.122234
4 9 100 7 0.143419
5 9 100 7 0.165112
6 9 100 7 0.186218
7 9 100 7 0.247215
1 10 100 7 0.0545922
2 10 100 7 0.0886988
3 10 100 7 0.128101
4 10 100 7 0.143094
5 10 100 7 0.164464
6 10 100 7 0.207292
7 10 100 7 0.213757
1 11 100 7 0.0510094
2 11 100 7 0.106363
3 11 100 7 0.128623
4 11 100 7 0.132864
5 11 100 7 0.163524
6 11 100 7 0.163647
7 11 100 7 0.25397
1 12 100 7 0.0900308
2 12 100 7 0.0969519
3 12 100 7 0.110668
4 12 100 7 0.135022
5 12 100 7 0.186849
6 12 100 7 0.168485
7 12 100 7 0.211993
1 13 100 7 0.0570142
2 13 100 7 0.104474
3 13 100 7 0.146711
4 13 100 7 0.162866
5 13 100 7 0.178105
6 13 100 7 0.180954
7 13 100 7 0.169875
1 14 100 7 0.0617274
2 14 100 7 0.151263
3 14 100 7 0.157356
4 14 100 7 0.148594
5 14 100 7 0.17354
6 14 100 7 0.133104
7 14 100 7 0.174416
1 15 100 7 0.0364953
2 15 100 7 0.0758359
3 15 100 7 0.0717607
4 15 100 7 0.135699
5 15 100 7 0.212145
6 15 100 7 0.183571
7 15 100 7 0.284493
1 16 100 7 0.0806776
2 16 100 7 0.104667
3 16 100 7 0.152401
4 16 100 7 0.157848
5 16 100 7 0.0941016
6 16 100 7 0.195147
7 16 100 7 0.215157
1 17 100 7 0.109363
2 17 100 7 0.113534
3 17 100 7 0.211639
4 17 100 7 0.184628
5 17 100 7 0.15555
6 17 100 7 0.038929
7 17 100 7 0.186357
1 18 100 7 0.12928
2 18 100 7 0.124875
3 18 100 7 0.068828
4 18 100 7 0.192129
5 18 100 7 0.137346
6 18 100 7 0.126474
7 18 100 7 0.221068
1 19 100 7 1.67293e-05
2 19 100 7 1.83155e-05
3 19 100 7 3.70863e-05
4 19 100 7 6.45053e-07
5 19 100 7 6.52962e-05
6 19 100 7 0.504497
7 19 100 7 0.495365
1 20 100 7 9.89521e-07
2 20 100 7 0.0134517
3 20 100 7 0.483938
4 20 100 7 0.00833441
5 20 100 7 7.65239e-05
6 20 100 7 0.494198
2 21 100 7 0.000990581
6 21 100 7 0.999009
2 22 100 7 0.00404427
5 22 100 7 0.00147663
6 22 100 7 0.960937
7 22 100 7 0.033542
5 24 100 7 1
2 28 100 7 1
1 0 100 8 0.0428015
2 0 100 8 0.169016
3 0 100 8 0.132409
4 0 100 8 0.150549
5 0 100 8 0.133215
6 0 100 8 0.128996
7 0 100 8 0.125275
8 0 100 8 0.11774
1 1 100 8 0.472977
2 1 100 8 0.1286
3 1 100 8 0.0910827
4 1 100 8 0.0745133
5 1 100 8 0.0604738
6 1 100 8 0.0579193
7 1 100 8 0.0560916
8 1 100 8 0.0583426
1 2 100 8 0.147851
2 2 100 8 0.27632
3 2 100 8 0.149144
4 2 100 8 0.102609
5 2 100 8 0.0903685
6 2 100 8 0.0763004
7 2 100 8 0.0812169
8 2 100 8 0.0761903
1 3 100 8 0.0812799
2 3 100 8 0.131354
3 3 100 8 0.208745
4 3 100 8 0.164227
5 3 100 8 0.124778
6 3 100 8 0.110335
7 3 100 8 0.0973918
8 3 100 8 0.0818887
1 4 100 8 0.0516212
2 4 100 8 0.0871992
3 4 100 8 0.148199
4 4 100 8 0.169544
5 4 100 8 0.167006
6 4 100 8 0.143597
7 4 100 8 0.120697
8 4 100 8 0.112135
1 5 100 8 0.0425609
2 5 100 8 0.0732609
3 5 100 8 0.105934
4 5 100 8 0.142522
5 5 100 8 0.169875
6 5 100 8 0.163156
7 5 100 8 0.153081
8 5 100 8 0.149609
1 6 100 8 0.0395666
2 6 100 8 0.0682206
3 6 100 8 0.0851988
4 6 100 8 0.117591
5 6 100 8 0.157772
6 6 100 8 0.177308
7 6 100 8 0.179585
8 6 100 8 0.174758
1 7 100 8 0.0489303
2 7 100 8 0.0639289
3 7 100 8 0.0801269
4 7 100 8 0.109326
5 7 100 8 0.122482
6 7 100 8 0.179293
7 7 100 8 0.189202
8 7 100 8 0.206711
1 8 100 8 0.0474368
2 8 100 8 0.0631832
3 8 100 8 0.0924463
4 8 100 8 0.0890575
5 8 100 8 0.12834
6 8 100 8 0.170437
7 8 100 8 0.186174
8 8 100 8 0.222926
1 9 100 8 0.0450386
2 9 100 8 0.0733932
3 9 100 8 0.110053
4 9 100 8 0.0980903
5 9 100 8 0.120835
6 9 100 8 0.137407
7 9 100 8 0.194325
8 9 100 8 0.220858
1 10 100 8 0.0459683
2 10 100 8 0.0764462
3 10 100 8 0.0823406
4 10 100 8 0.113925
5 10 100 8 0.146148
6 10 100 8 0.157467
7 10 100 8 0.176628
8 10 100 8 0.201076
1 11 100 8 0.0417398
2 11 100 8 0.0860978
3 11 100 8 0.0922248
4 11 100 8 0.121129
5 11 100 8 0.108498
6 11 100 8 0.114096
7 11 100 8 0.198719
8 11 100 8 0.237496
1 12 100 8 0.0594116
2 12 100 8 0.0782901
3 12 100 8 0.125407
4 12 100 8 0.109496
5 12 100 8 0.124073
6 12 100 8 0.121197
7 12 100 8 0.178214
8 12 100 8 0.20391
1 13 100 8 0.0636649
2 13 100 8 0.0382949
3 13 100 8 0.0699921
4 13 100 8 0.131927
5 13 100 8 0.165795
6 13 100 8 0.155403
7 13 100 8 0.176246
8 13 100 8 0.198677
1 14 100 8 0.0576673
2 14 100 8 0.122019
3 14 100 8 0.146313
4 14 100 8 0.143284
5 14 100 8 0.125634
6 14 100 8 0.10903
7 14 100 8 0.123107
8 14 100 8 0.172945
1 15 100 8 0.0944749
2 15 100 8 0.117848
3 15 100 8 0.15036
4 15 100 8 0.0810373
5 15 100 8 0.128695
6 15 100 8 0.123879
7 15 100 8 0.153519
8 15 100 8 0.150186
1 16 100 8 0.0378654
2 16 100 8 0.0808062
3 16 100 8 0.0798317
4 16 100 8 0.13621
5 16 100 8 0.141548
6 16 100 8 0.144023
7 16 100 8 0.167721
8 16 100 8 0.211995
1 17 100 8 0.0706551
2 17 100 8 0.295945
3 17 100 8 0.1062
4 17 100 8 0.0251944
5 17 100 8 0.109084
6 17 100 8 0.195478
7 17 100 8 0.0963577
8 17 100 8 0.101086
1 18 100 8 0.0120054
2 18 100 8 0.101253
3 18 100 8 0.149728
4 18 100 8 0.252241
5 18 100 8 0.100479
6 18 100 8 0.147744
7 18 100 8 0.129114
8 18 100 8 0.107436
1 19 100 8 0.123368
2 19 100 8 0.245427
3 19 100 8 0.0319232
4 19 100 8 0.0270648
5 19 100 8 0.116817
6 19 100 8 0.0270114
7 19 100 8 0.151072
8 19 100 8 0.277315
1 20 100 8 0.0331586
2 20 100 8 0.0432791
3 20 100 8 0.426314
4 20 100 8 0.174336
5 20 100 8 0.159093
6 20 100 8 0.152899
7 20 100 8 0.000427344
8 20 100 8 0.010493
1 21 100 8 4.73444e-06
2 21 100 8 0.00021067
3 21 100 8 0.0937246
4 21 100 8 0.0578679
5 21 100 8 0.619824
6 21 100 8 0.144456
7 21 100 8 0.0493401
8 21 100 8 0.0345719
2 22 100 8 2.59556e-05
3 22 100 8 2.00534e-05
4 22 100 8 0.127215
5 22 100 8 0.0352915
6 22 100 8 0.28243
7 22 100 8 0.16409
8 22 100 8 0.390927
2 23 100 8 1.15545e-05
3 23 100 8 0.000361339
4 23 100 8 0.000497557
5 23 100 8 0.00221185
6 23 100 8 0.905244
7 23 100 8 0.0916738
5 25 100 8 1
2 26 100 8 1
1 0 100 9 0.0357237
2 0 100 9 0.158003
3 0 100 9 0.103798
4 0 100 9 0.152433
5 0 100 9 0.107913
6 0 100 9 0.132788
7 0 100 9 0.0912538
8 0 100 9 0.108792
9 0 100 9 0.109296
1 1 100 9 0.504787
2 1 100 9 0.140473
3 1 100 9 0.0696031
4 1 100 9 0.0607545
5 1 100 9 0.0529985
6 1 100 9 0.046117
7 1 100 9 0.0429076
8 1 100 9 0.0408022
9 1 100 9 0.0415575
1 2 100 9 0.13836
2 2 100 9 0.254686
3 2 100 9 0.149157
4 2 100 9 0.0924877
5 2 100 9 0.0774518
6 2 100 9 0.062206
7 2 100 9 0.0782729
8 2 100 9 0.0783979
9 2 100 9 0.0689802
1 3 100 9 0.0753222
2 3 100 9 0.113847
3 3 100 9 0.205497
4 3 100 9 0.147151
5 3 100 9 0.110426
6 3 100 9 0.0916711
7 3 100 9 0.0913576
8 3 100 9 0.0829505
9 3 100 9 0.0817776
1 4 100 9 0.049731
2 4 100 9 0.0759296
3 4 100 9 0.127911
4 4 100 9 0.152825
5 4 100 9 0.153039
6 4 100 9 0.130897
7 4 100 9 0.117615
8 4 100 9 0.100837
9 4 100 9 0.0912145
1 5 100 9 0.0304606
2 5 100 9 0.0586427
3 5 100 9 0.09596
4 5 100 9 0.129043
5 5 100 9 0.16119
6 5 100 9 0.157458
7 5 100 9 0.14949
8 5 100 9 0.113178
9 5 100 9 0.104578
1 6 100 9 0.0345422
2 6 100 9 0.0571344
3 6 100 9 0.0950652
4 6 100 9 0.103673
5 6 100 9 0.133572
6 6 100 9 0.145464
7 6 100 9 0.145351
8 6 100 9 0.150323
9 6 100 9 0.134876
1 7 100 9 0.0393486
2 7 100 9 0.056235
3 7 100 9 0.0713785
4 7 100 9 0.0856484
5 7 100 9 0.118184
6 7 100 9 0.138729
7 7 100 9 0.171925
8 7 100 9 0.162484
9 7 100 9 0.156067
1 8 100 9 0.0437025
2 8 100 9 0.0677674
3 8 100 9 0.0536624
4 8 100 9 0.0795588
5 8 100 9 0.112323
6 8 100 9 0.118144
7 8 100 9 0.145575
8 8 100 9 0.183431
9 8 100 9 0.195836
1 9 100 9 0.0370913
2 9 100 9 0.0445634
3 9 100 9 0.0863938
4 9 100 9 0.0759938
5 9 100 9 0.102048
6 9 100 9 0.126606
7 9 100 9 0.141042
8 9 100 9 0.179971
9 9 100 9 0.20629
1 10 100 9 0.0542497
2 10 100 9 0.0654807
3 10 100 9 0.0935414
4 10 100 9 0.099672
5 10 100 9 0.0856024
6 10 100 9 0.104864
7 10 100 9 0.134644
8 10 100 9 0.157651
9 10 100 9 0.204295
1 11 100 9 0.0397067
2 11 100 9 0.0784615
3 11 100 9 0.0844046
4 11 100 9 0.086928
5 11 100 9 0.083912
6 11 100 9 0.125215
7 11 100 9 0.122013
8 11 100 9 0.165767
9 11 100 9 0.213592
1 12 100 9 0.0394326
2 12 100 9 0.0634238
3 12 100 9 0.0924613
4 12 100 9 0.0917801
5 12 100 9 0.131602
6 12 100 9 0.121756
7 12 100 9 0.116568
8 12 100 9 0.149942
9 12 100 9 0.193034
1 13 100 9 0.0475035
2 13 100 9 0.0815694
3 13 100 9 0.098377
4 13 100 9 0.0832019
5 13 100 9 0.115049
6 13 100 9 0.121219
7 13 100 9 0.144091
8 13 100 9 0.126916
9 13 100 9 0.182074
1 14 100 9 0.066791
2 14 100 9 0.096851
3 14 100 9 0.0766485
4 14 100 9 0.101616
5 14 100 9 0.121989
6 14 100 9 0.118795
7 14 100 9 0.102631
8 14 100 9 0.146843
9 14 100 9 0.167835
1 15 100 9 0.0558587
2 15 100 9 0.0852017
3 15 100 9 0.119248
4 15 100 9 0.0925485
5 15 100 9 0.10286
6 15 100 9 0.103785
7 15 100 9 0.157397
8 15 100 9 0.142027
9 15 100 9 0.141075
1 16 100 9 0.0286648
2 16 100 9 0.0600284
3 16 100 9 0.0412003
4 16 100 9 0.101952
5 16 100 9 0.101445
6 16 100 9 0.132791
7 16 100 9 0.138691
8 16 100 9 0.145837
9 16 100 9 0.249391
1 17 100 9 0.0244053
2 17 100 9 0.0171298
3 17 100 9 0.0573616
4 17 100 9 0.0795519
5 17 100 9 0.126712
6 17 100 9 0.176307
7 17 100 9 0.186101
8 17 100 9 0.152233
9 17 100 9 0.180198
1 18 100 9 0.00295071
2 18 100 9 0.0254142
3 18 100 9 0.0512856
4 18 100 9 0.144661
5 18 100 9 0.210139
6 18 100 9 0.158103
7 18 100 9 0.150101
8 18 100 9 0.145487
9 18 100 9 0.111859
1 19 100 9 0.148236
2 19 100 9 7.0184e-05
3 19 100 9 0.00180589
4 19 100 9 0.0684116
5 19 100 9 0.273952
6 19 100 9 0.189685
7 19 100 9 0.161544
8 19 100 9 0.0682846
9 19 100 9 0.0880098
1 20 100 9 0.00284812
2 20 100 9 0.403209
3 20 100 9 3.43126e-05
4 20 100 9 0.00102095
5 20 100 9 0.00217192
6 20 100 9 0.000472954
7 20 100 9 0.000174082
8 20 100 9 0.215807
9 20 100 9 0.374261
1 21 100 9 0.156938
2 21 100 9 0.0333865
3 21 100 9 0.138713
4 21 100 9 0.0293872
5 21 100 9 0.0308041
6 21 100 9 0.197698
7 21 100 9 0.278652
8 21 100 9 0.069523
9 21 100 9 0.0648984
2 22 100 9 0.000171561
3 22 100 9 3.47957e-06
4 22 100 9 0.010877
5 22 100 9 0.000234482
6 22 100 9 1.21294e-05
7 22 100 9 0.00053166
8 22 100 9 0.47467
9 22 100 9 0.513499
4 24 100 9 1
1 0 100 10 0.0319647
2 0 100 10 0.144381
3 0 100 10 0.100649
4 0 100 10 0.133016
5 0 100 10 0.107878
6 0 100 10 0.113388
7 0 100 10 0.0989491
8 0 100 10 0.0804283
9 0 100 10 0.0894431
10 0 100 10 0.0999017
1 1 100 10 0.499075
2 1 100 10 0.1455
3 1 100 10 0.0646083
4 1 100 10 0.0580152
5 1 100 10 0.0517072
6 1 100 10 0.0446108
7 1 100 10 0.0428395
8 1 100 10 0.0341526
9 1 100 10 0.0316208
10 1 100 10 0.0278706
1 2 100 10 0.140334
2 2 100 10 0.228314
3 2 100 10 0.14832
4 2 100 10 0.0942248
5 2 100 10 0.0707465
6 2 100 10 0.0622462
7 2 100 10 0.0592742
8 2 100 10 0.0731106
9 2 100 10 0.0661494
10 2 100 10 0.0572802
1 3 100 10 0.0614229
2 3 100 10 0.113178
3 3 100 10 0.198103
4 3 100 10 0.143467
5 3 100 10 0.11122
6 3 100 10 0.094291
7 3 100 10 0.0783192
8 3 100 10 0.0760486
9 3 100 10 0.0653188
10 3 100 10 0.0586312
1 4 100 10 0.0469092
2 4 100 10 0.0700904
3 4 100 10 0.116968
4 4 100 10 0.155466
5 4 100 10 0.138549
6 4 100 10 0.117225
7 4 100 10 0.112003
8 4 100 10 0.0915525
9 4 100 10 0.0782979
10 4 100 10 0.0729388
1 5 100 10 0.0478798
2 5 100 10 0.0580098
3 5 100 10 0.085074
4 5 100 10 0.0919424
5 5 100 10 0.143928
6 5 100 10 0.142594
7 5 100 10 0.13425
8 5 100 10 0.11082
9 5 100 10 0.0975281
10 5 100 10 0.087975
1 6 100 10 0.0343585
2 6 100 10 0.0444212
3 6 100 10 0.077861
4 6 100 10 0.0853382
5 6 100 10 0.11925
6 6 100 10 0.137271
7 6 100 10 0.127658
8 6 100 10 0.135421
9 6 100 10 0.122885
10 6 100 10 0.115537
1 7 100 10 0.0360938
2 7 100 10 0.0422286
3 7 100 10 0.059018
4 7 100 10 0.0790117
5 7 100 10 0.0891262
6 7 100 10 0.121763
7 7 100 10 0.15116
8 7 100 10 0.138829
9 7 100 10 0.144105
10 7 100 10 0.138665
1 8 100 10 0.026537
2 8 100 10 0.0539893
3 8 100 10 0.0597504
4 8 100 10 0.0692011
5 8 100 10 0.0915993
6 8 100 10 0.0916697
7 8 100 10 0.115241
8 8 100 10 0.164685
9 8 100 10 0.161589
10 8 100 10 0.165738
1 9 100 10 0.0204047
2 9 100 10 0.0462278
3 9 100 10 0.0636306
4 9 100 10 0.0672079
5 9 100 10 0.0754586
6 9 100 10 0.0780716
7 9 100 10 0.108972
8 9 100 10 0.142742
9 9 100 10 0.205169
10 9 100 10 0.192116
1 10 100 10 0.0467179
2 10 100 10 0.0396625
3 10 100 10 0.0502837
4 10 100 10 0.0694086
5 10 100 10 0.0797695
6 10 100 10 0.0857575
7 10 100 10 0.0923226
8 10 100 10 0.140654
9 10 100 10 0.165522
10 10 100 10 0.229901
1 11 100 10 0.0306456
2 11 100 10 0.0769791
3 11 100 10 0.0668981
4 11 100 10 0.065668
5 11 100 10 0.0664322
6 11 100 10 0.0823958
7 11 100 10 0.114899
8 11 100 10 0.134803
9 11 100 10 0.140923
10 11 100 10 0.220357
1 12 100 10 0.0435872
2 12 100 10 0.0695671
3 12 100 10 0.0778471
4 12 100 10 0.082912
5 12 100 10 0.0752998
6 12 100 10 0.108773
7 12 100 10 0.112429
8 12 100 10 0.115938
9 12 100 10 0.141703
10 12 100 10 0.171944
1 13 100 10 0.0336694
2 13 100 10 0.0277956
3 13 100 10 0.0761546
4 13 100 10 0.106225
5 13 100 10 0.115579
6 13 100 10 0.114957
7 13 100 10 0.103397
8 13 100 10 0.118173
9 13 100 10 0.136223
10 13 100 10 0.167825
1 14 100 10 0.0641989
2 14 100 10 0.0919598
3 14 100 10 0.0736421
4 14 100 10 0.0557331
5 14 100 10 0.0780302
6 14 100 10 0.0988096
7 14 100 10 0.0989432
8 14 100 10 0.124163
9 14 100 10 0.172149
10 14 100 10 0.142371
1 15 100 10 0.0511311
2 15 100 10 0.0742432
3 15 100 10 0.039717
4 15 100 10 0.0884387
5 15 100 10 0.128554
6 15 100 10 0.104081
7 15 100 10 0.127954
8 15 100 10 0.0930096
9 15 100 10 0.136332
10 15 100 10 0.156538
1 16 100 10 0.0626047
2 16 100 10 0.0956771
3 16 100 10 0.119686
4 16 100 10 0.084353
5 16 100 10 0.101123
6 16 100 10 0.0734245
7 16 100 10 0.0936665
8 16 100 10 0.0761628
9 16 100 10 0.127436
10 16 100 10 0.165866
1 17 100 10 0.00159109
2 17 100 10 0.0087044
3 17 100 10 0.253808
4 17 100 10 0.17803
5 17 100 10 0.0261815
6 17 100 10 0.101764
7 17 100 10 0.199992
8 17 100 10 0.00971527
9 17 100 10 0.116588
10 17 100 10 0.103626
1 18 100 10 0.00865213
2 18 100 10 0.0659382
3 18 100 10 0.0773474
4 18 100 10 0.199203
5 18 100 10 0.126501
6 18 100 10 0.0711806
7 18 100 10 0.158116
8 18 100 10 0.150971
9 18 100 10 0.107705
10 18 100 10 0.034385
1 19 100 10 0.00109727
2 19 100 10 0.0257652
3 19 100 10 0.0858659
4 19 100 10 0.0216873
5 19 100 10 0.119369
6 19 100 10 0.189241
7 19 100 10 0.0697038
8 19 100 10 0.126056
9 19 100 10 0.166869
10 19 100 10 0.194346
1 20 100 10 6.82928e-06
2 20 100 10 0.0026239
3 20 100 10 0.0158537
4 20 100 10 0.02507
5 20 100 10 0.100919
6 20 100 10 0.125319
7 20 100 10 0.105926
8 20 100 10 0.249031
9 20 100 10 0.223187
10 20 100 10 0.152063
1 21 100 10 0.000112656
2 21 100 10 0.241898
4 21 100 10 4.15638e-06
5 21 100 10 0.00677163
6 21 100 10 0.750729
7 21 100 10 0.000282128
8 21 100 10 3.50117e-05
9 21 100 10 8.53984e-06
10 21 100 10 0.000158611
2 22 100 10 1.69094e-05
3 22 100 10 5.12159e-06
6 22 100 10 2.41753e-05
7 22 100 10 0.999943
8 22 100 10 1.11375e-05
2 23 100 10 0.139114
5 23 100 10 0.0347236
6 23 100 10 0.587174
8 23 100 10 0.238988
4 24 100 10 0.0176424
8 24 100 10 0.982358
5 25 100 10 0.503275
8 25 100 10 0.496725
1 0 100 11 0.025767
2 0 100 11 0.122261
3 0 100 11 0.0829234
4 0 100 11 0.122216
5 0 100 11 0.105212
6 0 100 11 0.110764
7 0 100 11 0.0840384
8 0 100 11 0.0939091
9 0 100 11 0.0791148
10 0 100 11 0.0836981
11 0 100 11 0.090096
1 1 100 11 0.499482
2 1 100 11 0.131225
3 1 100 11 0.0646185
4 1 100 11 0.0583137
5 1 100 11 0.0446402
6 1 100 11 0.0473491
7 1 100 11 0.0353097
8 1 100 11 0.0363168
9 1 100 11 0.0316275
10 1 100 11 0.0252878
11 1 100 11 0.0258299
1 2 100 11 0.142054
2 2 100 11 0.243039
3 2 100 11 0.137565
4 2 100 11 0.0721264
5 2 100 11 0.0579283
6 2 100 11 0.0563109
7 2 100 11 0.05573
8 2 100 11 0.0463685
9 2 100 11 0.0747309
10 2 100 11 0.0637015
11 2 100 11 0.0504456
1 3 100 11 0.0805805
2 3 100 11 0.104551
3 3 100 11 0.181468
4 3 100 11 0.129791
5 3 100 11 0.102424
6 3 100 11 0.0754154
7 3 100 11 0.0671351
8 3 100 11 0.0698179
9 3 100 11 0.0648231
10 3 100 11 0.0636361
11 3 100 11 0.0603581
1 4 100 11 0.0469158
2 4 100 11 0.0721241
3 4 100 11 0.115477
4 4 100 11 0.150187
5 4 100 11 0.133524
6 4 100 11 0.107921
7 4 100 11 0.0965414
8 4 100 11 0.0951916
9 4 100 11 0.0645245
10 4 100 11 0.0619032
11 4 100 11 0.0556908
1 5 100 11 0.0321582
2 5 100 11 0.0517671
3 5 100 11 0.0899219
4 5 100 11 0.116628
5 5 100 11 0.139417
6 5 100 11 0.120244
7 5 100 11 0.122302
8 5 100 11 0.103279
9 5 100 11 0.0927351
10 5 100 11 0.0697556
11 5 100 11 0.0617916
1 6 100 11 0.0275753
2 6 100 11 0.0420525
3 6 100 11 0.0758591
4 6 100 11 0.0739306
5 6 100 11 0.108992
6 6 100 11 0.131012
7 6 100 11 0.125542
8 6 100 11 0.108542
9 6 100 11 0.114908
10 6 100 11 0.0963737
11 6 100 11 0.0952125
1 7 100 11 0.0245825
2 7 100 11 0.0342876
3 7 100 11 0.0546644
4 7 100 11 0.0532071
5 7 100 11 0.0831895
6 7 100 11 0.107097
7 7 100 11 0.132483
8 7 100 11 0.132879
9 7 100 11 0.119427
10 7 100 11 0.129045
11 7 100 11 0.129137
1 8 100 11 0.0198983
2 8 100 11 0.0415884
3 8 100 11 0.046476
4 8 100 11 0.0620688
5 8 100 11 0.0791501
6 8 100 11 0.0834309
7 8 100 11 0.115741
8 8 100 11 0.126262
9 8 100 11 0.133803
10 8 100 11 0.142136
11 8 100 11 0.149446
1 9 100 11 0.0257468
2 9 100 11 0.0487854
3 9 100 11 0.0515015
4 9 100 11 0.0544401
5 9 100 11 0.0552393
6 9 100 11 0.0884035
7 9 100 11 0.106149
8 9 100 11 0.113232
9 9 100 11 0.13746
10 9 100 11 0.163347
11 9 100 11 0.155695
1 10 100 11 0.0262844
2 10 100 11 0.037268
3 10 100 11 0.0464179
4 10 100 11 0.0659316
5 10 100 11 0.0526751
6 10 100 11 0.0677916
7 10 100 11 0.0913988
8 10 100 11 0.126161
9 10 100 11 0.15139
10 10 100 11 0.146677
11 10 100 11 0.188005
1 11 100 11 0.00734893
2 11 100 11 0.0428757
3 11 100 11 0.0579618
4 11 100 11 0.0578599
5 11 100 11 0.0807096
6 11 100 11 0.0663839
7 11 100 11 0.0899647
8 11 100 11 0.105995
9 11 100 11 0.120173
10 11 100 11 0.192407
11 11 100 11 0.178321
1 12 100 11 0.0343367
2 12 100 11 0.0452044
3 12 100 11 0.0566458
4 12 100 11 0.052145
5 12 100 11 0.0547848
6 12 100 11 0.0590337
7 12 100 11 0.0852071
8 12 100 11 0.110468
9 12 100 11 0.133347
10 12 100 11 0.178772
11 12 100 11 0.190056
1 13 100 11 0.0282782
2 13 100 11 0.0510732
3 13 100 11 0.0566862
4 13 100 11 0.0877797
5 13 100 11 0.100108
6 13 100 11 0.10165
7 13 100 11 0.0973772
8 13 100 11 0.0855702
9 13 100 11 0.115463
10 13 100 11 0.113233
11 13 100 11 0.162782
1 14 100 11 0.0257273
2 14 100 11 0.0643321
3 14 100 11 0.0538603
4 14 100 11 0.0444987
5 14 100 11 0.0726301
6 14 100 11 0.0961686
7 14 100 11 0.100716
8 14 100 11 0.0946681
9 14 100 11 0.127124
10 14 100 11 0.16806
11 14 100 11 0.152215
1 15 100 11 0.0379149
2 15 100 11 0.0406918
3 15 100 11 0.0810675
4 15 100 11 0.10977
5 15 100 11 0.0828809
6 15 100 11 0.0980997
7 15 100 11 0.0812014
8 15 100 11 0.0858455
9 15 100 11 0.0743434
10 15 100 11 0.121723
11 15 100 11 0.186462
1 16 100 11 0.0275862
2 16 100 11 0.0311833
3 16 100 11 0.0483438
4 16 100 11 0.0645761
5 16 100 11 0.0745687
6 16 100 11 0.122142
7 16 100 11 0.104049
8 16 100 11 0.128751
9 16 100 11 0.112233
10 16 100 11 0.130016
11 16 100 11 0.156552
1 17 100 11 0.00114799
2 17 100 11 0.041475
3 17 100 11 0.0948357
4 17 100 11 0.0744149
5 17 100 11 0.0160749
6 17 100 11 0.113416
7 17 100 11 0.0756431
8 17 100 11 0.190869
9 17 100 11 0.28908
10 17 100 11 0.00922213
11 17 100 11 0.0938207
1 18 100 11 0.0161348
2 18 100 11 0.00791409
3 18 100 11 0.0344633
4 18 100 11 0.0488473
5 18 100 11 0.0512324
6 18 100 11 0.100944
7 18 100 11 0.102571
8 18 100 11 0.11278
9 18 100 11 0.142758
10 18 100 11 0.228623
11 18 100 11 0.153733
1 19 100 11 0.0290169
2 19 100 11 4.00819e-05
3 19 100 11 0.00181616
4 19 100 11 0.138619
5 19 100 11 0.139209
6 19 100 11 0.0340719
7 19 100 11 0.140469
8 19 100 11 0.039557
9 19 100 11 0.139285
10 19 100 11 0.00525675
11 19 100 11 0.332659
1 20 100 11 0.000241262
2 20 100 11 0.941395
3 20 100 11 0.0486002
4 20 100 11 0.000386147
5 20 100 11 0.000101082
6 20 100 11 0.000188135
7 20 100 11 0.003709
8 20 100 11 9.82488e-06
9 20 100 11 0.000231384
10 20 100 11 0.00490394
11 20 100 11 0.000233665
3 21 100 11 0.0223305
4 21 100 11 0.973842
5 21 100 11 7.85092e-05
6 21 100 11 0.000380411
7 21 100 11 0.00213088
10 21 100 11 0.000515927
11 21 100 11 0.000722279
4 22 100 11 0.00114106
5 22 100 11 0.998859
3 23 100 11 9.81758e-05
4 23 100 11 0.0177053
7 23 100 11 0.494679
9 23 100 11 0.487517
1 0 100 12 0.0268042
2 0 100 12 0.109774
3 0 100 12 0.0836817
4 0 100 12 0.115711
5 0 100 12 0.0928977
6 0 100 12 0.107297
7 0 100 12 0.0830836
8 0 100 12 0.0808338
9 0 100 12 0.0787363
10 0 100 12 0.0718182
11 0 100 12 0.0752707
12 0 100 12 0.0740917
1 1 100 12 0.455463
2 1 100 12 0.128348
3 1 100 12 0.0718539
4 1 100 12 0.0510567
5 1 100 12 0.0392862
6 1 100 12 0.0369661
7 1 100 12 0.0398111
8 1 100 12 0.0467381
9 1 100 12 0.0388058
10 1 100 12 0.0308354
11 1 100 12 0.0270353
12 1 100 12 0.0338004
1 2 100 12 0.129814
2 2 100 12 0.213165
3 2 100 12 0.148832
4 2 100 12 0.086493
5 2 100 12 0.0754382
6 2 100 12 0.0464925
7 2 100 12 0.0418972
8 2 100 12 0.0408831
9 2 100 12 0.0430718
10 2 100 12 0.0576692
11 2 100 12 0.0586683
12 2 100 12 0.0575752
1 3 100 12 0.0722621
2 3 100 12 0.107508
3 3 100 12 0.168567
4 3 100 12 0.123811
5 3 100 12 0.103995
6 3 100 12 0.0801982
7 3 100 12 0.0634661
8 3 100 12 0.0607115
9 3 100 12 0.0602183
10 3 100 12 0.0620321
11 3 100 12 0.0514769
12 3 100 12 0.0457535
1 4 100 12 0.0580232
2 4 100 12 0.0744672
3 4 100 12 0.109253
4 4 100 12 0.118929
5 4 100 12 0.118443
6 4 100 12 0.111474
7 4 100 12 0.0877784
8 4 100 12 0.0843157
9 4 100 12 0.0789712
10 4 100 12 0.0570106
11 4 100 12 0.0465776
12 4 100 12 0.0547564
1 5 100 12 0.0374777
2 5 100 12 0.0605834
3 5 100 12 0.0731747
4 5 100 12 0.0969844
5 5 100 12 0.116823
6 5 100 12 0.114655
7 5 100 12 0.115988
8 5 100 12 0.0938354
9 5 100 12 0.0855266
10 5 100 12 0.0799126
11 5 100 12 0.0607145
12 5 100 12 0.064324
1 6 100 12 0.0276003
2 6 100 12 0.0399551
3 6 100 12 0.0659267
4 6 100 12 0.0889592
5 6 100 12 0.0867133
6 6 100 12 0.115595
7 6 100 12 0.128122
8 6 100 12 0.116755
9 6 100 12 0.097897
10 6 100 12 0.0816795
11 6 100 12 0.0889382
12 6 100 12 0.061859
1 7 100 12 0.0277008
2 7 100 12 0.0378126
3 7 100 12 0.0554233
4 7 100 12 0.058976
5 7 100 12 0.0911882
6 7 100 12 0.0835809
7 7 100 12 0.114794
8 7 100 12 0.106753
9 7 100 12 0.103822
10 7 100 12 0.111356
11 7 100 12 0.101553
12 7 100 12 0.107039
1 8 100 12 0.0259428
2 8 100 12 0.0277954
3 8 100 12 0.0412975
4 8 100 12 0.0488648
5 8 100 12 0.068023
6 8 100 12 0.0884335
7 8 100 12 0.0900712
8 8 100 12 0.133249
9 8 100 12 0.111798
10 8 100 12 0.124095
11 8 100 12 0.129174
12 8 100 12 0.111256
1 9 100 12 0.0184084
2 9 100 12 0.0257695
3 9 100 12 0.0261692
4 9 100 12 0.0544586
5 9 100 12 0.0734543
6 9 100 12 0.0684642
7 9 100 12 0.0923991
8 9 100 12 0.102391
9 9 100 12 0.136541
10 9 100 12 0.140944
11 9 100 12 0.117939
12 9 100 12 0.143061
1 10 100 12 0.0179688
2 10 100 12 0.0301419
3 10 100 12 0.0352419
4 10 100 12 0.0497478
5 10 100 12 0.0551966
6 10 100 12 0.0686802
7 10 100 12 0.0962065
8 10 100 12 0.0785996
9 10 100 12 0.120651
10 10 100 12 0.137793
11 10 100 12 0.152506
12 10 100 12 0.157266
1 11 100 12 0.0209762
2 11 100 12 0.0447598
3 11 100 12 0.048464
4 11 100 12 0.0527548
5 11 100 12 0.0633473
6 11 100 12 0.0701457
7 11 100 12 0.0803051
8 11 100 12 0.0715189
9 11 100 12 0.115043
10 11 100 12 0.112255
11 11 100 12 0.178292
12 11 100 12 0.142137
1 12 100 12 0.0226649
2 12 100 12 0.0270465
3 12 100 12 0.0303941
4 12 100 12 0.0412649
5 12 100 12 0.047834
6 12 100 12 0.0657946
7 12 100 12 0.0577746
8 12 100 12 0.0949017
9 12 100 12 0.115475
10 12 100 12 0.140689
11 12 100 12 0.162927
12 12 100 12 0.193234
1 13 100 12 0.0102875
2 13 100 12 0.0260438
3 13 100 12 0.0498237
4 13 100 12 0.066239
5 13 100 12 0.0446456
6 13 100 12 0.0895514
7 13 100 12 0.0677124
8 13 100 12 0.0717119
9 13 100 12 0.113116
10 13 100 12 0.155004
11 13 100 12 0.157254
12 13 100 12 0.14861
1 14 100 12 0.0670747
2 14 100 12 0.0264216
3 14 100 12 0.0426821
4 14 100 12 0.0479769
5 14 100 12 0.0571055
6 14 100 12 0.057437
7 14 100 12 0.0755114
8 14 100 12 0.116356
9 14 100 12 0.0920702
10 14 100 12 0.0926647
11 14 100 12 0.158436
12 14 100 12 0.166264
1 15 100 12 0.0246331
2 15 100 12 0.062649
3 15 100 12 0.0755613
4 15 100 12 0.0524529
5 15 100 12 0.092845
6 15 100 12 0.0577393
7 15 100 12 0.0900635
8 15 100 12 0.0961361
9 15 100 12 0.0770186
10 15 100 12 0.0990475
11 15 100 12 0.0840686
12 15 100 12 0.187785
1 16 100 12 0.0280734
2 16 100 12 0.0648504
3 16 100 12 0.0283433
4 16 100 12 0.0755825
5 16 100 12 0.0571699
6 16 100 12 0.0204109
7 16 100 12 0.103486
8 16 100 12 0.1015
9 16 100 12 0.0542792
10 16 100 12 0.0423618
11 16 100 12 0.222639
12 16 100 12 0.201304
1 17 100 12 0.0205702
2 17 100 12 0.0242442
3 17 100 12 0.0458921
4 17 100 12 0.0589057
5 17 100 12 0.100455
6 17 100 12 0.0775232
7 17 100 12 0.11602
8 17 100 12 0.122702
9 17 100 12 0.101902
10 17 100 12 0.109192
11 17 100 12 0.0519907
12 17 100 12 0.170604
1 18 100 12 3.06809e-05
2 18 100 12 0.000474263
3 18 100 12 0.0223543
4 18 100 12 0.0490786
5 18 100 12 0.0612737
6 18 100 12 0.115155
7 18 100 12 0.136486
8 18 100 12 0.0937419
9 18 100 12 0.17151
10 18 100 12 0.132365
11 18 100 12 0.0766641
12 18 100 12 0.140866
1 19 100 12 0.000374879
2 19 100 12 9.27332e-05
3 19 100 12 0.00043066
4 19 100 12 0.261264
5 19 100 12 0.0436803
6 19 100 12 0.144246
7 19 100 12 0.165656
8 19 100 12 0.0368339
9 19 100 12 0.000900848
10 19 100 12 0.000184192
11 19 100 12 0.11282
12 19 100 12 0.233516
1 20 100 12 0.0819775
2 20 100 12 0.115305
3 20 100 12 0.0409238
4 20 100 12 0.0849965
5 20 100 12 0.0630506
6 20 100 12 0.00235721
7 20 100 12 0.000849884
8 20 100 12 0.165484
9 20 100 12 0.0566275
10 20 100 12 0.19943
11 20 100 12 0.148935
12 20 100 12 0.0400617
1 21 100 12 0.000746586
2 21 100 12 9.02482e-05
3 21 100 12 0.00545821
4 21 100 12 0.0368613
5 21 100 12 0.225868
6 21 100 12 0.218706
7 21 100 12 0.226828
8 21 100 12 0.226963
9 21 100 12 0.0437156
10 21 100 12 0.0136039
11 21 100 12 0.00085316
12 21 100 12 0.000305218
5 22 100 12 0.0017945
6 22 100 12 0.0427212
7 22 100 12 0.165365
8 22 100 12 0.165476
9 22 100 12 0.16552
10 22 100 12 0.165541
11 22 100 12 0.129486
12 22 100 12 0.164096
1 0 100 13 0.0246097
2 0 100 13 0.109258
3 0 100 13 0.074877
4 0 100 13 0.104278
5 0 100 13 0.0958883
6 0 100 13 0.0824935
7 0 100 13 0.0710186
8 0 100 13 0.0907706
9 0 100 13 0.0744869
10 0 100 13 0.0687545
11 0 100 13 0.05836
12 0 100 13 0.0766794
13 0 100 13 0.0685253
1 1 100 13 0.482925
2 1 100 13 0.135043
3 1 100 13 0.0495199
4 1 100 13 0.0415914
5 1 100 13 0.0377479
6 1 100 13 0.0361131
7 1 100 13 0.0362421
8 1 100 13 0.0444615
9 1 100 13 0.0400352
10 1 100 13 0.0316443
11 1 100 13 0.0256998
12 1 100 13 0.0192213
13 1 100 13 0.0197547
1 2 100 13 0.115135
2 2 100 13 0.211598
3 2 100 13 0.163867
4 2 100 13 0.0862436
5 2 100 13 0.0522397
6 2 100 13 0.0410147
7 2 100 13 0.0376231
8 2 100 13 0.0348723
9 2 100 13 0.038277
10 2 100 13 0.0481685
11 2 100 13 0.0646768
12 2 100 13 0.0535332
13 2 100 13 0.0527519
1 3 100 13 0.0605345
2 3 100 13 0.0956785
3 3 100 13 0.179059
4 3 100 13 0.126594
5 3 100 13 0.121249
6 3 100 13 0.0857916
7 3 100 13 0.0656988
8 3 100 13 0.0355352
9 3 100 13 0.0470851
10 3 100 13 0.0568528
11 3 100 13 0.0557903
12 3 100 13 0.039368
13 3 100 13 0.0307629
1 4 100 13 0.0477604
2 4 100 13 0.0529879
3 4 100 13 0.104808
4 4 100 13 0.136704
5 4 100 13 0.114923
6 4 100 13 0.113829
7 4 100 13 0.100835
8 4 100 13 0.083784
9 4 100 13 0.0745114
10 4 100 13 0.0544211
11 4 100 13 0.0445978
12 4 100 13 0.0427806
13 4 100 13 0.0280583
1 5 100 13 0.0312137
2 5 100 13 0.0579025
3 5 100 13 0.0649588
4 5 100 13 0.0884206
5 5 100 13 0.0979486
6 5 100 13 0.106751
7 5 100 13 0.103313
8 5 100 13 0.0943251
9 5 100 13 0.0805294
10 5 100 13 0.0681931
11 5 100 13 0.0646693
12 5 100 13 0.0794247
13 5 100 13 0.0623501
1 6 100 13 0.0321418
2 6 100 13 0.0403235
3 6 100 13 0.0507804
4 6 100 13 0.0637276
5 6 100 13 0.0988797
6 6 100 13 0.107831
7 6 100 13 0.118278
8 6 100 13 0.109736
9 6 100 13 0.0933182
10 6 100 13 0.0823
11 6 100 13 0.0846666
12 6 100 13 0.0540446
13 6 100 13 0.063972
1 7 100 13 0.0212364
2 7 100 13 0.0271041
3 7 100 13 0.0521866
4 7 100 13 0.0507225
5 7 100 13 0.0514282
6 7 100 13 0.0950696
7 7 100 13 0.105936
8 7 100 13 0.0936002
9 7 100 13 0.101423
10 7 100 13 0.105174
11 7 100 13 0.100477
12 7 100 13 0.0970515
13 7 100 13 0.098591
1 8 100 13 0.0234203
2 8 100 13 0.0279616
3 8 100 13 0.0352425
4 8 100 13 0.0528895
5 8 100 13 0.0642931
6 8 100 13 0.0699861
7 8 100 13 0.0942817
8 8 100 13 0.11188
9 8 100 13 0.109564
10 8 100 13 0.0977455
11 8 100 13 0.10184
12 8 100 13 0.0998702
13 8 100 13 0.111026
1 9 100 13 0.0172255
2 9 100 13 0.0207866
3 9 100 13 0.0411699
4 9 100 13 0.0601785
5 9 100 13 0.0621657
6 9 100 13 0.0700399
7 9 100 13 0.0561363
8 9 100 13 0.0807281
9 9 100 13 0.114198
10 9 100 13 0.133264
11 9 100 13 0.102956
12 9 100 13 0.115718
13 9 100 13 0.125433
1 10 100 13 0.0116102
2 10 100 13 0.0299756
3 10 100 13 0.0271727
4 10 100 13 0.0281829
5 10 100 13 0.0625155
6 10 100 13 0.0519489
7 10 100 13 0.0850348
8 10 100 13 0.0922665
9 10 100 13 0.10208
10 10 100 13 0.133615
11 10 100 13 0.12513
12 10 100 13 0.133935
13 10 100 13 0.116533
1 11 100 13 0.00694267
2 11 100 13 0.0229399
3 11 100 13 0.0234943
4 11 100 13 0.032038
5 11 100 13 0.0367321
6 11 100 13 0.0372894
7 11 100 13 0.0725071
8 11 100 13 0.0814469
9 11 100 13 0.0890343
10 11 100 13 0.115999
11 11 100 13 0.14434
12 11 100 13 0.151342
13 11 100 13 0.185894
1 12 100 13 0.0143773
2 12 100 13 0.0287555
3 12 100 13 0.0467476
4 12 100 13 0.0334399
5 12 100 13 0.0537959
6 12 100 13 0.0581549
7 12 100 13 0.0381985
8 12 100 13 0.0525138
9 12 100 13 0.0595909
10 12 100 13 0.106852
11 12 100 13 0.143998
12 12 100 13 0.174433
13 12 100 13 0.189142
1 13 100 13 0.0423451
2 13 100 13 0.0719426
3 13 100 13 0.0600889
4 13 100 13 0.0676871
5 13 100 13 0.0587519
6 13 100 13 0.0593873
7 13 100 13 0.0543433
8 13 100 13 0.0566445
9 13 100 13 0.0876601
10 13 100 13 0.0773674
11 13 100 13 0.0988461
12 13 100 13 0.109721
13 13 100 13 0.155214
1 14 100 13 0.0390556
2 14 100 13 0.0580746
3 14 100 13 0.0466451
4 14 100 13 0.0678358
5 14 100 13 0.065799
6 14 100 13 0.0436003
7 14 100 13 0.0459391
8 14 100 13 0.0160237
9 14 100 13 0.0750619
10 14 100 13 0.0640637
11 14 100 13 0.139412
12 14 100 13 0.176809
13 14 100 13 0.16168
1 15 100 13 0.0505826
2 15 100 13 0.0388228
3 15 100 13 0.0367926
4 15 100 13 0.0523015
5 15 100 13 0.0664162
6 15 100 13 0.105933
7 15 100 13 0.100481
8 15 100 13 0.0715864
9 15 100 13 0.106736
10 15 100 13 0.0944343
11 15 100 13 0.0824089
12 15 100 13 0.0775142
13 15 100 13 0.115991
1 16 100 13 0.10278
2 16 100 13 0.0935608
3 16 100 13 0.0547763
4 16 100 13 0.0887377
5 16 100 13 0.0708949
6 16 100 13 0.0479703
7 16 100 13 0.0391175
8 16 100 13 0.0308982
9 16 100 13 0.0143908
10 16 100 13 0.0253755
11 16 100 13 0.126809
12 16 100 13 0.140145
13 16 100 13 0.164545
1 17 100 13 0.0393562
2 17 100 13 0.0395389
3 17 100 13 0.0979227
4 17 100 13 0.0878641
5 17 100 13 0.0984141
6 17 100 13 0.105172
7 17 100 13 0.0841742
8 17 100 13 0.150756
9 17 100 13 0.0757053
10 17 100 13 0.06489
11 17 100 13 0.0576267
12 17 100 13 0.0299099
13 17 100 13 0.0686698
1 18 100 13 0.0181081
2 18 100 13 0.00290163
3 18 100 13 0.000661238
4 18 100 13 0.000543856
5 18 100 13 0.00445678
6 18 100 13 0.000130532
7 18 100 13 0.000147852
8 18 100 13 0.150629
9 18 100 13 0.0922409
10 18 100 13 0.0845865
11 18 100 13 0.0796314
12 18 100 13 0.318688
13 18 100 13 0.247274
1 19 100 13 0.0846063
2 19 100 13 0.0442987
3 19 100 13 0.0822705
4 19 100 13 0.0480894
5 19 100 13 0.0509765
6 19 100 13 0.123102
7 19 100 13 0.0870615
8 19 100 13 0.0434791
9 19 100 13 0.0623381
10 19 100 13 0.154438
11 19 100 13 0.0860429
12 19 100 13 0.0538677
13 19 100 13 0.0794294
1 20 100 13 0.0711941
2 20 100 13 0.20872
3 20 100 13 0.135092
4 20 100 13 0.10789
5 20 100 13 0.100848
6 20 100 13 0.0719868
7 20 100 13 0.0872709
8 20 100 13 0.0744286
9 20 100 13 0.0711693
10 20 100 13 0.0710683
11 20 100 13 4.79925e-05
12 20 100 13 7.20424e-05
13 20 100 13 0.000212195
1 21 100 13 6.08871e-06
3 21 100 13 0.000100264
5 21 100 13 0.0108061
6 21 100 13 4.57547e-06
7 21 100 13 6.91619e-06
8 21 100 13 0.000752422
9 21 100 13 0.0199909
10 21 100 13 0.00366486
11 21 100 13 0.964645
12 21 100 13 1.34459e-05
13 21 100 13 9.67709e-06
1 22 100 13 0.000619858
3 22 100 13 0.00237355
4 22 100 13 0.0469808
5 22 100 13 0.0169016
7 22 100 13 0.0157175
8 22 100 13 4.83721e-05
9 22 100 13 0.910987
10 22 100 13 0.00189927
11 22 100 13 0.000172776
13 22 100 13 0.00429975
2 23 100 13 0.000416932
5 23 100 13 0.966636
11 23 100 13 0.00190709
12 23 100 13 0.0147043
13 23 100 13 0.0163352
2 24 100 13 0.00511451
3 24 100 13 2.55086e-05
4 24 100 13 0.47881
5 24 100 13 0.515738
6 24 100 13 0.00030098
7 24 100 13 1.6498e-06
8 24 100 13 1.78585e-06
9 24 100 13 6.89432e-06
4 26 100 13 0.00217712
5 26 100 13 0.997823
1 0 100 14 0.0246469
2 0 100 14 0.0943602
3 0 100 14 0.0713757
4 0 100 14 0.0939042
5 0 100 14 0.0755578
6 0 100 14 0.0967551
7 0 100 14 0.0653688
8 0 100 14 0.079276
9 0 100 14 0.0773608
10 0 100 14 0.0649621
11 0 100 14 0.0691222
12 0 100 14 0.0545392
13 0 100 14 0.0709666
14 0 100 14 0.0618042
1 1 100 14 0.409405
2 1 100 14 0.10282
3 1 100 14 0.073804
4 1 100 14 0.0498471
5 1 100 14 0.0616872
6 1 100 14 0.0429893
7 1 100 14 0.0406437
8 1 100 14 0.0487226
9 1 100 14 0.030228
10 1 100 14 0.0438433
11 1 100 14 0.0241532
12 1 100 14 0.0318369
13 1 100 14 0.0242452
14 1 100 14 0.0157745
1 2 100 14 0.139984
2 2 100 14 0.215087
3 2 100 14 0.137453
4 2 100 14 0.104248
5 2 100 14 0.0686764
6 2 100 14 0.0494707
7 2 100 14 0.0595931
8 2 100 14 0.0424472
9 2 100 14 0.0251893
10 2 100 14 0.0297664
11 2 100 14 0.0281569
12 2 100 14 0.0377372
13 2 100 14 0.0292508
14 2 100 14 0.0329394
1 3 100 14 0.0437795
2 3 100 14 0.0760471
3 3 100 14 0.159268
4 3 100 14 0.111541
5 3 100 14 0.127477
6 3 100 14 0.0653134
7 3 100 14 0.0716668
8 3 100 14 0.0579247
9 3 100 14 0.0404539
10 3 100 14 0.0403229
11 3 100 14 0.0636632
12 3 100 14 0.0550538
13 3 100 14 0.0489457
14 3 100 14 0.0385438
1 4 100 14 0.03993
2 4 100 14 0.0708626
3 4 100 14 0.0833297
4 4 100 14 0.0981501
5 4 100 14 0.0944879
6 4 100 14 0.110616
7 4 100 14 0.0896288
8 4 100 14 0.0703431
9 4 100 14 0.0903773
10 4 100 14 0.0509747
11 4 100 14 0.0552341
12 4 100 14 0.0602346
13 4 100 14 0.0503428
14 4 100 14 0.0354879
1 5 100 14 0.0405214
2 5 100 14 0.0482984
3 5 100 14 0.0738304
4 5 100 14 0.0747481
5 5 100 14 0.0990143
6 5 100 14 0.0949758
7 5 100 14 0.110367
8 5 100 14 0.0802891
9 5 100 14 0.0780037
10 5 100 14 0.0883676
11 5 100 14 0.0669407
12 5 100 14 0.0582497
13 5 100 14 0.0448468
14 5 100 14 0.0415467
1 6 100 14 0.0334695
2 6 100 14 0.0514512
3 6 100 14 0.0751272
4 6 100 14 0.0902497
5 6 100 14 0.0798655
6 6 100 14 0.09109
7 6 100 14 0.0971444
8 6 100 14 0.100909
9 6 100 14 0.0914175
10 6 100 14 0.0728602
11 6 100 14 0.0525894
12 6 100 14 0.0550638
13 6 100 14 0.053629
14 6 100 14 0.0551337
1 7 100 14 0.0257763
2 7 100 14 0.0437008
3 7 100 14 0.0223659
4 7 100 14 0.0612095
5 7 100 14 0.0528398
6 7 100 14 0.0861041
7 7 100 14 0.0766399
8 7 100 14 0.080689
9 7 100 14 0.106531
10 7 100 14 0.0848498
11 7 100 14 0.100168
12 7 100 14 0.0747704
13 7 100 14 0.0941053
14 7 100 14 0.0902504
1 8 100 14 0.0106374
2 8 100 14 0.028141
3 8 100 14 0.0329851
4 8 100 14 0.0398066
5 8 100 14 0.0536711
6 8 100 14 0.0521264
7 8 100 14 0.0811956
8 8 100 14 0.104254
9 8 100 14 0.0733848
10 8 100 14 0.0969621
11 8 100 14 0.0916995
12 8 100 14 0.118478
13 8 100 14 0.106074
14 8 100 14 0.110584
1 9 100 14 0.0262228
2 9 100 14 0.0201347
3 9 100 14 0.042026
4 9 100 14 0.0394416
5 9 100 14 0.0506647
6 9 100 14 0.0630678
7 9 100 14 0.0675583
8 9 100 14 0.0811
9 9 100 14 0.102743
10 9 100 14 0.108445
11 9 100 14 0.106607
12 9 100 14 0.0887917
13 9 100 14 0.117089
14 9 100 14 0.086109
1 10 100 14 0.0340102
2 10 100 14 0.0242151
3 10 100 14 0.0301198
4 10 100 14 0.0498662
5 10 100 14 0.0490233
6 10 100 14 0.0395333
7 10 100 14 0.0481122
8 10 100 14 0.0577783
9 10 100 14 0.0740979
10 10 100 14 0.119465
11 10 100 14 0.12652
12 10 100 14 0.12862
13 10 100 14 0.0698447
14 10 100 14 0.148795
1 11 100 14 0.0177879
2 11 100 14 0.0255619
3 11 100 14 0.0317532
4 11 100 14 0.0256769
5 11 100 14 0.0525617
6 11 100 14 0.0403129
7 11 100 14 0.0627523
8 11 100 14 0.0515521
9 11 100 14 0.0927514
10 11 100 14 0.11689
11 11 100 14 0.0979439
12 11 100 14 0.104917
13 11 100 14 0.160104
14 11 100 14 0.119435
1 12 100 14 0.0182106
2 12 100 14 0.0218879
3 12 100 14 0.032259
4 12 100 14 0.026719
5 12 100 14 0.0286234
6 12 100 14 0.064292
7 12 100 14 0.0647026
8 12 100 14 0.0761965
9 12 100 14 0.0820428
10 12 100 14 0.0887466
11 12 100 14 0.118629
12 12 100 14 0.114767
13 12 100 14 0.121066
14 12 100 14 0.141857
1 13 100 14 0.030425
2 13 100 14 0.0759844
3 13 100 14 0.0398049
4 13 100 14 0.0728504
5 13 100 14 0.0505847
6 13 100 14 0.0349879
7 13 100 14 0.009678
8 13 100 14 0.0763059
9 13 100 14 0.102781
10 13 100 14 0.0787764
11 13 100 14 0.0858679
12 13 100 14 0.113818
13 13 100 14 0.0787151
14 13 100 14 0.149421
1 14 100 14 0.0291777
2 14 100 14 0.0383295
3 14 100 14 0.0566499
4 14 100 14 0.0442244
5 14 100 14 0.059851
6 14 100 14 0.0599057
7 14 100 14 0.0822823
8 14 100 14 0.061754
9 14 100 14 0.0772055
10 14 100 14 0.0494592
11 14 100 14 0.0702798
12 14 100 14 0.103267
13 14 100 14 0.127728
14 14 100 14 0.139886
1 15 100 14 0.029009
2 15 100 14 0.0614867
3 15 100 14 0.0910928
4 15 100 14 0.0593779
5 15 100 14 0.0597647
6 15 100 14 0.106264
7 15 100 14 0.0983415
8 15 100 14 0.0409078
9 15 100 14 0.068585
10 15 100 14 0.0759156
11 15 100 14 0.0638663
12 15 100 14 0.0827913
13 15 100 14 0.0565659
14 15 100 14 0.106031
1 16 100 14 0.01704
2 16 100 14 0.0939067
3 16 100 14 0.0784053
4 16 100 14 0.0668693
5 16 100 14 0.068082
6 16 100 14 0.0697871
7 16 100 14 0.0531858
8 16 100 14 0.0396561
9 16 100 14 0.0279805
10 16 100 14 0.0669708
11 16 100 14 0.0885939
12 16 100 14 0.0979582
13 16 100 14 0.076827
14 16 100 14 0.154737
1 17 100 14 0.00024347
2 17 100 14 0.0520158
3 17 100 14 0.0210124
4 17 100 14 0.0195384
5 17 100 14 0.000135569
6 17 100 14 0.000382272
7 17 100 14 0.0219883
8 17 100 14 0.118304
9 17 100 14 0.0196751
10 17 100 14 0.0166162
11 17 100 14 0.10807
12 17 100 14 0.160436
13 17 100 14 0.279193
14 17 100 14 0.182389
1 18 100 14 0.145274
2 18 100 14 0.117608
3 18 100 14 0.148797
4 18 100 14 0.000853591
5 18 100 14 0.0165542
6 18 100 14 0.0848431
7 18 100 14 0.00247923
8 18 100 14 9.91755e-05
9 18 100 14 0.000741581
10 18 100 14 0.224333
11 18 100 14 0.000808046
12 18 100 14 0.0184971
13 18 100 14 0.0894288
14 18 100 14 0.149684
1 19 100 14 0.0562119
2 19 100 14 0.058041
3 19 100 14 0.0585089
4 19 100 14 0.0529375
5 19 100 14 0.107284
6 19 100 14 0.0595948
7 19 100 14 0.112271
8 19 100 14 0.0974222
9 19 100 14 0.000148118
10 19 100 14 0.06266
11 19 100 14 0.227711
12 19 100 14 0.0114607
13 19 100 14 0.060461
14 19 100 14 0.0352877
1 20 100 14 0.000173024
2 20 100 14 2.93513e-05
3 20 100 14 0.00012627
4 20 100 14 7.5534e-05
5 20 100 14 0.000216324
6 20 100 14 3.61535e-05
7 20 100 14 0.0003505
8 20 100 14 2.77665e-05
9 20 100 14 0.00539011
10 20 100 14 0.0271248
11 20 100 14 0.155897
12 20 100 14 0.170376
13 20 100 14 0.379232
14 20 100 14 0.260945
3 21 100 14 6.60521e-07
5 21 100 14 7.82903e-07
6 21 100 14 0.000778942
7 21 100 14 8.35377e-07
10 21 100 14 1.37157e-05
11 21 100 14 2.22354e-05
12 21 100 14 0.250042
13 21 100 14 0.245453
14 21 100 14 0.503688
2 22 100 14 3.7733e-06
4 22 100 14 3.49475e-05
6 22 100 14 0.000241923
7 22 100 14 0.000375704
8 22 100 14 3.82426e-06
9 22 100 14 1.67964e-05
10 22 100 14 1.16573e-06
11 22 100 14 0.000384365
12 22 100 14 0.820642
13 22 100 14 0.177948
14 22 100 14 0.000347299
2 23 100 14 0.0032329
4 23 100 14 0.00432668
5 23 100 14 3.10388e-06
6 23 100 14 0.000277001
8 23 100 14 1.52756e-05
9 23 100 14 0.00184498
11 23 100 14 1.79381e-06
12 23 100 14 9.21328e-06
13 23 100 14 0.000622603
14 23 100 14 0.989666
1 24 100 14 0.110529
2 24 100 14 1.19851e-05
3 24 100 14 0.121585
4 24 100 14 0.106521
5 24 100 14 0.106523
6 24 100 14 0.106514
7 24 100 14 0.106578
8 24 100 14 0.106461
9 24 100 14 0.106557
10 24 100 14 0.106523
11 24 100 14 0.000118603
12 24 100 14 0.0152921
13 24 100 14 0.00577889
14 24 100 14 0.00100753
3 25 100 14 0.000649605
5 25 100 14 0.00253751
6 25 100 14 0.905972
9 25 100 14 0.0293446
13 25 100 14 0.0614958
4 26 100 14 0.82814
9 26 100 14 0.121499
14 26 100 14 0.0503613
4 27 100 14 0.72866
9 27 100 14 0.0630399
10 27 100 14 0.00132435
12 27 100 14 5.912e-05
13 27 100 14 0.0114573
14 27 100 14 0.19546
4 28 100 14 0.810956
9 28 100 14 0.187228
11 28 100 14 0.00181573
1 0 100 15 0.0209684
2 0 100 15 0.109729
3 0 100 15 0.0778166
4 0 100 15 0.102073
5 0 100 15 0.0630844
6 0 100 15 0.0645573
7 0 100 15 0.0613263
8 0 100 15 0.054716
9 0 100 15 0.0575972
10 0 100 15 0.0602638
11 0 100 15 0.0796598
12 0 100 15 0.0481177
13 0 100 15 0.0557414
14 0 100 15 0.0646536
15 0 100 15 0.0796956
1 1 100 15 0.420046
2 1 100 15 0.101517
3 1 100 15 0.0557728
4 1 100 15 0.0666412
5 1 100 15 0.0222433
6 1 100 15 0.0466095
7 1 100 15 0.0456263
8 1 100 15 0.0483927
9 1 100 15 0.0234694
10 1 100 15 0.0323095
11 1 100 15 0.0307304
12 1 100 15 0.0460008
13 1 100 15 0.0301913
14 1 100 15 0.020994
15 1 100 15 0.00945617
1 2 100 15 0.118275
2 2 100 15 0.243708
3 2 100 15 0.161663
4 2 100 15 0.098834
5 2 100 15 0.0589357
6 2 100 15 0.0367362
7 2 100 15 0.0378226
8 2 100 15 0.029667
9 2 100 15 0.0213608
10 2 100 15 0.0274262
11 2 100 15 0.0369963
12 2 100 15 0.0470155
13 2 100 15 0.0307283
14 2 100 15 0.0301715
15 2 100 15 0.0206596
1 3 100 15 0.0651454
2 3 100 15 0.0556941
3 3 100 15 0.163462
4 3 100 15 0.129608
5 3 100 15 0.139738
6 3 100 15 0.0759821
7 3 100 15 0.0440494
8 3 100 15 0.0499261
9 3 100 15 0.0520361
10 3 100 15 0.0309655
11 3 100 15 0.0186842
12 3 100 15 0.0466891
13 3 100 15 0.0499074
14 3 100 15 0.0391058
15 3 100 15 0.0390065
1 4 100 15 0.0222739
2 4 100 15 0.0482781
3 4 100 15 0.100823
4 4 100 15 0.127118
5 4 100 15 0.143195
6 4 100 15 0.120306
7 4 100 15 0.0745116
8 4 100 15 0.0648871
9 4 100 15 0.0397008
10 4 100 15 0.0441707
11 4 100 15 0.0665917
12 4 100 15 0.0613163
13 4 100 15 0.0383668
14 4 100 15 0.0231119
15 4 100 15 0.0253491
1 5 100 15 0.0423966
2 5 100 15 0.052906
3 5 100 15 0.0661074
4 5 100 15 0.0820306
5 5 100 15 0.108664
6 5 100 15 0.0971119
7 5 100 15 0.0929446
8 5 100 15 0.0984245
9 5 100 15 0.0732936
10 5 100 15 0.0474609
11 5 100 15 0.0524533
12 5 100 15 0.0408686
13 5 100 15 0.0316344
14 5 100 15 0.0638932
15 5 100 15 0.0498104
1 6 100 15 0.0155191
2 6 100 15 0.0224683
3 6 100 15 0.0519072
4 6 100 15 0.0442492
5 6 100 15 0.100333
6 6 100 15 0.117781
7 6 100 15 0.129875
8 6 100 15 0.0965004
9 6 100 15 0.100912
10 6 100 15 0.084126
11 6 100 15 0.048394
12 6 100 15 0.0584569
13 6 100 15 0.0527143
14 6 100 15 0.0335747
15 6 100 15 0.0431888
1 7 100 15 0.0319941
2 7 100 15 0.019443
3 7 100 15 0.0198088
4 7 100 15 0.0252185
5 7 100 15 0.0382145
6 7 100 15 0.0783566
7 7 100 15 0.0957683
8 7 100 15 0.094772
9 7 100 15 0.125858
10 7 100 15 0.0937483
11 7 100 15 0.0772363
12 7 100 15 0.0821205
13 7 100 15 0.0849492
14 7 100 15 0.0682914
15 7 100 15 0.0642211
1 8 100 15 0.0101298
2 8 100 15 0.0126006
3 8 100 15 0.0331968
4 8 100 15 0.0293725
5 8 100 15 0.0184269
6 8 100 15 0.055138
7 8 100 15 0.0701611
8 8 100 15 0.102056
9 8 100 15 0.127259
10 8 100 15 0.112691
11 8 100 15 0.102996
12 8 100 15 0.0970644
13 8 100 15 0.0818371
14 8 100 15 0.0685842
15 8 100 15 0.0784864
1 9 100 15 0.0235197
2 9 100 15 0.0191295
3 9 100 15 0.0132105
4 9 100 15 0.0322065
5 9 100 15 0.0510275
6 9 100 15 0.0566812
7 9 100 15 0.0543012
8 9 100 15 0.0841645
9 9 100 15 0.0829132
10 9 100 15 0.0973161
11 9 100 15 0.0949345
12 9 100 15 0.0993105
13 9 100 15 0.105548
14 9 100 15 0.10512
15 9 100 15 0.0806172
1 10 100 15 0.021829
2 10 100 15 0.017747
3 10 100 15 0.0254823
4 10 100 15 0.0580011
5 10 100 15 0.051565
6 10 100 15 0.0564271
7 10 100 15 0.0598933
8 10 100 15 0.0526699
9 10 100 15 0.0644261
10 10 100 15 0.0773769
11 10 100 15 0.108383
12 10 100 15 0.103799
13 10 100 15 0.0996801
14 10 100 15 0.103898
15 10 100 15 0.0988219
1 11 100 15 0.0117296
2 11 100 15 0.0188244
3 11 100 15 0.0241175
4 11 100 15 0.0195038
5 11 100 15 0.050108
6 11 100 15 0.0535271
7 11 100 15 0.0797218
8 11 100 15 0.0625868
9 11 100 15 0.0727148
10 11 100 15 0.0981795
11 11 100 15 0.0924948
12 11 100 15 0.0680958
13 11 100 15 0.113202
14 11 100 15 0.112362
15 11 100 15 0.122832
1 12 100 15 0.0311273
2 12 100 15 0.0573882
3 12 100 15 0.0496309
4 12 100 15 0.0386943
5 12 100 15 0.0354262
6 12 100 15 0.0485424
7 12 100 15 0.0341038
8 12 100 15 0.0413834
9 12 100 15 0.0681201
10 12 100 15 0.0529121
11 12 100 15 0.110517
12 12 100 15 0.0492031
13 12 100 15 0.107142
14 12 100 15 0.139289
15 12 100 15 0.136521
1 13 100 15 0.0454217
2 13 100 15 0.0700304
3 13 100 15 0.0267357
4 13 100 15 0.0377724
5 13 100 15 0.018638
6 13 100 15 0.0473523
7 13 100 15 0.0748577
8 13 100 15 0.0654924
9 13 100 15 0.0634551
10 13 100 15 0.105449
11 13 100 15 0.0493473
12 13 100 15 0.123356
13 13 100 15 0.0865976
14 13 100 15 0.0966642
15 13 100 15 0.0888305
1 14 100 15 0.0180658
2 14 100 15 0.0480749
3 14 100 15 0.0715931
4 14 100 15 0.0256254
5 14 100 15 0.099154
6 14 100 15 0.0193635
7 14 100 15 0.0549941
8 14 100 15 0.0729396
9 14 100 15 0.0692237
10 14 100 15 0.0717392
11 14 100 15 0.0716386
12 14 100 15 0.0791079
13 14 100 15 0.0827222
14 14 100 15 0.0954415
15 14 100 15 0.120316
1 15 100 15 0.0198642
2 15 100 15 0.0330655
3 15 100 15 0.0371435
4 15 100 15 0.0529349
5 15 100 15 0.0539875
6 15 100 15 0.0652012
7 15 100 15 0.0375358
8 15 100 15 0.0491044
9 15 100 15 0.0651672
10 15 100 15 0.0919228
11 15 100 15 0.0612383
12 15 100 15 0.0508586
13 15 100 15 0.101693
14 15 100 15 0.119768
15 15 100 15 0.160515
1 16 100 15 0.0271644
2 16 100 15 0.0371087
3 16 100 15 0.0532206
4 16 100 15 0.0270442
5 16 100 15 0.0863336
6 16 100 15 0.0659596
7 16 100 15 0.0840014
8 16 100 15 0.114882
9 16 100 15 0.0606663
10 16 100 15 0.0477122
11 16 100 15 0.053841
12 16 100 15 0.0865707
13 16 100 15 0.0886365
14 16 100 15 0.0559254
15 16 100 15 0.110933
1 17 100 15 6.1281e-05
2 17 100 15 0.0014342
3 17 100 15 2.57812e-05
4 17 100 15 4.00743e-05
5 17 100 15 0.000156575
6 17 100 15 0.00656284
7 17 100 15 0.0027977
8 17 100 15 0.00863595
9 17 100 15 0.0657536
10 17 100 15 0.108982
11 17 100 15 0.0585831
12 17 100 15 0.181233
13 17 100 15 0.178179
14 17 100 15 0.230437
15 17 100 15 0.157117
1 18 100 15 3.55408e-06
2 18 100 15 2.55768e-05
3 18 100 15 7.58346e-05
4 18 100 15 2.03181e-05
5 18 100 15 8.59838e-05
6 18 100 15 0.000484301
7 18 100 15 5.57376e-05
8 18 100 15 0.000324339
9 18 100 15 0.00010271
10 18 100 15 0.00199968
11 18 100 15 0.102801
12 18 100 15 0.000111782
13 18 100 15 0.0922248
14 18 100 15 0.302198
15 18 100 15 0.499487
1 19 100 15 0.0780421
2 19 100 15 0.166696
3 19 100 15 0.136564
4 19 100 15 0.0826263
5 19 100 15 0.0823401
6 19 100 15 0.00965076
7 19 100 15 0.0298616
8 19 100 15 0.000424722
9 19 100 15 0.0113572
10 19 100 15 0.0496758
11 19 100 15 0.0385118
12 19 100 15 0.0660884
13 19 100 15 0.100389
14 19 100 15 0.105405
15 19 100 15 0.0423673
1 20 100 15 0.086091
2 20 100 15 0.0351393
3 20 100 15 6.95259e-06
4 20 100 15 2.20764e-05
5 20 100 15 0.000343294
6 20 100 15 1.68489e-05
7 20 100 15 0.000217802
8 20 100 15 4.76625e-05
9 20 100 15 0.0354337
10 20 100 15 0.170615
11 20 100 15 2.77184e-05
12 20 100 15 0.052828
13 20 100 15 0.105384
14 20 100 15 0.246086
15 20 100 15 0.26774
1 21 100 15 0.00013935
2 21 100 15 3.34965e-06
3 21 100 15 0.0540341
4 21 100 15 0.130081
5 21 100 15 0.119003
6 21 100 15 0.103058
7 21 100 15 0.157225
8 21 100 15 0.145552
9 21 100 15 0.017901
10 21 100 15 0.0490217
11 21 100 15 0.113144
12 21 100 15 0.0111327
13 21 100 15 0.0996863
14 21 100 15 1.04182e-05
15 21 100 15 8.03542e-06
2 22 100 15 6.94923e-06
4 22 100 15 0.000480335
6 22 100 15 3.6466e-06
7 22 100 15 2.42516e-06
8 22 100 15 0.00119938
9 22 100 15 2.84804e-06
10 22 100 15 3.06178e-05
11 22 100 15 0.000328229
12 22 100 15 0.00954794
13 22 100 15 0.0248977
14 22 100 15 0.461311
15 22 100 15 0.502189
2 23 100 15 0.0689756
5 23 100 15 0.00719072
6 23 100 15 5.46873e-06
10 23 100 15 2.70259e-06
12 23 100 15 0.923826
5 24 100 15 0.163074
10 24 100 15 0.836926
1 0 100 16 0.0256835
2 0 100 16 0.0680468
3 0 100 16 0.0693335
4 0 100 16 0.0807095
5 0 100 16 0.0594216
6 0 100 16 0.0663681
7 0 100 16 0.0601639
8 0 100 16 0.0529564
9 0 100 16 0.0682321
10 0 100 16 0.07311
11 0 100 16 0.0491077
12 0 100 16 0.0564018
13 0 100 16 0.0501816
14 0 100 16 0.062662
15 0 100 16 0.0839995
16 0 100 16 0.0736219
1 1 100 16 0.473086
2 1 100 16 0.145013
3 1 100 16 0.0661426
4 1 100 16 0.070026
5 1 100 16 0.0154354
6 1 100 16 0.0210632
7 1 100 16 0.0412226
8 1 100 16 0.0228899
9 1 100 16 0.0131864
10 1 100 16 0.0145045
11 1 100 16 0.0367433
12 1 100 16 0.0203404
13 1 100 16 0.0118383
14 1 100 16 0.0192781
15 1 100 16 0.0120172
16 1 100 16 0.0172128
1 2 100 16 0.100454
2 2 100 16 0.193529
3 2 100 16 0.101719
4 2 100 16 0.0765346
5 2 100 16 0.0785627
6 2 100 16 0.0641526
7 2 100 16 0.0780825
8 2 100 16 0.04987
9 2 100 16 0.0267908
10 2 100 16 0.0314968
11 2 100 16 0.0298151
12 2 100 16 0.040164
13 2 100 16 0.0389858
14 2 100 16 0.0426021
15 2 100 16 0.020509
16 2 100 16 0.0267331
1 3 100 16 0.0530896
2 3 100 16 0.08533
3 3 100 16 0.146139
4 3 100 16 0.115599
5 3 100 16 0.104269
6 3 100 16 0.0690066
7 3 100 16 0.0412543
8 3 100 16 0.0739289
9 3 100 16 0.0798712
10 3 100 16 0.0578968
11 3 100 16 0.0338094
12 3 100 16 0.0292739
13 3 100 16 0.0367502
14 3 100 16 0.0141189
15 3 100 16 0.0351951
16 3 100 16 0.0244689
1 4 100 16 0.0453213
2 4 100 16 0.0486994
3 4 100 16 0.112188
4 4 100 16 0.0968745
5 4 100 16 0.0788721
6 4 100 16 0.101973
7 4 100 16 0.0877926
8 4 100 16 0.0908049
9 4 100 16 0.0874907
10 4 100 16 0.0416937
11 4 100 16 0.0352987
12 4 100 16 0.0548774
13 4 100 16 0.0326199
14 4 100 16 0.0220398
15 4 100 16 0.02982
16 4 100 16 0.0336341
1 5 100 16 0.0397322
2 5 100 16 0.0338338
3 5 100 16 0.0466891
4 5 100 16 0.0922347
5 5 100 16 0.126715
6 5 100 16 0.0927407
7 5 100 16 0.104055
8 5 100 16 0.0643767
9 5 100 16 0.0494167
10 5 100 16 0.0800391
11 5 100 16 0.0653282
12 5 100 16 0.0389926
13 5 100 16 0.0769242
14 5 100 16 0.0340444
15 5 100 16 0.0198285
16 5 100 16 0.0350487
1 6 100 16 0.0205326
2 6 100 16 0.0344326
3 6 100 16 0.0597305
4 6 100 16 0.0553366
5 6 100 16 0.087656
6 6 100 16 0.0814378
7 6 100 16 0.0846089
8 6 100 16 0.108915
9 6 100 16 0.0867432
10 6 100 16 0.0531749
11 6 100 16 0.067195
12 6 100 16 0.0667376
13 6 100 16 0.0565812
14 6 100 16 0.0541002
15 6 100 16 0.0441414
16 6 100 16 0.0386766
1 7 100 16 0.0238023
2 7 100 16 0.0588143
3 7 100 16 0.054637
4 7 100 16 0.0551523
5 7 100 16 0.0387204
6 7 100 16 0.0649005
7 7 100 16 0.0707593
8 7 100 16 0.06973
9 7 100 16 0.0707618
10 7 100 16 0.0588425
11 7 100 16 0.0711687
12 7 100 16 0.0604384
13 7 100 16 0.0739561
14 7 100 16 0.0985055
15 7 100 16 0.0757013
16 7 100 16 0.0541098
1 8 100 16 0.00337117
2 8 100 16 0.0168863
3 8 100 16 0.0460182
4 8 100 16 0.063745
5 8 100 16 0.0629595
6 8 100 16 0.0857428
7 8 100 16 0.0841965
8 8 100 16 0.0747715
9 8 100 16 0.0886571
10 8 100 16 0.109478
11 8 100 16 0.0673801
12 8 100 16 0.063103
13 8 100 16 0.0608113
14 8 100 16 0.0582608
15 8 100 16 0.0668432
16 8 100 16 0.0477756
1 9 100 16 0.00710071
2 9 100 16 0.029681
3 9 100 16 0.0266714
4 9 100 16 0.0322423
5 9 100 16 0.0478331
6 9 100 16 0.0308136
7 9 100 16 0.0506888
8 9 100 16 0.0661017
9 9 100 16 0.0687421
10 9 100 16 0.0852947
11 9 100 16 0.115878
12 9 100 16 0.0768894
13 9 100 16 0.109519
14 9 100 16 0.0559036
15 9 100 16 0.0849641
16 9 100 16 0.111677
1 10 100 16 0.0128784
2 10 100 16 0.0197717
3 10 100 16 0.0178257
4 10 100 16 0.0116365
5 10 100 16 0.0420122
6 10 100 16 0.0294448
7 10 100 16 0.0475001
8 10 100 16 0.0576898
9 10 100 16 0.0886674
10 10 100 16 0.0892822
11 10 100 16 0.0988047
12 10 100 16 0.113917
13 10 100 16 0.102523
14 10 100 16 0.110142
15 10 100 16 0.0871198
16 10 100 16 0.0707851
1 11 100 16 0.00410648
2 11 100 16 0.0186832
3 11 100 16 0.0196641
4 11 100 16 0.00995318
5 11 100 16 0.0201179
6 11 100 16 0.0566356
7 11 100 16 0.0632854
8 11 100 16 0.0582927
9 11 100 16 0.071068
10 11 100 16 0.0809592
11 11 100 16 0.0557512
12 11 100 16 0.151406
13 11 100 16 0.0653586
14 11 100 16 0.116873
15 11 100 16 0.093348
16 11 100 16 0.114497
1 12 100 16 0.0320388
2 12 100 16 0.0426065
3 12 100 16 0.0306165
4 12 100 16 0.013905
5 12 100 16 0.0258333
6 12 100 16 0.0536286
7 12 100 16 0.0262503
8 12 100 16 0.0322265
9 12 100 16 0.00775806
10 12 100 16 0.059893
11 12 100 16 0.140069
12 12 100 16 0.099925
13 12 100 16 0.15361
14 12 100 16 0.0979918
15 12 100 16 0.102122
16 12 100 16 0.0815246
1 13 100 16 0.0370488
2 13 100 16 0.0148901
3 13 100 16 0.0414801
4 13 100 16 0.0198264
5 13 100 16 0.0523469
6 13 100 16 0.042319
7 13 100 16 0.0243032
8 13 100 16 0.0383761
9 13 100 16 0.0726742
10 13 100 16 0.0442247
11 13 100 16 0.0475925
12 13 100 16 0.0841965
13 13 100 16 0.10269
14 13 100 16 0.147414
15 13 100 16 0.174777
16 13 100 16 0.0558404
1 14 100 16 0.0230256
2 14 100 16 0.0239421
3 14 100 16 0.0267464
4 14 100 16 0.0385581
5 14 100 16 0.0367009
6 14 100 16 0.0382337
7 14 100 16 0.0329984
8 14 100 16 0.0444711
9 14 100 16 0.040018
10 14 100 16 0.037957
11 14 100 16 0.0770569
12 14 100 16 0.0684405
13 14 100 16 0.0855491
14 14 100 16 0.148547
15 14 100 16 0.116831
16 14 100 16 0.160924
1 15 100 16 0.0148714
2 15 100 16 0.0256442
3 15 100 16 0.0462021
4 15 100 16 0.042348
5 15 100 16 0.0763933
6 15 100 16 0.063102
7 15 100 16 0.0325996
8 15 100 16 0.0706443
9 15 100 16 0.0644259
10 15 100 16 0.0820201
11 15 100 16 0.0662744
12 15 100 16 0.0551334
13 15 100 16 0.0425081
14 15 100 16 0.0558316
15 15 100 16 0.1026
16 15 100 16 0.159401
1 16 100 16 0.0154586
2 16 100 16 0.0362123
4 16 100 16 0.0321711
5 16 100 16 0.0271709
6 16 100 16 0.0309187
7 16 100 16 0.0318658
8 16 100 16 0.0388057
9 16 100 16 0.0331336
10 16 100 16 0.0654854
11 16 100 16 0.111642
12 16 100 16 0.05862
13 16 100 16 0.106529
14 16 100 16 0.0472344
15 16 100 16 0.126011
16 16 100 16 0.238741
3 17 100 16 5.99682e-06
4 17 100 16 0.0184317
5 17 100 16 0.036495
6 17 100 16 0.0181128
7 17 100 16 1.31327e-06
8 17 100 16 0.0338723
9 17 100 16 0.0374955
10 17 100 16 0.052784
11 17 100 16 0.162545
12 17 100 16 0.141385
13 17 100 16 0.137683
14 17 100 16 0.178272
15 17 100 16 0.108255
16 17 100 16 0.0746615
1 18 100 16 0.0389092
2 18 100 16 5.15737e-05
3 18 100 16 0.00429316
4 18 100 16 0.102832
5 18 100 16 0.0351127
6 18 100 16 0.0635024
7 18 100 16 0.0635846
8 18 100 16 0.05937
9 18 100 16 0.124052
10 18 100 16 0.118954
11 18 100 16 0.0829269
12 18 100 16 0.0919622
13 18 100 16 0.00941329
14 18 100 16 0.101549
15 18 100 16 0.0222418
16 18 100 16 0.0812439
1 19 100 16 0.0544187
2 19 100 16 0.044809
3 19 100 16 0.0509403
4 19 100 16 0.000110237
5 19 100 16 0.00176511
6 19 100 16 0.0551224
7 19 100 16 0.0522966
8 19 100 16 0.0834344
9 19 100 16 0.0729157
10 19 100 16 0.0525147
11 19 100 16 0.0535694
12 19 100 16 5.94906e-05
13 19 100 16 0.0012556
14 19 100 16 0.0531845
15 19 100 16 0.150416
16 19 100 16 0.273188
1 20 100 16 1.23345e-05
2 20 100 16 4.41248e-05
3 20 100 16 5.74262e-06
4 20 100 16 0.00025432
5 20 100 16 2.00046e-05
6 20 100 16 8.24928e-06
7 20 100 16 2.57432e-05
8 20 100 16 0.098558
9 20 100 16 0.100898
10 20 100 16 0.102761
11 20 100 16 0.0900054
12 20 100 16 0.102737
13 20 100 16 0.0847726
14 20 100 16 0.0900435
15 20 100 16 0.109775
16 20 100 16 0.220078
2 21 100 16 4.09151e-05
4 21 100 16 0.00415364
5 21 100 16 0.00768812
6 21 100 16 0.000414991
7 21 100 16 0.00325164
8 21 100 16 0.000188004
9 21 100 16 0.00020945
11 21 100 16 2.14467e-06
12 21 100 16 2.92841e-05
13 21 100 16 7.84672e-06
14 21 100 16 0.000107952
15 21 100 16 2.07397e-05
16 21 100 16 0.983885
4 22 100 16 0.00326498
5 22 100 16 0.477889
8 22 100 16 0.00314845
13 22 100 16 0.325294
15 22 100 16 0.190404
1 0 100 17 0.0438792
2 0 100 17 0.0639359
3 0 100 17 0.0618444
4 0 100 17 0.0663901
5 0 100 17 0.0506686
6 0 100 17 0.0661613
7 0 100 17 0.063129
8 0 100 17 0.0627323
9 0 100 17 0.0938844
10 0 100 17 0.0478379
11 0 100 17 0.0579181
12 0 100 17 0.0563464
13 0 100 17 0.0692187
14 0 100 17 0.0576479
15 0 100 17 0.0302253
16 0 100 17 0.0608271
17 0 100 17 0.0473534
1 1 100 17 0.387751
2 1 100 17 0.130378
3 1 100 17 0.0510235
4 1 100 17 0.0390376
5 1 100 17 0.0519628
6 1 100 17 0.0209695
7 1 100 17 0.0416089
8 1 100 17 0.0402892
9 1 100 17 0.0180471
10 1 100 17 0.0153908
11 1 100 17 0.0457082
12 1 100 17 0.0447451
13 1 100 17 0.0276032
14 1 100 17 0.0180273
15 1 100 17 0.0105936
16 1 100 17 0.0288755
17 1 100 17 0.0279889
1 2 100 17 0.161552
2 2 100 17 0.276305
3 2 100 17 0.0950461
4 2 100 17 0.118671
5 2 100 17 0.0436806
6 2 100 17 0.0237038
7 2 100 17 0.0449655
8 2 100 17 0.0187282
9 2 100 17 0.031193
10 2 100 17 0.0124919
11 2 100 17 0.0172258
12 2 100 17 0.00786279
13 2 100 17 0.0122115
14 2 100 17 0.051418
15 2 100 17 0.0392443
16 2 100 17 0.0228559
17 2 100 17 0.0228445
1 3 100 17 0.0864464
2 3 100 17 0.0832138
3 3 100 17 0.172613
4 3 100 17 0.139833
5 3 100 17 0.0892797
6 3 100 17 0.0631935
7 3 100 17 0.0640735
8 3 100 17 0.050011
9 3 100 17 0.0297355
10 3 100 17 0.032508
11 3 100 17 0.0296913
12 3 100 17 0.00525295
13 3 100 17 0.032719
14 3 100 17 0.0242259
15 3 100 17 0.0364022
16 3 100 17 0.0267985
17 3 100 17 0.034003
1 4 100 17 0.00612052
2 4 100 17 0.0750312
3 4 100 17 0.0939528
4 4 100 17 0.0492958
5 4 100 17 0.150017
6 4 100 17 0.112154
7 4 100 17 0.124417
8 4 100 17 0.10901
9 4 100 17 0.0162138
10 4 100 17 0.0511116
11 4 100 17 0.0305621
12 4 100 17 0.058621
13 4 100 17 0.0205462
14 4 100 17 4.36179e-07
15 4 100 17 0.0460459
16 4 100 17 0.0353198
17 4 100 17 0.0215808
1 5 100 17 0.0422524
2 5 100 17 0.0371937
3 5 100 17 0.0557718
4 5 100 17 0.0760416
5 5 100 17 0.0728363
6 5 100 17 0.0784316
7 5 100 17 0.134342
8 5 100 17 0.120354
9 5 100 17 0.0646036
10 5 100 17 0.0777082
11 5 100 17 0.0434673
12 5 100 17 0.0602918
13 5 100 17 0.0444298
14 5 100 17 0.0281967
15 5 100 17 0.0330008
16 5 100 17 0.0174643
17 5 100 17 0.0136142
1 6 100 17 0.013076
2 6 100 17 0.0085588
3 6 100 17 0.0192729
4 6 100 17 0.037389
5 6 100 17 0.100227
6 6 100 17 0.127031
7 6 100 17 0.0628184
8 6 100 17 0.0838581
9 6 100 17 0.149876
10 6 100 17 0.0354117
11 6 100 17 0.0755688
12 6 100 17 0.0527178
13 6 100 17 0.0462933
14 6 100 17 0.0163413
15 6 100 17 0.0581886
16 6 100 17 0.0598585
17 6 100 17 0.0535129
1 7 100 17 7.78789e-06
2 7 100 17 0.0345684
3 7 100 17 0.0737286
4 7 100 17 0.0387764
5 7 100 17 0.0741158
6 7 100 17 0.0920012
7 7 100 17 0.104458
8 7 100 17 0.0870471
9 7 100 17 0.0682423
10 7 100 17 0.079408
11 7 100 17 0.0802203
12 7 100 17 0.0283221
13 7 100 17 0.037739
14 7 100 17 0.0628927
15 7 100 17 0.0569316
16 7 100 17 0.0566818
17 7 100 17 0.0248592
1 8 100 17 0.0350422
2 8 100 17 0.00769331
3 8 100 17 0.0369748
4 8 100 17 0.0451091
5 8 100 17 0.0172353
6 8 100 17 0.0359206
7 8 100 17 0.0236142
8 8 100 17 0.0632306
9 8 100 17 0.068431
10 8 100 17 0.0659648
11 8 100 17 0.0928205
12 8 100 17 0.0813193
13 8 100 17 0.120825
14 8 100 17 0.0902831
15 8 100 17 0.0622757
16 8 100 17 0.0763108
17 8 100 17 0.0769499
1 9 100 17 0.0244675
2 9 100 17 0.0213448
3 9 100 17 0.0231671
4 9 100 17 0.0476303
5 9 100 17 0.0476943
6 9 100 17 0.0583058
7 9 100 17 0.0399144
8 9 100 17 0.0692164
9 9 100 17 0.0982889
10 9 100 17 0.0973649
11 9 100 17 0.0370824
12 9 100 17 0.0922901
13 9 100 17 0.0963738
14 9 100 17 0.0980057
15 9 100 17 0.0470385
16 9 100 17 0.0537579
17 9 100 17 0.048057
1 10 100 17 0.00605276
3 10 100 17 0.0299928
4 10 100 17 0.0459952
5 10 100 17 0.0113452
6 10 100 17 0.0299554
7 10 100 17 0.0694391
8 10 100 17 0.0813514
9 10 100 17 0.0734441
10 10 100 17 0.113734
11 10 100 17 0.152508
12 10 100 17 0.172942
13 10 100 17 0.0504804
14 10 100 17 0.0524399
15 10 100 17 0.0293267
16 10 100 17 0.0300105
17 10 100 17 0.0509831
1 11 100 17 0.0239551
2 11 100 17 0.0166944
3 11 100 17 0.0010056
4 11 100 17 0.0486367
5 11 100 17 0.0338648
6 11 100 17 0.0798421
7 11 100 17 0.016878
8 11 100 17 0.00790091
9 11 100 17 0.0843339
10 11 100 17 0.0704357
11 11 100 17 0.0748127
12 11 100 17 0.0768459
13 11 100 17 0.091592
14 11 100 17 0.0971245
15 11 100 17 0.072546
16 11 100 17 0.107521
17 11 100 17 0.0960111
1 12 100 17 0.00761818
2 12 100 17 0.00795359
3 12 100 17 0.0372414
4 12 100 17 0.0670333
5 12 100 17 0.066103
6 12 100 17 0.0411277
7 12 100 17 0.0515878
8 12 100 17 0.00747963
9 12 100 17 0.0255438
10 12 100 17 0.089949
11 12 100 17 0.0388944
12 12 100 17 0.0715242
13 12 100 17 0.0978613
14 12 100 17 0.164825
15 12 100 17 0.118742
16 12 100 17 0.0560621
17 12 100 17 0.0504542
1 13 100 17 0.0546703
2 13 100 17 0.0550984
3 13 100 17 0.0154391
4 13 100 17 0.0344767
5 13 100 17 0.0458284
6 13 100 17 0.0212333
7 13 100 17 0.0208033
8 13 100 17 0.0188239
9 13 100 17 0.0483055
10 13 100 17 0.0678964
11 13 100 17 0.0745851
12 13 100 17 0.0660921
13 13 100 17 0.13002
14 13 100 17 0.0378497
15 13 100 17 0.077982
16 13 100 17 0.115227
17 13 100 17 0.115669
1 14 100 17 0.0339968
2 14 100 17 0.0158888
3 14 100 17 0.00814697
4 14 100 17 0.0158837
5 14 100 17 0.0325756
6 14 100 17 0.0809542
7 14 100 17 0.0429427
8 14 100 17 0.0326221
9 14 100 17 0.0339795
10 14 100 17 0.0339856
11 14 100 17 0.0456078
12 14 100 17 0.0488557
13 14 100 17 0.0383076
14 14 100 17 0.113547
15 14 100 17 0.171298
16 14 100 17 0.118397
17 14 100 17 0.133011
2 15 100 17 0.0404126
3 15 100 17 0.0301378
4 15 100 17 0.0144533
5 15 100 17 0.0638103
6 15 100 17 0.0296614
8 15 100 17 0.0213981
9 15 100 17 0.0265727
10 15 100 17 0.112561
11 15 100 17 0.0867007
12 15 100 17 0.0154101
13 15 100 17 0.0145315
14 15 100 17 0.124203
15 15 100 17 0.0817964
16 15 100 17 0.137112
17 15 100 17 0.20124
1 16 100 17 0.0107271
2 16 100 17 0.0520438
3 16 100 17 0.0624763
4 16 100 17 0.0636442
5 16 100 17 0.012256
6 16 100 17 0.0103893
7 16 100 17 0.0104758
8 16 100 17 0.120369
9 16 100 17 0.0731796
10 16 100 17 0.0756978
11 16 100 17 0.0842836
12 16 100 17 0.073697
13 16 100 17 0.113155
14 16 100 17 0.0622614
15 16 100 17 0.0883976
16 16 100 17 0.0420682
17 16 100 17 0.0448778
1 17 100 17 2.94597e-06
2 17 100 17 0.0276742
3 17 100 17 0.047307
5 17 100 17 0.122778
6 17 100 17 0.0320424
7 17 100 17 0.0292062
8 17 100 17 0.00530345
10 17 100 17 0.0290864
11 17 100 17 0.0549867
12 17 100 17 0.0829796
13 17 100 17 0.135295
14 17 100 17 9.33633e-05
15 17 100 17 0.165883
16 17 100 17 0.156477
17 17 100 17 0.110884
2 18 100 17 0.0761578
3 18 100 17 0.200911
4 18 100 17 0.0505427
5 18 100 17 0.0260472
6 18 100 17 0.0513987
7 18 100 17 0.0259809
9 18 100 17 0.00214794
10 18 100 17 0.0262905
12 18 100 17 0.0252958
13 18 100 17 0.0004746
14 18 100 17 0.0720886
15 18 100 17 0.119403
16 18 100 17 0.14911
17 18 100 17 0.174151
1 19 100 17 0.0745357
2 19 100 17 0.000510913
3 19 100 17 0.025816
4 19 100 17 0.0384119
5 19 100 17 0.000104887
6 19 100 17 0.0011192
7 19 100 17 0.00364904
8 19 100 17 0.00352647
9 19 100 17 1.55979e-05
10 19 100 17 0.000812147
11 19 100 17 0.0408577
12 19 100 17 0.00040472
13 19 100 17 0.0697558
14 19 100 17 0.08551
15 19 100 17 0.0769432
16 19 100 17 0.191287
17 19 100 17 0.38674
1 20 100 17 0.0289622
2 20 100 17 0.144309
3 20 100 17 0.0748525
4 20 100 17 3.99615e-05
5 20 100 17 9.45246e-07
6 20 100 17 4.73913e-07
7 20 100 17 0.0810144
8 20 100 17 0.0267988
9 20 100 17 0.123183
10 20 100 17 0.131684
11 20 100 17 0.0742389
12 20 100 17 0.0743128
13 20 100 17 0.0731597
14 20 100 17 0.0720866
15 20 100 17 0.0665137
16 20 100 17 0.0148612
17 20 100 17 0.0139812
1 21 100 17 0.0128782
2 21 100 17 0.000249748
3 21 100 17 0.0624102
4 21 100 17 0.000111504
5 21 100 17 0.0102669
6 21 100 17 0.000447781
8 21 100 17 2.84317e-05
10 21 100 17 0.87006
11 21 100 17 0.0245164
12 21 100 17 0.0122607
13 21 100 17 0.00513863
14 21 100 17 0.000933202
15 21 100 17 0.000394001
16 21 100 17 7.02304e-05
17 21 100 17 0.000234342
1 22 100 17 1.38675e-05
2 22 100 17 9.02473e-05
3 22 100 17 0.0174858
5 22 100 17 0.000283963
6 22 100 17 6.38762e-07
7 22 100 17 2.17876e-05
8 22 100 17 5.63323e-06
9 22 100 17 1.39975e-06
10 22 100 17 0.00250714
11 22 100 17 0.00112605
12 22 100 17 0.163121
13 22 100 17 0.16019
14 22 100 17 0.164197
15 22 100 17 0.163298
16 22 100 17 0.164488
17 22 100 17 0.16317
2 23 100 17 0.0138856
3 23 100 17 0.0739743
4 23 100 17 0.000787717
5 23 100 17 0.0623987
8 23 100 17 0.000756269
10 23 100 17 0.00247415
11 23 100 17 0.000414276
12 23 100 17 0.0348851
13 23 100 17 0.806873
15 23 100 17 0.00355122
1 0 100 18 0.0606756
2 0 100 18 0.036769
3 0 100 18 0.0487077
4 0 100 18 0.0666004
5 0 100 18 0.037216
6 0 100 18 0.0541436
7 0 100 18 0.0417985
8 0 100 18 0.0468552
9 0 100 18 0.0630125
10 0 100 18 0.0610344
11 0 100 18 0.0595909
12 0 100 18 0.0615001
13 0 100 18 0.0342254
14 0 100 18 0.0385304
15 0 100 18 0.0679847
16 0 100 18 0.0346244
17 0 100 18 0.110206
18 0 100 18 0.076525
1 1 100 18 0.411235
2 1 100 18 0.126656
3 1 100 18 0.084346
4 1 100 18 0.0133867
5 1 100 18 0.0541464
6 1 100 18 0.0436564
7 1 100 18 0.0297393
8 1 100 18 0.0261686
9 1 100 18 0.0148673
11 1 100 18 0.00101196
12 1 100 18 0.030322
13 1 100 18 0.0713721
14 1 100 18 0.000137993
15 1 100 18 0.0254491
16 1 100 18 0.0401735
17 1 100 18 0.0142694
18 1 100 18 0.0130618
1 2 100 18 0.0965563
2 2 100 18 0.23107
3 2 100 18 0.117159
4 2 100 18 0.146451
5 2 100 18 0.0481424
6 2 100 18 0.052783
7 2 100 18 0.0504677
8 2 100 18 0.042279
9 2 100 18 0.0401591
10 2 100 18 0.0744261
11 2 100 18 0.0116878
12 2 100 18 0.0391973
13 2 100 18 0.0107508
14 2 100 18 0.0388686
15 2 100 18 9.31596e-07
17 2 100 18 5.75856e-07
1 3 100 18 0.0914032
2 3 100 18 0.101646
3 3 100 18 0.142704
4 3 100 18 0.143128
5 3 100 18 0.155113
6 3 100 18 0.0546114
7 3 100 18 0.027959
8 3 100 18 0.040852
9 3 100 18 0.0422754
10 3 100 18 0.0139039
11 3 100 18 0.0393452
12 3 100 18 0.0393157
13 3 100 18 0.0160201
14 3 100 18 0.0287415
15 3 100 18 0.0282339
16 3 100 18 0.0151015
17 3 100 18 0.0038562
18 3 100 18 0.0157908
1 4 100 18 0.0589896
2 4 100 18 0.0728981
3 4 100 18 0.185547
4 4 100 18 0.0813549
5 4 100 18 0.122708
6 4 100 18 0.0915609
7 4 100 18 0.0744441
8 4 100 18 0.0794647
9 4 100 18 0.109669
10 4 100 18 5.1121e-06
11 4 100 18 0.0148983
12 4 100 18 0.0331197
15 4 100 18 0.0121911
16 4 100 18 0.0146165
17 4 100 18 0.0340785
18 4 100 18 0.0144551
1 5 100 18 0.120493
2 5 100 18 0.0478089
3 5 100 18 0.144005
4 5 100 18 0.0631794
5 5 100 18 0.0454034
6 5 100 18 0.104024
7 5 100 18 0.0416186
8 5 100 18 0.0574541
9 5 100 18 0.0483268
10 5 100 18 0.0381231
11 5 100 18 0.129175
12 5 100 18 0.0403948
13 5 100 18 0.0492346
14 5 100 18 0.0151597
15 5 100 18 0.0296479
16 5 100 18 0.0259515
1 6 100 18 0.0135438
2 6 100 18 0.0533492
3 6 100 18 0.0497081
4 6 100 18 0.0874983
5 6 100 18 0.0695022
6 6 100 18 0.0836511
7 6 100 18 0.062281
8 6 100 18 0.110984
9 6 100 18 0.0981642
10 6 100 18 0.0231355
11 6 100 18 0.0811227
12 6 100 18 0.0427759
13 6 100 18 0.037074
14 6 100 18 0.0272862
15 6 100 18 0.0205227
16 6 100 18 0.0214022
17 6 100 18 0.0321943
18 6 100 18 0.0858052
1 7 100 18 0.012945
2 7 100 18 0.0149756
3 7 100 18 0.0250381
4 7 100 18 0.038619
5 7 100 18 0.0456024
6 7 100 18 0.0479774
7 7 100 18 0.145456
8 7 100 18 0.147392
9 7 100 18 0.172638
10 7 100 18 0.0992551
11 7 100 18 0.0297307
12 7 100 18 0.0128251
13 7 100 18 0.0357874
14 7 100 18 0.0620554
15 7 100 18 0.015784
16 7 100 18 0.0401452
17 7 100 18 0.0129211
18 7 100 18 0.0408529
3 8 100 18 0.0130744
4 8 100 18 0.0317433
5 8 100 18 0.110148
6 8 100 18 0.0620974
7 8 100 18 0.0934833
8 8 100 18 0.0755062
9 8 100 18 0.0416224
10 8 100 18 0.184107
11 8 100 18 0.0296902
12 8 100 18 0.104783
13 8 100 18 0.0330019
14 8 100 18 0.0566248
15 8 100 18 0.0753072
16 8 100 18 0.0302387
17 8 100 18 0.000261741
18 8 100 18 0.058311
3 9 100 18 0.00251487
4 9 100 18 2.55576e-07
5 9 100 18 0.0344681
7 9 100 18 0.0348486
8 9 100 18 0.117932
9 9 100 18 0.0332781
10 9 100 18 0.167697
11 9 100 18 0.148734
12 9 100 18 0.051447
13 9 100 18 0.0320778
14 9 100 18 0.0851996
15 9 100 18 0.0663436
16 9 100 18 0.0741028
17 9 100 18 0.101265
18 9 100 18 0.0500909
1 10 100 18 0.0279271
2 10 100 18 0.0345427
3 10 100 18 0.027373
4 10 100 18 0.0175099
5 10 100 18 0.0212723
6 10 100 18 0.0451354
7 10 100 18 0.0736584
8 10 100 18 0.0438274
9 10 100 18 0.026922
10 10 100 18 0.0265338
11 10 100 18 0.108257
12 10 100 18 0.0339467
13 10 100 18 0.129987
14 10 100 18 0.103719
15 10 100 18 0.0675041
16 10 100 18 0.0855311
17 10 100 18 0.0836698
18 10 100 18 0.0426842
1 11 100 18 0.0149415
2 11 100 18 0.0585128
3 11 100 18 0.00217278
4 11 100 18 0.0159449
5 11 100 18 0.0700606
6 11 100 18 0.0981272
7 11 100 18 0.0622109
8 11 100 18 0.012041
9 11 100 18 0.0146567
10 11 100 18 0.0868571
11 11 100 18 0.0404437
12 11 100 18 0.0942948
13 11 100 18 0.08689
14 11 100 18 0.063263
15 11 100 18 0.0854254
16 11 100 18 0.0683755
17 11 100 18 0.0808982
18 11 100 18 0.0448838
1 12 100 18 0.0559703
2 12 100 18 0.0188809
3 12 100 18 0.0555521
4 12 100 18 0.0391626
5 12 100 18 0.033489
6 12 100 18 0.0018366
7 12 100 18 0.019102
8 12 100 18 8.59664e-05
9 12 100 18 0.0190838
10 12 100 18 0.0554058
11 12 100 18 0.0378548
12 12 100 18 0.0958954
13 12 100 18 0.0724471
14 12 100 18 0.0981626
15 12 100 18 0.158911
16 12 100 18 0.0549462
17 12 100 18 0.104038
18 12 100 18 0.0791763
1 13 100 18 0.015928
2 13 100 18 0.0305488
3 13 100 18 0.0619316
4 13 100 18 0.0972776
5 13 100 18 0.0170665
6 13 100 18 0.0315658
7 13 100 18 0.0411966
8 13 100 18 0.0445167
9 13 100 18 0.0323567
10 13 100 18 0.0162966
11 13 100 18 0.0319452
12 13 100 18 0.0664636
13 13 100 18 0.0792178
14 13 100 18 0.0598802
15 13 100 18 0.0436473
16 13 100 18 0.155647
17 13 100 18 0.107366
18 13 100 18 0.0671484
1 14 100 18 0.0228281
2 14 100 18 0.0142205
3 14 100 18 9.0786e-05
4 14 100 18 0.014383
5 14 100 18 0.0288853
6 14 100 18 0.011928
7 14 100 18 0.0706832
8 14 100 18 0.0116645
9 14 100 18 0.0918878
10 14 100 18 0.0669596
11 14 100 18 0.0470635
12 14 100 18 0.00047447
13 14 100 18 0.0897238
14 14 100 18 0.189311
15 14 100 18 0.0998965
16 14 100 18 0.122195
17 14 100 18 0.0632408
18 14 100 18 0.0545645
1 15 100 18 0.000701289
2 15 100 18 0.026295
3 15 100 18 0.0512754
4 15 100 18 0.0232101
7 15 100 18 4.00309e-06
8 15 100 18 0.023251
9 15 100 18 0.0527598
10 15 100 18 0.0453931
11 15 100 18 0.0700137
12 15 100 18 0.0889788
13 15 100 18 0.0239491
15 15 100 18 0.144788
16 15 100 18 0.155211
17 15 100 18 0.112955
18 15 100 18 0.181214
2 16 100 18 0.0205763
3 16 100 18 0.0406247
4 16 100 18 0.0231341
5 16 100 18 0.0287213
6 16 100 18 0.0693917
7 16 100 18 0.0484646
8 16 100 18 0.046144
9 16 100 18 0.070073
10 16 100 18 0.04769
11 16 100 18 0.0522423
12 16 100 18 0.0982892
13 16 100 18 0.00330874
14 16 100 18 0.0499089
15 16 100 18 0.0871468
16 16 100 18 0.112873
17 16 100 18 0.109951
18 16 100 18 0.0914607
2 17 100 18 0.0608494
4 17 100 18 0.0560517
5 17 100 18 0.08998
6 17 100 18 0.0611379
7 17 100 18 0.0643507
8 17 100 18 0.0609079
9 17 100 18 0.0311278
10 17 100 18 0.0312554
11 17 100 18 0.0927461
12 17 100 18 0.145385
13 17 100 18 0.152572
16 17 100 18 0.0300721
17 17 100 18 0.0622738
18 17 100 18 0.0612902
4 18 100 18 0.107433
5 18 100 18 0.0715549
6 18 100 18 0.0736791
7 18 100 18 0.0354806
8 18 100 18 0.13554
9 18 100 18 3.00534e-06
11 18 100 18 0.0439384
12 18 100 18 0.110917
13 18 100 18 0.129316
14 18 100 18 0.0783084
15 18 100 18 0.0343219
16 18 100 18 0.0342922
18 18 100 18 0.145215
8 19 100 18 3.22786e-05
10 19 100 18 0.0652195
11 19 100 18 0.0534806
12 19 100 18 0.0557718
14 19 100 18 0.189173
15 19 100 18 0.198881
16 19 100 18 0.128868
17 19 100 18 0.120074
18 19 100 18 0.188499
1 20 100 18 0.0803065
2 20 100 18 0.077875
3 20 100 18 0.0781628
4 20 100 18 5.58929e-05
6 20 100 18 8.59659e-06
7 20 100 18 1.5072e-05
8 20 100 18 6.28082e-06
10 20 100 18 3.28459e-06
12 20 100 18 0.0779008
13 20 100 18 0.152805
14 20 100 18 0.0771974
15 20 100 18 0.0816052
16 20 100 18 0.157143
17 20 100 18 0.109097
18 20 100 18 0.107818
1 21 100 18 3.9261e-05
2 21 100 18 1.41663e-06
3 21 100 18 7.0268e-07
4 21 100 18 2.71929e-06
5 21 100 18 0.0520672
6 21 100 18 0.0498502
7 21 100 18 0.0781407
8 21 100 18 0.000253907
9 21 100 18 9.73357e-05
10 21 100 18 6.65548e-05
11 21 100 18 0.0607728
12 21 100 18 0.0601224
13 21 100 18 7.60062e-05
14 21 100 18 0.000135019
15 21 100 18 4.54989e-05
16 21 100 18 0.0433622
17 21 100 18 0.0682293
18 21 100 18 0.586737
2 22 100 18 0.000544994
6 22 100 18 0.00271342
7 22 100 18 0.00854922
9 22 100 18 0.976872
13 22 100 18 0.00108335
16 22 100 18 0.0100797
17 22 100 18 0.00015702
3 23 100 18 0.000964505
4 23 100 18 0.00109119
5 23 100 18 0.271118
6 23 100 18 0.36873
9 23 100 18 4.68743e-06
12 23 100 18 0.00195704
13 23 100 18 0.354793
16 23 100 18 0.000615679
17 23 100 18 0.000521139
18 23 100 18 0.000204889
1 0 100 19 0.0127994
2 0 100 19 0.0427651
3 0 100 19 0.012873
4 0 100 19 0.0715955
5 0 100 19 0.081332
6 0 100 19 0.0537114
7 0 100 19 0.0692003
8 0 100 19 0.0448971
9 0 100 19 0.0690648
10 0 100 19 0.042739
11 0 100 19 0.0718109
12 0 100 19 0.0474541
13 0 100 19 0.050203
14 0 100 19 0.0523386
15 0 100 19 0.0469122
16 0 100 19 0.0304161
17 0 100 19 0.0576041
18 0 100 19 0.0697285
19 0 100 19 0.0725551
1 1 100 19 0.54405
2 1 100 19 0.110091
3 1 100 19 0.0596747
4 1 100 19 0.0192301
5 1 100 19 1.99378e-05
6 1 100 19 0.0553505
7 1 100 19 0.0557204
9 1 100 19 7.5165e-07
10 1 100 19 0.0261107
11 1 100 19 0.0264155
12 1 100 19 0.0535023
13 1 100 19 0.0273617
14 1 100 19 0.0224575
18 1 100 19 1.4074e-05
1 2 100 19 0.262794
2 2 100 19 0.250801
3 2 100 19 0.155214
4 2 100 19 0.0479766
5 2 100 19 0.0724634
6 2 100 19 0.00395325
7 2 100 19 0.0248295
8 2 100 19 0.0281713
10 2 100 19 9.14241e-05
11 2 100 19 0.000109398
13 2 100 19 0.0253623
15 2 100 19 0.0262923
16 2 100 19 0.0466634
17 2 100 19 0.029894
18 2 100 19 0.0253838
19 2 100 19 3.39833e-07
1 3 100 19 0.134839
2 3 100 19 0.179148
3 3 100 19 0.175182
4 3 100 19 0.140141
5 3 100 19 0.144602
6 3 100 19 0.100359
7 3 100 19 0.00723736
9 3 100 19 0.000143361
15 3 100 19 1.20524e-06
16 3 100 19 0.00194348
17 3 100 19 0.032977
18 3 100 19 0.0337961
19 3 100 19 0.0496312
2 4 100 19 0.0948148
3 4 100 19 0.0689602
4 4 100 19 0.125858
5 4 100 19 0.0725806
6 4 100 19 0.105795
7 4 100 19 0.0943372
8 4 100 19 0.0757387
9 4 100 19 0.013853
10 4 100 19 0.0277786
11 4 100 19 0.000786589
12 4 100 19 0.0284362
13 4 100 19 0.0141122
14 4 100 19 0.0140058
15 4 100 19 0.0241762
16 4 100 19 0.0560249
17 4 100 19 0.0578396
18 4 100 19 0.0542751
19 4 100 19 0.0706268
3 5 100 19 0.0232571
5 5 100 19 0.0449951
6 5 100 19 0.0663572
7 5 100 19 0.0304024
8 5 100 19 0.212963
9 5 100 19 0.227482
10 5 100 19 0.157555
11 5 100 19 0.116571
12 5 100 19 0.0470192
14 5 100 19 0.0274036
15 5 100 19 0.0459933
1 6 100 19 0.0313097
2 6 100 19 0.0255597
3 6 100 19 0.0821311
4 6 100 19 0.0678477
5 6 100 19 0.0611991
6 6 100 19 0.080598
7 6 100 19 0.0841499
8 6 100 19 0.100561
9 6 100 19 0.049752
10 6 100 19 0.0760165
11 6 100 19 0.0742973
12 6 100 19 0.0421213
13 6 100 19 0.0509408
14 6 100 19 0.0608403
15 6 100 19 0.0402092
16 6 100 19 0.0207328
17 6 100 19 0.0106614
18 6 100 19 0.0404018
19 6 100 19 0.000670798
2 7 100 19 0.0154722
3 7 100 19 0.0363067
4 7 100 19 0.0720176
5 7 100 19 0.016683
6 7 100 19 0.0157503
7 7 100 19 0.0455492
8 7 100 19 0.0146868
9 7 100 19 0.0529264
10 7 100 19 0.0534219
11 7 100 19 0.0736266
12 7 100 19 0.0955944
13 7 100 19 0.0708689
14 7 100 19 0.0937697
15 7 100 19 0.0998167
16 7 100 19 0.0815568
17 7 100 19 0.0336822
18 7 100 19 0.0576191
19 7 100 19 0.0706516
1 8 100 19 0.0133567
2 8 100 19 0.0159341
3 8 100 19 0.0266874
4 8 100 19 4.55093e-06
5 8 100 19 0.0262916
6 8 100 19 0.0410339
7 8 100 19 0.0135918
8 8 100 19 0.031226
9 8 100 19 0.0606572
10 8 100 19 0.0328212
11 8 100 19 0.0805455
12 8 100 19 0.119124
13 8 100 19 0.0664666
14 8 100 19 0.0795147
15 8 100 19 0.0648816
16 8 100 19 0.0534135
17 8 100 19 0.104065
18 8 100 19 0.070108
19 8 100 19 0.100277
2 9 100 19 0.0380945
6 9 100 19 0.03654
7 9 100 19 0.0444004
8 9 100 19 0.0119043
9 9 100 19 0.0465698
10 9 100 19 0.256972
11 9 100 19 0.0391078
12 9 100 19 0.0752702
13 9 100 19 0.115488
14 9 100 19 0.0397769
16 9 100 19 0.126912
17 9 100 19 0.00877028
18 9 100 19 0.114086
19 9 100 19 0.0461084
2 10 100 19 9.82718e-07
3 10 100 19 0.084456
4 10 100 19 0.0365298
5 10 100 19 0.0733812
6 10 100 19 0.0590654
7 10 100 19 0.0752077
8 10 100 19 0.0777178
9 10 100 19 0.0200461
10 10 100 19 0.0569022
11 10 100 19 0.0406293
12 10 100 19 0.0788181
13 10 100 19 0.0598092
14 10 100 19 0.0598213
15 10 100 19 0.0806735
16 10 100 19 0.0597783
17 10 100 19 0.0795658
18 10 100 19 0.0173378
19 10 100 19 0.0402595
3 11 100 19 2.23207e-06
9 11 100 19 9.33533e-05
11 11 100 19 0.127604
13 11 100 19 0.165156
14 11 100 19 0.209304
15 11 100 19 0.108014
16 11 100 19 0.204276
18 11 100 19 0.103479
19 11 100 19 0.0820715
4 12 100 19 1.55186e-05
5 12 100 19 0.0385031
7 12 100 19 0.0380838
8 12 100 19 0.0350492
9 12 100 19 0.000337186
11 12 100 19 0.035104
12 12 100 19 0.0366597
13 12 100 19 0.0585911
14 12 100 19 0.210221
15 12 100 19 0.203854
16 12 100 19 0.0709575
17 12 100 19 0.125623
19 12 100 19 0.147
2 13 100 19 0.0286974
3 13 100 19 0.0336604
5 13 100 19 0.0942031
6 13 100 19 0.000395283
7 13 100 19 0.0573895
8 13 100 19 0.112459
9 13 100 19 0.11772
10 13 100 19 0.0598584
11 13 100 19 0.0825976
12 13 100 19 0.0359371
13 13 100 19 0.0917692
14 13 100 19 1.57769e-05
15 13 100 19 0.0723266
16 13 100 19 0.0619261
17 13 100 19 0.0297734
18 13 100 19 0.0896335
19 13 100 19 0.0316377
1 14 100 19 0.0390452
2 14 100 19 0.0410985
3 14 100 19 0.0682188
4 14 100 19 0.037566
6 14 100 19 0.00135619
7 14 100 19 0.154214
8 14 100 19 0.0376617
9 14 100 19 0.0403798
10 14 100 19 0.0799099
11 14 100 19 0.0731585
12 14 100 19 0.0364168
13 14 100 19 0.0778057
14 14 100 19 0.0118686
15 14 100 19 0.0785427
16 14 100 19 0.0388121
17 14 100 19 0.117187
18 14 100 19 0.00144614
19 14 100 19 0.0653129
4 15 100 19 0.0851571
7 15 100 19 0.0467857
8 15 100 19 0.0428064
9 15 100 19 0.03655
10 15 100 19 0.0475054
11 15 100 19 0.0377365
12 15 100 19 0.135138
13 15 100 19 0.0844882
14 15 100 19 0.0455346
15 15 100 19 3.65656e-06
16 15 100 19 0.174288
17 15 100 19 0.112119
18 15 100 19 0.11633
19 15 100 19 0.0355572
1 16 100 19 0.00902434
5 16 100 19 0.0362882
6 16 100 19 0.106454
8 16 100 19 0.0334539
9 16 100 19 0.147757
10 16 100 19 0.0372341
12 16 100 19 0.043009
13 16 100 19 0.0738914
14 16 100 19 0.0370133
15 16 100 19 0.0368931
16 16 100 19 0.0758396
17 16 100 19 0.181825
18 16 100 19 0.144183
19 16 100 19 0.0371337
2 17 100 19 0.0803375
3 17 100 19 0.0119237
4 17 100 19 0.0843217
5 17 100 19 0.0782325
6 17 100 19 0.248919
7 17 100 19 0.0845163
9 17 100 19 0.165076
11 17 100 19 2.78767e-05
12 17 100 19 6.30657e-05
16 17 100 19 0.0782889
19 17 100 19 0.168293
1 18 100 19 0.0397705
2 18 100 19 0.0817788
6 18 100 19 4.42447e-06
7 18 100 19 0.0837712
8 18 100 19 0.0410409
9 18 100 19 0.0492431
10 18 100 19 0.120965
11 18 100 19 0.110845
12 18 100 19 0.0823108
13 18 100 19 0.122038
14 18 100 19 0.0354985
15 18 100 19 2.18732e-05
16 18 100 19 0.0319862
17 18 100 19 0.0489833
18 18 100 19 0.114992
19 18 100 19 0.0367495
2 19 100 19 1.45257e-06
3 19 100 19 0.00180171
5 19 100 19 0.145093
7 19 100 19 3.31822e-05
8 19 100 19 1.88889e-06
9 19 100 19 3.75466e-06
10 19 100 19 0.000148902
12 19 100 19 0.142682
13 19 100 19 0.0439096
14 19 100 19 0.133965
15 19 100 19 0.142614
17 19 100 19 0.110984
18 19 100 19 0.137232
19 19 100 19 0.141529
1 20 100 19 9.90617e-05
3 20 100 19 0.0712008
4 20 100 19 0.155701
6 20 100 19 0.0758809
8 20 100 19 0.0774509
9 20 100 19 0.080827
12 20 100 19 7.56202e-06
14 20 100 19 0.0783927
15 20 100 19 0.220698
16 20 100 19 0.152506
17 20 100 19 0.0872357
1 21 100 19 6.07126e-06
2 21 100 19 0.000542042
4 21 100 19 0.989961
9 21 100 19 0.000168451
10 21 100 19 0.000644108
11 21 100 19 0.000950323
12 21 100 19 0.00192922
13 21 100 19 0.00112352
14 21 100 19 0.00467547
1 22 100 19 7.76671e-05
2 22 100 19 6.31436e-06
3 22 100 19 0.000506744
11 22 100 19 1.83039e-05
13 22 100 19 9.46141e-06
19 22 100 19 0.999381
5 23 100 19 1.39683e-05
7 23 100 19 0.000105561
10 23 100 19 0.99988
1 0 100 20 0.0649757
2 0 100 20 0.022983
3 0 100 20 0.0435527
4 0 100 20 0.068359
5 0 100 20 0.045666
6 0 100 20 0.0741911
7 0 100 20 0.080595
8 0 100 20 0.0592489
9 0 100 20 0.0154265
10 0 100 20 0.0689748
11 0 100 20 0.0334252
12 0 100 20 0.0434732
13 0 100 20 0.0449217
14 0 100 20 0.0707627
15 0 100 20 0.0785102
16 0 100 20 0.0181962
17 0 100 20 0.0459996
18 0 100 20 0.0463261
19 0 100 20 0.0321628
20 0 100 20 0.0422495
1 1 100 20 0.283537
2 1 100 20 0.262065
3 1 100 20 0.134513
5 1 100 20 7.09841e-06
6 1 100 20 0.0264425
7 1 100 20 0.0601103
8 1 100 20 0.0660959
9 1 100 20 0.027467
10 1 100 20 0.0290053
11 1 100 20 0.0287595
12 1 100 20 0.0537033
15 1 100 20 6.25024e-07
16 1 100 20 0.0282941
1 2 100 20 0.139023
2 2 100 20 0.20174
3 2 100 20 0.114755
4 2 100 20 0.111736
5 2 100 20 0.0586057
6 2 100 20 0.0837484
7 2 100 20 0.0424355
8 2 100 20 0.0394793
9 2 100 20 0.0589056
10 2 100 20 0.0572867
11 2 100 20 5.36216e-06
12 2 100 20 9.08332e-07
13 2 100 20 0.0176845
14 2 100 20 0.018324
15 2 100 20 0.0201489
17 2 100 20 2.02399e-05
19 2 100 20 0.0169623
20 2 100 20 0.0191382
1 3 100 20 3.34779e-07
2 3 100 20 0.00011009
3 3 100 20 0.213288
4 3 100 20 0.252919
5 3 100 20 0.158007
6 3 100 20 0.118856
8 3 100 20 5.99444e-06
9 3 100 20 0.0331861
11 3 100 20 0.0945862
15 3 100 20 0.0280437
16 3 100 20 0.0318773
17 3 100 20 0.0374392
18 3 100 20 0.0316822
1 4 100 20 0.0446588
2 4 100 20 0.0584274
3 4 100 20 0.0618058
4 4 100 20 0.115337
5 4 100 20 0.116153
6 4 100 20 0.0989776
7 4 100 20 0.11533
8 4 100 20 0.134203
9 4 100 20 0.0545892
10 4 100 20 0.0391112
11 4 100 20 0.0583731
12 4 100 20 0.0437631
13 4 100 20 0.0200502
14 4 100 20 0.0196618
15 4 100 20 0.0195591
1 5 100 20 0.0591919
3 5 100 20 7.7809e-05
6 5 100 20 0.00617493
7 5 100 20 0.124471
8 5 100 20 0.00142089
9 5 100 20 0.118461
10 5 100 20 0.0457594
11 5 100 20 2.53302e-05
12 5 100 20 0.000107115
13 5 100 20 0.119014
16 5 100 20 0.171887
17 5 100 20 0.0662384
19 5 100 20 0.0599885
20 5 100 20 0.227183
2 6 100 20 5.62354e-06
4 6 100 20 0.0145524
5 6 100 20 0.0713006
6 6 100 20 0.178949
7 6 100 20 6.11158e-06
8 6 100 20 0.188686
10 6 100 20 0.00199283
11 6 100 20 0.00035853
13 6 100 20 0.000633612
14 6 100 20 0.0362236
16 6 100 20 0.114795
17 6 100 20 0.135892
18 6 100 20 0.14816
19 6 100 20 1.43266e-06
20 6 100 20 0.108443
2 7 100 20 0.0799206
3 7 100 20 0.0365854
4 7 100 20 0.000262804
5 7 100 20 0.0523206
6 7 100 20 0.00825138
7 7 100 20 0.124305
8 7 100 20 0.156765
9 7 100 20 0.070584
10 7 100 20 0.101805
11 7 100 20 0.0727236
12 7 100 20 0.0220748
14 7 100 20 7.26519e-07
15 7 100 20 0.0504201
16 7 100 20 0.0248337
17 7 100 20 0.0250345
18 7 100 20 0.0988404
19 7 100 20 0.0737888
20 7 100 20 0.00148317
2 8 100 20 0.0334765
4 8 100 20 0.113124
5 8 100 20 1.17939e-06
6 8 100 20 0.060412
7 8 100 20 0.0704064
8 8 100 20 0.0312251
9 8 100 20 0.0686155
10 8 100 20 0.128752
11 8 100 20 0.184672
12 8 100 20 0.0979144
14 8 100 20 0.103002
17 8 100 20 0.0401016
18 8 100 20 2.62432e-06
20 8 100 20 0.0682935
5 9 100 20 1.01167e-06
9 9 100 20 0.0570428
10 9 100 20 0.058686
11 9 100 20 0.0632584
12 9 100 20 0.0876013
13 9 100 20 0.0852263
14 9 100 20 0.0790477
15 9 100 20 0.148944
16 9 100 20 0.0918168
17 9 100 20 0.08854
18 9 100 20 0.0294943
19 9 100 20 0.122206
20 9 100 20 0.0881352
4 10 100 20 2.18883e-06
5 10 100 20 0.0599757
8 10 100 20 6.83851e-05
9 10 100 20 0.0307244
10 10 100 20 0.0610715
11 10 100 20 0.0300601
12 10 100 20 0.0615404
13 10 100 20 0.190098
14 10 100 20 0.0933508
15 10 100 20 0.0614373
16 10 100 20 0.146723
17 10 100 20 0.111447
18 10 100 20 0.0897866
19 10 100 20 0.0631524
20 10 100 20 0.000562359
1 11 100 20 0.0440299
2 11 100 20 0.0434348
4 11 100 20 0.0490417
5 11 100 20 0.0344238
6 11 100 20 0.0481414
7 11 100 20 0.0434949
8 11 100 20 0.0435697
9 11 100 20 0.137677
10 11 100 20 0.0880882
11 11 100 20 0.155086
13 11 100 20 2.343e-05
14 11 100 20 0.0410324
16 11 100 20 0.0930026
17 11 100 20 0.0437411
18 11 100 20 0.0447071
19 11 100 20 0.0461968
20 11 100 20 0.0443088
2 12 100 20 0.0369538
3 12 100 20 0.0407781
4 12 100 20 0.0351734
5 12 100 20 5.98135e-07
6 12 100 20 0.000626072
7 12 100 20 0.0356489
8 12 100 20 0.0310955
9 12 100 20 0.0385657
10 12 100 20 0.0726811
11 12 100 20 0.0607476
12 12 100 20 0.151356
13 12 100 20 0.1514
14 12 100 20 0.0370949
15 12 100 20 0.109799
16 12 100 20 8.21956e-07
17 12 100 20 0.0478048
19 12 100 20 0.0377716
20 12 100 20 0.112502
1 13 100 20 0.0471904
3 13 100 20 0.105169
6 13 100 20 0.0497797
7 13 100 20 0.0790034
8 13 100 20 1.26893e-05
9 13 100 20 0.0445328
10 13 100 20 0.000528884
11 13 100 20 0.0903864
12 13 100 20 0.0439853
13 13 100 20 0.133531
14 13 100 20 0.133632
16 13 100 20 0.0417606
18 13 100 20 0.134412
19 13 100 20 0.0488371
20 13 100 20 0.0472399
1 14 100 20 0.00864143
3 14 100 20 8.21399e-07
5 14 100 20 2.16222e-05
7 14 100 20 9.51259e-07
12 14 100 20 0.146653
14 14 100 20 0.294766
15 14 100 20 0.149714
16 14 100 20 0.128153
17 14 100 20 0.126302
18 14 100 20 0.00184452
19 14 100 20 0.0747638
20 14 100 20 0.0691406
1 15 100 20 0.0695521
3 15 100 20 0.0188004
4 15 100 20 5.20359e-06
7 15 100 20 0.0187554
9 15 100 20 0.109267
10 15 100 20 0.0656554
11 15 100 20 0.0360472
12 15 100 20 0.06632
13 15 100 20 0.0434803
14 15 100 20 0.0221264
15 15 100 20 0.0686497
16 15 100 20 0.0662483
17 15 100 20 0.0220325
18 15 100 20 0.101576
19 15 100 20 0.18326
20 15 100 20 0.108224
1 16 100 20 0.00189322
3 16 100 20 0.0444415
4 16 100 20 0.049713
5 16 100 20 0.17066
6 16 100 20 0.0768322
10 16 100 20 0.0529674
11 16 100 20 0.0443837
12 16 100 20 0.08626
13 16 100 20 0.0298385
14 16 100 20 0.044407
15 16 100 20 0.135358
16 16 100 20 2.49233e-06
17 16 100 20 0.124762
19 16 100 20 0.0480554
20 16 100 20 0.0904257
11 17 100 20 0.0819752
13 17 100 20 0.0809594
14 17 100 20 0.0819047
15 17 100 20 0.162521
17 17 100 20 0.165337
18 17 100 20 0.165344
19 17 100 20 0.179021
20 17 100 20 0.0829385
3 18 100 20 0.0354928
5 18 100 20 0.034073
6 18 100 20 0.0392059
7 18 100 20 0.0709803
8 18 100 20 0.072599
9 18 100 20 0.104646
11 18 100 20 0.00846115
12 18 100 20 0.106335
13 18 100 20 0.107365
14 18 100 20 0.0709884
16 18 100 20 0.105218
17 18 100 20 0.104741
18 18 100 20 0.105968
19 18 100 20 0.033921
20 18 100 20 4.19723e-06
1 19 100 20 1.42487e-05
5 19 100 20 0.227014
12 19 100 20 0.0740649
13 19 100 20 0.14632
14 19 100 20 0.0943748
16 19 100 20 0.07375
17 19 100 20 0.0797618
18 19 100 20 0.156419
19 19 100 20 0.0685599
20 19 100 20 0.0797217
1 20 100 20 0.327533
2 20 100 20 0.330566
5 20 100 20 2.07823e-05
12 20 100 20 0.00703736
19 20 100 20 0.334843
15 21 100 20 0.250073
16 21 100 20 0.499883
20 21 100 20 0.250044
1 22 100 20 0.407606
5 22 100 20 0.585721
10 22 100 20 0.00347288
14 22 100 20 0.00319989
5 23 100 20 0.56393
16 23 100 20 0.43607
1 0 100 21 0.0562259
2 0 100 21 0.0038876
3 0 100 21 0.0291919
4 0 100 21 0.0519465
5 0 100 21 0.00928005
6 0 100 21 0.128511
7 0 100 21 0.0226871
8 0 100 21 0.0586482
9 0 100 21 0.0561164
10 0 100 21 0.0288252
11 0 100 21 0.033926
12 0 100 21 0.00827488
13 0 100 21 0.0915985
14 0 100 21 0.0641134
15 0 100 21 0.00606033
16 0 100 21 0.032128
17 0 100 21 0.0286047
18 0 100 21 0.0343031
19 0 100 21 0.0629767
20 0 100 21 0.110526
21 0 100 21 0.0821691
1 1 100 21 0.343683
2 1 100 21 0.122137
3 1 100 21 0.117711
4 1 100 21 0.0566985
5 1 100 21 0.0633736
10 1 100 21 0.0581083
11 1 100 21 0.0590915
12 1 100 21 0.0581918
13 1 100 21 0.0656534
21 1 100 21 0.0553527
1 2 100 21 0.0538945
2 2 100 21 0.20188
3 2 100 21 0.157862
4 2 100 21 0.0588022
5 2 100 21 0.108671
7 2 100 21 0.0931105
8 2 100 21 0.0529952
9 2 100 21 0.0522517
10 2 100 21 0.0529861
17 2 100 21 0.105928
18 2 100 21 0.0616187
1 3 100 21 0.218505
2 3 100 21 0.0944226
4 3 100 21 0.309997
5 3 100 21 0.209785
6 3 100 21 0.0347147
18 3 100 21 0.0680968
20 3 100 21 0.0644787
2 4 100 21 0.122581
3 4 100 21 0.0784675
4 4 100 21 0.0867217
5 4 100 21 0.129902
6 4 100 21 0.120086
7 4 100 21 0.125395
8 4 100 21 0.084516
10 4 100 21 0.042578
14 4 100 21 0.0419498
15 4 100 21 0.125284
17 4 100 21 0.0419687
19 4 100 21 0.000103921
20 4 100 21 0.000440818
21 4 100 21 6.6818e-06
7 5 100 21 0.0345287
9 5 100 21 0.482925
13 5 100 21 0.22025
14 5 100 21 0.245056
16 5 100 21 2.82239e-06
17 5 100 21 0.0172376
2 6 100 21 0.0514592
3 6 100 21 0.0964247
4 6 100 21 0.0242624
5 6 100 21 5.43112e-06
6 6 100 21 0.0487168
7 6 100 21 0.0763982
8 6 100 21 0.121629
9 6 100 21 0.099995
10 6 100 21 0.0481247
11 6 100 21 0.0730507
12 6 100 21 0.0474522
14 6 100 21 0.0220822
15 6 100 21 0.0479729
16 6 100 21 0.0483396
17 6 100 21 0.0243001
18 6 100 21 0.0485811
19 6 100 21 0.0496651
20 6 100 21 0.0251773
21 6 100 21 0.0463632
4 7 100 21 0.00903649
5 7 100 21 0.2316
6 7 100 21 0.0795887
7 7 100 21 0.0186722
8 7 100 21 9.19719e-05
11 7 100 21 1.19941e-05
12 7 100 21 0.0615432
13 7 100 21 0.0609316
14 7 100 21 0.0739629
15 7 100 21 5.52557e-06
18 7 100 21 0.144949
20 7 100 21 0.232819
21 7 100 21 0.0867882
4 8 100 21 0.0487245
5 8 100 21 0.0424809
8 8 100 21 0.105246
9 8 100 21 0.152539
10 8 100 21 0.000206984
11 8 100 21 0.108755
12 8 100 21 0.109882
13 8 100 21 0.0550813
15 8 100 21 0.0560112
16 8 100 21 0.0543505
18 8 100 21 0.0522636
19 8 100 21 0.100641
20 8 100 21 3.24902e-05
21 8 100 21 0.113785
3 9 100 21 3.1424e-06
8 9 100 21 2.22417e-06
10 9 100 21 0.0699359
11 9 100 21 0.0836077
12 9 100 21 0.0687664
16 9 100 21 0.20665
17 9 100 21 0.137843
18 9 100 21 0.0101686
19 9 100 21 0.198855
20 9 100 21 0.0869369
21 9 100 21 0.137231
1 10 100 21 0.0870209
4 10 100 21 0.0900684
5 10 100 21 0.0683177
7 10 100 21 0.0835263
8 10 100 21 1.60029e-06
9 10 100 21 0.0855244
10 10 100 21 0.0658625
11 10 100 21 0.0816729
12 10 100 21 0.163578
13 10 100 21 0.000153931
16 10 100 21 0.0834945
17 10 100 21 0.0834471
18 10 100 21 0.107324
21 10 100 21 7.29835e-06
5 11 100 21 1.27865e-05
6 11 100 21 0.090273
7 11 100 21 0.0899678
8 11 100 21 1.74679e-05
10 11 100 21 0.195913
13 11 100 21 0.173492
14 11 100 21 0.0899835
15 11 100 21 0.0903809
16 11 100 21 0.179362
18 11 100 21 0.0905975
4 12 100 21 0.0328505
5 12 100 21 0.0316977
6 12 100 21 0.0339393
9 12 100 21 0.0335501
10 12 100 21 0.100609
11 12 100 21 0.153286
12 12 100 21 0.167646
13 12 100 21 0.100733
14 12 100 21 0.0672596
15 12 100 21 0.0670994
16 12 100 21 0.000873045
19 12 100 21 0.100652
20 12 100 21 0.0734251
21 12 100 21 0.03638
2 13 100 21 0.0555619
3 13 100 21 0.0631601
4 13 100 21 0.0570669
7 13 100 21 0.103386
