0 1 1 100 4.0554e-05
1 1 1 100 0.999959
0 2 1 100 0.226976
1 2 1 100 0.773024
0 3 1 100 0.34512
1 3 1 100 0.65488
0 4 1 100 0.370551
1 4 1 100 0.629449
0 5 1 100 0.327336
1 5 1 100 0.672664
0 6 1 100 0.388471
1 6 1 100 0.611529
0 7 1 100 0.45089
1 7 1 100 0.54911
0 8 1 100 0.253623
1 8 1 100 0.746377
0 9 1 100 0.0523394
1 9 1 100 0.947661
0 1 2 100 0.00226307
1 1 2 100 0.800945
2 1 2 100 0.196792
0 2 2 100 0.127401
1 2 2 100 0.37123
2 2 2 100 0.501368
0 3 2 100 0.200172
1 3 2 100 0.326903
2 3 2 100 0.472925
0 4 2 100 0.291895
1 4 2 100 0.276308
2 4 2 100 0.431797
0 5 2 100 0.308794
1 5 2 100 0.281586
2 5 2 100 0.40962
0 6 2 100 0.219482
1 6 2 100 0.340959
2 6 2 100 0.43956
0 7 2 100 0.359854
1 7 2 100 0.242413
2 7 2 100 0.397733
0 8 2 100 0.272579
1 8 2 100 0.282304
2 8 2 100 0.445117
0 9 2 100 0.365145
1 9 2 100 0.201493
2 9 2 100 0.433363
0 10 2 100 0.186321
1 10 2 100 0.387886
2 10 2 100 0.425793
0 11 2 100 0.415696
1 11 2 100 0.26263
2 11 2 100 0.321674
0 12 2 100 0.181874
1 12 2 100 0.181935
2 12 2 100 0.636191
0 13 2 100 0.333797
1 13 2 100 0.247082
2 13 2 100 0.419121
0 14 2 100 0.617881
1 14 2 100 0.00359953
2 14 2 100 0.378519
0 15 2 100 0.0276091
1 15 2 100 0.341341
2 15 2 100 0.63105
0 16 2 100 0.440041
1 16 2 100 0.500975
2 16 2 100 0.0589836
1 17 2 100 1
0 1 3 100 0.0150627
1 1 3 100 0.608069
2 1 3 100 0.242595
3 1 3 100 0.134273
0 2 3 100 0.0710308
1 2 3 100 0.231664
2 2 3 100 0.377121
3 2 3 100 0.320184
0 3 3 100 0.176668
1 3 3 100 0.192816
2 3 3 100 0.269481
3 3 3 100 0.361035
0 4 3 100 0.292032
1 4 3 100 0.168864
2 4 3 100 0.224242
3 4 3 100 0.314863
0 5 3 100 0.328658
1 5 3 100 0.172317
2 5 3 100 0.186104
3 5 3 100 0.312921
0 6 3 100 0.296351
1 6 3 100 0.190502
2 6 3 100 0.220874
3 6 3 100 0.292273
0 7 3 100 0.254156
1 7 3 100 0.207574
2 7 3 100 0.214068
3 7 3 100 0.324202
0 8 3 100 0.263926
1 8 3 100 0.222654
2 8 3 100 0.220151
3 8 3 100 0.293269
0 9 3 100 0.269202
1 9 3 100 0.215996
2 9 3 100 0.190128
3 9 3 100 0.324674
0 10 3 100 0.261308
1 10 3 100 0.18786
2 10 3 100 0.231169
3 10 3 100 0.319663
0 11 3 100 0.266529
1 11 3 100 0.185093
2 11 3 100 0.189869
3 11 3 100 0.358509
0 12 3 100 0.293115
1 12 3 100 0.183858
2 12 3 100 0.157116
3 12 3 100 0.365911
0 13 3 100 0.401587
1 13 3 100 0.20764
2 13 3 100 0.0764964
3 13 3 100 0.314276
0 14 3 100 0.48813
1 14 3 100 0.12191
2 14 3 100 0.151033
3 14 3 100 0.238926
0 15 3 100 0.457586
1 15 3 100 0.0629086
2 15 3 100 0.152409
3 15 3 100 0.327096
0 16 3 100 0.324088
1 16 3 100 0.342059
2 16 3 100 0.000335434
3 16 3 100 0.333517
0 17 3 100 0.198559
1 17 3 100 0.401442
3 17 3 100 0.399999
0 18 3 100 0.24753
1 18 3 100 0.333272
2 18 3 100 4.18636e-06
3 18 3 100 0.419194
0 19 3 100 0.27645
1 19 3 100 0.499935
2 19 3 100 6.03805e-06
3 19 3 100 0.223609
0 20 3 100 0.999059
1 20 3 100 0.000940577
0 1 4 100 0.0415653
1 1 4 100 0.527254
2 1 4 100 0.1935
3 1 4 100 0.137616
4 1 4 100 0.100065
0 2 4 100 0.0687931
1 2 4 100 0.194177
2 2 4 100 0.351855
3 2 4 100 0.194452
4 2 4 100 0.190723
0 3 4 100 0.152671
1 3 4 100 0.117404
2 3 4 100 0.201754
3 3 4 100 0.280445
4 3 4 100 0.247726
0 4 4 100 0.225953
1 4 4 100 0.107594
2 4 4 100 0.148644
3 4 4 100 0.22891
4 4 4 100 0.288899
0 5 4 100 0.315771
1 5 4 100 0.104974
2 5 4 100 0.133869
3 5 4 100 0.171168
4 5 4 100 0.274218
0 6 4 100 0.343946
1 6 4 100 0.108733
2 6 4 100 0.12938
3 6 4 100 0.163051
4 6 4 100 0.25489
0 7 4 100 0.303578
1 7 4 100 0.119155
2 7 4 100 0.151444
3 7 4 100 0.171725
4 7 4 100 0.254098
0 8 4 100 0.296822
1 8 4 100 0.0970396
2 8 4 100 0.181307
3 8 4 100 0.16997
4 8 4 100 0.254861
0 9 4 100 0.270501
1 9 4 100 0.100164
2 9 4 100 0.141373
3 9 4 100 0.21855
4 9 4 100 0.269413
0 10 4 100 0.277481
1 10 4 100 0.108499
2 10 4 100 0.178988
3 10 4 100 0.168138
4 10 4 100 0.266894
0 11 4 100 0.229644
1 11 4 100 0.0923352
2 11 4 100 0.206283
3 11 4 100 0.189395
4 11 4 100 0.282343
0 12 4 100 0.32033
1 12 4 100 0.0802474
2 12 4 100 0.202957
3 12 4 100 0.133025
4 12 4 100 0.263441
0 13 4 100 0.237755
1 13 4 100 0.146046
2 13 4 100 0.225981
3 13 4 100 0.156087
4 13 4 100 0.234131
0 14 4 100 0.49047
1 14 4 100 0.0360699
2 14 4 100 0.250051
3 14 4 100 0.0894271
4 14 4 100 0.133982
0 15 4 100 0.230981
1 15 4 100 0.109375
2 15 4 100 0.279057
3 15 4 100 0.0965593
4 15 4 100 0.284027
0 16 4 100 0.483224
1 16 4 100 0.0780419
2 16 4 100 0.18766
3 16 4 100 0.125862
4 16 4 100 0.125212
0 17 4 100 0.155622
1 17 4 100 0.0549334
2 17 4 100 0.300701
3 17 4 100 0.153822
4 17 4 100 0.334922
0 18 4 100 0.331614
1 18 4 100 0.226379
2 18 4 100 0.00547129
3 18 4 100 0.214194
4 18 4 100 0.222342
0 19 4 100 0.499412
2 19 4 100 0.25
4 19 4 100 0.250588
0 20 4 100 0.0650133
1 20 4 100 0.691937
3 20 4 100 3.83772e-06
4 20 4 100 0.243046
0 21 4 100 0.335255
2 21 4 100 0.331415
4 21 4 100 0.33333
0 22 4 100 0.993762
1 22 4 100 0.00623766
0 1 5 100 0.0742751
1 1 5 100 0.504763
2 1 5 100 0.139792
3 1 5 100 0.123103
4 1 5 100 0.0795223
5 1 5 100 0.0785449
0 2 5 100 0.069875
1 2 5 100 0.191075
2 2 5 100 0.282339
3 2 5 100 0.182355
4 2 5 100 0.125371
5 2 5 100 0.148985
0 3 5 100 0.133805
1 3 5 100 0.0978828
2 3 5 100 0.155637
3 3 5 100 0.253724
4 3 5 100 0.181987
5 3 5 100 0.176963
0 4 5 100 0.194894
1 4 5 100 0.0750994
2 4 5 100 0.11131
3 4 5 100 0.191318
4 4 5 100 0.214872
5 4 5 100 0.212507
0 5 5 100 0.272816
1 5 5 100 0.0713766
2 5 5 100 0.087147
3 5 5 100 0.143296
4 5 5 100 0.192233
5 5 5 100 0.233131
0 6 5 100 0.334077
1 6 5 100 0.0655351
2 6 5 100 0.0883802
3 6 5 100 0.124832
4 6 5 100 0.149596
5 6 5 100 0.237579
0 7 5 100 0.319865
1 7 5 100 0.0824628
2 7 5 100 0.0888602
3 7 5 100 0.135913
4 7 5 100 0.143793
5 7 5 100 0.229106
0 8 5 100 0.285801
1 8 5 100 0.0919172
2 8 5 100 0.105345
3 8 5 100 0.123304
4 8 5 100 0.140592
5 8 5 100 0.253042
0 9 5 100 0.293134
1 9 5 100 0.106982
2 9 5 100 0.0916049
3 9 5 100 0.129583
4 9 5 100 0.157887
5 9 5 100 0.220808
0 10 5 100 0.278333
1 10 5 100 0.116692
2 10 5 100 0.0812498
3 10 5 100 0.140937
4 10 5 100 0.149359
5 10 5 100 0.233428
0 11 5 100 0.306766
1 11 5 100 0.129475
2 11 5 100 0.08748
3 11 5 100 0.1121
4 11 5 100 0.132473
5 11 5 100 0.231706
0 12 5 100 0.322727
1 12 5 100 0.129001
2 12 5 100 0.0619017
3 12 5 100 0.147302
4 12 5 100 0.122674
5 12 5 100 0.216394
0 13 5 100 0.292589
1 13 5 100 0.0951338
2 13 5 100 0.0727721
3 13 5 100 0.133575
4 13 5 100 0.172733
5 13 5 100 0.233198
0 14 5 100 0.320463
1 14 5 100 0.129061
2 14 5 100 0.0557124
3 14 5 100 0.100929
4 14 5 100 0.168291
5 14 5 100 0.225543
0 15 5 100 0.353294
1 15 5 100 0.111185
2 15 5 100 0.0373089
3 15 5 100 0.140055
4 15 5 100 0.136949
5 15 5 100 0.221209
0 16 5 100 0.252324
1 16 5 100 0.10904
2 16 5 100 0.047704
3 16 5 100 0.185639
4 16 5 100 0.209262
5 16 5 100 0.196032
0 17 5 100 0.540231
1 17 5 100 0.0332678
2 17 5 100 0.0780634
3 17 5 100 0.195568
4 17 5 100 0.0782292
5 17 5 100 0.074641
0 18 5 100 0.41372
1 18 5 100 0.285883
2 18 5 100 0.00159236
3 18 5 100 0.143378
4 18 5 100 3.61821e-06
5 18 5 100 0.155423
3 19 5 100 1
0 20 5 100 0.0183277
3 20 5 100 0.981672
0 21 5 100 0.498113
3 21 5 100 0.499992
5 21 5 100 0.00189486
0 22 5 100 0.00370148
3 22 5 100 0.4963
5 22 5 100 0.499999
0 23 5 100 0.108056
1 23 5 100 0.5
5 23 5 100 0.391944
0 24 5 100 7.47748e-05
2 24 5 100 0.999558
3 24 5 100 0.00036735
1 25 5 100 1
0 26 5 100 1.72946e-05
2 26 5 100 0.999983
5 27 5 100 1
0 28 5 100 0.895895
3 28 5 100 0.104105
0 1 6 100 0.0929119
1 1 6 100 0.530589
2 1 6 100 0.101502
3 1 6 100 0.0944711
4 1 6 100 0.0724858
5 1 6 100 0.0496494
6 1 6 100 0.0583914
0 2 6 100 0.064429
1 2 6 100 0.181081
2 2 6 100 0.286816
3 2 6 100 0.149474
4 2 6 100 0.117542
5 2 6 100 0.099947
6 2 6 100 0.100712
0 3 6 100 0.13365
1 3 6 100 0.0971994
2 3 6 100 0.121795
3 3 6 100 0.217355
4 3 6 100 0.160305
5 3 6 100 0.144665
6 3 6 100 0.125029
0 4 6 100 0.151929
1 4 6 100 0.0661271
2 4 6 100 0.0971071
3 4 6 100 0.157644
4 4 6 100 0.183327
5 4 6 100 0.162801
6 4 6 100 0.181065
0 5 6 100 0.242179
1 5 6 100 0.0584345
2 5 6 100 0.0707811
3 5 6 100 0.121166
4 5 6 100 0.153895
5 5 6 100 0.166711
6 5 6 100 0.186833
0 6 6 100 0.257914
1 6 6 100 0.054072
2 6 6 100 0.0759459
3 6 6 100 0.103213
4 6 6 100 0.127047
5 6 6 100 0.176953
6 6 6 100 0.204855
0 7 6 100 0.305472
1 7 6 100 0.0555641
2 7 6 100 0.0689175
3 7 6 100 0.0881334
4 7 6 100 0.112254
5 7 6 100 0.144808
6 7 6 100 0.224851
0 8 6 100 0.287291
1 8 6 100 0.0629503
2 8 6 100 0.0769653
3 8 6 100 0.107884
4 8 6 100 0.111825
5 8 6 100 0.135936
6 8 6 100 0.217148
0 9 6 100 0.312119
1 9 6 100 0.0719004
2 9 6 100 0.0748803
3 9 6 100 0.112611
4 9 6 100 0.113398
5 9 6 100 0.128043
6 9 6 100 0.18705
0 10 6 100 0.242542
1 10 6 100 0.0798207
2 10 6 100 0.0884471
3 10 6 100 0.123274
4 10 6 100 0.134017
5 10 6 100 0.121585
6 10 6 100 0.210315
0 11 6 100 0.252686
1 11 6 100 0.0917153
2 11 6 100 0.10074
3 11 6 100 0.0953333
4 11 6 100 0.128076
5 11 6 100 0.134232
6 11 6 100 0.197218
0 12 6 100 0.24552
1 12 6 100 0.0923768
2 12 6 100 0.0805993
3 12 6 100 0.0959482
4 12 6 100 0.125387
5 12 6 100 0.144478
6 12 6 100 0.215692
0 13 6 100 0.294579
1 13 6 100 0.0580932
2 13 6 100 0.061254
3 13 6 100 0.0960216
4 13 6 100 0.0994079
5 13 6 100 0.156221
6 13 6 100 0.234423
0 14 6 100 0.267429
1 14 6 100 0.086618
2 14 6 100 0.095746
3 14 6 100 0.0940667
4 14 6 100 0.092571
5 14 6 100 0.138403
6 14 6 100 0.225166
0 15 6 100 0.233552
1 15 6 100 0.0609735
2 15 6 100 0.0584043
3 15 6 100 0.0764024
4 15 6 100 0.141208
5 15 6 100 0.191042
6 15 6 100 0.238418
0 16 6 100 0.232142
1 16 6 100 0.075919
2 16 6 100 0.0191765
3 16 6 100 0.196124
4 16 6 100 0.0851043
5 16 6 100 0.126168
6 16 6 100 0.265367
0 17 6 100 0.136024
1 17 6 100 0.104057
2 17 6 100 0.0274307
3 17 6 100 0.198703
4 17 6 100 0.116456
5 17 6 100 0.214358
6 17 6 100 0.202971
0 18 6 100 0.18883
1 18 6 100 0.177443
2 18 6 100 0.0454546
3 18 6 100 0.0999747
4 18 6 100 0.0822305
5 18 6 100 0.00511208
6 18 6 100 0.400956
0 19 6 100 0.369849
1 19 6 100 0.0734311
2 19 6 100 0.222913
3 19 6 100 0.133351
4 19 6 100 0.0652162
5 19 6 100 0.0681997
6 19 6 100 0.0670405
0 20 6 100 0.625966
1 20 6 100 2.48076e-05
2 20 6 100 0.000126215
3 20 6 100 0.142858
4 20 6 100 0.144699
5 20 6 100 0.000118419
6 20 6 100 0.0862084
0 21 6 100 0.25
4 21 6 100 0.25
5 21 6 100 0.25
6 21 6 100 0.25
0 22 6 100 0.457819
1 22 6 100 5.17522e-06
2 22 6 100 0.25
3 22 6 100 0.0420228
5 22 6 100 0.250153
0 23 6 100 9.77709e-06
1 23 6 100 0.000667677
3 23 6 100 0.49999
5 23 6 100 0.499332
0 24 6 100 0.0733807
2 24 6 100 1.07955e-05
3 24 6 100 0.926596
5 24 6 100 1.21658e-05
0 25 6 100 0.5
3 25 6 100 0.5
3 26 6 100 0.5
5 26 6 100 0.5
3 27 6 100 0.5
5 27 6 100 0.5
3 28 6 100 0.5
5 28 6 100 0.5
0 29 6 100 0.915266
1 29 6 100 0.0645241
4 29 6 100 0.00966063
6 29 6 100 0.0105496
0 1 7 100 0.10089
1 1 7 100 0.558784
2 1 7 100 0.0924291
3 1 7 100 0.0790077
4 1 7 100 0.0497637
5 1 7 100 0.039642
6 1 7 100 0.0347354
7 1 7 100 0.044747
0 2 7 100 0.0648666
1 2 7 100 0.17243
2 2 7 100 0.279449
3 2 7 100 0.148811
4 2 7 100 0.093593
5 2 7 100 0.0795129
6 2 7 100 0.0778029
7 2 7 100 0.0835355
0 3 7 100 0.135605
1 3 7 100 0.082171
2 3 7 100 0.107681
3 3 7 100 0.215426
4 3 7 100 0.143132
5 3 7 100 0.120525
6 3 7 100 0.100774
7 3 7 100 0.0946859
0 4 7 100 0.154727
1 4 7 100 0.0575633
2 4 7 100 0.0801058
3 4 7 100 0.133814
4 4 7 100 0.161384
5 4 7 100 0.1558
6 4 7 100 0.124841
7 4 7 100 0.131765
0 5 7 100 0.19193
1 5 7 100 0.0485535
2 5 7 100 0.0659705
3 5 7 100 0.107056
4 5 7 100 0.12662
5 5 7 100 0.147581
6 5 7 100 0.157271
7 5 7 100 0.155019
0 6 7 100 0.243054
1 6 7 100 0.0399936
2 6 7 100 0.0581164
3 6 7 100 0.0828822
4 6 7 100 0.105046
5 6 7 100 0.130898
6 6 7 100 0.160317
7 6 7 100 0.179693
0 7 7 100 0.278234
1 7 7 100 0.0386044
2 7 7 100 0.0411055
3 7 7 100 0.08086
4 7 7 100 0.0873767
5 7 7 100 0.117694
6 7 7 100 0.150303
7 7 7 100 0.205822
0 8 7 100 0.319867
1 8 7 100 0.0484279
2 8 7 100 0.0591603
3 8 7 100 0.0762594
4 8 7 100 0.0922882
5 8 7 100 0.101483
6 8 7 100 0.134809
7 8 7 100 0.167705
0 9 7 100 0.300382
1 9 7 100 0.0498392
2 9 7 100 0.0599437
3 9 7 100 0.0798729
4 9 7 100 0.097281
5 9 7 100 0.104344
6 9 7 100 0.123748
7 9 7 100 0.184589
0 10 7 100 0.278392
1 10 7 100 0.0633603
2 10 7 100 0.0526912
3 10 7 100 0.100897
4 10 7 100 0.0900527
5 10 7 100 0.107183
6 10 7 100 0.139742
7 10 7 100 0.167682
0 11 7 100 0.310137
1 11 7 100 0.0571486
2 11 7 100 0.0611761
3 11 7 100 0.072933
4 11 7 100 0.0848439
5 11 7 100 0.107809
6 11 7 100 0.113978
7 11 7 100 0.191974
0 12 7 100 0.273467
1 12 7 100 0.0660737
2 12 7 100 0.0471796
3 12 7 100 0.0923671
4 12 7 100 0.083249
5 12 7 100 0.130797
6 12 7 100 0.127828
7 12 7 100 0.179038
0 13 7 100 0.31692
1 13 7 100 0.0584017
2 13 7 100 0.0566376
3 13 7 100 0.0686522
4 13 7 100 0.105399
5 13 7 100 0.0866131
6 13 7 100 0.10325
7 13 7 100 0.204126
0 14 7 100 0.192101
1 14 7 100 0.0661104
2 14 7 100 0.058613
3 14 7 100 0.0770828
4 14 7 100 0.0744327
5 14 7 100 0.117822
6 14 7 100 0.123598
7 14 7 100 0.29024
0 15 7 100 0.328016
1 15 7 100 0.0529366
2 15 7 100 0.0694618
3 15 7 100 0.0664892
4 15 7 100 0.0482021
5 15 7 100 0.123439
6 15 7 100 0.121839
7 15 7 100 0.189616
0 16 7 100 0.308122
1 16 7 100 0.0287192
2 16 7 100 0.0403743
3 16 7 100 0.0771666
4 16 7 100 0.105942
5 16 7 100 0.100513
6 16 7 100 0.150628
7 16 7 100 0.188534
0 17 7 100 0.228384
1 17 7 100 0.000297157
2 17 7 100 0.0238369
3 17 7 100 0.0676428
4 17 7 100 0.131214
5 17 7 100 0.0931366
6 17 7 100 0.232988
7 17 7 100 0.2225
0 18 7 100 0.312419
1 18 7 100 0.120218
2 18 7 100 0.000103747
3 18 7 100 0.0017804
4 18 7 100 0.206373
5 18 7 100 0.0418451
6 18 7 100 0.147743
7 18 7 100 0.169517
0 19 7 100 0.353357
1 19 7 100 9.32483e-06
2 19 7 100 0.000376902
3 19 7 100 0.150303
4 19 7 100 0.0625032
5 19 7 100 0.0625017
6 19 7 100 0.182577
7 19 7 100 0.188372
0 20 7 100 0.655949
1 20 7 100 2.45421e-06
3 20 7 100 2.3285e-06
4 20 7 100 0.16925
5 20 7 100 0.166667
6 20 7 100 6.65261e-05
7 20 7 100 0.00806234
5 21 7 100 0.500001
7 21 7 100 0.5
0 22 7 100 0.999924
3 22 7 100 6.86766e-05
5 22 7 100 7.12423e-06
0 23 7 100 0.5
5 23 7 100 0.5
5 24 7 100 1
0 25 7 100 0.500475
5 25 7 100 0.499525
5 26 7 100 1
5 27 7 100 1
0 28 7 100 0.999299
3 28 7 100 0.000701156
0 1 8 100 0.101022
1 1 8 100 0.561372
2 1 8 100 0.0759933
3 1 8 100 0.0654976
4 1 8 100 0.0471054
5 1 8 100 0.0432723
6 1 8 100 0.0329078
7 1 8 100 0.0291538
8 1 8 100 0.0436761
0 2 8 100 0.0708651
1 2 8 100 0.157275
2 2 8 100 0.269714
3 2 8 100 0.133171
4 2 8 100 0.084327
5 2 8 100 0.0712942
6 2 8 100 0.0614442
7 2 8 100 0.0704446
8 2 8 100 0.081465
0 3 8 100 0.133418
1 3 8 100 0.0754137
2 3 8 100 0.108908
3 3 8 100 0.193681
4 3 8 100 0.134756
5 3 8 100 0.101221
6 3 8 100 0.0877558
7 3 8 100 0.079315
8 3 8 100 0.085532
0 4 8 100 0.153322
1 4 8 100 0.0504639
2 4 8 100 0.0685178
3 4 8 100 0.126971
4 4 8 100 0.14514
5 4 8 100 0.136967
6 4 8 100 0.122547
7 4 8 100 0.0921633
8 4 8 100 0.103909
0 5 8 100 0.182232
1 5 8 100 0.0430836
2 5 8 100 0.0500615
3 5 8 100 0.0811802
4 5 8 100 0.120949
5 5 8 100 0.144637
6 5 8 100 0.135491
7 5 8 100 0.111699
8 5 8 100 0.130666
0 6 8 100 0.221376
1 6 8 100 0.0403184
2 6 8 100 0.0400711
3 6 8 100 0.0671548
4 6 8 100 0.086288
5 6 8 100 0.119724
6 6 8 100 0.137658
7 6 8 100 0.127903
8 6 8 100 0.159507
0 7 8 100 0.24941
1 7 8 100 0.0413627
2 7 8 100 0.0369515
3 7 8 100 0.062747
4 7 8 100 0.0757451
5 7 8 100 0.0914821
6 7 8 100 0.121213
7 7 8 100 0.14813
8 7 8 100 0.172958
0 8 8 100 0.291451
1 8 8 100 0.0366901
2 8 8 100 0.0416988
3 8 8 100 0.0554032
4 8 8 100 0.0655985
5 8 8 100 0.0919059
6 8 8 100 0.109238
7 8 8 100 0.126155
8 8 8 100 0.181861
0 9 8 100 0.303705
1 9 8 100 0.0425645
2 9 8 100 0.0516784
3 9 8 100 0.065251
4 9 8 100 0.0593483
5 9 8 100 0.0840756
6 9 8 100 0.099536
7 9 8 100 0.120158
8 9 8 100 0.173683
0 10 8 100 0.296217
1 10 8 100 0.0483353
2 10 8 100 0.0607975
3 10 8 100 0.0587072
4 10 8 100 0.0636371
5 10 8 100 0.0761453
6 10 8 100 0.0979898
7 10 8 100 0.115973
8 10 8 100 0.182197
0 11 8 100 0.236875
1 11 8 100 0.0518961
2 11 8 100 0.0830028
3 11 8 100 0.058031
4 11 8 100 0.0935456
5 11 8 100 0.0642689
6 11 8 100 0.0819924
7 11 8 100 0.123725
8 11 8 100 0.206664
0 12 8 100 0.297415
1 12 8 100 0.05672
2 12 8 100 0.0568128
3 12 8 100 0.0615615
4 12 8 100 0.0811491
5 12 8 100 0.0928927
6 12 8 100 0.0828614
7 12 8 100 0.113152
8 12 8 100 0.157436
0 13 8 100 0.262858
1 13 8 100 0.0565013
2 13 8 100 0.0535162
3 13 8 100 0.0680379
4 13 8 100 0.0954423
5 13 8 100 0.0736044
6 13 8 100 0.0952127
7 13 8 100 0.122311
8 13 8 100 0.172517
0 14 8 100 0.316518
1 14 8 100 0.0353222
2 14 8 100 0.0496229
3 14 8 100 0.0414197
4 14 8 100 0.0742719
5 14 8 100 0.0921272
6 14 8 100 0.0753593
7 14 8 100 0.117586
8 14 8 100 0.197773
0 15 8 100 0.254385
1 15 8 100 0.053117
2 15 8 100 0.0555672
3 15 8 100 0.0443113
4 15 8 100 0.055957
5 15 8 100 0.1288
6 15 8 100 0.0775681
7 15 8 100 0.204187
8 15 8 100 0.126107
0 16 8 100 0.295162
1 16 8 100 0.0408895
2 16 8 100 0.0407201
3 16 8 100 0.0384747
4 16 8 100 0.0692841
5 16 8 100 0.0778239
6 16 8 100 0.107469
7 16 8 100 0.15828
8 16 8 100 0.171897
0 17 8 100 0.278212
1 17 8 100 0.0311295
2 17 8 100 0.115149
3 17 8 100 0.0519693
4 17 8 100 0.0387825
5 17 8 100 0.0224375
6 17 8 100 0.17234
7 17 8 100 0.0790021
8 17 8 100 0.210978
0 18 8 100 0.285318
1 18 8 100 0.00427158
2 18 8 100 0.0631802
3 18 8 100 0.0506625
4 18 8 100 0.0352019
5 18 8 100 0.0430032
6 18 8 100 0.270446
7 18 8 100 0.0977902
8 18 8 100 0.150126
0 19 8 100 0.2845
1 19 8 100 8.02112e-07
2 19 8 100 0.0555999
4 19 8 100 0.111527
5 19 8 100 0.0556956
6 19 8 100 0.214682
7 19 8 100 0.111346
8 19 8 100 0.166648
0 20 8 100 0.386752
1 20 8 100 0.00156764
2 20 8 100 0.0287622
3 20 8 100 1.35442e-06
5 20 8 100 0.0833335
6 20 8 100 0.250524
7 20 8 100 0.0833329
8 20 8 100 0.165726
0 21 8 100 0.204037
1 21 8 100 4.83844e-06
2 21 8 100 0.0018308
3 21 8 100 4.51264e-06
4 21 8 100 0.00141363
5 21 8 100 0.240626
6 21 8 100 0.222079
7 21 8 100 0.222196
8 21 8 100 0.107808
0 22 8 100 0.222507
4 22 8 100 0.0260658
5 22 8 100 0.124971
6 22 8 100 0.374981
7 22 8 100 0.01108
8 22 8 100 0.240395
0 23 8 100 0.249463
2 23 8 100 0.000116161
6 23 8 100 0.750359
7 23 8 100 6.20858e-05
0 24 8 100 1.05973e-05
6 24 8 100 0.500002
8 24 8 100 0.499988
0 25 8 100 0.5
6 25 8 100 0.5
0 26 8 100 1
0 1 9 100 0.103962
1 1 9 100 0.582188
2 1 9 100 0.0660125
3 1 9 100 0.0545027
4 1 9 100 0.0417385
5 1 9 100 0.0405092
6 1 9 100 0.0280067
7 1 9 100 0.0239716
8 1 9 100 0.0261254
9 1 9 100 0.0329837
0 2 9 100 0.0710399
1 2 9 100 0.146153
2 2 9 100 0.250757
3 2 9 100 0.138611
4 2 9 100 0.0742863
5 2 9 100 0.0685225
6 2 9 100 0.0518612
7 2 9 100 0.0696336
8 2 9 100 0.0672139
9 2 9 100 0.0619222
0 3 9 100 0.132346
1 3 9 100 0.0677631
2 3 9 100 0.0948095
3 3 9 100 0.197028
4 3 9 100 0.118212
5 3 9 100 0.0965288
6 3 9 100 0.0713238
7 3 9 100 0.0800318
8 3 9 100 0.0715844
9 3 9 100 0.0703725
0 4 9 100 0.140269
1 4 9 100 0.0468636
2 4 9 100 0.0602357
3 4 9 100 0.112682
4 4 9 100 0.13905
5 4 9 100 0.136485
6 4 9 100 0.104657
7 4 9 100 0.103468
8 4 9 100 0.0805993
9 4 9 100 0.0756896
0 5 9 100 0.185259
1 5 9 100 0.0366513
2 5 9 100 0.0448482
3 5 9 100 0.0751142
4 5 9 100 0.101939
5 5 9 100 0.130139
6 5 9 100 0.118559
7 5 9 100 0.120336
8 5 9 100 0.090877
9 5 9 100 0.0962773
0 6 9 100 0.199883
1 6 9 100 0.0378126
2 6 9 100 0.0399949
3 6 9 100 0.0771582
4 6 9 100 0.070449
5 6 9 100 0.110593
6 6 9 100 0.107374
7 6 9 100 0.123906
8 6 9 100 0.112883
9 6 9 100 0.119946
0 7 9 100 0.23189
1 7 9 100 0.0376203
2 7 9 100 0.0292745
3 7 9 100 0.0517073
4 7 9 100 0.0586362
5 7 9 100 0.0897277
6 7 9 100 0.106069
7 7 9 100 0.13548
8 7 9 100 0.123911
9 7 9 100 0.135684
0 8 9 100 0.238218
1 8 9 100 0.0427508
2 8 9 100 0.0333955
3 8 9 100 0.0467928
4 8 9 100 0.0596471
5 8 9 100 0.0859612
6 8 9 100 0.081256
7 8 9 100 0.116855
8 8 9 100 0.134545
9 8 9 100 0.160579
0 9 9 100 0.26732
1 9 9 100 0.0417053
2 9 9 100 0.0387455
3 9 9 100 0.0530303
4 9 9 100 0.0422027
5 9 9 100 0.0755097
6 9 9 100 0.0727022
7 9 9 100 0.114416
8 9 9 100 0.134465
9 9 9 100 0.159903
0 10 9 100 0.276923
1 10 9 100 0.0516607
2 10 9 100 0.0375992
3 10 9 100 0.0530573
4 10 9 100 0.0500077
5 10 9 100 0.0590411
6 10 9 100 0.0754142
7 10 9 100 0.102409
8 10 9 100 0.123738
9 10 9 100 0.170151
0 11 9 100 0.298099
1 11 9 100 0.0548271
2 11 9 100 0.0439723
3 11 9 100 0.0624705
4 11 9 100 0.0507115
5 11 9 100 0.0581624
6 11 9 100 0.0793944
7 11 9 100 0.0910114
8 11 9 100 0.110069
9 11 9 100 0.151283
0 12 9 100 0.307956
1 12 9 100 0.0577996
2 12 9 100 0.0505972
3 12 9 100 0.0538428
4 12 9 100 0.0490812
5 12 9 100 0.0619538
6 12 9 100 0.0732349
7 12 9 100 0.0712704
8 12 9 100 0.110657
9 12 9 100 0.163607
0 13 9 100 0.277992
1 13 9 100 0.0558942
2 13 9 100 0.057972
3 13 9 100 0.0328966
4 13 9 100 0.064318
5 13 9 100 0.0577088
6 13 9 100 0.086344
7 13 9 100 0.0931237
8 13 9 100 0.0940142
9 13 9 100 0.179736
0 14 9 100 0.236075
1 14 9 100 0.0840219
2 14 9 100 0.0777773
3 14 9 100 0.0493593
4 14 9 100 0.0844163
5 14 9 100 0.0740397
6 14 9 100 0.081794
7 14 9 100 0.0681285
8 14 9 100 0.12433
9 14 9 100 0.120058
0 15 9 100 0.323276
1 15 9 100 0.050614
2 15 9 100 0.0671363
3 15 9 100 0.0367955
4 15 9 100 0.066788
5 15 9 100 0.0680002
6 15 9 100 0.0866597
7 15 9 100 0.0850905
8 15 9 100 0.0892077
9 15 9 100 0.126432
0 16 9 100 0.238997
1 16 9 100 0.0673242
2 16 9 100 0.0903054
3 16 9 100 0.0246935
4 16 9 100 0.0629668
5 16 9 100 0.0253003
6 16 9 100 0.109111
7 16 9 100 0.082224
8 16 9 100 0.0981675
9 16 9 100 0.20091
0 17 9 100 0.312515
1 17 9 100 0.051664
2 17 9 100 0.0824467
3 17 9 100 0.000116823
4 17 9 100 0.0874032
5 17 9 100 0.0377372
6 17 9 100 0.0970974
7 17 9 100 0.0865086
8 17 9 100 0.106693
9 17 9 100 0.137818
0 18 9 100 0.283288
1 18 9 100 0.0487809
2 18 9 100 0.0769075
3 18 9 100 0.00129207
4 18 9 100 0.0733824
5 18 9 100 0.0969357
6 18 9 100 0.147405
7 18 9 100 0.0972669
8 18 9 100 0.0378832
9 18 9 100 0.136858
0 19 9 100 0.360197
1 19 9 100 0.0400087
2 19 9 100 0.0391038
3 19 9 100 1.10696e-06
4 19 9 100 0.0807049
5 19 9 100 3.8506e-06
6 19 9 100 0.0801078
7 19 9 100 0.121194
8 19 9 100 0.0781258
9 19 9 100 0.200553
0 20 9 100 0.387984
1 20 9 100 2.24335e-06
2 20 9 100 0.000555121
3 20 9 100 0.0555551
4 20 9 100 0.00013004
5 20 9 100 0.000129774
6 20 9 100 0.11112
7 20 9 100 0.0555554
8 20 9 100 5.14084e-05
9 20 9 100 0.388916
0 21 9 100 0.326987
2 21 9 100 5.27417e-05
3 21 9 100 0.0769242
5 21 9 100 0.00195344
6 21 9 100 1.51854e-05
7 21 9 100 0.153847
8 21 9 100 0.0769691
9 21 9 100 0.363252
0 22 9 100 0.822574
1 22 9 100 2.83906e-05
2 22 9 100 6.25555e-05
4 22 9 100 7.24492e-05
5 22 9 100 0.0103745
6 22 9 100 7.33522e-05
7 22 9 100 0.166666
8 22 9 100 0.000124123
9 22 9 100 2.50405e-05
0 23 9 100 0.00109613
2 23 9 100 0.666672
9 23 9 100 0.332232
0 24 9 100 0.652178
2 24 9 100 0.00494182
4 24 9 100 0.342858
8 24 9 100 2.19033e-05
0 1 10 100 0.105374
1 1 10 100 0.553242
2 1 10 100 0.0687424
3 1 10 100 0.056986
4 1 10 100 0.0394682
5 1 10 100 0.0344943
6 1 10 100 0.0331598
7 1 10 100 0.027417
8 1 10 100 0.0271149
9 1 10 100 0.0241874
10 1 10 100 0.0298143
0 2 10 100 0.0651272
1 2 10 100 0.16113
2 2 10 100 0.224183
3 2 10 100 0.141687
4 2 10 100 0.0780691
5 2 10 100 0.050337
6 2 10 100 0.0488655
7 2 10 100 0.0546549
8 2 10 100 0.066642
9 2 10 100 0.0537983
10 2 10 100 0.0555053
0 3 10 100 0.136968
1 3 10 100 0.0671182
2 3 10 100 0.0947861
3 3 10 100 0.179509
4 3 10 100 0.120565
5 3 10 100 0.0927021
6 3 10 100 0.0693474
7 3 10 100 0.0586874
8 3 10 100 0.0678154
9 3 10 100 0.054498
10 3 10 100 0.0580026
0 4 10 100 0.139163
1 4 10 100 0.0483846
2 4 10 100 0.0557916
3 4 10 100 0.107087
4 4 10 100 0.148586
5 4 10 100 0.122209
6 4 10 100 0.0981668
7 4 10 100 0.0846081
8 4 10 100 0.0671464
9 4 10 100 0.0595568
10 4 10 100 0.0693003
0 5 10 100 0.167083
1 5 10 100 0.0478961
2 5 10 100 0.0442113
3 5 10 100 0.0722944
4 5 10 100 0.0809597
5 5 10 100 0.127216
6 5 10 100 0.118218
7 5 10 100 0.0987779
8 5 10 100 0.0885009
9 5 10 100 0.0718869
10 5 10 100 0.0829554
0 6 10 100 0.184838
1 6 10 100 0.0361139
2 6 10 100 0.0300218
3 6 10 100 0.0640677
4 6 10 100 0.0631756
5 6 10 100 0.0959097
6 6 10 100 0.113817
7 6 10 100 0.100162
8 6 10 100 0.108649
9 6 10 100 0.0960074
10 6 10 100 0.107237
0 7 10 100 0.204143
1 7 10 100 0.033796
2 7 10 100 0.0254255
3 7 10 100 0.0472451
4 7 10 100 0.0520442
5 7 10 100 0.0710469
6 7 10 100 0.100354
7 7 10 100 0.115737
8 7 10 100 0.110044
9 7 10 100 0.10745
10 7 10 100 0.132713
0 8 10 100 0.225283
1 8 10 100 0.0381105
2 8 10 100 0.0232823
3 8 10 100 0.0473054
4 8 10 100 0.0448886
5 8 10 100 0.067675
6 8 10 100 0.0755578
7 8 10 100 0.0904439
8 8 10 100 0.123668
9 8 10 100 0.119755
10 8 10 100 0.14403
0 9 10 100 0.261507
1 9 10 100 0.0326644
2 9 10 100 0.0227934
3 9 10 100 0.0402549
4 9 10 100 0.0455916
5 9 10 100 0.0572056
6 9 10 100 0.0574642
7 9 10 100 0.0723629
8 9 10 100 0.108418
9 9 10 100 0.13579
10 9 10 100 0.165948
0 10 10 100 0.286681
1 10 10 100 0.0383817
2 10 10 100 0.0267151
3 10 10 100 0.0395314
4 10 10 100 0.0495316
5 10 10 100 0.0522686
6 10 10 100 0.0530286
7 10 10 100 0.0607061
8 10 10 100 0.0996295
9 10 10 100 0.104903
10 10 10 100 0.188624
0 11 10 100 0.283083
1 11 10 100 0.0337545
2 11 10 100 0.0276472
3 11 10 100 0.0379808
4 11 10 100 0.0396569
5 11 10 100 0.057437
6 11 10 100 0.0635122
7 11 10 100 0.0683595
8 11 10 100 0.0982789
9 11 10 100 0.0955551
10 11 10 100 0.194735
0 12 10 100 0.251848
1 12 10 100 0.0372863
2 12 10 100 0.0323482
3 12 10 100 0.0545461
4 12 10 100 0.0394854
5 12 10 100 0.0592897
6 12 10 100 0.0794421
7 12 10 100 0.0696765
8 12 10 100 0.0885358
9 12 10 100 0.0954663
10 12 10 100 0.192076
0 13 10 100 0.265489
1 13 10 100 0.0379307
2 13 10 100 0.0237976
3 13 10 100 0.0590766
4 13 10 100 0.0480809
5 13 10 100 0.07661
6 13 10 100 0.0622094
7 13 10 100 0.0683219
8 13 10 100 0.0869341
9 13 10 100 0.0779051
10 13 10 100 0.193645
0 14 10 100 0.288018
1 14 10 100 0.0300155
2 14 10 100 0.0502647
3 14 10 100 0.0614813
4 14 10 100 0.0348209
5 14 10 100 0.0810402
6 14 10 100 0.0607581
7 14 10 100 0.064267
8 14 10 100 0.0910989
9 14 10 100 0.0981375
10 14 10 100 0.140098
0 15 10 100 0.23993
1 15 10 100 0.0450384
2 15 10 100 0.0446426
3 15 10 100 0.0534174
4 15 10 100 0.0406683
5 15 10 100 0.0954016
6 15 10 100 0.0335601
7 15 10 100 0.140558
8 15 10 100 0.0933817
9 15 10 100 0.064436
10 15 10 100 0.148965
0 16 10 100 0.330291
1 16 10 100 0.0178195
2 16 10 100 0.0343127
3 16 10 100 0.0352681
4 16 10 100 0.0522541
5 16 10 100 0.104272
6 16 10 100 0.0672728
7 16 10 100 0.0450053
8 16 10 100 0.0842235
9 16 10 100 0.0689877
10 16 10 100 0.160292
0 17 10 100 0.33836
1 17 10 100 0.0177961
2 17 10 100 0.0112618
3 17 10 100 0.083267
4 17 10 100 0.0353573
5 17 10 100 0.103774
6 17 10 100 0.0339884
7 17 10 100 0.119782
8 17 10 100 0.0612439
9 17 10 100 0.0860071
10 17 10 100 0.109162
0 18 10 100 0.152787
1 18 10 100 0.0263912
2 18 10 100 0.0263733
3 18 10 100 0.0513178
4 18 10 100 0.0269951
5 18 10 100 0.177305
6 18 10 100 0.0513234
7 18 10 100 0.103046
8 18 10 100 0.0767942
9 18 10 100 0.102604
10 18 10 100 0.205063
0 19 10 100 0.408747
1 19 10 100 0.0999213
2 19 10 100 0.0018801
3 19 10 100 0.100082
4 19 10 100 0.000159717
5 19 10 100 0.0503691
6 19 10 100 0.0502105
7 19 10 100 0.0985828
8 19 10 100 0.0481545
9 19 10 100 0.0794722
10 19 10 100 0.0624215
0 20 10 100 0.142858
1 20 10 100 0.0566913
2 20 10 100 9.9255e-05
3 20 10 100 0.0861667
5 20 10 100 0.42858
6 20 10 100 0.14275
9 20 10 100 0.142856
0 21 10 100 0.166105
1 21 10 100 0.166667
2 21 10 100 0.000235916
5 21 10 100 0.327492
6 21 10 100 0.0118193
8 21 10 100 0.00606857
10 21 10 100 0.321612
1 22 10 100 0.259323
3 22 10 100 0.0740105
6 22 10 100 0.0138472
10 22 10 100 0.652819
0 23 10 100 0.500258
7 23 10 100 0.499742
10 24 10 100 1
0 25 10 100 0.999753
8 25 10 100 0.00024728
0 1 11 100 0.109914
1 1 11 100 0.555772
2 1 11 100 0.0706203
3 1 11 100 0.0497069
4 1 11 100 0.0420676
5 1 11 100 0.038949
6 1 11 100 0.0315616
7 1 11 100 0.0222811
8 1 11 100 0.0165201
9 1 11 100 0.019652
10 1 11 100 0.0164087
11 1 11 100 0.0265467
0 2 11 100 0.0699051
1 2 11 100 0.160157
2 2 11 100 0.248265
3 2 11 100 0.122603
4 2 11 100 0.0680876
5 2 11 100 0.050269
6 2 11 100 0.0433858
7 2 11 100 0.0422796
8 2 11 100 0.032348
9 2 11 100 0.0655459
10 2 11 100 0.052162
11 2 11 100 0.0449929
0 3 11 100 0.135818
1 3 11 100 0.0742722
2 3 11 100 0.0928745
3 3 11 100 0.181099
4 3 11 100 0.116332
5 3 11 100 0.0890295
6 3 11 100 0.0620636
7 3 11 100 0.0592828
8 3 11 100 0.0463674
9 3 11 100 0.0492248
10 3 11 100 0.0458913
11 3 11 100 0.0477459
0 4 11 100 0.147178
1 4 11 100 0.0447854
2 4 11 100 0.051425
3 4 11 100 0.113201
4 4 11 100 0.139022
5 4 11 100 0.124523
6 4 11 100 0.0874434
7 4 11 100 0.0799576
8 4 11 100 0.0620162
9 4 11 100 0.0522803
10 4 11 100 0.0499924
11 4 11 100 0.0481765
0 5 11 100 0.150313
1 5 11 100 0.0387964
2 5 11 100 0.038705
3 5 11 100 0.0764921
4 5 11 100 0.104934
5 5 11 100 0.114709
6 5 11 100 0.0942037
7 5 11 100 0.109082
8 5 11 100 0.0851259
9 5 11 100 0.0781237
10 5 11 100 0.0515037
11 5 11 100 0.0580121
0 6 11 100 0.169434
1 6 11 100 0.0293185
2 6 11 100 0.0281785
3 6 11 100 0.0571838
4 6 11 100 0.0633903
5 6 11 100 0.0990249
6 6 11 100 0.112174
7 6 11 100 0.104825
8 6 11 100 0.0788659
9 6 11 100 0.0920054
10 6 11 100 0.0777798
11 6 11 100 0.0878187
0 7 11 100 0.19921
1 7 11 100 0.0242022
2 7 11 100 0.0257923
3 7 11 100 0.0446701
4 7 11 100 0.0451878
5 7 11 100 0.0708623
6 7 11 100 0.0909916
7 7 11 100 0.106079
8 7 11 100 0.0958251
9 7 11 100 0.0962217
10 7 11 100 0.0943825
11 7 11 100 0.106575
0 8 11 100 0.208764
1 8 11 100 0.0294241
2 8 11 100 0.0199483
3 8 11 100 0.0402447
4 8 11 100 0.0418093
5 8 11 100 0.0581565
6 8 11 100 0.0606649
7 8 11 100 0.0954626
8 8 11 100 0.102351
9 8 11 100 0.104405
10 8 11 100 0.111408
11 8 11 100 0.127361
0 9 11 100 0.233653
1 9 11 100 0.0269963
2 9 11 100 0.0234664
3 9 11 100 0.027727
4 9 11 100 0.0337197
5 9 11 100 0.0503426
6 9 11 100 0.0580343
7 9 11 100 0.0917315
8 9 11 100 0.0798297
9 9 11 100 0.105943
10 9 11 100 0.119949
11 9 11 100 0.148607
0 10 11 100 0.242036
1 10 11 100 0.0240221
2 10 11 100 0.0273778
3 10 11 100 0.0323162
4 10 11 100 0.0393273
5 10 11 100 0.0368615
6 10 11 100 0.0476723
7 10 11 100 0.0779538
8 10 11 100 0.0900846
9 10 11 100 0.105255
10 10 11 100 0.101572
11 10 11 100 0.175521
0 11 11 100 0.26443
1 11 11 100 0.023234
2 11 11 100 0.0281349
3 11 11 100 0.0380232
4 11 11 100 0.0337891
5 11 11 100 0.0674856
6 11 11 100 0.0395682
7 11 11 100 0.0762246
8 11 11 100 0.0732947
9 11 11 100 0.0833226
10 11 11 100 0.112853
11 11 11 100 0.15964
0 12 11 100 0.278839
1 12 11 100 0.0246656
2 12 11 100 0.0261545
3 12 11 100 0.0375399
4 12 11 100 0.0264809
5 12 11 100 0.0550954
6 12 11 100 0.0554212
7 12 11 100 0.0564254
8 12 11 100 0.0814303
9 12 11 100 0.0854105
10 12 11 100 0.11396
11 12 11 100 0.158577
0 13 11 100 0.313767
1 13 11 100 0.0170041
2 13 11 100 0.016591
3 13 11 100 0.0458932
4 13 11 100 0.0245652
5 13 11 100 0.0420949
6 13 11 100 0.0786887
7 13 11 100 0.081295
8 13 11 100 0.0754542
9 13 11 100 0.0639404
10 13 11 100 0.091339
11 13 11 100 0.149367
0 14 11 100 0.265998
1 14 11 100 0.0253805
2 14 11 100 0.0223324
3 14 11 100 0.0442377
4 14 11 100 0.0303304
5 14 11 100 0.0591291
6 14 11 100 0.079582
7 14 11 100 0.0826968
8 14 11 100 0.111621
9 14 11 100 0.0372055
10 14 11 100 0.0942146
11 14 11 100 0.147272
0 15 11 100 0.254521
1 15 11 100 0.0319218
2 15 11 100 0.0265857
3 15 11 100 0.0450783
4 15 11 100 0.0238782
5 15 11 100 0.0803096
6 15 11 100 0.056356
7 15 11 100 0.0653281
8 15 11 100 0.109388
9 15 11 100 0.0555688
10 15 11 100 0.0908217
11 15 11 100 0.160243
0 16 11 100 0.37786
1 16 11 100 0.00100939
2 16 11 100 0.0542539
3 16 11 100 0.0366588
4 16 11 100 0.00301556
5 16 11 100 0.0513519
6 16 11 100 0.032569
7 16 11 100 0.0635768
8 16 11 100 0.0960059
9 16 11 100 0.10199
10 16 11 100 0.0595887
11 16 11 100 0.12212
0 17 11 100 0.364537
1 17 11 100 0.0147291
2 17 11 100 0.0178781
3 17 11 100 0.0338652
4 17 11 100 0.0138793
5 17 11 100 0.0173681
6 17 11 100 0.0408741
7 17 11 100 0.0593676
8 17 11 100 0.0520469
9 17 11 100 0.238955
10 17 11 100 0.0157657
11 17 11 100 0.130734
0 18 11 100 0.249247
1 18 11 100 0.0488854
2 18 11 100 0.00163614
3 18 11 100 0.024241
4 18 11 100 0.0179408
5 18 11 100 0.0241524
6 18 11 100 0.0460504
7 18 11 100 0.0732495
8 18 11 100 0.0245336
9 18 11 100 0.073606
10 18 11 100 0.225456
11 18 11 100 0.191001
0 19 11 100 0.376458
1 19 11 100 0.0555671
2 19 11 100 0.000173301
3 19 11 100 0.0557794
4 19 11 100 6.86808e-05
5 19 11 100 1.32702e-06
6 19 11 100 0.120074
7 19 11 100 0.0555558
8 19 11 100 0.0666727
9 19 11 100 0.0572659
10 19 11 100 0.000341318
11 19 11 100 0.212043
0 20 11 100 0.699118
2 20 11 100 0.100152
4 20 11 100 0.000168262
5 20 11 100 0.000249479
6 20 11 100 3.96461e-06
7 20 11 100 1.73765e-05
9 20 11 100 0.199915
10 20 11 100 0.00032862
11 20 11 100 4.7698e-05
0 21 11 100 0.111274
4 21 11 100 0.38873
10 21 11 100 0.499996
0 22 11 100 4.3529e-05
5 22 11 100 0.997605
6 22 11 100 0.00235156
5 23 11 100 1
0 1 12 100 0.118609
1 1 12 100 0.528888
2 1 12 100 0.0692588
3 1 12 100 0.0681555
4 1 12 100 0.0356619
5 1 12 100 0.0293496
6 1 12 100 0.0329023
7 1 12 100 0.0244
8 1 12 100 0.0179917
9 1 12 100 0.023347
10 1 12 100 0.0130653
11 1 12 100 0.0146431
12 1 12 100 0.023728
0 2 12 100 0.0692068
1 2 12 100 0.153255
2 2 12 100 0.220425
3 2 12 100 0.147137
4 2 12 100 0.0738485
5 2 12 100 0.0572941
6 2 12 100 0.0355949
7 2 12 100 0.038158
8 2 12 100 0.0319574
9 2 12 100 0.0351919
10 2 12 100 0.0502839
11 2 12 100 0.0384719
12 2 12 100 0.0491751
0 3 12 100 0.148699
1 3 12 100 0.0646371
2 3 12 100 0.0912626
3 3 12 100 0.162147
4 3 12 100 0.0951395
5 3 12 100 0.0950128
6 3 12 100 0.0713799
7 3 12 100 0.0543317
8 3 12 100 0.0488953
9 3 12 100 0.0419499
10 3 12 100 0.0502947
11 3 12 100 0.0410127
12 3 12 100 0.035238
0 4 12 100 0.161921
1 4 12 100 0.0527829
2 4 12 100 0.0653938
3 4 12 100 0.105013
4 4 12 100 0.103274
5 4 12 100 0.10707
6 4 12 100 0.0833814
7 4 12 100 0.0741568
8 4 12 100 0.0662656
9 4 12 100 0.0594263
10 4 12 100 0.0345875
11 4 12 100 0.0411842
12 4 12 100 0.0455431
0 5 12 100 0.143658
1 5 12 100 0.0372703
2 5 12 100 0.0411352
3 5 12 100 0.0680262
4 5 12 100 0.0869851
5 5 12 100 0.110907
6 5 12 100 0.102778
7 5 12 100 0.0935714
8 5 12 100 0.07809
9 5 12 100 0.0737826
10 5 12 100 0.0638823
11 5 12 100 0.0389844
12 5 12 100 0.0609298
0 6 12 100 0.180765
1 6 12 100 0.0257737
2 6 12 100 0.0313677
3 6 12 100 0.0519119
4 6 12 100 0.0550334
5 6 12 100 0.0652126
6 6 12 100 0.0938798
7 6 12 100 0.116539
8 6 12 100 0.0890633
9 6 12 100 0.0859293
10 6 12 100 0.0715564
11 6 12 100 0.071006
12 6 12 100 0.0619625
0 7 12 100 0.182772
1 7 12 100 0.0248753
2 7 12 100 0.025708
3 7 12 100 0.0425579
4 7 12 100 0.0445884
5 7 12 100 0.0632118
6 7 12 100 0.0695972
7 7 12 100 0.105924
8 7 12 100 0.0840006
9 7 12 100 0.0884417
10 7 12 100 0.089377
11 7 12 100 0.0749424
12 7 12 100 0.104004
0 8 12 100 0.193002
1 8 12 100 0.0233993
2 8 12 100 0.0183812
3 8 12 100 0.0390018
4 8 12 100 0.0359409
5 8 12 100 0.0609251
6 8 12 100 0.072657
7 8 12 100 0.0694805
8 8 12 100 0.102022
9 8 12 100 0.0881055
10 8 12 100 0.0839942
11 8 12 100 0.102273
12 8 12 100 0.110817
0 9 12 100 0.223377
1 9 12 100 0.0234525
2 9 12 100 0.0254564
3 9 12 100 0.0217345
4 9 12 100 0.0318976
5 9 12 100 0.0436043
6 9 12 100 0.0588235
7 9 12 100 0.0672495
8 9 12 100 0.0815577
9 9 12 100 0.110533
10 9 12 100 0.092518
11 9 12 100 0.0860297
12 9 12 100 0.133766
0 10 12 100 0.22154
1 10 12 100 0.0240848
2 10 12 100 0.0222263
3 10 12 100 0.0399986
4 10 12 100 0.0287797
5 10 12 100 0.0309556
6 10 12 100 0.0506171
7 10 12 100 0.05634
8 10 12 100 0.056724
9 10 12 100 0.104036
10 10 12 100 0.103739
11 10 12 100 0.101574
12 10 12 100 0.159385
0 11 12 100 0.252662
1 11 12 100 0.0221181
2 11 12 100 0.0291584
3 11 12 100 0.0313082
4 11 12 100 0.0368876
5 11 12 100 0.0379282
6 11 12 100 0.0519181
7 11 12 100 0.0543306
8 11 12 100 0.0507522
9 11 12 100 0.0745367
10 11 12 100 0.0992105
11 11 12 100 0.106178
12 11 12 100 0.153011
0 12 12 100 0.291531
1 12 12 100 0.0268567
2 12 12 100 0.0187426
3 12 12 100 0.0344939
4 12 12 100 0.0280246
5 12 12 100 0.0278826
6 12 12 100 0.0564245
7 12 12 100 0.0214877
8 12 12 100 0.0438798
9 12 12 100 0.0874034
10 12 12 100 0.0967077
11 12 12 100 0.105548
12 12 12 100 0.161018
0 13 12 100 0.309526
1 13 12 100 0.045926
2 13 12 100 0.0160092
3 13 12 100 0.0259287
4 13 12 100 0.0347086
5 13 12 100 0.0279936
6 13 12 100 0.0500449
7 13 12 100 0.0445326
8 13 12 100 0.0473376
9 13 12 100 0.0748673
10 13 12 100 0.0832373
11 13 12 100 0.0896837
12 13 12 100 0.150204
0 14 12 100 0.259009
1 14 12 100 0.0558771
2 14 12 100 0.0238321
3 14 12 100 0.0332167
4 14 12 100 0.0245951
5 14 12 100 0.0282532
6 14 12 100 0.061698
7 14 12 100 0.0540886
8 14 12 100 0.0687583
9 14 12 100 0.061998
10 14 12 100 0.0593469
11 14 12 100 0.106651
12 14 12 100 0.162676
0 15 12 100 0.238987
1 15 12 100 0.0626606
2 15 12 100 0.0143286
3 15 12 100 0.0277478
4 15 12 100 0.0295269
5 15 12 100 0.0483586
6 15 12 100 0.0651286
7 15 12 100 0.0432298
8 15 12 100 0.0885281
9 15 12 100 0.0464727
10 15 12 100 0.0557692
11 15 12 100 0.0715465
12 15 12 100 0.207715
0 16 12 100 0.265389
1 16 12 100 0.0384025
2 16 12 100 0.0175414
3 16 12 100 0.0101506
4 16 12 100 0.032942
5 16 12 100 0.0272495
6 16 12 100 0.0457684
7 16 12 100 0.0493625
8 16 12 100 0.0229228
9 16 12 100 0.0697471
10 16 12 100 0.0685308
11 16 12 100 0.165042
12 16 12 100 0.186951
0 17 12 100 0.265094
1 17 12 100 0.0360188
2 17 12 100 0.0130312
3 17 12 100 0.0404107
4 17 12 100 0.000351515
5 17 12 100 0.0376743
6 17 12 100 0.0324388
7 17 12 100 0.0282611
8 17 12 100 0.104072
9 17 12 100 0.0269863
10 17 12 100 0.0519159
11 17 12 100 0.0975439
12 17 12 100 0.266201
0 18 12 100 0.334961
1 18 12 100 0.0377274
2 18 12 100 0.0045013
3 18 12 100 5.74307e-07
4 18 12 100 0.00316797
5 18 12 100 0.0565738
6 18 12 100 0.0751476
7 18 12 100 2.27301e-05
8 18 12 100 0.0580696
9 18 12 100 0.0756781
10 18 12 100 0.132125
11 18 12 100 0.0206275
12 18 12 100 0.201398
0 19 12 100 0.403531
1 19 12 100 0.0345018
2 19 12 100 0.00127462
3 19 12 100 0.0350622
4 19 12 100 0.0405319
5 19 12 100 5.04581e-05
6 19 12 100 0.0689743
7 19 12 100 0.000865186
8 19 12 100 0.0345029
9 19 12 100 0.00814483
10 19 12 100 0.0690173
11 19 12 100 0.0961199
12 19 12 100 0.207424
0 20 12 100 0.106414
1 20 12 100 1.19122e-06
2 20 12 100 0.0526368
4 20 12 100 6.26303e-05
5 20 12 100 9.4344e-06
6 20 12 100 0.00418429
7 20 12 100 0.113733
8 20 12 100 0.0587393
9 20 12 100 0.056488
10 20 12 100 0.187072
12 20 12 100 0.420659
0 21 12 100 0.313405
2 21 12 100 7.94977e-06
8 21 12 100 0.332678
9 21 12 100 1.81332e-05
10 21 12 100 0.1671
11 21 12 100 0.0334104
12 21 12 100 0.153381
3 22 12 100 0.0094516
8 22 12 100 0.500002
9 22 12 100 0.490546
0 1 13 100 0.0876047
1 1 13 100 0.585612
2 1 13 100 0.069722
3 1 13 100 0.0408262
4 1 13 100 0.0416447
5 1 13 100 0.0293049
6 1 13 100 0.0259285
7 1 13 100 0.0207607
8 1 13 100 0.0220713
9 1 13 100 0.0183661
10 1 13 100 0.0147769
11 1 13 100 0.0137611
12 1 13 100 0.00550796
13 1 13 100 0.0241132
0 2 13 100 0.0693164
1 2 13 100 0.115502
2 2 13 100 0.237281
3 2 13 100 0.141191
4 2 13 100 0.0851287
5 2 13 100 0.0412573
6 2 13 100 0.0369024
7 2 13 100 0.0403711
8 2 13 100 0.0277833
9 2 13 100 0.0341401
10 2 13 100 0.0346358
11 2 13 100 0.0477699
12 2 13 100 0.0339646
13 2 13 100 0.0547571
0 3 13 100 0.162809
1 3 13 100 0.0607205
2 3 13 100 0.0686434
3 3 13 100 0.162471
4 3 13 100 0.0991255
5 3 13 100 0.0932899
6 3 13 100 0.0709395
7 3 13 100 0.0548489
8 3 13 100 0.0425042
9 3 13 100 0.0379495
10 3 13 100 0.0435021
11 3 13 100 0.042525
12 3 13 100 0.0270138
13 3 13 100 0.0336581
0 4 13 100 0.15431
1 4 13 100 0.0486015
2 4 13 100 0.0476734
3 4 13 100 0.0967036
4 4 13 100 0.122059
5 4 13 100 0.100243
6 4 13 100 0.0956165
7 4 13 100 0.0818951
8 4 13 100 0.0610233
9 4 13 100 0.044166
10 4 13 100 0.0415482
11 4 13 100 0.0350158
12 4 13 100 0.0327185
13 4 13 100 0.0384261
0 5 13 100 0.144033
1 5 13 100 0.0327014
2 5 13 100 0.0377754
3 5 13 100 0.0448798
4 5 13 100 0.0885923
5 5 13 100 0.101535
6 5 13 100 0.100657
7 5 13 100 0.0941297
8 5 13 100 0.0884177
9 5 13 100 0.0746822
10 5 13 100 0.0520094
11 5 13 100 0.0560383
12 5 13 100 0.0418563
13 5 13 100 0.0426924
0 6 13 100 0.144995
1 6 13 100 0.0276325
2 6 13 100 0.033517
3 6 13 100 0.0354959
4 6 13 100 0.0548414
5 6 13 100 0.0873548
6 6 13 100 0.0857954
7 6 13 100 0.0950489
8 6 13 100 0.106273
9 6 13 100 0.0855997
10 6 13 100 0.0743379
11 6 13 100 0.0645592
12 6 13 100 0.0514413
13 6 13 100 0.0531078
0 7 13 100 0.172663
1 7 13 100 0.0287131
2 7 13 100 0.0267637
3 7 13 100 0.0427469
4 7 13 100 0.0423356
5 7 13 100 0.0456545
6 7 13 100 0.0806791
7 7 13 100 0.0882963
8 7 13 100 0.0794396
9 7 13 100 0.0782738
10 7 13 100 0.0795333
11 7 13 100 0.0747341
12 7 13 100 0.0733864
13 7 13 100 0.0867809
0 8 13 100 0.209069
1 8 13 100 0.0184179
2 8 13 100 0.0185254
3 8 13 100 0.0316473
4 8 13 100 0.0378273
5 8 13 100 0.0467732
6 8 13 100 0.0535513
7 8 13 100 0.0757653
8 8 13 100 0.0835951
9 8 13 100 0.0932567
10 8 13 100 0.0924381
11 8 13 100 0.0713279
12 8 13 100 0.083955
13 8 13 100 0.0838501
0 9 13 100 0.197883
1 9 13 100 0.0293804
2 9 13 100 0.00934908
3 9 13 100 0.0303825
4 9 13 100 0.0336184
5 9 13 100 0.0367419
6 9 13 100 0.0348887
7 9 13 100 0.0603492
8 9 13 100 0.0640495
9 9 13 100 0.092775
10 9 13 100 0.112477
11 9 13 100 0.0910927
12 9 13 100 0.0839065
13 9 13 100 0.123107
0 10 13 100 0.197437
1 10 13 100 0.03018
2 10 13 100 0.0213013
3 10 13 100 0.028563
4 10 13 100 0.0292432
5 10 13 100 0.0203757
6 10 13 100 0.0540171
7 10 13 100 0.0538275
8 10 13 100 0.0475328
9 10 13 100 0.0666125
10 10 13 100 0.107223
11 10 13 100 0.104508
12 10 13 100 0.0821675
13 10 13 100 0.157011
0 11 13 100 0.20157
1 11 13 100 0.0331492
2 11 13 100 0.0244301
3 11 13 100 0.0318423
4 11 13 100 0.033692
5 11 13 100 0.0278825
6 11 13 100 0.0356949
7 11 13 100 0.0519021
8 11 13 100 0.0433786
9 11 13 100 0.068038
10 11 13 100 0.0785751
11 11 13 100 0.11824
12 11 13 100 0.0999464
13 11 13 100 0.151659
0 12 13 100 0.256959
1 12 13 100 0.028635
2 12 13 100 0.0281119
3 12 13 100 0.0233284
4 12 13 100 0.0224755
5 12 13 100 0.0367153
6 12 13 100 0.0402764
7 12 13 100 0.040383
8 12 13 100 0.0367021
9 12 13 100 0.055335
10 12 13 100 0.0676277
11 12 13 100 0.0954439
12 12 13 100 0.0981886
13 12 13 100 0.169818
0 13 13 100 0.249022
1 13 13 100 0.0186674
2 13 13 100 0.0275031
3 13 13 100 0.0156996
4 13 13 100 0.0276435
5 13 13 100 0.0284434
6 13 13 100 0.033221
7 13 13 100 0.0603163
8 13 13 100 0.0186177
9 13 13 100 0.0708607
10 13 13 100 0.0669795
11 13 13 100 0.0758051
12 13 13 100 0.0971056
13 13 13 100 0.210115
0 14 13 100 0.212691
1 14 13 100 0.0219417
2 14 13 100 0.0186263
3 14 13 100 0.0323366
4 14 13 100 0.0393111
5 14 13 100 0.0262547
6 14 13 100 0.0517106
7 14 13 100 0.0398398
8 14 13 100 0.0344134
9 14 13 100 0.0493176
10 14 13 100 0.0804817
11 14 13 100 0.0891781
12 14 13 100 0.107809
13 14 13 100 0.196089
0 15 13 100 0.316984
1 15 13 100 0.0188228
2 15 13 100 0.0324206
3 15 13 100 0.0122872
4 15 13 100 0.0446474
5 15 13 100 0.0435869
6 15 13 100 0.0333884
7 15 13 100 0.0483975
8 15 13 100 0.0225554
9 15 13 100 0.0439669
10 15 13 100 0.11225
11 15 13 100 0.0485207
12 15 13 100 0.0661819
13 15 13 100 0.155991
0 16 13 100 0.202693
1 16 13 100 0.0528884
2 16 13 100 0.0319512
3 16 13 100 0.0242013
4 16 13 100 0.0653175
5 16 13 100 0.0323537
6 16 13 100 0.0574836
7 16 13 100 0.024083
8 16 13 100 0.0224325
9 16 13 100 0.0217107
10 16 13 100 0.124656
11 16 13 100 0.0550106
12 16 13 100 0.0858938
13 16 13 100 0.199325
0 17 13 100 0.321052
1 17 13 100 0.0294279
2 17 13 100 0.0294963
3 17 13 100 0.0407317
4 17 13 100 0.0463971
5 17 13 100 0.0294639
6 17 13 100 0.0591742
7 17 13 100 0.00228581
8 17 13 100 0.0449413
9 17 13 100 0.0443629
10 17 13 100 0.0889301
11 17 13 100 0.0294325
12 17 13 100 0.0148358
13 17 13 100 0.219469
0 18 13 100 0.239389
1 18 13 100 0.0702852
2 18 13 100 0.000634617
3 18 13 100 0.0335799
4 18 13 100 0.00572055
5 18 13 100 0.0280791
6 18 13 100 0.000188369
8 18 13 100 0.0669049
9 18 13 100 0.158655
10 18 13 100 0.127609
11 18 13 100 0.000166472
12 18 13 100 0.133191
13 18 13 100 0.135597
0 19 13 100 0.333151
1 19 13 100 0.0476215
2 19 13 100 9.11808e-05
3 19 13 100 0.000168104
4 19 13 100 0.00111865
5 19 13 100 2.67806e-06
6 19 13 100 0.047712
7 19 13 100 2.33285e-06
8 19 13 100 0.0476312
9 19 13 100 0.0477954
10 19 13 100 0.191576
11 19 13 100 0.00720355
12 19 13 100 0.228169
13 19 13 100 0.0477579
0 20 13 100 0.534662
1 20 13 100 0.0909104
2 20 13 100 0.00354068
3 20 13 100 2.85594e-06
4 20 13 100 2.2182e-05
5 20 13 100 0.0046404
6 20 13 100 2.30522e-05
7 20 13 100 4.60347e-06
9 20 13 100 0.00239367
10 20 13 100 0.181819
12 20 13 100 0.0910724
13 20 13 100 0.0909092
0 21 13 100 0.251326
2 21 13 100 0.00148821
3 21 13 100 0.000157664
5 21 13 100 0.0134967
6 21 13 100 0.124051
8 21 13 100 3.54825e-05
9 21 13 100 0.00179733
10 21 13 100 0.10764
11 21 13 100 0.125004
12 21 13 100 0.374996
13 21 13 100 8.01349e-06
0 22 13 100 0.30284
1 22 13 100 0.000161703
3 22 13 100 5.03025e-05
5 22 13 100 0.346039
6 22 13 100 0.000543342
7 22 13 100 0.199991
8 22 13 100 8.75047e-06
9 22 13 100 0.000739022
10 22 13 100 0.149627
0 23 13 100 0.501158
5 23 13 100 0.372539
10 23 13 100 0.126256
13 23 13 100 4.76824e-05
8 24 13 100 1
8 25 13 100 1
0 26 13 100 1
8 27 13 100 1
0 1 14 100 0.090051
1 1 14 100 0.535591
2 1 14 100 0.0563807
3 1 14 100 0.0698821
4 1 14 100 0.0411947
5 1 14 100 0.0373264
6 1 14 100 0.0204118
7 1 14 100 0.0330765
8 1 14 100 0.0276886
9 1 14 100 0.0146301
10 1 14 100 0.0155601
11 1 14 100 0.00553478
12 1 14 100 0.00950638
13 1 14 100 0.0148601
14 1 14 100 0.0283059
0 2 14 100 0.0786381
1 2 14 100 0.131265
2 2 14 100 0.210429
3 2 14 100 0.138166
4 2 14 100 0.0919189
5 2 14 100 0.0593955
6 2 14 100 0.0444252
7 2 14 100 0.0514953
8 2 14 100 0.0334315
9 2 14 100 0.0188766
10 2 14 100 0.0230445
11 2 14 100 0.0215931
12 2 14 100 0.0328729
13 2 14 100 0.0328372
14 2 14 100 0.0316121
0 3 14 100 0.153957
1 3 14 100 0.0434451
2 3 14 100 0.0668791
3 3 14 100 0.155583
4 3 14 100 0.117045
5 3 14 100 0.0882564
6 3 14 100 0.0637917
7 3 14 100 0.0550778
8 3 14 100 0.0384483
9 3 14 100 0.0230082
10 3 14 100 0.0357621
11 3 14 100 0.0459468
12 3 14 100 0.0478861
13 3 14 100 0.0366171
14 3 14 100 0.0282967
0 4 14 100 0.174068
1 4 14 100 0.0420025
2 4 14 100 0.0570629
3 4 14 100 0.0825305
4 4 14 100 0.0984898
5 4 14 100 0.0928046
6 4 14 100 0.0811644
7 4 14 100 0.0708239
8 4 14 100 0.0453822
9 4 14 100 0.0662094
10 4 14 100 0.0475866
11 4 14 100 0.038351
12 4 14 100 0.0414422
13 4 14 100 0.0353281
14 4 14 100 0.0267534
0 5 14 100 0.139509
1 5 14 100 0.0333705
2 5 14 100 0.0461387
3 5 14 100 0.0741574
4 5 14 100 0.066675
5 5 14 100 0.0973146
6 5 14 100 0.0886887
7 5 14 100 0.0942811
8 5 14 100 0.0593299
9 5 14 100 0.0741812
10 5 14 100 0.0584068
11 5 14 100 0.0530335
12 5 14 100 0.0541684
13 5 14 100 0.031105
14 5 14 100 0.0296408
0 6 14 100 0.179031
1 6 14 100 0.0205896
2 6 14 100 0.0387764
3 6 14 100 0.0630951
4 6 14 100 0.0622249
5 6 14 100 0.0699673
6 6 14 100 0.068568
7 6 14 100 0.0916558
8 6 14 100 0.0804515
9 6 14 100 0.0702131
10 6 14 100 0.0675061
11 6 14 100 0.0459384
12 6 14 100 0.0414151
13 6 14 100 0.050092
14 6 14 100 0.0504762
0 7 14 100 0.155225
1 7 14 100 0.0313395
2 7 14 100 0.0229508
3 7 14 100 0.0375561
4 7 14 100 0.0547199
5 7 14 100 0.0614959
6 7 14 100 0.0676751
7 7 14 100 0.0852333
8 7 14 100 0.0682792
9 7 14 100 0.100607
10 7 14 100 0.0436949
11 7 14 100 0.0810324
12 7 14 100 0.0424221
13 7 14 100 0.0758386
14 7 14 100 0.0719299
0 8 14 100 0.192019
1 8 14 100 0.0131949
2 8 14 100 0.018142
3 8 14 100 0.0290818
4 8 14 100 0.0345583
5 8 14 100 0.0532687
6 8 14 100 0.0407354
7 8 14 100 0.0698454
8 8 14 100 0.0803231
9 8 14 100 0.0604201
10 8 14 100 0.0771101
11 8 14 100 0.0749524
12 8 14 100 0.0848286
13 8 14 100 0.0986189
14 8 14 100 0.0729009
0 9 14 100 0.212545
1 9 14 100 0.0221394
2 9 14 100 0.0246742
3 9 14 100 0.0355419
4 9 14 100 0.0273289
5 9 14 100 0.0381176
6 9 14 100 0.0358141
7 9 14 100 0.0356339
8 9 14 100 0.0482937
9 9 14 100 0.0906886
10 9 14 100 0.0850286
11 9 14 100 0.0741217
12 9 14 100 0.0599155
13 9 14 100 0.0951203
14 9 14 100 0.115036
0 10 14 100 0.216861
1 10 14 100 0.0184515
2 10 14 100 0.0310538
3 10 14 100 0.0276575
4 10 14 100 0.0325322
5 10 14 100 0.0306607
6 10 14 100 0.025774
7 10 14 100 0.0395681
8 10 14 100 0.0499217
9 10 14 100 0.0576462
10 10 14 100 0.0839894
11 10 14 100 0.0780734
12 10 14 100 0.104182
13 10 14 100 0.0745041
14 10 14 100 0.129125
0 11 14 100 0.187911
1 11 14 100 0.00962629
2 11 14 100 0.0296413
3 11 14 100 0.0271317
4 11 14 100 0.0346558
5 11 14 100 0.0318422
6 11 14 100 0.0230187
7 11 14 100 0.0487039
8 11 14 100 0.0436539
9 11 14 100 0.0467874
10 11 14 100 0.0891817
11 11 14 100 0.0779273
12 11 14 100 0.0893651
13 11 14 100 0.119365
14 11 14 100 0.141188
0 12 14 100 0.231569
1 12 14 100 0.0138551
2 12 14 100 0.0252697
3 12 14 100 0.0258208
4 12 14 100 0.0175167
5 12 14 100 0.0194891
6 12 14 100 0.0313169
7 12 14 100 0.0232351
8 12 14 100 0.0337479
9 12 14 100 0.051881
10 12 14 100 0.090576
11 12 14 100 0.071727
12 12 14 100 0.0783162
13 12 14 100 0.0932605
14 12 14 100 0.192419
0 13 14 100 0.237911
1 13 14 100 0.00742664
2 13 14 100 0.0231207
3 13 14 100 0.0222812
4 13 14 100 0.0217023
5 13 14 100 0.0172171
6 13 14 100 0.0334276
7 13 14 100 0.0250321
8 13 14 100 0.030545
9 13 14 100 0.0659587
10 13 14 100 0.0623451
11 13 14 100 0.0552721
12 13 14 100 0.0821501
13 13 14 100 0.113549
14 13 14 100 0.20206
0 14 14 100 0.186402
1 14 14 100 0.000855217
2 14 14 100 0.042987
3 14 14 100 0.0270839
4 14 14 100 0.0151976
5 14 14 100 0.0159013
6 14 14 100 0.0509185
7 14 14 100 0.0788761
8 14 14 100 0.0478083
9 14 14 100 0.0214733
10 14 14 100 0.0555428
11 14 14 100 0.0511916
12 14 14 100 0.0928433
13 14 14 100 0.112191
14 14 14 100 0.200728
0 15 14 100 0.212086
1 15 14 100 0.000398493
2 15 14 100 0.0584865
3 15 14 100 0.0436699
4 15 14 100 0.0632332
5 15 14 100 0.0118253
6 15 14 100 0.0505065
7 15 14 100 0.0501655
8 15 14 100 0.0281576
9 15 14 100 0.0280631
10 15 14 100 0.0416195
11 15 14 100 0.0492159
12 15 14 100 0.0731648
13 15 14 100 0.109928
14 15 14 100 0.17948
0 16 14 100 0.216419
1 16 14 100 0.010377
2 16 14 100 0.0534069
3 16 14 100 0.0939283
4 16 14 100 0.0822909
5 16 14 100 0.0228215
6 16 14 100 0.00195263
7 16 14 100 0.0392352
8 16 14 100 0.0412728
9 16 14 100 0.0317422
10 16 14 100 0.0258396
11 16 14 100 0.0756998
12 16 14 100 0.0437893
13 16 14 100 0.0589116
14 16 14 100 0.202313
0 17 14 100 0.249431
1 17 14 100 0.000220587
2 17 14 100 0.0317223
3 17 14 100 0.0617875
4 17 14 100 0.0459533
5 17 14 100 0.000267183
6 17 14 100 0.0176536
7 17 14 100 0.0372351
8 17 14 100 0.0199684
9 17 14 100 0.0539705
10 17 14 100 0.0355549
11 17 14 100 0.0655568
12 17 14 100 0.0469836
13 17 14 100 0.141977
14 17 14 100 0.191718
0 18 14 100 0.330236
1 18 14 100 0.000669187
2 18 14 100 0.0246909
3 18 14 100 0.0500261
4 18 14 100 0.0669109
5 18 14 100 6.25359e-06
6 18 14 100 0.000191426
7 18 14 100 0.0496058
8 18 14 100 0.0250813
9 18 14 100 0.000395219
10 18 14 100 0.0752488
11 18 14 100 0.0357992
12 18 14 100 0.0750918
13 18 14 100 0.0708878
14 18 14 100 0.195159
0 19 14 100 0.263319
1 19 14 100 8.43567e-05
2 19 14 100 0.0474515
3 19 14 100 0.0476219
4 19 14 100 0.00135623
5 19 14 100 0.000262823
6 19 14 100 0.0188024
7 19 14 100 0.0446849
8 19 14 100 4.81219e-06
9 19 14 100 0.0488182
10 19 14 100 0.0499488
11 19 14 100 0.0962335
12 19 14 100 0.048313
13 19 14 100 0.050991
14 19 14 100 0.282107
0 20 14 100 0.36027
1 20 14 100 4.44947e-06
2 20 14 100 0.0723671
3 20 14 100 8.33495e-06
5 20 14 100 0.000952359
6 20 14 100 0.000442688
7 20 14 100 0.142859
8 20 14 100 9.70741e-07
9 20 14 100 0.00447922
10 20 14 100 0.00221541
12 20 14 100 0.0715147
14 20 14 100 0.344886
0 21 14 100 0.000385909
2 21 14 100 0.100225
4 21 14 100 0.100174
5 21 14 100 1.76621e-06
7 21 14 100 0.199637
9 21 14 100 0.00171152
10 21 14 100 0.1
11 21 14 100 0.000293265
12 21 14 100 0.0995307
13 21 14 100 0.10001
14 21 14 100 0.298031
0 22 14 100 0.125711
2 22 14 100 0.124889
4 22 14 100 0.124163
6 22 14 100 0.000140022
7 22 14 100 0.000126962
9 22 14 100 0.000110963
11 22 14 100 0.128571
12 22 14 100 0.371288
14 22 14 100 0.125
0 23 14 100 0.344773
2 23 14 100 0.166667
5 23 14 100 0.00104732
9 23 14 100 0.165705
12 23 14 100 0.000120835
13 23 14 100 0.166667
14 23 14 100 0.155021
0 24 14 100 0.000471609
3 24 14 100 0.201237
5 24 14 100 5.36532e-06
7 24 14 100 0.398758
13 24 14 100 0.199528
14 24 14 100 0.2
3 25 14 100 0.33236
5 25 14 100 1.72801e-05
7 25 14 100 0.33429
14 25 14 100 0.333333
0 26 14 100 0.552048
3 26 14 100 0.00130134
5 26 14 100 0.00228278
7 26 14 100 0.444349
9 26 14 100 1.87298e-05
0 27 14 100 6.11158e-06
3 27 14 100 1.33763e-05
5 27 14 100 0.999645
9 27 14 100 0.000310717
14 27 14 100 2.48755e-05
0 28 14 100 0.475539
3 28 14 100 0.0214647
14 28 14 100 0.502996
0 1 15 100 0.0953617
1 1 15 100 0.534699
2 1 15 100 0.0572835
3 1 15 100 0.0543139
4 1 15 100 0.0406437
5 1 15 100 0.0174084
6 1 15 100 0.0226555
7 1 15 100 0.0133818
8 1 15 100 0.0377182
9 1 15 100 0.0190403
10 1 15 100 0.00664878
11 1 15 100 0.0221736
12 1 15 100 0.00815818
13 1 15 100 0.0181795
14 1 15 100 0.0305836
15 1 15 100 0.0217503
0 2 15 100 0.0770703
1 2 15 100 0.131668
2 2 15 100 0.251507
3 2 15 100 0.132853
4 2 15 100 0.0745104
5 2 15 100 0.0588753
6 2 15 100 0.0311912
7 2 15 100 0.0269129
8 2 15 100 0.0328298
9 2 15 100 0.0224795
10 2 15 100 0.0193133
11 2 15 100 0.0190066
12 2 15 100 0.0321604
13 2 15 100 0.0402842
14 2 15 100 0.036045
15 2 15 100 0.0132926
0 3 15 100 0.14488
1 3 15 100 0.0772915
2 3 15 100 0.061639
3 3 15 100 0.154665
4 3 15 100 0.110574
5 3 15 100 0.103891
6 3 15 100 0.0623785
7 3 15 100 0.0321654
8 3 15 100 0.0227433
9 3 15 100 0.0319364
10 3 15 100 0.0495432
11 3 15 100 0.0192311
12 3 15 100 0.0352302
13 3 15 100 0.0281115
14 3 15 100 0.0482566
15 3 15 100 0.0174634
0 4 15 100 0.157679
1 4 15 100 0.0488831
2 4 15 100 0.0667702
3 4 15 100 0.100493
4 4 15 100 0.102546
5 4 15 100 0.121723
6 4 15 100 0.101846
7 4 15 100 0.0449102
8 4 15 100 0.0567684
9 4 15 100 0.0342154
10 4 15 100 0.0250029
11 4 15 100 0.0418704
12 4 15 100 0.0293633
13 4 15 100 0.0270066
14 4 15 100 0.0201729
15 4 15 100 0.0207506
0 5 15 100 0.162273
1 5 15 100 0.0323765
2 5 15 100 0.0426962
3 5 15 100 0.0391643
4 5 15 100 0.0816772
5 5 15 100 0.101865
6 5 15 100 0.0857005
7 5 15 100 0.0813189
8 5 15 100 0.0988021
9 5 15 100 0.0674308
10 5 15 100 0.0347916
11 5 15 100 0.0295259
12 5 15 100 0.0333414
13 5 15 100 0.0222924
14 5 15 100 0.0472138
15 5 15 100 0.0395307
0 6 15 100 0.160062
1 6 15 100 0.0383135
2 6 15 100 0.0310835
3 6 15 100 0.0383047
4 6 15 100 0.0404179
5 6 15 100 0.071392
6 6 15 100 0.0842133
7 6 15 100 0.0956161
8 6 15 100 0.0835314
9 6 15 100 0.0702768
10 6 15 100 0.0630933
11 6 15 100 0.0309386
12 6 15 100 0.0414244
13 6 15 100 0.0505644
14 6 15 100 0.0468858
15 6 15 100 0.0538823
0 7 15 100 0.150472
1 7 15 100 0.0254749
2 7 15 100 0.0111341
3 7 15 100 0.0243651
4 7 15 100 0.0367205
5 7 15 100 0.0327091
6 7 15 100 0.0586414
7 7 15 100 0.0969525
8 7 15 100 0.0829638
9 7 15 100 0.0867111
10 7 15 100 0.0684616
11 7 15 100 0.0457177
12 7 15 100 0.0874277
13 7 15 100 0.0520571
14 7 15 100 0.0772678
15 7 15 100 0.0629242
0 8 15 100 0.164072
1 8 15 100 0.0215645
2 8 15 100 0.0156732
3 8 15 100 0.0242752
4 8 15 100 0.0190259
5 8 15 100 0.0174422
6 8 15 100 0.0425765
7 8 15 100 0.0629971
8 8 15 100 0.0821827
9 8 15 100 0.108942
10 8 15 100 0.0734531
11 8 15 100 0.0901463
12 8 15 100 0.065049
13 8 15 100 0.0694945
14 8 15 100 0.0714483
15 8 15 100 0.0716582
0 9 15 100 0.199631
1 9 15 100 0.0233121
2 9 15 100 0.0140353
3 9 15 100 0.0119002
4 9 15 100 0.0396831
5 9 15 100 0.0191344
6 9 15 100 0.0244685
7 9 15 100 0.0417117
8 9 15 100 0.0810789
9 9 15 100 0.0761995
10 9 15 100 0.0611083
11 9 15 100 0.0769947
12 9 15 100 0.0883016
13 9 15 100 0.0713894
14 9 15 100 0.0934875
15 9 15 100 0.0775636
0 10 15 100 0.18008
1 10 15 100 0.0299954
2 10 15 100 0.0140121
3 10 15 100 0.00115602
4 10 15 100 0.0349584
5 10 15 100 0.0187767
6 10 15 100 0.0268485
7 10 15 100 0.0439894
8 10 15 100 0.0386974
9 10 15 100 0.0981474
10 10 15 100 0.0534372
11 10 15 100 0.0852565
12 10 15 100 0.0866939
13 10 15 100 0.10292
14 10 15 100 0.0923796
15 10 15 100 0.0926505
0 11 15 100 0.143144
1 11 15 100 0.0301451
2 11 15 100 0.0177654
3 11 15 100 0.0167208
4 11 15 100 0.0453246
5 11 15 100 0.0173975
6 11 15 100 0.0158868
7 11 15 100 0.0380048
8 11 15 100 0.0444292
9 11 15 100 0.056912
10 11 15 100 0.0733034
11 11 15 100 0.0816246
12 11 15 100 0.0607449
13 11 15 100 0.100338
14 11 15 100 0.103898
15 11 15 100 0.154361
0 12 15 100 0.213865
1 12 15 100 0.030014
2 12 15 100 0.0302674
3 12 15 100 0.019572
4 12 15 100 0.0293864
5 12 15 100 0.02093
6 12 15 100 0.0210915
7 12 15 100 0.0210025
8 12 15 100 0.0361514
9 12 15 100 0.0438625
10 12 15 100 0.0596582
11 12 15 100 0.0850608
12 12 15 100 0.043893
13 12 15 100 0.0852111
14 12 15 100 0.0859245
15 12 15 100 0.17411
0 13 15 100 0.211415
1 13 15 100 0.014425
2 13 15 100 0.00184586
3 13 15 100 0.0329218
4 13 15 100 0.0248077
5 13 15 100 0.0173953
6 13 15 100 0.0230142
7 13 15 100 0.0524396
8 13 15 100 0.0595065
9 13 15 100 0.0419833
10 13 15 100 0.0484868
11 13 15 100 0.0408787
12 13 15 100 0.0966814
13 13 15 100 0.0679251
14 13 15 100 0.115694
15 13 15 100 0.15058
0 14 15 100 0.259483
1 14 15 100 0.0123053
2 14 15 100 0.0204952
3 14 15 100 0.0251769
4 14 15 100 0.0197138
5 14 15 100 0.00796368
6 14 15 100 0.0239904
7 14 15 100 0.0212279
8 14 15 100 0.0261605
9 14 15 100 0.0408694
10 14 15 100 0.0403082
11 14 15 100 0.0294426
12 14 15 100 0.0826704
13 14 15 100 0.083917
14 14 15 100 0.118128
15 14 15 100 0.188148
0 15 15 100 0.20854
1 15 15 100 0.00911136
2 15 15 100 0.0182571
3 15 15 100 0.0188004
4 15 15 100 0.0185645
5 15 15 100 0.0275719
6 15 15 100 0.0141271
7 15 15 100 0.0389858
8 15 15 100 0.0590362
9 15 15 100 0.0636098
10 15 15 100 0.0271508
11 15 15 100 0.0727248
12 15 15 100 0.0457104
13 15 15 100 0.0652438
14 15 15 100 0.0982808
15 15 15 100 0.214285
0 16 15 100 0.326256
1 16 15 100 0.00012132
2 16 15 100 0.0387712
3 16 15 100 6.27641e-05
4 16 15 100 5.22907e-05
5 16 15 100 0.0246297
6 16 15 100 0.0269503
7 16 15 100 0.0525491
8 16 15 100 0.0921547
9 16 15 100 0.0996235
10 16 15 100 0.0183932
11 16 15 100 0.027965
12 16 15 100 0.0291771
13 16 15 100 0.0391773
14 16 15 100 0.106829
15 16 15 100 0.117287
0 17 15 100 0.207677
1 17 15 100 4.99403e-05
2 17 15 100 0.0425551
3 17 15 100 3.83661e-05
4 17 15 100 1.05081e-06
5 17 15 100 0.000341051
6 17 15 100 0.00698123
7 17 15 100 0.107706
8 17 15 100 0.114825
9 17 15 100 0.0638315
10 17 15 100 0.0638337
12 17 15 100 0.0608568
13 17 15 100 0.0423409
14 17 15 100 0.11278
15 17 15 100 0.176182
0 18 15 100 0.367564
1 18 15 100 6.96164e-07
2 18 15 100 5.12324e-05
3 18 15 100 0.00234839
4 18 15 100 6.45881e-05
5 18 15 100 0.0017513
6 18 15 100 0.00600767
7 18 15 100 0.0576403
8 18 15 100 0.060786
9 18 15 100 0.0292361
10 18 15 100 0.0680562
11 18 15 100 0.0294946
12 18 15 100 0.0315508
13 18 15 100 0.0588379
14 18 15 100 0.05295
15 18 15 100 0.23366
0 19 15 100 0.153806
1 19 15 100 0.0010135
2 19 15 100 1.07771e-05
4 19 15 100 0.0477034
7 19 15 100 0.105743
9 19 15 100 0.0546858
10 19 15 100 8.75152e-06
11 19 15 100 0.0473387
12 19 15 100 0.113554
13 19 15 100 0.238301
14 19 15 100 0.0952384
15 19 15 100 0.142597
0 20 15 100 0.225275
1 20 15 100 0.0556278
2 20 15 100 0.000477308
3 20 15 100 0.000172239
4 20 15 100 9.53595e-05
5 20 15 100 0.000231382
6 20 15 100 9.42573e-05
7 20 15 100 0.0541324
8 20 15 100 4.33725e-06
10 20 15 100 0.166664
11 20 15 100 1.1061e-06
12 20 15 100 0.164994
14 20 15 100 0.00943643
15 20 15 100 0.322795
0 21 15 100 0.415416
1 21 15 100 0.000407843
2 21 15 100 0.166667
3 21 15 100 0.000328539
5 21 15 100 2.24091e-05
6 21 15 100 2.51934e-06
7 21 15 100 0.0184167
8 21 15 100 5.42667e-06
10 21 15 100 0.166659
11 21 15 100 0.0807014
12 21 15 100 0.151372
14 21 15 100 1.11686e-06
0 22 15 100 0.598873
4 22 15 100 1.33006e-05
6 22 15 100 2.85994e-05
8 22 15 100 0.000928797
11 22 15 100 0.000127974
12 22 15 100 0.200028
13 22 15 100 0.200001
2 23 15 100 0.333334
13 23 15 100 0.666667
0 24 15 100 0.00199733
7 24 15 100 2.02906e-05
13 24 15 100 0.997982
0 1 16 100 0.102218
1 1 16 100 0.535729
2 1 16 100 0.0635301
3 1 16 100 0.0604486
4 1 16 100 0.0624441
5 1 16 100 0.0292025
6 1 16 100 0.0161208
7 1 16 100 0.0216132
8 1 16 100 0.012986
9 1 16 100 0.0240517
10 1 16 100 0.00107434
11 1 16 100 0.0286898
12 1 16 100 0.00547666
13 1 16 100 0.00224023
14 1 16 100 0.0108993
15 1 16 100 0.00723979
16 1 16 100 0.0160353
0 2 16 100 0.0763512
1 2 16 100 0.116911
2 2 16 100 0.219162
3 2 16 100 0.113531
4 2 16 100 0.105927
5 2 16 100 0.107301
6 2 16 100 0.0423352
7 2 16 100 0.0389636
8 2 16 100 0.0289946
9 2 16 100 0.0208535
10 2 16 100 0.0182361
11 2 16 100 0.0292641
12 2 16 100 0.0149116
13 2 16 100 0.0139756
14 2 16 100 0.0219808
15 2 16 100 0.016103
16 2 16 100 0.0151986
0 3 16 100 0.12517
1 3 16 100 0.0681844
2 3 16 100 0.106484
3 3 16 100 0.159231
4 3 16 100 0.10945
5 3 16 100 0.0812895
6 3 16 100 0.0531494
7 3 16 100 0.0168469
8 3 16 100 0.0414974
9 3 16 100 0.05479
10 3 16 100 0.0395932
11 3 16 100 0.0244411
12 3 16 100 0.0227194
13 3 16 100 0.0298899
14 3 16 100 0.0198397
15 3 16 100 0.020196
16 3 16 100 0.0272281
0 4 16 100 0.166515
1 4 16 100 0.0435421
2 4 16 100 0.0384724
3 4 16 100 0.136441
4 4 16 100 0.107721
5 4 16 100 0.0729981
6 4 16 100 0.077635
7 4 16 100 0.0561114
8 4 16 100 0.0663759
9 4 16 100 0.0546536
10 4 16 100 0.034496
11 4 16 100 0.0104407
12 4 16 100 0.0393934
13 4 16 100 0.0202637
14 4 16 100 0.0141814
15 4 16 100 0.0363483
16 4 16 100 0.0244108
0 5 16 100 0.134751
1 5 16 100 0.0424185
2 5 16 100 0.0199146
3 5 16 100 0.0647412
4 5 16 100 0.0986135
5 5 16 100 0.105356
6 5 16 100 0.0914628
7 5 16 100 0.0871571
8 5 16 100 0.0643524
9 5 16 100 0.0359809
10 5 16 100 0.0548048
11 5 16 100 0.0505534
12 5 16 100 0.0389048
13 5 16 100 0.021151
14 5 16 100 0.0227984
15 5 16 100 0.0406187
16 5 16 100 0.026421
0 6 16 100 0.196495
1 6 16 100 0.0260786
2 6 16 100 0.0447821
3 6 16 100 0.0384362
4 6 16 100 0.0546731
5 6 16 100 0.0716101
6 6 16 100 0.0445739
7 6 16 100 0.0612255
8 6 16 100 0.0887166
9 6 16 100 0.05633
10 6 16 100 0.0422155
11 6 16 100 0.0445823
12 6 16 100 0.0594137
13 6 16 100 0.0585598
14 6 16 100 0.0430777
15 6 16 100 0.0370855
16 6 16 100 0.0321449
0 7 16 100 0.171479
1 7 16 100 0.0318078
2 7 16 100 0.0336942
3 7 16 100 0.0357504
4 7 16 100 0.0325045
5 7 16 100 0.0386652
6 7 16 100 0.061103
7 7 16 100 0.0693565
8 7 16 100 0.0734843
9 7 16 100 0.0705777
10 7 16 100 0.0408595
11 7 16 100 0.063036
12 7 16 100 0.0580934
13 7 16 100 0.0442483
14 7 16 100 0.0740866
15 7 16 100 0.0704562
16 7 16 100 0.0307971
0 8 16 100 0.150407
1 8 16 100 0.00136623
2 8 16 100 0.0180252
3 8 16 100 0.04634
4 8 16 100 0.0491236
5 8 16 100 0.0257617
6 8 16 100 0.0439479
7 8 16 100 0.064854
8 8 16 100 0.058466
9 8 16 100 0.0746101
10 8 16 100 0.0755496
11 8 16 100 0.0640882
12 8 16 100 0.0687712
13 8 16 100 0.0510804
14 8 16 100 0.0519798
15 8 16 100 0.0967682
16 8 16 100 0.0588612
0 9 16 100 0.217144
1 9 16 100 0.000764299
2 9 16 100 0.00778396
3 9 16 100 0.0276381
4 9 16 100 0.0112684
5 9 16 100 0.0376341
6 9 16 100 0.0304816
7 9 16 100 0.0448489
8 9 16 100 0.0718688
9 9 16 100 0.0600757
10 9 16 100 0.0718077
11 9 16 100 0.0825648
12 9 16 100 0.0647664
13 9 16 100 0.0595226
14 9 16 100 0.0390405
15 9 16 100 0.0843678
16 9 16 100 0.0884221
0 10 16 100 0.183576
1 10 16 100 0.0137217
2 10 16 100 0.0136875
3 10 16 100 0.0276982
4 10 16 100 0.00891818
5 10 16 100 0.0269054
6 10 16 100 0.0232293
7 10 16 100 0.0360841
8 10 16 100 0.0483875
9 10 16 100 0.0725236
10 10 16 100 0.0599641
11 10 16 100 0.107443
12 10 16 100 0.0677311
13 10 16 100 0.0750595
14 10 16 100 0.0857155
15 10 16 100 0.0548234
16 10 16 100 0.094531
0 11 16 100 0.213001
1 11 16 100 0.0122808
2 11 16 100 0.00603411
3 11 16 100 0.011714
4 11 16 100 0.0111939
5 11 16 100 0.0308331
6 11 16 100 0.0411058
7 11 16 100 0.0370894
8 11 16 100 0.034695
9 11 16 100 0.0385856
10 11 16 100 0.0843697
11 11 16 100 0.0337438
12 11 16 100 0.125808
13 11 16 100 0.0795744
14 11 16 100 0.0844303
15 11 16 100 0.0512066
16 11 16 100 0.104335
0 12 16 100 0.165823
1 12 16 100 0.00556163
2 12 16 100 0.0158697
3 12 16 100 0.0327564
4 12 16 100 0.00620786
5 12 16 100 0.0174363
6 12 16 100 0.0286368
7 12 16 100 0.0189919
8 12 16 100 0.0232777
9 12 16 100 0.0106369
10 12 16 100 0.0689993
11 12 16 100 0.0809508
12 12 16 100 0.085536
13 12 16 100 0.116547
14 12 16 100 0.0901509
15 12 16 100 0.0774296
16 12 16 100 0.155189
0 13 16 100 0.224788
1 13 16 100 0.0245447
2 13 16 100 0.000188522
3 13 16 100 0.0126576
4 13 16 100 0.0128739
5 13 16 100 0.0205082
6 13 16 100 0.00912138
7 13 16 100 0.0162509
8 13 16 100 0.0138233
9 13 16 100 0.0434226
10 13 16 100 0.0203273
11 13 16 100 0.0529736
12 13 16 100 0.0793075
13 13 16 100 0.0469955
14 13 16 100 0.113785
15 13 16 100 0.123769
16 13 16 100 0.184662
0 14 16 100 0.152552
1 14 16 100 0.000110567
2 14 16 100 0.0148518
3 14 16 100 0.00707855
4 14 16 100 0.0183895
5 14 16 100 0.021441
6 14 16 100 0.0153651
7 14 16 100 0.0272306
8 14 16 100 0.0208472
9 14 16 100 0.00094138
10 14 16 100 0.0144778
11 14 16 100 0.0561854
12 14 16 100 0.0619335
13 14 16 100 0.0644263
14 14 16 100 0.147598
15 14 16 100 0.113682
16 14 16 100 0.26289
0 15 16 100 0.253534
1 15 16 100 8.8636e-06
2 15 16 100 0.00161124
3 15 16 100 0.00875814
4 15 16 100 0.00987398
5 15 16 100 0.00936913
6 15 16 100 0.0220476
7 15 16 100 0.0350707
8 15 16 100 0.0282701
9 15 16 100 0.000334008
10 15 16 100 0.0263318
11 15 16 100 0.0188616
12 15 16 100 0.0740097
13 15 16 100 0.0385058
14 15 16 100 0.0908264
15 15 16 100 0.0366537
16 15 16 100 0.345933
0 16 16 100 0.324518
1 16 16 100 0.00044275
2 16 16 100 0.012615
3 16 16 100 0.00035097
4 16 16 100 0.0247316
5 16 16 100 0.0118688
6 16 16 100 0.0117816
7 16 16 100 0.0183893
8 16 16 100 0.0128621
9 16 16 100 0.00160423
10 16 16 100 0.023864
11 16 16 100 0.056732
12 16 16 100 0.00182537
13 16 16 100 0.0676921
14 16 16 100 0.105122
15 16 16 100 0.106771
16 16 16 100 0.21883
0 17 16 100 0.359416
1 17 16 100 0.000470543
2 17 16 100 0.00110385
3 17 16 100 3.66724e-05
4 17 16 100 4.81422e-06
5 17 16 100 0.0377695
6 17 16 100 0.0210304
7 17 16 100 0.0376663
8 17 16 100 0.0371027
9 17 16 100 0.0401765
10 17 16 100 0.000970182
11 17 16 100 0.0570045
12 17 16 100 3.72998e-05
13 17 16 100 6.52547e-05
14 17 16 100 0.132123
15 17 16 100 0.0539632
16 17 16 100 0.22106
0 18 16 100 0.123655
1 18 16 100 9.25553e-06
2 18 16 100 0.000871551
4 18 16 100 3.3007e-05
5 18 16 100 0.00140575
6 18 16 100 3.39493e-05
7 18 16 100 0.0316336
8 18 16 100 0.00357965
9 18 16 100 0.0329878
10 18 16 100 0.0903887
11 18 16 100 0.0314121
12 18 16 100 0.0301328
13 18 16 100 0.0317929
14 18 16 100 0.126482
15 18 16 100 0.0622477
16 18 16 100 0.433334
0 19 16 100 0.278875
1 19 16 100 2.3064e-06
2 19 16 100 0.00102819
3 19 16 100 0.000163972
4 19 16 100 0.0054531
5 19 16 100 1.34939e-05
6 19 16 100 8.94462e-05
7 19 16 100 0.000622372
8 19 16 100 9.52525e-05
9 19 16 100 0.0810041
10 19 16 100 0.043038
11 19 16 100 0.00328069
12 19 16 100 0.000282095
13 19 16 100 0.0416907
14 19 16 100 0.122819
15 19 16 100 0.0423785
16 19 16 100 0.379164
0 20 16 100 0.427292
1 20 16 100 1.70817e-06
2 20 16 100 0.000682171
6 20 16 100 4.1522e-06
7 20 16 100 0.000946609
9 20 16 100 5.19972e-05
10 20 16 100 0.000134149
12 20 16 100 0.00194496
14 20 16 100 0.0133709
15 20 16 100 0.111142
16 20 16 100 0.444429
0 21 16 100 0.498582
2 21 16 100 0.000111144
3 21 16 100 8.0263e-06
5 21 16 100 1.02897e-05
7 21 16 100 3.1042e-06
10 21 16 100 3.32487e-06
11 21 16 100 9.10976e-06
12 21 16 100 5.10486e-05
16 21 16 100 0.501222
0 22 16 100 0.35769
4 22 16 100 8.99086e-05
5 22 16 100 0.000128946
9 22 16 100 0.000418902
10 22 16 100 0.0244743
16 22 16 100 0.617198
0 1 17 100 0.105931
1 1 17 100 0.518769
2 1 17 100 0.0389431
3 1 17 100 0.0468593
4 1 17 100 0.0222708
5 1 17 100 0.051259
6 1 17 100 0.0343085
7 1 17 100 0.0165281
8 1 17 100 0.0430356
9 1 17 100 0.00934271
10 1 17 100 0.0107235
11 1 17 100 0.00696972
12 1 17 100 0.0168408
13 1 17 100 0.00252114
14 1 17 100 0.0082631
15 1 17 100 0.014872
16 1 17 100 0.00617416
17 1 17 100 0.0463884
0 2 17 100 0.0585019
1 2 17 100 0.16217
2 2 17 100 0.238742
3 2 17 100 0.075379
4 2 17 100 0.10804
5 2 17 100 0.0801436
6 2 17 100 0.0441024
7 2 17 100 0.0138421
8 2 17 100 0.0148622
9 2 17 100 0.0176391
10 2 17 100 0.0172059
11 2 17 100 0.0131453
12 2 17 100 0.0303919
13 2 17 100 0.0176258
14 2 17 100 0.0229116
15 2 17 100 0.0187611
16 2 17 100 0.0181445
17 2 17 100 0.0483914
0 3 17 100 0.208532
1 3 17 100 0.0787434
2 3 17 100 0.101535
3 3 17 100 0.177583
4 3 17 100 0.120854
5 3 17 100 0.0377219
6 3 17 100 0.0662236
7 3 17 100 0.0295154
8 3 17 100 0.0149517
9 3 17 100 0.0191853
10 3 17 100 0.023276
11 3 17 100 0.0299913
12 3 17 100 0.00717161
13 3 17 100 0.01022
14 3 17 100 0.000435368
15 3 17 100 0.0291531
16 3 17 100 0.0230094
17 3 17 100 0.0218981
0 4 17 100 0.16443
1 4 17 100 0.0198399
2 4 17 100 0.0518293
3 4 17 100 0.131495
4 4 17 100 0.0978999
5 4 17 100 0.0965283
6 4 17 100 0.105587
7 4 17 100 0.0671005
8 4 17 100 0.0611478
9 4 17 100 0.019095
10 4 17 100 0.0470269
11 4 17 100 0.0244548
12 4 17 100 0.0183408
13 4 17 100 0.0174189
14 4 17 100 0.00211255
15 4 17 100 0.0261559
16 4 17 100 0.0191081
17 4 17 100 0.0304291
0 5 17 100 0.143118
1 5 17 100 0.0305158
2 5 17 100 0.0336997
3 5 17 100 0.0690085
4 5 17 100 0.0979837
5 5 17 100 0.0861278
6 5 17 100 0.0364874
7 5 17 100 0.118548
8 5 17 100 0.119292
9 5 17 100 0.0432699
10 5 17 100 0.0419312
11 5 17 100 0.0295688
12 5 17 100 0.00864632
13 5 17 100 0.0322104
14 5 17 100 0.0192507
15 5 17 100 0.0546663
16 5 17 100 0.00644244
17 5 17 100 0.0292326
0 6 17 100 0.207057
1 6 17 100 0.023312
2 6 17 100 0.0488615
3 6 17 100 0.0267955
4 6 17 100 0.0453353
5 6 17 100 0.0939991
6 6 17 100 0.0748187
7 6 17 100 0.0300901
8 6 17 100 0.0809392
9 6 17 100 0.106307
10 6 17 100 0.0426654
11 6 17 100 0.0318471
12 6 17 100 0.0375058
13 6 17 100 0.0359178
14 6 17 100 0.0198769
15 6 17 100 0.037601
16 6 17 100 0.0295796
17 6 17 100 0.0274909
0 7 17 100 0.227111
1 7 17 100 0.00898044
2 7 17 100 0.0124678
3 7 17 100 0.057099
4 7 17 100 0.00686692
5 7 17 100 0.0636933
6 7 17 100 0.058919
7 7 17 100 0.0933494
8 7 17 100 0.067094
9 7 17 100 0.0445554
10 7 17 100 0.0606501
11 7 17 100 0.0450581
12 7 17 100 0.00665355
13 7 17 100 0.0471236
14 7 17 100 0.0363623
15 7 17 100 0.0480876
16 7 17 100 0.0619462
17 7 17 100 0.0539825
0 8 17 100 0.118706
1 8 17 100 0.0461231
2 8 17 100 0.0012125
3 8 17 100 0.0432194
4 8 17 100 0.0337999
5 8 17 100 0.0213507
6 8 17 100 0.0474129
7 8 17 100 0.0688587
8 8 17 100 0.0633466
9 8 17 100 0.0581449
10 8 17 100 0.0353339
11 8 17 100 0.0731379
12 8 17 100 0.080722
13 8 17 100 0.101279
14 8 17 100 0.0385665
15 8 17 100 0.0534497
16 8 17 100 0.0691212
17 8 17 100 0.0462153
0 9 17 100 0.203536
1 9 17 100 0.0208911
2 9 17 100 0.0143481
3 9 17 100 0.00816945
4 9 17 100 0.058421
5 9 17 100 0.00565869
6 9 17 100 0.0326135
7 9 17 100 0.0240216
8 9 17 100 0.0635501
9 9 17 100 0.0878217
10 9 17 100 0.0799266
11 9 17 100 0.0540197
12 9 17 100 0.044244
13 9 17 100 0.0958472
14 9 17 100 0.0467723
15 9 17 100 0.0461761
16 9 17 100 0.0486997
17 9 17 100 0.0652828
0 10 17 100 0.172771
1 10 17 100 0.0221132
2 10 17 100 0.0144835
3 10 17 100 0.0134551
4 10 17 100 0.0697089
5 10 17 100 0.0114601
6 10 17 100 0.0132608
7 10 17 100 0.0222482
8 10 17 100 0.0537657
9 10 17 100 0.0551369
10 10 17 100 0.0453065
11 10 17 100 0.122576
12 10 17 100 0.0743034
13 10 17 100 0.0885955
14 10 17 100 0.0512865
15 10 17 100 0.0578033
16 10 17 100 0.0159477
17 10 17 100 0.0957774
0 11 17 100 0.154655
1 11 17 100 0.0358257
2 11 17 100 0.00793152
3 11 17 100 0.00545023
4 11 17 100 0.0617178
5 11 17 100 0.0229521
6 11 17 100 0.0321415
7 11 17 100 0.0157289
8 11 17 100 0.0168839
9 11 17 100 0.0737887
10 11 17 100 0.0477375
11 11 17 100 0.0772373
12 11 17 100 0.0506464
13 11 17 100 0.070756
14 11 17 100 0.0897634
15 11 17 100 0.0373632
16 11 17 100 0.0916609
17 11 17 100 0.107761
0 12 17 100 0.22412
1 12 17 100 0.00733157
2 12 17 100 0.0172903
3 12 17 100 0.0356168
4 12 17 100 0.00877225
5 12 17 100 0.0117894
6 12 17 100 0.0221524
7 12 17 100 0.00700885
8 12 17 100 0.0180965
9 12 17 100 0.0257843
10 12 17 100 0.0637164
11 12 17 100 0.071343
12 12 17 100 0.0432864
13 12 17 100 0.0833768
14 12 17 100 0.0742099
15 12 17 100 0.119389
16 12 17 100 0.0751482
17 12 17 100 0.0915677
0 13 17 100 0.2292
1 13 17 100 0.0318435
2 13 17 100 0.00948907
3 13 17 100 0.02447
4 13 17 100 0.0796571
5 13 17 100 0.0115467
6 13 17 100 0.023457
7 13 17 100 0.0183663
8 13 17 100 0.0201425
9 13 17 100 0.0300362
10 13 17 100 0.0353616
11 13 17 100 0.0518018
12 13 17 100 0.0715789
13 13 17 100 0.0810054
14 13 17 100 0.0366635
15 13 17 100 0.0455154
16 13 17 100 0.0890598
17 13 17 100 0.110805
0 14 17 100 0.163505
1 14 17 100 0.0370803
2 14 17 100 0.0115593
3 14 17 100 0.0257684
4 14 17 100 0.0416169
5 14 17 100 0.0016145
6 14 17 100 0.011542
7 14 17 100 0.0107796
8 14 17 100 0.0220608
9 14 17 100 0.0131773
10 14 17 100 0.0138131
11 14 17 100 0.053356
12 14 17 100 0.0626344
13 14 17 100 0.0384062
14 14 17 100 0.119282
15 14 17 100 0.12521
16 14 17 100 0.0986741
17 14 17 100 0.14992
0 15 17 100 0.204536
1 15 17 100 0.0838405
2 15 17 100 0.00866314
3 15 17 100 0.0119567
4 15 17 100 0.00353488
5 15 17 100 0.014736
6 15 17 100 0.0591891
7 15 17 100 0.0210685
8 15 17 100 0.0370527
9 15 17 100 0.0122317
10 15 17 100 0.0261349
11 15 17 100 0.000608418
12 15 17 100 0.0882513
13 15 17 100 0.0229557
14 15 17 100 0.0788943
15 15 17 100 0.0701126
16 15 17 100 0.115007
17 15 17 100 0.141226
0 16 17 100 0.166888
1 16 17 100 0.0820327
2 16 17 100 0.000181768
3 16 17 100 0.0340417
4 16 17 100 0.0466556
5 16 17 100 0.0415959
6 16 17 100 0.0290651
7 16 17 100 0.001532
8 16 17 100 0.033003
9 16 17 100 0.0308821
10 16 17 100 0.0674936
11 16 17 100 0.0437972
12 16 17 100 0.0031383
13 16 17 100 0.0949538
14 16 17 100 0.065363
15 16 17 100 0.0414106
16 16 17 100 0.09177
17 16 17 100 0.126195
0 17 17 100 0.284706
1 17 17 100 0.0172606
2 17 17 100 6.39691e-05
3 17 17 100 0.0344836
4 17 17 100 0.0344728
5 17 17 100 0.000373715
6 17 17 100 0.0375444
7 17 17 100 0.000891264
8 17 17 100 0.0345053
9 17 17 100 0.035887
10 17 17 100 0.0214817
11 17 17 100 0.0365439
12 17 17 100 0.0338626
13 17 17 100 0.0175786
14 17 17 100 0.0189432
15 17 17 100 0.0861913
16 17 17 100 0.0715081
17 17 17 100 0.233702
0 18 17 100 0.256412
1 18 17 100 0.0287176
2 18 17 100 0.000380847
3 18 17 100 3.47573e-05
4 18 17 100 0.0526661
5 18 17 100 0.00116818
6 18 17 100 3.03764e-05
7 18 17 100 0.00186618
8 18 17 100 0.0258835
10 18 17 100 0.00452034
11 18 17 100 0.00255752
12 18 17 100 0.0263112
13 18 17 100 2.83775e-05
14 18 17 100 0.0498993
15 18 17 100 0.119509
16 18 17 100 0.131946
17 18 17 100 0.298068
0 19 17 100 0.177316
1 19 17 100 0.0357161
2 19 17 100 1.09301e-05
3 19 17 100 4.45474e-06
4 19 17 100 0.0357144
5 19 17 100 2.49171e-06
6 19 17 100 0.0802355
7 19 17 100 2.55294e-05
8 19 17 100 0.0357305
9 19 17 100 7.193e-06
10 19 17 100 0.00195081
11 19 17 100 0.0357173
12 19 17 100 0.0714412
14 19 17 100 0.00685729
15 19 17 100 0.000108645
16 19 17 100 0.0989341
17 19 17 100 0.420227
0 20 17 100 0.292867
1 20 17 100 3.80553e-06
3 20 17 100 2.44008e-05
4 20 17 100 0.0588227
5 20 17 100 3.49745e-06
6 20 17 100 0.137569
8 20 17 100 0.000247744
9 20 17 100 9.864e-06
10 20 17 100 0.00466253
12 20 17 100 0.0588248
14 20 17 100 3.03271e-06
15 20 17 100 2.28033e-05
16 20 17 100 0.136518
17 20 17 100 0.310421
0 21 17 100 0.649965
1 21 17 100 7.85763e-06
2 21 17 100 0.000324482
3 21 17 100 0.00483275
4 21 17 100 0.133266
5 21 17 100 0.00075933
6 21 17 100 6.22022e-06
8 21 17 100 3.19286e-05
10 21 17 100 2.18455e-05
11 21 17 100 0.010506
12 21 17 100 0.000700346
15 21 17 100 0.0658105
16 21 17 100 0.0670392
17 21 17 100 0.0667288
0 22 17 100 0.145795
3 22 17 100 4.52563e-05
6 22 17 100 0.285715
9 22 17 100 5.08923e-05
10 22 17 100 0.139384
11 22 17 100 0.139172
12 22 17 100 4.20565e-06
16 22 17 100 0.000312606
17 22 17 100 0.289521
0 23 17 100 0.218107
2 23 17 100 5.23005e-06
5 23 17 100 9.80346e-05
6 23 17 100 0.485286
10 23 17 100 0.000472902
12 23 17 100 3.57715e-05
13 23 17 100 6.94659e-05
17 23 17 100 0.295927
0 1 18 100 0.0857956
1 1 18 100 0.523696
2 1 18 100 0.0837528
3 1 18 100 0.014799
4 1 18 100 0.103504
5 1 18 100 0.0162834
6 1 18 100 0.0357611
7 1 18 100 0.00224694
8 1 18 100 0.0119776
9 1 18 100 0.00395732
10 1 18 100 0.00126465
11 1 18 100 0.000645226
12 1 18 100 0.00029738
13 1 18 100 0.0370642
14 1 18 100 0.000126657
15 1 18 100 0.0120521
16 1 18 100 3.86244e-05
17 1 18 100 0.0346883
18 1 18 100 0.0320487
0 2 18 100 0.0952945
1 2 18 100 0.122442
2 2 18 100 0.249968
3 2 18 100 0.0850567
4 2 18 100 0.162122
5 2 18 100 0.0743648
6 2 18 100 0.0122372
7 2 18 100 0.000787688
8 2 18 100 0.00870331
9 2 18 100 0.000198901
10 2 18 100 0.0123469
11 2 18 100 0.00140329
12 2 18 100 0.0202418
13 2 18 100 0.0193921
14 2 18 100 0.010009
15 2 18 100 0.0521674
16 2 18 100 0.0374818
17 2 18 100 0.0126087
18 2 18 100 0.023174
0 3 18 100 0.192429
1 3 18 100 0.0820022
2 3 18 100 0.107443
3 3 18 100 0.135741
4 3 18 100 0.115714
5 3 18 100 0.0911121
6 3 18 100 0.0479728
7 3 18 100 0.0455262
8 3 18 100 0.0109309
9 3 18 100 0.0251582
10 3 18 100 0.0211849
11 3 18 100 0.0380758
12 3 18 100 3.38501e-05
13 3 18 100 0.000214131
14 3 18 100 0.0150821
15 3 18 100 0.0234579
16 3 18 100 0.00210616
17 3 18 100 0.0118387
18 3 18 100 0.0339771
0 4 18 100 0.15119
1 4 18 100 0.0928703
2 4 18 100 0.0117251
3 4 18 100 0.103992
4 4 18 100 0.10694
5 4 18 100 0.0762067
6 4 18 100 0.0740696
7 4 18 100 0.0618112
8 4 18 100 0.0480705
9 4 18 100 0.0813104
10 4 18 100 0.0121222
11 4 18 100 0.0493265
12 4 18 100 0.024393
13 4 18 100 0.000755993
14 4 18 100 1.4151e-05
15 4 18 100 0.0357938
16 4 18 100 0.0133506
17 4 18 100 0.0440591
18 4 18 100 0.0119993
0 5 18 100 0.187077
1 5 18 100 0.0686731
2 5 18 100 0.0247329
3 5 18 100 0.0748571
4 5 18 100 0.102731
5 5 18 100 0.0361002
6 5 18 100 0.0469213
7 5 18 100 0.0830848
8 5 18 100 0.0593294
9 5 18 100 0.0479217
10 5 18 100 0.0548883
11 5 18 100 0.0651605
12 5 18 100 0.0465143
13 5 18 100 0.011083
14 5 18 100 0.0225782
15 5 18 100 0.0126843
16 5 18 100 0.0207093
17 5 18 100 0.0233259
18 5 18 100 0.011628
0 6 18 100 0.168307
1 6 18 100 0.001465
2 6 18 100 0.0479075
3 6 18 100 0.0548504
4 6 18 100 0.0967087
5 6 18 100 0.0999204
6 6 18 100 0.0342662
7 6 18 100 0.0577957
8 6 18 100 0.137296
9 6 18 100 0.0415444
10 6 18 100 0.037
11 6 18 100 0.0333339
12 6 18 100 0.000134369
13 6 18 100 0.0358223
14 6 18 100 0.0593803
15 6 18 100 0.0403596
16 6 18 100 0.000201861
17 6 18 100 0.0418982
18 6 18 100 0.0118079
0 7 18 100 0.204045
1 7 18 100 0.00141807
2 7 18 100 0.00327745
3 7 18 100 0.0264515
4 7 18 100 0.0267645
5 7 18 100 0.0118692
6 7 18 100 0.0271935
7 7 18 100 0.0417878
8 7 18 100 0.0768742
9 7 18 100 0.216037
10 7 18 100 0.0804427
11 7 18 100 0.072402
12 7 18 100 0.000682648
13 7 18 100 0.00069177
14 7 18 100 0.0369423
15 7 18 100 0.0459185
16 7 18 100 0.0554637
17 7 18 100 0.0212057
18 7 18 100 0.0505323
0 8 18 100 0.131339
1 8 18 100 0.0258675
2 8 18 100 2.86283e-05
3 8 18 100 0.0174494
4 8 18 100 0.0247447
5 8 18 100 0.0673601
6 8 18 100 0.0398567
7 8 18 100 0.128567
8 8 18 100 0.0623928
9 8 18 100 0.0618693
10 8 18 100 0.138011
11 8 18 100 0.0390011
12 8 18 100 0.0397253
13 8 18 100 0.0139035
14 8 18 100 0.0273102
15 8 18 100 0.0629658
16 8 18 100 0.0364193
17 8 18 100 0.0269545
18 8 18 100 0.0562335
0 9 18 100 0.231316
1 9 18 100 0.0389098
2 9 18 100 8.22637e-05
3 9 18 100 0.000885715
4 9 18 100 0.0183518
5 9 18 100 0.0335589
6 9 18 100 0.0505633
7 9 18 100 0.042041
8 9 18 100 0.022298
9 9 18 100 0.0397931
10 9 18 100 0.127183
11 9 18 100 0.0637959
12 9 18 100 0.0514619
13 9 18 100 0.0144107
14 9 18 100 0.0125991
15 9 18 100 0.0577654
16 9 18 100 0.0691763
17 9 18 100 0.112963
18 9 18 100 0.0128449
0 10 18 100 0.149563
1 10 18 100 0.05232
2 10 18 100 0.000143656
3 10 18 100 0.0141631
4 10 18 100 0.0256417
5 10 18 100 0.0222685
6 10 18 100 0.0255431
7 10 18 100 0.0141907
8 10 18 100 0.0148371
9 10 18 100 0.0311948
10 10 18 100 0.0640048
11 10 18 100 0.0738636
12 10 18 100 0.0471072
13 10 18 100 0.136099
14 10 18 100 0.0811659
15 10 18 100 0.0749306
16 10 18 100 0.0346453
17 10 18 100 0.0389468
18 10 18 100 0.0993712
0 11 18 100 0.21925
1 11 18 100 0.0234338
2 11 18 100 0.000496088
3 11 18 100 0.0253948
4 11 18 100 0.028214
5 11 18 100 0.0124408
6 11 18 100 0.0283311
7 11 18 100 0.0169014
8 11 18 100 0.00228671
9 11 18 100 0.0309188
10 11 18 100 0.0410066
11 11 18 100 0.0503412
12 11 18 100 0.0490853
13 11 18 100 0.0816936
14 11 18 100 0.0633223
15 11 18 100 0.105847
16 11 18 100 0.0526229
17 11 18 100 0.14091
18 11 18 100 0.0275036
0 12 18 100 0.259218
1 12 18 100 0.0931369
2 12 18 100 0.000750122
3 12 18 100 0.0251351
4 12 18 100 1.1194e-05
5 12 18 100 0.000114691
6 12 18 100 0.0147087
7 12 18 100 0.0522599
8 12 18 100 0.0291892
9 12 18 100 0.0148753
10 12 18 100 0.0330695
11 12 18 100 0.0289144
12 12 18 100 0.0295292
13 12 18 100 0.0579979
14 12 18 100 0.0636555
15 12 18 100 0.0963029
16 12 18 100 0.0581814
17 12 18 100 0.0839454
18 12 18 100 0.0590047
0 13 18 100 0.277566
1 13 18 100 0.0187836
2 13 18 100 0.0123103
3 13 18 100 0.0187486
4 13 18 100 0.0546874
5 13 18 100 0.00060011
6 13 18 100 0.000306252
7 13 18 100 0.0527785
8 13 18 100 0.00279346
9 13 18 100 0.0209091
10 13 18 100 0.0177625
11 13 18 100 0.0342624
12 13 18 100 0.0416762
13 13 18 100 0.0305725
14 13 18 100 0.0352297
15 13 18 100 0.0361184
16 13 18 100 0.172459
17 13 18 100 0.060487
18 13 18 100 0.111949
0 14 18 100 0.122311
1 14 18 100 0.0915072
2 14 18 100 0.0021375
3 14 18 100 1.06165e-05
4 14 18 100 0.0164524
5 14 18 100 0.00020013
6 14 18 100 0.0228065
7 14 18 100 0.0591711
8 14 18 100 0.0915976
9 14 18 100 0.0242907
10 14 18 100 0.038761
11 14 18 100 0.0407416
12 14 18 100 0.0206719
13 14 18 100 0.0192493
14 14 18 100 0.15376
15 14 18 100 0.0703224
16 14 18 100 0.0632259
17 14 18 100 0.128182
18 14 18 100 0.034602
0 15 18 100 0.170726
1 15 18 100 0.0641315
2 15 18 100 0.0411972
3 15 18 100 0.0208711
4 15 18 100 0.042555
5 15 18 100 0.0212837
6 15 18 100 7.47431e-05
7 15 18 100 0.0640471
8 15 18 100 0.148132
9 15 18 100 0.0424768
10 15 18 100 0.0012595
11 15 18 100 0.0637393
12 15 18 100 0.00122383
13 15 18 100 0.000202214
14 15 18 100 0.000214915
15 15 18 100 0.0639334
16 15 18 100 0.0825489
17 15 18 100 0.064986
18 15 18 100 0.106397
0 16 18 100 0.287963
1 16 18 100 0.0256645
2 16 18 100 0.000292712
3 16 18 100 0.0252074
4 16 18 100 0.0749814
5 16 18 100 0.0252554
6 16 18 100 0.025077
7 16 18 100 0.0520338
8 16 18 100 0.102647
9 16 18 100 0.0279984
10 16 18 100 0.0505525
11 16 18 100 0.0967043
12 16 18 100 0.0473354
13 16 18 100 0.000933859
14 16 18 100 0.000579791
15 16 18 100 0.0248136
16 16 18 100 0.0245621
17 16 18 100 0.0506429
18 16 18 100 0.0567552
0 17 18 100 0.213544
1 17 18 100 0.0625146
2 17 18 100 0.00226891
3 17 18 100 0.0324322
4 17 18 100 0.0625165
5 17 18 100 0.0290704
6 17 18 100 0.0025141
7 17 18 100 0.0621986
8 17 18 100 0.246196
9 17 18 100 0.0345146
10 17 18 100 0.00130803
11 17 18 100 0.0324692
12 17 18 100 0.0626141
13 17 18 100 0.0280851
14 17 18 100 7.76791e-05
15 17 18 100 0.000362411
16 17 18 100 3.06886e-06
17 17 18 100 0.0332718
18 17 18 100 0.0940391
0 18 18 100 0.280935
1 18 18 100 0.0327859
2 18 18 100 0.000203389
3 18 18 100 0.0344761
4 18 18 100 0.0989388
5 18 18 100 0.0336897
6 18 18 100 0.00109774
7 18 18 100 0.000253179
8 18 18 100 0.0757176
9 18 18 100 0.0353247
10 18 18 100 0.0684086
11 18 18 100 0.0222439
12 18 18 100 0.0322258
13 18 18 100 0.109127
14 18 18 100 0.0345802
15 18 18 100 8.13517e-05
16 18 18 100 0.0377444
17 18 18 100 0.0676224
18 18 18 100 0.0345442
0 19 18 100 0.489672
2 19 18 100 0.000154534
3 19 18 100 2.76476e-06
4 19 18 100 0.00206821
5 19 18 100 3.585e-06
6 19 18 100 0.0499918
7 19 18 100 3.59127e-06
8 19 18 100 0.100017
9 19 18 100 0.000339616
10 19 18 100 0.101749
11 19 18 100 0.101848
12 19 18 100 0.00125736
13 19 18 100 0.000109852
14 19 18 100 0.0500003
15 19 18 100 0.0500804
16 19 18 100 0.00086586
17 19 18 100 8.91662e-05
18 19 18 100 0.0517459
0 20 18 100 0.384633
1 20 18 100 0.0713677
3 20 18 100 0.000293684
4 20 18 100 0.000124846
5 20 18 100 1.60839e-06
6 20 18 100 0.0721294
7 20 18 100 0.00465498
8 20 18 100 0.143572
9 20 18 100 0.0199797
10 20 18 100 0.000731739
12 20 18 100 0.074109
14 20 18 100 2.5239e-06
15 20 18 100 0.0149403
16 20 18 100 0.0714319
17 20 18 100 0.141945
18 20 18 100 8.25824e-05
0 21 18 100 0.667947
2 21 18 100 0.0160732
3 21 18 100 8.94203e-06
4 21 18 100 4.25745e-06
5 21 18 100 0.0061519
6 21 18 100 0.00145878
7 21 18 100 0.000161066
8 21 18 100 0.000333178
9 21 18 100 0.0953959
10 21 18 100 0.00708089
11 21 18 100 0.105081
12 21 18 100 1.07667e-05
14 21 18 100 2.77182e-05
17 21 18 100 0.000252167
18 21 18 100 0.100013
0 22 18 100 0.499985
5 22 18 100 1.35984e-05
6 22 18 100 0.00324684
9 22 18 100 0.0397388
10 22 18 100 0.457016
12 23 18 100 1
0 1 19 100 0.0363346
1 1 19 100 0.570435
2 1 19 100 0.0868723
3 1 19 100 0.0968846
4 1 19 100 0.0427807
5 1 19 100 0.0185681
6 1 19 100 0.0446235
7 1 19 100 0.0471527
8 1 19 100 0.00528315
9 1 19 100 7.97666e-05
10 1 19 100 3.31016e-05
11 1 19 100 0.000629212
12 1 19 100 0.000266188
13 1 19 100 0.00694362
14 1 19 100 0.00105761
15 1 19 100 3.18728e-06
16 1 19 100 0.000248571
17 1 19 100 1.17781e-05
18 1 19 100 0.0417885
19 1 19 100 3.58747e-06
0 2 19 100 0.0900423
1 2 19 100 0.205325
2 2 19 100 0.185152
3 2 19 100 0.197406
4 2 19 100 0.0461047
5 2 19 100 0.0432107
6 2 19 100 0.0466134
7 2 19 100 0.000549151
8 2 19 100 0.019974
9 2 19 100 0.000103269
10 2 19 100 0.0474898
11 2 19 100 0.000799843
12 2 19 100 0.00104032
13 2 19 100 0.0215201
14 2 19 100 0.00514554
15 2 19 100 0.0255312
16 2 19 100 0.0425378
17 2 19 100 5.06075e-05
18 2 19 100 0.0212863
19 2 19 100 0.000117795
0 3 19 100 0.037429
1 3 19 100 0.121253
2 3 19 100 0.106122
3 3 19 100 0.211984
4 3 19 100 0.112783
5 3 19 100 0.108298
6 3 19 100 0.0865538
7 3 19 100 0.047417
8 3 19 100 0.0464614
9 3 19 100 0.00592144
10 3 19 100 0.0202252
11 3 19 100 0.0241654
12 3 19 100 0.000820553
13 3 19 100 8.58453e-06
14 3 19 100 0.000936637
15 3 19 100 5.83355e-07
16 3 19 100 0.00253844
17 3 19 100 0.00243651
18 3 19 100 0.0210586
19 3 19 100 0.0435864
0 4 19 100 0.13892
1 4 19 100 0.00219011
2 4 19 100 0.1104
3 4 19 100 0.0605592
4 4 19 100 0.148985
5 4 19 100 0.0427691
6 4 19 100 0.202753
7 4 19 100 0.00912934
8 4 19 100 0.0320107
9 4 19 100 0.0638582
10 4 19 100 0.105573
11 4 19 100 0.0263406
12 4 19 100 0.0212523
13 4 19 100 0.021285
14 4 19 100 9.47944e-05
15 4 19 100 0.000119805
16 4 19 100 3.78603e-06
17 4 19 100 0.0136546
19 4 19 100 0.000101646
0 5 19 100 0.14044
2 5 19 100 0.0234558
3 5 19 100 0.00609051
4 5 19 100 0.0166563
5 5 19 100 0.0627142
6 5 19 100 0.137706
7 5 19 100 0.0176735
8 5 19 100 0.175129
9 5 19 100 0.144969
10 5 19 100 0.104858
11 5 19 100 0.0449997
12 5 19 100 0.0169734
13 5 19 100 0.000216759
14 5 19 100 0.0444531
15 5 19 100 0.0422932
16 5 19 100 0.0213352
17 5 19 100 4.25555e-06
18 5 19 100 1.75282e-05
19 5 19 100 1.48161e-05
0 6 19 100 0.124542
1 6 19 100 0.0212767
2 6 19 100 0.00247327
3 6 19 100 0.0213759
4 6 19 100 7.58966e-05
5 6 19 100 0.0868681
6 6 19 100 0.0856295
7 6 19 100 0.106706
8 6 19 100 0.0593711
9 6 19 100 0.0778713
10 6 19 100 0.106411
11 6 19 100 0.0847319
12 6 19 100 0.0599021
13 6 19 100 0.0129743
14 6 19 100 0.0426459
15 6 19 100 0.0225682
16 6 19 100 0.0206595
17 6 19 100 0.000142158
18 6 19 100 0.0212063
19 6 19 100 0.042569
0 7 19 100 0.188671
1 7 19 100 0.000456661
2 7 19 100 0.00548586
3 7 19 100 0.000299892
4 7 19 100 0.0445913
5 7 19 100 0.0199656
6 7 19 100 0.0604085
7 7 19 100 0.0165546
8 7 19 100 0.0642227
9 7 19 100 0.0638606
10 7 19 100 0.0615466
11 7 19 100 0.159298
12 7 19 100 0.0440068
13 7 19 100 0.0709103
14 7 19 100 0.0448133
15 7 19 100 0.0426803
16 7 19 100 0.0211838
17 7 19 100 0.0188388
18 7 19 100 0.0098782
19 7 19 100 0.0623266
0 8 19 100 0.114987
1 8 19 100 0.000789092
2 8 19 100 0.0228124
3 8 19 100 0.0273344
4 8 19 100 1.66364e-05
5 8 19 100 0.0454583
6 8 19 100 0.0901779
7 8 19 100 0.0453108
8 8 19 100 0.0401165
9 8 19 100 0.0598611
10 8 19 100 0.0191084
11 8 19 100 0.0681789
12 8 19 100 0.0968895
13 8 19 100 0.0237379
14 8 19 100 0.159218
15 8 19 100 0.0441776
16 8 19 100 0.0236679
17 8 19 100 0.0519548
18 8 19 100 0.0454975
19 8 19 100 0.0207051
0 9 19 100 0.142997
1 9 19 100 5.60598e-06
2 9 19 100 0.0173563
3 9 19 100 0.000188366
4 9 19 100 7.38384e-07
5 9 19 100 0.0178626
6 9 19 100 0.029435
7 9 19 100 0.0510144
8 9 19 100 0.0744161
9 9 19 100 0.0405817
10 9 19 100 0.106828
11 9 19 100 0.027183
12 9 19 100 0.060028
13 9 19 100 0.0913178
14 9 19 100 0.0908588
15 9 19 100 0.045455
16 9 19 100 0.071636
17 9 19 100 0.0222709
18 9 19 100 0.0454594
19 9 19 100 0.065105
0 10 19 100 0.195281
1 10 19 100 0.00330068
2 10 19 100 0.0245417
3 10 19 100 0.0466811
4 10 19 100 0.023386
5 10 19 100 0.0254899
6 10 19 100 0.0503561
7 10 19 100 0.0539454
8 10 19 100 2.40552e-05
9 10 19 100 2.29992e-06
10 10 19 100 0.019301
11 10 19 100 0.0657035
12 10 19 100 0.0202566
13 10 19 100 0.0719929
14 10 19 100 0.0734658
15 10 19 100 0.0711767
16 10 19 100 0.0819974
17 10 19 100 0.0417796
18 10 19 100 0.0644489
19 10 19 100 0.0668692
0 11 19 100 0.249015
1 11 19 100 0.0193502
2 11 19 100 2.21382e-06
4 11 19 100 0.03162
5 11 19 100 0.000155075
6 11 19 100 0.0805224
7 11 19 100 0.0271495
8 11 19 100 0.0453928
9 11 19 100 0.0106578
10 11 19 100 0.0246078
11 11 19 100 0.0534295
12 11 19 100 0.0490729
13 11 19 100 0.0855639
14 11 19 100 0.082972
15 11 19 100 0.0549691
16 11 19 100 0.162421
17 11 19 100 0.00838869
18 11 19 100 0.0135987
19 11 19 100 0.00111228
0 12 19 100 0.238016
1 12 19 100 0.000407122
2 12 19 100 0.00112091
3 12 19 100 0.000162131
4 12 19 100 0.0314436
5 12 19 100 0.00134727
6 12 19 100 0.11836
7 12 19 100 0.0303205
8 12 19 100 0.000239942
9 12 19 100 0.00198511
10 12 19 100 0.000459729
11 12 19 100 0.0857272
12 12 19 100 0.0329607
13 12 19 100 0.0344829
14 12 19 100 0.0911704
15 12 19 100 0.0617392
16 12 19 100 0.0907957
17 12 19 100 0.06125
18 12 19 100 0.0308276
19 12 19 100 0.0871836
0 13 19 100 0.260989
1 13 19 100 3.22861e-06
2 13 19 100 0.0334538
3 13 19 100 0.000206665
4 13 19 100 0.0337434
5 13 19 100 6.69747e-05
6 13 19 100 0.0332753
7 13 19 100 0.0677456
8 13 19 100 0.0330393
9 13 19 100 0.000857086
10 13 19 100 0.000294794
11 13 19 100 0.0728703
12 13 19 100 1.6765e-05
13 13 19 100 0.122639
14 13 19 100 9.67722e-06
15 13 19 100 0.0673414
16 13 19 100 0.100266
17 13 19 100 9.75441e-05
18 13 19 100 0.133047
19 13 19 100 0.0400373
0 14 19 100 0.126743
2 14 19 100 0.0371262
3 14 19 100 0.0001153
4 14 19 100 0.0340802
5 14 19 100 0.0021461
6 14 19 100 0.0375873
7 14 19 100 0.0375513
8 14 19 100 0.146044
9 14 19 100 0.039668
10 14 19 100 0.0302339
11 14 19 100 7.61513e-06
12 14 19 100 0.0429519
13 14 19 100 0.0409192
14 14 19 100 0.0371802
15 14 19 100 0.0706808
16 14 19 100 0.0737204
17 14 19 100 0.098898
18 14 19 100 3.71798e-05
19 14 19 100 0.144309
0 15 19 100 0.219699
1 15 19 100 0.000247162
2 15 19 100 0.00130937
3 15 19 100 0.00519274
4 15 19 100 0.000154907
5 15 19 100 0.000334237
6 15 19 100 4.59136e-05
7 15 19 100 0.0454541
8 15 19 100 0.134513
9 15 19 100 0.0454571
10 15 19 100 0.00349774
11 15 19 100 0.0910895
12 15 19 100 0.00210987
13 15 19 100 0.0457187
14 15 19 100 0.0455644
15 15 19 100 0.00129868
16 15 19 100 0.221429
17 15 19 100 4.27493e-06
18 15 19 100 0.0454638
19 15 19 100 0.0914178
0 16 19 100 0.147559
1 16 19 100 0.0500049
2 16 19 100 0.0500002
3 16 19 100 0.000157642
4 16 19 100 8.22126e-07
5 16 19 100 0.0101581
6 16 19 100 0.0520795
7 16 19 100 0.0500002
9 16 19 100 1.05333e-05
11 16 19 100 0.0917004
12 16 19 100 0.000181929
13 16 19 100 0.100004
14 16 19 100 0.0501608
15 16 19 100 4.17575e-05
16 16 19 100 0.147926
17 16 19 100 0.0498702
18 16 19 100 0.0501014
19 16 19 100 0.150043
0 17 19 100 0.293317
1 17 19 100 0.0588312
2 17 19 100 7.60889e-06
3 17 19 100 0.00130904
4 17 19 100 6.98122e-05
5 17 19 100 6.78887e-07
6 17 19 100 0.0676015
7 17 19 100 0.0578189
8 17 19 100 0.117659
9 17 19 100 7.91008e-05
10 17 19 100 3.24795e-05
11 17 19 100 0.0941858
12 17 19 100 3.07258e-05
13 17 19 100 0.0563978
14 17 19 100 0.000232784
15 17 19 100 9.08421e-06
16 17 19 100 0.118038
17 17 19 100 3.21008e-05
18 17 19 100 0.074562
19 17 19 100 0.0597859
0 18 19 100 0.299838
1 18 19 100 0.1
4 18 19 100 0.000975725
6 18 19 100 2.29397e-06
7 18 19 100 0.000601466
8 18 19 100 0.200064
9 18 19 100 0.00524374
10 18 19 100 5.60812e-06
11 18 19 100 0.1
12 18 19 100 1.60476e-05
13 18 19 100 1.00744e-05
14 18 19 100 5.55615e-05
15 18 19 100 0.0146478
16 18 19 100 0.182255
17 18 19 100 1.21529e-05
18 18 19 100 0.0962718
0 19 19 100 0.322464
1 19 19 100 0.11898
3 19 19 100 0.202006
4 19 19 100 0.000736657
5 19 19 100 0.00571895
7 19 19 100 0.000644872
8 19 19 100 0.0976314
9 19 19 100 0.0113388
10 19 19 100 0.00592723
12 19 19 100 0.111147
13 19 19 100 1.73808e-06
14 19 19 100 4.44853e-06
15 19 19 100 0.00715071
16 19 19 100 0.00492357
17 19 19 100 0.000241689
18 19 19 100 0.111084
0 20 19 100 0.000241199
1 20 19 100 0.125
6 20 19 100 0.124474
7 20 19 100 0.0001711
8 20 19 100 0.250001
9 20 19 100 0.00317095
12 20 19 100 0.134617
16 20 19 100 0.240701
17 20 19 100 1.062e-05
18 20 19 100 0.121613
0 21 19 100 0.749227
2 21 19 100 1.59172e-05
3 21 19 100 0.000122495
6 21 19 100 1.99829e-05
9 21 19 100 3.74732e-05
10 21 19 100 1.01017e-05
14 21 19 100 2.17449e-05
16 21 19 100 0.000524946
18 21 19 100 0.250021
0 22 19 100 0.0102238
5 22 19 100 8.62929e-05
9 22 19 100 0.0118546
16 22 19 100 4.48419e-05
18 22 19 100 0.477788
19 22 19 100 0.500002
0 23 19 100 0.00193182
5 23 19 100 1.83847e-05
7 23 19 100 4.36613e-05
19 23 19 100 0.998006
0 1 20 100 0.0699291
1 1 20 100 0.529883
2 1 20 100 0.120244
3 1 20 100 0.00149078
4 1 20 100 0.00026353
5 1 20 100 0.0312723
6 1 20 100 0.00074634
7 1 20 100 0.054744
8 1 20 100 0.00477137
9 1 20 100 0.000573605
10 1 20 100 0.00589047
11 1 20 100 0.0476688
12 1 20 100 0.00654819
14 1 20 100 0.000585117
15 1 20 100 2.61156e-06
16 1 20 100 0.0311811
17 1 20 100 0.0312737
18 1 20 100 9.83502e-06
19 1 20 100 0.061959
20 1 20 100 0.000962714
0 2 20 100 0.0624583
1 2 20 100 0.242022
2 2 20 100 0.154231
3 2 20 100 0.0712179
4 2 20 100 0.0625046
5 2 20 100 0.0879829
6 2 20 100 0.0308801
7 2 20 100 0.0330177
8 2 20 100 1.47797e-05
9 2 20 100 0.0300854
10 2 20 100 0.00215468
11 2 20 100 0.00315948
12 2 20 100 0.002092
13 2 20 100 0.0131046
14 2 20 100 0.00750253
15 2 20 100 0.0607579
16 2 20 100 4.03726e-05
17 2 20 100 0.0479453
19 2 20 100 0.000344097
20 2 20 100 0.0884844
0 3 20 100 0.0791122
1 3 20 100 0.0353553
3 3 20 100 0.238185
4 3 20 100 0.182015
5 3 20 100 0.0877003
6 3 20 100 0.123795
7 3 20 100 4.19776e-05
8 3 20 100 0.0556425
9 3 20 100 0.0627599
11 3 20 100 0.0959938
12 3 20 100 0.00517068
14 3 20 100 0.00277768
15 3 20 100 0.000776317
16 3 20 100 3.20195e-06
17 3 20 100 0.0290027
18 3 20 100 0.00164348
19 3 20 100 1.62415e-05
20 3 20 100 8.41155e-06
0 4 20 100 0.0870123
1 4 20 100 0.0584287
2 4 20 100 0.0312502
3 4 20 100 0.0428985
4 4 20 100 0.160728
5 4 20 100 0.0936702
6 4 20 100 0.0626573
7 4 20 100 3.32297e-06
8 4 20 100 0.0634335
9 4 20 100 0.0305395
10 4 20 100 0.0235311
11 4 20 100 0.00252581
12 4 20 100 0.0730663
13 4 20 100 0.0625634
14 4 20 100 0.0312508
15 4 20 100 0.0497621
16 4 20 100 1.01215e-06
17 4 20 100 5.42423e-06
18 4 20 100 0.0606551
19 4 20 100 0.0035169
20 4 20 100 0.0625003
0 5 20 100 0.16729
1 5 20 100 0.0312508
2 5 20 100 8.28585e-05
3 5 20 100 0.0835451
4 5 20 100 0.00190884
5 5 20 100 0.0341609
6 5 20 100 0.104417
7 5 20 100 0.0935787
8 5 20 100 0.0614462
9 5 20 100 0.0794414
10 5 20 100 0.0639743
11 5 20 100 0.0265833
12 5 20 100 0.0284842
13 5 20 100 0.0937361
14 5 20 100 7.25357e-05
15 5 20 100 2.23529e-05
16 5 20 100 0.0346402
17 5 20 100 0.0328261
18 5 20 100 3.79789e-05
19 5 20 100 1.06571e-06
20 5 20 100 0.0625003
0 6 20 100 0.201363
1 6 20 100 1.35679e-05
2 6 20 100 0.00152293
3 6 20 100 0.0733473
4 6 20 100 0.0642503
5 6 20 100 0.0637606
6 6 20 100 0.0514201
7 6 20 100 0.0359092
8 6 20 100 0.15736
9 6 20 100 0.063272
10 6 20 100 0.0628157
11 6 20 100 0.0359192
12 6 20 100 1.48156e-05
13 6 20 100 0.0592252
14 6 20 100 1.67136e-05
15 6 20 100 9.49971e-07
16 6 20 100 1.37953e-05
17 6 20 100 0.0330142
18 6 20 100 0.0322411
20 6 20 100 0.0645192
0 7 20 100 0.223651
1 7 20 100 0.000515844
2 7 20 100 0.0111667
3 7 20 100 0.0347708
4 7 20 100 0.0323189
5 7 20 100 0.0730532
6 7 20 100 6.68429e-05
7 7 20 100 0.064919
8 7 20 100 0.0620558
9 7 20 100 0.0950288
10 7 20 100 0.146505
11 7 20 100 0.0398668
12 7 20 100 0.000422634
13 7 20 100 8.949e-06
14 7 20 100 0.0230192
15 7 20 100 6.68859e-06
16 7 20 100 0.0315394
17 7 20 100 0.0324691
18 7 20 100 0.0965324
19 7 20 100 0.0291113
20 7 20 100 0.00297209
0 8 20 100 0.00273408
1 8 20 100 0.000132208
3 8 20 100 0.0382181
4 8 20 100 0.00459402
5 8 20 100 0.0200363
6 8 20 100 0.000275445
7 8 20 100 0.103828
8 8 20 100 1.07729e-05
9 8 20 100 0.0332437
10 8 20 100 0.0997693
11 8 20 100 0.241241
12 8 20 100 0.103971
13 8 20 100 0.038557
14 8 20 100 0.103997
15 8 20 100 0.00219277
16 8 20 100 9.10284e-05
17 8 20 100 0.0344829
18 8 20 100 0.000214567
19 8 20 100 3.50864e-06
20 8 20 100 0.172408
0 9 20 100 0.272458
2 9 20 100 0.000212768
3 9 20 100 0.00372043
4 9 20 100 5.66494e-05
5 9 20 100 0.0366457
6 9 20 100 0.0346059
7 9 20 100 5.1285e-06
8 9 20 100 0.00367469
9 9 20 100 0.0669999
10 9 20 100 0.0626612
11 9 20 100 0.105158
12 9 20 100 0.0986679
13 9 20 100 0.0381006
14 9 20 100 0.0347756
15 9 20 100 0.0270374
16 9 20 100 0.0390013
17 9 20 100 0.102606
18 9 20 100 0.00783342
19 9 20 100 0.0312785
20 9 20 100 0.0345012
0 10 20 100 0.0801869
1 10 20 100 6.75256e-06
3 10 20 100 0.0434848
4 10 20 100 0.0058545
5 10 20 100 1.19573e-05
6 10 20 100 0.000763193
7 10 20 100 2.86984e-05
8 10 20 100 0.0414188
9 10 20 100 0.00490763
10 10 20 100 0.032227
11 10 20 100 0.0318346
12 10 20 100 0.0390805
13 10 20 100 0.293175
14 10 20 100 0.0731988
15 10 20 100 0.0260815
16 10 20 100 0.0370329
17 10 20 100 0.0436634
18 10 20 100 0.113312
19 10 20 100 0.0964536
20 10 20 100 0.0372781
0 11 20 100 0.223102
1 11 20 100 4.9241e-07
2 11 20 100 7.68946e-05
3 11 20 100 0.0395639
4 11 20 100 0.0740864
5 11 20 100 0.073728
6 11 20 100 0.0365682
7 11 20 100 9.4892e-05
8 11 20 100 0.00265389
9 11 20 100 0.0720223
10 11 20 100 0.0373881
11 11 20 100 0.0370471
12 11 20 100 7.72704e-05
13 11 20 100 0.0370401
14 11 20 100 0.0735392
15 11 20 100 0.0713962
16 11 20 100 0.0377202
17 11 20 100 0.0370352
18 11 20 100 0.0738746
19 11 20 100 0.037041
20 11 20 100 0.0359435
0 12 20 100 0.23105
3 12 20 100 0.0410821
4 12 20 100 3.36749e-05
5 12 20 100 0.0756846
6 12 20 100 6.73645e-05
7 12 20 100 7.40585e-07
8 12 20 100 0.000588814
9 12 20 100 0.0765218
10 12 20 100 0.00178275
11 12 20 100 0.0328044
12 12 20 100 0.153792
13 12 20 100 0.0070358
14 12 20 100 0.0771869
15 12 20 100 0.0376289
16 12 20 100 0.0660001
17 12 20 100 0.0386285
18 12 20 100 0.00152922
19 12 20 100 0.0384617
20 12 20 100 0.120121
0 13 20 100 0.246329
2 13 20 100 1.78092e-05
3 13 20 100 0.0429149
4 13 20 100 0.00103501
5 13 20 100 0.0831185
6 13 20 100 6.46334e-06
7 13 20 100 3.69577e-05
8 13 20 100 3.95951e-05
9 13 20 100 0.0402764
10 13 20 100 0.00026358
11 13 20 100 0.0822841
12 13 20 100 1.00459e-05
13 13 20 100 0.0416656
14 13 20 100 0.166584
15 13 20 100 4.40989e-05
16 13 20 100 0.00116603
17 13 20 100 0.000617325
18 13 20 100 0.16843
20 13 20 100 0.12516
0 14 20 100 0.491422
1 14 20 100 1.64254e-05
2 14 20 100 2.55202e-05
3 14 20 100 2.67688e-05
4 14 20 100 0.00064337
5 14 20 100 0.00819576
6 14 20 100 0.0435517
7 14 20 100 0.000750605
8 14 20 100 0.000462943
9 14 20 100 0.0435196
10 14 20 100 0.000114152
11 14 20 100 0.0428654
