0 1 1 100 0.0256791
1 1 1 100 0.974321
0 2 1 100 0.0819314
1 2 1 100 0.918069
0 3 1 100 0.0599641
1 3 1 100 0.940036
0 4 1 100 0.132537
1 4 1 100 0.867463
0 5 1 100 0.141163
1 5 1 100 0.858837
0 6 1 100 0.0432131
1 6 1 100 0.956787
0 7 1 100 0.113306
1 7 1 100 0.886694
1 8 1 100 1
0 9 1 100 1.35096e-05
1 9 1 100 0.999986
0 1 2 100 0.0457442
1 1 2 100 0.588724
2 1 2 100 0.365531
0 2 2 100 0.108429
1 2 2 100 0.328781
2 2 2 100 0.56279
0 3 2 100 0.136525
1 3 2 100 0.300054
2 3 2 100 0.563422
0 4 2 100 0.134777
1 4 2 100 0.316544
2 4 2 100 0.548679
0 5 2 100 0.133396
1 5 2 100 0.263295
2 5 2 100 0.603309
0 6 2 100 0.127458
1 6 2 100 0.349226
2 6 2 100 0.523316
0 7 2 100 0.239702
1 7 2 100 0.330466
2 7 2 100 0.429832
0 8 2 100 0.254857
1 8 2 100 0.327629
2 8 2 100 0.417514
0 9 2 100 0.183665
1 9 2 100 0.67279
2 9 2 100 0.143545
0 10 2 100 0.502748
1 10 2 100 0.372947
2 10 2 100 0.124305
0 11 2 100 0.0209685
1 11 2 100 0.979031
1 12 2 100 1
0 1 3 100 0.0363065
1 1 3 100 0.513732
2 1 3 100 0.245655
3 1 3 100 0.204307
0 2 3 100 0.135408
1 2 3 100 0.16329
2 2 3 100 0.426484
3 2 3 100 0.274818
0 3 3 100 0.104369
1 3 3 100 0.157863
2 3 3 100 0.380968
3 3 3 100 0.3568
0 4 3 100 0.154912
1 4 3 100 0.159288
2 4 3 100 0.318414
3 4 3 100 0.367386
0 5 3 100 0.112512
1 5 3 100 0.168032
2 5 3 100 0.3401
3 5 3 100 0.379356
0 6 3 100 0.185454
1 6 3 100 0.151829
2 6 3 100 0.271542
3 6 3 100 0.391175
0 7 3 100 0.152944
1 7 3 100 0.15613
2 7 3 100 0.269053
3 7 3 100 0.421873
0 8 3 100 0.2081
1 8 3 100 0.163309
2 8 3 100 0.289039
3 8 3 100 0.339552
0 9 3 100 0.167211
1 9 3 100 0.122524
2 9 3 100 0.329487
3 9 3 100 0.380778
0 10 3 100 0.226507
1 10 3 100 0.0746926
2 10 3 100 0.43937
3 10 3 100 0.259431
0 11 3 100 0.214571
1 11 3 100 0.00144043
2 11 3 100 0.396269
3 11 3 100 0.38772
0 12 3 100 0.347727
1 12 3 100 0.0713823
2 12 3 100 0.43803
3 12 3 100 0.142861
0 13 3 100 0.141323
1 13 3 100 0.20894
2 13 3 100 0.399736
3 13 3 100 0.25
0 14 3 100 0.0558798
1 14 3 100 0.0642372
2 14 3 100 0.72873
3 14 3 100 0.151153
0 15 3 100 0.295696
2 15 3 100 0.454304
3 15 3 100 0.25
0 16 3 100 0.666665
2 16 3 100 0.333335
0 1 4 100 0.0355948
1 1 4 100 0.553762
2 1 4 100 0.185593
3 1 4 100 0.144317
4 1 4 100 0.0807325
0 2 4 100 0.165048
1 2 4 100 0.139961
2 2 4 100 0.317439
3 2 4 100 0.241648
4 2 4 100 0.135904
0 3 4 100 0.108966
1 3 4 100 0.112999
2 3 4 100 0.26619
3 3 4 100 0.33201
4 3 4 100 0.179836
0 4 4 100 0.158813
1 4 4 100 0.108198
2 4 4 100 0.219747
3 4 4 100 0.294308
4 4 4 100 0.218933
0 5 4 100 0.13418
1 5 4 100 0.102389
2 5 4 100 0.246402
3 5 4 100 0.2729
4 5 4 100 0.24413
0 6 4 100 0.161577
1 6 4 100 0.114119
2 6 4 100 0.185136
3 6 4 100 0.282387
4 6 4 100 0.25678
0 7 4 100 0.161506
1 7 4 100 0.156145
2 7 4 100 0.186943
3 7 4 100 0.244724
4 7 4 100 0.250682
0 8 4 100 0.177825
1 8 4 100 0.142114
2 8 4 100 0.161424
3 8 4 100 0.276046
4 8 4 100 0.24259
0 9 4 100 0.187159
1 9 4 100 0.178757
2 9 4 100 0.146514
3 9 4 100 0.245519
4 9 4 100 0.242051
0 10 4 100 0.26252
1 10 4 100 0.159715
2 10 4 100 0.192697
3 10 4 100 0.174353
4 10 4 100 0.210715
0 11 4 100 0.204974
1 11 4 100 0.123869
2 11 4 100 0.288255
3 11 4 100 0.191136
4 11 4 100 0.191766
0 12 4 100 0.162193
1 12 4 100 0.222332
2 12 4 100 0.129121
3 12 4 100 0.252624
4 12 4 100 0.23373
0 13 4 100 0.107981
1 13 4 100 0.242525
2 13 4 100 0.162452
3 13 4 100 0.157876
4 13 4 100 0.329167
0 14 4 100 0.168211
1 14 4 100 0.211728
2 14 4 100 0.0635652
3 14 4 100 0.468523
4 14 4 100 0.0879714
0 15 4 100 0.2296
1 15 4 100 0.123014
2 15 4 100 0.19348
3 15 4 100 0.435884
4 15 4 100 0.0180219
3 16 4 100 0.666667
4 16 4 100 0.333333
0 1 5 100 0.0347772
1 1 5 100 0.556578
2 1 5 100 0.183855
3 1 5 100 0.0853801
4 1 5 100 0.0942309
5 1 5 100 0.0451788
0 2 5 100 0.156266
1 2 5 100 0.136621
2 2 5 100 0.298184
3 2 5 100 0.156159
4 2 5 100 0.169778
5 2 5 100 0.0829912
0 3 5 100 0.112752
1 3 5 100 0.0975031
2 3 5 100 0.198198
3 3 5 100 0.219928
4 3 5 100 0.263333
5 3 5 100 0.108285
0 4 5 100 0.143811
1 4 5 100 0.082514
2 4 5 100 0.162555
3 4 5 100 0.19792
4 4 5 100 0.283753
5 4 5 100 0.129448
0 5 5 100 0.134175
1 5 5 100 0.0767251
2 5 5 100 0.155344
3 5 5 100 0.190338
4 5 5 100 0.291208
5 5 5 100 0.15221
0 6 5 100 0.147628
1 6 5 100 0.0705467
2 6 5 100 0.155819
3 6 5 100 0.166349
4 6 5 100 0.289606
5 6 5 100 0.170052
0 7 5 100 0.153849
1 7 5 100 0.0743334
2 7 5 100 0.166328
3 7 5 100 0.166342
4 7 5 100 0.264286
5 7 5 100 0.174861
0 8 5 100 0.160157
1 8 5 100 0.096052
2 8 5 100 0.15096
3 8 5 100 0.157047
4 8 5 100 0.253308
5 8 5 100 0.182475
0 9 5 100 0.138505
1 9 5 100 0.11849
2 9 5 100 0.163044
3 9 5 100 0.166763
4 9 5 100 0.215517
5 9 5 100 0.197681
0 10 5 100 0.159997
1 10 5 100 0.0893286
2 10 5 100 0.153798
3 10 5 100 0.186657
4 10 5 100 0.21769
5 10 5 100 0.19253
0 11 5 100 0.182523
1 11 5 100 0.0873051
2 11 5 100 0.136342
3 11 5 100 0.194626
4 11 5 100 0.18474
5 11 5 100 0.214464
0 12 5 100 0.131291
1 12 5 100 0.0847491
2 12 5 100 0.216192
3 12 5 100 0.156473
4 12 5 100 0.193374
5 12 5 100 0.217922
0 13 5 100 0.227395
1 13 5 100 0.0406455
2 13 5 100 0.181154
3 13 5 100 0.12258
4 13 5 100 0.177233
5 13 5 100 0.250992
0 14 5 100 0.229463
1 14 5 100 0.170987
2 14 5 100 0.115914
3 14 5 100 0.146243
4 14 5 100 0.228149
5 14 5 100 0.109243
0 15 5 100 0.246223
1 15 5 100 0.166698
2 15 5 100 0.0833028
3 15 5 100 0.249146
4 15 5 100 0.0843803
5 15 5 100 0.17025
0 16 5 100 0.626376
1 16 5 100 0.166667
3 16 5 100 0.0261898
4 16 5 100 0.166693
5 16 5 100 0.0140739
0 17 5 100 0.164681
1 17 5 100 0.2
2 17 5 100 0.0410382
3 17 5 100 0.179342
4 17 5 100 0.4
5 17 5 100 0.0149396
0 18 5 100 0.663615
1 18 5 100 0.335828
2 18 5 100 0.000462261
3 18 5 100 9.49208e-05
0 19 5 100 0.0360727
1 19 5 100 0.499999
2 19 5 100 0.463928
1 20 5 100 0.5
4 20 5 100 0.5
1 21 5 100 1
0 22 5 100 1.69526e-05
2 22 5 100 0.999983
0 23 5 100 1
0 1 6 100 0.0323923
1 1 6 100 0.560897
2 1 6 100 0.173586
3 1 6 100 0.0823981
4 1 6 100 0.0485866
5 1 6 100 0.0721649
6 1 6 100 0.0299751
0 2 6 100 0.157326
1 2 6 100 0.116463
2 2 6 100 0.294816
3 2 6 100 0.155558
4 2 6 100 0.0937745
5 2 6 100 0.121133
6 2 6 100 0.0609288
0 3 6 100 0.10188
1 3 6 100 0.0802231
2 3 6 100 0.167442
3 3 6 100 0.236642
4 3 6 100 0.152871
5 3 6 100 0.182576
6 3 6 100 0.0783651
0 4 6 100 0.129727
1 4 6 100 0.0608671
2 4 6 100 0.115335
3 4 6 100 0.186643
4 4 6 100 0.176985
5 4 6 100 0.234965
6 4 6 100 0.0954768
0 5 6 100 0.123872
1 5 6 100 0.052647
2 5 6 100 0.0960087
3 5 6 100 0.183667
4 5 6 100 0.177169
5 5 6 100 0.25134
6 5 6 100 0.115296
0 6 6 100 0.140828
1 6 6 100 0.0546827
2 6 6 100 0.0993613
3 6 6 100 0.151224
4 6 6 100 0.157703
5 6 6 100 0.258899
6 6 6 100 0.137303
0 7 6 100 0.130942
1 7 6 100 0.051321
2 7 6 100 0.123362
3 7 6 100 0.147133
4 7 6 100 0.154285
5 7 6 100 0.250733
6 7 6 100 0.142224
0 8 6 100 0.141408
1 8 6 100 0.0696997
2 8 6 100 0.104198
3 8 6 100 0.133918
4 8 6 100 0.148763
5 8 6 100 0.243859
6 8 6 100 0.158155
0 9 6 100 0.16692
1 9 6 100 0.0759581
2 9 6 100 0.102132
3 9 6 100 0.118077
4 9 6 100 0.134524
5 9 6 100 0.223807
6 9 6 100 0.178582
0 10 6 100 0.146962
1 10 6 100 0.0711079
2 10 6 100 0.10462
3 10 6 100 0.125496
4 10 6 100 0.14561
5 10 6 100 0.240868
6 10 6 100 0.165336
0 11 6 100 0.1579
1 11 6 100 0.0782214
2 11 6 100 0.106007
3 11 6 100 0.108544
4 11 6 100 0.0886747
5 11 6 100 0.253537
6 11 6 100 0.207116
0 12 6 100 0.209458
1 12 6 100 0.0980184
2 12 6 100 0.0824328
3 12 6 100 0.140924
4 12 6 100 0.0645623
5 12 6 100 0.246148
6 12 6 100 0.158457
0 13 6 100 0.253486
1 13 6 100 0.0963393
2 13 6 100 0.0276725
3 13 6 100 0.13783
4 13 6 100 0.105916
5 13 6 100 0.229283
6 13 6 100 0.149474
0 14 6 100 0.213098
1 14 6 100 0.0403741
2 14 6 100 0.0528797
3 14 6 100 0.124811
4 14 6 100 0.0904689
5 14 6 100 0.351135
6 14 6 100 0.127234
0 15 6 100 0.306548
1 15 6 100 0.151579
2 15 6 100 0.0514636
3 15 6 100 0.102968
4 15 6 100 0.0634686
5 15 6 100 0.279808
6 15 6 100 0.0441646
0 16 6 100 0.141589
1 16 6 100 0.0810821
2 16 6 100 0.0839603
3 16 6 100 0.204091
4 16 6 100 0.140016
5 16 6 100 0.19166
6 16 6 100 0.157602
0 17 6 100 0.0357571
1 17 6 100 0.211576
2 17 6 100 2.40988e-05
3 17 6 100 0.38823
4 17 6 100 0.2
6 17 6 100 0.164412
0 18 6 100 5.18808e-06
1 18 6 100 0.999995
0 1 7 100 0.0322583
1 1 7 100 0.526156
2 1 7 100 0.179096
3 1 7 100 0.0839034
4 1 7 100 0.0587915
5 1 7 100 0.0400829
6 1 7 100 0.0544694
7 1 7 100 0.0252421
0 2 7 100 0.15694
1 2 7 100 0.106685
2 2 7 100 0.281867
3 2 7 100 0.134217
4 2 7 100 0.104719
5 2 7 100 0.0660748
6 2 7 100 0.103145
7 2 7 100 0.0463524
0 3 7 100 0.110632
1 3 7 100 0.0752503
2 3 7 100 0.148357
3 3 7 100 0.205214
4 3 7 100 0.155761
5 3 7 100 0.0936031
6 3 7 100 0.151684
7 3 7 100 0.0594979
0 4 7 100 0.128961
1 4 7 100 0.0574437
2 4 7 100 0.105375
3 4 7 100 0.150417
4 4 7 100 0.186313
5 4 7 100 0.127408
6 4 7 100 0.173081
7 4 7 100 0.0710025
0 5 7 100 0.119187
1 5 7 100 0.0481636
2 5 7 100 0.0852731
3 5 7 100 0.114388
4 5 7 100 0.180151
5 5 7 100 0.14299
6 5 7 100 0.232808
7 5 7 100 0.0770384
0 6 7 100 0.14028
1 6 7 100 0.0439981
2 6 7 100 0.0809947
3 6 7 100 0.105638
4 6 7 100 0.150118
5 6 7 100 0.150033
6 6 7 100 0.231309
7 6 7 100 0.0976302
0 7 7 100 0.119139
1 7 7 100 0.0471306
2 7 7 100 0.0836779
3 7 7 100 0.103542
4 7 7 100 0.158593
5 7 7 100 0.137088
6 7 7 100 0.247788
7 7 7 100 0.103041
0 8 7 100 0.131082
1 8 7 100 0.0576656
2 8 7 100 0.105359
3 8 7 100 0.0964015
4 8 7 100 0.126131
5 8 7 100 0.117317
6 8 7 100 0.25197
7 8 7 100 0.114074
0 9 7 100 0.143682
1 9 7 100 0.0630766
2 9 7 100 0.0881599
3 9 7 100 0.107327
4 9 7 100 0.122997
5 9 7 100 0.101442
6 9 7 100 0.24762
7 9 7 100 0.125696
0 10 7 100 0.153782
1 10 7 100 0.0516749
2 10 7 100 0.0864642
3 10 7 100 0.0954291
4 10 7 100 0.0891123
5 10 7 100 0.11144
6 10 7 100 0.247653
7 10 7 100 0.164444
0 11 7 100 0.132716
1 11 7 100 0.0608786
2 11 7 100 0.0788721
3 11 7 100 0.125324
4 11 7 100 0.110876
5 11 7 100 0.0900415
6 11 7 100 0.238653
7 11 7 100 0.162638
0 12 7 100 0.157564
1 12 7 100 0.0877477
2 12 7 100 0.0714286
3 12 7 100 0.106904
4 12 7 100 0.0903122
5 12 7 100 0.128278
6 12 7 100 0.19205
7 12 7 100 0.165715
0 13 7 100 0.138487
1 13 7 100 0.0701311
2 13 7 100 0.063947
3 13 7 100 0.0611873
4 13 7 100 0.0866307
5 13 7 100 0.162459
6 13 7 100 0.211042
7 13 7 100 0.206116
0 14 7 100 0.201075
1 14 7 100 0.0217776
2 14 7 100 0.0485714
3 14 7 100 0.0464175
4 14 7 100 0.044001
5 14 7 100 0.128526
6 14 7 100 0.300516
7 14 7 100 0.209116
0 15 7 100 0.206901
1 15 7 100 0.0470139
2 15 7 100 0.0507985
3 15 7 100 0.061693
4 15 7 100 0.025766
5 15 7 100 0.0759086
6 15 7 100 0.32021
7 15 7 100 0.211709
0 16 7 100 0.199322
1 16 7 100 0.0742741
2 16 7 100 0.0606097
3 16 7 100 0.030907
4 16 7 100 0.0613525
5 16 7 100 0.120445
6 16 7 100 0.241509
7 16 7 100 0.21158
0 17 7 100 0.0700378
1 17 7 100 0.0909731
2 17 7 100 0.185914
3 17 7 100 0.000642138
4 17 7 100 0.0909108
5 17 7 100 0.0969379
6 17 7 100 0.382437
7 17 7 100 0.0821466
0 18 7 100 0.06536
2 18 7 100 0.00289447
3 18 7 100 0.000849337
5 18 7 100 1.80917e-05
6 18 7 100 0.542338
7 18 7 100 0.38854
0 19 7 100 0.289615
3 19 7 100 3.38888e-05
4 19 7 100 2.6024e-06
6 19 7 100 0.427988
7 19 7 100 0.282361
0 20 7 100 0.0895592
2 20 7 100 0.000123808
3 20 7 100 0.000374808
4 20 7 100 0.175193
5 20 7 100 0.232049
6 20 7 100 0.228061
7 20 7 100 0.274639
0 21 7 100 0.0396866
1 21 7 100 0.0146685
4 21 7 100 0.317218
7 21 7 100 0.628427
0 1 8 100 0.037463
1 1 8 100 0.53271
2 1 8 100 0.161186
3 1 8 100 0.0675329
4 1 8 100 0.0560015
5 1 8 100 0.031941
6 1 8 100 0.0318766
7 1 8 100 0.0591882
8 1 8 100 0.0221014
0 2 8 100 0.139948
1 2 8 100 0.100408
2 2 8 100 0.293952
3 2 8 100 0.124276
4 2 8 100 0.0968043
5 2 8 100 0.0613535
6 2 8 100 0.0534824
7 2 8 100 0.0844089
8 2 8 100 0.0453667
0 3 8 100 0.0943201
1 3 8 100 0.0666786
2 3 8 100 0.150648
3 3 8 100 0.200856
4 3 8 100 0.156917
5 3 8 100 0.087966
6 3 8 100 0.0776851
7 3 8 100 0.116542
8 3 8 100 0.0483866
0 4 8 100 0.126341
1 4 8 100 0.0504483
2 4 8 100 0.100093
3 4 8 100 0.126822
4 4 8 100 0.180973
5 4 8 100 0.129514
6 4 8 100 0.0912737
7 4 8 100 0.134721
8 4 8 100 0.0598144
0 5 8 100 0.107583
1 5 8 100 0.0387322
2 5 8 100 0.071798
3 5 8 100 0.0908178
4 5 8 100 0.164205
5 5 8 100 0.159984
6 5 8 100 0.132559
7 5 8 100 0.165816
8 5 8 100 0.0685051
0 6 8 100 0.120527
1 6 8 100 0.033624
2 6 8 100 0.064209
3 6 8 100 0.0748348
4 6 8 100 0.130949
5 6 8 100 0.141342
6 6 8 100 0.138364
7 6 8 100 0.223503
8 6 8 100 0.0726483
0 7 8 100 0.110645
1 7 8 100 0.0347603
2 7 8 100 0.0674563
3 7 8 100 0.0683636
4 7 8 100 0.120267
5 7 8 100 0.14096
6 7 8 100 0.141661
7 7 8 100 0.236452
8 7 8 100 0.0794351
0 8 8 100 0.120294
1 8 8 100 0.0515489
2 8 8 100 0.0737745
3 8 8 100 0.0592709
4 8 8 100 0.111609
5 8 8 100 0.113811
6 8 8 100 0.130965
7 8 8 100 0.233976
8 8 8 100 0.104752
0 9 8 100 0.118561
1 9 8 100 0.0443361
2 9 8 100 0.0800602
3 9 8 100 0.0718316
4 9 8 100 0.0912085
5 9 8 100 0.11586
6 9 8 100 0.125452
7 9 8 100 0.242198
8 9 8 100 0.110493
0 10 8 100 0.142749
1 10 8 100 0.0341192
2 10 8 100 0.0905558
3 10 8 100 0.0645194
4 10 8 100 0.0981681
5 10 8 100 0.0940476
6 10 8 100 0.103383
7 10 8 100 0.247434
8 10 8 100 0.125024
0 11 8 100 0.162643
1 11 8 100 0.0447532
2 11 8 100 0.0845352
3 11 8 100 0.0540332
4 11 8 100 0.0894034
5 11 8 100 0.0928447
6 11 8 100 0.113686
7 11 8 100 0.22602
8 11 8 100 0.132081
0 12 8 100 0.120477
1 12 8 100 0.0576751
2 12 8 100 0.111175
3 12 8 100 0.0370257
4 12 8 100 0.0865033
5 12 8 100 0.0970544
6 12 8 100 0.096208
7 12 8 100 0.251338
8 12 8 100 0.142544
0 13 8 100 0.151921
1 13 8 100 0.0709806
2 13 8 100 0.0619562
3 13 8 100 0.0389905
4 13 8 100 0.105631
5 13 8 100 0.0628073
6 13 8 100 0.0718363
7 13 8 100 0.287629
8 13 8 100 0.148248
0 14 8 100 0.135685
1 14 8 100 0.0728773
2 14 8 100 0.0996049
3 14 8 100 0.0442756
4 14 8 100 0.0750137
5 14 8 100 0.0746354
6 14 8 100 0.0951661
7 14 8 100 0.264676
8 14 8 100 0.138066
0 15 8 100 0.191378
1 15 8 100 0.0195594
2 15 8 100 0.0367838
3 15 8 100 0.0584272
4 15 8 100 0.0721094
5 15 8 100 0.0816731
6 15 8 100 0.104274
7 15 8 100 0.243824
8 15 8 100 0.191972
0 16 8 100 0.233631
1 16 8 100 0.00081378
2 16 8 100 8.22101e-05
3 16 8 100 0.0398029
4 16 8 100 0.0902644
5 16 8 100 0.132944
6 16 8 100 0.138416
7 16 8 100 0.170297
8 16 8 100 0.193748
0 17 8 100 0.661561
1 17 8 100 0.0070882
2 17 8 100 1.71439e-06
3 17 8 100 0.0303368
6 17 8 100 0.00225375
7 17 8 100 0.159053
8 17 8 100 0.139705
0 18 8 100 6.66403e-06
7 18 8 100 0.999993
0 1 9 100 0.0316837
1 1 9 100 0.515315
2 1 9 100 0.15742
3 1 9 100 0.0728935
4 1 9 100 0.0533698
5 1 9 100 0.0438473
6 1 9 100 0.0279463
7 1 9 100 0.033895
8 1 9 100 0.0445159
9 1 9 100 0.0191131
0 2 9 100 0.141886
1 2 9 100 0.0900735
2 2 9 100 0.282152
3 2 9 100 0.108843
4 2 9 100 0.0917895
5 2 9 100 0.0692496
6 2 9 100 0.053309
7 2 9 100 0.0507453
8 2 9 100 0.0781752
9 2 9 100 0.0337764
0 3 9 100 0.0870147
1 3 9 100 0.0561649
2 3 9 100 0.128155
3 3 9 100 0.196418
4 3 9 100 0.140589
5 3 9 100 0.108682
6 3 9 100 0.0764252
7 3 9 100 0.0562076
8 3 9 100 0.0957656
9 3 9 100 0.0545783
0 4 9 100 0.124287
1 4 9 100 0.0433979
2 4 9 100 0.0701638
3 4 9 100 0.119115
4 4 9 100 0.152836
5 4 9 100 0.129491
6 4 9 100 0.103095
7 4 9 100 0.0784118
8 4 9 100 0.121738
9 4 9 100 0.0574659
0 5 9 100 0.117416
1 5 9 100 0.0353841
2 5 9 100 0.0607561
3 5 9 100 0.0834733
4 5 9 100 0.119364
5 5 9 100 0.150783
6 5 9 100 0.120725
7 5 9 100 0.0977906
8 5 9 100 0.153011
9 5 9 100 0.0612977
0 6 9 100 0.12011
1 6 9 100 0.0279761
2 6 9 100 0.0495876
3 6 9 100 0.0549959
4 6 9 100 0.0983807
5 6 9 100 0.143372
6 6 9 100 0.138235
7 6 9 100 0.127493
8 6 9 100 0.177138
9 6 9 100 0.0627126
0 7 9 100 0.109459
1 7 9 100 0.0329229
2 7 9 100 0.0525903
3 7 9 100 0.0544684
4 7 9 100 0.0855116
5 7 9 100 0.135157
6 7 9 100 0.138578
7 7 9 100 0.139591
8 7 9 100 0.173739
9 7 9 100 0.077984
0 8 9 100 0.108602
1 8 9 100 0.0352011
2 8 9 100 0.0564067
3 8 9 100 0.0580728
4 8 9 100 0.0854529
5 8 9 100 0.106154
6 8 9 100 0.1247
7 8 9 100 0.130877
8 8 9 100 0.210554
9 8 9 100 0.0839788
0 9 9 100 0.11826
1 9 9 100 0.0262141
2 9 9 100 0.0544147
3 9 9 100 0.0598467
4 9 9 100 0.0774215
5 9 9 100 0.0906392
6 9 9 100 0.101798
7 9 9 100 0.126974
8 9 9 100 0.236142
9 9 9 100 0.108289
0 10 9 100 0.132543
1 10 9 100 0.0359725
2 10 9 100 0.0555015
3 10 9 100 0.0579501
4 10 9 100 0.0586956
5 10 9 100 0.0858286
6 10 9 100 0.0933765
7 10 9 100 0.116559
8 10 9 100 0.242438
9 10 9 100 0.121136
0 11 9 100 0.14325
1 11 9 100 0.0302563
2 11 9 100 0.0626245
3 11 9 100 0.0569485
4 11 9 100 0.0730103
5 11 9 100 0.0886455
6 11 9 100 0.0852577
7 11 9 100 0.1198
8 11 9 100 0.224739
9 11 9 100 0.115468
0 12 9 100 0.130451
1 12 9 100 0.0360094
2 12 9 100 0.0586701
3 12 9 100 0.0755272
4 12 9 100 0.0752713
5 12 9 100 0.0819917
6 12 9 100 0.0684436
7 12 9 100 0.0795358
8 12 9 100 0.230708
9 12 9 100 0.163392
0 13 9 100 0.14381
1 13 9 100 0.0569589
2 13 9 100 0.0553317
3 13 9 100 0.066505
4 13 9 100 0.0819289
5 13 9 100 0.069553
6 13 9 100 0.058215
7 13 9 100 0.116997
8 13 9 100 0.205709
9 13 9 100 0.144991
0 14 9 100 0.174469
1 14 9 100 0.0360134
2 14 9 100 0.104609
3 14 9 100 0.0626761
4 14 9 100 0.0431505
5 14 9 100 0.0650039
6 14 9 100 0.0596317
7 14 9 100 0.108361
8 14 9 100 0.196787
9 14 9 100 0.149298
0 15 9 100 0.159504
1 15 9 100 0.0540332
2 15 9 100 0.0555973
3 15 9 100 0.0794204
4 15 9 100 0.0610769
5 15 9 100 0.0915947
6 15 9 100 0.0348601
7 15 9 100 0.0869734
8 15 9 100 0.248289
9 15 9 100 0.128651
0 16 9 100 0.296108
1 16 9 100 0.0239617
2 16 9 100 0.000145386
3 16 9 100 0.0465038
4 16 9 100 0.0479846
5 16 9 100 0.0506425
6 16 9 100 0.0936279
7 16 9 100 0.0877188
8 16 9 100 0.155694
9 16 9 100 0.197613
0 17 9 100 0.190285
2 17 9 100 0.0833334
3 17 9 100 0.0833369
4 17 9 100 0.0833429
6 17 9 100 0.0826164
7 17 9 100 0.0771136
8 17 9 100 0.25001
9 17 9 100 0.149961
0 18 9 100 0.492047
1 18 9 100 4.0441e-06
3 18 9 100 0.212389
6 18 9 100 0.269123
7 18 9 100 0.0250828
9 18 9 100 0.00135478
0 19 9 100 0.00103578
3 19 9 100 0.333328
6 19 9 100 5.00428e-06
7 19 9 100 0.665585
9 19 9 100 4.65152e-05
0 20 9 100 0.0362142
7 20 9 100 0.463661
8 20 9 100 0.5
9 20 9 100 0.000125114
0 1 10 100 0.04007
1 1 10 100 0.489236
2 1 10 100 0.137973
3 1 10 100 0.0840065
4 1 10 100 0.0560372
5 1 10 100 0.0432941
6 1 10 100 0.0393274
7 1 10 100 0.0279047
8 1 10 100 0.0224681
9 1 10 100 0.0316843
10 1 10 100 0.0279988
0 2 10 100 0.134085
1 2 10 100 0.0822922
2 2 10 100 0.276752
3 2 10 100 0.113991
4 2 10 100 0.0900123
5 2 10 100 0.0572654
6 2 10 100 0.0664587
7 2 10 100 0.0440894
8 2 10 100 0.0430335
9 2 10 100 0.0528651
10 2 10 100 0.0391552
0 3 10 100 0.0944867
1 3 10 100 0.0558381
2 3 10 100 0.114721
3 3 10 100 0.189772
4 3 10 100 0.130826
5 3 10 100 0.0918612
6 3 10 100 0.0774514
7 3 10 100 0.052845
8 3 10 100 0.0545324
9 3 10 100 0.089101
10 3 10 100 0.0485648
0 4 10 100 0.120834
1 4 10 100 0.0422592
2 4 10 100 0.0721931
3 4 10 100 0.105655
4 4 10 100 0.155244
5 4 10 100 0.112606
6 4 10 100 0.102496
7 4 10 100 0.0648606
8 4 10 100 0.0656639
9 4 10 100 0.100759
10 4 10 100 0.0574298
0 5 10 100 0.100506
1 5 10 100 0.0360988
2 5 10 100 0.0480764
3 5 10 100 0.0771214
4 5 10 100 0.112636
5 5 10 100 0.146602
6 5 10 100 0.128525
7 5 10 100 0.0842248
8 5 10 100 0.0801798
9 5 10 100 0.12364
10 5 10 100 0.0623901
0 6 10 100 0.108938
1 6 10 100 0.0257056
2 6 10 100 0.0424729
3 6 10 100 0.0589494
4 6 10 100 0.0908956
5 6 10 100 0.109065
6 6 10 100 0.150459
7 6 10 100 0.110654
8 6 10 100 0.108671
9 6 10 100 0.127981
10 6 10 100 0.0662085
0 7 10 100 0.0934575
1 7 10 100 0.0230668
2 7 10 100 0.0419131
3 7 10 100 0.0457315
4 7 10 100 0.0831931
5 7 10 100 0.0961496
6 7 10 100 0.123911
7 7 10 100 0.154184
8 7 10 100 0.111378
9 7 10 100 0.15057
10 7 10 100 0.0764463
0 8 10 100 0.109907
1 8 10 100 0.0257184
2 8 10 100 0.035055
3 8 10 100 0.046998
4 8 10 100 0.0700374
5 8 10 100 0.0827527
6 8 10 100 0.108146
7 8 10 100 0.111154
8 8 10 100 0.156057
9 8 10 100 0.174748
10 8 10 100 0.0794269
0 9 10 100 0.107343
1 9 10 100 0.0262467
2 9 10 100 0.0395675
3 9 10 100 0.0482198
4 9 10 100 0.0559106
5 9 10 100 0.0805178
6 9 10 100 0.100549
7 9 10 100 0.106438
8 9 10 100 0.12549
9 9 10 100 0.211951
10 9 10 100 0.0977673
0 10 10 100 0.0988839
1 10 10 100 0.0276622
2 10 10 100 0.0376854
3 10 10 100 0.0466308
4 10 10 100 0.0611851
5 10 10 100 0.0622538
6 10 10 100 0.0842111
7 10 10 100 0.118862
8 10 10 100 0.139415
9 10 10 100 0.222237
10 10 10 100 0.100974
0 11 10 100 0.112205
1 11 10 100 0.0253841
2 11 10 100 0.0430948
3 11 10 100 0.0466742
4 11 10 100 0.040057
5 11 10 100 0.0551184
6 11 10 100 0.0770608
7 11 10 100 0.118695
8 11 10 100 0.151325
9 11 10 100 0.226291
10 11 10 100 0.104095
0 12 10 100 0.126425
1 12 10 100 0.0455991
2 12 10 100 0.0483802
3 12 10 100 0.0411002
4 12 10 100 0.0532158
5 12 10 100 0.0576039
6 12 10 100 0.0530808
7 12 10 100 0.114558
8 12 10 100 0.134879
9 12 10 100 0.220997
10 12 10 100 0.104161
0 13 10 100 0.117063
1 13 10 100 0.0260256
2 13 10 100 0.0341601
3 13 10 100 0.037205
4 13 10 100 0.043963
5 13 10 100 0.0473687
6 13 10 100 0.0675065
7 13 10 100 0.105256
8 13 10 100 0.12767
9 13 10 100 0.257688
10 13 10 100 0.136093
0 14 10 100 0.0992052
1 14 10 100 0.030713
2 14 10 100 0.0457245
3 14 10 100 0.043046
4 14 10 100 0.0239775
5 14 10 100 0.0508192
6 14 10 100 0.0714946
7 14 10 100 0.0894445
8 14 10 100 0.111828
9 14 10 100 0.249375
10 14 10 100 0.184373
0 15 10 100 0.181475
1 15 10 100 0.0210821
2 15 10 100 0.0307998
3 15 10 100 0.0130486
4 15 10 100 0.0525067
5 15 10 100 0.0304845
6 15 10 100 0.0682748
7 15 10 100 0.134527
8 15 10 100 0.155251
9 15 10 100 0.21765
10 15 10 100 0.0949014
0 16 10 100 0.115146
1 16 10 100 0.00177637
2 16 10 100 0.0431664
3 16 10 100 0.0823426
4 16 10 100 0.041017
5 16 10 100 0.0217336
6 16 10 100 0.050064
7 16 10 100 0.217243
8 16 10 100 0.0527167
9 16 10 100 0.330937
10 16 10 100 0.0438579
0 17 10 100 0.254348
1 17 10 100 0.0120465
2 17 10 100 0.000125425
3 17 10 100 0.0976063
4 17 10 100 9.92484e-05
5 17 10 100 0.143815
6 17 10 100 0.000411778
7 17 10 100 6.83423e-05
8 17 10 100 0.137187
9 17 10 100 0.265073
10 17 10 100 0.0892185
0 18 10 100 0.11615
2 18 10 100 0.000112993
3 18 10 100 0.25
6 18 10 100 0.0124661
8 18 10 100 0.124894
9 18 10 100 0.25
10 18 10 100 0.246377
0 19 10 100 0.0600373
3 19 10 100 0.286425
6 19 10 100 0.000119715
8 19 10 100 0.418603
10 19 10 100 0.234815
0 20 10 100 0.00996272
3 20 10 100 0.9898
10 20 10 100 0.000237098
0 21 10 100 0.00985458
1 21 10 100 2.66794e-05
8 21 10 100 0.990052
10 21 10 100 6.68926e-05
0 1 11 100 0.0403307
1 1 11 100 0.479486
2 1 11 100 0.141525
3 1 11 100 0.0846986
4 1 11 100 0.0582886
5 1 11 100 0.0422486
6 1 11 100 0.0275629
7 1 11 100 0.0395077
8 1 11 100 0.0198985
9 1 11 100 0.0201049
10 1 11 100 0.0309823
11 1 11 100 0.0153665
0 2 11 100 0.136086
1 2 11 100 0.0809928
2 2 11 100 0.272991
3 2 11 100 0.102566
4 2 11 100 0.0788732
5 2 11 100 0.0627713
6 2 11 100 0.0438014
7 2 11 100 0.0467127
8 2 11 100 0.0371904
9 2 11 100 0.0402218
10 2 11 100 0.0501337
11 2 11 100 0.0476611
0 3 11 100 0.091348
1 3 11 100 0.0543981
2 3 11 100 0.118537
3 3 11 100 0.166096
4 3 11 100 0.124048
5 3 11 100 0.0779425
6 3 11 100 0.0638752
7 3 11 100 0.0710118
8 3 11 100 0.049512
9 3 11 100 0.0466461
10 3 11 100 0.0747935
11 3 11 100 0.0617908
0 4 11 100 0.11493
1 4 11 100 0.030135
2 4 11 100 0.0674717
3 4 11 100 0.109377
4 4 11 100 0.141872
5 4 11 100 0.119758
6 4 11 100 0.0838301
7 4 11 100 0.0733805
8 4 11 100 0.0538965
9 4 11 100 0.0612552
10 4 11 100 0.0871948
11 4 11 100 0.0568994
0 5 11 100 0.0959534
1 5 11 100 0.0263691
2 5 11 100 0.0472532
3 5 11 100 0.0795723
4 5 11 100 0.10089
5 5 11 100 0.113693
6 5 11 100 0.109534
7 5 11 100 0.0968066
8 5 11 100 0.0838845
9 5 11 100 0.0769811
10 5 11 100 0.111681
11 5 11 100 0.0573815
0 6 11 100 0.103463
1 6 11 100 0.0270293
2 6 11 100 0.038927
3 6 11 100 0.0496508
4 6 11 100 0.0826795
5 6 11 100 0.100281
6 6 11 100 0.11579
7 6 11 100 0.119266
8 6 11 100 0.0968064
9 6 11 100 0.0821233
10 6 11 100 0.115199
11 6 11 100 0.0687841
0 7 11 100 0.0812602
1 7 11 100 0.0246205
2 7 11 100 0.0415923
3 7 11 100 0.0391763
4 7 11 100 0.0617554
5 7 11 100 0.078867
6 7 11 100 0.112091
7 7 11 100 0.148824
8 7 11 100 0.10776
9 7 11 100 0.10298
10 7 11 100 0.12396
11 7 11 100 0.0771121
0 8 11 100 0.0906584
1 8 11 100 0.0221925
2 8 11 100 0.0394568
3 8 11 100 0.043307
4 8 11 100 0.0532028
5 8 11 100 0.0586434
6 8 11 100 0.0826028
7 8 11 100 0.129278
8 8 11 100 0.130046
9 8 11 100 0.111687
10 8 11 100 0.146505
11 8 11 100 0.0924211
0 9 11 100 0.102182
1 9 11 100 0.0217033
2 9 11 100 0.0337689
3 9 11 100 0.0378275
4 9 11 100 0.0547557
5 9 11 100 0.0461584
6 9 11 100 0.068454
7 9 11 100 0.106189
8 9 11 100 0.122842
9 9 11 100 0.12186
10 9 11 100 0.188849
11 9 11 100 0.0954111
0 10 11 100 0.106742
1 10 11 100 0.0190801
2 10 11 100 0.0480185
3 10 11 100 0.0350239
4 10 11 100 0.038963
5 10 11 100 0.0569032
6 10 11 100 0.0653255
7 10 11 100 0.0865385
8 10 11 100 0.107089
9 10 11 100 0.122648
10 10 11 100 0.208587
11 10 11 100 0.105082
0 11 11 100 0.0999229
1 11 11 100 0.0232592
2 11 11 100 0.0484648
3 11 11 100 0.0382295
4 11 11 100 0.0319201
5 11 11 100 0.0472257
6 11 11 100 0.0546822
7 11 11 100 0.0725526
8 11 11 100 0.112146
9 11 11 100 0.0994263
10 11 11 100 0.258458
11 11 11 100 0.113713
0 12 11 100 0.122783
1 12 11 100 0.0345662
2 12 11 100 0.04374
3 12 11 100 0.0315697
4 12 11 100 0.0422038
5 12 11 100 0.0574743
6 12 11 100 0.0587872
7 12 11 100 0.0693655
8 12 11 100 0.095363
9 12 11 100 0.0787982
10 12 11 100 0.251426
11 12 11 100 0.113924
0 13 11 100 0.0944248
1 13 11 100 0.0187725
2 13 11 100 0.0619975
3 13 11 100 0.0197273
4 13 11 100 0.0385384
5 13 11 100 0.0414335
6 13 11 100 0.0399301
7 13 11 100 0.092137
8 13 11 100 0.0952524
9 13 11 100 0.129367
10 13 11 100 0.218916
11 13 11 100 0.149503
0 14 11 100 0.0823186
1 14 11 100 0.0110307
2 14 11 100 0.0203311
3 14 11 100 0.0277528
4 14 11 100 0.023344
5 14 11 100 0.0450879
6 14 11 100 0.0278356
7 14 11 100 0.1135
8 14 11 100 0.0963334
9 14 11 100 0.124984
10 14 11 100 0.260365
11 14 11 100 0.167116
0 15 11 100 0.14115
1 15 11 100 0.00969111
2 15 11 100 0.0342726
3 15 11 100 0.0300171
4 15 11 100 0.00882655
5 15 11 100 0.0637186
6 15 11 100 0.0411539
7 15 11 100 0.0201866
8 15 11 100 0.0728615
9 15 11 100 0.0452452
10 15 11 100 0.3108
11 15 11 100 0.222077
0 16 11 100 0.107596
1 16 11 100 0.0570263
2 16 11 100 0.031472
3 16 11 100 0.0567193
4 16 11 100 0.0679312
5 16 11 100 0.0433932
6 16 11 100 0.000161406
7 16 11 100 0.0409114
8 16 11 100 0.0427903
9 16 11 100 0.0560589
10 16 11 100 0.283353
11 16 11 100 0.212587
0 17 11 100 0.0745501
1 17 11 100 0.00296512
2 17 11 100 0.000607172
4 17 11 100 0.163854
5 17 11 100 0.000363483
6 17 11 100 0.0808912
7 17 11 100 0.0801058
8 17 11 100 0.000218947
9 17 11 100 0.039989
10 17 11 100 0.283003
11 17 11 100 0.273452
0 18 11 100 0.147303
1 18 11 100 0.142885
4 18 11 100 0.143162
6 18 11 100 0.00659103
7 18 11 100 1.67381e-05
8 18 11 100 0.0648235
9 18 11 100 0.0714286
10 18 11 100 0.214388
11 18 11 100 0.209401
0 19 11 100 0.207385
3 19 11 100 6.55287e-05
4 19 11 100 0.333334
6 19 11 100 2.01539e-05
9 19 11 100 0.125586
10 19 11 100 0.33342
11 19 11 100 0.000189015
0 20 11 100 0.0394694
1 20 11 100 0.5
2 20 11 100 6.24016e-06
5 20 11 100 2.41909e-05
6 20 11 100 0.011629
7 20 11 100 1.8143e-05
8 20 11 100 0.0735368
10 20 11 100 0.375316
1 21 11 100 1
0 22 11 100 0.000225413
4 22 11 100 0.999775
1 23 11 100 1
0 24 11 100 1
0 25 11 100 0.925771
2 25 11 100 0.0742289
1 26 11 100 1
11 27 11 100 1
0 1 12 100 0.0345531
1 1 12 100 0.479027
2 1 12 100 0.145683
3 1 12 100 0.0800742
4 1 12 100 0.0534369
5 1 12 100 0.0374936
6 1 12 100 0.035797
7 1 12 100 0.0267397
8 1 12 100 0.0258771
9 1 12 100 0.0159496
10 1 12 100 0.0109869
11 1 12 100 0.0306491
12 1 12 100 0.0237325
0 2 12 100 0.126965
1 2 12 100 0.0768652
2 2 12 100 0.246069
3 2 12 100 0.113372
4 2 12 100 0.0823609
5 2 12 100 0.0598421
6 2 12 100 0.0572721
7 2 12 100 0.030657
8 2 12 100 0.045678
9 2 12 100 0.0341996
10 2 12 100 0.0366356
11 2 12 100 0.0520059
12 2 12 100 0.0380784
0 3 12 100 0.09161
1 3 12 100 0.0506452
2 3 12 100 0.117473
3 3 12 100 0.168552
4 3 12 100 0.121048
5 3 12 100 0.0832276
6 3 12 100 0.0740454
7 3 12 100 0.0407098
8 3 12 100 0.0602447
9 3 12 100 0.0467265
10 3 12 100 0.0361711
11 3 12 100 0.0543597
12 3 12 100 0.0551866
0 4 12 100 0.111961
1 4 12 100 0.0354969
2 4 12 100 0.0623501
3 4 12 100 0.0903913
4 4 12 100 0.128098
5 4 12 100 0.105476
6 4 12 100 0.0879002
7 4 12 100 0.065537
8 4 12 100 0.0609165
9 4 12 100 0.0591804
10 4 12 100 0.0552182
11 4 12 100 0.0778773
12 4 12 100 0.0595978
0 5 12 100 0.106041
1 5 12 100 0.0271427
2 5 12 100 0.0502498
3 5 12 100 0.0728855
4 5 12 100 0.099063
5 5 12 100 0.108489
6 5 12 100 0.102839
7 5 12 100 0.0799596
8 5 12 100 0.0770998
9 5 12 100 0.057186
10 5 12 100 0.0576239
11 5 12 100 0.0863513
12 5 12 100 0.0750705
0 6 12 100 0.0970442
1 6 12 100 0.0183861
2 6 12 100 0.0310977
3 6 12 100 0.0529745
4 6 12 100 0.0939532
5 6 12 100 0.0822847
6 6 12 100 0.0937837
7 6 12 100 0.106467
8 6 12 100 0.0984487
9 6 12 100 0.0756844
10 6 12 100 0.0669486
11 6 12 100 0.109261
12 6 12 100 0.073666
0 7 12 100 0.091436
1 7 12 100 0.0237595
2 7 12 100 0.0304516
3 7 12 100 0.032315
4 7 12 100 0.0607028
5 7 12 100 0.0653558
6 7 12 100 0.105161
7 7 12 100 0.0958386
8 7 12 100 0.106246
9 7 12 100 0.0992531
10 7 12 100 0.0704226
11 7 12 100 0.138594
12 7 12 100 0.0804641
0 8 12 100 0.0849267
1 8 12 100 0.0198162
2 8 12 100 0.0288258
3 8 12 100 0.030869
4 8 12 100 0.0631544
5 8 12 100 0.0596179
6 8 12 100 0.0835563
7 8 12 100 0.101816
8 8 12 100 0.12985
9 8 12 100 0.0915281
10 8 12 100 0.0921857
11 8 12 100 0.1301
12 8 12 100 0.0837542
0 9 12 100 0.0774633
1 9 12 100 0.0227411
2 9 12 100 0.0271559
3 9 12 100 0.0278019
4 9 12 100 0.054157
5 9 12 100 0.0413663
6 9 12 100 0.0741766
7 9 12 100 0.0872901
8 9 12 100 0.113568
9 9 12 100 0.110634
10 9 12 100 0.118999
11 9 12 100 0.156166
12 9 12 100 0.08848
0 10 12 100 0.0880296
1 10 12 100 0.0194616
2 10 12 100 0.0324589
3 10 12 100 0.0320438
4 10 12 100 0.037535
5 10 12 100 0.0418891
6 10 12 100 0.049569
7 10 12 100 0.0691888
8 10 12 100 0.107135
9 10 12 100 0.112778
10 10 12 100 0.122989
11 10 12 100 0.196459
12 10 12 100 0.0904636
0 11 12 100 0.123564
1 11 12 100 0.0172602
2 11 12 100 0.0416099
3 11 12 100 0.0325164
4 11 12 100 0.038183
5 11 12 100 0.0455034
6 11 12 100 0.0462003
7 11 12 100 0.0702475
8 11 12 100 0.0663748
9 11 12 100 0.0796199
10 11 12 100 0.115224
11 11 12 100 0.211541
12 11 12 100 0.112156
0 12 12 100 0.0813116
1 12 12 100 0.0247152
2 12 12 100 0.0673589
3 12 12 100 0.0386863
4 12 12 100 0.0492945
5 12 12 100 0.0361087
6 12 12 100 0.0317834
7 12 12 100 0.0678125
8 12 12 100 0.0765228
9 12 12 100 0.0792955
10 12 12 100 0.119586
11 12 12 100 0.213329
12 12 12 100 0.114196
0 13 12 100 0.109215
1 13 12 100 0.0150323
2 13 12 100 0.046488
3 13 12 100 0.0207899
4 13 12 100 0.041863
5 13 12 100 0.0359311
6 13 12 100 0.0339617
7 13 12 100 0.0321523
8 13 12 100 0.0867918
9 13 12 100 0.095199
10 13 12 100 0.103395
11 13 12 100 0.27102
12 13 12 100 0.10816
0 14 12 100 0.166717
1 14 12 100 0.0113387
2 14 12 100 0.0310629
3 14 12 100 0.0201924
4 14 12 100 0.0336504
5 14 12 100 0.0301786
6 14 12 100 0.0251612
7 14 12 100 0.0467068
8 14 12 100 0.0563363
9 14 12 100 0.0737834
10 14 12 100 0.117125
11 14 12 100 0.242093
12 14 12 100 0.145654
0 15 12 100 0.118885
1 15 12 100 0.0449847
2 15 12 100 0.0475584
3 15 12 100 0.0178654
4 15 12 100 0.0423855
5 15 12 100 0.0364843
6 15 12 100 0.0192976
7 15 12 100 0.00877465
8 15 12 100 0.0590687
9 15 12 100 0.0694646
10 15 12 100 0.0885123
11 15 12 100 0.274139
12 15 12 100 0.17258
0 16 12 100 0.0704145
1 16 12 100 0.0193955
2 16 12 100 0.00656733
3 16 12 100 0.0361821
4 16 12 100 0.146366
5 16 12 100 0.0235775
6 16 12 100 0.0210419
7 16 12 100 0.117067
8 16 12 100 0.120925
9 16 12 100 0.00230202
10 16 12 100 0.101867
11 16 12 100 0.313891
12 16 12 100 0.0204034
0 17 12 100 0.112959
1 17 12 100 0.111069
2 17 12 100 0.000518035
3 17 12 100 2.10909e-05
4 17 12 100 0.145866
5 17 12 100 4.63175e-05
6 17 12 100 1.02574e-05
7 17 12 100 0.03704
8 17 12 100 0.00205195
9 17 12 100 0.0381413
10 17 12 100 0.0368492
11 17 12 100 0.479848
12 17 12 100 0.0355796
0 18 12 100 0.295746
1 18 12 100 0.000524535
2 18 12 100 3.38976e-05
3 18 12 100 0.0063282
4 18 12 100 0.0163411
5 18 12 100 2.89746e-05
6 18 12 100 3.86404e-05
7 18 12 100 0.0606239
8 18 12 100 0.00432428
9 18 12 100 0.037025
10 18 12 100 0.128789
11 18 12 100 0.399446
12 18 12 100 0.05075
0 19 12 100 0.193817
1 19 12 100 8.63258e-06
3 19 12 100 3.83792e-06
4 19 12 100 0.46809
6 19 12 100 0.00365731
8 19 12 100 0.0137642
9 19 12 100 0.000823015
10 19 12 100 0.00017734
11 19 12 100 0.319568
12 19 12 100 9.053e-05
0 20 12 100 0.0123199
2 20 12 100 3.44449e-05
3 20 12 100 0.000805929
4 20 12 100 0.32855
5 20 12 100 0.000164528
7 20 12 100 0.000134737
10 20 12 100 0.00772931
11 20 12 100 0.328374
12 20 12 100 0.321887
1 21 12 100 0.000137457
4 21 12 100 0.996637
8 21 12 100 0.00322525
0 1 13 100 0.0350019
1 1 13 100 0.460789
2 1 13 100 0.142754
3 1 13 100 0.0686965
4 1 13 100 0.0489938
5 1 13 100 0.0400735
6 1 13 100 0.0280915
7 1 13 100 0.0308467
8 1 13 100 0.0166822
9 1 13 100 0.0248499
10 1 13 100 0.0177788
11 1 13 100 0.0164073
12 1 13 100 0.0475329
13 1 13 100 0.0215011
0 2 13 100 0.127482
1 2 13 100 0.0726038
2 2 13 100 0.237397
3 2 13 100 0.119227
4 2 13 100 0.0825308
5 2 13 100 0.0596285
6 2 13 100 0.0437773
7 2 13 100 0.0365249
8 2 13 100 0.0330506
9 2 13 100 0.0363699
10 2 13 100 0.0283428
11 2 13 100 0.0396697
12 2 13 100 0.0472476
13 2 13 100 0.0361489
0 3 13 100 0.0750985
1 3 13 100 0.0441767
2 3 13 100 0.090564
3 3 13 100 0.158084
4 3 13 100 0.115967
5 3 13 100 0.0926361
6 3 13 100 0.0637633
7 3 13 100 0.0563207
8 3 13 100 0.0519547
9 3 13 100 0.044864
10 3 13 100 0.0370108
11 3 13 100 0.0414642
12 3 13 100 0.0746652
13 3 13 100 0.0534306
0 4 13 100 0.107888
1 4 13 100 0.0259933
2 4 13 100 0.0644087
3 4 13 100 0.0936221
4 4 13 100 0.113507
5 4 13 100 0.0967848
6 4 13 100 0.0804571
7 4 13 100 0.0579898
8 4 13 100 0.0609155
9 4 13 100 0.0556851
10 4 13 100 0.0492774
11 4 13 100 0.0537628
12 4 13 100 0.0716756
13 4 13 100 0.0680335
0 5 13 100 0.0864358
1 5 13 100 0.0198613
2 5 13 100 0.0433758
3 5 13 100 0.0794564
4 5 13 100 0.0966054
5 5 13 100 0.115302
6 5 13 100 0.099275
7 5 13 100 0.0784431
8 5 13 100 0.0620932
9 5 13 100 0.0692642
10 5 13 100 0.0527724
11 5 13 100 0.0426843
12 5 13 100 0.0773932
13 5 13 100 0.0770384
0 6 13 100 0.0960665
1 6 13 100 0.0158202
2 6 13 100 0.0263343
3 6 13 100 0.0443107
4 6 13 100 0.0863096
5 6 13 100 0.0971697
6 6 13 100 0.103467
7 6 13 100 0.0897484
8 6 13 100 0.0725593
9 6 13 100 0.0748107
10 6 13 100 0.0566051
11 6 13 100 0.0584617
12 6 13 100 0.0916514
13 6 13 100 0.0866856
0 7 13 100 0.0863542
1 7 13 100 0.0160793
2 7 13 100 0.0196182
3 7 13 100 0.0411136
4 7 13 100 0.0622345
5 7 13 100 0.0642181
6 7 13 100 0.0853231
7 7 13 100 0.100688
8 7 13 100 0.101381
9 7 13 100 0.0974203
10 7 13 100 0.0745874
11 7 13 100 0.0750251
12 7 13 100 0.102134
13 7 13 100 0.0738225
0 8 13 100 0.0891572
1 8 13 100 0.0166052
2 8 13 100 0.025652
3 8 13 100 0.0506153
4 8 13 100 0.0428616
5 8 13 100 0.0458455
6 8 13 100 0.0685922
7 8 13 100 0.0897749
8 8 13 100 0.0906154
9 8 13 100 0.090285
10 8 13 100 0.100163
11 8 13 100 0.073192
12 8 13 100 0.141507
13 8 13 100 0.0751341
0 9 13 100 0.0865523
1 9 13 100 0.0061085
2 9 13 100 0.0271661
3 9 13 100 0.0377204
4 9 13 100 0.0467156
5 9 13 100 0.0439111
6 9 13 100 0.0508676
7 9 13 100 0.069378
8 9 13 100 0.0893661
9 9 13 100 0.119126
10 9 13 100 0.0971398
11 9 13 100 0.0990849
12 9 13 100 0.158335
13 9 13 100 0.068529
0 10 13 100 0.0593684
1 10 13 100 0.00702846
2 10 13 100 0.0239416
3 10 13 100 0.0299794
4 10 13 100 0.0275913
5 10 13 100 0.0317705
6 10 13 100 0.0594517
7 10 13 100 0.0686932
8 10 13 100 0.0860139
9 10 13 100 0.107753
10 10 13 100 0.122347
11 10 13 100 0.129242
12 10 13 100 0.166627
13 10 13 100 0.0801929
0 11 13 100 0.0796197
1 11 13 100 0.00885808
2 11 13 100 0.0245145
3 11 13 100 0.0346142
4 11 13 100 0.028641
5 11 13 100 0.032448
6 11 13 100 0.0343473
7 11 13 100 0.0689699
8 11 13 100 0.0862814
9 11 13 100 0.0650611
10 11 13 100 0.139098
11 11 13 100 0.120801
12 11 13 100 0.206954
13 11 13 100 0.0697906
0 12 13 100 0.0762842
1 12 13 100 0.00948114
2 12 13 100 0.0276134
3 12 13 100 0.0256843
4 12 13 100 0.0344387
5 12 13 100 0.0289487
6 12 13 100 0.0420219
7 12 13 100 0.0537376
8 12 13 100 0.0517761
9 12 13 100 0.0988941
10 12 13 100 0.138447
11 12 13 100 0.113365
12 12 13 100 0.198941
13 12 13 100 0.100367
0 13 13 100 0.0619396
1 13 13 100 0.0155715
2 13 13 100 0.0292362
3 13 13 100 0.0540874
4 13 13 100 0.0270484
5 13 13 100 0.0117915
6 13 13 100 0.0251264
7 13 13 100 0.0622592
8 13 13 100 0.0813891
9 13 13 100 0.057173
10 13 13 100 0.107521
11 13 13 100 0.13241
12 13 13 100 0.23159
13 13 13 100 0.102857
0 14 13 100 0.104349
1 14 13 100 0.0102377
2 14 13 100 0.0228504
3 14 13 100 0.0366523
4 14 13 100 0.0192207
5 14 13 100 0.0259712
6 14 13 100 0.0202557
7 14 13 100 0.0867836
8 14 13 100 0.0312363
9 14 13 100 0.0476816
10 14 13 100 0.094639
11 14 13 100 0.120182
12 14 13 100 0.262436
13 14 13 100 0.117505
0 15 13 100 0.133821
1 15 13 100 0.0204992
2 15 13 100 0.00305797
3 15 13 100 0.0369464
4 15 13 100 0.0177469
5 15 13 100 0.0283947
6 15 13 100 0.012561
7 15 13 100 0.0498963
8 15 13 100 0.0380623
9 15 13 100 0.0836648
10 15 13 100 0.109255
11 15 13 100 0.123839
12 15 13 100 0.176687
13 15 13 100 0.165569
0 16 13 100 0.0938746
1 16 13 100 0.0249684
2 16 13 100 0.023377
3 16 13 100 0.0422339
4 16 13 100 0.0282665
5 16 13 100 0.0247095
6 16 13 100 0.0759541
7 16 13 100 0.0712228
8 16 13 100 0.0241415
9 16 13 100 0.0494677
10 16 13 100 0.0323197
11 16 13 100 0.189443
12 16 13 100 0.2284
13 16 13 100 0.0916214
0 17 13 100 0.175328
2 17 13 100 0.0442416
3 17 13 100 0.0454545
4 17 13 100 0.000210557
5 17 13 100 3.23993e-06
6 17 13 100 0.0817132
7 17 13 100 0.0457427
8 17 13 100 0.0440812
9 17 13 100 0.045766
10 17 13 100 0.0945242
11 17 13 100 0.144481
12 17 13 100 0.133815
13 17 13 100 0.144639
0 18 13 100 0.09077
3 18 13 100 0.0833395
4 18 13 100 0.000214896
7 18 13 100 2.12701e-06
8 18 13 100 0.0833335
10 18 13 100 4.56709e-05
11 18 13 100 0.251456
12 18 13 100 0.249972
13 18 13 100 0.240867
0 19 13 100 0.159903
6 19 13 100 0.00242952
8 19 13 100 0.166629
9 19 13 100 5.22127e-06
10 19 13 100 4.41859e-05
11 19 13 100 3.34058e-06
12 19 13 100 0.670982
13 19 13 100 2.6014e-06
0 20 13 100 0.0398606
7 20 13 100 0.333334
9 20 13 100 1.95189e-05
12 20 13 100 0.625672
13 20 13 100 0.00111463
0 21 13 100 0.000216281
8 21 13 100 0.5
9 21 13 100 0.482143
13 21 13 100 0.0176401
0 22 13 100 0.0536171
12 22 13 100 0.946383
0 1 14 100 0.0369817
1 1 14 100 0.480728
2 1 14 100 0.150959
3 1 14 100 0.0615342
4 1 14 100 0.0505102
5 1 14 100 0.0355682
6 1 14 100 0.024364
7 1 14 100 0.0224623
8 1 14 100 0.0172492
9 1 14 100 0.0203654
10 1 14 100 0.0167003
11 1 14 100 0.0123474
12 1 14 100 0.0326823
13 1 14 100 0.0123809
14 1 14 100 0.0251665
0 2 14 100 0.120829
1 2 14 100 0.0747452
2 2 14 100 0.236551
3 2 14 100 0.0950637
4 2 14 100 0.085508
5 2 14 100 0.0466504
6 2 14 100 0.0437697
7 2 14 100 0.0334102
8 2 14 100 0.0439073
9 2 14 100 0.0337189
10 2 14 100 0.0439832
11 2 14 100 0.0222644
12 2 14 100 0.0278107
13 2 14 100 0.0402132
14 2 14 100 0.0515744
0 3 14 100 0.0877243
1 3 14 100 0.0465878
2 3 14 100 0.0981967
3 3 14 100 0.168531
4 3 14 100 0.125519
5 3 14 100 0.0827885
6 3 14 100 0.0719026
7 3 14 100 0.0385241
8 3 14 100 0.0405321
9 3 14 100 0.0462035
10 3 14 100 0.042173
11 3 14 100 0.0233978
12 3 14 100 0.0341896
13 3 14 100 0.0508592
14 3 14 100 0.0428705
0 4 14 100 0.106818
1 4 14 100 0.0300676
2 4 14 100 0.0496346
3 4 14 100 0.0988498
4 4 14 100 0.149776
5 4 14 100 0.0979947
6 4 14 100 0.0725909
7 4 14 100 0.0412873
8 4 14 100 0.0611306
9 4 14 100 0.0489672
10 4 14 100 0.0544898
11 4 14 100 0.0392214
12 4 14 100 0.0394904
13 4 14 100 0.061887
14 4 14 100 0.0477943
0 5 14 100 0.0810198
1 5 14 100 0.0235546
2 5 14 100 0.0506272
3 5 14 100 0.0724793
4 5 14 100 0.0925966
5 5 14 100 0.124066
6 5 14 100 0.0920392
7 5 14 100 0.0577578
8 5 14 100 0.0622606
9 5 14 100 0.0475738
10 5 14 100 0.0633808
11 5 14 100 0.0399985
12 5 14 100 0.0491523
13 5 14 100 0.0773247
14 5 14 100 0.0661685
0 6 14 100 0.104907
1 6 14 100 0.0210063
2 6 14 100 0.0277151
3 6 14 100 0.0377434
4 6 14 100 0.0764024
5 6 14 100 0.0671575
6 6 14 100 0.129221
7 6 14 100 0.0755856
8 6 14 100 0.0805513
9 6 14 100 0.0660657
10 6 14 100 0.0586887
11 6 14 100 0.0353106
12 6 14 100 0.0519652
13 6 14 100 0.10068
14 6 14 100 0.0670001
0 7 14 100 0.0786176
1 7 14 100 0.0226879
2 7 14 100 0.0311455
3 7 14 100 0.0232773
4 7 14 100 0.0623791
5 7 14 100 0.0562441
6 7 14 100 0.0884295
7 7 14 100 0.0917516
8 7 14 100 0.101991
9 7 14 100 0.0700166
10 7 14 100 0.0811137
11 7 14 100 0.0634355
12 7 14 100 0.0591317
13 7 14 100 0.0979996
14 7 14 100 0.0717789
0 8 14 100 0.063605
1 8 14 100 0.016458
2 8 14 100 0.0167547
3 8 14 100 0.0180942
4 8 14 100 0.0514492
5 8 14 100 0.0391761
6 8 14 100 0.0745516
7 8 14 100 0.067738
8 8 14 100 0.135104
9 8 14 100 0.10265
10 8 14 100 0.113235
11 8 14 100 0.0611781
12 8 14 100 0.0829134
13 8 14 100 0.0879261
14 8 14 100 0.0691674
0 9 14 100 0.0759136
1 9 14 100 0.0200872
2 9 14 100 0.0234924
3 9 14 100 0.0206833
4 9 14 100 0.0281903
5 9 14 100 0.0299201
6 9 14 100 0.0617102
7 9 14 100 0.0715032
8 9 14 100 0.0879726
9 9 14 100 0.0878371
10 9 14 100 0.0994155
11 9 14 100 0.091572
12 9 14 100 0.0829598
13 9 14 100 0.140067
14 9 14 100 0.078676
0 10 14 100 0.108451
1 10 14 100 0.019795
2 10 14 100 0.0224317
3 10 14 100 0.0179104
4 10 14 100 0.0312251
5 10 14 100 0.0287165
6 10 14 100 0.0278095
7 10 14 100 0.0498544
8 10 14 100 0.0679269
9 10 14 100 0.0801102
10 10 14 100 0.120634
11 10 14 100 0.121754
12 10 14 100 0.097333
13 10 14 100 0.122742
14 10 14 100 0.0833062
0 11 14 100 0.0726698
1 11 14 100 0.007299
2 11 14 100 0.0304276
3 11 14 100 0.0298883
4 11 14 100 0.0204685
5 11 14 100 0.0166178
6 11 14 100 0.0361846
7 11 14 100 0.0348075
8 11 14 100 0.0610314
9 11 14 100 0.0710847
10 11 14 100 0.142187
11 11 14 100 0.0883324
12 11 14 100 0.114243
13 11 14 100 0.164914
14 11 14 100 0.109845
0 12 14 100 0.0708066
1 12 14 100 0.00458112
2 12 14 100 0.0343899
3 12 14 100 0.0091799
4 12 14 100 0.0274606
5 12 14 100 0.0369891
6 12 14 100 0.0298838
7 12 14 100 0.0558175
8 12 14 100 0.0699723
9 12 14 100 0.0747941
10 12 14 100 0.109657
11 12 14 100 0.0857575
12 12 14 100 0.104831
13 12 14 100 0.176159
14 12 14 100 0.10972
0 13 14 100 0.0903535
1 13 14 100 0.00680561
2 13 14 100 0.0261324
3 13 14 100 0.0254901
4 13 14 100 0.0284792
5 13 14 100 0.0150152
6 13 14 100 0.0247419
7 13 14 100 0.0264804
8 13 14 100 0.101051
9 13 14 100 0.0947886
10 13 14 100 0.0635183
11 13 14 100 0.103847
12 13 14 100 0.0954367
13 13 14 100 0.189405
14 13 14 100 0.108455
0 14 14 100 0.0741142
1 14 14 100 0.00163026
2 14 14 100 0.0131027
3 14 14 100 0.020456
4 14 14 100 0.0167398
5 14 14 100 0.0197712
6 14 14 100 0.0179999
7 14 14 100 0.0524822
8 14 14 100 0.0718209
9 14 14 100 0.113005
10 14 14 100 0.0822491
11 14 14 100 0.0518286
12 14 14 100 0.124465
13 14 14 100 0.220309
14 14 14 100 0.120026
0 15 14 100 0.116863
1 15 14 100 0.0098606
2 15 14 100 0.00959384
3 15 14 100 0.0289243
4 15 14 100 0.0494591
5 15 14 100 0.000400496
6 15 14 100 0.0101757
7 15 14 100 0.0707356
8 15 14 100 0.0861366
9 15 14 100 0.0455134
10 15 14 100 0.0998796
11 15 14 100 0.0629435
12 15 14 100 0.0893772
13 15 14 100 0.221062
14 15 14 100 0.0990751
0 16 14 100 0.0950615
1 16 14 100 0.0005258
2 16 14 100 0.00243939
3 16 14 100 0.044638
4 16 14 100 0.0583372
5 16 14 100 0.00055671
6 16 14 100 0.00080415
7 16 14 100 0.0756658
8 16 14 100 0.141142
9 16 14 100 0.134681
10 16 14 100 0.091762
11 16 14 100 0.0537417
12 16 14 100 0.0920297
13 16 14 100 0.0927678
14 16 14 100 0.115847
0 17 14 100 0.0549207
1 17 14 100 0.00184805
2 17 14 100 9.94529e-05
3 17 14 100 0.000304679
4 17 14 100 0.00480319
5 17 14 100 1.10246e-05
6 17 14 100 0.00139328
7 17 14 100 0.0713756
8 17 14 100 0.0703307
9 17 14 100 0.13039
10 17 14 100 0.243076
11 17 14 100 0.0860865
12 17 14 100 0.198981
13 17 14 100 0.0692569
14 17 14 100 0.0671233
0 18 14 100 0.0819445
1 18 14 100 0.0722244
2 18 14 100 9.41883e-07
3 18 14 100 0.00276245
6 18 14 100 1.24382e-06
7 18 14 100 0.0055638
8 18 14 100 0.359301
9 18 14 100 0.000769394
10 18 14 100 0.157969
11 18 14 100 0.000183263
12 18 14 100 0.000153353
13 18 14 100 0.161634
14 18 14 100 0.157493
0 19 14 100 0.00806696
2 19 14 100 0.000341203
9 19 14 100 0.492581
10 19 14 100 0.250009
11 19 14 100 0.123708
12 19 14 100 0.000293779
13 19 14 100 0.125
0 20 14 100 0.330305
1 20 14 100 9.70146e-06
4 20 14 100 0.000731333
7 20 14 100 0.000570948
8 20 14 100 5.26526e-05
11 20 14 100 0.333294
13 20 14 100 0.333334
14 20 14 100 0.00170216
0 21 14 100 0.0128437
2 21 14 100 0.0276268
9 21 14 100 0.497708
11 21 14 100 0.461814
13 21 14 100 7.72314e-06
0 22 14 100 0.498859
10 22 14 100 0.499858
11 22 14 100 1.13249e-05
13 22 14 100 3.62629e-05
14 22 14 100 0.00123533
0 23 14 100 0.0104168
11 23 14 100 0.989583
0 1 15 100 0.0241227
1 1 15 100 0.450155
2 1 15 100 0.141915
3 1 15 100 0.0634092
4 1 15 100 0.0361766
5 1 15 100 0.0410073
6 1 15 100 0.0325493
7 1 15 100 0.0321514
8 1 15 100 0.018295
9 1 15 100 0.0137853
10 1 15 100 0.024263
11 1 15 100 0.0140014
12 1 15 100 0.00972128
13 1 15 100 0.0112045
14 1 15 100 0.0474646
15 1 15 100 0.0397794
0 2 15 100 0.114033
1 2 15 100 0.0780971
2 2 15 100 0.231365
3 2 15 100 0.110034
4 2 15 100 0.0583449
5 2 15 100 0.0500587
6 2 15 100 0.0523859
7 2 15 100 0.0306355
8 2 15 100 0.02135
9 2 15 100 0.0319939
10 2 15 100 0.0198418
11 2 15 100 0.040977
12 2 15 100 0.0177393
13 2 15 100 0.0278214
14 2 15 100 0.0620564
15 2 15 100 0.0532671
0 3 15 100 0.0846094
1 3 15 100 0.0544191
2 3 15 100 0.113091
3 3 15 100 0.127463
4 3 15 100 0.116678
5 3 15 100 0.0727006
6 3 15 100 0.0592337
7 3 15 100 0.0449916
8 3 15 100 0.0294546
9 3 15 100 0.0374817
10 3 15 100 0.0388114
11 3 15 100 0.039525
12 3 15 100 0.0331838
13 3 15 100 0.0238569
14 3 15 100 0.0558465
15 3 15 100 0.0686531
0 4 15 100 0.109787
1 4 15 100 0.0224521
2 4 15 100 0.0863171
3 4 15 100 0.0911188
4 4 15 100 0.0897902
5 4 15 100 0.106878
6 4 15 100 0.0696792
7 4 15 100 0.0573199
8 4 15 100 0.0404549
9 4 15 100 0.0335443
10 4 15 100 0.0463098
11 4 15 100 0.0404911
12 4 15 100 0.0402649
13 4 15 100 0.045746
14 4 15 100 0.0594349
15 4 15 100 0.060412
0 5 15 100 0.0874363
1 5 15 100 0.014378
2 5 15 100 0.0483586
3 5 15 100 0.0484335
4 5 15 100 0.0627493
5 5 15 100 0.0938983
6 5 15 100 0.0909021
7 5 15 100 0.065125
8 5 15 100 0.0702613
9 5 15 100 0.0658901
10 5 15 100 0.0344446
11 5 15 100 0.0501403
12 5 15 100 0.0332301
13 5 15 100 0.0595558
14 5 15 100 0.0875514
15 5 15 100 0.0876453
0 6 15 100 0.087617
1 6 15 100 0.0186788
2 6 15 100 0.0394862
3 6 15 100 0.0314381
4 6 15 100 0.0579987
5 6 15 100 0.0898126
6 6 15 100 0.0639114
7 6 15 100 0.0988234
8 6 15 100 0.0793374
9 6 15 100 0.0724838
10 6 15 100 0.0414984
11 6 15 100 0.0586766
12 6 15 100 0.0458231
13 6 15 100 0.0525317
14 6 15 100 0.0749187
15 6 15 100 0.0869642
0 7 15 100 0.113611
1 7 15 100 0.0162671
2 7 15 100 0.0380612
3 7 15 100 0.0286393
4 7 15 100 0.0371561
5 7 15 100 0.0599778
6 7 15 100 0.0620215
7 7 15 100 0.0701457
8 7 15 100 0.0760456
9 7 15 100 0.0615323
10 7 15 100 0.0703752
11 7 15 100 0.0705797
12 7 15 100 0.0412171
13 7 15 100 0.0650399
14 7 15 100 0.110177
15 7 15 100 0.0791537
0 8 15 100 0.105172
1 8 15 100 0.0230108
2 8 15 100 0.0325241
3 8 15 100 0.0263013
4 8 15 100 0.025305
5 8 15 100 0.0681553
6 8 15 100 0.0613535
7 8 15 100 0.0702346
8 8 15 100 0.0703852
9 8 15 100 0.0779547
10 8 15 100 0.0662362
11 8 15 100 0.0740898
12 8 15 100 0.0577044
13 8 15 100 0.0659805
14 8 15 100 0.0945592
15 8 15 100 0.0810333
0 9 15 100 0.0792294
1 9 15 100 0.0137644
2 9 15 100 0.0223377
3 9 15 100 0.0246411
4 9 15 100 0.0211366
5 9 15 100 0.0412059
6 9 15 100 0.0458728
7 9 15 100 0.0473545
8 9 15 100 0.0676057
9 9 15 100 0.0778384
10 9 15 100 0.0914551
11 9 15 100 0.0934331
12 9 15 100 0.0812242
13 9 15 100 0.0668337
14 9 15 100 0.140046
15 9 15 100 0.0860211
0 10 15 100 0.0771119
1 10 15 100 0.00712147
2 10 15 100 0.0218126
3 10 15 100 0.0175914
4 10 15 100 0.0154772
5 10 15 100 0.0361535
6 10 15 100 0.0336759
7 10 15 100 0.0477416
8 10 15 100 0.0750237
9 10 15 100 0.0873892
10 10 15 100 0.0604144
11 10 15 100 0.116144
12 10 15 100 0.0722521
13 10 15 100 0.0831799
14 10 15 100 0.145202
15 10 15 100 0.103708
0 11 15 100 0.0571742
1 11 15 100 0.0109939
2 11 15 100 0.0208883
3 11 15 100 0.00994032
4 11 15 100 0.00633469
5 11 15 100 0.0375942
6 11 15 100 0.0250113
7 11 15 100 0.0555027
8 11 15 100 0.0748072
9 11 15 100 0.0668761
10 11 15 100 0.0634363
11 11 15 100 0.0938764
12 11 15 100 0.0892966
13 11 15 100 0.0914615
14 11 15 100 0.206308
15 11 15 100 0.0904982
0 12 15 100 0.0853265
1 12 15 100 0.0103949
2 12 15 100 0.0370528
3 12 15 100 0.0118721
4 12 15 100 0.0125769
5 12 15 100 0.0193854
6 12 15 100 0.018039
7 12 15 100 0.0439045
8 12 15 100 0.043734
9 12 15 100 0.0730264
10 12 15 100 0.0842224
11 12 15 100 0.0995262
12 12 15 100 0.0792692
13 12 15 100 0.113018
14 12 15 100 0.181841
15 12 15 100 0.0868103
0 13 15 100 0.0981798
1 13 15 100 0.0149929
2 13 15 100 0.0165135
3 13 15 100 0.0145082
4 13 15 100 0.00895324
5 13 15 100 0.0476192
6 13 15 100 0.0285672
7 13 15 100 0.0432129
8 13 15 100 0.0499026
9 13 15 100 0.0467281
10 13 15 100 0.0932702
11 13 15 100 0.103522
12 13 15 100 0.127094
13 13 15 100 0.113313
14 13 15 100 0.1356
15 13 15 100 0.0580236
0 14 15 100 0.0930569
1 14 15 100 0.0200024
2 14 15 100 0.00447034
3 14 15 100 0.0134459
4 14 15 100 0.00767569
5 14 15 100 0.000532434
6 14 15 100 0.00234245
7 14 15 100 0.0301992
8 14 15 100 0.0318063
9 14 15 100 0.0156374
10 14 15 100 0.0941407
11 14 15 100 0.12367
12 14 15 100 0.101271
13 14 15 100 0.182863
14 14 15 100 0.209414
15 14 15 100 0.0694722
0 15 15 100 0.0697345
1 15 15 100 0.00046163
2 15 15 100 0.0212635
3 15 15 100 0.0115642
4 15 15 100 0.0378243
5 15 15 100 0.0342548
6 15 15 100 0.02222
7 15 15 100 0.0628777
8 15 15 100 0.0456355
9 15 15 100 0.032375
10 15 15 100 0.0684228
11 15 15 100 0.0979729
12 15 15 100 0.14754
13 15 15 100 0.102858
14 15 15 100 0.184501
15 15 15 100 0.0604947
0 16 15 100 0.0663464
1 16 15 100 0.0215485
2 16 15 100 8.1738e-05
3 16 15 100 0.0313495
4 16 15 100 0.00548669
5 16 15 100 0.0326994
6 16 15 100 5.185e-05
7 16 15 100 0.109022
8 16 15 100 0.0156697
9 16 15 100 0.0719507
10 16 15 100 0.0870843
11 16 15 100 0.0916444
12 16 15 100 0.0709207
13 16 15 100 0.063423
14 16 15 100 0.212681
15 16 15 100 0.12004
0 17 15 100 0.0336627
2 17 15 100 0.111113
4 17 15 100 0.0358983
5 17 15 100 0.000159457
6 17 15 100 6.05409e-05
7 17 15 100 0.0787814
8 17 15 100 0.0370573
9 17 15 100 0.00249277
10 17 15 100 4.73093e-05
11 17 15 100 1.00703e-05
12 17 15 100 0.0737504
13 17 15 100 0.0779964
14 17 15 100 0.297872
15 17 15 100 0.251098
0 18 15 100 0.176852
1 18 15 100 4.83472e-05
2 18 15 100 1.13114e-05
3 18 15 100 8.16402e-05
6 18 15 100 0.0171725
7 18 15 100 0.0909639
8 18 15 100 0.0126139
9 18 15 100 5.77105e-06
10 18 15 100 0.0199095
12 18 15 100 0.0745418
13 18 15 100 0.0975434
14 18 15 100 0.17485
15 18 15 100 0.335406
0 19 15 100 2.2422e-05
1 19 15 100 5.42483e-06
6 19 15 100 5.946e-05
8 19 15 100 0.252445
9 19 15 100 2.88856e-05
10 19 15 100 4.16517e-05
11 19 15 100 3.42846e-06
12 19 15 100 0.499919
14 19 15 100 0.247475
0 20 15 100 0.416733
1 20 15 100 0.0259016
6 20 15 100 0.00170059
11 20 15 100 0.0556649
12 20 15 100 0.5
0 21 15 100 8.05897e-06
1 21 15 100 0.499991
9 21 15 100 0.00437761
15 21 15 100 0.495623
15 22 15 100 1
0 23 15 100 0.232444
4 23 15 100 2.01809e-05
15 23 15 100 0.767536
0 1 16 100 0.0293026
1 1 16 100 0.349335
2 1 16 100 0.192494
3 1 16 100 0.0955342
4 1 16 100 0.0405598
5 1 16 100 0.0428407
6 1 16 100 0.022919
7 1 16 100 0.012946
8 1 16 100 0.0279198
9 1 16 100 0.0375253
10 1 16 100 0.0334424
11 1 16 100 0.0148801
12 1 16 100 0.0214085
13 1 16 100 0.0208833
14 1 16 100 0.0225099
15 1 16 100 0.0224649
16 1 16 100 0.0130343
0 2 16 100 0.121305
1 2 16 100 0.0505887
2 2 16 100 0.214662
3 2 16 100 0.109861
4 2 16 100 0.0600896
5 2 16 100 0.0535037
6 2 16 100 0.0277755
7 2 16 100 0.0354401
8 2 16 100 0.0247142
9 2 16 100 0.0366117
10 2 16 100 0.0344783
11 2 16 100 0.0353647
12 2 16 100 0.0342173
13 2 16 100 0.0216972
14 2 16 100 0.054642
15 2 16 100 0.046804
16 2 16 100 0.0382459
0 3 16 100 0.0771058
1 3 16 100 0.0440418
2 3 16 100 0.110711
3 3 16 100 0.145383
4 3 16 100 0.0945335
5 3 16 100 0.085687
6 3 16 100 0.0544569
7 3 16 100 0.0431296
8 3 16 100 0.038837
9 3 16 100 0.0312179
10 3 16 100 0.0445328
11 3 16 100 0.0269253
12 3 16 100 0.0358
13 3 16 100 0.0447857
14 3 16 100 0.0297446
15 3 16 100 0.056835
16 3 16 100 0.0362736
0 4 16 100 0.134599
1 4 16 100 0.023979
2 4 16 100 0.0375411
3 4 16 100 0.0917526
4 4 16 100 0.0816221
5 4 16 100 0.0882926
6 4 16 100 0.0731545
7 4 16 100 0.0497017
8 4 16 100 0.052288
9 4 16 100 0.0588021
10 4 16 100 0.041288
11 4 16 100 0.0454389
12 4 16 100 0.0285696
13 4 16 100 0.0576278
14 4 16 100 0.0370939
15 4 16 100 0.0445823
16 4 16 100 0.0536669
0 5 16 100 0.0880793
1 5 16 100 0.0186163
2 5 16 100 0.0401369
3 5 16 100 0.0624518
4 5 16 100 0.0906646
5 5 16 100 0.0741985
6 5 16 100 0.0969763
7 5 16 100 0.0596304
8 5 16 100 0.0654094
9 5 16 100 0.0357984
10 5 16 100 0.0460182
11 5 16 100 0.0511314
12 5 16 100 0.0546943
13 5 16 100 0.0354797
14 5 16 100 0.0490824
15 5 16 100 0.07611
16 5 16 100 0.0555222
0 6 16 100 0.12545
1 6 16 100 0.0108857
2 6 16 100 0.017923
3 6 16 100 0.0423139
4 6 16 100 0.0401038
5 6 16 100 0.0681493
6 6 16 100 0.0688083
7 6 16 100 0.0760286
8 6 16 100 0.0687978
9 6 16 100 0.053455
10 6 16 100 0.0563277
11 6 16 100 0.0495842
12 6 16 100 0.0675403
13 6 16 100 0.051883
14 6 16 100 0.0342891
15 6 16 100 0.0812379
16 6 16 100 0.0872219
0 7 16 100 0.0809787
1 7 16 100 0.00972533
2 7 16 100 0.00747383
3 7 16 100 0.0133571
4 7 16 100 0.0549654
5 7 16 100 0.0684311
6 7 16 100 0.064957
7 7 16 100 0.101743
8 7 16 100 0.0760119
9 7 16 100 0.063702
10 7 16 100 0.0779601
11 7 16 100 0.0288624
12 7 16 100 0.058694
13 7 16 100 0.0561934
14 7 16 100 0.0524752
15 7 16 100 0.0976794
16 7 16 100 0.0867906
0 8 16 100 0.0733971
1 8 16 100 0.0111216
2 8 16 100 0.0123792
3 8 16 100 0.0250668
4 8 16 100 0.0357499
5 8 16 100 0.0290099
6 8 16 100 0.0472757
7 8 16 100 0.0707746
8 8 16 100 0.0671159
9 8 16 100 0.0991144
10 8 16 100 0.0895674
11 8 16 100 0.0705077
12 8 16 100 0.0721228
13 8 16 100 0.0600865
14 8 16 100 0.0636213
15 8 16 100 0.110873
16 8 16 100 0.0622166
0 9 16 100 0.0814499
1 9 16 100 0.0095405
2 9 16 100 0.0199289
3 9 16 100 0.0214218
4 9 16 100 0.0215174
5 9 16 100 0.0174536
6 9 16 100 0.0280339
7 9 16 100 0.0590786
8 9 16 100 0.061703
9 9 16 100 0.0722568
10 9 16 100 0.121431
11 9 16 100 0.0645381
12 9 16 100 0.0987456
13 9 16 100 0.0818342
14 9 16 100 0.0593152
15 9 16 100 0.102724
16 9 16 100 0.0790276
0 10 16 100 0.072913
1 10 16 100 0.00875088
2 10 16 100 0.0179163
3 10 16 100 0.00785026
4 10 16 100 0.00781663
5 10 16 100 0.0192982
6 10 16 100 0.0360865
7 10 16 100 0.027375
8 10 16 100 0.0599886
9 10 16 100 0.0921105
10 10 16 100 0.0774804
11 10 16 100 0.0879507
12 10 16 100 0.118463
13 10 16 100 0.0618508
14 10 16 100 0.0649021
15 10 16 100 0.162969
16 10 16 100 0.0762777
0 11 16 100 0.0974826
1 11 16 100 0.0183227
2 11 16 100 0.0100427
3 11 16 100 0.0126545
4 11 16 100 0.0156639
5 11 16 100 0.0216458
6 11 16 100 0.014615
7 11 16 100 0.0107837
8 11 16 100 0.0483242
9 11 16 100 0.0664285
10 11 16 100 0.0727506
11 11 16 100 0.097872
12 11 16 100 0.124352
13 11 16 100 0.0810697
14 11 16 100 0.0533748
15 11 16 100 0.145892
16 11 16 100 0.108725
0 12 16 100 0.127559
1 12 16 100 0.0175332
2 12 16 100 0.0101725
3 12 16 100 0.00823686
4 12 16 100 0.0034755
5 12 16 100 0.0139953
6 12 16 100 0.0147355
7 12 16 100 0.0337806
8 12 16 100 0.0293011
9 12 16 100 0.0552273
10 12 16 100 0.0761921
11 12 16 100 0.0994822
12 12 16 100 0.0945774
13 12 16 100 0.0856913
14 12 16 100 0.0564089
15 12 16 100 0.190867
16 12 16 100 0.0827641
0 13 16 100 0.0945588
1 13 16 100 0.0334549
2 13 16 100 0.00832493
3 13 16 100 0.0200525
4 13 16 100 0.00268019
5 13 16 100 0.00107922
6 13 16 100 0.0209708
7 13 16 100 0.0387097
8 13 16 100 0.0213909
9 13 16 100 0.0698318
10 13 16 100 0.086791
11 13 16 100 0.0966653
12 13 16 100 0.119828
13 13 16 100 0.0655871
14 13 16 100 0.108802
15 13 16 100 0.177735
16 13 16 100 0.0335375
0 14 16 100 0.0872646
1 14 16 100 0.00886199
2 14 16 100 0.0080848
3 14 16 100 0.0207449
4 14 16 100 0.000180252
5 14 16 100 0.00131928
6 14 16 100 0.0165071
7 14 16 100 0.0107052
8 14 16 100 0.0585116
9 14 16 100 0.0735244
10 14 16 100 0.0721464
11 14 16 100 0.112923
12 14 16 100 0.0720825
13 14 16 100 0.0963578
14 14 16 100 0.131937
15 14 16 100 0.17215
16 14 16 100 0.056699
0 15 16 100 0.0778946
1 15 16 100 0.00127609
2 15 16 100 0.0108903
3 15 16 100 0.0216788
4 15 16 100 0.010973
5 15 16 100 1.83146e-05
6 15 16 100 0.0197272
7 15 16 100 0.010756
8 15 16 100 0.0468235
9 15 16 100 0.102663
10 15 16 100 0.0428062
11 15 16 100 0.0632715
12 15 16 100 0.0602331
13 15 16 100 0.100646
14 15 16 100 0.0607983
15 15 16 100 0.290383
16 15 16 100 0.0791603
0 16 16 100 0.0331687
1 16 16 100 0.00107124
2 16 16 100 0.0188105
3 16 16 100 0.0195962
4 16 16 100 0.0154239
5 16 16 100 0.000838635
6 16 16 100 0.0132911
7 16 16 100 0.0615705
8 16 16 100 0.0164066
9 16 16 100 0.0767484
10 16 16 100 0.0749519
11 16 16 100 0.0623292
12 16 16 100 0.0459138
13 16 16 100 0.0776505
14 16 16 100 0.0759344
15 16 16 100 0.360366
16 16 16 100 0.0459285
0 17 16 100 0.172634
1 17 16 100 0.00247113
2 17 16 100 0.0310861
3 17 16 100 0.000166853
4 17 16 100 0.00560979
5 17 16 100 5.86259e-05
6 17 16 100 3.98721e-06
7 17 16 100 2.4704e-06
8 17 16 100 0.0645123
9 17 16 100 0.06206
10 17 16 100 0.025853
11 17 16 100 0.00359773
12 17 16 100 0.0709963
13 17 16 100 0.0919269
14 17 16 100 0.0929321
15 17 16 100 0.344851
16 17 16 100 0.0312373
0 18 16 100 0.0962934
3 18 16 100 7.56612e-06
5 18 16 100 1.83199e-06
6 18 16 100 0.0013142
7 18 16 100 0.13767
8 18 16 100 0.00513412
10 18 16 100 0.0824098
11 18 16 100 0.0454641
12 18 16 100 0.000211595
14 18 16 100 0.0454537
15 18 16 100 0.495131
16 18 16 100 0.0909087
0 19 16 100 0.13565
2 19 16 100 0.00138733
3 19 16 100 0.0713926
6 19 16 100 0.00659375
7 19 16 100 0.140634
8 19 16 100 0.000873715
9 19 16 100 0.000751392
10 19 16 100 0.142937
11 19 16 100 3.18063e-06
12 19 16 100 0.200411
13 19 16 100 0.0714288
14 19 16 100 0.0714296
15 19 16 100 0.156505
16 19 16 100 3.91628e-06
0 20 16 100 0.0961073
7 20 16 100 0.128617
10 20 16 100 0.0904395
12 20 16 100 0.144876
13 20 16 100 0.0909076
14 20 16 100 0.272278
15 20 16 100 0.176305
16 20 16 100 0.000470668
0 21 16 100 0.252943
1 21 16 100 0.000102166
4 21 16 100 5.09873e-06
6 21 16 100 0.000115638
8 21 16 100 0.199437
10 21 16 100 0.147732
13 21 16 100 2.79825e-06
15 21 16 100 0.2
16 21 16 100 0.199662
0 22 16 100 0.00188856
8 22 16 100 0.000185663
12 22 16 100 3.93157e-05
14 22 16 100 0.499775
15 22 16 100 0.498111
0 23 16 100 0.000135366
12 23 16 100 0.000692512
14 23 16 100 0.500001
15 23 16 100 0.499171
0 24 16 100 0.00500902
14 24 16 100 0.994991
0 25 16 100 0.00113085
6 25 16 100 0.000578188
16 25 16 100 0.998291
8 26 16 100 0.00502874
12 26 16 100 0.000292213
14 26 16 100 0.994679
0 1 17 100 0.0330414
1 1 17 100 0.422969
2 1 17 100 0.128918
3 1 17 100 0.0539349
4 1 17 100 0.0521774
5 1 17 100 0.0189115
6 1 17 100 0.0274777
7 1 17 100 0.0529157
8 1 17 100 0.0168072
9 1 17 100 0.0162658
10 1 17 100 0.0274897
11 1 17 100 0.0196514
12 1 17 100 0.0131677
13 1 17 100 0.0448563
14 1 17 100 0.0212692
15 1 17 100 0.0179992
16 1 17 100 0.0246234
17 1 17 100 0.00752416
0 2 17 100 0.106413
1 2 17 100 0.0616237
2 2 17 100 0.213781
3 2 17 100 0.119604
4 2 17 100 0.0396329
5 2 17 100 0.0219218
6 2 17 100 0.0465569
7 2 17 100 0.0368537
8 2 17 100 0.0333897
9 2 17 100 0.0176569
10 2 17 100 0.0270714
11 2 17 100 0.0421439
12 2 17 100 0.0262731
13 2 17 100 0.051244
14 2 17 100 0.0298169
15 2 17 100 0.0476428
16 2 17 100 0.0554095
17 2 17 100 0.022964
0 3 17 100 0.0966363
1 3 17 100 0.0159747
2 3 17 100 0.0788544
3 3 17 100 0.119636
4 3 17 100 0.0942323
5 3 17 100 0.0422858
6 3 17 100 0.0543109
7 3 17 100 0.0382436
8 3 17 100 0.0561292
9 3 17 100 0.0527224
10 3 17 100 0.0231836
11 3 17 100 0.0249548
12 3 17 100 0.0493311
13 3 17 100 0.0388003
14 3 17 100 0.0320434
15 3 17 100 0.0685126
16 3 17 100 0.0488796
17 3 17 100 0.0652689
0 4 17 100 0.0962208
1 4 17 100 0.036302
2 4 17 100 0.0333645
3 4 17 100 0.0922849
4 4 17 100 0.0902659
5 4 17 100 0.0970409
6 4 17 100 0.0319606
7 4 17 100 0.0387616
8 4 17 100 0.0396812
9 4 17 100 0.0495565
10 4 17 100 0.0375158
11 4 17 100 0.0278201
12 4 17 100 0.0506619
13 4 17 100 0.0618823
14 4 17 100 0.0438935
15 4 17 100 0.0480973
16 4 17 100 0.0768331
17 4 17 100 0.0478569
0 5 17 100 0.0724433
1 5 17 100 0.0135419
2 5 17 100 0.035543
3 5 17 100 0.0491028
4 5 17 100 0.129228
5 5 17 100 0.0537406
6 5 17 100 0.10656
7 5 17 100 0.0881487
8 5 17 100 0.0514852
9 5 17 100 0.0357232
10 5 17 100 0.033463
11 5 17 100 0.0462578
12 5 17 100 0.0276266
13 5 17 100 0.0626506
14 5 17 100 0.0544152
15 5 17 100 0.0335253
16 5 17 100 0.0460722
17 5 17 100 0.0604724
0 6 17 100 0.0725631
1 6 17 100 0.0133936
2 6 17 100 0.035023
3 6 17 100 0.0593141
4 6 17 100 0.059706
5 6 17 100 0.0733199
6 6 17 100 0.0854017
7 6 17 100 0.0784929
8 6 17 100 0.0603396
9 6 17 100 0.0558426
10 6 17 100 0.039165
11 6 17 100 0.0569587
12 6 17 100 0.0393104
13 6 17 100 0.0266714
14 6 17 100 0.0518374
15 6 17 100 0.0528102
16 6 17 100 0.0605595
17 6 17 100 0.0792908
0 7 17 100 0.0914299
1 7 17 100 0.0121372
2 7 17 100 0.018519
3 7 17 100 0.0229925
4 7 17 100 0.0265016
5 7 17 100 0.0819183
6 7 17 100 0.0756191
7 7 17 100 0.0936792
8 7 17 100 0.077258
9 7 17 100 0.0875142
10 7 17 100 0.0346528
11 7 17 100 0.0534017
12 7 17 100 0.0504502
13 7 17 100 0.0874935
14 7 17 100 0.0156965
15 7 17 100 0.0685893
16 7 17 100 0.060101
17 7 17 100 0.0420457
0 8 17 100 0.0736539
1 8 17 100 0.0149498
2 8 17 100 0.00956167
3 8 17 100 0.0361813
4 8 17 100 0.0331615
5 8 17 100 0.0559931
6 8 17 100 0.112262
7 8 17 100 0.0876732
8 8 17 100 0.0776924
9 8 17 100 0.0427272
10 8 17 100 0.0617031
11 8 17 100 0.0639374
12 8 17 100 0.0422409
13 8 17 100 0.0668752
14 8 17 100 0.0318795
15 8 17 100 0.0350654
16 8 17 100 0.0936879
17 8 17 100 0.0607549
0 9 17 100 0.0890702
1 9 17 100 0.000737098
2 9 17 100 0.00779767
3 9 17 100 0.0271719
4 9 17 100 0.0242606
5 9 17 100 0.0407983
6 9 17 100 0.0639769
7 9 17 100 0.0892666
8 9 17 100 0.0700698
9 9 17 100 0.0504418
10 9 17 100 0.0736457
11 9 17 100 0.0524052
12 9 17 100 0.0519759
13 9 17 100 0.0734248
14 9 17 100 0.0744668
15 9 17 100 0.0327053
16 9 17 100 0.133601
17 9 17 100 0.0441846
0 10 17 100 0.0658236
1 10 17 100 0.00529
2 10 17 100 0.00397537
3 10 17 100 0.0459417
4 10 17 100 0.0432053
5 10 17 100 0.019092
6 10 17 100 0.025529
7 10 17 100 0.0637096
8 10 17 100 0.0620082
9 10 17 100 0.107103
10 10 17 100 0.126508
11 10 17 100 0.0764122
12 10 17 100 0.0634153
13 10 17 100 0.0572605
14 10 17 100 0.0446948
15 10 17 100 0.0385898
16 10 17 100 0.101057
17 10 17 100 0.0503833
0 11 17 100 0.0957312
1 11 17 100 0.00570485
2 11 17 100 0.0232376
3 11 17 100 0.0378414
4 11 17 100 0.0194617
5 11 17 100 0.0288846
6 11 17 100 0.0241337
7 11 17 100 0.0671235
8 11 17 100 0.0515119
9 11 17 100 0.0349851
10 11 17 100 0.0802804
11 11 17 100 0.0999842
12 11 17 100 0.100045
13 11 17 100 0.0402367
14 11 17 100 0.0547771
15 11 17 100 0.023736
16 11 17 100 0.161635
17 11 17 100 0.0506898
0 12 17 100 0.0802496
1 12 17 100 0.00851754
2 12 17 100 0.00499676
3 12 17 100 0.0516033
4 12 17 100 0.020585
5 12 17 100 0.0144791
6 12 17 100 0.0144899
7 12 17 100 0.0505819
8 12 17 100 0.056798
9 12 17 100 0.0379168
10 12 17 100 0.0861736
11 12 17 100 0.100269
12 12 17 100 0.0890316
13 12 17 100 0.0271181
14 12 17 100 0.111928
15 12 17 100 0.0335598
16 12 17 100 0.164722
17 12 17 100 0.0469799
0 13 17 100 0.0619944
1 13 17 100 0.00818906
2 13 17 100 0.00854371
3 13 17 100 0.000361086
4 13 17 100 0.0100633
5 13 17 100 0.00869721
6 13 17 100 0.032961
7 13 17 100 0.0407722
8 13 17 100 0.0218853
9 13 17 100 0.0462525
10 13 17 100 0.0809075
11 13 17 100 0.14078
12 13 17 100 0.0552933
13 13 17 100 0.109526
14 13 17 100 0.0949755
15 13 17 100 0.0332826
16 13 17 100 0.139887
17 13 17 100 0.105628
0 14 17 100 0.095585
1 14 17 100 0.000375874
2 14 17 100 0.000234
3 14 17 100 0.00020597
4 14 17 100 0.0113394
5 14 17 100 3.11507e-05
6 14 17 100 0.0204646
7 14 17 100 0.0315641
8 14 17 100 0.0308569
9 14 17 100 0.0448984
10 14 17 100 0.0990829
11 14 17 100 0.124398
12 14 17 100 0.105866
13 14 17 100 0.0226022
14 14 17 100 0.0752443
15 14 17 100 0.0185209
16 14 17 100 0.286998
17 14 17 100 0.0317321
0 15 17 100 0.0847641
1 15 17 100 0.000135618
2 15 17 100 0.00091041
3 15 17 100 9.58161e-06
4 15 17 100 0.0157093
5 15 17 100 0.000841559
6 15 17 100 0.0136488
7 15 17 100 0.02797
8 15 17 100 0.0408225
9 15 17 100 0.054725
10 15 17 100 0.0280985
11 15 17 100 0.139633
12 15 17 100 0.12439
13 15 17 100 0.0505582
14 15 17 100 0.113972
15 15 17 100 0.0227543
16 15 17 100 0.211402
17 15 17 100 0.0696547
0 16 17 100 0.0250327
1 16 17 100 4.21889e-06
2 16 17 100 0.0338643
3 16 17 100 0.000338916
4 16 17 100 0.0143516
5 16 17 100 0.0167986
6 16 17 100 0.0641264
7 16 17 100 0.0168376
8 16 17 100 0.00256261
9 16 17 100 0.0169435
10 16 17 100 0.0742229
11 16 17 100 0.145863
12 16 17 100 0.0351531
13 16 17 100 0.0676914
14 16 17 100 0.0807991
15 16 17 100 0.08789
16 16 17 100 0.238199
17 16 17 100 0.0793213
0 17 17 100 0.109553
1 17 17 100 0.000953704
2 17 17 100 9.38044e-05
3 17 17 100 0.00528025
4 17 17 100 0.00505016
5 17 17 100 0.02567
6 17 17 100 0.0025203
7 17 17 100 7.10804e-06
8 17 17 100 0.0800313
9 17 17 100 0.0256556
10 17 17 100 0.0926189
11 17 17 100 0.101337
12 17 17 100 0.0267289
13 17 17 100 0.0289204
14 17 17 100 0.232773
15 17 17 100 0.0486498
16 17 17 100 0.121211
17 17 17 100 0.0929462
0 18 17 100 0.107485
1 18 17 100 3.25459e-06
4 18 17 100 0.0527761
6 18 17 100 0.105694
7 18 17 100 2.43645e-05
8 18 17 100 0.0525326
9 18 17 100 2.79816e-06
10 18 17 100 0.107532
12 18 17 100 5.64199e-07
13 18 17 100 0.262321
14 18 17 100 0.0533218
15 18 17 100 0.0526123
16 18 17 100 0.153065
17 18 17 100 0.0526297
0 19 17 100 0.234919
4 19 17 100 6.87133e-07
6 19 17 100 0.0624995
7 19 17 100 0.0625305
8 19 17 100 0.126698
9 19 17 100 0.0019889
10 19 17 100 6.6555e-07
11 19 17 100 0.12475
12 19 17 100 0.0625002
13 19 17 100 8.44809e-06
14 19 17 100 0.000155532
16 19 17 100 0.119186
17 19 17 100 0.204763
0 20 17 100 0.136863
6 20 17 100 0.00139243
8 20 17 100 0.11111
9 20 17 100 0.000712473
12 20 17 100 0.221503
13 20 17 100 0.222216
14 20 17 100 0.111115
15 20 17 100 8.06084e-05
16 20 17 100 0.195001
17 20 17 100 6.65833e-06
0 21 17 100 0.175038
9 21 17 100 0.00299246
11 21 17 100 4.81713e-05
12 21 17 100 1.43935e-05
13 21 17 100 0.19856
14 21 17 100 0.197129
15 21 17 100 0.199999
16 21 17 100 0.181435
17 21 17 100 0.0447842
0 22 17 100 0.00978074
12 22 17 100 0.000183335
14 22 17 100 0.199997
17 22 17 100 0.790039
17 23 17 100 1
0 24 17 100 0.0572551
17 24 17 100 0.942745
0 25 17 100 4.0014e-05
11 25 17 100 0.99996
11 26 17 100 1
11 27 17 100 1
0 28 17 100 0.996138
9 28 17 100 0.00383756
11 28 17 100 2.45171e-05
0 29 17 100 1.81898e-05
10 29 17 100 0.999908
15 29 17 100 7.39155e-05
0 1 18 100 0.0329655
1 1 18 100 0.321783
2 1 18 100 0.177825
3 1 18 100 0.0932578
4 1 18 100 0.070194
5 1 18 100 0.0107617
6 1 18 100 0.0437639
7 1 18 100 0.0157354
8 1 18 100 0.022284
9 1 18 100 0.0109009
10 1 18 100 0.0255192
11 1 18 100 0.0391823
12 1 18 100 0.00860174
13 1 18 100 0.0235411
14 1 18 100 0.0475964
15 1 18 100 0.00983478
16 1 18 100 0.00440908
17 1 18 100 0.0316207
18 1 18 100 0.0102233
0 2 18 100 0.122409
1 2 18 100 0.0948042
2 2 18 100 0.167188
3 2 18 100 0.102677
4 2 18 100 0.0644245
5 2 18 100 0.0425925
6 2 18 100 0.0609271
7 2 18 100 0.0327378
8 2 18 100 0.0226397
9 2 18 100 0.0196689
10 2 18 100 0.030762
11 2 18 100 0.0361593
12 2 18 100 0.0117306
13 2 18 100 0.0358209
14 2 18 100 0.0304118
15 2 18 100 0.0239476
16 2 18 100 0.0163747
17 2 18 100 0.0558365
18 2 18 100 0.0288881
0 3 18 100 0.0593694
1 3 18 100 0.063964
2 3 18 100 0.0556859
3 3 18 100 0.147445
4 3 18 100 0.076493
5 3 18 100 0.0743696
6 3 18 100 0.0662189
7 3 18 100 0.0434406
8 3 18 100 0.0546289
9 3 18 100 0.0329706
10 3 18 100 0.035346
11 3 18 100 0.0232829
12 3 18 100 0.021017
13 3 18 100 0.046679
14 3 18 100 0.0542846
15 3 18 100 0.00576852
16 3 18 100 0.0267685
17 3 18 100 0.0528496
18 3 18 100 0.0594177
0 4 18 100 0.0974165
1 4 18 100 0.0414004
2 4 18 100 0.0401983
3 4 18 100 0.0784725
4 4 18 100 0.0527064
5 4 18 100 0.0946937
6 4 18 100 0.103148
7 4 18 100 0.0517658
8 4 18 100 0.0191401
9 4 18 100 0.0280025
10 4 18 100 0.0704167
11 4 18 100 0.0331147
12 4 18 100 0.0151469
13 4 18 100 0.0363616
14 4 18 100 0.0510734
15 4 18 100 0.0355791
16 4 18 100 0.022725
17 4 18 100 0.060843
18 4 18 100 0.0677952
0 5 18 100 0.0360678
1 5 18 100 0.0269909
2 5 18 100 0.0104588
3 5 18 100 0.0843533
4 5 18 100 0.0624057
5 5 18 100 0.115919
6 5 18 100 0.0771683
7 5 18 100 0.0613104
8 5 18 100 0.0552832
9 5 18 100 0.0265508
10 5 18 100 0.0150127
11 5 18 100 0.0412125
12 5 18 100 0.0345909
13 5 18 100 0.0787435
14 5 18 100 0.0509427
15 5 18 100 0.0100093
16 5 18 100 0.0337105
17 5 18 100 0.0830277
18 5 18 100 0.0962427
0 6 18 100 0.121563
1 6 18 100 0.0196055
2 6 18 100 0.0228001
3 6 18 100 0.0616283
4 6 18 100 0.0439751
5 6 18 100 0.0601964
6 6 18 100 0.100993
7 6 18 100 0.0641991
8 6 18 100 0.0578579
9 6 18 100 0.0257989
10 6 18 100 0.0261722
11 6 18 100 0.0500195
12 6 18 100 0.0317847
13 6 18 100 0.0545363
14 6 18 100 0.0467053
15 6 18 100 0.0302244
16 6 18 100 0.0204267
17 6 18 100 0.0796406
18 6 18 100 0.0818732
0 7 18 100 0.0686439
1 7 18 100 0.0215554
2 7 18 100 0.0143588
3 7 18 100 0.0413252
4 7 18 100 0.0361499
5 7 18 100 0.0634237
6 7 18 100 0.0486584
7 7 18 100 0.0787699
8 7 18 100 0.0562679
9 7 18 100 0.0495388
10 7 18 100 0.0540821
11 7 18 100 0.0688121
12 7 18 100 0.0401535
13 7 18 100 0.0508586
14 7 18 100 0.0640222
15 7 18 100 0.0427863
16 7 18 100 0.0320257
17 7 18 100 0.0891792
18 7 18 100 0.079388
0 8 18 100 0.0656539
1 8 18 100 0.00654653
2 8 18 100 0.0296895
3 8 18 100 0.0317869
4 8 18 100 0.0125275
5 8 18 100 0.047672
6 8 18 100 0.0469041
7 8 18 100 0.0581959
8 8 18 100 0.0701601
9 8 18 100 0.0678969
10 8 18 100 0.0852185
11 8 18 100 0.0356527
12 8 18 100 0.0346533
13 8 18 100 0.0594005
14 8 18 100 0.0667244
15 8 18 100 0.055348
16 8 18 100 0.0360851
17 8 18 100 0.101408
18 8 18 100 0.088476
0 9 18 100 0.102976
1 9 18 100 0.0132011
2 9 18 100 0.0170753
3 9 18 100 0.0341839
4 9 18 100 0.0191821
5 9 18 100 0.0186606
6 9 18 100 0.0489621
7 9 18 100 0.0430953
8 9 18 100 0.0557185
9 9 18 100 0.025665
10 9 18 100 0.0677851
11 9 18 100 0.0665999
12 9 18 100 0.0515868
13 9 18 100 0.0604932
14 9 18 100 0.0919587
15 9 18 100 0.0501973
16 9 18 100 0.0493351
17 9 18 100 0.0953662
18 9 18 100 0.0879582
0 10 18 100 0.0814793
1 10 18 100 0.000163534
2 10 18 100 0.0294903
3 10 18 100 0.0206982
4 10 18 100 0.018232
5 10 18 100 0.0315109
6 10 18 100 0.0187324
7 10 18 100 0.079749
8 10 18 100 0.0209272
9 10 18 100 0.101723
10 10 18 100 0.086545
11 10 18 100 0.0726382
12 10 18 100 0.0816918
13 10 18 100 0.0341727
14 10 18 100 0.0711975
15 10 18 100 0.0609939
16 10 18 100 0.0394855
17 10 18 100 0.0684181
18 10 18 100 0.0821515
0 11 18 100 0.0674942
1 11 18 100 2.35712e-05
2 11 18 100 0.0248207
3 11 18 100 0.0246727
4 11 18 100 0.00702021
5 11 18 100 0.0245726
6 11 18 100 0.0421168
7 11 18 100 0.0244782
8 11 18 100 0.0640912
9 11 18 100 0.0476426
10 11 18 100 0.0986913
11 11 18 100 0.0323728
12 11 18 100 0.106834
13 11 18 100 0.0319547
14 11 18 100 0.0723973
15 11 18 100 0.0717963
16 11 18 100 0.102529
17 11 18 100 0.0833076
18 11 18 100 0.0731838
0 12 18 100 0.0716458
1 12 18 100 0.00126092
2 12 18 100 0.00139673
3 12 18 100 0.000477144
4 12 18 100 0.00226229
5 12 18 100 0.00263014
6 12 18 100 0.016497
7 12 18 100 0.033246
8 12 18 100 0.0599162
9 12 18 100 0.0300145
10 12 18 100 0.0951742
11 12 18 100 0.0494402
12 12 18 100 0.0893846
13 12 18 100 0.10669
14 12 18 100 0.0202226
15 12 18 100 0.0406738
16 12 18 100 0.0197138
17 12 18 100 0.260766
18 12 18 100 0.098588
0 13 18 100 0.104668
1 13 18 100 0.00468257
2 13 18 100 0.000424041
3 13 18 100 0.00068979
4 13 18 100 9.92862e-05
5 13 18 100 0.0142893
6 13 18 100 8.34808e-05
7 13 18 100 0.0372453
8 13 18 100 0.0306933
9 13 18 100 0.042844
10 13 18 100 0.0664973
11 13 18 100 0.0685918
12 13 18 100 0.0390511
13 13 18 100 0.0636208
14 13 18 100 0.148042
15 13 18 100 0.00275414
16 13 18 100 0.109902
17 13 18 100 0.195007
18 13 18 100 0.0708143
0 14 18 100 0.0758065
1 14 18 100 0.028298
2 14 18 100 0.000333058
3 14 18 100 4.51129e-07
4 14 18 100 7.91863e-07
5 14 18 100 3.54543e-06
6 14 18 100 1.26788e-05
7 14 18 100 0.0474326
8 14 18 100 0.0299865
9 14 18 100 0.0439063
10 14 18 100 0.10174
11 14 18 100 0.0324914
12 14 18 100 0.0914048
13 14 18 100 0.0785643
14 14 18 100 0.151853
15 14 18 100 0.0436585
16 14 18 100 0.0707239
17 14 18 100 0.158178
18 14 18 100 0.0456056
0 15 18 100 0.085564
1 15 18 100 0.00243143
2 15 18 100 0.000165096
3 15 18 100 0.00148356
4 15 18 100 6.43473e-05
5 15 18 100 0.0618231
6 15 18 100 0.000846128
7 15 18 100 0.00221069
8 15 18 100 0.0388449
9 15 18 100 0.0401698
10 15 18 100 0.0207547
11 15 18 100 0.0235312
12 15 18 100 0.0398787
13 15 18 100 0.063879
14 15 18 100 0.182019
15 15 18 100 0.0797656
16 15 18 100 0.160646
17 15 18 100 0.134771
18 15 18 100 0.0611516
0 16 18 100 0.00902957
1 16 18 100 0.00509783
2 16 18 100 0.0416145
3 16 18 100 0.0277778
4 16 18 100 0.00574634
5 16 18 100 0.00390778
6 16 18 100 0.00163035
7 16 18 100 0.0407798
8 16 18 100 0.0027218
9 16 18 100 0.029542
10 16 18 100 8.70691e-06
11 16 18 100 0.10723
12 16 18 100 0.140964
13 16 18 100 0.0277785
14 16 18 100 0.192815
15 16 18 100 0.0409816
16 16 18 100 0.184574
17 16 18 100 0.0834443
18 16 18 100 0.0543562
0 17 18 100 0.100699
1 17 18 100 0.00130105
2 17 18 100 0.0373087
3 17 18 100 0.0367805
4 17 18 100 0.00384767
5 17 18 100 1.96096e-06
6 17 18 100 5.22769e-07
7 17 18 100 0.00176639
9 17 18 100 7.39805e-06
10 17 18 100 0.0642219
11 17 18 100 0.0466363
12 17 18 100 0.184618
13 17 18 100 0.0273777
14 17 18 100 0.0649946
15 17 18 100 0.0739958
16 17 18 100 0.175778
17 17 18 100 0.0915334
18 17 18 100 0.0891312
0 18 18 100 0.21892
2 18 18 100 2.3991e-05
3 18 18 100 2.34812e-05
4 18 18 100 0.00332737
7 18 18 100 0.00105364
8 18 18 100 4.81022e-05
11 18 18 100 0.000109599
13 18 18 100 0.0157734
14 18 18 100 0.232177
15 18 18 100 0.0617938
16 18 18 100 0.0556152
17 18 18 100 0.117658
18 18 18 100 0.293476
0 19 18 100 0.223448
4 19 18 100 0.000835037
6 19 18 100 8.90088e-06
7 19 18 100 3.92253e-05
8 19 18 100 8.37574e-05
9 19 18 100 0.00056743
10 19 18 100 0.125095
11 19 18 100 0.124425
14 19 18 100 0.247325
15 19 18 100 0.00272297
16 19 18 100 0.275431
18 19 18 100 1.70985e-05
0 20 18 100 0.0138553
5 20 18 100 0.4496
9 20 18 100 0.130235
11 20 18 100 0.002866
12 20 18 100 0.141843
13 20 18 100 6.10975e-05
15 20 18 100 0.26154
0 21 18 100 0.249894
2 21 18 100 4.01789e-06
9 21 18 100 0.249976
13 21 18 100 0.000256781
14 21 18 100 0.107045
16 21 18 100 0.250287
17 21 18 100 0.142483
18 21 18 100 5.33231e-05
0 22 18 100 0.000262622
9 22 18 100 2.09881e-05
14 22 18 100 0.249979
15 22 18 100 0.250459
17 22 18 100 0.499279
0 1 19 100 0.0774448
1 1 19 100 0.35847
2 1 19 100 0.152765
3 1 19 100 0.0502015
4 1 19 100 0.0238333
5 1 19 100 0.0613895
6 1 19 100 0.0113289
7 1 19 100 0.00151956
8 1 19 100 0.00103528
9 1 19 100 0.0161161
10 1 19 100 0.0404279
11 1 19 100 0.00909209
12 1 19 100 0.0164287
13 1 19 100 0.0207181
14 1 19 100 0.0151018
15 1 19 100 0.0720821
16 1 19 100 0.00861664
17 1 19 100 3.46176e-05
18 1 19 100 0.0474354
19 1 19 100 0.015959
0 2 19 100 0.0819918
1 2 19 100 0.0824081
2 2 19 100 0.227726
3 2 19 100 0.169775
4 2 19 100 0.0385171
5 2 19 100 0.0167652
6 2 19 100 0.0261639
7 2 19 100 0.0515202
8 2 19 100 0.016391
9 2 19 100 0.0243345
10 2 19 100 0.0400567
11 2 19 100 0.0118366
12 2 19 100 0.017398
13 2 19 100 0.0389215
14 2 19 100 0.0318152
15 2 19 100 0.026028
16 2 19 100 0.0239476
17 2 19 100 0.00907753
18 2 19 100 0.0485055
19 2 19 100 0.0168206
0 3 19 100 0.103862
1 3 19 100 0.0166976
2 3 19 100 0.151263
3 3 19 100 0.0811226
4 3 19 100 0.122862
5 3 19 100 0.0674921
6 3 19 100 0.0512557
7 3 19 100 0.0550149
8 3 19 100 0.00936018
9 3 19 100 0.0415564
10 3 19 100 0.0308009
11 3 19 100 0.0100593
12 3 19 100 0.0254768
13 3 19 100 0.0167281
14 3 19 100 0.0347181
15 3 19 100 0.0640624
16 3 19 100 0.0162386
17 3 19 100 0.0170287
18 3 19 100 0.0829142
19 3 19 100 0.00148706
0 4 19 100 0.106882
1 4 19 100 0.0252408
2 4 19 100 0.0417767
3 4 19 100 0.108407
4 4 19 100 0.0733601
5 4 19 100 0.0697654
6 4 19 100 0.0293678
7 4 19 100 0.0723645
8 4 19 100 0.0355767
9 4 19 100 0.0201255
10 4 19 100 0.0331696
11 4 19 100 0.0441261
12 4 19 100 0.0147736
13 4 19 100 0.0806942
14 4 19 100 0.0360789
15 4 19 100 0.0294247
16 4 19 100 0.043451
17 4 19 100 0.0144456
18 4 19 100 0.11277
19 4 19 100 0.00820036
0 5 19 100 0.0790937
1 5 19 100 0.0215815
2 5 19 100 0.0286326
3 5 19 100 0.0347738
4 5 19 100 0.0837831
5 5 19 100 0.0425714
6 5 19 100 0.163787
7 5 19 100 0.0525128
8 5 19 100 0.00929321
9 5 19 100 0.0465711
10 5 19 100 0.0486166
11 5 19 100 0.0369023
12 5 19 100 0.0246375
13 5 19 100 0.0483126
14 5 19 100 0.0438724
15 5 19 100 0.0601777
16 5 19 100 0.0407608
17 5 19 100 0.0241667
18 5 19 100 0.0690072
19 5 19 100 0.0409462
0 6 19 100 0.0941275
1 6 19 100 0.0169789
2 6 19 100 0.0408359
3 6 19 100 0.0103525
4 6 19 100 0.0781656
5 6 19 100 0.0529243
6 6 19 100 0.0506627
7 6 19 100 0.129644
8 6 19 100 0.0349462
9 6 19 100 0.0404408
10 6 19 100 0.0551874
11 6 19 100 0.0227302
12 6 19 100 0.0347364
13 6 19 100 0.0525205
14 6 19 100 0.0476019
15 6 19 100 0.0549811
16 6 19 100 0.0489426
17 6 19 100 0.0148108
18 6 19 100 0.0724979
19 6 19 100 0.0469121
0 7 19 100 0.0423838
1 7 19 100 0.0350231
2 7 19 100 0.045472
3 7 19 100 0.00262796
4 7 19 100 0.0548547
5 7 19 100 0.059294
6 7 19 100 0.0539984
7 7 19 100 0.0499636
8 7 19 100 0.0436223
9 7 19 100 0.0442243
10 7 19 100 0.0422911
11 7 19 100 0.100728
12 7 19 100 0.00877638
13 7 19 100 0.0654583
14 7 19 100 0.055434
15 7 19 100 0.0546182
16 7 19 100 0.0542361
17 7 19 100 0.0366696
18 7 19 100 0.0867267
19 7 19 100 0.0635978
0 8 19 100 0.0456944
1 8 19 100 0.0184587
2 8 19 100 0.0224406
3 8 19 100 0.0215983
4 8 19 100 0.0734535
5 8 19 100 0.00988891
6 8 19 100 0.0437647
7 8 19 100 0.0135462
8 8 19 100 0.0852586
9 8 19 100 0.120735
10 8 19 100 0.019282
11 8 19 100 0.0602797
12 8 19 100 0.0469269
13 8 19 100 0.0607316
14 8 19 100 0.0745383
15 8 19 100 0.0438528
16 8 19 100 0.0469145
17 8 19 100 0.00909957
18 8 19 100 0.122542
19 8 19 100 0.0609942
0 9 19 100 0.0954978
1 9 19 100 0.0102105
2 9 19 100 0.0358477
3 9 19 100 0.00155877
4 9 19 100 0.00142008
5 9 19 100 0.0720553
6 9 19 100 0.0537523
7 9 19 100 0.0548162
8 9 19 100 0.030161
9 9 19 100 0.0707826
10 9 19 100 0.107232
11 9 19 100 0.0295508
12 9 19 100 0.0397524
13 9 19 100 0.0649944
14 9 19 100 0.0694795
15 9 19 100 0.0859675
16 9 19 100 0.0107612
17 9 19 100 0.0125735
18 9 19 100 0.113398
19 9 19 100 0.0401887
0 10 19 100 0.106016
1 10 19 100 0.000413369
2 10 19 100 0.0544532
3 10 19 100 0.000155536
4 10 19 100 0.0456324
5 10 19 100 0.0248615
6 10 19 100 0.00179068
7 10 19 100 0.0363479
8 10 19 100 0.011509
9 10 19 100 0.0550968
10 10 19 100 0.0575011
11 10 19 100 0.098958
12 10 19 100 0.0330229
13 10 19 100 0.111339
14 10 19 100 0.0663883
15 10 19 100 0.0668592
16 10 19 100 0.031256
17 10 19 100 0.00112586
18 10 19 100 0.148706
19 10 19 100 0.0485675
0 11 19 100 0.06623
1 11 19 100 0.0396844
2 11 19 100 0.017766
3 11 19 100 0.00104891
4 11 19 100 0.0472325
5 11 19 100 0.0384855
6 11 19 100 0.0100375
7 11 19 100 0.05282
8 11 19 100 0.0388154
9 11 19 100 0.0498674
10 11 19 100 0.0254575
11 11 19 100 0.04899
12 11 19 100 0.0895095
13 11 19 100 0.123848
14 11 19 100 0.0354386
15 11 19 100 0.0630675
16 11 19 100 0.0883009
17 11 19 100 0.0381742
18 11 19 100 0.0850881
19 11 19 100 0.040138
0 12 19 100 0.10358
1 12 19 100 0.012255
2 12 19 100 0.0300936
3 12 19 100 0.00010678
4 12 19 100 0.0060264
5 12 19 100 0.0419321
6 12 19 100 5.19368e-05
7 12 19 100 0.012279
8 12 19 100 0.0357727
9 12 19 100 0.0152233
10 12 19 100 0.0588262
11 12 19 100 0.0443428
12 12 19 100 0.118475
13 12 19 100 0.0883139
14 12 19 100 0.0988983
15 12 19 100 0.130299
16 12 19 100 0.0642488
17 12 19 100 0.028573
18 12 19 100 0.0836794
19 12 19 100 0.0270223
0 13 19 100 0.0701592
1 13 19 100 0.00382685
2 13 19 100 0.0336876
3 13 19 100 0.00177434
4 13 19 100 0.00569559
5 13 19 100 0.0491811
6 13 19 100 0.0177994
7 13 19 100 0.0415969
8 13 19 100 0.0176752
9 13 19 100 0.0803599
10 13 19 100 0.0359064
11 13 19 100 0.00039481
12 13 19 100 0.118184
13 13 19 100 0.0994336
14 13 19 100 0.102552
15 13 19 100 0.0529589
16 13 19 100 0.0632964
17 13 19 100 0.0180106
18 13 19 100 0.106117
19 13 19 100 0.0813903
0 14 19 100 0.044804
1 14 19 100 0.02009
2 14 19 100 0.0216062
3 14 19 100 0.000163513
4 14 19 100 0.00186563
5 14 19 100 1.98124e-05
6 14 19 100 0.0353924
7 14 19 100 0.0175369
8 14 19 100 0.0139462
9 14 19 100 0.100099
10 14 19 100 0.0479815
11 14 19 100 0.0161318
12 14 19 100 0.0595226
13 14 19 100 0.127674
14 14 19 100 0.122742
15 14 19 100 0.118918
16 14 19 100 0.0400362
17 14 19 100 0.0678004
18 14 19 100 0.116633
19 14 19 100 0.0270366
0 15 19 100 0.192767
1 15 19 100 0.000478595
2 15 19 100 1.12487e-06
3 15 19 100 0.000221511
4 15 19 100 0.0049009
5 15 19 100 9.1787e-05
6 15 19 100 0.0292972
7 15 19 100 0.0409407
8 15 19 100 0.000111086
9 15 19 100 0.0466459
10 15 19 100 0.0253396
11 15 19 100 0.0199196
12 15 19 100 0.0465118
13 15 19 100 0.0923566
14 15 19 100 0.141369
15 15 19 100 0.0534838
16 15 19 100 0.0830505
17 15 19 100 0.022174
18 15 19 100 0.112488
19 15 19 100 0.0878516
0 16 19 100 0.0127375
1 16 19 100 0.0252217
2 16 19 100 0.0501965
3 16 19 100 0.000145858
4 16 19 100 0.00395861
6 16 19 100 0.0249838
7 16 19 100 0.000183307
8 16 19 100 8.91165e-05
9 16 19 100 0.120563
10 16 19 100 4.193e-05
11 16 19 100 0.0251136
12 16 19 100 1.27775e-05
13 16 19 100 0.0460396
14 16 19 100 0.0250033
15 16 19 100 0.243682
16 16 19 100 0.0961026
17 16 19 100 0.141704
18 16 19 100 0.125385
19 16 19 100 0.0588366
0 17 19 100 0.0408434
1 17 19 100 0.0399999
2 17 19 100 0.0788919
5 17 19 100 1.89028e-06
7 17 19 100 3.54162e-06
9 17 19 100 0.239987
11 17 19 100 1.48004e-06
12 17 19 100 0.0400037
13 17 19 100 4.5398e-05
14 17 19 100 0.000115107
15 17 19 100 0.119489
16 17 19 100 0.0408326
17 17 19 100 0.0807521
18 17 19 100 0.199933
19 17 19 100 0.119101
0 18 19 100 0.000829784
3 18 19 100 0.000385681
6 18 19 100 0.00134811
7 18 19 100 0.291552
8 18 19 100 8.28535e-05
9 18 19 100 0.134367
10 18 19 100 0.00248472
11 18 19 100 0.000101398
12 18 19 100 0.000900629
13 18 19 100 0.0716447
15 18 19 100 0.0714183
16 18 19 100 0.0109481
18 18 19 100 0.273867
19 18 19 100 0.14007
0 19 19 100 0.144912
2 19 19 100 6.13842e-05
3 19 19 100 0.125
4 19 19 100 0.250009
7 19 19 100 0.000218322
9 19 19 100 0.125894
10 19 19 100 1.24346e-05
11 19 19 100 0.00277493
12 19 19 100 0.00492494
15 19 19 100 0.00273576
16 19 19 100 0.249607
19 19 19 100 0.0938513
0 20 19 100 0.126073
2 20 19 100 0.000315801
4 20 19 100 0.269604
7 20 19 100 2.01042e-06
9 20 19 100 0.0107893
12 20 19 100 0.00530689
13 20 19 100 1.22594e-05
15 20 19 100 0.160645
16 20 19 100 5.06584e-05
17 20 19 100 0.284901
19 20 19 100 0.1423
4 21 19 100 0.00061194
17 21 19 100 0.999388
0 1 20 100 0.0343744
1 1 20 100 0.418309
2 1 20 100 0.05412
3 1 20 100 0.127348
4 1 20 100 0.0135551
5 1 20 100 0.0303007
6 1 20 100 1.81469e-05
7 1 20 100 0.0297173
8 1 20 100 0.087511
9 1 20 100 3.62866e-05
10 1 20 100 0.0150658
11 1 20 100 0.00111709
12 1 20 100 0.0310309
13 1 20 100 0.014062
14 1 20 100 0.0698932
15 1 20 100 0.0154871
16 1 20 100 0.0290754
18 1 20 100 0.0289117
19 1 20 100 2.37975e-06
20 1 20 100 6.48402e-05
0 2 20 100 0.0862126
1 2 20 100 0.0433482
2 2 20 100 0.186028
3 2 20 100 0.151376
4 2 20 100 0.124831
5 2 20 100 0.0200902
6 2 20 100 0.0622342
7 2 20 100 0.000595431
8 2 20 100 0.030842
9 2 20 100 0.0175044
10 2 20 100 0.0162806
11 2 20 100 0.0304966
12 2 20 100 0.0109329
13 2 20 100 0.0148755
14 2 20 100 0.0552974
15 2 20 100 0.0301851
16 2 20 100 0.0588094
17 2 20 100 0.0145055
18 2 20 100 0.000158171
19 2 20 100 0.00251447
20 2 20 100 0.0428831
0 3 20 100 0.133533
1 3 20 100 0.0011728
2 3 20 100 0.0965586
3 3 20 100 0.109202
4 3 20 100 0.186028
5 3 20 100 0.0300982
6 3 20 100 0.10504
7 3 20 100 0.0396394
8 3 20 100 0.0447191
9 3 20 100 0.0159214
10 3 20 100 0.0106232
11 3 20 100 0.0301239
12 3 20 100 0.0194176
13 3 20 100 0.0209458
14 3 20 100 0.0544554
15 3 20 100 0.025608
16 3 20 100 0.0301108
17 3 20 100 0.0016297
18 3 20 100 0.0015615
19 3 20 100 0.0146918
20 3 20 100 0.0289195
0 4 20 100 0.0714945
1 4 20 100 0.0172838
2 4 20 100 0.0581415
3 4 20 100 0.0355925
4 4 20 100 0.104717
5 4 20 100 0.0364093
6 4 20 100 0.0667182
7 4 20 100 0.0895545
8 4 20 100 0.0696577
9 4 20 100 0.0485281
10 4 20 100 0.0399925
11 4 20 100 0.0296084
12 4 20 100 0.00045324
13 4 20 100 0.0329187
14 4 20 100 0.0127215
15 4 20 100 0.0587062
16 4 20 100 0.0720475
17 4 20 100 0.0382629
18 4 20 100 0.0341208
19 4 20 100 0.0314322
20 4 20 100 0.051639
0 5 20 100 0.0556072
1 5 20 100 0.016998
2 5 20 100 0.0944604
3 5 20 100 0.0310581
4 5 20 100 0.059012
5 5 20 100 0.0848527
6 5 20 100 0.0654493
7 5 20 100 0.0297378
8 5 20 100 0.0109119
9 5 20 100 0.0297549
10 5 20 100 0.0614258
11 5 20 100 0.0139612
12 5 20 100 0.0169324
13 5 20 100 0.0428066
14 5 20 100 0.0873736
15 5 20 100 0.0544068
16 5 20 100 0.0691293
17 5 20 100 0.0479969
18 5 20 100 0.0449271
19 5 20 100 0.0561956
20 5 20 100 0.0270022
0 6 20 100 0.122298
1 6 20 100 0.00231738
2 6 20 100 0.0573031
3 6 20 100 0.00278443
4 6 20 100 0.0288891
5 6 20 100 0.0286862
6 6 20 100 0.104789
7 6 20 100 0.0414142
8 6 20 100 0.0288098
9 6 20 100 0.0446089
10 6 20 100 0.0010039
11 6 20 100 0.0150498
12 6 20 100 0.0479995
13 6 20 100 0.0578616
14 6 20 100 0.0767768
15 6 20 100 0.0922739
16 6 20 100 0.0684982
17 6 20 100 0.0213725
18 6 20 100 0.0425666
19 6 20 100 0.099317
20 6 20 100 0.0153794
0 7 20 100 0.0677476
1 7 20 100 0.00245954
2 7 20 100 0.0666777
3 7 20 100 0.0156721
4 7 20 100 0.028969
5 7 20 100 0.0120877
6 7 20 100 0.0912901
7 7 20 100 0.0474793
8 7 20 100 0.0515231
9 7 20 100 0.0325682
10 7 20 100 0.0162337
11 7 20 100 0.044288
12 7 20 100 0.046527
13 7 20 100 0.0636907
14 7 20 100 0.107817
15 7 20 100 0.0265454
16 7 20 100 0.0678382
17 7 20 100 0.0474292
18 7 20 100 0.044077
19 7 20 100 0.0932867
20 7 20 100 0.0257928
0 8 20 100 0.108123
1 8 20 100 0.00176217
2 8 20 100 7.23375e-05
3 8 20 100 0.0352592
4 8 20 100 0.0304602
5 8 20 100 0.0153123
6 8 20 100 0.125832
7 8 20 100 0.00299063
8 8 20 100 0.0480736
9 8 20 100 0.00163885
10 8 20 100 0.0175462
11 8 20 100 0.0635656
12 8 20 100 0.0498963
13 8 20 100 0.04816
14 8 20 100 0.0766377
15 8 20 100 0.0476052
16 8 20 100 0.0925451
17 8 20 100 0.0491354
18 8 20 100 0.0169295
19 8 20 100 0.077466
20 8 20 100 0.0909885
0 9 20 100 0.0679248
1 9 20 100 6.23007e-05
2 9 20 100 0.000906359
3 9 20 100 0.0192173
4 9 20 100 0.0171812
5 9 20 100 0.0183337
6 9 20 100 0.0213974
7 9 20 100 0.100372
8 9 20 100 0.0321072
9 9 20 100 0.118151
10 9 20 100 0.0703552
11 9 20 100 0.0690557
12 9 20 100 0.0352165
13 9 20 100 0.0963914
14 9 20 100 0.0426075
15 9 20 100 0.0533178
16 9 20 100 0.0424343
17 9 20 100 0.0390244
18 9 20 100 0.000753161
19 9 20 100 0.0686245
20 9 20 100 0.0865662
0 10 20 100 0.0336178
1 10 20 100 0.000378853
2 10 20 100 0.000162263
3 10 20 100 0.000848906
4 10 20 100 0.0190732
5 10 20 100 0.0186715
6 10 20 100 0.0963303
7 10 20 100 0.0771875
8 10 20 100 0.0583909
9 10 20 100 0.0050119
10 10 20 100 0.0339903
11 10 20 100 0.0972872
12 10 20 100 0.0321865
13 10 20 100 0.0196703
14 10 20 100 0.0385118
15 10 20 100 0.0963728
16 10 20 100 0.107003
17 10 20 100 0.0354528
18 10 20 100 0.0568222
19 10 20 100 0.0432642
20 10 20 100 0.129765
0 11 20 100 0.0662529
1 11 20 100 0.0199642
2 11 20 100 0.000109579
4 11 20 100 1.15658e-06
5 11 20 100 0.0203541
6 11 20 100 0.0617706
7 11 20 100 0.0219347
8 11 20 100 0.0440135
9 11 20 100 0.058817
10 11 20 100 0.0806514
11 11 20 100 0.0196141
12 11 20 100 0.0761474
13 11 20 100 0.0166475
14 11 20 100 4.82723e-05
15 11 20 100 0.0613237
16 11 20 100 0.0481704
17 11 20 100 0.111797
18 11 20 100 0.0159073
19 11 20 100 0.132508
20 11 20 100 0.143967
0 12 20 100 0.0653142
1 12 20 100 7.53288e-07
2 12 20 100 0.00647661
3 12 20 100 0.0249889
4 12 20 100 6.1423e-06
5 12 20 100 0.0169303
6 12 20 100 0.0464027
7 12 20 100 0.0235951
8 12 20 100 0.0273397
9 12 20 100 0.00240094
10 12 20 100 0.000336817
11 12 20 100 0.0210152
12 12 20 100 0.00014209
13 12 20 100 0.143177
14 12 20 100 0.0280657
15 12 20 100 0.0282388
16 12 20 100 0.0549926
17 12 20 100 0.162561
18 12 20 100 0.112526
19 12 20 100 0.188201
20 12 20 100 0.0472885
0 13 20 100 0.101398
2 13 20 100 3.22984e-06
3 13 20 100 0.00426219
4 13 20 100 0.00517542
7 13 20 100 0.0306983
8 13 20 100 0.0671841
9 13 20 100 0.00293413
10 13 20 100 0.0666864
11 13 20 100 0.0663818
12 13 20 100 0.00040679
13 13 20 100 0.0341227
14 13 20 100 2.30375e-06
15 13 20 100 0.0666681
16 13 20 100 0.109374
17 13 20 100 0.15359
18 13 20 100 0.0660172
19 13 20 100 0.16193
20 13 20 100 0.0631646
0 14 20 100 0.0722894
2 14 20 100 0.0378551
3 14 20 100 9.41981e-06
5 14 20 100 0.000341192
6 14 20 100 0.0370451
7 14 20 100 0.000212585
8 14 20 100 7.21494e-06
9 14 20 100 0.00020388
10 14 20 100 0.0104443
11 14 20 100 0.0421024
12 14 20 100 0.00710368
13 14 20 100 0.110585
14 14 20 100 0.0769117
15 14 20 100 0.0618647
16 14 20 100 0.039316
17 14 20 100 0.074965
18 14 20 100 0.103202
19 14 20 100 0.215699
20 14 20 100 0.109842
0 15 20 100 0.0307934
1 15 20 100 1.94342e-05
2 15 20 100 0.00479511
3 15 20 100 0.000872653
4 15 20 100 2.93179e-06
5 15 20 100 1.26212e-06
6 15 20 100 0.0961519
7 15 20 100 0.000774416
8 15 20 100 0.115901
9 15 20 100 0.00387949
10 15 20 100 0.0390556
11 15 20 100 0.130374
12 15 20 100 0.000413118
13 15 20 100 0.0773212
16 15 20 100 0.0441896
17 15 20 100 0.0432318
18 15 20 100 0.0888637
19 15 20 100 0.203152
20 15 20 100 0.120207
0 16 20 100 0.111701
1 16 20 100 1.40281e-06
2 16 20 100 0.000108174
4 16 20 100 9.30944e-05
7 16 20 100 1.5897e-06
8 16 20 100 0.059014
9 16 20 100 0.000133769
10 16 20 100 0.0610836
11 16 20 100 0.0588941
12 16 20 100 0.117652
13 16 20 100 0.00194531
14 16 20 100 5.64326e-06
15 16 20 100 0.00616306
16 16 20 100 0.0584952
18 16 20 100 1.4494e-05
19 16 20 100 0.294001
20 16 20 100 0.230692
0 17 20 100 0.332423
1 17 20 100 0.0012175
2 17 20 100 3.46316e-06
4 17 20 100 0.000316594
5 17 20 100 1.20584e-05
6 17 20 100 0.000111774
8 17 20 100 3.35022e-06
9 17 20 100 4.44936e-06
10 17 20 100 2.25151e-05
12 17 20 100 0.00229023
13 17 20 100 0.0833365
14 17 20 100 0.0833337
15 17 20 100 0.00149799
16 17 20 100 3.98385e-06
18 17 20 100 0.0166177
19 17 20 100 0.2456
20 17 20 100 0.233205
0 18 20 100 0.0118383
6 18 20 100 0.197425
7 18 20 100 1.39397e-06
8 18 20 100 4.75497e-06
9 18 20 100 0.000865665
11 18 20 100 0.0999535
13 18 20 100 0.172599
15 18 20 100 0.0181317
16 18 20 100 0.00906967
17 18 20 100 1.26845e-05
18 18 20 100 0.00707792
19 18 20 100 0.48302
0 19 20 100 0.000459529
9 19 20 100 0.00272857
10 19 20 100 0.000922257
12 19 20 100 0.327669
13 19 20 100 2.41269e-05
14 19 20 100 0.00566589
16 19 20 100 0.168913
17 19 20 100 0.165512
19 19 20 100 0.328106
0 20 20 100 0.498722
3 20 20 100 2.79508e-05
15 20 20 100 0.00121387
19 20 20 100 0.500036
0 21 20 100 0.00256839
6 21 20 100 2.22824e-05
9 21 20 100 1.01043e-05
13 21 20 100 0.386316
16 21 20 100 0.107133
17 21 20 100 0.00444939
18 21 20 100 0.000216262
19 21 20 100 0.499254
20 21 20 100 3.11191e-05
0 22 20 100 2.77598e-05
19 22 20 100 0.999972
19 23 20 100 1
0 1 21 100 0.168227
1 1 21 100 0.34756
2 1 21 100 0.130056
3 1 21 100 0.0300553
4 1 21 100 0.000432649
5 1 21 100 0.018263
6 1 21 100 0.015374
7 1 21 100 0.0359225
8 1 21 100 3.08634e-05
9 1 21 100 0.00021458
10 1 21 100 0.000243855
11 1 21 100 0.00244228
12 1 21 100 0.0406129
13 1 21 100 3.8419e-05
14 1 21 100 0.0149863
15 1 21 100 0.0527555
16 1 21 100 0.0534463
17 1 21 100 0.00103098
18 1 21 100 1.93286e-05
19 1 21 100 0.000422971
20 1 21 100 0.0702997
21 1 21 100 0.017565
0 2 21 100 0.0826488
1 2 21 100 0.0372828
2 2 21 100 0.268215
3 2 21 100 0.116488
4 2 21 100 0.0674632
5 2 21 100 0.0223294
6 2 21 100 0.0351036
7 2 21 100 0.0175443
8 2 21 100 0.0525532
9 2 21 100 0.0212132
10 2 21 100 0.00067143
11 2 21 100 0.0323172
12 2 21 100 5.47432e-05
13 2 21 100 0.000116476
14 2 21 100 0.048436
15 2 21 100 0.0351681
16 2 21 100 0.0449833
17 2 21 100 0.0184074
18 2 21 100 0.03408
19 2 21 100 0.0175439
20 2 21 100 0.0473796
0 3 21 100 0.0954813
1 3 21 100 0.0335175
2 3 21 100 0.0817404
3 3 21 100 0.185923
4 3 21 100 0.101889
5 3 21 100 0.00200915
6 3 21 100 0.0228582
7 3 21 100 0.0350961
8 3 21 100 0.0688327
9 3 21 100 0.0171273
10 3 21 100 0.0269781
11 3 21 100 0.0291761
12 3 21 100 0.0174715
13 3 21 100 0.0189345
14 3 21 100 0.0367061
15 3 21 100 0.0346567
16 3 21 100 0.0177288
17 3 21 100 0.000147791
18 3 21 100 0.0874418
19 3 21 100 1.71466e-05
20 3 21 100 0.0511744
21 3 21 100 0.0350922
0 4 21 100 0.0977367
1 4 21 100 0.00104559
2 4 21 100 0.0720689
3 4 21 100 0.130546
4 4 21 100 0.0292568
5 4 21 100 1.19371e-06
6 4 21 100 0.136584
7 4 21 100 0.0351169
8 4 21 100 0.0721125
9 4 21 100 0.0351263
10 4 21 100 0.0490661
11 4 21 100 0.0275208
12 4 21 100 0.00010883
13 4 21 100 0.0175477
14 4 21 100 0.0466037
15 4 21 100 0.0197949
16 4 21 100 0.0178103
17 4 21 100 0.0515351
18 4 21 100 0.0235493
19 4 21 100 0.0853863
20 4 21 100 0.0175469
21 4 21 100 0.0339356
0 5 21 100 0.0351955
1 5 21 100 0.0150953
2 5 21 100 2.97012e-05
3 5 21 100 0.0599146
4 5 21 100 0.0980869
5 5 21 100 0.0103206
6 5 21 100 0.0823397
7 5 21 100 0.130034
8 5 21 100 0.053745
9 5 21 100 0.0490568
10 5 21 100 0.112401
11 5 21 100 0.0192637
12 5 21 100 0.0129127
13 5 21 100 5.94099e-05
14 5 21 100 0.0583135
15 5 21 100 0.016337
16 5 21 100 0.0186208
17 5 21 100 0.0368912
18 5 21 100 0.118198
19 5 21 100 0.0273265
20 5 21 100 0.0299529
21 5 21 100 0.015905
0 6 21 100 0.0462236
1 6 21 100 0.017006
2 6 21 100 0.0186636
3 6 21 100 0.0363124
4 6 21 100 0.0566524
5 6 21 100 0.038155
6 6 21 100 0.0935042
7 6 21 100 0.000300884
8 6 21 100 0.110601
9 6 21 100 0.0738792
10 6 21 100 0.104604
11 6 21 100 0.0372573
12 6 21 100 0.0196729
13 6 21 100 0.00408704
14 6 21 100 0.0317044
15 6 21 100 0.000580544
16 6 21 100 0.0382169
17 6 21 100 0.00307128
18 6 21 100 0.0353243
19 6 21 100 0.126004
20 6 21 100 0.0561824
21 6 21 100 0.0519971
0 7 21 100 0.0778823
1 7 21 100 0.0372182
2 7 21 100 0.0190187
3 7 21 100 0.0360368
4 7 21 100 0.0392229
5 7 21 100 0.00277096
6 7 21 100 0.0839966
7 7 21 100 0.018549
8 7 21 100 0.0900532
9 7 21 100 0.0951347
10 7 21 100 0.0720745
11 7 21 100 0.075072
12 7 21 100 0.0318648
13 7 21 100 0.0199082
14 7 21 100 0.0731654
15 7 21 100 0.0185129
16 7 21 100 0.0185876
17 7 21 100 0.0205737
18 7 21 100 0.00395547
19 7 21 100 0.110668
20 7 21 100 0.0371576
21 7 21 100 0.0185761
0 8 21 100 0.0750203
1 8 21 100 0.0026555
2 8 21 100 0.00252856
3 8 21 100 0.0243101
4 8 21 100 0.0887016
5 8 21 100 0.0103305
6 8 21 100 0.125979
7 8 21 100 0.0194616
8 8 21 100 0.00105753
9 8 21 100 0.147783
10 8 21 100 0.0412017
11 8 21 100 0.100774
12 8 21 100 0.000141905
13 8 21 100 0.0203604
14 8 21 100 0.106491
15 8 21 100 0.023276
16 8 21 100 0.0185234
17 8 21 100 0.0544816
18 8 21 100 0.0200924
19 8 21 100 0.0185192
20 8 21 100 0.061329
21 8 21 100 0.0369816
0 9 21 100 0.0771964
1 9 21 100 0.018615
2 9 21 100 0.0213221
3 9 21 100 0.0229069
4 9 21 100 0.00442534
5 9 21 100 0.0754768
6 9 21 100 0.0163264
7 9 21 100 0.113849
8 9 21 100 0.0341298
9 9 21 100 0.0565908
10 9 21 100 0.081174
11 9 21 100 0.0385576
12 9 21 100 0.0191199
13 9 21 100 0.0320316
14 9 21 100 0.107763
15 9 21 100 0.0413901
16 9 21 100 0.0375309
17 9 21 100 0.0927472
18 9 21 100 0.0534955
19 9 21 100 0.0195044
20 9 21 100 0.0183797
21 9 21 100 0.0174682
0 10 21 100 0.0255837
2 10 21 100 0.0199374
3 10 21 100 3.48952e-05
4 10 21 100 0.000347742
5 10 21 100 0.00169917
7 10 21 100 0.00263181
8 10 21 100 0.109523
9 10 21 100 0.0798704
10 10 21 100 0.206595
11 10 21 100 0.117724
12 10 21 100 0.021778
13 10 21 100 0.0220347
14 10 21 100 0.103696
15 10 21 100 0.0222923
16 10 21 100 0.0866518
17 10 21 100 0.0457545
18 10 21 100 0.0398171
19 10 21 100 0.0668209
20 10 21 100 0.00549648
21 10 21 100 0.0217106
0 11 21 100 0.109588
1 11 21 100 9.90624e-05
2 11 21 100 1.24884e-06
3 11 21 100 0.0186717
4 11 21 100 0.000715841
5 11 21 100 0.000196985
6 11 21 100 0.0788252
7 11 21 100 0.0450617
8 11 21 100 0.00346795
9 11 21 100 0.0921272
10 11 21 100 0.177777
11 11 21 100 0.0537752
12 11 21 100 0.000553888
13 11 21 100 0.0923738
14 11 21 100 0.00654371
15 11 21 100 0.114854
16 11 21 100 0.000109343
17 11 21 100 0.0448531
18 11 21 100 0.0248024
19 11 21 100 0.131853
20 11 21 100 0.00352335
21 11 21 100 0.000227334
0 12 21 100 0.0738664
1 12 21 100 0.00117528
3 12 21 100 9.17854e-05
4 12 21 100 4.27242e-05
5 12 21 100 0.00372248
6 12 21 100 0.00207821
7 12 21 100 0.0473235
8 12 21 100 0.0830271
9 12 21 100 0.0474598
10 12 21 100 0.0503218
11 12 21 100 0.0727579
12 12 21 100 0.0679865
13 12 21 100 0.0892235
14 12 21 100 0.0897819
15 12 21 100 0.0832222
16 12 21 100 0.0489919
17 12 21 100 0.0435956
18 12 21 100 0.0229906
19 12 21 100 0.0861836
20 12 21 100 0.0629058
21 12 21 100 0.0232515
0 13 21 100 0.0949904
1 13 21 100 0.00624612
2 13 21 100 3.45463e-06
4 13 21 100 0.00257634
5 13 21 100 8.10828e-07
6 13 21 100 0.000686389
7 13 21 100 0.000733432
8 13 21 100 0.0247097
9 13 21 100 0.0761005
10 13 21 100 0.0897039
11 13 21 100 0.0312034
12 13 21 100 0.130502
13 13 21 100 0.128348
14 13 21 100 0.0927175
15 13 21 100 0.025446
16 13 21 100 0.0513928
17 13 21 100 0.0983294
18 13 21 100 0.0220845
19 13 21 100 0.0258422
20 13 21 100 0.0983721
21 13 21 100 1.11681e-05
0 14 21 100 0.0311044
1 14 21 100 3.8838e-05
2 14 21 100 2.81085e-05
4 14 21 100 0.000654389
5 14 21 100 2.92245e-07
6 14 21 100 1.96907e-06
7 14 21 100 0.00138813
8 14 21 100 1.31952e-05
9 14 21 100 0.000182727
10 14 21 100 0.0857422
11 14 21 100 0.136823
12 14 21 100 0.0280046
13 14 21 100 0.0216118
14 14 21 100 0.24873
15 14 21 100 0.0788751
16 14 21 100 0.0591202
17 14 21 100 0.108657
18 14 21 100 0.0254717
19 14 21 100 0.0537284
20 14 21 100 0.0583778
21 14 21 100 0.0614458
0 15 21 100 0.0184545
3 15 21 100 5.41387e-06
4 15 21 100 3.8958e-07
5 15 21 100 0.00170856
6 15 21 100 2.64573e-06
7 15 21 100 0.0133183
8 15 21 100 5.05879e-05
9 15 21 100 0.117849
10 15 21 100 0.00877336
11 15 21 100 0.0821851
12 15 21 100 0.0886279
13 15 21 100 0.00215281
14 15 21 100 0.176299
15 15 21 100 0.0293957
16 15 21 100 0.0294229
17 15 21 100 0.175425
18 15 21 100 4.99424e-05
19 15 21 100 0.0575502
20 15 21 100 0.139916
21 15 21 100 0.0588127
0 16 21 100 0.0382904
2 16 21 100 0.000420022
3 16 21 100 7.17608e-05
6 16 21 100 4.46067e-07
7 16 21 100 8.15571e-07
8 16 21 100 0.000498627
9 16 21 100 0.222142
10 16 21 100 0.0707534
11 16 21 100 2.1358e-06
12 16 21 100 0.100306
13 16 21 100 0.0848744
15 16 21 100 0.0399907
16 16 21 100 0.0379026
17 16 21 100 0.0369285
18 16 21 100 0.0046629
19 16 21 100 0.177031
20 16 21 100 0.112015
21 16 21 100 0.0741094
0 17 21 100 0.105189
1 17 21 100 0.000469526
4 17 21 100 3.42175e-05
5 17 21 100 2.20596e-05
6 17 21 100 0.00147265
7 17 21 100 1.50836e-05
9 17 21 100 0.208901
10 17 21 100 0.08357
11 17 21 100 7.82059e-07
12 17 21 100 0.113843
13 17 21 100 0.0418
15 17 21 100 0.117629
16 17 21 100 8.1994e-05
17 17 21 100 0.0418709
