1 1 100 1 1
1 2 100 1 1
1 3 100 1 1
1 4 100 1 1
1 5 100 1 1
1 6 100 1 1
1 7 100 1 1
1 9 100 1 1
1 11 100 1 1
1 14 100 1 1
1 0 100 2 0.32443
2 0 100 2 0.67557
1 1 100 2 0.620232
2 1 100 2 0.379768
1 2 100 2 0.435571
2 2 100 2 0.564429
1 3 100 2 0.468222
2 3 100 2 0.531778
1 4 100 2 0.359495
2 4 100 2 0.640505
1 5 100 2 0.360145
2 5 100 2 0.639855
1 6 100 2 0.453905
2 6 100 2 0.546095
1 7 100 2 0.469986
2 7 100 2 0.530014
1 8 100 2 0.423913
2 8 100 2 0.576087
1 9 100 2 0.398173
2 9 100 2 0.601827
1 10 100 2 0.652627
2 10 100 2 0.347373
1 11 100 2 0.794513
2 11 100 2 0.205487
1 12 100 2 0.243275
2 12 100 2 0.756725
1 13 100 2 0.0278568
2 13 100 2 0.972143
2 15 100 2 1
1 16 100 2 0.00599291
2 16 100 2 0.994007
2 17 100 2 1
1 0 100 3 0.179944
2 0 100 3 0.4849
3 0 100 3 0.335156
1 1 100 3 0.636807
2 1 100 3 0.185334
3 1 100 3 0.177859
1 2 100 3 0.250208
2 2 100 3 0.424808
3 2 100 3 0.324984
1 3 100 3 0.233164
2 3 100 3 0.35462
3 3 100 3 0.412216
1 4 100 3 0.218767
2 4 100 3 0.324819
3 4 100 3 0.456414
1 5 100 3 0.228378
2 5 100 3 0.357126
3 5 100 3 0.414495
1 6 100 3 0.215881
2 6 100 3 0.366671
3 6 100 3 0.417448
1 7 100 3 0.210133
2 7 100 3 0.375582
3 7 100 3 0.414285
1 8 100 3 0.18093
2 8 100 3 0.300221
3 8 100 3 0.518849
1 9 100 3 0.193811
2 9 100 3 0.294115
3 9 100 3 0.512074
1 10 100 3 0.157706
2 10 100 3 0.349197
3 10 100 3 0.493097
1 11 100 3 0.155114
2 11 100 3 0.261561
3 11 100 3 0.583324
1 12 100 3 0.17343
2 12 100 3 0.22708
3 12 100 3 0.59949
1 13 100 3 0.0896996
2 13 100 3 0.20896
3 13 100 3 0.70134
1 14 100 3 0.219535
2 14 100 3 0.410016
3 14 100 3 0.370448
1 15 100 3 0.207795
2 15 100 3 0.443846
3 15 100 3 0.348359
1 16 100 3 0.0152066
2 16 100 3 0.98097
3 16 100 3 0.00382308
1 17 100 3 0.699454
2 17 100 3 0.144915
3 17 100 3 0.155631
1 18 100 3 0.982549
2 18 100 3 0.00235292
3 18 100 3 0.0150975
2 19 100 3 0.253418
3 19 100 3 0.746582
1 20 100 3 0.944249
2 20 100 3 0.0557505
1 0 100 4 0.104093
2 0 100 4 0.350622
3 0 100 4 0.264447
4 0 100 4 0.280838
1 1 100 4 0.633538
2 1 100 4 0.138337
3 1 100 4 0.112132
4 1 100 4 0.115993
1 2 100 4 0.211264
2 2 100 4 0.369908
3 2 100 4 0.225496
4 2 100 4 0.193332
1 3 100 4 0.144322
2 3 100 4 0.253238
3 3 100 4 0.334109
4 3 100 4 0.268332
1 4 100 4 0.1173
2 4 100 4 0.207367
3 4 100 4 0.330576
4 4 100 4 0.344757
1 5 100 4 0.123905
2 5 100 4 0.204697
3 5 100 4 0.286213
4 5 100 4 0.385185
1 6 100 4 0.1151
2 6 100 4 0.220909
3 6 100 4 0.288528
4 6 100 4 0.375462
1 7 100 4 0.160731
2 7 100 4 0.234284
3 7 100 4 0.259178
4 7 100 4 0.345807
1 8 100 4 0.0440434
2 8 100 4 0.232791
3 8 100 4 0.319426
4 8 100 4 0.40374
1 9 100 4 0.13204
2 9 100 4 0.187594
3 9 100 4 0.302571
4 9 100 4 0.377795
1 10 100 4 0.0944464
2 10 100 4 0.205464
3 10 100 4 0.249799
4 10 100 4 0.450291
1 11 100 4 0.123147
2 11 100 4 0.205048
3 11 100 4 0.240908
4 11 100 4 0.430898
1 12 100 4 0.226736
2 12 100 4 0.265171
3 12 100 4 0.204798
4 12 100 4 0.303295
1 13 100 4 0.132407
2 13 100 4 0.301553
3 13 100 4 0.243726
4 13 100 4 0.322313
1 14 100 4 0.0962025
2 14 100 4 0.668613
3 14 100 4 0.0864269
4 14 100 4 0.148758
1 15 100 4 0.0679102
2 15 100 4 0.279755
3 15 100 4 0.369771
4 15 100 4 0.282564
1 16 100 4 0.131907
2 16 100 4 0.00811633
3 16 100 4 0.148922
4 16 100 4 0.711055
1 17 100 4 0.0017596
2 17 100 4 0.0308109
3 17 100 4 0.276733
4 17 100 4 0.690696
1 18 100 4 0.00537075
2 18 100 4 0.854494
3 18 100 4 0.0702379
4 18 100 4 0.0698976
1 19 100 4 6.91925e-06
2 19 100 4 0.0273224
3 19 100 4 0.12818
4 19 100 4 0.844491
1 20 100 4 1
4 21 100 4 1
1 0 100 5 0.0836548
2 0 100 5 0.282436
3 0 100 5 0.197669
4 0 100 5 0.227689
5 0 100 5 0.20855
1 1 100 5 0.61729
2 1 100 5 0.133099
3 1 100 5 0.0905116
4 1 100 5 0.0803173
5 1 100 5 0.0787812
1 2 100 5 0.196628
2 2 100 5 0.314982
3 2 100 5 0.195581
4 2 100 5 0.143308
5 2 100 5 0.149501
1 3 100 5 0.112197
2 3 100 5 0.210704
3 3 100 5 0.278858
4 3 100 5 0.21901
5 3 100 5 0.179231
1 4 100 5 0.0882328
2 4 100 5 0.156476
3 4 100 5 0.241681
4 4 100 5 0.27348
5 4 100 5 0.24013
1 5 100 5 0.0912724
2 5 100 5 0.138242
3 5 100 5 0.210898
4 5 100 5 0.280059
5 5 100 5 0.279528
1 6 100 5 0.0803266
2 6 100 5 0.15574
3 6 100 5 0.174581
4 6 100 5 0.248965
5 6 100 5 0.340388
1 7 100 5 0.0973343
2 7 100 5 0.158032
3 7 100 5 0.195041
4 7 100 5 0.229171
5 7 100 5 0.320422
1 8 100 5 0.0851924
2 8 100 5 0.166932
3 8 100 5 0.172088
4 8 100 5 0.230381
5 8 100 5 0.345408
1 9 100 5 0.053144
2 9 100 5 0.121505
3 9 100 5 0.221658
4 9 100 5 0.278396
5 9 100 5 0.325298
1 10 100 5 0.0973767
2 10 100 5 0.146847
3 10 100 5 0.205096
4 10 100 5 0.235311
5 10 100 5 0.315369
1 11 100 5 0.0556252
2 11 100 5 0.137204
3 11 100 5 0.198643
4 11 100 5 0.25623
5 11 100 5 0.352298
1 12 100 5 0.070036
2 12 100 5 0.124475
3 12 100 5 0.21062
4 12 100 5 0.244966
5 12 100 5 0.349904
1 13 100 5 0.117747
2 13 100 5 0.101239
3 13 100 5 0.154638
4 13 100 5 0.330379
5 13 100 5 0.295997
1 14 100 5 0.117742
2 14 100 5 0.202674
3 14 100 5 0.177961
4 14 100 5 0.205041
5 14 100 5 0.296582
1 15 100 5 0.0279706
2 15 100 5 0.240118
3 15 100 5 0.260012
4 15 100 5 0.0862959
5 15 100 5 0.385603
1 16 100 5 0.00814901
2 16 100 5 0.191563
3 16 100 5 0.212405
4 16 100 5 0.345871
5 16 100 5 0.242012
1 17 100 5 0.00517565
2 17 100 5 0.155398
3 17 100 5 0.226317
4 17 100 5 0.321993
5 17 100 5 0.291117
1 18 100 5 0.187841
2 18 100 5 0.16028
3 18 100 5 0.268897
4 18 100 5 0.220861
5 18 100 5 0.16212
1 19 100 5 0.832823
2 19 100 5 0.129937
3 19 100 5 0.0212235
4 19 100 5 0.0158761
5 19 100 5 0.000139927
5 20 100 5 1
5 21 100 5 1
4 22 100 5 0.829512
5 22 100 5 0.170488
1 23 100 5 2.56874e-05
2 23 100 5 0.00199864
3 23 100 5 0.639784
4 23 100 5 0.206438
5 23 100 5 0.151754
2 24 100 5 1
3 25 100 5 0.399727
4 25 100 5 0.600273
2 26 100 5 0.999963
4 26 100 5 3.70036e-05
4 27 100 5 9.66863e-06
5 27 100 5 0.99999
3 28 100 5 0.0896055
4 28 100 5 0.910394
1 0 100 6 0.059896
2 0 100 6 0.234372
3 0 100 6 0.170031
4 0 100 6 0.193042
5 0 100 6 0.180865
6 0 100 6 0.161794
1 1 100 6 0.593825
2 1 100 6 0.120069
3 1 100 6 0.100441
4 1 100 6 0.0718812
5 1 100 6 0.0572155
6 1 100 6 0.0565686
1 2 100 6 0.183645
2 2 100 6 0.312679
3 2 100 6 0.155209
4 2 100 6 0.127646
5 2 100 6 0.117056
6 2 100 6 0.103766
1 3 100 6 0.11203
2 3 100 6 0.158225
3 3 100 6 0.243209
4 3 100 6 0.18119
5 3 100 6 0.168858
6 3 100 6 0.136488
1 4 100 6 0.0714634
2 4 100 6 0.13017
3 4 100 6 0.18837
4 4 100 6 0.217192
5 4 100 6 0.201277
6 4 100 6 0.191527
1 5 100 6 0.0640595
2 5 100 6 0.108316
3 5 100 6 0.164561
4 5 100 6 0.212976
5 5 100 6 0.227021
6 5 100 6 0.223065
1 6 100 6 0.0529038
2 6 100 6 0.107458
3 6 100 6 0.158126
4 6 100 6 0.182491
5 6 100 6 0.248055
6 6 100 6 0.250965
1 7 100 6 0.0573672
2 7 100 6 0.121
3 7 100 6 0.136965
4 7 100 6 0.170514
5 7 100 6 0.199288
6 7 100 6 0.314866
1 8 100 6 0.0626878
2 8 100 6 0.113618
3 8 100 6 0.157525
4 8 100 6 0.169086
5 8 100 6 0.215596
6 8 100 6 0.281488
1 9 100 6 0.046815
2 9 100 6 0.127941
3 9 100 6 0.164576
4 9 100 6 0.199973
5 9 100 6 0.201052
6 9 100 6 0.259645
1 10 100 6 0.0615803
2 10 100 6 0.118162
3 10 100 6 0.146158
4 10 100 6 0.209169
5 10 100 6 0.198824
6 10 100 6 0.266106
1 11 100 6 0.0647447
2 11 100 6 0.139444
3 11 100 6 0.131178
4 11 100 6 0.172027
5 11 100 6 0.202834
6 11 100 6 0.289773
1 12 100 6 0.079784
2 12 100 6 0.0987727
3 12 100 6 0.177611
4 12 100 6 0.223152
5 12 100 6 0.208226
6 12 100 6 0.212454
1 13 100 6 0.0229145
2 13 100 6 0.0648471
3 13 100 6 0.104083
4 13 100 6 0.195083
5 13 100 6 0.272321
6 13 100 6 0.340752
1 14 100 6 0.0644907
2 14 100 6 0.0812806
3 14 100 6 0.117019
4 14 100 6 0.181986
5 14 100 6 0.253028
6 14 100 6 0.302195
1 15 100 6 0.0968848
2 15 100 6 0.129458
3 15 100 6 0.143955
4 15 100 6 0.232745
5 15 100 6 0.135684
6 15 100 6 0.261273
1 16 100 6 0.027219
2 16 100 6 0.0597113
3 16 100 6 0.213746
4 16 100 6 0.208667
5 16 100 6 0.148864
6 16 100 6 0.341792
1 17 100 6 0.000422891
2 17 100 6 0.0612366
3 17 100 6 0.229935
4 17 100 6 0.269379
5 17 100 6 0.349109
6 17 100 6 0.0899167
1 18 100 6 0.14779
2 18 100 6 0.151361
3 18 100 6 0.175225
4 18 100 6 0.113997
5 18 100 6 0.21748
6 18 100 6 0.194145
1 19 100 6 0.000253681
2 19 100 6 0.0323358
3 19 100 6 2.06962e-06
4 19 100 6 0.0162894
5 19 100 6 0.200978
6 19 100 6 0.750141
1 20 100 6 0.892769
2 20 100 6 0.0165659
4 20 100 6 0.0906655
2 21 100 6 0.486225
3 21 100 6 0.468726
4 21 100 6 0.0386653
5 21 100 6 0.00638398
1 22 100 6 0.000101156
2 22 100 6 0.00515851
3 22 100 6 0.0731544
4 22 100 6 0.60333
5 22 100 6 0.317507
6 22 100 6 0.000748845
4 24 100 6 1
2 26 100 6 0.00016265
3 26 100 6 0.000635587
4 26 100 6 0.00227494
5 26 100 6 0.996831
6 26 100 6 9.61957e-05
1 0 100 7 0.0491641
2 0 100 7 0.228306
3 0 100 7 0.139032
4 0 100 7 0.167073
5 0 100 7 0.141051
6 0 100 7 0.147709
7 0 100 7 0.127664
1 1 100 7 0.595396
2 1 100 7 0.117243
3 1 100 7 0.0806866
4 1 100 7 0.0584098
5 1 100 7 0.0543977
6 1 100 7 0.0421655
7 1 100 7 0.0517019
1 2 100 7 0.172262
2 2 100 7 0.282246
3 2 100 7 0.161642
4 2 100 7 0.116829
5 2 100 7 0.0970962
6 2 100 7 0.0872593
7 2 100 7 0.082666
1 3 100 7 0.0775652
2 3 100 7 0.14184
3 3 100 7 0.226918
4 3 100 7 0.167452
5 3 100 7 0.148822
6 3 100 7 0.128197
7 3 100 7 0.109205
1 4 100 7 0.05596
2 4 100 7 0.107033
3 4 100 7 0.156209
4 4 100 7 0.194175
5 4 100 7 0.184468
6 4 100 7 0.151724
7 4 100 7 0.150432
1 5 100 7 0.0500813
2 5 100 7 0.088645
3 5 100 7 0.132149
4 5 100 7 0.164571
5 5 100 7 0.195758
6 5 100 7 0.194138
7 5 100 7 0.174657
1 6 100 7 0.0449736
2 6 100 7 0.0807414
3 6 100 7 0.110142
4 6 100 7 0.147344
5 6 100 7 0.180481
6 6 100 7 0.212902
7 6 100 7 0.223416
1 7 100 7 0.0471673
2 7 100 7 0.0622056
3 7 100 7 0.116506
4 7 100 7 0.126785
5 7 100 7 0.160666
6 7 100 7 0.213836
7 7 100 7 0.272834
1 8 100 7 0.0455037
2 8 100 7 0.0822748
3 8 100 7 0.117204
4 8 100 7 0.149509
5 8 100 7 0.155598
6 8 100 7 0.236094
7 8 100 7 0.213817
1 9 100 7 0.0426334
2 9 100 7 0.0915398
3 9 100 7 0.113741
4 9 100 7 0.14686
5 9 100 7 0.16831
6 9 100 7 0.183616
7 9 100 7 0.2533
1 10 100 7 0.0540637
2 10 100 7 0.0771999
3 10 100 7 0.133408
4 10 100 7 0.133285
5 10 100 7 0.168876
6 10 100 7 0.20668
7 10 100 7 0.226489
1 11 100 7 0.0374532
2 11 100 7 0.0780529
3 11 100 7 0.124771
4 11 100 7 0.132643
5 11 100 7 0.15333
6 11 100 7 0.1942
7 11 100 7 0.279549
1 12 100 7 0.08541
2 12 100 7 0.103437
3 12 100 7 0.102578
4 12 100 7 0.135896
5 12 100 7 0.175284
6 12 100 7 0.184444
7 12 100 7 0.21295
1 13 100 7 0.0394339
2 13 100 7 0.0949563
3 13 100 7 0.126829
4 13 100 7 0.171606
5 13 100 7 0.16829
6 13 100 7 0.189647
7 13 100 7 0.209238
1 14 100 7 0.0778571
2 14 100 7 0.13263
3 14 100 7 0.145145
4 14 100 7 0.145272
5 14 100 7 0.174839
6 14 100 7 0.123687
7 14 100 7 0.20057
1 15 100 7 0.0477648
2 15 100 7 0.090417
3 15 100 7 0.0909473
4 15 100 7 0.0676113
5 15 100 7 0.195673
6 15 100 7 0.257859
7 15 100 7 0.249728
1 16 100 7 0.0592466
2 16 100 7 0.0535641
3 16 100 7 0.131875
4 16 100 7 0.043316
5 16 100 7 0.0916195
6 16 100 7 0.290006
7 16 100 7 0.330372
1 17 100 7 0.00106294
2 17 100 7 0.0184782
3 17 100 7 0.0214679
4 17 100 7 0.171749
5 17 100 7 0.296318
6 17 100 7 0.143681
7 17 100 7 0.347243
1 18 100 7 0.140074
2 18 100 7 0.0760381
3 18 100 7 0.0729171
4 18 100 7 0.208128
5 18 100 7 0.147768
6 18 100 7 0.165478
7 18 100 7 0.189597
1 19 100 7 1.63583e-05
2 19 100 7 7.17941e-05
3 19 100 7 9.11463e-05
4 19 100 7 6.88449e-07
5 19 100 7 5.52375e-05
6 19 100 7 0.663617
7 19 100 7 0.336148
2 20 100 7 0.257762
3 20 100 7 0.0026695
4 20 100 7 0.666497
5 20 100 7 0.000935646
6 20 100 7 0.0721273
7 20 100 7 8.11325e-06
2 21 100 7 0.0123824
4 21 100 7 5.05463e-05
6 21 100 7 0.987567
2 22 100 7 1
5 24 100 7 1
2 25 100 7 1
2 28 100 7 1
1 0 100 8 0.041764
2 0 100 8 0.181669
3 0 100 8 0.133109
4 0 100 8 0.156561
5 0 100 8 0.132763
6 0 100 8 0.125907
7 0 100 8 0.126625
8 0 100 8 0.101603
1 1 100 8 0.568984
2 1 100 8 0.112382
3 1 100 8 0.0813209
4 1 100 8 0.0598398
5 1 100 8 0.0468564
6 1 100 8 0.0395144
7 1 100 8 0.0454456
8 1 100 8 0.0456566
1 2 100 8 0.15197
2 2 100 8 0.27473
3 2 100 8 0.149477
4 2 100 8 0.101808
5 2 100 8 0.0862312
6 2 100 8 0.0823099
7 2 100 8 0.0816266
8 2 100 8 0.071847
1 3 100 8 0.0801859
2 3 100 8 0.130599
3 3 100 8 0.206731
4 3 100 8 0.159888
5 3 100 8 0.127124
6 3 100 8 0.111356
7 3 100 8 0.0968605
8 3 100 8 0.0872551
1 4 100 8 0.0526506
2 4 100 8 0.0931514
3 4 100 8 0.153533
4 4 100 8 0.164707
5 4 100 8 0.161567
6 4 100 8 0.140983
7 4 100 8 0.119264
8 4 100 8 0.114143
1 5 100 8 0.0415571
2 5 100 8 0.0741903
3 5 100 8 0.104293
4 5 100 8 0.146808
5 5 100 8 0.174573
6 5 100 8 0.163839
7 5 100 8 0.14613
8 5 100 8 0.14861
1 6 100 8 0.0362323
2 6 100 8 0.0710874
3 6 100 8 0.0923306
4 6 100 8 0.115335
5 6 100 8 0.159625
6 6 100 8 0.172037
7 6 100 8 0.177027
8 6 100 8 0.176326
1 7 100 8 0.0454125
2 7 100 8 0.059733
3 7 100 8 0.0770006
4 7 100 8 0.109871
5 7 100 8 0.124157
6 7 100 8 0.182418
7 7 100 8 0.187857
8 7 100 8 0.213551
1 8 100 8 0.0374268
2 8 100 8 0.0617457
3 8 100 8 0.0876643
4 8 100 8 0.0992471
5 8 100 8 0.139465
6 8 100 8 0.163295
7 8 100 8 0.186991
8 8 100 8 0.224165
1 9 100 8 0.0472076
2 9 100 8 0.0670877
3 9 100 8 0.104724
4 9 100 8 0.103749
5 9 100 8 0.115486
6 9 100 8 0.143092
7 9 100 8 0.20425
8 9 100 8 0.214405
1 10 100 8 0.0411002
2 10 100 8 0.0775485
3 10 100 8 0.0819635
4 10 100 8 0.1044
5 10 100 8 0.142758
6 10 100 8 0.155541
7 10 100 8 0.183073
8 10 100 8 0.213616
1 11 100 8 0.0369619
2 11 100 8 0.082063
3 11 100 8 0.0832276
4 11 100 8 0.131297
5 11 100 8 0.0823724
6 11 100 8 0.128509
7 11 100 8 0.190783
8 11 100 8 0.264786
1 12 100 8 0.0691777
2 12 100 8 0.0526658
3 12 100 8 0.0974946
4 12 100 8 0.0919122
5 12 100 8 0.10931
6 12 100 8 0.136127
7 12 100 8 0.203123
8 12 100 8 0.240189
1 13 100 8 0.0346141
2 13 100 8 0.0345621
3 13 100 8 0.0577155
4 13 100 8 0.101053
5 13 100 8 0.173184
6 13 100 8 0.158471
7 13 100 8 0.199078
8 13 100 8 0.241322
1 14 100 8 0.0615513
2 14 100 8 0.123227
3 14 100 8 0.13369
4 14 100 8 0.156891
5 14 100 8 0.133077
6 14 100 8 0.134827
7 14 100 8 0.110526
8 14 100 8 0.146209
1 15 100 8 0.0554345
2 15 100 8 0.103754
3 15 100 8 0.145747
4 15 100 8 0.0999435
5 15 100 8 0.128372
6 15 100 8 0.134877
7 15 100 8 0.146176
8 15 100 8 0.185696
1 16 100 8 0.0391484
2 16 100 8 0.0906273
3 16 100 8 0.0495556
4 16 100 8 0.118665
5 16 100 8 0.108155
6 16 100 8 0.150501
7 16 100 8 0.240693
8 16 100 8 0.202656
1 17 100 8 0.0531956
2 17 100 8 0.172224
3 17 100 8 0.0672148
4 17 100 8 0.016674
5 17 100 8 0.179756
6 17 100 8 0.205519
7 17 100 8 0.138062
8 17 100 8 0.167354
1 18 100 8 0.00296266
2 18 100 8 0.162146
3 18 100 8 0.15911
4 18 100 8 0.155646
5 18 100 8 0.111191
6 18 100 8 0.239539
7 18 100 8 0.147617
8 18 100 8 0.0217884
1 19 100 8 0.10782
2 19 100 8 0.20442
3 19 100 8 0.0545404
4 19 100 8 0.020298
5 19 100 8 0.120885
6 19 100 8 0.0243427
7 19 100 8 0.201874
8 19 100 8 0.26582
1 20 100 8 0.0295971
2 20 100 8 0.192325
3 20 100 8 0.253326
4 20 100 8 0.0276408
5 20 100 8 0.144011
6 20 100 8 0.154755
7 20 100 8 0.0157037
8 20 100 8 0.182641
1 21 100 8 0.00116711
2 21 100 8 0.00160195
3 21 100 8 0.256649
4 21 100 8 0.247783
5 21 100 8 0.329856
6 21 100 8 0.134587
7 21 100 8 0.0278091
8 21 100 8 0.000546883
2 22 100 8 9.02005e-05
3 22 100 8 0.000244221
4 22 100 8 0.0739918
5 22 100 8 0.143264
6 22 100 8 0.273825
7 22 100 8 0.165113
8 22 100 8 0.343471
2 23 100 8 1.54483e-05
3 23 100 8 0.00190354
6 23 100 8 0.526069
7 23 100 8 0.472012
5 25 100 8 1
1 0 100 9 0.0352386
2 0 100 9 0.173698
3 0 100 9 0.105394
4 0 100 9 0.15108
5 0 100 9 0.104076
6 0 100 9 0.131333
7 0 100 9 0.0921862
8 0 100 9 0.110766
9 0 100 9 0.0962286
1 1 100 9 0.541855
2 1 100 9 0.10109
3 1 100 9 0.0702198
4 1 100 9 0.0551365
5 1 100 9 0.0470343
6 1 100 9 0.0450445
7 1 100 9 0.0402846
8 1 100 9 0.0521419
9 1 100 9 0.0471933
1 2 100 9 0.138072
2 2 100 9 0.255859
3 2 100 9 0.144679
4 2 100 9 0.0932589
5 2 100 9 0.0792868
6 2 100 9 0.0650947
7 2 100 9 0.0828751
8 2 100 9 0.0768889
9 2 100 9 0.063986
1 3 100 9 0.0726616
2 3 100 9 0.118691
3 3 100 9 0.200652
4 3 100 9 0.141177
5 3 100 9 0.113529
6 3 100 9 0.091762
7 3 100 9 0.0960144
8 3 100 9 0.0847481
9 3 100 9 0.0807647
1 4 100 9 0.048493
2 4 100 9 0.0843441
3 4 100 9 0.132325
4 4 100 9 0.150263
5 4 100 9 0.150172
6 4 100 9 0.127583
7 4 100 9 0.117025
8 4 100 9 0.099112
9 4 100 9 0.090683
1 5 100 9 0.0298299
2 5 100 9 0.0641941
3 5 100 9 0.0990266
4 5 100 9 0.133524
5 5 100 9 0.164034
6 5 100 9 0.156617
7 5 100 9 0.143547
8 5 100 9 0.10289
9 5 100 9 0.106338
1 6 100 9 0.0324049
2 6 100 9 0.0595862
3 6 100 9 0.0943674
4 6 100 9 0.106287
5 6 100 9 0.13562
6 6 100 9 0.145195
7 6 100 9 0.147008
8 6 100 9 0.143469
9 6 100 9 0.136062
1 7 100 9 0.0415463
2 7 100 9 0.0570661
3 7 100 9 0.0706291
4 7 100 9 0.0872761
5 7 100 9 0.11923
6 7 100 9 0.138461
7 7 100 9 0.164235
8 7 100 9 0.160873
9 7 100 9 0.160683
1 8 100 9 0.0430252
2 8 100 9 0.0668389
3 8 100 9 0.0572578
4 8 100 9 0.0782995
5 8 100 9 0.10773
6 8 100 9 0.122966
7 8 100 9 0.148074
8 8 100 9 0.181688
9 8 100 9 0.194121
1 9 100 9 0.0292881
2 9 100 9 0.0432104
3 9 100 9 0.0807341
4 9 100 9 0.0760945
5 9 100 9 0.108768
6 9 100 9 0.126626
7 9 100 9 0.145395
8 9 100 9 0.181172
9 9 100 9 0.208712
1 10 100 9 0.0487211
2 10 100 9 0.061738
3 10 100 9 0.0953995
4 10 100 9 0.0978136
5 10 100 9 0.095144
6 10 100 9 0.100264
7 10 100 9 0.130345
8 10 100 9 0.16103
9 10 100 9 0.209545
1 11 100 9 0.0420562
2 11 100 9 0.072783
3 11 100 9 0.0833775
4 11 100 9 0.0791764
5 11 100 9 0.0810102
6 11 100 9 0.121907
7 11 100 9 0.125222
8 11 100 9 0.165623
9 11 100 9 0.228844
1 12 100 9 0.0388466
2 12 100 9 0.0693068
3 12 100 9 0.0970916
4 12 100 9 0.107595
5 12 100 9 0.119729
6 12 100 9 0.107154
7 12 100 9 0.108587
8 12 100 9 0.150413
9 12 100 9 0.201277
1 13 100 9 0.0468405
2 13 100 9 0.0659206
3 13 100 9 0.0837686
4 13 100 9 0.0805028
5 13 100 9 0.121886
6 13 100 9 0.128818
7 13 100 9 0.148443
8 13 100 9 0.136146
9 13 100 9 0.187675
1 14 100 9 0.0616396
2 14 100 9 0.078128
3 14 100 9 0.0585037
4 14 100 9 0.0943942
5 14 100 9 0.11726
6 14 100 9 0.103268
7 14 100 9 0.123852
8 14 100 9 0.158348
9 14 100 9 0.204606
1 15 100 9 0.0720838
2 15 100 9 0.10741
3 15 100 9 0.143285
4 15 100 9 0.0932556
5 15 100 9 0.0994423
6 15 100 9 0.084566
7 15 100 9 0.153573
8 15 100 9 0.118203
9 15 100 9 0.12818
1 16 100 9 0.00111397
2 16 100 9 0.0427493
3 16 100 9 0.0360109
4 16 100 9 0.105383
5 16 100 9 0.0797454
6 16 100 9 0.0959375
7 16 100 9 0.128197
8 16 100 9 0.14446
9 16 100 9 0.366403
1 17 100 9 0.0394865
2 17 100 9 0.0363214
3 17 100 9 0.0766946
4 17 100 9 0.0953915
5 17 100 9 0.129787
6 17 100 9 0.17988
7 17 100 9 0.197607
8 17 100 9 0.12011
9 17 100 9 0.124721
1 18 100 9 0.00162958
2 18 100 9 0.0209989
3 18 100 9 0.05748
4 18 100 9 0.11043
5 18 100 9 0.268547
6 18 100 9 0.168303
7 18 100 9 0.164758
8 18 100 9 0.164862
9 18 100 9 0.0429911
1 19 100 9 0.0289128
2 19 100 9 5.49116e-05
3 19 100 9 1.92064e-05
4 19 100 9 0.117116
5 19 100 9 0.25264
6 19 100 9 0.226633
7 19 100 9 0.0897634
8 19 100 9 0.10227
9 19 100 9 0.18259
1 20 100 9 0.000997364
2 20 100 9 0.116328
3 20 100 9 5.1221e-05
4 20 100 9 0.000534059
5 20 100 9 0.00893626
6 20 100 9 0.276021
7 20 100 9 0.0669588
8 20 100 9 0.483652
9 20 100 9 0.0465224
1 21 100 9 0.26802
2 21 100 9 0.0227329
3 21 100 9 0.102436
4 21 100 9 0.0225149
5 21 100 9 0.0271754
6 21 100 9 0.147871
7 21 100 9 0.212437
8 21 100 9 0.0493146
9 21 100 9 0.147498
2 22 100 9 0.000137064
3 22 100 9 1.43254e-05
4 22 100 9 0.0138354
5 22 100 9 0.000290271
6 22 100 9 1.90253e-05
7 22 100 9 0.000508891
8 22 100 9 0.474717
9 22 100 9 0.510478
3 24 100 9 7.44398e-05
4 24 100 9 0.999926
1 0 100 10 0.0343945
2 0 100 10 0.159119
3 0 100 10 0.102096
4 0 100 10 0.128954
5 0 100 10 0.107552
6 0 100 10 0.115032
7 0 100 10 0.0952251
8 0 100 10 0.082139
9 0 100 10 0.0897151
10 0 100 10 0.0857714
1 1 100 10 0.498015
2 1 100 10 0.1166
3 1 100 10 0.0755201
4 1 100 10 0.0605221
5 1 100 10 0.0513626
6 1 100 10 0.0440164
7 1 100 10 0.040249
8 1 100 10 0.0377323
9 1 100 10 0.0414021
10 1 100 10 0.0345801
1 2 100 10 0.144312
2 2 100 10 0.230618
3 2 100 10 0.145165
4 2 100 10 0.0931274
5 2 100 10 0.0684136
6 2 100 10 0.0636613
7 2 100 10 0.0627161
8 2 100 10 0.0721491
9 2 100 10 0.0630484
10 2 100 10 0.0567897
1 3 100 10 0.0649383
2 3 100 10 0.112439
3 3 100 10 0.197829
4 3 100 10 0.142895
5 3 100 10 0.104752
6 3 100 10 0.0896395
7 3 100 10 0.0782872
8 3 100 10 0.0793755
9 3 100 10 0.0706344
10 3 100 10 0.0592097
1 4 100 10 0.04921
2 4 100 10 0.0743434
3 4 100 10 0.115227
4 4 100 10 0.149914
5 4 100 10 0.139478
6 4 100 10 0.112295
7 4 100 10 0.114405
8 4 100 10 0.0913159
9 4 100 10 0.0779249
10 4 100 10 0.0758876
1 5 100 10 0.0472399
2 5 100 10 0.0597885
3 5 100 10 0.08561
4 5 100 10 0.0968763
5 5 100 10 0.148159
6 5 100 10 0.142536
7 5 100 10 0.132968
8 5 100 10 0.105626
9 5 100 10 0.0958125
10 5 100 10 0.0853827
1 6 100 10 0.031404
2 6 100 10 0.0466445
3 6 100 10 0.0797108
4 6 100 10 0.0858388
5 6 100 10 0.11839
6 6 100 10 0.138782
7 6 100 10 0.128302
8 6 100 10 0.134499
9 6 100 10 0.115787
10 6 100 10 0.120642
1 7 100 10 0.0335021
2 7 100 10 0.0444236
3 7 100 10 0.0586095
4 7 100 10 0.0802359
5 7 100 10 0.0922262
6 7 100 10 0.119363
7 7 100 10 0.147646
8 7 100 10 0.141408
9 7 100 10 0.141752
10 7 100 10 0.140834
1 8 100 10 0.0239264
2 8 100 10 0.0554977
3 8 100 10 0.0586884
4 8 100 10 0.06801
5 8 100 10 0.090524
6 8 100 10 0.0946288
7 8 100 10 0.120542
8 8 100 10 0.163742
9 8 100 10 0.159246
10 8 100 10 0.165194
1 9 100 10 0.0214971
2 9 100 10 0.0399911
3 9 100 10 0.0565856
4 9 100 10 0.0664546
5 9 100 10 0.0791105
6 9 100 10 0.0861843
7 9 100 10 0.109499
8 9 100 10 0.142583
9 9 100 10 0.204807
10 9 100 10 0.193288
1 10 100 10 0.0356237
2 10 100 10 0.0464229
3 10 100 10 0.0451047
4 10 100 10 0.0719906
5 10 100 10 0.0777887
6 10 100 10 0.0862322
7 10 100 10 0.0878718
8 10 100 10 0.144341
9 10 100 10 0.168271
10 10 100 10 0.236353
1 11 100 10 0.0255346
2 11 100 10 0.0672017
3 11 100 10 0.0552915
4 11 100 10 0.0698586
5 11 100 10 0.0853276
6 11 100 10 0.0859754
7 11 100 10 0.115959
8 11 100 10 0.125521
9 11 100 10 0.146398
10 11 100 10 0.222933
1 12 100 10 0.0397506
2 12 100 10 0.0554357
3 12 100 10 0.0847132
4 12 100 10 0.0836202
5 12 100 10 0.0760663
6 12 100 10 0.109882
7 12 100 10 0.121232
8 12 100 10 0.120504
9 12 100 10 0.147145
10 12 100 10 0.16165
1 13 100 10 0.0345336
2 13 100 10 0.0288416
3 13 100 10 0.0773667
4 13 100 10 0.104393
5 13 100 10 0.124881
6 13 100 10 0.111171
7 13 100 10 0.106365
8 13 100 10 0.119291
9 13 100 10 0.131025
10 13 100 10 0.162132
1 14 100 10 0.0716958
2 14 100 10 0.0947323
3 14 100 10 0.0696576
4 14 100 10 0.037234
5 14 100 10 0.0572418
6 14 100 10 0.0893185
7 14 100 10 0.111916
8 14 100 10 0.135673
9 14 100 10 0.181856
10 14 100 10 0.150675
1 15 100 10 0.0407715
2 15 100 10 0.0453602
3 15 100 10 0.0279059
4 15 100 10 0.0771796
5 15 100 10 0.111782
6 15 100 10 0.100349
7 15 100 10 0.135061
8 15 100 10 0.0950903
9 15 100 10 0.149065
10 15 100 10 0.217435
1 16 100 10 0.0791122
2 16 100 10 0.0906714
3 16 100 10 0.0731857
4 16 100 10 0.0659007
5 16 100 10 0.0722476
6 16 100 10 0.0867807
7 16 100 10 0.131378
8 16 100 10 0.0786111
9 16 100 10 0.135782
10 16 100 10 0.186331
1 17 100 10 0.000560498
2 17 100 10 0.0248129
3 17 100 10 0.183291
4 17 100 10 0.139739
5 17 100 10 0.0966536
6 17 100 10 0.173802
7 17 100 10 0.167738
8 17 100 10 0.0230483
9 17 100 10 0.0980564
10 17 100 10 0.092299
1 18 100 10 0.00537531
2 18 100 10 0.0514786
3 18 100 10 0.152523
4 18 100 10 0.184832
5 18 100 10 0.127176
6 18 100 10 0.0733142
7 18 100 10 0.0764779
8 18 100 10 0.138383
9 18 100 10 0.109046
10 18 100 10 0.0813946
1 19 100 10 7.72347e-05
2 19 100 10 0.0085859
3 19 100 10 0.0374733
4 19 100 10 0.0300951
5 19 100 10 0.151846
6 19 100 10 0.237103
7 19 100 10 0.0604967
8 19 100 10 0.145448
9 19 100 10 0.121308
10 19 100 10 0.207566
1 20 100 10 0.000952028
2 20 100 10 0.0021277
3 20 100 10 9.40792e-05
4 20 100 10 0.0497728
5 20 100 10 0.170918
6 20 100 10 0.0976278
7 20 100 10 0.266281
8 20 100 10 0.136088
9 20 100 10 0.157634
10 20 100 10 0.118506
1 21 100 10 0.0118514
2 21 100 10 0.298953
3 21 100 10 0.000106705
4 21 100 10 0.000153751
5 21 100 10 0.00986865
6 21 100 10 0.67758
7 21 100 10 0.000726852
8 21 100 10 0.000746799
9 21 100 10 1.28038e-05
1 22 100 10 8.29814e-05
2 22 100 10 2.37121e-05
3 22 100 10 0.496283
4 22 100 10 0.00142019
6 22 100 10 1.36775e-05
7 22 100 10 0.502143
8 22 100 10 3.27589e-05
2 23 100 10 0.406578
5 23 100 10 0.0823326
6 23 100 10 0.329924
8 23 100 10 0.179689
9 23 100 10 0.00147657
4 24 100 10 0.0122652
8 24 100 10 0.987735
5 25 100 10 0.480953
6 25 100 10 0.000710586
8 25 100 10 0.518336
1 0 100 11 0.0274401
2 0 100 11 0.12661
3 0 100 11 0.0844324
4 0 100 11 0.122659
5 0 100 11 0.103471
6 0 100 11 0.115224
7 0 100 11 0.0845319
8 0 100 11 0.0960663
9 0 100 11 0.0766002
10 0 100 11 0.0858488
11 0 100 11 0.0771161
1 1 100 11 0.506102
2 1 100 11 0.109279
3 1 100 11 0.0651078
4 1 100 11 0.0556898
5 1 100 11 0.0484737
6 1 100 11 0.04652
7 1 100 11 0.0366746
8 1 100 11 0.0400265
9 1 100 11 0.032114
10 1 100 11 0.0283339
11 1 100 11 0.0316796
1 2 100 11 0.142097
2 2 100 11 0.241603
3 2 100 11 0.13459
4 2 100 11 0.0732968
5 2 100 11 0.0616529
6 2 100 11 0.0539211
7 2 100 11 0.0573778
8 2 100 11 0.0543532
9 2 100 11 0.0710311
10 2 100 11 0.0610489
11 2 100 11 0.049029
1 3 100 11 0.0796512
2 3 100 11 0.110537
3 3 100 11 0.182873
4 3 100 11 0.123581
5 3 100 11 0.103799
6 3 100 11 0.0732672
7 3 100 11 0.0683328
8 3 100 11 0.0666671
9 3 100 11 0.0678327
10 3 100 11 0.0638639
11 3 100 11 0.0595942
1 4 100 11 0.0442226
2 4 100 11 0.0754268
3 4 100 11 0.118494
4 4 100 11 0.145313
5 4 100 11 0.129042
6 4 100 11 0.107933
7 4 100 11 0.0934098
8 4 100 11 0.093058
9 4 100 11 0.0664049
10 4 100 11 0.0649407
11 4 100 11 0.0617545
1 5 100 11 0.032342
2 5 100 11 0.0594266
3 5 100 11 0.0936198
4 5 100 11 0.11414
5 5 100 11 0.129958
6 5 100 11 0.116289
7 5 100 11 0.118909
8 5 100 11 0.0983501
9 5 100 11 0.0936147
10 5 100 11 0.073807
11 5 100 11 0.0695443
1 6 100 11 0.02912
2 6 100 11 0.0417867
3 6 100 11 0.0775505
4 6 100 11 0.0812615
5 6 100 11 0.112503
6 6 100 11 0.129849
7 6 100 11 0.121223
8 6 100 11 0.103351
9 6 100 11 0.117272
10 6 100 11 0.088613
11 6 100 11 0.0974712
1 7 100 11 0.0282975
2 7 100 11 0.0349831
3 7 100 11 0.0587831
4 7 100 11 0.0571663
5 7 100 11 0.0778293
6 7 100 11 0.112652
7 7 100 11 0.136362
8 7 100 11 0.120183
9 7 100 11 0.116877
10 7 100 11 0.131501
11 7 100 11 0.125365
1 8 100 11 0.0214627
2 8 100 11 0.0378008
3 8 100 11 0.0445589
4 8 100 11 0.0644281
5 8 100 11 0.074674
6 8 100 11 0.0830599
7 8 100 11 0.12032
8 8 100 11 0.12994
9 8 100 11 0.136696
10 8 100 11 0.140873
11 8 100 11 0.146187
1 9 100 11 0.0266439
2 9 100 11 0.0458127
3 9 100 11 0.049643
4 9 100 11 0.0569122
5 9 100 11 0.0689775
6 9 100 11 0.085608
7 9 100 11 0.103262
8 9 100 11 0.115796
9 9 100 11 0.132192
10 9 100 11 0.162136
11 9 100 11 0.153016
1 10 100 11 0.017656
2 10 100 11 0.0497251
3 10 100 11 0.0497122
4 10 100 11 0.0719749
5 10 100 11 0.0667252
6 10 100 11 0.0694235
7 10 100 11 0.0837128
8 10 100 11 0.119318
9 10 100 11 0.148599
10 10 100 11 0.138355
11 10 100 11 0.184798
1 11 100 11 0.00715588
2 11 100 11 0.0459068
3 11 100 11 0.0392023
4 11 100 11 0.0538255
5 11 100 11 0.0721749
6 11 100 11 0.0600862
7 11 100 11 0.0971644
8 11 100 11 0.122239
9 11 100 11 0.128672
10 11 100 11 0.198168
11 11 100 11 0.175405
1 12 100 11 0.0253222
2 12 100 11 0.0370445
3 12 100 11 0.0506914
4 12 100 11 0.0483379
5 12 100 11 0.0637583
6 12 100 11 0.0660039
7 12 100 11 0.0768812
8 12 100 11 0.12326
9 12 100 11 0.147919
10 12 100 11 0.165154
11 12 100 11 0.195627
1 13 100 11 0.0141972
2 13 100 11 0.0501634
3 13 100 11 0.0626305
4 13 100 11 0.0836856
5 13 100 11 0.0912125
6 13 100 11 0.0931422
7 13 100 11 0.116202
8 13 100 11 0.0911363
9 13 100 11 0.111914
10 13 100 11 0.122997
11 13 100 11 0.162719
1 14 100 11 0.0251179
2 14 100 11 0.0563495
3 14 100 11 0.0433309
4 14 100 11 0.0395762
5 14 100 11 0.0732401
6 14 100 11 0.097099
7 14 100 11 0.117438
8 14 100 11 0.0864018
9 14 100 11 0.122121
10 14 100 11 0.16859
11 14 100 11 0.170735
1 15 100 11 0.038617
2 15 100 11 0.0376337
3 15 100 11 0.0685086
4 15 100 11 0.0768368
5 15 100 11 0.0738817
6 15 100 11 0.101898
7 15 100 11 0.100986
8 15 100 11 0.106651
9 15 100 11 0.0887344
10 15 100 11 0.11181
11 15 100 11 0.194442
1 16 100 11 0.01979
2 16 100 11 0.0227842
3 16 100 11 0.0444647
4 16 100 11 0.0724004
5 16 100 11 0.0609626
6 16 100 11 0.111204
7 16 100 11 0.101578
8 16 100 11 0.135562
9 16 100 11 0.125652
10 16 100 11 0.143706
11 16 100 11 0.161896
1 17 100 11 0.00011051
2 17 100 11 0.0335792
3 17 100 11 0.0829144
4 17 100 11 0.0423068
5 17 100 11 0.0442986
6 17 100 11 0.0933063
7 17 100 11 0.105274
8 17 100 11 0.127392
9 17 100 11 0.228636
10 17 100 11 0.0329688
11 17 100 11 0.209214
1 18 100 11 0.0171954
2 18 100 11 0.0049546
3 18 100 11 0.0351571
4 18 100 11 0.0447046
5 18 100 11 0.0545703
6 18 100 11 0.0994115
7 18 100 11 0.0887077
8 18 100 11 0.114558
9 18 100 11 0.138711
10 18 100 11 0.232732
11 18 100 11 0.169298
1 19 100 11 0.000453219
2 19 100 11 2.24172e-05
3 19 100 11 0.00329624
4 19 100 11 0.127132
5 19 100 11 0.128437
6 19 100 11 0.03136
7 19 100 11 0.127403
8 19 100 11 0.0404408
9 19 100 11 0.130842
10 19 100 11 0.00168252
11 19 100 11 0.40893
1 20 100 11 0.000891032
2 20 100 11 0.903214
3 20 100 11 0.00104796
4 20 100 11 0.00349303
5 20 100 11 0.000152251
6 20 100 11 0.0117595
7 20 100 11 0.0121312
8 20 100 11 7.1667e-06
9 20 100 11 0.0563164
10 20 100 11 0.0108762
11 20 100 11 0.000110771
3 21 100 11 8.22127e-05
4 21 100 11 0.419784
7 21 100 11 6.60012e-06
10 21 100 11 0.580115
11 21 100 11 1.13878e-05
3 22 100 11 4.57954e-05
4 22 100 11 0.181867
5 22 100 11 0.818084
8 22 100 11 3.53243e-06
3 23 100 11 0.000461322
4 23 100 11 0.0142949
7 23 100 11 0.000896311
9 23 100 11 0.984347
1 0 100 12 0.0290931
2 0 100 12 0.117606
3 0 100 12 0.0838768
4 0 100 12 0.11351
5 0 100 12 0.0917082
6 0 100 12 0.102036
7 0 100 12 0.0900857
8 0 100 12 0.0748982
9 0 100 12 0.0795071
10 0 100 12 0.0728775
11 0 100 12 0.0765087
12 0 100 12 0.0682931
1 1 100 12 0.46769
2 1 100 12 0.106805
3 1 100 12 0.0760028
4 1 100 12 0.0544474
5 1 100 12 0.0393955
6 1 100 12 0.0434741
7 1 100 12 0.0340317
8 1 100 12 0.0432409
9 1 100 12 0.0370745
10 1 100 12 0.0333817
11 1 100 12 0.0282657
12 1 100 12 0.0361905
1 2 100 12 0.125388
2 2 100 12 0.209716
3 2 100 12 0.143233
4 2 100 12 0.0845998
5 2 100 12 0.0747854
6 2 100 12 0.0468852
7 2 100 12 0.048818
8 2 100 12 0.041589
9 2 100 12 0.0452638
10 2 100 12 0.0622946
11 2 100 12 0.061875
12 2 100 12 0.0555527
1 3 100 12 0.0690573
2 3 100 12 0.112438
3 3 100 12 0.167738
4 3 100 12 0.118371
5 3 100 12 0.0969107
6 3 100 12 0.0795996
7 3 100 12 0.0586229
8 3 100 12 0.0633596
9 3 100 12 0.0643099
10 3 100 12 0.0645304
11 3 100 12 0.0566445
12 3 100 12 0.0484182
1 4 100 12 0.0534793
2 4 100 12 0.0770126
3 4 100 12 0.107656
4 4 100 12 0.114983
5 4 100 12 0.122717
6 4 100 12 0.110255
7 4 100 12 0.0919529
8 4 100 12 0.0860263
9 4 100 12 0.0787897
10 4 100 12 0.0552187
11 4 100 12 0.04874
12 4 100 12 0.0531694
1 5 100 12 0.0472455
2 5 100 12 0.0505109
3 5 100 12 0.0724628
4 5 100 12 0.102115
5 5 100 12 0.115478
6 5 100 12 0.114324
7 5 100 12 0.113407
8 5 100 12 0.0938659
9 5 100 12 0.0763035
10 5 100 12 0.0793372
11 5 100 12 0.067091
12 5 100 12 0.0678591
1 6 100 12 0.0255042
2 6 100 12 0.0514398
3 6 100 12 0.0657262
4 6 100 12 0.0886226
5 6 100 12 0.0840362
6 6 100 12 0.109599
7 6 100 12 0.128231
8 6 100 12 0.119716
9 6 100 12 0.10088
10 6 100 12 0.0800724
11 6 100 12 0.0830463
12 6 100 12 0.0631266
1 7 100 12 0.0294971
2 7 100 12 0.0367099
3 7 100 12 0.0539419
4 7 100 12 0.0578138
5 7 100 12 0.0931497
6 7 100 12 0.0880584
7 7 100 12 0.111269
8 7 100 12 0.10907
9 7 100 12 0.106514
10 7 100 12 0.115373
11 7 100 12 0.0929512
12 7 100 12 0.105652
1 8 100 12 0.0239805
2 8 100 12 0.0279967
3 8 100 12 0.0490091
4 8 100 12 0.0515055
5 8 100 12 0.0726399
6 8 100 12 0.094527
7 8 100 12 0.082888
8 8 100 12 0.139025
9 8 100 12 0.111828
10 8 100 12 0.118509
11 8 100 12 0.119226
12 8 100 12 0.108866
1 9 100 12 0.017606
2 9 100 12 0.0342973
3 9 100 12 0.023667
4 9 100 12 0.055811
5 9 100 12 0.0672169
6 9 100 12 0.0707851
7 9 100 12 0.0928856
8 9 100 12 0.097689
9 9 100 12 0.133674
10 9 100 12 0.133771
11 9 100 12 0.123549
12 9 100 12 0.149048
1 10 100 12 0.0191427
2 10 100 12 0.0290627
3 10 100 12 0.0343716
4 10 100 12 0.0422416
5 10 100 12 0.0613215
6 10 100 12 0.056232
7 10 100 12 0.093583
8 10 100 12 0.0916735
9 10 100 12 0.129198
10 10 100 12 0.132756
11 10 100 12 0.150105
12 10 100 12 0.160312
1 11 100 12 0.0218326
2 11 100 12 0.0339346
3 11 100 12 0.042958
4 11 100 12 0.0556388
5 11 100 12 0.0545617
6 11 100 12 0.0673695
7 11 100 12 0.0817531
8 11 100 12 0.0688745
9 11 100 12 0.113505
10 11 100 12 0.126093
11 11 100 12 0.17665
12 11 100 12 0.156829
1 12 100 12 0.0202548
2 12 100 12 0.0231518
3 12 100 12 0.034233
4 12 100 12 0.0448119
5 12 100 12 0.0591619
6 12 100 12 0.0631025
7 12 100 12 0.0669245
8 12 100 12 0.0981478
9 12 100 12 0.120691
10 12 100 12 0.129373
11 12 100 12 0.168179
12 12 100 12 0.17197
1 13 100 12 0.0126328
2 13 100 12 0.0400975
3 13 100 12 0.0600037
4 13 100 12 0.0614764
5 13 100 12 0.0394391
6 13 100 12 0.0957235
7 13 100 12 0.0786084
8 13 100 12 0.0490412
9 13 100 12 0.0793055
10 13 100 12 0.145552
11 13 100 12 0.151549
12 13 100 12 0.186571
1 14 100 12 0.0514464
2 14 100 12 0.0309932
3 14 100 12 0.0388188
4 14 100 12 0.0451899
5 14 100 12 0.0665473
6 14 100 12 0.0481413
7 14 100 12 0.066848
8 14 100 12 0.125712
9 14 100 12 0.0882236
10 14 100 12 0.107588
11 14 100 12 0.143358
12 14 100 12 0.187134
1 15 100 12 0.0317593
2 15 100 12 0.042209
3 15 100 12 0.0736813
4 15 100 12 0.052756
5 15 100 12 0.0787053
6 15 100 12 0.0616118
7 15 100 12 0.0795079
8 15 100 12 0.108044
9 15 100 12 0.0875989
10 15 100 12 0.119959
11 15 100 12 0.0911236
12 15 100 12 0.173044
1 16 100 12 0.00601153
2 16 100 12 0.0654125
3 16 100 12 0.0433193
4 16 100 12 0.0799247
5 16 100 12 0.0677136
6 16 100 12 0.05131
7 16 100 12 0.0477947
8 16 100 12 0.0383295
9 16 100 12 0.0780145
10 16 100 12 0.0362676
11 16 100 12 0.288084
12 16 100 12 0.197818
1 17 100 12 0.0188387
2 17 100 12 0.0223521
3 17 100 12 0.0439866
4 17 100 12 0.0814873
5 17 100 12 0.102439
6 17 100 12 0.0522231
7 17 100 12 0.092354
8 17 100 12 0.103759
9 17 100 12 0.112044
10 17 100 12 0.107802
11 17 100 12 0.0805682
12 17 100 12 0.182146
1 18 100 12 0.00600329
2 18 100 12 0.0257389
3 18 100 12 0.0673293
4 18 100 12 0.0890114
5 18 100 12 0.112046
6 18 100 12 0.10996
7 18 100 12 0.0452319
8 18 100 12 0.0688614
9 18 100 12 0.132267
10 18 100 12 0.086648
11 18 100 12 0.0842823
12 18 100 12 0.172621
1 19 100 12 8.66887e-06
2 19 100 12 0.000125149
3 19 100 12 0.000260369
4 19 100 12 0.0557558
5 19 100 12 0.0389256
6 19 100 12 0.13977
7 19 100 12 0.211877
8 19 100 12 0.145393
9 19 100 12 0.0130786
10 19 100 12 0.00379397
11 19 100 12 0.150702
12 19 100 12 0.24031
1 20 100 12 0.000928017
2 20 100 12 0.0994244
3 20 100 12 0.016736
4 20 100 12 0.0518809
5 20 100 12 0.000879227
6 20 100 12 0.0016583
7 20 100 12 0.000733351
8 20 100 12 0.167339
9 20 100 12 0.11762
10 20 100 12 0.23927
11 20 100 12 0.225916
12 20 100 12 0.0776137
1 21 100 12 0.000541572
4 21 100 12 0.0146868
5 21 100 12 0.00353761
6 21 100 12 0.220288
7 21 100 12 0.235531
8 21 100 12 0.235736
9 21 100 12 0.0623505
10 21 100 12 0.222182
11 21 100 12 0.0029885
12 21 100 12 0.00215788
3 22 100 12 1.23447e-05
4 22 100 12 0.000868432
5 22 100 12 0.079966
6 22 100 12 0.131319
7 22 100 12 0.131319
8 22 100 12 0.131319
9 22 100 12 0.131319
10 22 100 12 0.131319
11 22 100 12 0.131242
12 22 100 12 0.131315
1 0 100 13 0.0219317
2 0 100 13 0.106054
3 0 100 13 0.0755086
4 0 100 13 0.103385
5 0 100 13 0.0956758
6 0 100 13 0.0912633
7 0 100 13 0.0734048
8 0 100 13 0.0874859
9 0 100 13 0.0718704
10 0 100 13 0.0712094
11 0 100 13 0.0673968
12 0 100 13 0.0761354
13 0 100 13 0.0586791
1 1 100 13 0.482339
2 1 100 13 0.108018
3 1 100 13 0.052076
4 1 100 13 0.0424589
5 1 100 13 0.0389866
6 1 100 13 0.0401238
7 1 100 13 0.037328
8 1 100 13 0.0488087
9 1 100 13 0.038564
10 1 100 13 0.0367569
11 1 100 13 0.0238782
12 1 100 13 0.0266201
13 1 100 13 0.0240413
1 2 100 13 0.113465
2 2 100 13 0.228625
3 2 100 13 0.151668
4 2 100 13 0.0813659
5 2 100 13 0.0571989
6 2 100 13 0.0439827
7 2 100 13 0.0510753
8 2 100 13 0.036859
9 2 100 13 0.0351119
10 2 100 13 0.0444971
11 2 100 13 0.0607803
12 2 100 13 0.0489604
13 2 100 13 0.0464102
1 3 100 13 0.0654601
2 3 100 13 0.0952679
3 3 100 13 0.169947
4 3 100 13 0.117598
5 3 100 13 0.117085
6 3 100 13 0.0823613
7 3 100 13 0.061213
8 3 100 13 0.0371672
9 3 100 13 0.0538746
10 3 100 13 0.0559126
11 3 100 13 0.0599976
12 3 100 13 0.0496343
13 3 100 13 0.0344805
1 4 100 13 0.0487051
2 4 100 13 0.0551936
3 4 100 13 0.112161
4 4 100 13 0.137983
5 4 100 13 0.112568
6 4 100 13 0.103113
7 4 100 13 0.0943025
8 4 100 13 0.0778217
9 4 100 13 0.068275
10 4 100 13 0.0501352
11 4 100 13 0.0427006
12 4 100 13 0.0451691
13 4 100 13 0.0518732
1 5 100 13 0.0265543
2 5 100 13 0.0526717
3 5 100 13 0.0675848
4 5 100 13 0.0939379
5 5 100 13 0.101187
6 5 100 13 0.109818
7 5 100 13 0.102418
8 5 100 13 0.0926049
9 5 100 13 0.0863543
10 5 100 13 0.0695747
11 5 100 13 0.0669575
12 5 100 13 0.0759816
13 5 100 13 0.0543558
1 6 100 13 0.0305738
2 6 100 13 0.0483001
3 6 100 13 0.055041
4 6 100 13 0.0593198
5 6 100 13 0.099756
6 6 100 13 0.101682
7 6 100 13 0.11463
8 6 100 13 0.108807
9 6 100 13 0.0891384
10 6 100 13 0.0798858
11 6 100 13 0.0856335
12 6 100 13 0.0606191
13 6 100 13 0.0666139
1 7 100 13 0.0238004
2 7 100 13 0.0351723
3 7 100 13 0.0537036
4 7 100 13 0.0502267
5 7 100 13 0.0466131
6 7 100 13 0.0929348
7 7 100 13 0.0991806
8 7 100 13 0.0938572
9 7 100 13 0.10445
10 7 100 13 0.0968164
11 7 100 13 0.0987487
12 7 100 13 0.101874
13 7 100 13 0.102623
1 8 100 13 0.0199223
2 8 100 13 0.0297434
3 8 100 13 0.0351618
4 8 100 13 0.058541
5 8 100 13 0.0637761
6 8 100 13 0.0632613
7 8 100 13 0.0916602
8 8 100 13 0.117561
9 8 100 13 0.119885
10 8 100 13 0.102774
11 8 100 13 0.0953581
12 8 100 13 0.0990184
13 8 100 13 0.103338
1 9 100 13 0.0198537
2 9 100 13 0.0213979
3 9 100 13 0.0467554
4 9 100 13 0.0632563
5 9 100 13 0.068991
6 9 100 13 0.0645323
7 9 100 13 0.0571316
8 9 100 13 0.0879639
9 9 100 13 0.11427
10 9 100 13 0.133353
11 9 100 13 0.0967753
12 9 100 13 0.105605
13 9 100 13 0.120115
1 10 100 13 0.00999534
2 10 100 13 0.0271488
3 10 100 13 0.0288311
4 10 100 13 0.0302901
5 10 100 13 0.0621366
6 10 100 13 0.0504389
7 10 100 13 0.0785286
8 10 100 13 0.0891796
9 10 100 13 0.108942
10 10 100 13 0.133146
11 10 100 13 0.129154
12 10 100 13 0.122929
13 10 100 13 0.129281
1 11 100 13 0.015243
2 11 100 13 0.0239448
3 11 100 13 0.0266676
4 11 100 13 0.0264953
5 11 100 13 0.032014
6 11 100 13 0.0454833
7 11 100 13 0.0794519
8 11 100 13 0.0646667
9 11 100 13 0.0994264
10 11 100 13 0.119839
11 11 100 13 0.150262
12 11 100 13 0.136818
13 11 100 13 0.179689
1 12 100 13 0.0166561
2 12 100 13 0.0181698
3 12 100 13 0.0465105
4 12 100 13 0.042704
5 12 100 13 0.0492516
6 12 100 13 0.086018
7 12 100 13 0.0679728
8 12 100 13 0.0521631
9 12 100 13 0.0483089
10 12 100 13 0.0908728
11 12 100 13 0.139439
12 12 100 13 0.158288
13 12 100 13 0.183645
1 13 100 13 0.0283213
2 13 100 13 0.0660816
3 13 100 13 0.0513234
4 13 100 13 0.0711139
5 13 100 13 0.0515839
6 13 100 13 0.0518533
7 13 100 13 0.0549698
8 13 100 13 0.0547754
9 13 100 13 0.0819808
10 13 100 13 0.0962992
11 13 100 13 0.104111
12 13 100 13 0.116334
13 13 100 13 0.171252
1 14 100 13 0.0347426
2 14 100 13 0.0390696
3 14 100 13 0.0565359
4 14 100 13 0.0547285
5 14 100 13 0.0513422
6 14 100 13 0.0562966
7 14 100 13 0.0594756
8 14 100 13 0.0346621
9 14 100 13 0.0551955
10 14 100 13 0.072906
11 14 100 13 0.131651
12 14 100 13 0.184679
13 14 100 13 0.168716
1 15 100 13 0.0485551
2 15 100 13 0.058391
3 15 100 13 0.054949
4 15 100 13 0.0464749
5 15 100 13 0.0700401
6 15 100 13 0.0953796
7 15 100 13 0.102371
8 15 100 13 0.0856352
9 15 100 13 0.0869178
10 15 100 13 0.10459
11 15 100 13 0.0747686
12 15 100 13 0.073579
13 15 100 13 0.0983489
1 16 100 13 0.0800359
2 16 100 13 0.0958117
3 16 100 13 0.0270516
4 16 100 13 0.0975799
5 16 100 13 0.0917189
6 16 100 13 0.054176
7 16 100 13 0.0357952
8 16 100 13 0.0604503
9 16 100 13 0.00324397
10 16 100 13 0.0624319
11 16 100 13 0.123777
12 16 100 13 0.118535
13 16 100 13 0.149393
1 17 100 13 0.012183
2 17 100 13 0.0333587
3 17 100 13 0.116312
4 17 100 13 0.0713026
5 17 100 13 0.0753668
6 17 100 13 0.105295
7 17 100 13 0.056105
8 17 100 13 0.114106
9 17 100 13 0.0895396
10 17 100 13 0.0846678
11 17 100 13 0.0828234
12 17 100 13 0.0492205
13 17 100 13 0.109719
1 18 100 13 4.56608e-05
2 18 100 13 0.00318673
3 18 100 13 0.10163
4 18 100 13 0.120421
5 18 100 13 0.00699571
6 18 100 13 0.000453196
7 18 100 13 0.000522403
8 18 100 13 0.149459
9 18 100 13 0.114061
10 18 100 13 0.00277864
11 18 100 13 0.0784651
12 18 100 13 0.272395
13 18 100 13 0.149586
1 19 100 13 5.97653e-05
2 19 100 13 0.0543531
3 19 100 13 0.00106038
4 19 100 13 0.000495702
5 19 100 13 0.00211657
6 19 100 13 0.0546752
7 19 100 13 0.0572835
8 19 100 13 0.111097
9 19 100 13 0.109082
10 19 100 13 0.10868
11 19 100 13 0.108731
12 19 100 13 0.165205
13 19 100 13 0.227159
1 20 100 13 0.100234
2 20 100 13 0.101653
3 20 100 13 0.108401
4 20 100 13 0.119572
5 20 100 13 0.191896
6 20 100 13 0.0933075
7 20 100 13 0.00817275
8 20 100 13 0.079695
9 20 100 13 0.0982486
10 20 100 13 0.0973774
11 20 100 13 2.92861e-05
12 20 100 13 0.00116939
13 20 100 13 0.000243494
1 21 100 13 0.000262165
2 21 100 13 2.76669e-06
3 21 100 13 0.000313036
5 21 100 13 1.38882e-05
7 21 100 13 1.32349e-05
8 21 100 13 0.00134073
9 21 100 13 0.00100721
11 21 100 13 0.99677
12 21 100 13 8.01739e-05
13 21 100 13 0.000196446
1 22 100 13 0.015413
3 22 100 13 0.000542912
4 22 100 13 0.000252531
5 22 100 13 0.000689705
7 22 100 13 0.00144035
8 22 100 13 0.00143837
9 22 100 13 0.417557
10 22 100 13 0.247523
11 22 100 13 0.00618327
12 22 100 13 0.00146903
13 22 100 13 0.307492
2 23 100 13 3.57896e-05
11 23 100 13 0.0421363
12 23 100 13 0.957709
13 23 100 13 0.000119498
2 24 100 13 0.4953
3 24 100 13 7.16387e-05
4 24 100 13 0.498373
5 24 100 13 0.00177656
6 24 100 13 0.00429945
7 24 100 13 2.32251e-05
8 24 100 13 0.000120857
9 24 100 13 2.32251e-05
10 24 100 13 1.21268e-05
2 26 100 13 0.505786
4 26 100 13 0.494214
1 0 100 14 0.0232318
2 0 100 14 0.0920317
3 0 100 14 0.0669919
4 0 100 14 0.096047
5 0 100 14 0.0727274
6 0 100 14 0.0988269
7 0 100 14 0.0653149
8 0 100 14 0.0870803
9 0 100 14 0.0768188
10 0 100 14 0.0648626
11 0 100 14 0.0719806
12 0 100 14 0.0580741
13 0 100 14 0.0723042
14 0 100 14 0.0537078
1 1 100 14 0.42223
2 1 100 14 0.0868535
3 1 100 14 0.0721367
4 1 100 14 0.0532667
5 1 100 14 0.0636558
6 1 100 14 0.0415959
7 1 100 14 0.0393347
8 1 100 14 0.0423085
9 1 100 14 0.0412611
10 1 100 14 0.032102
11 1 100 14 0.0233581
12 1 100 14 0.0339874
13 1 100 14 0.0253804
14 1 100 14 0.0225297
1 2 100 14 0.122676
2 2 100 14 0.219476
3 2 100 14 0.123622
4 2 100 14 0.0965474
5 2 100 14 0.0734214
6 2 100 14 0.066508
7 2 100 14 0.0551525
8 2 100 14 0.046868
9 2 100 14 0.0299213
10 2 100 14 0.0282324
11 2 100 14 0.0267479
12 2 100 14 0.0479169
13 2 100 14 0.029128
14 2 100 14 0.0337834
1 3 100 14 0.0425123
2 3 100 14 0.0800489
3 3 100 14 0.16198
4 3 100 14 0.11327
5 3 100 14 0.126931
6 3 100 14 0.0617427
7 3 100 14 0.0648088
8 3 100 14 0.0604775
9 3 100 14 0.0362728
10 3 100 14 0.0423728
11 3 100 14 0.0537779
12 3 100 14 0.0587437
13 3 100 14 0.0550941
14 3 100 14 0.0419673
1 4 100 14 0.0463348
2 4 100 14 0.0752465
3 4 100 14 0.0954345
4 4 100 14 0.0949894
5 4 100 14 0.0769112
6 4 100 14 0.0977087
7 4 100 14 0.0910638
8 4 100 14 0.070236
9 4 100 14 0.0904687
10 4 100 14 0.0551221
11 4 100 14 0.0615397
12 4 100 14 0.0543089
13 4 100 14 0.0475445
14 4 100 14 0.0430913
1 5 100 14 0.03958
2 5 100 14 0.0552681
3 5 100 14 0.0715945
4 5 100 14 0.0776124
5 5 100 14 0.0935243
6 5 100 14 0.0815192
7 5 100 14 0.100561
8 5 100 14 0.0731266
9 5 100 14 0.0738465
10 5 100 14 0.0956416
11 5 100 14 0.0803132
12 5 100 14 0.0659888
13 5 100 14 0.0468447
14 5 100 14 0.0445786
1 6 100 14 0.0361402
2 6 100 14 0.0511591
3 6 100 14 0.0740417
4 6 100 14 0.0814862
5 6 100 14 0.0903313
6 6 100 14 0.0826738
7 6 100 14 0.108564
8 6 100 14 0.0926027
9 6 100 14 0.087894
10 6 100 14 0.0809089
11 6 100 14 0.0534944
12 6 100 14 0.0533701
13 6 100 14 0.0526015
14 6 100 14 0.0547322
1 7 100 14 0.0307078
2 7 100 14 0.0386659
3 7 100 14 0.0257231
4 7 100 14 0.0650077
5 7 100 14 0.0610374
6 7 100 14 0.0925001
7 7 100 14 0.0934473
8 7 100 14 0.0799752
9 7 100 14 0.106152
10 7 100 14 0.0740592
11 7 100 14 0.0962043
12 7 100 14 0.0674829
13 7 100 14 0.0850436
14 7 100 14 0.0839929
1 8 100 14 0.0143668
2 8 100 14 0.0339785
3 8 100 14 0.0361028
4 8 100 14 0.0379631
5 8 100 14 0.0617473
6 8 100 14 0.0636563
7 8 100 14 0.0759404
8 8 100 14 0.0975778
9 8 100 14 0.0708827
10 8 100 14 0.115356
11 8 100 14 0.0897076
12 8 100 14 0.100339
13 8 100 14 0.104424
14 8 100 14 0.0979573
1 9 100 14 0.0195944
2 9 100 14 0.0171861
3 9 100 14 0.0587431
4 9 100 14 0.0333688
5 9 100 14 0.0510702
6 9 100 14 0.0530483
7 9 100 14 0.0687514
8 9 100 14 0.0780749
9 9 100 14 0.0903337
10 9 100 14 0.104587
11 9 100 14 0.100088
12 9 100 14 0.100504
13 9 100 14 0.123576
14 9 100 14 0.101074
1 10 100 14 0.0294235
2 10 100 14 0.0177406
3 10 100 14 0.030734
4 10 100 14 0.0531384
5 10 100 14 0.0526559
6 10 100 14 0.053965
7 10 100 14 0.0553049
8 10 100 14 0.0779986
9 10 100 14 0.0759407
10 10 100 14 0.104647
11 10 100 14 0.107032
12 10 100 14 0.1231
13 10 100 14 0.0794528
14 10 100 14 0.138866
1 11 100 14 0.0129936
2 11 100 14 0.0260679
3 11 100 14 0.0329122
4 11 100 14 0.0312874
5 11 100 14 0.0480163
6 11 100 14 0.0309404
7 11 100 14 0.0670277
8 11 100 14 0.0552617
9 11 100 14 0.0872243
10 11 100 14 0.119734
11 11 100 14 0.116229
12 11 100 14 0.113089
13 11 100 14 0.150006
14 11 100 14 0.10921
1 12 100 14 0.0237115
2 12 100 14 0.0222705
3 12 100 14 0.0366237
4 12 100 14 0.0286668
5 12 100 14 0.0375373
6 12 100 14 0.0530534
7 12 100 14 0.0642602
8 12 100 14 0.0778405
9 12 100 14 0.0827924
10 12 100 14 0.0821502
11 12 100 14 0.109514
12 12 100 14 0.10617
13 12 100 14 0.125535
14 12 100 14 0.149875
1 13 100 14 0.02751
2 13 100 14 0.0625868
3 13 100 14 0.0348607
4 13 100 14 0.0729499
5 13 100 14 0.0397197
6 13 100 14 0.0554192
7 13 100 14 0.00645367
8 13 100 14 0.0688849
9 13 100 14 0.114533
10 13 100 14 0.0600349
11 13 100 14 0.0813756
12 13 100 14 0.107738
13 13 100 14 0.0921126
14 13 100 14 0.175821
1 14 100 14 0.0251085
2 14 100 14 0.0381254
3 14 100 14 0.0446345
4 14 100 14 0.0284342
5 14 100 14 0.045642
6 14 100 14 0.0594982
7 14 100 14 0.0787514
8 14 100 14 0.0597081
9 14 100 14 0.0730722
10 14 100 14 0.0496233
11 14 100 14 0.0966859
12 14 100 14 0.0904685
13 14 100 14 0.136787
14 14 100 14 0.173461
1 15 100 14 0.0371089
2 15 100 14 0.0921875
3 15 100 14 0.0831515
4 15 100 14 0.0699743
5 15 100 14 0.0461175
6 15 100 14 0.0962626
7 15 100 14 0.0715308
8 15 100 14 0.0540328
9 15 100 14 0.0662193
10 15 100 14 0.0682977
11 15 100 14 0.0625949
12 15 100 14 0.0795557
13 15 100 14 0.0562349
14 15 100 14 0.116732
1 16 100 14 0.00428523
2 16 100 14 0.0675099
3 16 100 14 0.0605329
4 16 100 14 0.0557255
5 16 100 14 0.0559315
6 16 100 14 0.0879983
7 16 100 14 0.0463692
8 16 100 14 0.0307838
9 16 100 14 0.0634511
10 16 100 14 0.111705
11 16 100 14 0.0823119
12 16 100 14 0.127816
13 16 100 14 0.0608518
14 16 100 14 0.144728
1 17 100 14 0.000494241
2 17 100 14 0.0420951
3 17 100 14 0.0230387
4 17 100 14 0.0217726
5 17 100 14 0.000777283
6 17 100 14 0.00723675
7 17 100 14 0.0247916
8 17 100 14 0.0951751
9 17 100 14 0.0214353
10 17 100 14 0.0218737
11 17 100 14 0.102613
12 17 100 14 0.195462
13 17 100 14 0.245597
14 17 100 14 0.197638
1 18 100 14 0.0001037
2 18 100 14 0.00545982
3 18 100 14 0.0018246
4 18 100 14 0.000429084
5 18 100 14 0.000762765
6 18 100 14 0.0681807
7 18 100 14 0.0738218
8 18 100 14 0.0740842
9 18 100 14 0.165677
10 18 100 14 0.226538
11 18 100 14 0.000853788
12 18 100 14 0.0331404
13 18 100 14 0.221643
14 18 100 14 0.127481
3 19 100 14 4.99646e-05
4 19 100 14 0.00221429
5 19 100 14 0.0885106
6 19 100 14 0.0135836
7 19 100 14 0.0656191
8 19 100 14 0.0432142
9 19 100 14 0.000457973
10 19 100 14 0.134447
11 19 100 14 0.263823
12 19 100 14 0.149174
13 19 100 14 0.127384
14 19 100 14 0.111523
1 20 100 14 5.19806e-05
2 20 100 14 8.1964e-06
3 20 100 14 0.00016252
4 20 100 14 1.7295e-05
5 20 100 14 0.000206595
6 20 100 14 0.000119392
7 20 100 14 0.00134713
8 20 100 14 5.87126e-05
9 20 100 14 2.42711e-05
10 20 100 14 0.00264
11 20 100 14 0.169694
12 20 100 14 0.221362
13 20 100 14 0.432553
14 20 100 14 0.171755
1 21 100 14 0.00302777
2 21 100 14 6.48892e-05
3 21 100 14 1.03355e-05
4 21 100 14 1.68251e-05
5 21 100 14 9.19418e-05
6 21 100 14 0.0031641
7 21 100 14 1.16894e-05
8 21 100 14 8.81903e-06
10 21 100 14 0.000147866
11 21 100 14 7.923e-05
12 21 100 14 0.0210952
13 21 100 14 0.000748128
14 21 100 14 0.971533
2 22 100 14 7.7502e-06
3 22 100 14 1.22644e-06
5 22 100 14 1.37193e-05
6 22 100 14 0.00611397
7 22 100 14 0.000907973
8 22 100 14 1.37842e-05
9 22 100 14 7.4384e-06
10 22 100 14 2.41266e-05
11 22 100 14 0.00538694
12 22 100 14 0.98752
13 22 100 14 2.93642e-06
2 23 100 14 0.000208685
4 23 100 14 0.000159404
6 23 100 14 1.72689e-05
8 23 100 14 3.23767e-05
9 23 100 14 0.001498
12 23 100 14 0.000771088
13 23 100 14 0.49544
14 23 100 14 0.501874
2 24 100 14 3.30924e-06
3 24 100 14 3.85147e-05
4 24 100 14 2.05249e-06
5 24 100 14 2.47227e-06
6 24 100 14 5.00298e-07
7 24 100 14 0.000101631
8 24 100 14 1.5533e-06
9 24 100 14 0.00275682
10 24 100 14 0.192313
11 24 100 14 0.187105
12 24 100 14 0.205823
13 24 100 14 0.205823
14 24 100 14 0.20603
5 25 100 14 0.0344882
6 25 100 14 0.854519
8 25 100 14 0.00144973
9 25 100 14 0.0381504
13 25 100 14 0.0713929
4 26 100 14 0.0812812
9 26 100 14 0.896571
14 26 100 14 0.0221482
4 27 100 14 0.0120275
9 27 100 14 0.455114
14 27 100 14 0.532859
4 28 100 14 0.117643
9 28 100 14 0.844304
11 28 100 14 0.0380529
1 0 100 15 0.0235587
2 0 100 15 0.105537
3 0 100 15 0.0722434
4 0 100 15 0.0930629
5 0 100 15 0.0628373
6 0 100 15 0.0597656
7 0 100 15 0.0677316
8 0 100 15 0.051624
9 0 100 15 0.0588608
10 0 100 15 0.0604806
11 0 100 15 0.083808
12 0 100 15 0.0531618
13 0 100 15 0.059791
14 0 100 15 0.0743589
15 0 100 15 0.0731784
1 1 100 15 0.431285
2 1 100 15 0.0832602
3 1 100 15 0.0670739
4 1 100 15 0.0554409
5 1 100 15 0.0373166
6 1 100 15 0.0428457
7 1 100 15 0.0380284
8 1 100 15 0.0367685
9 1 100 15 0.0297908
10 1 100 15 0.0268175
11 1 100 15 0.0336323
12 1 100 15 0.0478626
13 1 100 15 0.0384146
14 1 100 15 0.0149425
15 1 100 15 0.0165209
1 2 100 15 0.124374
2 2 100 15 0.257318
3 2 100 15 0.158726
4 2 100 15 0.0955789
5 2 100 15 0.0584969
6 2 100 15 0.0375824
7 2 100 15 0.0289365
8 2 100 15 0.0348056
9 2 100 15 0.0175343
10 2 100 15 0.0232317
11 2 100 15 0.0364819
12 2 100 15 0.0389548
13 2 100 15 0.0334933
14 2 100 15 0.0355909
15 2 100 15 0.0188952
1 3 100 15 0.0559086
2 3 100 15 0.0648993
3 3 100 15 0.148461
4 3 100 15 0.129578
5 3 100 15 0.13025
6 3 100 15 0.0895143
7 3 100 15 0.0459898
8 3 100 15 0.0503749
9 3 100 15 0.058478
10 3 100 15 0.0524786
11 3 100 15 0.038546
12 3 100 15 0.0448507
13 3 100 15 0.0367536
14 3 100 15 0.0329861
15 3 100 15 0.0209308
1 4 100 15 0.029416
2 4 100 15 0.0630284
3 4 100 15 0.101273
4 4 100 15 0.121281
5 4 100 15 0.133186
6 4 100 15 0.110891
7 4 100 15 0.0829679
8 4 100 15 0.0579614
9 4 100 15 0.0384449
10 4 100 15 0.0401601
11 4 100 15 0.0594303
12 4 100 15 0.0508876
13 4 100 15 0.0629474
14 4 100 15 0.0222318
15 4 100 15 0.025893
1 5 100 15 0.0248632
2 5 100 15 0.0503623
3 5 100 15 0.0781907
4 5 100 15 0.0863477
5 5 100 15 0.0986666
6 5 100 15 0.100169
7 5 100 15 0.0926952
8 5 100 15 0.104972
9 5 100 15 0.0868682
10 5 100 15 0.0556348
11 5 100 15 0.0348047
12 5 100 15 0.0386049
13 5 100 15 0.0308635
14 5 100 15 0.0652736
15 5 100 15 0.051684
1 6 100 15 0.0205685
2 6 100 15 0.0311458
3 6 100 15 0.0603339
4 6 100 15 0.0469419
5 6 100 15 0.0989675
6 6 100 15 0.11253
7 6 100 15 0.119449
8 6 100 15 0.0957196
9 6 100 15 0.096519
10 6 100 15 0.097142
11 6 100 15 0.0374464
12 6 100 15 0.0606081
13 6 100 15 0.0365878
14 6 100 15 0.0401839
15 6 100 15 0.0458569
1 7 100 15 0.0388884
2 7 100 15 0.0271331
3 7 100 15 0.0289712
4 7 100 15 0.0350025
5 7 100 15 0.0479396
6 7 100 15 0.07384
7 7 100 15 0.0970909
8 7 100 15 0.0809534
9 7 100 15 0.119006
10 7 100 15 0.0823964
11 7 100 15 0.0841769
12 7 100 15 0.091683
13 7 100 15 0.0772758
14 7 100 15 0.0527375
15 7 100 15 0.0629055
1 8 100 15 0.0128019
2 8 100 15 0.0126248
3 8 100 15 0.0324055
4 8 100 15 0.031368
5 8 100 15 0.021652
6 8 100 15 0.0703919
7 8 100 15 0.0735829
8 8 100 15 0.107136
9 8 100 15 0.108284
10 8 100 15 0.097884
11 8 100 15 0.103285
12 8 100 15 0.0952748
13 8 100 15 0.0724035
14 8 100 15 0.0707677
15 8 100 15 0.090138
1 9 100 15 0.0192756
2 9 100 15 0.0230438
3 9 100 15 0.0171714
4 9 100 15 0.0459653
5 9 100 15 0.0534913
6 9 100 15 0.0576011
7 9 100 15 0.0592423
8 9 100 15 0.0841444
9 9 100 15 0.0649119
10 9 100 15 0.096213
11 9 100 15 0.0836399
12 9 100 15 0.103654
13 9 100 15 0.101815
14 9 100 15 0.114232
15 9 100 15 0.0755985
1 10 100 15 0.0232663
2 10 100 15 0.0246712
3 10 100 15 0.0316797
4 10 100 15 0.0521406
5 10 100 15 0.0415521
6 10 100 15 0.0571599
7 10 100 15 0.065229
8 10 100 15 0.0609766
9 10 100 15 0.0832118
10 10 100 15 0.0724568
11 10 100 15 0.109645
12 10 100 15 0.101775
13 10 100 15 0.0998664
14 10 100 15 0.0953109
15 10 100 15 0.0810578
1 11 100 15 0.0197562
2 11 100 15 0.0193396
3 11 100 15 0.0139454
4 11 100 15 0.0378771
5 11 100 15 0.032861
6 11 100 15 0.0445335
7 11 100 15 0.0760155
8 11 100 15 0.0625377
9 11 100 15 0.0656488
10 11 100 15 0.101401
11 11 100 15 0.0971675
12 11 100 15 0.0729445
13 11 100 15 0.115181
14 11 100 15 0.110095
15 11 100 15 0.130696
1 12 100 15 0.0289016
2 12 100 15 0.0550933
3 12 100 15 0.042634
4 12 100 15 0.0209808
5 12 100 15 0.0617767
6 12 100 15 0.0522399
7 12 100 15 0.0367668
8 12 100 15 0.0536334
9 12 100 15 0.0697085
10 12 100 15 0.0714729
11 12 100 15 0.0910685
12 12 100 15 0.0501132
13 12 100 15 0.0881613
14 12 100 15 0.124825
15 12 100 15 0.152624
1 13 100 15 0.012661
2 13 100 15 0.0288751
3 13 100 15 0.0467079
4 13 100 15 0.0304665
5 13 100 15 0.0330915
6 13 100 15 0.0584506
7 13 100 15 0.0756317
8 13 100 15 0.0794557
9 13 100 15 0.0660607
10 13 100 15 0.0623607
11 13 100 15 0.0538621
12 13 100 15 0.11319
13 13 100 15 0.0953925
14 13 100 15 0.131597
15 13 100 15 0.112197
1 14 100 15 0.0219967
2 14 100 15 0.0721711
3 14 100 15 0.0616047
4 14 100 15 0.0511408
5 14 100 15 0.101772
6 14 100 15 0.0117236
7 14 100 15 0.0518319
8 14 100 15 0.0613116
9 14 100 15 0.0649091
10 14 100 15 0.0955329
11 14 100 15 0.0669767
12 14 100 15 0.0748968
13 14 100 15 0.091923
14 14 100 15 0.0802858
15 14 100 15 0.0919231
1 15 100 15 0.0334426
2 15 100 15 0.0367694
3 15 100 15 0.0353242
4 15 100 15 0.0622236
5 15 100 15 0.0388104
6 15 100 15 0.0466655
7 15 100 15 0.0218675
8 15 100 15 0.0739345
9 15 100 15 0.085799
10 15 100 15 0.100696
11 15 100 15 0.0716927
12 15 100 15 0.0603939
13 15 100 15 0.103124
14 15 100 15 0.0786785
15 15 100 15 0.150579
1 16 100 15 0.0143749
2 16 100 15 6.39386e-05
3 16 100 15 0.0171775
4 16 100 15 0.0294393
5 16 100 15 0.0894134
6 16 100 15 0.06115
7 16 100 15 0.0751348
8 16 100 15 0.114931
9 16 100 15 0.069615
10 16 100 15 0.0705854
11 16 100 15 0.0304076
12 16 100 15 0.0874457
13 16 100 15 0.109546
14 16 100 15 0.100644
15 16 100 15 0.130072
1 17 100 15 3.91137e-05
2 17 100 15 0.0262927
3 17 100 15 2.95357e-05
4 17 100 15 0.000653031
5 17 100 15 0.00762938
6 17 100 15 0.0449477
7 17 100 15 0.0308507
8 17 100 15 0.0291937
9 17 100 15 0.0532285
10 17 100 15 0.0551942
11 17 100 15 0.0537051
12 17 100 15 0.170416
13 17 100 15 0.140865
14 17 100 15 0.166721
15 17 100 15 0.220234
1 18 100 15 9.01228e-07
2 18 100 15 4.06765e-05
3 18 100 15 0.000318102
4 18 100 15 1.78317e-05
5 18 100 15 0.00025644
6 18 100 15 0.000705772
7 18 100 15 0.000159189
8 18 100 15 8.64205e-05
9 18 100 15 0.000343235
10 18 100 15 0.0809375
11 18 100 15 0.219821
12 18 100 15 0.0795426
13 18 100 15 0.000428052
14 18 100 15 0.22574
15 18 100 15 0.391602
1 19 100 15 0.028387
2 19 100 15 0.032923
3 19 100 15 2.9022e-05
4 19 100 15 0.000719114
5 19 100 15 0.028447
6 19 100 15 0.00168916
7 19 100 15 0.0771624
8 19 100 15 0.0316164
9 19 100 15 0.0579611
10 19 100 15 0.108645
11 19 100 15 0.110177
12 19 100 15 0.132521
13 19 100 15 0.177695
14 19 100 15 0.149856
15 19 100 15 0.0621714
1 20 100 15 0.093407
2 20 100 15 0.0181198
3 20 100 15 0.000112012
4 20 100 15 9.48139e-05
5 20 100 15 0.000207843
6 20 100 15 9.64556e-05
7 20 100 15 2.21577e-05
8 20 100 15 5.76323e-05
9 20 100 15 0.0380668
10 20 100 15 0.185608
11 20 100 15 0.00473734
12 20 100 15 0.019882
13 20 100 15 0.150266
14 20 100 15 0.196784
15 20 100 15 0.292538
1 21 100 15 0.000121291
2 21 100 15 0.000596629
3 21 100 15 0.0562423
4 21 100 15 0.15291
5 21 100 15 0.179298
6 21 100 15 0.157415
7 21 100 15 0.110326
8 21 100 15 0.104374
9 21 100 15 0.000418032
10 21 100 15 0.000119534
11 21 100 15 0.11914
12 21 100 15 0.0112571
13 21 100 15 0.105377
14 21 100 15 0.000114574
15 21 100 15 0.00229
1 22 100 15 5.23928e-06
2 22 100 15 3.50526e-05
3 22 100 15 1.74234e-05
4 22 100 15 0.00659961
5 22 100 15 1.69358e-05
6 22 100 15 1.24107e-05
7 22 100 15 0.000183058
8 22 100 15 0.0125971
9 22 100 15 5.98772e-05
10 22 100 15 6.38935e-05
11 22 100 15 0.00519164
12 22 100 15 0.460105
13 22 100 15 0.0605086
14 22 100 15 0.0606408
15 22 100 15 0.393964
2 23 100 15 0.82949
5 23 100 15 0.00135975
6 23 100 15 6.8914e-06
12 23 100 15 0.169143
5 24 100 15 0.230889
7 24 100 15 0.00193236
10 24 100 15 0.767178
1 0 100 16 0.0281107
2 0 100 16 0.0665272
3 0 100 16 0.0731494
4 0 100 16 0.0881207
5 0 100 16 0.0588562
6 0 100 16 0.0676134
7 0 100 16 0.0591251
8 0 100 16 0.0504782
9 0 100 16 0.0665443
10 0 100 16 0.0760644
11 0 100 16 0.052428
12 0 100 16 0.0563109
13 0 100 16 0.051903
14 0 100 16 0.0671107
15 0 100 16 0.0814636
16 0 100 16 0.0561942
1 1 100 16 0.507343
2 1 100 16 0.118262
3 1 100 16 0.0687025
4 1 100 16 0.058632
5 1 100 16 0.0198097
6 1 100 16 0.02876
7 1 100 16 0.0299847
8 1 100 16 0.0240921
9 1 100 16 0.0273158
10 1 100 16 0.00634607
11 1 100 16 0.0328216
12 1 100 16 0.0165866
13 1 100 16 0.0204321
14 1 100 16 0.0207504
15 1 100 16 0.0127379
16 1 100 16 0.0074236
1 2 100 16 0.0996683
2 2 100 16 0.208926
3 2 100 16 0.0814755
4 2 100 16 0.0866163
5 2 100 16 0.0757777
6 2 100 16 0.0608902
7 2 100 16 0.0770722
8 2 100 16 0.0383631
9 2 100 16 0.0344237
10 2 100 16 0.0377607
11 2 100 16 0.0256277
12 2 100 16 0.0425357
13 2 100 16 0.0337845
14 2 100 16 0.0310793
15 2 100 16 0.0361666
16 2 100 16 0.0298324
1 3 100 16 0.0458827
2 3 100 16 0.102342
3 3 100 16 0.147145
4 3 100 16 0.117704
5 3 100 16 0.0928676
6 3 100 16 0.0612547
7 3 100 16 0.0436066
8 3 100 16 0.0842845
9 3 100 16 0.0653041
10 3 100 16 0.0364213
11 3 100 16 0.0318761
12 3 100 16 0.0348763
13 3 100 16 0.0287313
14 3 100 16 0.0322143
15 3 100 16 0.0470734
16 3 100 16 0.0284162
1 4 100 16 0.0468475
2 4 100 16 0.0520426
3 4 100 16 0.137634
4 4 100 16 0.0769531
5 4 100 16 0.0844411
6 4 100 16 0.0962324
7 4 100 16 0.0753362
8 4 100 16 0.0886584
9 4 100 16 0.0849454
10 4 100 16 0.0511654
11 4 100 16 0.0260432
12 4 100 16 0.048416
13 4 100 16 0.0379139
14 4 100 16 0.0250643
15 4 100 16 0.0269773
16 4 100 16 0.0413297
1 5 100 16 0.0388607
2 5 100 16 0.0380991
3 5 100 16 0.0453515
4 5 100 16 0.0966889
5 5 100 16 0.119379
6 5 100 16 0.106164
7 5 100 16 0.104873
8 5 100 16 0.0605483
9 5 100 16 0.0357311
10 5 100 16 0.0628475
11 5 100 16 0.0785418
12 5 100 16 0.0517921
13 5 100 16 0.0664958
14 5 100 16 0.023452
15 5 100 16 0.033727
16 5 100 16 0.0374478
1 6 100 16 0.0268373
2 6 100 16 0.0352551
3 6 100 16 0.0634954
4 6 100 16 0.0569344
5 6 100 16 0.0947319
6 6 100 16 0.0867928
7 6 100 16 0.0874449
8 6 100 16 0.106884
9 6 100 16 0.082401
10 6 100 16 0.0498722
11 6 100 16 0.0668561
12 6 100 16 0.0541909
13 6 100 16 0.0454739
14 6 100 16 0.0498036
15 6 100 16 0.0423385
16 6 100 16 0.0506879
1 7 100 16 0.0273129
2 7 100 16 0.0547339
3 7 100 16 0.054122
4 7 100 16 0.0616067
5 7 100 16 0.0416341
6 7 100 16 0.0669571
7 7 100 16 0.0759306
8 7 100 16 0.0643383
9 7 100 16 0.0754955
10 7 100 16 0.0635489
11 7 100 16 0.0802874
12 7 100 16 0.0565575
13 7 100 16 0.0827712
14 7 100 16 0.0896766
15 7 100 16 0.0494372
16 7 100 16 0.0555903
1 8 100 16 0.00591328
2 8 100 16 0.0163792
3 8 100 16 0.048261
4 8 100 16 0.0591112
5 8 100 16 0.0596196
6 8 100 16 0.0720626
7 8 100 16 0.05886
8 8 100 16 0.0812877
9 8 100 16 0.0831202
10 8 100 16 0.114203
11 8 100 16 0.0836938
12 8 100 16 0.0789004
13 8 100 16 0.0536519
14 8 100 16 0.0440254
15 8 100 16 0.079468
16 8 100 16 0.0614428
1 9 100 16 0.0112265
2 9 100 16 0.0191853
3 9 100 16 0.0201942
4 9 100 16 0.0306827
5 9 100 16 0.0577173
6 9 100 16 0.0371687
7 9 100 16 0.0534741
8 9 100 16 0.070869
9 9 100 16 0.0730408
10 9 100 16 0.0966836
11 9 100 16 0.100408
12 9 100 16 0.0744179
13 9 100 16 0.107954
14 9 100 16 0.0760362
15 9 100 16 0.0722988
16 9 100 16 0.0986433
1 10 100 16 0.0139065
2 10 100 16 0.0241359
3 10 100 16 0.0169508
4 10 100 16 0.0162853
5 10 100 16 0.0419597
6 10 100 16 0.0301209
7 10 100 16 0.0580534
8 10 100 16 0.0638307
9 10 100 16 0.0936412
10 10 100 16 0.0764403
11 10 100 16 0.0992771
12 10 100 16 0.094216
13 10 100 16 0.0930442
14 10 100 16 0.111079
15 10 100 16 0.0798156
16 10 100 16 0.0872438
2 11 100 16 0.0261391
3 11 100 16 0.0368527
4 11 100 16 0.00534726
5 11 100 16 0.0270634
6 11 100 16 0.0454962
7 11 100 16 0.0691172
8 11 100 16 0.0538934
9 11 100 16 0.0638006
10 11 100 16 0.084642
11 11 100 16 0.0639258
12 11 100 16 0.141531
13 11 100 16 0.0695897
14 11 100 16 0.111853
15 11 100 16 0.0938615
16 11 100 16 0.106887
1 12 100 16 0.0293112
2 12 100 16 0.03017
3 12 100 16 0.0269036
4 12 100 16 0.00717994
5 12 100 16 0.035813
6 12 100 16 0.0380204
7 12 100 16 0.0143889
8 12 100 16 0.0217799
9 12 100 16 0.0213995
10 12 100 16 0.0986262
11 12 100 16 0.124151
12 12 100 16 0.105507
13 12 100 16 0.176288
14 12 100 16 0.092478
15 12 100 16 0.0884469
16 12 100 16 0.0895373
1 13 100 16 0.00111377
2 13 100 16 0.0290764
3 13 100 16 0.0331601
4 13 100 16 0.0463326
5 13 100 16 0.0377971
6 13 100 16 0.0578746
7 13 100 16 0.0469033
8 13 100 16 0.0625782
9 13 100 16 0.0639981
10 13 100 16 0.0476182
11 13 100 16 0.0860087
12 13 100 16 0.0950445
13 13 100 16 0.0987869
14 13 100 16 0.133697
15 13 100 16 0.117165
16 13 100 16 0.0428451
1 14 100 16 0.00949001
2 14 100 16 0.00854384
3 14 100 16 3.52679e-06
4 14 100 16 0.0303544
5 14 100 16 0.0352244
6 14 100 16 0.0408115
7 14 100 16 0.0412944
8 14 100 16 0.0343803
9 14 100 16 0.0583629
10 14 100 16 0.0252514
11 14 100 16 0.0978668
12 14 100 16 0.0718969
13 14 100 16 0.105629
14 14 100 16 0.16591
15 14 100 16 0.137271
16 14 100 16 0.137709
1 15 100 16 0.028954
2 15 100 16 0.016018
3 15 100 16 0.0208611
4 15 100 16 0.0148966
5 15 100 16 0.0797803
6 15 100 16 0.0588564
7 15 100 16 0.0589044
8 15 100 16 0.0505406
9 15 100 16 0.0462443
10 15 100 16 0.0688077
11 15 100 16 0.0125107
12 15 100 16 0.107177
13 15 100 16 0.0738646
14 15 100 16 0.0798795
15 15 100 16 0.103753
16 15 100 16 0.178951
1 16 100 16 0.0157346
2 16 100 16 0.0458774
4 16 100 16 0.032069
6 16 100 16 0.0311972
7 16 100 16 0.0321248
8 16 100 16 0.0776983
9 16 100 16 0.0470249
10 16 100 16 0.0939392
11 16 100 16 0.120816
12 16 100 16 1.90525e-05
13 16 100 16 0.112686
14 16 100 16 0.0468468
15 16 100 16 0.138658
16 16 100 16 0.205309
2 17 100 16 0.0211643
3 17 100 16 0.052574
4 17 100 16 0.050674
5 17 100 16 0.0486831
6 17 100 16 0.0243806
7 17 100 16 2.79534e-06
8 17 100 16 0.0243374
9 17 100 16 0.0498189
10 17 100 16 0.0727569
11 17 100 16 0.105357
12 17 100 16 0.0730611
13 17 100 16 0.0917645
14 17 100 16 0.166498
15 17 100 16 0.0947509
16 17 100 16 0.124177
1 18 100 16 0.0315806
2 18 100 16 0.00177004
3 18 100 16 0.010709
4 18 100 16 0.0624596
5 18 100 16 0.0325118
6 18 100 16 0.0427173
7 18 100 16 0.0610472
8 18 100 16 0.0873599
9 18 100 16 0.0784579
10 18 100 16 0.0855848
11 18 100 16 0.0613239
12 18 100 16 0.0891659
13 18 100 16 0.0626364
14 18 100 16 0.102703
15 18 100 16 0.0599784
16 18 100 16 0.129994
1 19 100 16 0.0546462
2 19 100 16 0.00340958
3 19 100 16 1.89143e-05
4 19 100 16 5.77319e-05
5 19 100 16 0.0168957
6 19 100 16 0.0933362
7 19 100 16 0.0674904
8 19 100 16 0.10736
9 19 100 16 0.0556901
10 19 100 16 0.0266196
11 19 100 16 0.0550855
12 19 100 16 0.000128123
13 19 100 16 0.000678575
14 19 100 16 0.0553621
15 19 100 16 0.160212
16 19 100 16 0.303008
1 20 100 16 4.16705e-05
2 20 100 16 3.78311e-06
3 20 100 16 0.000292823
4 20 100 16 0.00455108
5 20 100 16 3.05886e-05
6 20 100 16 6.07575e-06
7 20 100 16 3.60275e-07
8 20 100 16 0.00204812
9 20 100 16 0.141254
10 20 100 16 0.13999
11 20 100 16 0.00426787
12 20 100 16 0.140187
13 20 100 16 0.126115
14 20 100 16 0.00450573
15 20 100 16 0.155954
16 20 100 16 0.280752
2 21 100 16 0.000185521
3 21 100 16 0.000584196
4 21 100 16 0.0247105
5 21 100 16 0.00121253
6 21 100 16 0.000186456
7 21 100 16 0.00522189
8 21 100 16 0.831857
9 21 100 16 0.00448992
11 21 100 16 1.41301e-05
12 21 100 16 0.000298861
13 21 100 16 6.91024e-05
14 21 100 16 0.000156458
15 21 100 16 0.000329691
16 21 100 16 0.130683
4 22 100 16 0.0069215
5 22 100 16 0.880494
8 22 100 16 0.0154564
9 22 100 16 0.00288578
13 22 100 16 0.0730371
15 22 100 16 0.0212052
1 0 100 17 0.0462039
2 0 100 17 0.0626278
3 0 100 17 0.0698574
4 0 100 17 0.08065
5 0 100 17 0.0525381
6 0 100 17 0.081834
7 0 100 17 0.0571596
8 0 100 17 0.0590869
9 0 100 17 0.0856757
10 0 100 17 0.0461597
11 0 100 17 0.0531524
12 0 100 17 0.054721
13 0 100 17 0.0658763
14 0 100 17 0.0531829
15 0 100 17 0.0284445
16 0 100 17 0.0526612
17 0 100 17 0.0501684
1 1 100 17 0.370353
2 1 100 17 0.107369
3 1 100 17 0.0364475
4 1 100 17 0.0493916
5 1 100 17 0.0448377
6 1 100 17 0.0307516
7 1 100 17 0.0553292
8 1 100 17 0.0365762
9 1 100 17 0.02961
10 1 100 17 0.011976
11 1 100 17 0.0576778
12 1 100 17 0.0558831
13 1 100 17 0.0429531
14 1 100 17 0.033324
15 1 100 17 0.0150708
16 1 100 17 0.00987832
17 1 100 17 0.0125708
1 2 100 17 0.162795
2 2 100 17 0.276658
3 2 100 17 0.083481
4 2 100 17 0.0960939
5 2 100 17 0.0321967
6 2 100 17 0.0496068
7 2 100 17 0.0646723
8 2 100 17 0.0718585
9 2 100 17 0.0316254
10 2 100 17 0.0131317
11 2 100 17 0.0185971
12 2 100 17 0.00646101
13 2 100 17 0.00711455
14 2 100 17 0.0302496
15 2 100 17 0.0182854
16 2 100 17 4.44598e-05
17 2 100 17 0.0371292
1 3 100 17 0.0842869
2 3 100 17 0.10017
3 3 100 17 0.166998
4 3 100 17 0.158983
5 3 100 17 0.0968427
6 3 100 17 0.0688461
7 3 100 17 0.0335199
8 3 100 17 0.0431542
9 3 100 17 0.0406829
10 3 100 17 0.0363899
11 3 100 17 0.0193844
12 3 100 17 0.0159985
13 3 100 17 0.0219592
14 3 100 17 0.0172247
15 3 100 17 0.0242595
16 3 100 17 0.0478361
17 3 100 17 0.0234642
1 4 100 17 0.0302944
2 4 100 17 0.0868882
3 4 100 17 0.109201
4 4 100 17 0.0533309
5 4 100 17 0.157225
6 4 100 17 0.103495
7 4 100 17 0.109685
8 4 100 17 0.102506
9 4 100 17 0.00778307
10 4 100 17 0.0601405
11 4 100 17 0.0155773
12 4 100 17 0.0409583
13 4 100 17 0.00729743
14 4 100 17 2.86873e-06
15 4 100 17 0.0488857
16 4 100 17 0.0446925
17 4 100 17 0.0220363
1 5 100 17 0.0356844
2 5 100 17 0.0406892
3 5 100 17 0.0521293
4 5 100 17 0.0729296
5 5 100 17 0.0752834
6 5 100 17 0.0952647
7 5 100 17 0.139318
8 5 100 17 0.134958
9 5 100 17 0.0623315
10 5 100 17 0.0672155
11 5 100 17 0.0348341
12 5 100 17 0.0361363
13 5 100 17 0.0418551
14 5 100 17 0.0221966
15 5 100 17 0.0504136
16 5 100 17 0.0202932
17 5 100 17 0.0184671
1 6 100 17 0.0226251
2 6 100 17 0.0251651
3 6 100 17 0.0196597
4 6 100 17 0.0431278
5 6 100 17 0.110673
6 6 100 17 0.101259
7 6 100 17 0.0458919
8 6 100 17 0.102772
9 6 100 17 0.170602
10 6 100 17 0.0316618
11 6 100 17 0.0794077
12 6 100 17 0.0747462
13 6 100 17 0.0391195
14 6 100 17 0.00787973
15 6 100 17 0.0470854
16 6 100 17 0.0482834
17 6 100 17 0.0300406
2 7 100 17 0.0288182
3 7 100 17 0.0640088
4 7 100 17 0.0109645
5 7 100 17 0.0716863
6 7 100 17 0.0594019
7 7 100 17 0.0810955
8 7 100 17 0.113743
9 7 100 17 0.0668904
10 7 100 17 0.092861
11 7 100 17 0.0693542
12 7 100 17 0.0231811
13 7 100 17 0.0282242
14 7 100 17 0.0800922
15 7 100 17 0.0662288
16 7 100 17 0.0918818
17 7 100 17 0.0515681
1 8 100 17 0.0276098
2 8 100 17 0.00947846
3 8 100 17 0.0506162
4 8 100 17 0.033818
5 8 100 17 0.0198812
6 8 100 17 0.027383
7 8 100 17 0.0809516
8 8 100 17 0.0554519
9 8 100 17 0.053835
10 8 100 17 0.0595878
11 8 100 17 0.0986215
12 8 100 17 0.114097
13 8 100 17 0.148175
14 8 100 17 0.0490752
15 8 100 17 0.0655897
16 8 100 17 0.0550616
17 8 100 17 0.0507673
1 9 100 17 0.0104003
2 9 100 17 0.0118926
3 9 100 17 0.00529357
4 9 100 17 0.0226769
5 9 100 17 0.0261293
6 9 100 17 0.035652
7 9 100 17 0.0463092
8 9 100 17 0.0723697
9 9 100 17 0.0992013
10 9 100 17 0.0964033
11 9 100 17 0.0613092
12 9 100 17 0.0904138
13 9 100 17 0.0823666
14 9 100 17 0.0968968
15 9 100 17 0.0911165
16 9 100 17 0.0827632
17 9 100 17 0.0688057
3 10 100 17 0.0328115
4 10 100 17 0.0577323
5 10 100 17 0.0130412
6 10 100 17 4.30651e-06
7 10 100 17 0.0460274
8 10 100 17 0.0448059
9 10 100 17 0.0796813
10 10 100 17 0.137636
11 10 100 17 0.156841
12 10 100 17 0.136007
13 10 100 17 0.0641933
14 10 100 17 0.0695185
15 10 100 17 0.0763673
16 10 100 17 0.0261201
17 10 100 17 0.0592135
1 11 100 17 0.0146482
2 11 100 17 0.00721233
3 11 100 17 0.00796107
4 11 100 17 0.00744736
5 11 100 17 0.0424823
6 11 100 17 0.0362079
7 11 100 17 0.0426812
8 11 100 17 0.00656476
9 11 100 17 0.0749932
10 11 100 17 0.0650887
11 11 100 17 0.0633487
12 11 100 17 0.0690206
13 11 100 17 0.131392
14 11 100 17 0.145423
15 11 100 17 0.0531441
16 11 100 17 0.115297
17 11 100 17 0.117087
1 12 100 17 0.00848231
2 12 100 17 0.00854123
3 12 100 17 0.0228792
4 12 100 17 0.0368567
5 12 100 17 0.0203738
6 12 100 17 0.064091
7 12 100 17 0.0156456
8 12 100 17 0.0114448
9 12 100 17 0.0294061
10 12 100 17 0.12329
11 12 100 17 0.0723554
12 12 100 17 0.0492703
13 12 100 17 0.0918404
14 12 100 17 0.149768
15 12 100 17 0.0859914
16 12 100 17 0.0897637
17 12 100 17 0.120001
1 13 100 17 0.0437775
2 13 100 17 0.0496228
3 13 100 17 0.034241
4 13 100 17 0.0403781
5 13 100 17 0.0548239
6 13 100 17 0.0283821
7 13 100 17 0.0682873
8 13 100 17 3.54198e-07
9 13 100 17 0.0315112
10 13 100 17 0.0597966
11 13 100 17 0.10454
12 13 100 17 0.104876
13 13 100 17 0.117554
14 13 100 17 0.034213
15 13 100 17 0.142111
16 13 100 17 0.0505814
17 13 100 17 0.0353043
1 14 100 17 0.034695
2 14 100 17 0.0121412
3 14 100 17 0.0251295
4 14 100 17 0.0434921
5 14 100 17 0.0530029
6 14 100 17 0.121043
7 14 100 17 0.0447525
8 14 100 17 0.0664033
9 14 100 17 0.0520831
10 14 100 17 0.0268396
11 14 100 17 0.0375833
12 14 100 17 0.0777234
13 14 100 17 0.0347989
14 14 100 17 0.105092
15 14 100 17 0.0999502
16 14 100 17 0.0509271
17 14 100 17 0.114343
2 15 100 17 0.0361941
3 15 100 17 0.0484902
4 15 100 17 0.0157685
5 15 100 17 0.0570964
6 15 100 17 0.0255503
8 15 100 17 0.0286609
9 15 100 17 0.0256557
10 15 100 17 0.125223
11 15 100 17 0.0656157
12 15 100 17 0.0323215
13 15 100 17 0.0129457
14 15 100 17 0.115541
15 15 100 17 0.0749319
16 15 100 17 0.134955
17 15 100 17 0.20105
1 16 100 17 0.0102576
2 16 100 17 0.0517329
3 16 100 17 0.0697633
4 16 100 17 0.0612939
5 16 100 17 0.0247085
6 16 100 17 0.00978322
7 16 100 17 0.0103579
8 16 100 17 0.0106381
9 16 100 17 0.0429662
10 16 100 17 0.0228742
11 16 100 17 0.0911876
12 16 100 17 0.0725844
13 16 100 17 0.108205
14 16 100 17 0.133134
15 16 100 17 0.109195
16 16 100 17 0.121358
17 16 100 17 0.0499597
1 17 100 17 1.03578e-06
3 17 100 17 1.9921e-05
4 17 100 17 0.077982
5 17 100 17 9.76075e-06
6 17 100 17 0.0280281
7 17 100 17 0.0262981
8 17 100 17 0.0643072
10 17 100 17 0.0277649
11 17 100 17 0.0724683
12 17 100 17 0.0905707
13 17 100 17 0.128531
14 17 100 17 0.000490218
15 17 100 17 0.182318
16 17 100 17 0.193139
17 17 100 17 0.108072
2 18 100 17 0.1087
3 18 100 17 0.176831
4 18 100 17 0.057391
5 18 100 17 0.139578
7 18 100 17 0.0287165
9 18 100 17 0.0567167
10 18 100 17 0.0289989
12 18 100 17 0.028914
13 18 100 17 0.0243334
14 18 100 17 0.0750468
15 18 100 17 0.0572286
16 18 100 17 0.0910215
17 18 100 17 0.126525
1 19 100 17 0.0369761
2 19 100 17 1.90058e-06
3 19 100 17 0.000620139
4 19 100 17 0.11185
5 19 100 17 0.0411437
6 19 100 17 0.165284
7 19 100 17 0.106715
8 19 100 17 2.47228e-05
9 19 100 17 0.000163298
10 19 100 17 0.00138506
11 19 100 17 0.0297622
12 19 100 17 0.000322575
13 19 100 17 0.030971
14 19 100 17 0.0298046
15 19 100 17 0.0294474
16 19 100 17 0.140465
17 19 100 17 0.275063
1 20 100 17 0.000155748
2 20 100 17 0.117716
3 20 100 17 0.0922425
4 20 100 17 1.00065e-05
5 20 100 17 3.55882e-05
6 20 100 17 2.33049e-05
7 20 100 17 0.00244566
8 20 100 17 0.0227818
9 20 100 17 0.149121
10 20 100 17 0.0555334
11 20 100 17 0.0581183
12 20 100 17 0.0580995
13 20 100 17 0.0572829
14 20 100 17 0.0557344
15 20 100 17 0.0484588
16 20 100 17 0.138859
17 20 100 17 0.143382
1 21 100 17 0.000594359
2 21 100 17 9.73988e-05
3 21 100 17 0.00195156
4 21 100 17 0.000389275
5 21 100 17 0.00105602
6 21 100 17 4.63275e-05
7 21 100 17 4.14622e-05
8 21 100 17 4.2492e-05
9 21 100 17 2.8685e-05
10 21 100 17 7.78878e-05
11 21 100 17 0.00047799
12 21 100 17 0.992313
13 21 100 17 0.00198482
14 21 100 17 5.83621e-05
15 21 100 17 0.000113405
16 21 100 17 0.000209759
17 21 100 17 0.000516984
3 22 100 17 0.104498
4 22 100 17 0.000320403
5 22 100 17 0.104233
6 22 100 17 0.104285
7 22 100 17 0.10455
8 22 100 17 0.104333
9 22 100 17 0.0214869
10 22 100 17 0.142015
11 22 100 17 0.000179468
12 22 100 17 0.000147649
13 22 100 17 0.10422
14 22 100 17 0.104451
15 22 100 17 0.103928
16 22 100 17 0.000276326
17 22 100 17 0.00107642
4 23 100 17 0.00302429
5 23 100 17 0.13169
8 23 100 17 0.00715364
9 23 100 17 0.00862733
10 23 100 17 0.000968996
12 23 100 17 0.00576625
13 23 100 17 0.782258
15 23 100 17 0.0586181
16 23 100 17 0.00189399
1 0 100 18 0.0676884
2 0 100 18 0.0517505
3 0 100 18 0.0459093
4 0 100 18 0.0718191
5 0 100 18 0.0353102
6 0 100 18 0.0527674
7 0 100 18 0.058898
8 0 100 18 0.0289185
9 0 100 18 0.0673557
10 0 100 18 0.0677611
11 0 100 18 0.0461129
12 0 100 18 0.0364045
13 0 100 18 0.0400458
14 0 100 18 0.0524056
15 0 100 18 0.0608209
16 0 100 18 0.0309631
17 0 100 18 0.104885
18 0 100 18 0.0801837
1 1 100 18 0.313682
2 1 100 18 0.123426
3 1 100 18 0.043172
4 1 100 18 0.0106125
5 1 100 18 0.0230315
6 1 100 18 0.0333302
7 1 100 18 0.0420291
8 1 100 18 0.0212892
9 1 100 18 0.000294619
10 1 100 18 0.0210355
11 1 100 18 0.0625865
12 1 100 18 0.0792714
13 1 100 18 0.0874214
14 1 100 18 0.0210454
15 1 100 18 0.021379
16 1 100 18 0.041349
17 1 100 18 0.0233651
18 1 100 18 0.0316788
1 2 100 18 0.0749474
2 2 100 18 0.210719
3 2 100 18 0.0903885
4 2 100 18 0.168085
5 2 100 18 0.0755149
6 2 100 18 0.0831871
7 2 100 18 0.0697949
8 2 100 18 0.0230845
9 2 100 18 0.0386298
10 2 100 18 0.0629886
11 2 100 18 0.029723
12 2 100 18 0.0331687
13 2 100 18 0.0114718
14 2 100 18 0.0114751
15 2 100 18 7.98178e-06
16 2 100 18 0.0165178
17 2 100 18 5.29631e-06
18 2 100 18 0.000291195
1 3 100 18 0.108694
2 3 100 18 0.064777
3 3 100 18 0.145629
4 3 100 18 0.119691
5 3 100 18 0.11428
6 3 100 18 0.0474837
7 3 100 18 0.0451987
8 3 100 18 0.0508449
9 3 100 18 0.0474629
10 3 100 18 0.0225462
11 3 100 18 0.0379277
12 3 100 18 0.0235463
13 3 100 18 0.0334739
14 3 100 18 0.0337769
15 3 100 18 0.0596257
16 3 100 18 0.0450387
18 3 100 18 3.34211e-06
1 4 100 18 0.0420155
2 4 100 18 0.0827031
3 4 100 18 0.158123
4 4 100 18 0.0660101
5 4 100 18 0.107346
6 4 100 18 0.0865485
7 4 100 18 0.098644
8 4 100 18 0.080307
9 4 100 18 0.0842919
10 4 100 18 0.0265883
11 4 100 18 0.0268201
12 4 100 18 0.0397475
15 4 100 18 0.000876983
16 4 100 18 0.0278154
17 4 100 18 0.0718488
18 4 100 18 0.000313624
1 5 100 18 0.0856717
2 5 100 18 0.0665293
3 5 100 18 0.0946552
4 5 100 18 0.0289897
5 5 100 18 0.029268
6 5 100 18 0.103805
7 5 100 18 0.0683285
8 5 100 18 0.117831
9 5 100 18 0.0665912
10 5 100 18 0.0176955
11 5 100 18 0.142758
12 5 100 18 0.040509
13 5 100 18 0.109515
14 5 100 18 1.42718e-06
15 5 100 18 2.86863e-05
16 5 100 18 0.0135129
17 5 100 18 0.0143015
18 5 100 18 9.25121e-06
1 6 100 18 0.0218773
2 6 100 18 0.066603
3 6 100 18 0.0681167
4 6 100 18 0.123571
5 6 100 18 0.125797
6 6 100 18 0.0948966
7 6 100 18 0.0789884
8 6 100 18 0.106281
9 6 100 18 0.0628157
10 6 100 18 0.00952245
11 6 100 18 0.0558369
12 6 100 18 0.0293728
13 6 100 18 0.011584
14 6 100 18 0.069314
15 6 100 18 0.00856951
16 6 100 18 0.00774542
17 6 100 18 0.0247185
18 6 100 18 0.0343897
1 7 100 18 0.0123214
2 7 100 18 0.0127661
3 7 100 18 0.0461512
4 7 100 18 0.0242286
5 7 100 18 0.0577893
6 7 100 18 0.0320348
7 7 100 18 0.0752318
8 7 100 18 0.0521114
9 7 100 18 0.228073
10 7 100 18 0.0819109
11 7 100 18 0.0368327
12 7 100 18 0.012733
13 7 100 18 0.0338866
14 7 100 18 0.0495099
15 7 100 18 0.0530226
16 7 100 18 0.126544
17 7 100 18 0.0260992
18 7 100 18 0.0387534
1 8 100 18 0.0171455
2 8 100 18 0.0177265
4 8 100 18 0.0366128
5 8 100 18 0.101417
6 8 100 18 0.0525752
7 8 100 18 0.0739077
8 8 100 18 0.0724935
9 8 100 18 0.0346884
10 8 100 18 0.195466
11 8 100 18 0.0512154
12 8 100 18 0.117956
13 8 100 18 0.0409555
14 8 100 18 1.75658e-06
15 8 100 18 0.0882565
16 8 100 18 0.0320152
17 8 100 18 0.0171484
18 8 100 18 0.0504186
1 9 100 18 0.0195127
3 9 100 18 0.00289979
5 9 100 18 1.13978e-06
6 9 100 18 0.0159595
7 9 100 18 0.0473024
8 9 100 18 0.143955
9 9 100 18 0.0321772
10 9 100 18 0.17709
11 9 100 18 0.127924
12 9 100 18 0.0645734
13 9 100 18 0.0314411
14 9 100 18 0.073542
15 9 100 18 0.0786074
16 9 100 18 0.0791688
17 9 100 18 0.0810378
18 9 100 18 0.0248072
1 10 100 18 0.0367071
2 10 100 18 0.0183233
3 10 100 18 0.0202294
4 10 100 18 0.0287318
5 10 100 18 0.0552406
6 10 100 18 0.0622557
7 10 100 18 0.0636404
8 10 100 18 0.0286224
9 10 100 18 0.0262694
10 10 100 18 0.0236748
11 10 100 18 0.120823
12 10 100 18 0.0553068
13 10 100 18 0.105001
14 10 100 18 0.103749
15 10 100 18 0.0797994
16 10 100 18 0.0673366
17 10 100 18 0.0743871
18 10 100 18 0.0299031
1 11 100 18 0.016353
2 11 100 18 0.0462394
3 11 100 18 0.0276347
4 11 100 18 0.0365012
5 11 100 18 0.0364942
6 11 100 18 0.0730792
7 11 100 18 0.0555996
8 11 100 18 0.0580083
9 11 100 18 0.017186
10 11 100 18 0.0770353
11 11 100 18 0.0329008
12 11 100 18 0.0876155
13 11 100 18 0.0653151
14 11 100 18 0.0491831
15 11 100 18 0.101604
16 11 100 18 0.040286
17 11 100 18 0.0806497
18 11 100 18 0.098315
1 12 100 18 0.0524655
2 12 100 18 0.0167982
3 12 100 18 0.047949
4 12 100 18 0.0485168
5 12 100 18 0.0201856
6 12 100 18 0.00425018
7 12 100 18 0.0418514
8 12 100 18 0.000327285
9 12 100 18 0.0328609
10 12 100 18 0.0345933
11 12 100 18 0.0329516
12 12 100 18 0.0807715
13 12 100 18 0.0985179
14 12 100 18 0.0910585
15 12 100 18 0.0818303
16 12 100 18 0.0773823
17 12 100 18 0.129091
18 12 100 18 0.108599
2 13 100 18 0.044264
3 13 100 18 0.0700989
4 13 100 18 0.0764229
5 13 100 18 0.0309035
6 13 100 18 0.0727829
7 13 100 18 0.0172825
8 13 100 18 0.0887087
9 13 100 18 0.0615099
10 13 100 18 0.0424365
11 13 100 18 0.0453595
12 13 100 18 0.0742491
13 13 100 18 0.0652015
14 13 100 18 0.0779345
15 13 100 18 0.0149885
16 13 100 18 0.111877
17 13 100 18 0.0604489
18 13 100 18 0.045531
1 14 100 18 0.0105125
2 14 100 18 0.0114046
3 14 100 18 0.0325897
4 14 100 18 0.0217145
5 14 100 18 0.0411563
6 14 100 18 0.0109166
7 14 100 18 0.0333242
8 14 100 18 0.0314405
9 14 100 18 0.0676147
10 14 100 18 0.085893
11 14 100 18 0.0320648
12 14 100 18 2.64061e-06
13 14 100 18 0.0699586
14 14 100 18 0.171459
15 14 100 18 0.125477
16 14 100 18 0.144945
17 14 100 18 0.0369632
18 14 100 18 0.0725631
1 15 100 18 1.76092e-06
2 15 100 18 0.042267
3 15 100 18 0.0782138
4 15 100 18 0.000526977
6 15 100 18 3.76824e-07
7 15 100 18 0.0004638
8 15 100 18 0.0277929
9 15 100 18 0.0341257
10 15 100 18 0.0625413
11 15 100 18 0.0764418
12 15 100 18 0.129229
13 15 100 18 0.0258591
15 15 100 18 0.0790541
16 15 100 18 0.0692562
17 15 100 18 0.131827
18 15 100 18 0.242399
2 16 100 18 0.0232208
3 16 100 18 0.0523244
4 16 100 18 0.0244907
5 16 100 18 0.0749132
6 16 100 18 0.0709407
7 16 100 18 0.024718
8 16 100 18 0.0244968
9 16 100 18 0.071748
10 16 100 18 0.00059597
11 16 100 18 0.0449527
12 16 100 18 0.10665
13 16 100 18 0.00913588
14 16 100 18 0.0773014
15 16 100 18 0.133656
16 16 100 18 0.0924104
17 16 100 18 0.0670127
18 16 100 18 0.101432
1 17 100 18 0.0627259
2 17 100 18 0.0627147
5 17 100 18 0.0639185
6 17 100 18 0.0628832
7 17 100 18 0.0642188
8 17 100 18 0.0925654
9 17 100 18 0.0355783
10 17 100 18 0.032538
11 17 100 18 0.00617156
12 17 100 18 0.146747
13 17 100 18 0.180556
16 17 100 18 0.0310754
17 17 100 18 0.0951777
18 17 100 18 0.0631289
4 18 100 18 0.0856826
5 18 100 18 0.0866173
6 18 100 18 0.0443678
7 18 100 18 0.0865306
8 18 100 18 0.125581
9 18 100 18 0.0744248
10 18 100 18 0.0417192
11 18 100 18 0.0454578
12 18 100 18 0.0849265
13 18 100 18 0.112048
14 18 100 18 0.0469083
18 18 100 18 0.165736
10 19 100 18 0.0593156
11 19 100 18 0.058786
12 19 100 18 0.0592597
14 19 100 18 0.177816
15 19 100 18 0.177892
16 19 100 18 0.118517
17 19 100 18 0.1749
18 19 100 18 0.173514
1 20 100 18 0.0916539
2 20 100 18 0.0895947
3 20 100 18 0.0895862
4 20 100 18 6.81838e-06
5 20 100 18 1.16677e-06
6 20 100 18 1.03429e-05
7 20 100 18 7.42693e-05
8 20 100 18 0.000187875
9 20 100 18 1.99739e-07
10 20 100 18 0.000182353
11 20 100 18 1.65587e-05
12 20 100 18 0.0899757
13 20 100 18 0.173476
14 20 100 18 0.0891475
15 20 100 18 0.103899
16 20 100 18 0.178788
17 20 100 18 0.00259765
18 20 100 18 0.090802
1 21 100 18 0.000116872
2 21 100 18 2.20386e-06
3 21 100 18 1.47682e-06
4 21 100 18 7.51305e-07
6 21 100 18 3.63565e-05
7 21 100 18 8.6726e-05
8 21 100 18 2.55995e-05
9 21 100 18 0.000131347
10 21 100 18 3.47568e-06
11 21 100 18 4.62755e-05
12 21 100 18 0.00086668
13 21 100 18 0.000240913
14 21 100 18 0.230272
15 21 100 18 0.0037838
16 21 100 18 6.17104e-05
17 21 100 18 0.245977
18 21 100 18 0.518348
2 22 100 18 1.48966e-05
3 22 100 18 2.97267e-06
6 22 100 18 0.00172449
7 22 100 18 0.00479416
9 22 100 18 0.991235
10 22 100 18 2.79839e-06
13 22 100 18 0.00216634
15 22 100 18 5.04338e-06
16 22 100 18 3.50969e-05
17 22 100 18 1.96144e-05
5 23 100 18 0.172789
6 23 100 18 0.408253
7 23 100 18 1.25236e-06
8 23 100 18 2.11976e-06
9 23 100 18 0.000401786
12 23 100 18 0.0100159
13 23 100 18 0.408536
16 23 100 18 1.26771e-06
1 0 100 19 0.00987497
2 0 100 19 0.0386449
3 0 100 19 0.0201426
4 0 100 19 0.0854959
5 0 100 19 0.0721664
6 0 100 19 0.0622593
7 0 100 19 0.0424773
8 0 100 19 0.0647084
9 0 100 19 0.0634797
10 0 100 19 0.0634638
11 0 100 19 0.0598225
12 0 100 19 0.0530775
13 0 100 19 0.0368878
14 0 100 19 0.0578603
15 0 100 19 0.0505341
16 0 100 19 0.039114
17 0 100 19 0.0636708
18 0 100 19 0.0655257
19 0 100 19 0.0507942
1 1 100 19 0.47652
2 1 100 19 0.133738
3 1 100 19 0.107044
4 1 100 19 0.0294147
5 1 100 19 0.0196248
6 1 100 19 0.068042
7 1 100 19 0.0485206
11 1 100 19 0.022863
12 1 100 19 0.0278772
13 1 100 19 0.0433207
14 1 100 19 0.0230341
1 2 100 19 0.240127
2 2 100 19 0.153654
3 2 100 19 0.108825
4 2 100 19 0.0807888
5 2 100 19 0.108619
6 2 100 19 0.000124084
7 2 100 19 0.0219078
8 2 100 19 0.0656394
9 2 100 19 0.0192892
10 2 100 19 0.0217525
11 2 100 19 0.021799
13 2 100 19 0.0228975
14 2 100 19 0.0441468
15 2 100 19 0.0219952
16 2 100 19 0.024166
17 2 100 19 0.0442688
1 3 100 19 0.124709
2 3 100 19 0.139784
3 3 100 19 0.158045
4 3 100 19 0.177989
5 3 100 19 0.107735
6 3 100 19 0.0546057
7 3 100 19 0.023065
8 3 100 19 0.0177855
9 3 100 19 0.0214954
16 3 100 19 3.69897e-07
17 3 100 19 0.0349719
18 3 100 19 0.0524123
19 3 100 19 0.0874023
2 4 100 19 0.0824646
3 4 100 19 0.0664454
4 4 100 19 0.112121
5 4 100 19 0.0692781
6 4 100 19 0.0928627
7 4 100 19 0.0565534
8 4 100 19 0.0272835
9 4 100 19 0.0139071
10 4 100 19 0.0686048
11 4 100 19 0.0404958
12 4 100 19 0.092935
13 4 100 19 0.0430061
15 4 100 19 0.0243323
16 4 100 19 0.06669
17 4 100 19 0.0585609
18 4 100 19 0.0318242
19 4 100 19 0.0526348
3 5 100 19 0.0305869
4 5 100 19 2.085e-06
5 5 100 19 0.030939
6 5 100 19 0.0811936
7 5 100 19 0.0732028
8 5 100 19 0.280306
9 5 100 19 0.274565
10 5 100 19 0.102156
11 5 100 19 0.0333492
14 5 100 19 0.0323656
15 5 100 19 0.0613331
1 6 100 19 0.0403033
2 6 100 19 0.0404668
3 6 100 19 0.106581
4 6 100 19 0.0386463
5 6 100 19 0.0857113
6 6 100 19 0.0833612
7 6 100 19 0.0766423
8 6 100 19 0.0719605
9 6 100 19 0.0447359
10 6 100 19 0.0931498
11 6 100 19 0.093839
12 6 100 19 0.0535267
13 6 100 19 0.016552
14 6 100 19 0.0300866
15 6 100 19 0.0286301
16 6 100 19 0.0268514
17 6 100 19 0.0143423
18 6 100 19 0.0278401
19 6 100 19 0.0267736
2 7 100 19 0.0155858
3 7 100 19 0.0425707
4 7 100 19 0.0344523
5 7 100 19 0.0771474
6 7 100 19 0.0244666
7 7 100 19 0.0336885
8 7 100 19 0.014098
9 7 100 19 0.0534878
10 7 100 19 0.0888707
11 7 100 19 0.0725611
12 7 100 19 0.0939507
13 7 100 19 0.0737861
14 7 100 19 0.0815902
15 7 100 19 0.111391
16 7 100 19 0.0779174
17 7 100 19 0.0273515
18 7 100 19 0.0492027
19 7 100 19 0.0278812
1 8 100 19 0.0137234
2 8 100 19 0.0536938
3 8 100 19 0.0417047
4 8 100 19 0.000202884
5 8 100 19 0.0394302
6 8 100 19 0.0662098
7 8 100 19 0.0296114
8 8 100 19 0.0547167
9 8 100 19 0.0404015
10 8 100 19 0.0258936
11 8 100 19 0.0820557
12 8 100 19 0.108927
13 8 100 19 0.0810174
14 8 100 19 0.033741
15 8 100 19 0.0773157
16 8 100 19 0.043365
17 8 100 19 0.0832779
18 8 100 19 0.0547465
19 8 100 19 0.0699663
2 9 100 19 0.0626032
3 9 100 19 0.00218995
6 9 100 19 0.0100792
7 9 100 19 0.107944
8 9 100 19 4.90108e-05
9 9 100 19 0.099378
10 9 100 19 0.146637
12 9 100 19 0.0354704
13 9 100 19 0.0933231
14 9 100 19 0.0346877
16 9 100 19 0.140476
17 9 100 19 0.0682248
18 9 100 19 0.103817
19 9 100 19 0.0951219
3 10 100 19 0.0290634
4 10 100 19 0.0255344
5 10 100 19 1.3775e-06
6 10 100 19 0.0443401
7 10 100 19 0.116462
8 10 100 19 0.0794387
9 10 100 19 0.0150544
10 10 100 19 0.0541492
11 10 100 19 0.065005
12 10 100 19 0.0616752
13 10 100 19 0.0986615
14 10 100 19 0.108956
15 10 100 19 0.0601056
16 10 100 19 0.0303011
17 10 100 19 0.0706225
18 10 100 19 0.0730585
19 10 100 19 0.0675715
3 11 100 19 0.0470564
5 11 100 19 0.0497471
7 11 100 19 0.0502802
8 11 100 19 2.97507e-05
9 11 100 19 4.9435e-05
11 11 100 19 0.179691
12 11 100 19 6.43886e-07
13 11 100 19 0.0945822
14 11 100 19 0.109074
15 11 100 19 0.143425
16 11 100 19 0.18797
18 11 100 19 1.49226e-05
19 11 100 19 0.138079
4 12 100 19 0.0317875
7 12 100 19 0.0365375
8 12 100 19 0.0723418
9 12 100 19 8.65875e-05
11 12 100 19 0.0390627
12 12 100 19 0.0372801
13 12 100 19 0.0368949
14 12 100 19 0.237078
15 12 100 19 0.181656
16 12 100 19 0.0728103
17 12 100 19 0.0740098
18 12 100 19 0.000195672
19 12 100 19 0.180259
2 13 100 19 0.00272145
3 13 100 19 0.000499393
6 13 100 19 0.101094
7 13 100 19 0.0573268
8 13 100 19 0.126116
9 13 100 19 0.0929212
10 13 100 19 0.0446163
11 13 100 19 0.0477366
12 13 100 19 1.24932e-06
13 13 100 19 0.0866308
14 13 100 19 0.0411157
15 13 100 19 0.000363173
16 13 100 19 0.136923
17 13 100 19 4.06502e-06
18 13 100 19 0.216133
19 13 100 19 0.0457965
1 14 100 19 0.030174
2 14 100 19 0.0600192
3 14 100 19 0.0314296
4 14 100 19 0.0299552
5 14 100 19 0.0372689
6 14 100 19 0.00192229
7 14 100 19 0.0613286
8 14 100 19 0.0614326
9 14 100 19 0.141219
10 14 100 19 0.0377972
11 14 100 19 0.0304755
12 14 100 19 1.11577e-05
13 14 100 19 0.0934331
14 14 100 19 0.0556989
15 14 100 19 0.0885152
17 14 100 19 0.143863
18 14 100 19 0.0639133
19 14 100 19 0.0315433
3 15 100 19 3.72455e-06
4 15 100 19 0.0554054
8 15 100 19 0.000189046
9 15 100 19 1.19894e-05
10 15 100 19 0.0547991
11 15 100 19 0.0958572
12 15 100 19 0.123007
13 15 100 19 0.141657
14 15 100 19 0.0486842
16 15 100 19 0.23879
17 15 100 19 0.0969043
18 15 100 19 0.144691
1 16 100 19 5.48855e-07
3 16 100 19 4.123e-06
5 16 100 19 0.0337602
6 16 100 19 0.0709918
7 16 100 19 0.0338545
8 16 100 19 0.000752667
9 16 100 19 0.0391076
10 16 100 19 0.0924389
12 16 100 19 0.0880857
13 16 100 19 0.0352311
14 16 100 19 0.0678346
15 16 100 19 0.0339609
16 16 100 19 0.130419
17 16 100 19 0.132752
18 16 100 19 0.134363
19 16 100 19 0.106444
2 17 100 19 0.0537498
3 17 100 19 0.0587819
4 17 100 19 0.0613349
5 17 100 19 0.0537462
6 17 100 19 0.128037
7 17 100 19 0.0478128
9 17 100 19 0.242049
10 17 100 19 0.0228181
11 17 100 19 0.108226
12 17 100 19 0.0607233
14 17 100 19 8.12519e-05
15 17 100 19 0.0996137
16 17 100 19 0.00200926
17 17 100 19 7.23397e-06
19 17 100 19 0.0610098
1 18 100 19 0.0967978
2 18 100 19 0.102735
4 18 100 19 0.0514487
6 18 100 19 0.0892041
7 18 100 19 0.089875
8 18 100 19 0.0513909
9 18 100 19 0.0514021
10 18 100 19 0.0495727
11 18 100 19 1.75408e-06
12 18 100 19 0.0513485
13 18 100 19 0.152731
14 18 100 19 0.0453134
15 18 100 19 0.0516201
17 18 100 19 0.0615505
18 18 100 19 0.0550089
3 19 100 19 0.0116425
5 19 100 19 0.139306
7 19 100 19 0.0246903
9 19 100 19 0.000446167
10 19 100 19 0.00107936
12 19 100 19 0.139985
14 19 100 19 0.137539
15 19 100 19 0.140402
18 19 100 19 0.268578
19 19 100 19 0.136332
2 20 100 19 0.066405
3 20 100 19 0.067154
4 20 100 19 0.132699
5 20 100 19 0.0638694
6 20 100 19 0.0121729
7 20 100 19 0.056036
8 20 100 19 0.0665129
9 20 100 19 0.0708451
11 20 100 19 0.0661358
12 20 100 19 6.48138e-05
14 20 100 19 0.0670123
15 20 100 19 0.0768652
16 20 100 19 0.133479
17 20 100 19 0.120748
3 21 100 19 3.45136e-05
4 21 100 19 0.996425
5 21 100 19 0.00010634
7 21 100 19 0.000273432
8 21 100 19 1.19741e-05
10 21 100 19 0.000113545
12 21 100 19 5.18648e-06
14 21 100 19 0.00299247
16 21 100 19 2.99053e-06
18 21 100 19 3.44961e-05
18 22 100 19 1.1222e-05
19 22 100 19 0.999989
5 23 100 19 0.278639
7 23 100 19 0.0736543
10 23 100 19 0.129692
15 23 100 19 0.518015
1 0 100 20 0.0680177
2 0 100 20 0.0437487
3 0 100 20 0.0567829
4 0 100 20 0.060506
5 0 100 20 0.0601165
6 0 100 20 0.0916875
7 0 100 20 0.0812278
8 0 100 20 0.069531
9 0 100 20 0.00382409
10 0 100 20 0.0610122
11 0 100 20 0.0196601
12 0 100 20 0.0413619
13 0 100 20 0.0527586
14 0 100 20 0.0546484
15 0 100 20 0.0675326
16 0 100 20 0.0191948
17 0 100 20 0.0410022
18 0 100 20 0.0533781
19 0 100 20 0.0310012
20 0 100 20 0.0230075
1 1 100 20 0.265936
2 1 100 20 0.211735
3 1 100 20 0.0764701
5 1 100 20 5.45083e-05
6 1 100 20 0.000565965
7 1 100 20 0.0761205
8 1 100 20 0.0857627
9 1 100 20 0.0717186
10 1 100 20 0.0244729
11 1 100 20 0.0292227
12 1 100 20 0.0358365
13 1 100 20 0.000427607
14 1 100 20 4.68242e-05
15 1 100 20 0.0730607
16 1 100 20 0.0485679
20 1 100 20 7.00815e-07
1 2 100 20 0.167775
2 2 100 20 0.259452
3 2 100 20 0.135118
4 2 100 20 0.0868288
5 2 100 20 0.054308
6 2 100 20 0.0692343
7 2 100 20 0.0291594
8 2 100 20 0.000132214
9 2 100 20 0.0643756
10 2 100 20 0.041609
11 2 100 20 7.60005e-05
12 2 100 20 6.6254e-05
13 2 100 20 0.0224052
14 2 100 20 0.0209126
15 2 100 20 3.29448e-06
17 2 100 20 0.027721
18 2 100 20 1.15085e-06
19 2 100 20 0.0207605
20 2 100 20 6.16295e-05
2 3 100 20 6.32208e-06
3 3 100 20 0.205134
4 3 100 20 0.248441
5 3 100 20 0.166743
6 3 100 20 0.100124
8 3 100 20 0.0344441
9 3 100 20 0.0345603
11 3 100 20 0.104037
15 3 100 20 2.14688e-05
16 3 100 20 0.0327649
17 3 100 20 0.0401409
18 3 100 20 0.0335829
1 4 100 20 0.000764089
2 4 100 20 0.0555996
3 4 100 20 0.0517749
4 4 100 20 0.074694
5 4 100 20 0.108293
6 4 100 20 0.0900526
7 4 100 20 0.0838055
8 4 100 20 0.112858
9 4 100 20 0.0333987
10 4 100 20 0.109677
11 4 100 20 0.104228
12 4 100 20 0.046148
13 4 100 20 0.0353773
14 4 100 20 0.0369928
15 4 100 20 0.037749
19 4 100 20 9.38168e-07
20 4 100 20 0.018586
1 5 100 20 0.0457902
3 5 100 20 0.0512927
4 5 100 20 2.60845e-06
5 5 100 20 0.0791018
6 5 100 20 0.149805
7 5 100 20 0.0910544
8 5 100 20 0.0417345
9 5 100 20 0.0927039
10 5 100 20 6.44661e-07
12 5 100 20 1.85402e-05
13 5 100 20 0.0918865
16 5 100 20 0.13192
17 5 100 20 0.045785
20 5 100 20 0.178904
3 6 100 20 1.29473e-05
4 6 100 20 0.000194031
5 6 100 20 0.127634
6 6 100 20 0.239279
7 6 100 20 1.66466e-05
8 6 100 20 0.255348
10 6 100 20 0.00107784
11 6 100 20 0.0399407
13 6 100 20 0.000175034
14 6 100 20 0.0804236
16 6 100 20 0.0398005
17 6 100 20 0.084685
18 6 100 20 0.091018
20 6 100 20 0.0403951
2 7 100 20 0.0253933
3 7 100 20 0.0226582
5 7 100 20 3.87663e-06
6 7 100 20 0.00292762
7 7 100 20 0.0734654
8 7 100 20 0.0556799
9 7 100 20 0.120528
10 7 100 20 0.181464
11 7 100 20 0.0671609
12 7 100 20 0.0715215
13 7 100 20 0.000995266
14 7 100 20 0.00518809
15 7 100 20 0.0244621
16 7 100 20 0.0491585
18 7 100 20 0.12348
19 7 100 20 0.120976
20 7 100 20 0.0549376
4 8 100 20 0.123397
6 8 100 20 0.00559645
7 8 100 20 0.0950966
8 8 100 20 0.0594717
9 8 100 20 0.0716848
10 8 100 20 0.125683
11 8 100 20 0.190635
12 8 100 20 0.129577
14 8 100 20 0.0962078
17 8 100 20 0.0363787
18 8 100 20 0.0291834
20 8 100 20 0.037089
5 9 100 20 6.10872e-07
9 9 100 20 0.0601894
10 9 100 20 0.0612446
11 9 100 20 0.0631848
12 9 100 20 0.0872689
13 9 100 20 0.0908536
14 9 100 20 0.0305996
15 9 100 20 0.120751
16 9 100 20 0.117677
17 9 100 20 0.0917717
18 9 100 20 0.0905069
19 9 100 20 0.122452
20 9 100 20 0.0635003
4 10 100 20 1.09244e-05
5 10 100 20 0.0343331
8 10 100 20 0.000171925
9 10 100 20 0.0297062
10 10 100 20 0.031314
11 10 100 20 0.0291236
12 10 100 20 0.0331047
13 10 100 20 0.178356
14 10 100 20 0.0888291
15 10 100 20 0.0889208
16 10 100 20 0.146132
17 10 100 20 0.137542
18 10 100 20 0.0607646
19 10 100 20 0.089285
20 10 100 20 0.0524063
1 11 100 20 0.0011351
2 11 100 20 0.0452826
3 11 100 20 2.65075e-06
4 11 100 20 8.72919e-05
5 11 100 20 0.000144065
7 11 100 20 0.000671699
8 11 100 20 0.000517592
9 11 100 20 9.51568e-05
10 11 100 20 0.0947485
11 11 100 20 7.4416e-06
12 11 100 20 1.05482e-05
13 11 100 20 0.0454399
14 11 100 20 0.0892896
16 11 100 20 0.356287
17 11 100 20 0.0913248
18 11 100 20 0.045792
19 11 100 20 0.183265
20 11 100 20 0.0458993
2 12 100 20 0.0403457
3 12 100 20 0.0655076
4 12 100 20 0.0382524
5 12 100 20 0.00961525
6 12 100 20 0.0350519
7 12 100 20 0.0393021
8 12 100 20 0.00100372
9 12 100 20 0.0502756
12 12 100 20 0.163444
13 12 100 20 0.201579
15 12 100 20 0.0805359
16 12 100 20 1.66113e-05
17 12 100 20 0.0542235
19 12 100 20 0.0419038
20 12 100 20 0.178943
1 13 100 20 0.0565326
2 13 100 20 4.80172e-06
3 13 100 20 4.7043e-05
4 13 100 20 0.0553318
7 13 100 20 0.107783
8 13 100 20 1.05342e-05
9 13 100 20 0.0517168
10 13 100 20 0.00115921
11 13 100 20 0.112081
12 13 100 20 0.0695802
13 13 100 20 0.169527
14 13 100 20 0.153716
15 13 100 20 0.00108573
18 13 100 20 0.165961
20 13 100 20 0.0554636
1 14 100 20 0.000261614
3 14 100 20 0.10321
7 14 100 20 4.84915e-05
12 14 100 20 0.135125
14 14 100 20 0.305345
15 14 100 20 0.156126
17 14 100 20 0.144453
20 14 100 20 0.15543
1 15 100 20 0.126079
2 15 100 20 0.0501551
3 15 100 20 0.0603574
4 15 100 20 0.000133935
5 15 100 20 0.0517822
7 15 100 20 0.0751755
8 15 100 20 0.0504573
9 15 100 20 0.0944694
10 15 100 20 0.0248404
11 15 100 20 0.0728374
12 15 100 20 0.0248248
14 15 100 20 0.0251213
15 15 100 20 0.0506965
16 15 100 20 0.075714
17 15 100 20 0.0666969
18 15 100 20 0.0740058
19 15 100 20 0.0513385
20 15 100 20 0.0253148
1 16 100 20 0.03347
3 16 100 20 0.0322081
4 16 100 20 0.103519
5 16 100 20 0.128464
6 16 100 20 0.0987086
7 16 100 20 0.0320324
8 16 100 20 0.0318637
9 16 100 20 0.064922
10 16 100 20 0.0344125
11 16 100 20 0.06454
12 16 100 20 0.0648526
15 16 100 20 0.0644895
16 16 100 20 4.75152e-07
19 16 100 20 0.190815
20 16 100 20 0.0557025
2 17 100 20 5.38117e-05
3 17 100 20 0.0670798
4 17 100 20 0.0671251
6 17 100 20 0.0673203
11 17 100 20 4.95002e-06
13 17 100 20 0.0651025
14 17 100 20 0.067101
15 17 100 20 0.129773
17 17 100 20 0.133917
18 17 100 20 0.134206
19 17 100 20 0.0671132
20 17 100 20 0.201203
7 18 100 20 0.09647
8 18 100 20 0.100319
9 18 100 20 0.136797
12 18 100 20 0.141952
13 18 100 20 0.144648
14 18 100 20 0.0965376
17 18 100 20 0.138414
18 18 100 20 0.144862
1 19 100 20 2.49877e-06
3 19 100 20 0.00104393
4 19 100 20 0.138043
5 19 100 20 0.121028
9 19 100 20 4.31756e-05
11 19 100 20 0.0683591
13 19 100 20 0.0696906
14 19 100 20 0.203191
15 19 100 20 0.0632978
16 19 100 20 0.0103491
17 19 100 20 0.0688104
18 19 100 20 0.135465
19 19 100 20 0.051866
20 19 100 20 0.0688107
5 20 100 20 0.0579016
12 20 100 20 0.233742
14 20 100 20 0.0101563
19 20 100 20 0.465033
20 20 100 20 0.233166
13 21 100 20 1.36317e-05
14 21 100 20 0.0311049
15 21 100 20 0.4152
16 21 100 20 0.276837
17 21 100 20 0.13841
20 21 100 20 0.138434
1 22 100 20 0.996868
5 22 100 20 0.0023607
14 22 100 20 0.000771005
3 23 100 20 0.0353008
4 23 100 20 0.371059
5 23 100 20 0.0412265
13 23 100 20 0.0475618
14 23 100 20 0.0145546
16 23 100 20 0.475733
18 23 100 20 0.0145637
1 0 100 21 0.0528918
2 0 100 21 0.00299058
3 0 100 21 0.0281339
4 0 100 21 0.0363474
5 0 100 21 0.02053
6 0 100 21 0.111876
7 0 100 21 0.0275562
8 0 100 21 0.060807
9 0 100 21 0.0285229
10 0 100 21 0.0279921
11 0 100 21 0.0256121
12 0 100 21 0.0100192
13 0 100 21 0.132075
14 0 100 21 0.0579015
15 0 100 21 0.0567003
16 0 100 21 0.0388311
17 0 100 21 0.027792
18 0 100 21 0.0497831
19 0 100 21 0.0789101
20 0 100 21 0.0870505
21 0 100 21 0.0376778
1 1 100 21 0.289944
2 1 100 21 0.121233
3 1 100 21 0.124716
4 1 100 21 0.0419647
6 1 100 21 2.251e-06
12 1 100 21 0.0420829
13 1 100 21 0.0833935
14 1 100 21 2.25979e-05
15 1 100 21 0.0861855
16 1 100 21 0.0829693
17 1 100 21 0.084139
19 1 100 21 3.09275e-06
21 1 100 21 0.0433434
1 2 100 21 0.0716132
2 2 100 21 0.183554
3 2 100 21 0.181841
4 2 100 21 0.060056
5 2 100 21 0.0714322
7 2 100 21 0.0727105
8 2 100 21 0.0599507
9 2 100 21 0.059753
10 2 100 21 0.0597065
11 2 100 21 0.0599081
17 2 100 21 0.119414
18 2 100 21 6.14002e-05
1 3 100 21 0.20483
2 3 100 21 0.206193
4 3 100 21 0.276442
5 3 100 21 0.209227
6 3 100 21 0.00146843
20 3 100 21 0.101839
2 4 100 21 0.0632017
3 4 100 21 0.0563622
4 4 100 21 0.0632783
5 4 100 21 0.0919945
6 4 100 21 0.0921338
7 4 100 21 0.0941909
8 4 100 21 0.0659245
10 4 100 21 0.125836
11 4 100 21 0.0570252
14 4 100 21 0.0316166
19 4 100 21 0.0940642
20 4 100 21 0.112764
21 4 100 21 0.0516084
7 5 100 21 0.243815
9 5 100 21 0.501848
13 5 100 21 0.00234072
14 5 100 21 0.250916
17 5 100 21 0.00108028
2 6 100 21 0.069159
3 6 100 21 0.0956324
4 6 100 21 0.023662
5 6 100 21 0.123801
6 6 100 21 0.0480339
7 6 100 21 0.0893431
8 6 100 21 0.136377
9 6 100 21 0.0946272
10 6 100 21 0.0476318
11 6 100 21 0.0948237
12 6 100 21 0.0224768
14 6 100 21 0.0236236
15 6 100 21 0.028815
17 6 100 21 4.92242e-06
18 6 100 21 0.0516268
19 6 100 21 0.0503596
21 6 100 21 1.05412e-06
5 7 100 21 0.0922261
7 7 100 21 0.00277226
12 7 100 21 0.153183
13 7 100 21 5.70544e-06
14 7 100 21 0.0825617
15 7 100 21 0.0853142
16 7 100 21 1.76803e-05
18 7 100 21 0.271869
19 7 100 21 0.000159548
20 7 100 21 0.198772
21 7 100 21 0.113119
4 8 100 21 0.00015846
6 8 100 21 0.0618273
8 8 100 21 0.122981
9 8 100 21 0.124865
11 8 100 21 0.0627108
12 8 100 21 0.125071
13 8 100 21 0.0629942
15 8 100 21 0.061154
16 8 100 21 0.0601557
18 8 100 21 0.0700417
19 8 100 21 0.0596797
21 8 100 21 0.188361
3 9 100 21 0.148164
8 9 100 21 9.7003e-06
10 9 100 21 0.226089
11 9 100 21 0.12737
12 9 100 21 0.124586
16 9 100 21 0.124588
17 9 100 21 0.249179
19 9 100 21 1.56152e-05
4 10 100 21 0.160989
5 10 100 21 0.0992618
7 10 100 21 0.0537376
9 10 100 21 0.0538885
10 10 100 21 0.0536941
11 10 100 21 0.0672354
12 10 100 21 0.0537492
13 10 100 21 0.0537495
16 10 100 21 0.0537429
18 10 100 21 0.153676
19 10 100 21 0.0537514
20 10 100 21 0.0490893
21 10 100 21 0.0934358
2 11 100 21 5.41153e-06
6 11 100 21 0.0946301
7 11 100 21 0.09463
8 11 100 21 3.82926e-05
10 11 100 21 0.116156
13 11 100 21 0.0230041
14 11 100 21 0.0946617
15 11 100 21 0.189267
16 11 100 21 0.100832
17 11 100 21 0.0945769
18 11 100 21 0.192198
4 12 100 21 0.0381308
5 12 100 21 0.000173598
6 12 100 21 0.0398436
9 12 100 21 0.0763058
10 12 100 21 0.0383925
11 12 100 21 0.0764716
12 12 100 21 0.192057
13 12 100 21 0.115498
14 12 100 21 0.115094
15 12 100 21 0.0763471
16 12 100 21 0.0757191
19 12 100 21 0.116154
20 12 100 21 0.0398125
3 13 100 21 8.16034e-07
4 13 100 21 0.0535813
6 13 100 21 0.053585
