2 0.707978 0.195452 0.0747745 0.0107346 0.00804525 0.00145085 0.000683331 0.000423741 0.000245861 0.000211038 
3 0.0918857 0.595058 0.0776008 0.0942033 0.0507521 0.0482522 0.0241538 0.00839481 0.00432779 0.00537194 
4 0.795702 0.202989 0.000784013 0.000159306 0.000219116 2.28e-05 0.000114893 3.80891e-06 3.39751e-06 2.38459e-06 
5 0.282057 0.554665 0.0908682 0.0333186 0.0227212 0.0108319 0.00242828 0.00149634 0.000868198 0.000745227 
6 0.766819 0.226344 0.00577882 0.000910986 6.55193e-05 4.1371e-05 1.5986e-05 9.43183e-06 8.41384e-06 5.90538e-06 
7 0.535025 0.449507 0.00823744 0.00619536 0.00028933 0.000594319 7.3306e-05 3.56298e-05 2.06213e-05 2.16149e-05 
8 0.386287 0.521774 0.0764767 0.0150739 0.000172771 0.000110094 4.25408e-05 2.50994e-05 2.23904e-05 1.5715e-05 
9 0.589917 0.401896 0.00393994 0.0023552 0.000598093 0.000358747 0.000169056 0.000104929 0.00060717 5.31169e-05 
10 0.17585 0.459052 0.051334 0.101456 0.125558 0.0262754 0.00969367 0.0218228 0.0253496 0.00360872 
11 0.652272 0.272219 0.0294298 0.0165791 0.0239063 0.00291633 0.00116995 0.000725497 0.000420945 0.000361322 
12 0.1665 0.823224 0.00491538 0.0029996 0.0014606 0.000435298 0.000203201 0.000126007 7.31114e-05 6.27559e-05 
13 0.839863 0.158972 0.000850345 7.90588e-05 0.000190324 2.30886e-05 8.92156e-06 5.26379e-06 4.69566e-06 3.29572e-06 
14 0.42833 0.493457 0.0458708 0.0212371 0.00780731 0.00208077 0.000531611 0.000329658 0.000191273 0.000164181 
15 0.248462 0.723092 0.00505716 0.006983 0.0100939 0.00502877 0.000621965 0.000302573 0.000175119 0.000183556 
16 0.199471 0.554571 0.0972583 0.084619 0.0415499 0.0102862 0.0058844 0.00330217 0.00166441 0.0013942 
17 0.311042 0.516881 0.0487888 0.076938 0.0273501 0.00834008 0.00512289 0.00287483 0.00144902 0.00121378 
18 0.312349 0.672016 0.0083394 0.00454384 0.00124163 0.000700815 0.000392007 0.000190704 0.000110373 0.000115691 
19 0.82345 0.16404 0.0105185 0.00114309 1.46472e-05 0.000552386 3.39939e-06 3.05763e-06 0.000273789 8.67081e-07 
20 0.346415 0.644852 0.00686706 0.00140282 0.000208784 0.000117826 6.59069e-05 3.20624e-05 1.85566e-05 1.94507e-05 
21 0.877216 0.109798 0.0070258 0.00380551 0.00134181 0.000630564 9.51935e-05 3.96356e-05 2.29397e-05 2.4045e-05 
22 0.349923 0.601218 0.0433764 0.00410865 0.00102437 0.00027943 3.41135e-05 1.65955e-05 9.60487e-06 1.00677e-05 
23 0.172375 0.760724 0.0121016 0.0335633 0.0148622 0.00599369 0.000201303 8.19334e-05 4.74202e-05 4.9705e-05 
24 0.834776 0.122837 0.0245185 0.0157912 0.00127506 0.000187788 0.000531034 3.8672e-05 2.22067e-05 2.32767e-05 
25 0.234541 0.726561 0.032626 0.0023652 0.00260985 0.000602228 0.000336842 0.000163867 9.48404e-05 9.94101e-05 
26 0.360684 0.531285 0.0665652 0.0204712 0.00775788 0.003702 0.00801394 0.000789533 0.000397953 0.000333347 
27 0.505559 0.483155 0.00615959 0.0014401 0.000783442 0.00174712 0.000209019 0.000442049 0.000436627 6.72298e-05 
28 0.848911 0.149388 0.00156523 8.17883e-05 2.53851e-05 1.32165e-05 7.39276e-06 3.59643e-06 2.08148e-06 2.18178e-06 
29 0.0944368 0.817938 0.029421 0.0137242 0.0115693 0.00591232 0.00742049 0.0136559 0.0052702 0.000652027 
30 0.956996 0.0391792 0.00122251 0.00099974 0.00103403 0.00037169 7.92779e-05 4.67745e-05 4.17261e-05 2.92861e-05 
31 0.445885 0.382438 0.0658215 0.0509599 0.0256932 0.0134178 0.00735683 0.00408611 0.00233513 0.00200635 
32 0.20229 0.598847 0.086459 0.046275 0.0285699 0.0164862 0.0101266 0.0056828 0.00286434 0.00239932 
33 0.558055 0.399639 0.0167697 0.0109479 0.0065839 0.00371616 0.00207867 0.00101123 0.000585265 0.000613465 
34 0.316977 0.544131 0.0503844 0.0686479 0.0113457 0.00409648 0.00193041 0.00119707 0.000694559 0.000596181 
35 0.145398 0.697743 0.0711638 0.0403809 0.0198435 0.00991388 0.00888419 0.0030876 0.0016946 0.00189071 
36 0.117374 0.858517 0.0214337 0.00124839 0.000632541 0.000382175 0.000180096 0.00011168 6.47984e-05 5.56204e-05 
37 0.0424511 0.919362 0.0232396 0.00493291 0.00503969 0.00260613 0.00118787 0.000572449 0.000327144 0.000281082 
38 0.0466425 0.799968 0.138045 0.00676722 0.00370591 0.00213848 0.00131356 0.000737136 0.000371543 0.000311225 
39 0.064962 0.864058 0.0387532 0.0131041 0.0140325 0.00243243 0.00127697 0.0007166 0.000361192 0.000302554 
40 0.470143 0.52271 0.00587031 0.000916269 0.000162512 9.17273e-05 5.13085e-05 2.49606e-05 1.44463e-05 1.51424e-05 
41 0.162507 0.525654 0.104824 0.0927183 0.0529944 0.0281318 0.01546 0.00858674 0.00490717 0.00421623 
42 0.554218 0.43446 0.00516915 0.00319206 0.00239243 0.000290845 0.000134222 6.52962e-05 3.77911e-05 3.9612e-05 
43 0.0446653 0.947847 0.00506613 0.00130476 0.000528507 0.000282756 0.000133246 8.26277e-05 4.79419e-05 4.11514e-05 
44 0.0730792 0.826249 0.0432783 0.0244738 0.0230371 0.00537419 0.0021664 0.00121572 0.000612769 0.000513289 
45 0.612719 0.38111 0.00197811 0.00257881 0.000650596 0.000171479 0.000691631 4.59101e-05 2.65712e-05 2.78514e-05 
46 0.18088 0.784504 0.0199392 0.0084278 0.00349102 0.00132678 0.000625234 0.000387715 0.000224958 0.000193095 
47 0.174021 0.586368 0.068892 0.0517171 0.0579405 0.0362352 0.01193 0.00669481 0.00337443 0.0028266 
48 0.370602 0.526979 0.0213669 0.0418441 0.00765021 0.0292126 0.00113655 0.000552903 0.000320001 0.00033542 
49 0.317182 0.503956 0.056764 0.0575747 0.0486264 0.00767717 0.00359146 0.00222711 0.0012922 0.00110917 
50 0.209866 0.702645 0.0355912 0.0200382 0.0192456 0.0060688 0.00285987 0.00177344 0.00102898 0.000883232 
51 0.128577 0.659822 0.0584261 0.0322448 0.0979685 0.011564 0.0054773 0.00307372 0.00154927 0.00129775 
52 0.138078 0.667296 0.0790289 0.0475695 0.0286891 0.0225871 0.00842038 0.00432497 0.00217994 0.00182603 
53 0.289124 0.604629 0.041792 0.0277444 0.00950304 0.0121671 0.0134191 0.000815131 0.000434099 0.000372613 
54 0.122929 0.471218 0.130526 0.0959928 0.0695272 0.0391769 0.0415971 0.0143937 0.00736305 0.00727655 
55 0.154742 0.530595 0.0954723 0.0772707 0.0475281 0.041708 0.0335306 0.00961471 0.00513022 0.00440788 
56 0.548572 0.448182 0.0014243 0.000910699 0.000510032 0.000261925 6.07526e-05 3.76733e-05 2.18587e-05 1.87626e-05 
57 0.973122 0.00823013 0.0135037 0.0036043 0.000436876 0.000564584 0.000242785 0.000184354 0.000111441 1.79193e-07 
58 0.308194 0.663314 0.0276759 0.000697845 0.000109616 4.6055e-06 1.43736e-06 7.9257e-07 1.42954e-06 3.66628e-07 
59 0.274431 0.562773 0.043855 0.0346897 0.0524595 0.00625446 0.0109952 0.0125934 0.00104839 0.000899897 
60 0.302378 0.574047 0.0416274 0.041886 0.0200262 0.00963868 0.00454214 0.00281663 0.00163426 0.00140278 
61 0.164424 0.309251 0.148011 0.149956 0.108666 0.058136 0.023141 0.0162286 0.0120178 0.0101694 
62 0.654943 0.292557 0.020053 0.015092 0.00769368 0.00464844 0.00219054 0.00135838 0.000788152 0.000676518 
63 0.678978 0.296105 0.0122249 0.00501641 0.00340757 0.00217723 0.000841292 0.000496369 0.000442795 0.000310782 
64 0.247007 0.656865 0.067135 0.0181699 0.00852637 0.00129352 0.000438107 0.000271675 0.00015763 0.000135304 
65 0.173749 0.613072 0.0526381 0.0534888 0.0378287 0.021877 0.020295 0.0220216 0.00273704 0.00229269 
66 0.857614 0.140641 0.000723011 0.000518439 0.000381568 0.000117012 1.6595e-06 9.14611e-07 1.64966e-06 4.23082e-07 
67 0.15965 0.75016 0.0459123 0.0351352 0.00712079 0.00115919 0.000417934 0.000203316 0.000117672 0.000123342 
68 0.173393 0.749603 0.0398166 0.0121433 0.0117421 0.0093082 0.00174502 0.0010821 0.00062785 0.000538921 
69 0.494686 0.450424 0.0416762 0.0124205 0.000603308 9.72151e-05 3.74032e-05 2.20682e-05 1.96863e-05 1.38171e-05 
70 0.257509 0.645948 0.039343 0.021381 0.0175788 0.00197506 0.00118888 0.0144386 0.000311806 0.000326037 
71 0.212891 0.674042 0.0372914 0.0389187 0.0239896 0.00684597 0.00289358 0.00162366 0.000818383 0.000685521 
72 0.355076 0.545645 0.0506628 0.018282 0.0137877 0.00463295 0.00272153 0.00158243 0.00334096 0.00426847 
73 0.140497 0.721065 0.0683446 0.0235063 0.00846517 0.0277092 0.00879592 0.000840189 0.00041778 0.000358605 
74 0.115171 0.82491 0.0187688 0.0208192 0.0195847 0.000352673 0.000190796 9.28183e-05 5.37199e-05 5.63083e-05 
75 0.184919 0.745361 0.0227965 0.030566 0.00730977 0.00397146 0.00243947 0.00136897 0.000690009 0.000577989 
76 0.118926 0.659225 0.052865 0.0759186 0.0465584 0.0245856 0.0139021 0.00204171 0.00116691 0.00481113 
77 0.115904 0.530005 0.123067 0.0905074 0.0655542 0.032374 0.0186237 0.0101604 0.00694231 0.00686075 
78 0.0990685 0.854603 0.0319118 0.00840019 0.00503019 0.000784728 9.76987e-05 4.75285e-05 2.75078e-05 2.88332e-05 
79 0.186587 0.527939 0.0933338 0.074813 0.0491534 0.0317238 0.0150969 0.00988014 0.00542272 0.00605026 
80 0.235851 0.519548 0.0831823 0.0370356 0.0240884 0.0375166 0.0423326 0.00839627 0.00931653 0.00273302 
81 0.146405 0.275492 0.156239 0.220998 0.0942905 0.051765 0.020605 0.0144501 0.0107008 0.00905498 
82 0.578701 0.411684 0.00694109 0.000330058 0.0020756 0.000136845 5.28767e-05 3.11977e-05 2.78304e-05 1.95332e-05 
83 0.0818199 0.888226 0.0185013 0.00592954 0.00269262 0.0012426 0.00076327 0.000428327 0.000215892 0.000180843 
84 0.107321 0.879436 0.00636374 0.00215715 0.00142196 0.00263947 0.000556518 4.77344e-05 2.72717e-05 2.85857e-05 
85 0.148015 0.565239 0.0915786 0.0792962 0.0530106 0.0296905 0.01546 0.00858674 0.00490716 0.00421623 
86 0.787132 0.196066 0.0116377 0.00154112 0.00305652 0.000364956 8.12198e-05 4.79203e-05 4.27482e-05 3.00034e-05 
87 0.182489 0.547247 0.0727886 0.0594678 0.0775609 0.0227393 0.0237041 0.00753708 0.00351905 0.00294774 
88 0.163811 0.737089 0.0197689 0.0499765 0.0166302 0.00837296 0.00109985 0.000445421 0.000258465 0.00254739 
89 0.437437 0.522051 0.0237579 0.0134566 0.00113496 0.00177176 0.000173011 0.000104776 6.07929e-05 5.21822e-05 
90 0.29755 0.670044 0.0216229 0.00272876 0.00140648 0.00416182 0.00202548 0.000223931 0.000115233 0.000120786 
91 0.0881881 0.401401 0.116885 0.102047 0.0724507 0.110189 0.0145198 0.0119036 0.051276 0.0311404 
92 0.817153 0.179853 0.00222885 0.000437234 0.000147734 8.33859e-05 4.66427e-05 2.26907e-05 1.31326e-05 1.37654e-05 
93 0.19315 0.77089 0.0332012 0.00219585 0.000254133 0.000143437 8.02331e-05 3.90318e-05 2.25902e-05 2.36787e-05 
94 0.179325 0.585253 0.107434 0.0549815 0.0328759 0.0161463 0.00738662 0.00246817 0.0129662 0.00116357 
95 0.177244 0.772277 0.0244275 0.0196474 0.00209302 0.0033876 0.000403772 0.000250368 0.000145267 0.000124692 
96 0.167855 0.4714 0.0940961 0.0939884 0.0574972 0.0465589 0.0190838 0.0370506 0.00589445 0.00657637 
97 0.230998 0.727527 0.0198757 0.0107693 0.00661282 0.00334201 0.000382981 0.000236751 0.000137366 0.00011791 
98 0.194739 0.520433 0.105882 0.0750784 0.0465352 0.0284833 0.0113328 0.010515 0.00352146 0.00348009 
99 0.159876 0.747066 0.076871 0.010746 0.00256683 0.00138277 0.000651616 0.000404075 0.00023445 0.000201243 
100 0.508379 0.480159 0.00842638 0.0014796 0.000927882 0.00030246 0.000142531 8.83854e-05 5.12826e-05 4.40189e-05 
101 0.207653 0.510057 0.167325 0.0424412 0.0452777 0.0120507 0.00580237 0.00570284 0.00185681 0.00183302 
102 0.214119 0.362444 0.182157 0.146338 0.0603436 0.0177236 0.00698929 0.00457414 0.00251052 0.00280105 
103 0.17264 0.534825 0.0830432 0.0921797 0.0675552 0.0249318 0.01193 0.00669481 0.00337443 0.0028266 
104 0.108715 0.870971 0.0115941 0.00389297 0.00225095 0.00204969 0.000255218 0.000124158 7.1858e-05 7.53204e-05 
105 0.135962 0.848585 0.00655758 0.00641471 0.00110123 0.000664063 0.000312934 0.000194054 0.000112593 9.66454e-05 
106 0.0776208 0.878924 0.024488 0.00946386 0.00530824 0.00185918 0.00112228 0.000629795 0.000317439 0.000265904 
107 0.200402 0.438436 0.181224 0.113648 0.0316371 0.0180512 0.00774723 0.00429337 0.00245358 0.00210812 
108 0.182648 0.570834 0.0856759 0.0682898 0.0457396 0.020548 0.0126216 0.00708292 0.00357005 0.00299046 
109 0.148839 0.727205 0.0807036 0.0238613 0.0151869 0.00202902 0.000950356 0.000589327 0.000341937 0.000293505 
110 0.989581 0.00794152 0.000712214 0.00104033 0.000294206 0.000347389 7.85383e-05 1.29608e-06 2.33771e-06 5.99542e-07 
111 0.319827 0.674191 0.00252219 0.00148314 0.000891936 0.000503437 0.000281602 0.000136994 7.92872e-05 8.31075e-05 
112 0.260343 0.628508 0.0501473 0.028373 0.0144641 0.00873907 0.00411821 0.00255375 0.00148173 0.00127185 
113 0.167358 0.523491 0.108028 0.0790823 0.0587475 0.0291331 0.0159215 0.00884307 0.00505365 0.00434209 
114 0.424618 0.467004 0.0317248 0.028408 0.0191238 0.0166441 0.00989279 0.00124371 0.00072162 0.000619409 
115 0.300592 0.486395 0.0686628 0.0578637 0.0398479 0.0177903 0.00935737 0.00536345 0.0111664 0.00296136 
116 0.178948 0.657659 0.0902111 0.0243821 0.00868946 0.0264262 0.0110827 0.00125184 0.000726336 0.000623458 
117 0.525847 0.468318 0.00551118 0.000128274 8.65129e-05 5.52763e-05 2.13591e-05 1.2602e-05 1.12419e-05 7.89026e-06 
118 0.079832 0.656415 0.128486 0.0809358 0.0268646 0.0126045 0.00692689 0.00384731 0.00219866 0.00188909 
119 0.0558183 0.799362 0.0341035 0.0297859 0.041961 0.0222245 0.0103164 0.0037306 0.00127493 0.00142248 
120 0.0766076 0.864373 0.0273363 0.0201169 0.00387446 0.00196173 0.00209698 0.000666703 0.00247551 0.00049055 
121 0.156234 0.791062 0.024689 0.0146427 0.0101441 0.00155318 0.000731909 0.000453865 0.00026334 0.00022604 
122 0.639758 0.318916 0.0397908 0.000508107 0.000154785 9.88977e-05 3.82146e-05 2.43248e-05 0.000695865 1.45524e-05 
123 0.0768181 0.899219 0.00875371 0.00451335 0.00738792 0.00161767 0.000812398 0.000455896 0.000229788 0.000192483 
124 0.183111 0.571879 0.0757217 0.0793618 0.0503699 0.0198628 0.00785569 0.00585001 0.00472371 0.00126407 
125 0.168036 0.565167 0.0606311 0.0545132 0.103889 0.0236003 0.0116119 0.00651628 0.00328444 0.00275123 
126 0.117839 0.820031 0.0376286 0.00938181 0.00911426 0.0029042 0.00135467 0.000840049 0.00048741 0.000418373 
127 0.180415 0.656524 0.054067 0.0362234 0.0367058 0.0112276 0.00719423 0.0115599 0.00532764 0.000755662 
128 0.42279 0.411472 0.0345034 0.00916059 0.00549864 0.0073177 0.0411153 0.067043 0.000587125 0.000512344 
129 0.115039 0.67162 0.0885583 0.0457732 0.0270497 0.0200039 0.0166788 0.00628274 0.00265744 0.00633685 
130 0.346617 0.461819 0.0793738 0.0328936 0.0312231 0.00835791 0.0193063 0.0148617 0.0044727 0.00107483 
131 0.0944663 0.89516 0.00716637 0.000907734 0.000545768 0.00139839 0.000172292 8.38098e-05 4.85061e-05 5.08433e-05 
132 0.158207 0.605842 0.0846284 0.0811201 0.0310353 0.0131279 0.00806381 0.0105982 0.00546714 0.00191057 
133 0.0552462 0.763897 0.135015 0.0290323 0.0101209 0.00289056 0.00166071 0.000906024 0.000619059 0.000611786 
134 0.0997504 0.665569 0.113024 0.0413669 0.0507151 0.0189766 0.00509293 0.00285802 0.00144054 0.00120668 
135 0.129328 0.589334 0.117243 0.0708467 0.039707 0.0245708 0.013503 0.00749981 0.004286 0.00368253 
136 0.180039 0.57375 0.0855015 0.0794636 0.0351016 0.0202544 0.0124413 0.00698173 0.00351905 0.00294774 
137 0.683016 0.264464 0.0318104 0.0119183 0.00248936 0.00209122 0.00352873 0.000413631 0.000144512 0.000124043 
138 0.13643 0.161824 0.226517 0.229053 0.121275 0.0483355 0.0318679 0.0242486 0.00950321 0.0109457 
139 0.134638 0.617095 0.0673668 0.0590187 0.100267 0.0118182 0.00470752 0.00264174 0.00133153 0.00111536 
140 0.178184 0.4853 0.0998374 0.101262 0.0567548 0.0366044 0.0174195 0.0114002 0.00625698 0.00698107 
141 0.488659 0.509916 0.000667568 0.000181173 0.000513445 3.56818e-05 1.08606e-05 6.40784e-06 5.71623e-06 4.01202e-06 
142 0.699044 0.290814 0.00655185 0.00155252 0.000502871 0.00131135 0.000123287 4.59376e-05 2.6587e-05 2.78681e-05 
143 0.0796052 0.62219 0.120381 0.0716498 0.0547296 0.0222182 0.012781 0.00697283 0.00476433 0.00470836 
144 0.540641 0.427168 0.0174232 0.00590159 0.00580434 0.00143726 0.000780368 0.000437922 0.000220729 0.000184894 
145 0.1881 0.558022 0.0684715 0.0903827 0.0468128 0.0211614 0.0129984 0.00729435 0.00367661 0.00307973 
146 0.588177 0.401577 0.00782211 0.000331891 8.26599e-05 0.000216838 0.00175065 1.29004e-05 2.32681e-05 5.96746e-06 
147 0.740015 0.192348 0.0233528 0.0305521 0.00390711 0.0011287 0.00748497 0.00101802 9.48404e-05 9.94101e-05 
148 0.248028 0.578446 0.0340667 0.0374186 0.014701 0.0657472 0.0167935 0.00231101 0.00133891 0.00114927 
149 0.157123 0.538758 0.096944 0.0893731 0.0527275 0.0298629 0.0164114 0.00911516 0.00520914 0.00447569 
150 0.178184 0.500448 0.0996678 0.0863227 0.0567155 0.0366044 0.0174195 0.0114002 0.00625698 0.00698107 
151 0.277047 0.414968 0.132838 0.0897314 0.0404712 0.0163034 0.0106877 0.010027 0.00447133 0.00345505 
152 0.235092 0.631538 0.0853667 0.0267934 0.0127183 0.00410131 0.00191842 0.00118963 0.000690245 0.000592479 
153 0.660389 0.314173 0.0202466 0.00419287 0.000495282 0.000233798 0.000130777 6.36205e-05 3.68213e-05 3.85955e-05 
154 0.252715 0.714992 0.01117 0.0170556 0.00187185 0.0010196 0.000570321 0.00027745 0.000160578 0.000168315 
155 0.402103 0.511022 0.0434382 0.0311874 0.00675611 0.00264286 0.00124543 0.000772303 0.000448102 0.000384633 
156 0.146041 0.75536 0.0750628 0.0145388 0.00398578 0.00286164 0.00103308 0.00057974 0.00029221 0.000244771 
157 0.689771 0.152117 0.134839 0.0138193 0.00864794 0.000757641 1.72071e-05 9.48035e-06 1.70995e-05 4.38543e-06 
158 0.207725 0.50428 0.159345 0.0804485 0.02814 0.00880628 0.00540926 0.00303553 0.00153002 0.00128163 
159 0.298969 0.570436 0.0393054 0.0428195 0.0163912 0.0222347 0.00431652 0.00266016 0.00154346 0.00132485 
160 0.710563 0.266464 0.0135907 0.00112599 0.00240562 0.00135985 0.00047545 0.00391054 5.59395e-05 4.82144e-05 
161 0.1035 0.870359 0.0218568 0.00121538 0.0021839 0.000411104 0.000229955 0.000111868 6.47455e-05 6.78651e-05 
162 0.167816 0.456402 0.13921 0.0920115 0.0669455 0.0379231 0.0119378 0.0083719 0.00656703 0.0128153 
163 0.407904 0.404457 0.0771239 0.0435148 0.0305806 0.0164612 0.0123538 0.00450387 0.00166795 0.0014331 
164 0.189303 0.706202 0.0513536 0.0227106 0.00720782 0.0190857 0.00191377 0.00107001 0.000620835 0.0005329 
165 0.137201 0.644016 0.0682836 0.0367362 0.0544866 0.0137883 0.0128599 0.00408753 0.00322971 0.0253112 
166 0.204784 0.584609 0.0688302 0.0679138 0.0319136 0.0184131 0.0113103 0.00634703 0.00319913 0.00267977 
167 0.122856 0.715971 0.0783477 0.0380442 0.0193466 0.0111639 0.00685741 0.0038482 0.00193963 0.00162474 
168 0.30358 0.675358 0.0111157 0.00462605 0.00235828 0.00142485 0.000671447 0.000416372 0.000241586 0.000207367 
169 0.313834 0.624749 0.0268926 0.0110226 0.00955376 0.0117429 0.000964757 0.00059667 0.000346197 0.000297162 
170 0.180836 0.683688 0.0469076 0.0543092 0.0151199 0.00878321 0.00482688 0.00268093 0.0015321 0.00131638 
171 0.124955 0.43661 0.16208 0.11715 0.0792146 0.0386577 0.0125358 0.016878 0.00645598 0.00546292 
172 0.212829 0.64978 0.0602775 0.0183831 0.0255885 0.0121679 0.0186334 0.00118028 0.000624322 0.000535894 
173 0.0705998 0.89759 0.0122634 0.00829062 0.00945116 0.00112022 0.000299288 0.000185592 0.000107683 9.24312e-05 
174 0.273945 0.533836 0.0344188 0.105438 0.0109564 0.0150345 0.0110259 0.0133417 0.00109599 0.000908467 
175 0.42719 0.458764 0.0310381 0.0254612 0.0243812 0.0123923 0.0062832 0.00352093 0.00732974 0.00363949 
176 0.12682 0.746244 0.03867 0.0638779 0.0152289 0.00409339 0.000916788 0.00353365 0.000331679 0.000283054 
177 0.199114 0.653056 0.0585995 0.0340553 0.0165576 0.029721 0.00469777 0.00201511 0.00103224 0.0011517 
178 0.141567 0.831799 0.0171218 0.0080406 0.000676263 0.000369187 0.000206508 0.000100462 5.81439e-05 6.09455e-05 
179 0.103557 0.824429 0.0455095 0.0131589 0.00612735 0.00433142 0.00146259 0.000690542 0.000394632 0.000339067 
180 0.466385 0.521362 0.00540154 0.00479296 0.00163135 0.000205602 0.000107323 5.22103e-05 3.02175e-05 3.16735e-05 
181 0.092199 0.777793 0.0727593 0.0305051 0.011579 0.00665639 0.00408869 0.00229447 0.00115649 0.000968741 
182 0.1881 0.571301 0.0710622 0.0751094 0.0462121 0.0211659 0.0129984 0.00729435 0.00367661 0.00307973 
183 0.144878 0.644326 0.0855622 0.0578761 0.0302307 0.0162967 0.0100102 0.00561748 0.00283142 0.00237175 
184 0.131414 0.803251 0.0222407 0.0194869 0.0126178 0.00952296 0.000650573 0.000392482 0.000227724 0.000195469 
185 0.217573 0.616366 0.113422 0.0135655 0.0245575 0.0102219 0.00188094 0.0011608 0.000673512 0.000578116 
186 0.392119 0.533809 0.0393985 0.0124272 0.0117906 0.00492904 0.00239903 0.00206313 0.000576197 0.000488941 
187 0.500205 0.440343 0.0303285 0.0128401 0.00813349 0.00293396 0.00345207 0.000920468 0.000458721 0.000384249 
188 0.132281 0.558312 0.112473 0.100493 0.042525 0.0207598 0.020558 0.00610812 0.00349066 0.00299918 
189 0.214964 0.668218 0.0344053 0.0543867 0.00912812 0.00861446 0.00709506 0.0015371 0.000889035 0.000763112 
190 0.745275 0.225552 0.0213232 0.00258631 0.00382212 0.000399267 5.14904e-05 0.000942837 2.78554e-05 1.90159e-05 
191 0.76379 0.233436 0.00191783 0.000385406 0.000212474 0.000119927 6.70823e-05 3.26342e-05 1.88875e-05 1.97976e-05 
192 0.210688 0.558695 0.0755341 0.0665152 0.0514396 0.0182507 0.00907178 0.00509084 0.00256597 0.00214939 
193 0.514873 0.419445 0.0298958 0.0171542 0.0136235 0.00201034 0.00253646 0.000224932 0.00012715 0.000109141 
194 0.163296 0.601567 0.0471818 0.0997457 0.0367343 0.0425124 0.0028305 0.00587343 0.000126374 0.000132453 
195 0.420295 0.546404 0.0292563 0.00205847 0.00185257 6.81577e-05 2.63272e-05 1.55333e-05 1.38567e-05 9.72555e-06 
196 0.0976328 0.769796 0.0533504 0.0445122 0.019565 0.00990629 0.00251703 0.00141249 0.000711946 0.000596364 
197 0.143718 0.602339 0.12382 0.0586571 0.0273208 0.0250688 0.00916728 0.00514443 0.00259298 0.00217202 
198 0.590055 0.312567 0.0626048 0.0169028 0.0148288 0.00141221 0.000789895 0.000384268 0.000222401 0.000233117 
199 0.730678 0.25147 0.0119145 0.00278946 0.000966783 0.00182152 0.00018585 6.91407e-05 6.16782e-05 4.32898e-05 
200 0.584847 0.364791 0.0312476 0.014166 0.0022554 0.00129532 0.000610407 0.00037852 0.000219623 0.000188516 
201 0.235114 0.562231 0.0575612 0.0605031 0.0437039 0.017947 0.0110239 0.00618634 0.00311814 0.00261192 
202 0.282145 0.595295 0.0411566 0.0221977 0.0457627 0.00503383 0.0052021 0.00159703 0.00086597 0.000744041 
203 0.996669 0.00249677 0.000297986 4.16334e-05 5.17879e-05 0.000433973 4.15184e-06 1.61254e-06 2.9085e-06 7.45931e-07 
204 0.22421 0.531928 0.0745228 0.0605742 0.0491043 0.0260188 0.0199331 0.00790588 0.00315812 0.00264541 
205 0.167854 0.457166 0.095474 0.136327 0.0690762 0.0344824 0.0164096 0.0107393 0.00589426 0.00657637 
206 0.282477 0.604171 0.0749915 0.0147063 0.0113647 0.00565183 0.00319008 0.00179019 0.000902319 0.000755831 
207 0.136521 0.573506 0.0965844 0.0913586 0.0502344 0.0238843 0.013009 0.00722543 0.0041292 0.00354781 
208 0.111618 0.872801 0.00567947 0.00478919 0.00436015 0.000349712 0.000195277 9.49982e-05 5.49816e-05 5.76308e-05 
209 0.075058 0.830374 0.0365004 0.0287072 0.0162782 0.0052206 0.00365464 0.00237278 0.000867172 0.000967525 
210 0.0972708 0.66971 0.0509586 0.105227 0.0481274 0.0132418 0.00720771 0.00400328 0.0022878 0.00196568 
211 0.136478 0.83234 0.0100033 0.0159336 0.002579 0.00212397 0.000263367 0.000127452 7.37647e-05 7.73189e-05 
212 0.639166 0.24414 0.033085 0.0179223 0.0295028 0.0195778 0.009997 0.00486168 0.000951093 0.000796687 
213 0.0612181 0.907319 0.0210226 0.00453787 0.00125935 0.00334845 0.000554872 0.000582831 8.42575e-05 7.23191e-05 
214 0.196401 0.540025 0.0829738 0.0787616 0.0569762 0.0196918 0.0120957 0.00678779 0.00342129 0.00286586 
215 0.144645 0.505179 0.108708 0.119705 0.0481033 0.031101 0.0245469 0.00914521 0.00476894 0.00409746 
216 0.485743 0.378673 0.108309 0.0106504 0.00756059 0.000327373 0.00644443 7.66213e-05 0.00217084 4.40246e-05 
217 0.122071 0.74107 0.052269 0.0393284 0.0137105 0.0225992 0.00474949 0.00218179 0.0010997 0.000921169 
218 0.109336 0.665987 0.0926023 0.0495518 0.0531631 0.0137893 0.00725674 0.00403051 0.00230336 0.00197905 
219 0.275106 0.550573 0.0526432 0.040718 0.0522067 0.0187967 0.00435022 0.00269762 0.0015652 0.00134351 
220 0.170323 0.507807 0.0952446 0.0972176 0.0542159 0.0349895 0.016651 0.0108972 0.00598094 0.00667308 
221 0.183487 0.499572 0.0932747 0.0932683 0.0715545 0.0270554 0.0148158 0.00822896 0.0047027 0.00404056 
222 0.406704 0.370418 0.0756307 0.062057 0.0426987 0.0105879 0.0110519 0.0203498 0.000269149 0.000231957 
223 0.289812 0.560758 0.0415122 0.0431599 0.0250781 0.0251294 0.00886351 0.00273616 0.00158756 0.0013627 
224 0.135072 0.555932 0.104244 0.0838924 0.0549371 0.0415034 0.0114197 0.00630304 0.00360207 0.00309489 
225 0.461443 0.485562 0.0463954 0.00364616 0.00131034 0.000790627 0.000372576 0.000231039 0.000134052 0.000115065 
226 0.116609 0.507938 0.142863 0.130863 0.0532952 0.0164264 0.00796075 0.00608539 0.0143128 0.00364662 
227 0.247164 0.49463 0.0561696 0.0411408 0.0335802 0.114881 0.00739596 0.00242445 0.0014067 0.00120746 
228 0.14093 0.569845 0.0864876 0.0747211 0.0387591 0.0239641 0.0193471 0.0379799 0.00437446 0.00359161 
229 0.242663 0.614652 0.0653265 0.0383527 0.0220105 0.00867812 0.00363371 0.00225331 0.0013074 0.00112222 
230 0.170661 0.546644 0.0763655 0.0975934 0.0719423 0.0181106 0.00897826 0.00503836 0.00253952 0.00212724 
231 0.34346 0.608032 0.0164527 0.0167405 0.00994755 0.0026269 0.00119715 0.000742369 0.000430734 0.000369725 
232 0.123657 0.297945 0.136904 0.1953 0.133541 0.0491184 0.0251967 0.0216702 0.00557577 0.0110919 
233 0.129656 0.781211 0.0711089 0.012058 0.00267471 0.00158316 0.000746053 0.000462636 0.000268429 0.000230408 
234 0.991898 0.00646221 0.000375688 0.000878743 0.00029692 4.7909e-05 1.6305e-05 9.62009e-06 8.58177e-06 6.02324e-06 
235 0.188975 0.460936 0.10349 0.0986597 0.0569752 0.0482767 0.0207488 0.0101511 0.00557128 0.00621602 
236 0.64237 0.303138 0.021339 0.0154201 0.00786094 0.00474949 0.00223816 0.00138791 0.000805285 0.000691225 
237 0.985993 0.0117801 0.000929753 0.000774907 0.000446819 4.01497e-05 1.25165e-05 6.90169e-06 1.24484e-05 3.19259e-06 
238 0.689281 0.249284 0.0107721 0.00442236 0.00759206 0.0368051 0.000741665 0.000437588 0.000390358 0.000273979 
239 0.187459 0.411208 0.0816148 0.103061 0.092093 0.077603 0.0204569 0.0122966 0.0063393 0.00786876 
240 0.658668 0.303204 0.0221708 0.0057223 0.00548086 0.00339134 0.000595209 0.000369039 0.000214122 0.000183794 
241 0.0818897 0.511926 0.122849 0.14307 0.0844515 0.0240465 0.0125983 0.0108351 0.00278788 0.00554593 
242 0.216363 0.592131 0.0784531 0.0503946 0.0259912 0.0203009 0.00901578 0.0034392 0.00184865 0.00206259 
243 0.123657 0.317446 0.143608 0.15498 0.130509 0.0515588 0.033538 0.0279438 0.00566672 0.0110919 
244 0.132357 0.156993 0.218739 0.209582 0.11638 0.0468927 0.0346204 0.0600177 0.0137989 0.010619 
245 0.57515 0.420332 0.00390114 0.000244092 0.000165801 0.000105936 4.09343e-05 2.41516e-05 2.15448e-05 1.51216e-05 
246 0.513014 0.436898 0.0197646 0.00458015 0.0112263 0.012985 0.000641041 0.000353795 0.000315609 0.000221515 
247 0.183848 0.723019 0.046369 0.0210665 0.0145981 0.00487221 0.00299275 0.00167945 0.000846506 0.000709079 
248 0.060499 0.145764 0.231142 0.144872 0.170564 0.0687176 0.0720835 0.0784761 0.0169947 0.0108877 
249 0.550261 0.364131 0.0464914 0.0182002 0.00927187 0.00560197 0.00263988 0.00163702 0.000949824 0.000815291 
250 0.37271 0.541253 0.0376573 0.0356818 0.00797799 0.00369277 0.000452753 0.00027638 0.00016036 0.000137647 
251 0.178394 0.512174 0.078157 0.118683 0.0538217 0.0273481 0.0130145 0.00851736 0.00467476 0.00521574 
252 0.150598 0.504114 0.0942561 0.107943 0.0843415 0.0269596 0.0148158 0.00822896 0.0047027 0.00404056 
253 0.608991 0.347638 0.0289495 0.0105638 0.0017815 0.000999131 0.000470832 0.000291968 0.000169405 0.00014541 
254 0.81386 0.178781 0.00707944 0.000110386 7.47567e-05 4.77649e-05 1.84566e-05 1.08895e-05 9.7142e-06 6.81805e-06 
255 0.0884699 0.607242 0.125244 0.0597975 0.0441218 0.0273172 0.0288295 0.0108707 0.00423427 0.003873 
256 0.163126 0.499413 0.0994601 0.0996264 0.0524965 0.0415825 0.0217397 0.0104368 0.00572822 0.00639112 
257 0.412729 0.553629 0.0158441 0.00318506 0.0117527 0.00168687 0.00056827 0.000276452 0.00016 0.00016771 
258 0.120945 0.488526 0.148195 0.0976861 0.0674822 0.0333261 0.0191714 0.0104592 0.00714649 0.00706253 
259 0.144355 0.448035 0.0891485 0.107951 0.0852041 0.0743015 0.0220535 0.0134317 0.00692447 0.00859511 
260 0.366865 0.608161 0.0210493 0.00182905 0.00149127 0.000280744 0.000157037 7.63952e-05 4.42148e-05 4.63453e-05 
261 0.184563 0.578855 0.0849515 0.0562706 0.046625 0.0224699 0.0126216 0.00708291 0.00357005 0.00299046 
262 0.127404 0.318587 0.151832 0.164041 0.127236 0.0454397 0.0259602 0.0223269 0.00574473 0.011428 
263 0.0855419 0.609805 0.0885881 0.119018 0.0404896 0.0279738 0.018574 0.00463133 0.0025419 0.00283606 
264 0.246769 0.540857 0.0333111 0.0683713 0.0346687 0.0382674 0.0203447 0.0151658 0.00120793 0.00103684 
265 0.566717 0.392741 0.0176292 0.0163424 0.00292812 0.00175249 0.000825844 0.000512115 0.000297137 0.000255051 
266 0.847218 0.141121 0.00173325 0.00811507 0.00143872 0.000191434 7.3394e-05 4.3303e-05 3.86292e-05 2.71125e-05 
267 0.0822627 0.719595 0.0765573 0.0688044 0.0250909 0.00702353 0.0157249 0.00292904 0.00109481 0.000917075 
268 0.175484 0.477947 0.0980799 0.100011 0.0558561 0.0360498 0.0171555 0.0112282 0.0213129 0.0068753 
269 0.185681 0.754231 0.0224228 0.0314345 0.00445736 0.00082342 0.00046058 0.000224063 0.00012968 0.000135928 
270 0.109666 0.563993 0.110755 0.0826443 0.0887611 0.0247773 0.0090478 0.00502106 0.00286944 0.00246542 
271 0.268985 0.554174 0.0810462 0.0380394 0.0190615 0.0295131 0.00401125 0.00248742 0.00144324 0.00123882 
272 0.194786 0.560837 0.088232 0.0584684 0.0539258 0.0192597 0.0117688 0.00660434 0.00332883 0.0027884 
273 0.223134 0.709173 0.0158681 0.0136885 0.0212572 0.0103304 0.00101399 0.00510349 0.000210809 0.000220964 
274 0.181868 0.296726 0.153359 0.165363 0.0946288 0.0524839 0.0208912 0.0146508 0.0108494 0.00918074 
275 0.124468 0.641484 0.0778197 0.0614238 0.0419787 0.0293858 0.011096 0.0059847 0.00342015 0.00293859 
276 0.289059 0.579872 0.0326531 0.0351712 0.0251739 0.0267313 0.00676362 0.00220151 0.00127735 0.00109643 
277 0.135986 0.453343 0.0961784 0.106841 0.0887966 0.0695035 0.0220786 0.012653 0.00652305 0.00809684 
278 0.278939 0.586685 0.0547303 0.0360921 0.0240914 0.00936329 0.00441237 0.00273616 0.00158756 0.0013627 
279 0.133275 0.598331 0.111954 0.0772008 0.0457483 0.0132897 0.00741686 0.00666754 0.00524641 0.000870643 
280 0.136011 0.479119 0.128578 0.09456 0.0774122 0.0397941 0.0194897 0.0106153 0.00725316 0.00716794 
281 0.144355 0.448035 0.0891485 0.107951 0.079595 0.0658172 0.0359887 0.01359 0.00692447 0.00859511 
282 0.0691913 0.774761 0.103006 0.0202774 0.0094434 0.00890261 0.0113459 0.00161215 0.000794623 0.000665619 
283 0.749294 0.148211 0.0610959 0.0244683 0.0158344 0.000924649 6.91614e-05 4.08058e-05 3.64015e-05 2.5549e-05 
284 0.147771 0.471475 0.123681 0.0894227 0.106121 0.0243762 0.0210178 0.00753022 0.00406704 0.0045377 
285 0.493981 0.475432 0.0130316 0.00745433 0.00436415 0.00251831 0.00154688 0.000868066 0.000437537 0.000366504 
286 0.0669797 0.809971 0.0372121 0.031186 0.0170436 0.0223629 0.00940951 0.00252616 0.00166425 0.0016447 
287 0.393379 0.559506 0.0233941 0.00686951 0.00533853 0.00248868 0.00672051 0.0015829 0.000392253 0.00032857 
288 0.499977 0.46355 0.012982 0.0149671 0.00131185 0.0025181 0.00252883 0.00198319 8.89741e-05 9.32467e-05 
289 0.691906 0.302626 0.00167739 0.0033153 0.000235426 0.000122378 4.72874e-05 2.78999e-05 2.48886e-05 1.74685e-05 
290 0.28707 0.552631 0.0679189 0.0260457 0.0493455 0.00836753 0.00376666 0.00233575 0.00135524 0.00116328 
291 0.319457 0.506098 0.0779767 0.0177435 0.041775 0.0225865 0.00271315 0.00159609 0.000955982 0.00909834 
292 0.264611 0.498846 0.0939352 0.0801387 0.0276042 0.019504 0.0071598 0.00397641 0.00227245 0.00195248 
293 0.522856 0.376921 0.0352128 0.0124207 0.0229297 0.0122133 0.00207868 0.00101123 0.000620533 0.0137361 
294 0.125385 0.684882 0.103744 0.0454725 0.0209397 0.00859279 0.00527813 0.00296195 0.00149293 0.00125056 
295 0.189645 0.529824 0.122325 0.0830841 0.0331715 0.0184131 0.0113103 0.00634703 0.00319913 0.00267977 
296 0.119288 0.639723 0.0766589 0.099741 0.0339089 0.0163757 0.00666713 0.00370303 0.00211621 0.00181825 
297 0.178311 0.500515 0.0994739 0.0863227 0.0567155 0.0366044 0.0174195 0.0114002 0.00625698 0.00698107 
298 0.0802073 0.306183 0.270651 0.0615304 0.11209 0.109808 0.0338651 2.40248e-05 0.00628137 0.0193597 
299 0.566799 0.374757 0.0313522 0.0116925 0.00694967 0.00392262 0.00219415 0.00106741 0.00061778 0.000647546 
300 0.101771 0.801375 0.0379656 0.0279795 0.012443 0.0103774 0.00376951 0.00209359 0.00119645 0.00102799 
301 0.167855 0.471672 0.125657 0.0922948 0.054445 0.0483217 0.0165446 0.0107393 0.00589426 0.00657637 
302 0.134894 0.485379 0.138146 0.0969326 0.0674822 0.0333261 0.0191714 0.0104592 0.00714649 0.00706253 
303 0.537279 0.415914 0.0186795 0.0120586 0.00725183 0.00409316 0.00228955 0.00111382 0.00064464 0.000675701 
304 0.181942 0.574519 0.10973 0.0611968 0.0382443 0.0150887 0.0092648 0.00519916 0.00262057 0.00219513 
305 0.283845 0.562901 0.0277606 0.0617027 0.0511637 0.00653305 0.00266264 0.00165113 0.000958012 0.000822319 
306 0.178185 0.500589 0.0995261 0.0863227 0.0567155 0.0366044 0.0174195 0.0114002 0.00625698 0.00698107 
307 0.157123 0.538758 0.0969411 0.0784595 0.0532266 0.0400309 0.0166608 0.00911516 0.00520914 0.00447569 
308 0.514966 0.436214 0.0194139 0.0126067 0.00758145 0.00427922 0.00239362 0.00116445 0.000673941 0.000706414 
309 0.244943 0.702766 0.0200046 0.0164661 0.00673482 0.00633735 0.00121692 0.000736658 0.000427421 0.000366881 
310 0.234144 0.749145 0.013541 0.00173468 0.000216487 0.00108606 5.3428e-05 3.15229e-05 2.81206e-05 1.97369e-05 
311 0.161464 0.689946 0.0908918 0.0274445 0.00740835 0.0112333 0.00213186 0.00807492 0.000755983 0.000648905 
312 0.150191 0.529695 0.0949664 0.111968 0.0509757 0.0285455 0.0156874 0.00871302 0.00497933 0.00427824 
313 0.540369 0.413727 0.018178 0.0118863 0.00714823 0.00403469 0.00225684 0.00109791 0.000635431 0.000666048 
314 0.153544 0.824409 0.0187834 0.00185001 0.000633878 0.000375174 0.000176798 0.000109634 6.36115e-05 5.46015e-05 
315 0.197801 0.513559 0.0687796 0.134964 0.0370155 0.0223144 0.00951199 0.011939 0.0022394 0.00187584 
316 0.258678 0.577052 0.0579501 0.0424196 0.0276069 0.0159305 0.00978529 0.00549125 0.00276779 0.00231845 
317 0.166457 0.314322 0.143562 0.139405 0.110477 0.0651153 0.0228282 0.0159827 0.0118357 0.0100154 
318 0.519709 0.428923 0.0224018 0.0124186 0.0074683 0.00421535 0.0023579 0.00114707 0.000663883 0.000695871 
319 0.160923 0.665558 0.046911 0.0563774 0.0371236 0.0166109 0.010575 0.003074 0.00154926 0.00129775 
320 0.356628 0.531566 0.049975 0.0287613 0.0146596 0.00885716 0.00417386 0.00258826 0.00150175 0.00128904 
321 0.520306 0.430258 0.0195781 0.0128007 0.00769809 0.00434505 0.00243045 0.00118236 0.00068431 0.000717282 
322 0.20501 0.652613 0.0889902 0.0310509 0.00995073 0.00595846 0.00280787 0.00174119 0.00101027 0.000867173 
323 0.174635 0.734023 0.0535103 0.017607 0.00896537 0.00541678 0.00255261 0.0015829 0.000918425 0.000788339 
324 0.159665 0.564737 0.139467 0.0548412 0.0379239 0.0187287 0.010774 0.00587792 0.00401621 0.00396903 
325 0.12482 0.480331 0.145721 0.0978034 0.0705968 0.0348643 0.0200563 0.010942 0.00747633 0.0073885 
326 0.534625 0.402492 0.0189914 0.0124186 0.00747146 0.0191357 0.00235971 0.00114707 0.000663883 0.000695871 
327 0.113942 0.754107 0.0532949 0.0343832 0.0151951 0.0160734 0.00644121 0.00303697 0.00166682 0.00185971 
328 0.227228 0.635961 0.0491718 0.0385509 0.032005 0.0094817 0.00332114 0.00205948 0.00119494 0.00102569 
329 0.178184 0.4858 0.113333 0.0873049 0.0567155 0.0366044 0.0174195 0.0114002 0.00625698 0.00698107 
330 0.304936 0.581743 0.044001 0.0322421 0.0164365 0.00993076 0.00467978 0.00290199 0.00168378 0.00144529 
331 0.534574 0.406078 0.0180298 0.0254496 0.0073008 0.00397786 0.00222506 0.00108244 0.000626481 0.000656667 
332 0.962691 0.0283366 0.00316803 0.0056015 9.51312e-05 5.72749e-05 1.78808e-05 9.85956e-06 1.77835e-05 4.56085e-06 
333 0.302095 0.508887 0.0923726 0.052319 0.0200901 0.0191139 0.00223816 0.00138791 0.000805285 0.000691225 
334 0.101466 0.47932 0.158311 0.108143 0.0733114 0.0390669 0.0179069 0.0127032 0.00326855 0.00650213 
335 0.149321 0.626469 0.058488 0.0684056 0.0332355 0.021435 0.0102701 0.0232842 0.00500406 0.00408802 
336 0.174695 0.43548 0.130936 0.122186 0.0466733 0.042953 0.0268048 0.00937988 0.00514815 0.00574392 
337 0.15558 0.797303 0.0291755 0.00522373 0.00726563 0.00335327 0.00161453 0.000233296 0.000135359 0.000116186 
338 0.141847 0.532632 0.104696 0.0903235 0.0711688 0.0275447 0.0148158 0.00822896 0.0047027 0.00404056 
339 0.152522 0.634678 0.13616 0.0497146 0.0135062 0.00608225 0.00352587 0.00197863 0.0009973 0.000835392 
340 0.258372 0.572541 0.0659204 0.0567056 0.029706 0.00464851 0.00219054 0.00135857 0.00785554 0.000701133 
341 0.61677 0.341315 0.0202959 0.0114304 0.00166429 0.000946167 0.00232598 0.0049542 0.00014536 0.000152364 
342 0.195626 0.714612 0.0271428 0.0297896 0.0198551 0.0062422 0.00294158 0.00182411 0.00105838 0.000908467 
343 0.193888 0.575192 0.0749491 0.0675854 0.0386915 0.0218125 0.0133983 0.00751879 0.00378974 0.00317449 
344 0.149573 0.510445 0.117602 0.0808857 0.0509707 0.0352825 0.0148295 0.00911855 0.0134297 0.0178632 
345 0.970301 0.0215055 0.00392657 0.00404941 8.09067e-05 7.30281e-05 2.27988e-05 1.25714e-05 2.26747e-05 5.81529e-06 
346 0.157123 0.538758 0.112325 0.0784597 0.0482593 0.0298629 0.0164114 0.00911516 0.00520914 0.00447569 
347 0.226293 0.715689 0.0394532 0.00260016 0.00674118 0.00506781 0.00363094 0.000240175 0.000139 0.000145698 
348 0.127247 0.798273 0.0478637 0.0209201 0.00211575 0.00270168 0.000425824 0.000207152 0.000119893 0.000125669 
349 0.193984 0.588739 0.0678136 0.0540908 0.0491299 0.0203532 0.0124413 0.00698173 0.00351904 0.00294774 
350 0.114293 0.453588 0.149549 0.099556 0.123014 0.0224427 0.0122987 0.00703042 0.0136976 0.00453084 
351 0.178184 0.4853 0.101686 0.0987159 0.0574528 0.0366044 0.0174195 0.0114002 0.00625698 0.00698107 
352 0.162641 0.319008 0.142691 0.139405 0.103224 0.0572552 0.0264657 0.0251973 0.0140973 0.0100154 
353 0.0904038 0.678932 0.138083 0.0415718 0.0319562 0.00874368 0.00480514 0.00266885 0.0015252 0.00131045 
354 0.106754 0.47468 0.113677 0.0833621 0.060479 0.0541821 0.0423185 0.0380525 0.00701836 0.0194767 
355 0.156265 0.428348 0.109754 0.0988285 0.0728687 0.0708272 0.0362092 0.0126921 0.0063393 0.00786876 
356 0.12482 0.478468 0.134445 0.110764 0.0707757 0.0348643 0.0200563 0.010942 0.00747633 0.0073885 
357 0.200206 0.593767 0.0668731 0.0555198 0.0361326 0.0208502 0.0128072 0.00718708 0.00362255 0.00303444 
358 0.51408 0.420786 0.0365819 0.0122474 0.00735847 0.00415336 0.00232322 0.0011302 0.00065412 0.000685637 
359 0.306075 0.572013 0.0536263 0.0317608 0.0161912 0.00978254 0.00460994 0.00285867 0.00165865 0.00142372 
360 0.178185 0.500276 0.0998387 0.0863227 0.0567155 0.0366044 0.0174195 0.0114002 0.00625698 0.00698107 
361 0.534625 0.402492 0.0191347 0.0271768 0.00749209 0.00421535 0.0023579 0.00114707 0.000663883 0.000695871 
362 0.77638 0.172086 0.00743975 0.00305545 0.00207552 0.00196874 0.0216212 0.0145055 0.000678865 0.000189294 
363 0.759329 0.223218 0.00612101 0.00890654 0.00107693 0.000688086 0.00026588 0.000156871 0.00013994 9.82189e-05 
364 0.671832 0.284091 0.0324245 0.00460686 0.0031275 0.00199828 0.000772145 0.000455571 0.0004064 0.000285238 
365 0.519712 0.432018 0.0193029 0.0124186 0.0074683 0.00421535 0.0023579 0.00114707 0.000663883 0.000695871 
366 0.30418 0.575052 0.0313344 0.0513735 0.0165261 0.00945207 0.00580594 0.00325814 0.00164222 0.00137561 
367 0.262265 0.651306 0.0397871 0.0271557 0.0118761 0.00366162 0.00172551 0.00107001 0.000620835 0.0005329 
368 0.609874 0.271516 0.031151 0.0411626 0.0202742 0.00744749 0.00348581 0.00547074 0.00818364 0.00143448 
369 0.172083 0.56776 0.115152 0.0521416 0.0523236 0.0178856 0.0108861 0.00610901 0.00307916 0.00257927 
370 0.183914 0.569338 0.0666958 0.0830849 0.0356614 0.020548 0.0185446 0.0149229 0.00429988 0.00299046 
371 0.536284 0.450998 0.00629529 0.00359486 0.00125825 0.000755104 0.000355836 0.000220658 0.000128029 0.000109895 
372 0.489383 0.455591 0.0341005 0.0129096 0.00360668 0.00212113 0.000999566 0.000619842 0.000359642 0.000308702 
373 0.163652 0.564576 0.171491 0.0810187 0.0104148 0.00482634 0.00251905 0.000722759 0.000419356 0.000359959 
374 0.14826 0.586902 0.103387 0.101913 0.0258906 0.0147689 0.00907178 0.00509085 0.00256597 0.0021494 
375 0.202713 0.546394 0.0957508 0.0825369 0.0401955 0.0121091 0.00667986 0.00973508 0.00209011 0.0017958 
376 0.11481 0.477689 0.0982945 0.0515584 0.0810565 0.081314 0.0834445 0.00583777 0.00322471 0.00277067 
377 0.145963 0.568608 0.12348 0.0771 0.0356848 0.0228778 0.0108872 0.0071251 0.00391061 0.00436317 
378 0.154742 0.530595 0.0954723 0.0772707 0.0475281 0.0294105 0.0161627 0.00897705 0.00587461 0.0339665 
379 0.194287 0.537877 0.0973149 0.0891922 0.038297 0.0165094 0.016667 0.00477814 0.0027306 0.00234613 
380 0.0701616 0.673309 0.0996378 0.0636529 0.0496633 0.0202859 0.0101848 0.00555647 0.00379658 0.00375197 
381 0.146115 0.528402 0.0902464 0.0728552 0.0448122 0.0277299 0.0233746 0.0574712 0.00483738 0.004156 
382 0.106619 0.563942 0.0948483 0.0811012 0.0690866 0.0471529 0.0161063 0.00980966 0.00505719 0.00627733 
383 0.197195 0.570094 0.0549817 0.0439957 0.0506291 0.0226357 0.0412121 0.0140538 0.00283142 0.00237175 
384 0.0339507 0.719444 0.151295 0.0583195 0.0226443 0.0059374 0.00419896 0.00246875 0.000875607 0.00086532 
385 0.137986 0.456851 0.0860456 0.1326 0.0760835 0.0616795 0.0210803 0.0128391 0.00661897 0.00821591 
386 0.161933 0.304565 0.142691 0.139405 0.103224 0.0572552 0.0284407 0.0343669 0.0181042 0.0100154 
387 0.172413 0.473809 0.0625051 0.105041 0.0792784 0.0667215 0.025963 0.00874826 0.00300406 0.00251637 
388 0.249639 0.532676 0.0441387 0.0484272 0.031653 0.0640464 0.0204242 0.00621819 0.00151125 0.0012659 
389 0.228784 0.528279 0.136696 0.0431851 0.0277028 0.0110546 0.0159517 0.00363304 0.00237054 0.00234269 
390 0.425502 0.448457 0.0802557 0.041358 0.00225461 0.00100867 0.000564211 0.000274477 0.000158858 0.000166512 
391 0.185337 0.568088 0.0780099 0.0556379 0.0650554 0.0212209 0.0128072 0.00718708 0.00362255 0.00303444 
392 0.266361 0.630347 0.0353692 0.0357367 0.0147944 0.00809283 0.00385124 0.00252044 0.00138335 0.00154343 
393 0.154742 0.530595 0.0954723 0.0772707 0.0475281 0.0294105 0.0161627 0.0100609 0.0338975 0.0048598 
394 0.178432 0.554006 0.0845865 0.0801694 0.0489845 0.0250451 0.0119186 0.00780011 0.00428109 0.00477652 
395 0.19095 0.566477 0.0688989 0.0572022 0.0372275 0.0286021 0.0363782 0.00740487 0.00373232 0.00312639 
396 0.115905 0.681807 0.105882 0.0516356 0.0222233 0.0119021 0.00496158 0.00275575 0.00157486 0.00135312 
397 0.106641 0.702294 0.0758329 0.0560744 0.0262662 0.0122082 0.0129918 0.00373278 0.00212952 0.00182969 
398 0.336615 0.435715 0.111148 0.0521632 0.0247366 0.0220169 0.00820571 0.00455758 0.00260457 0.00223785 
399 0.240648 0.701607 0.035465 0.00555863 0.00877491 0.00682376 0.000566612 0.000254482 0.000147285 0.000154382 
400 0.574807 0.410301 0.0105779 0.00149722 0.00214558 0.000343875 0.000131391 7.75215e-05 6.91544e-05 4.85371e-05 
401 0.183025 0.630393 0.111666 0.0312865 0.0147678 0.0246683 0.00186495 0.00112007 0.000649879 0.000557831 
402 0.119283 0.819666 0.0331804 0.0143317 0.00487947 0.00605388 0.00114133 0.000704159 0.000408564 0.000350695 
403 0.135374 0.463288 0.0960391 0.126654 0.072877 0.0590733 0.0201896 0.0122966 0.0063393 0.00786876 
404 0.142167 0.444836 0.113843 0.106984 0.078389 0.0635486 0.0217191 0.0132282 0.00681955 0.00846488 
405 0.19095 0.566477 0.0690615 0.0873293 0.0372409 0.021482 0.0131953 0.00740487 0.00373232 0.00312639 
406 0.588099 0.330583 0.0301329 0.0106125 0.00917223 0.0200138 0.0104268 0.000439178 0.000254172 0.000266419 
407 0.271476 0.611763 0.039329 0.0298853 0.0281488 0.00958 0.0042898 0.00266016 0.00154346 0.00132485 
408 0.30751 0.531795 0.0666879 0.0304756 0.0154973 0.0141578 0.0281893 0.00273616 0.00158756 0.0013627 
409 0.843881 0.116751 0.031284 0.00117453 0.000273315 0.00641989 7.73579e-05 4.26031e-05 7.68422e-05 1.97074e-05 
410 0.17621 0.676691 0.042025 0.0666676 0.0189462 0.00854296 0.00524633 0.0029441 0.00148393 0.00124302 
411 0.30751 0.563296 0.05704 0.0238796 0.0274555 0.00942151 0.0054773 0.00307372 0.00154926 0.00129775 
412 0.159122 0.477857 0.0768436 0.0621935 0.0402234 0.111657 0.032811 0.00722543 0.0117937 0.0202735 
413 0.120523 0.781043 0.0415612 0.021203 0.0264029 0.00606741 0.00139767 0.000866657 0.000502848 0.000431625 
414 0.185334 0.57887 0.067231 0.0555198 0.0362154 0.0501791 0.0128072 0.00718708 0.00362255 0.00303444 
415 0.211124 0.572429 0.061549 0.0517119 0.046011 0.0191714 0.0117688 0.00660434 0.00485885 0.0147719 
416 0.167475 0.699353 0.0377369 0.0595856 0.0157864 0.00880627 0.00540926 0.00303553 0.00153002 0.00128163 
417 0.177591 0.425342 0.0872975 0.0997346 0.100256 0.0646933 0.022136 0.0106471 0.0054889 0.0068132 
418 0.125009 0.698076 0.0634261 0.0472798 0.0243269 0.0144793 0.0166019 0.00631906 0.00243894 0.00204299 
419 0.260388 0.449987 0.0969249 0.0475281 0.0547128 0.0196481 0.0377614 0.00973086 0.00650967 0.0168095 
420 0.143943 0.618804 0.101274 0.0465152 0.0514257 0.0189213 0.00791794 0.00518189 0.00284408 0.00317322 
421 0.19095 0.566487 0.0980258 0.0583684 0.0372275 0.021482 0.0131953 0.00740487 0.00373232 0.00312639 
422 0.186698 0.474063 0.069001 0.0843107 0.0745033 0.0719561 0.0170651 0.0103936 0.00535822 0.00665098 
423 0.297729 0.543683 0.0533773 0.0295552 0.0150668 0.0107747 0.0192203 0.0234649 0.00580334 0.00132485 
424 0.487945 0.444005 0.0124955 0.0295815 0.0123128 0.0105845 0.00149058 0.000725034 0.000419624 0.000439843 
425 0.235602 0.507559 0.0777885 0.0493092 0.0494461 0.021228 0.00993215 0.0115063 0.0316899 0.00593956 
426 0.2636 0.639386 0.0405636 0.0233381 0.0142143 0.00989558 0.00434177 0.00241941 0.00121947 0.00102149 
427 0.170937 0.44425 0.160013 0.14444 0.0378391 0.0215567 0.00901197 0.00552993 0.0030351 0.00338634 
428 0.31439 0.496905 0.0556872 0.0461754 0.0276403 0.0213563 0.0125216 0.0215439 0.00186613 0.00191464 
429 0.0737142 0.677188 0.0779228 0.0565675 0.0500198 0.0379633 0.0116472 0.00635025 0.00433894 0.00428797 
430 0.340489 0.358703 0.0635649 0.112105 0.0574705 0.024887 0.032772 0.00476108 0.0024799 0.00276689 
431 0.183369 0.546849 0.120986 0.0688211 0.0458539 0.0158952 0.00754843 0.00494007 0.00271136 0.00302513 
432 0.111689 0.66892 0.0691902 0.088501 0.023847 0.0189217 0.0099458 0.00435651 0.00248966 0.00213912 
433 0.147486 0.507595 0.161393 0.0933986 0.0391661 0.0233866 0.0128523 0.00713838 0.00407945 0.00350506 
434 0.141682 0.777622 0.022467 0.0244537 0.00711985 0.0205041 0.00115808 0.00068404 0.000405466 0.00390337 
435 0.313444 0.480061 0.0497891 0.0400971 0.0906292 0.00782129 0.0139229 0.00203859 0.00118223 0.00101478 
436 0.257262 0.731394 0.00804075 0.000946009 0.00167469 0.000317335 0.000177505 8.63524e-05 4.99777e-05 5.23858e-05 
437 0.670989 0.303725 0.0124016 0.00509242 0.0034592 0.00221022 0.000854039 0.000503889 0.000449504 0.000315491 
438 0.183788 0.709354 0.0547952 0.0252417 0.0176704 0.00481456 0.00189488 0.00117504 0.000681775 0.000585209 
439 0.176727 0.475388 0.079105 0.150722 0.0564552 0.0286661 0.0136417 0.00892783 0.00490005 0.00546711 
440 0.158657 0.486162 0.0905851 0.0892593 0.0524861 0.0854001 0.0155123 0.0101508 0.00557128 0.00621602 
441 0.238189 0.688097 0.0223455 0.0298605 0.0108643 0.00512055 0.00241301 0.00149634 0.000868198 0.000745227 
442 0.179016 0.646506 0.0210028 0.0337077 0.0894037 0.0113396 0.0162427 0.00137682 0.000755982 0.000648905 
443 0.211631 0.54185 0.0669131 0.0714258 0.0613666 0.0205481 0.0126216 0.00708292 0.00357005 0.00299046 
444 0.211638 0.552924 0.0676805 0.067638 0.0379123 0.0214678 0.0246457 0.0094368 0.00362255 0.00303444 
445 0.127404 0.306974 0.137749 0.159435 0.132163 0.0602615 0.0365144 0.0223269 0.00574473 0.011428 
446 0.766122 0.173532 0.0207586 0.0223096 0.00601807 0.00530842 0.00484789 0.000537731 0.000304464 0.00026134 
447 0.159516 0.300019 0.147442 0.145368 0.110723 0.0706526 0.0290091 0.0157442 0.0116591 0.00986587 
448 0.192527 0.462589 0.0960819 0.0758352 0.0520093 0.0668229 0.0324929 0.0100137 0.005496 0.00613202 
449 0.250794 0.656599 0.05622 0.0203922 0.00709045 0.00428386 0.00201873 0.00125184 0.000726336 0.000623458 
450 0.360318 0.498894 0.0363988 0.0498066 0.0377632 0.00809178 0.00381316 0.00236458 0.00137197 0.00117764 
451 0.179364 0.533746 0.0704768 0.0732203 0.0306309 0.0172904 0.0201552 0.0565082 0.0160921 0.00251637 
452 0.271047 0.608639 0.0282893 0.0432834 0.0292408 0.0168614 0.00115362 0.000714669 0.000414662 0.000355929 
453 0.124457 0.434067 0.133844 0.128489 0.0784868 0.0314747 0.0234753 0.0270043 0.0120321 0.00667017 
454 0.121094 0.508599 0.12894 0.09456 0.0684894 0.0338236 0.0194576 0.0106153 0.00725316 0.00716794 
455 0.152794 0.564194 0.0969446 0.0761174 0.0468188 0.0289715 0.0159215 0.00884307 0.00505365 0.00434209 
456 0.185026 0.466759 0.136282 0.0825275 0.0542133 0.0349895 0.016651 0.0108972 0.00598094 0.00667308 
457 0.520748 0.41751 0.0284007 0.0201411 0.00595829 0.00336224 0.0018807 0.000914923 0.000529525 0.00055504 
458 0.28891 0.591059 0.0514536 0.0336175 0.0154973 0.00936329 0.00441237 0.00273616 0.00158756 0.0013627 
459 0.208294 0.427041 0.112692 0.0581636 0.0477228 0.0888994 0.0309594 0.0172415 0.0043086 0.00467804 
460 0.135183 0.488302 0.100608 0.0968439 0.0738415 0.0647912 0.0174812 0.0106471 0.00548891 0.0068132 
461 0.436146 0.461516 0.0529287 0.0230281 0.0119962 0.00560925 0.00500775 0.00174355 0.00095695 0.00106769 
462 0.270618 0.666812 0.0146683 0.00813668 0.00643873 0.0320399 0.000563191 0.000347606 0.000201687 0.00017312 
463 0.18894 0.560834 0.0632475 0.0639127 0.0464943 0.0371793 0.0262692 0.00683602 0.00342129 0.00286586 
464 0.516241 0.367418 0.0454254 0.0342947 0.0250393 0.00573898 0.00255261 0.0015829 0.000918425 0.000788339 
465 0.121223 0.642501 0.0669319 0.0765335 0.0388261 0.0234663 0.0173601 0.00698607 0.00331955 0.00285216 
466 0.325567 0.522428 0.0643365 0.028373 0.0162269 0.0336118 0.00414935 0.00255375 0.00148173 0.00127185 
467 0.262961 0.66615 0.0295628 0.0193677 0.00948654 0.00547417 0.00336251 0.00188695 0.000951093 0.000796687 
468 0.210734 0.75083 0.0117416 0.0123259 0.0110182 0.00162588 0.000753331 0.000467149 0.000271047 0.000232656 
469 0.251619 0.523021 0.0570785 0.0471919 0.0307127 0.0356925 0.0423983 0.006627 0.00307916 0.00257927 
470 0.328103 0.43778 0.0661509 0.0974079 0.0350138 0.0163117 0.00896421 0.00497887 0.00284533 0.00244471 
471 0.0864466 0.71213 0.11074 0.0474661 0.021413 0.0100061 0.00549866 0.00305405 0.00174533 0.00149959 
472 0.372419 0.601911 0.0159022 0.00373097 0.00189984 0.00120187 0.00223823 0.000335431 0.000194622 0.000167056 
473 0.397833 0.487064 0.037983 0.00968505 0.0162308 0.0126362 0.034285 0.00327059 0.000494224 0.000518037 
474 0.272063 0.420579 0.238041 0.0273257 0.0171886 0.0114794 0.00834973 0.00244524 0.00135982 0.00116835 
475 0.206845 0.595806 0.0656215 0.0493986 0.0456914 0.0129492 0.0157099 0.00414172 0.00208757 0.00174866 
476 0.114273 0.4671 0.183235 0.096856 0.0646309 0.031918 0.0183614 0.0100173 0.00684453 0.00676412 
477 0.563013 0.362004 0.0380512 0.0115249 0.00796505 0.0132309 0.00218693 0.000925947 0.000535905 0.000561727 
478 0.147511 0.462094 0.127039 0.0918747 0.0809012 0.0329447 0.032966 0.0106667 0.00704292 0.00696018 
479 0.172728 0.360832 0.120004 0.124003 0.0948109 0.0810412 0.0175461 0.0122658 0.00908324 0.0076862 
480 0.119686 0.821537 0.0350765 0.0105416 0.0048656 0.00473928 0.00170763 0.000958277 0.000483006 0.000404592 
481 0.145948 0.529199 0.0830629 0.0924792 0.050671 0.0600905 0.0185315 0.00926263 0.0050838 0.00567212 
482 0.17663 0.558705 0.0505205 0.0576448 0.0673936 0.0279233 0.025732 0.0303327 0.00294521 0.00217202 
483 0.204744 0.497659 0.140337 0.0706441 0.0363595 0.029252 0.0133503 0.00397334 0.00200271 0.00167758 
484 0.238611 0.636032 0.0522924 0.026019 0.0248984 0.0133065 0.00424825 0.00238401 0.00120163 0.00100655 
485 0.464504 0.396541 0.0572258 0.0297466 0.0276102 0.00811591 0.00314572 0.0111346 0.0010675 0.000908467 
486 0.363224 0.58026 0.0225847 0.0133762 0.0145365 0.00325756 0.00120651 0.000748169 0.000434099 0.000372613 
487 0.440312 0.546461 0.00755605 0.00279409 0.00177633 0.000825939 0.000110523 6.52092e-05 5.81711e-05 4.08282e-05 
488 0.525649 0.437558 0.0052924 0.012426 0.00740864 0.00803431 0.00113442 0.0020217 0.000350725 0.000124661 
489 0.512422 0.40859 0.0192791 0.0126067 0.015238 0.0261142 0.00320512 0.00116445 0.000673941 0.000706414 
490 0.166262 0.523564 0.136591 0.0690613 0.0431328 0.0347637 0.0124162 0.00688937 0.00393714 0.00338279 
491 0.295844 0.561692 0.0428405 0.0374484 0.035113 0.0163509 0.00467978 0.00290199 0.00168378 0.00144529 
492 0.306128 0.2441 0.109535 0.130062 0.121924 0.0361986 0.0206431 0.0177539 0.0045681 0.00908731 
493 0.312171 0.640169 0.0186836 0.00631348 0.0179673 0.00229901 0.00116161 0.0005651 0.00032706 0.000342819 
494 0.249386 0.716593 0.018506 0.00974326 0.0025587 0.00154583 0.000728457 0.000451724 0.000262098 0.000224974 
495 0.165963 0.434228 0.119649 0.101245 0.0653763 0.0394405 0.0259527 0.0339665 0.00750962 0.00667017 
496 0.276589 0.636382 0.0634979 0.0112617 0.00866964 0.00167136 0.000934787 0.000454755 0.000263196 0.000275878 
497 0.198203 0.583638 0.1649 0.0204685 0.0204995 0.00539985 0.00331137 0.00185826 0.000936628 0.00078457 
498 0.655141 0.236583 0.0347759 0.0519941 0.0182565 0.00165766 0.000640529 0.000377917 0.000337128 0.000236618 
499 0.176124 0.520436 0.103437 0.0718819 0.0405176 0.0331536 0.0310306 0.0157419 0.00413005 0.00354781 
500 0.121126 0.360637 0.141901 0.13021 0.129303 0.0567052 0.0278366 0.0187879 0.00451372 0.00897913 
501 0.192958 0.50462 0.0876092 0.0894716 0.0663082 0.0272453 0.0148158 0.00822896 0.0047027 0.00404056 
502 0.111585 0.620145 0.108222 0.0704153 0.0461027 0.0269461 0.00773009 0.00429337 0.00245358 0.00210812 
503 0.176958 0.533335 0.0887823 0.0708315 0.0494762 0.0480276 0.0156169 0.00822897 0.0047027 0.00404056 
504 0.262756 0.616938 0.0637858 0.0388424 0.00556352 0.00336118 0.00164877 0.00604554 0.000569929 0.000489175 
505 0.149649 0.451853 0.0840048 0.101693 0.0749808 0.0643752 0.0399777 0.018846 0.00652305 0.00809684 
506 0.257607 0.629075 0.0456429 0.0357417 0.0238152 0.00410211 0.00175492 0.00108825 0.000631417 0.000541983 
507 0.117082 0.48949 0.197512 0.0751397 0.056444 0.0290847 0.0181304 0.00725743 0.00495879 0.00490053 
508 0.132981 0.522008 0.0690465 0.0988839 0.0690447 0.0483131 0.0161063 0.0123535 0.0215064 0.00975613 
509 0.122929 0.471218 0.130526 0.0971247 0.0876949 0.0453394 0.0197524 0.0107762 0.00736306 0.00727655 
510 0.254449 0.428911 0.104475 0.0793029 0.0609428 0.030523 0.0208996 0.010374 0.00478475 0.00533847 
511 0.243262 0.56425 0.0645637 0.0550126 0.0315002 0.0181771 0.0111653 0.00626566 0.00315812 0.00264541 
512 0.241004 0.560161 0.0851656 0.0564233 0.025265 0.0140377 0.00862268 0.00483882 0.00243894 0.00204299 
513 0.538101 0.413214 0.0192791 0.0126067 0.00758145 0.00427922 0.00239362 0.00116445 0.000673941 0.000706414 
514 0.33745 0.531958 0.0392707 0.0295552 0.0150668 0.0091032 0.0042898 0.0111753 0.0197404 0.00239049 
515 0.217951 0.558023 0.0678706 0.0563485 0.0374216 0.0344024 0.013933 0.00729435 0.00367661 0.00307973 
516 0.322431 0.449031 0.0654015 0.0738627 0.0298416 0.0161115 0.00989649 0.00729336 0.022166 0.00396559 
517 0.213557 0.4912 0.105846 0.0916128 0.042591 0.0301903 0.0135228 0.00596001 0.00300406 0.00251636 
518 0.29311 0.444313 0.109218 0.0788357 0.0409027 0.0149891 0.00814787 0.00444518 0.00303726 0.00300158 
519 0.509681 0.440467 0.0265796 0.0120587 0.00799489 0.00149433 0.000835868 0.000406633 0.000235345 0.000246684 
520 0.384279 0.581904 0.0102905 0.00665634 0.00400301 0.00253155 0.00899171 0.00061483 0.000355841 0.000372987 
521 0.328878 0.479754 0.0644212 0.0659847 0.0265996 0.0150831 0.0092648 0.00519916 0.00262057 0.00219513 
522 0.165256 0.563804 0.0864663 0.0698612 0.0429706 0.0286739 0.0262032 0.00814093 0.00463828 0.00398521 
523 0.154742 0.531206 0.123799 0.0786362 0.0475281 0.0294105 0.0161627 0.00897705 0.00513022 0.00440788 
524 0.203967 0.440841 0.126917 0.0873687 0.0547136 0.0387982 0.0155198 0.01606 0.0100971 0.00571729 
525 0.107137 0.775953 0.0628371 0.0215751 0.0140401 0.00810177 0.00497652 0.00279269 0.00140762 0.0011791 
526 0.194415 0.452401 0.0763544 0.0856794 0.07553 0.0629943 0.0174812 0.0106471 0.0101935 0.0143037 
527 0.175484 0.483351 0.119896 0.0879426 0.0558561 0.0360498 0.0171555 0.0112274 0.00616218 0.0068753 
528 0.19335 0.623438 0.0818488 0.0435615 0.0241176 0.0131454 0.01343 0.00370522 0.00185213 0.00155144 
529 0.274229 0.592539 0.0419107 0.0295552 0.0263814 0.0255664 0.0042898 0.00266016 0.00154346 0.00132485 
530 0.202482 0.582087 0.0756437 0.0460415 0.0299636 0.0189733 0.0245228 0.0147651 0.00300406 0.00251636 
531 0.133238 0.624628 0.0918504 0.0560398 0.0608187 0.0160127 0.00721188 0.00471981 0.00259047 0.00289025 
532 0.129633 0.488116 0.12028 0.115846 0.0600036 0.040254 0.0251589 0.0087806 0.00599953 0.00592904 
533 0.122929 0.471218 0.131386 0.123924 0.0710383 0.034336 0.0197524 0.0107762 0.00736305 0.00727655 
534 0.161186 0.527765 0.112444 0.0812776 0.0491534 0.0317238 0.0150969 0.00988014 0.00542272 0.00605026 
535 0.325619 0.547315 0.0382127 0.0287564 0.0147954 0.0165303 0.0125127 0.013388 0.00158121 0.00128904 
536 0.130342 0.458561 0.0958192 0.101686 0.0900544 0.077492 0.0199092 0.0121258 0.00625125 0.00775947 
537 0.154742 0.530595 0.0954723 0.0782329 0.069375 0.0369044 0.0161627 0.00897705 0.00513022 0.00440788 
538 0.25187 0.654332 0.0208924 0.0319502 0.0243099 0.0047925 0.00907165 0.0013477 0.000771732 0.000662424 
539 0.0568917 0.905818 0.0168217 0.0106628 0.00420362 0.00257098 0.0014129 0.000784748 0.000448469 0.000385324 
540 0.242957 0.434631 0.117429 0.0864773 0.0460675 0.0212436 0.0121873 0.0311994 0.00375595 0.00405152 
541 0.296949 0.590228 0.0435027 0.0322421 0.0164365 0.00993076 0.00467978 0.00290199 0.00168378 0.00144529 
542 0.279914 0.635118 0.0443305 0.0362798 0.000478478 0.00364008 9.78703e-05 5.6463e-05 5.03688e-05 3.53521e-05 
543 0.207203 0.550574 0.104909 0.0583822 0.029593 0.0183127 0.0194875 0.00559908 0.00319429 0.00274453 
544 0.154742 0.530595 0.0972656 0.0975026 0.055806 0.0294105 0.0161627 0.00897705 0.00513022 0.00440788 
545 0.1881 0.572948 0.0731924 0.0805741 0.0369752 0.0211614 0.0129984 0.00729435 0.00367661 0.00307973 
546 0.238779 0.538863 0.0631574 0.0524354 0.0341252 0.0198246 0.0323268 0.0136537 0.00396922 0.00286586 
547 0.115904 0.487145 0.123071 0.0919124 0.0956694 0.043711 0.0186237 0.0101604 0.00694231 0.00686075 
548 0.117393 0.581183 0.155331 0.0614184 0.0360558 0.0223114 0.0122614 0.00681018 0.00389189 0.00334391 
549 0.149515 0.573431 0.09758 0.0812515 0.0418248 0.0258812 0.0142232 0.0078998 0.00451459 0.00387893 
550 0.123894 0.706458 0.0623523 0.0709264 0.0189094 0.00766391 0.00470752 0.00264174 0.00133153 0.00111536 
551 0.142167 0.441247 0.0877978 0.106315 0.0868676 0.0853728 0.0217193 0.0132282 0.00681955 0.00846488 
552 0.865817 0.107717 0.0110273 0.00211383 0.000526465 0.000477291 0.000149007 8.21631e-05 0.000150197 0.0119406 
553 0.152161 0.691572 0.0853285 0.0293363 0.0225005 0.010233 0.00368609 0.00239809 0.00131619 0.00146851 
554 0.0787893 0.873283 0.0109427 0.0107382 0.0122186 0.0082689 0.00324513 0.00116748 0.000600921 0.000745904 
555 0.193888 0.575192 0.0699589 0.0580823 0.0378002 0.0277702 0.0228251 0.00751888 0.00378974 0.00317449 
556 0.163113 0.577579 0.116164 0.08186 0.0265521 0.0152453 0.00936442 0.00525507 0.00264874 0.00221873 
557 0.19861 0.76955 0.0157296 0.0098487 0.0044718 0.000864002 0.000404805 0.000251024 0.000145648 0.000125018 
558 0.136069 0.473697 0.126878 0.0918192 0.0695432 0.0429257 0.0202648 0.0139891 0.016503 0.00831138 
559 0.416688 0.400156 0.0677109 0.052322 0.0232166 0.0133756 0.00821595 0.00461058 0.00285962 0.0108449 
560 0.129364 0.311696 0.139931 0.177037 0.129366 0.0461387 0.0263596 0.0226704 0.00583311 0.0116038 
561 0.144355 0.448035 0.0978609 0.112287 0.0819308 0.0645262 0.0220532 0.0134317 0.00692447 0.00859511 
562 0.683588 0.290737 0.0125916 0.00517076 0.00351242 0.00224422 0.000867178 0.000511641 0.000456419 0.000320344 
563 0.164673 0.323797 0.145476 0.141549 0.104812 0.058136 0.023141 0.0162286 0.0120178 0.0101694 
564 0.354517 0.514891 0.0392704 0.0295552 0.023652 0.0282955 0.00429008 0.00266016 0.00154346 0.00132485 
565 0.182899 0.448726 0.123067 0.0905074 0.0655542 0.0430481 0.0222323 0.0101634 0.00694231 0.00686075 
566 0.297376 0.441771 0.106309 0.0651437 0.0387317 0.0201708 0.00696713 0.00390977 0.00275397 0.0168674 
567 0.208975 0.594003 0.0637016 0.0589699 0.0324012 0.0184131 0.0113103 0.00634703 0.00319913 0.00267977 
568 0.535019 0.400357 0.0528024 0.00366473 0.00576478 0.00112866 0.000612322 0.000297882 0.000172404 0.000180711 
569 0.312623 0.570627 0.0496569 0.0217141 0.01214 0.0260257 0.00315169 0.0019544 0.00113397 0.000973358 
570 0.414235 0.480435 0.03303 0.00866715 0.0266309 0.0336064 0.00164578 0.000800558 0.000463335 0.00048566 
571 0.202524 0.453117 0.107603 0.0867627 0.0515768 0.0604342 0.0157398 0.0102918 0.00564866 0.00630236 
572 0.190536 0.5046 0.0908575 0.0917908 0.0512015 0.0330456 0.0157259 0.0102918 0.00564866 0.00630236 
573 0.286061 0.287364 0.142946 0.111948 0.0801503 0.044457 0.0176961 0.0124101 0.0091901 0.00777663 
574 0.15713 0.554131 0.0969461 0.0784595 0.0482593 0.0298629 0.0164114 0.00911516 0.00520914 0.00447569 
575 0.19393 0.590529 0.0699646 0.0580823 0.0378002 0.0218125 0.0133983 0.00751879 0.00378974 0.00317449 
576 0.144569 0.46315 0.0892046 0.107951 0.079595 0.0645262 0.0220532 0.0134317 0.00692447 0.00859511 
577 0.236917 0.481492 0.102992 0.0629613 0.0432625 0.0441195 0.0131697 0.00731463 0.00418018 0.00359161 
578 0.402365 0.551848 0.031386 0.00670562 0.00341135 0.0020611 0.000971276 0.000602299 0.000349464 0.000299966 
579 0.17016 0.525006 0.0900206 0.0843233 0.0712836 0.0274182 0.0148158 0.00822896 0.0047027 0.00404056 
580 0.164453 0.324389 0.145104 0.141549 0.104812 0.058136 0.023141 0.0162286 0.0120178 0.0101694 
581 0.129816 0.381178 0.138443 0.0632065 0.160076 0.0393826 0.0188067 0.0222367 0.0394658 0.0073895 
582 0.144355 0.454838 0.0975796 0.108102 0.079595 0.0645262 0.0220532 0.0134317 0.00692447 0.00859511 
583 0.279555 0.610695 0.0393586 0.0269543 0.0129313 0.0263704 0.00180779 0.00112007 0.00064988 0.000557831 
584 0.220991 0.564996 0.0735563 0.0614685 0.0341256 0.0196918 0.0120957 0.00678779 0.00342129 0.00286586 
585 0.743308 0.212499 0.00915208 0.00590101 0.00356807 0.0230171 0.00136367 0.000545061 0.000315462 0.000330662 
586 0.2 0.63356 0.0788494 0.0319122 0.0209461 0.0155662 0.00891181 0.00536606 0.00231082 0.00257824 
587 0.52673 0.426701 0.0184421 0.0120586 0.00725183 0.00409316 0.00228955 0.00111382 0.00064464 0.000675701 
588 0.878228 0.077087 0.00950696 0.000991963 0.00751361 0.0240463 0.00250065 3.85569e-05 6.95443e-05 1.78357e-05 
589 0.120153 0.484774 0.0991128 0.131467 0.0955951 0.0391135 0.0154085 0.00697042 0.00398346 0.00342259 
590 0.224867 0.572298 0.0614508 0.0613048 0.0364299 0.0191596 0.0117688 0.00660434 0.00332883 0.0027884 
591 0.125186 0.620422 0.115875 0.0566652 0.034854 0.0215677 0.0118527 0.00658317 0.00376216 0.00323245 
592 0.157123 0.538758 0.0969411 0.0791691 0.0628004 0.0299969 0.0164114 0.00911516 0.00520914 0.00447569 
593 0.231972 0.603161 0.051902 0.0494041 0.0212016 0.0269515 0.00762769 0.00403902 0.00203581 0.00170531 
594 0.920831 0.0720982 0.00535443 0.00102637 0.000255625 0.000231748 7.235e-05 3.98942e-05 7.19563e-05 1.84543e-05 
595 0.732706 0.219757 0.0154707 0.00278495 0.0287209 0.000299197 9.34071e-05 5.15052e-05 9.28988e-05 2.38253e-05 
596 0.127664 0.624772 0.125259 0.0593164 0.0346215 0.0165831 0.00488045 0.00319401 0.00175303 0.0019559 
597 0.26522 0.685074 0.0172502 0.0126373 0.00830294 0.00535876 0.00255015 0.00166894 0.000916 0.001022 
598 0.196592 0.531412 0.0847859 0.0637936 0.0572003 0.0368208 0.0121749 0.00796785 0.00437316 0.00487924 
599 0.279972 0.453117 0.0985213 0.0665018 0.048953 0.0197159 0.0107752 0.00637726 0.0131286 0.00293859 
600 0.167603 0.637973 0.0770565 0.0611846 0.0310473 0.0113012 0.00664802 0.00373069 0.00188041 0.00157513 
601 0.173048 0.558256 0.123753 0.0701733 0.0316875 0.0225231 0.00899083 0.00490502 0.00335146 0.00331208 
602 0.142167 0.45954 0.0997992 0.106324 0.078389 0.0635486 0.0217191 0.0132282 0.00681955 0.00846488 
603 0.189279 0.479304 0.097925 0.0850148 0.0558561 0.0411822 0.026314 0.0120881 0.00616218 0.0068753 
604 0.21444 0.46389 0.0950856 0.0957283 0.0556644 0.0349895 0.016651 0.0108972 0.00598094 0.00667309 
605 0.356372 0.604795 0.0114479 0.019017 0.00386192 0.00209206 0.00117021 0.000569286 0.000329482 0.000345358 
606 0.188992 0.602539 0.0631578 0.0535551 0.0468933 0.0196929 0.0120957 0.00678779 0.00342129 0.00286586 
607 0.448166 0.381833 0.0606964 0.0474687 0.0270288 0.0118374 0.0110426 0.00841005 0.00189159 0.00162525 
608 0.874241 0.0797653 0.0313638 0.00113097 0.000281676 0.000312305 0.00639221 4.39598e-05 7.92913e-05 0.00638976 
609 0.301849 0.571993 0.0441712 0.0312938 0.0306356 0.00966198 0.00454214 0.00281663 0.00163426 0.00140278 
610 0.284054 0.510652 0.0583389 0.0484019 0.0323963 0.0429103 0.011177 0.00626566 0.00315812 0.00264541 
611 0.157123 0.538758 0.0969411 0.0784595 0.0488503 0.0405342 0.0205337 0.00911516 0.00520914 0.00447569 
612 0.160855 0.589591 0.0984478 0.0689417 0.0365144 0.0157321 0.0095094 0.0152256 0.00298784 0.00219513 
613 0.256114 0.441276 0.0785771 0.087321 0.0642938 0.0345963 0.0240264 0.00691077 0.00325363 0.00363016 
614 0.226959 0.634561 0.0478298 0.0330561 0.027371 0.0141425 0.00666038 0.00435888 0.00239238 0.00266923 
615 0.174077 0.423466 0.14569 0.0865353 0.0731371 0.0318464 0.0340938 0.00829123 0.00595221 0.0169107 
616 0.208377 0.577196 0.0694883 0.0626381 0.0361558 0.0202544 0.0124413 0.00698173 0.00351905 0.00294774 
617 0.295844 0.561692 0.0428405 0.0331819 0.0326284 0.0231019 0.00467979 0.00290199 0.00168378 0.00144529 
618 0.150191 0.573793 0.0926841 0.074998 0.0461302 0.0285455 0.0156874 0.00871302 0.00497933 0.00427824 
619 0.563282 0.252147 0.0643803 0.0506212 0.0429825 0.0124593 0.00658482 0.00365732 0.00209009 0.0017958 
620 0.355872 0.566449 0.0280814 0.0302651 0.0154352 0.00186045 0.000987369 0.000480335 0.000278001 0.000291396 
621 0.200309 0.470387 0.104271 0.104042 0.0468435 0.0403415 0.014034 0.00914827 0.00502103 0.0056021 
622 0.433183 0.467739 0.0407442 0.0452812 0.00589526 0.00332269 0.00185858 0.00090416 0.000523296 0.00054851 
623 0.14375 0.542523 0.172548 0.061026 0.034847 0.0181188 0.0169868 0.00471983 0.00259047 0.00289025 
624 0.148165 0.56713 0.0962309 0.0843879 0.0348661 0.0247189 0.020766 0.0167408 0.00376216 0.00323245 
625 0.232396 0.645099 0.0264983 0.039613 0.0245895 0.0269473 0.00236878 0.00119707 0.000694559 0.000596182 
626 0.205406 0.440995 0.0850402 0.0738286 0.0524815 0.0924044 0.0193546 0.0191627 0.00535696 0.00597065 
627 0.12283 0.660159 0.134954 0.0603958 0.0111985 0.00717409 0.00143665 0.000890843 0.000516881 0.00044367 
628 0.115495 0.56431 0.151721 0.0792414 0.0447577 0.021121 0.0108851 0.00604577 0.00345504 0.00296857 
629 0.217217 0.663105 0.0739983 0.0279115 0.0057764 0.00332706 0.00156785 0.00097224 0.00105053 0.00507391 
630 0.568332 0.341881 0.0263389 0.0297536 0.0218108 0.0082153 0.00181803 0.000960159 0.000483955 0.000405387 
631 0.134778 0.44387 0.0830251 0.1145 0.0882307 0.07395 0.0204781 0.0124723 0.00933541 0.0193613 
632 0.153161 0.523703 0.101581 0.0921201 0.0755712 0.0252547 0.0133343 0.00740607 0.00423243 0.0036365 
633 0.405587 0.44195 0.0281619 0.0315512 0.01429 0.0299075 0.0255768 0.00321957 0.00106062 0.0186954 
634 0.269563 0.583683 0.0572409 0.0199138 0.0109267 0.0146649 0.00290474 0.00179001 0.00367701 0.0356362 
635 0.239045 0.651989 0.0658976 0.0335838 0.00295453 0.00506848 0.000708436 0.000344635 0.000199462 0.000209073 
636 0.205629 0.5558 0.105294 0.0531769 0.0346058 0.0199692 0.0122661 0.0068834 0.00346948 0.00290622 
637 0.142118 0.581773 0.0803297 0.0651129 0.0649014 0.03675 0.0135464 0.00749982 0.00428601 0.00368253 
638 0.704658 0.224975 0.0402975 0.018911 0.00368013 0.00225142 0.000355105 0.000266893 0.00436852 0.000236401 
639 0.261136 0.53511 0.0770177 0.0723493 0.0219028 0.015014 0.00964805 0.00391134 0.00210307 0.00180696 
640 0.134092 0.450572 0.12505 0.109098 0.0739097 0.0599172 0.020478 0.0124723 0.00642986 0.00798117 
641 0.165466 0.493968 0.132205 0.082654 0.0526644 0.0339898 0.0161752 0.0105859 0.00581005 0.00648243 
642 0.177428 0.519695 0.110737 0.074813 0.0491534 0.0317238 0.0150969 0.00988014 0.00542272 0.00605026 
643 0.131803 0.619175 0.0815524 0.0540128 0.0418615 0.0364704 0.0197257 0.00712562 0.00391061 0.00436317 
644 0.217184 0.692278 0.0418661 0.022638 0.0115405 0.00697266 0.00328581 0.00203757 0.00118223 0.00101478 
645 0.0728473 0.786952 0.0545582 0.0435447 0.014067 0.00955532 0.0130887 0.00301095 0.00127771 0.00109781 
646 0.0937953 0.695547 0.0966792 0.0503007 0.0340833 0.0162649 0.00789813 0.00263327 0.00150486 0.00129298 
647 0.183945 0.586193 0.0614504 0.0527161 0.0450185 0.0191596 0.0117688 0.00660434 0.00509752 0.0280467 
648 0.181219 0.4677 0.0974184 0.106423 0.0573432 0.0350081 0.031338 0.0108974 0.00598094 0.00667309 
649 0.473678 0.471613 0.0362663 0.00486336 0.00290204 0.0043206 0.00427297 0.00161658 0.00037831 8.9146e-05 
650 0.162179 0.623217 0.0819827 0.0740484 0.0237836 0.0117381 0.00758457 0.0117565 0.00201912 0.00169133 
651 0.244245 0.432722 0.0969227 0.0742322 0.0619296 0.0518778 0.0172725 0.00962351 0.00528187 0.00589311 
652 0.15717 0.295607 0.139403 0.152626 0.129098 0.0672389 0.0221362 0.0155126 0.0114876 0.00972079 
653 0.178397 0.443029 0.0686355 0.0954175 0.0779219 0.0718832 0.0312026 0.0101553 0.00523378 0.018124 
654 0.161466 0.525226 0.113107 0.0779852 0.0512015 0.0330456 0.0157259 0.0102918 0.00564866 0.00630236 
655 0.437715 0.457641 0.0458432 0.021674 0.0148687 0.00694118 0.00394892 0.00911972 0.00120929 0.001039 
656 0.203585 0.531509 0.07856 0.0856287 0.0496001 0.02585 0.0130413 0.00634703 0.00319913 0.00267977 
657 0.493687 0.42755 0.0193436 0.0426247 0.00980798 0.00336118 0.00158393 0.000982211 0.000569894 0.000489175 
658 0.512422 0.40859 0.0224573 0.0380844 0.00922856 0.00427922 0.00239362 0.00116445 0.000673941 0.000706414 
659 0.253267 0.49144 0.100922 0.0941179 0.0470264 0.00636341 0.0029987 0.00185953 0.00107893 0.000926107 
660 0.123723 0.565161 0.0910696 0.0617117 0.0504604 0.0462667 0.0230871 0.0088466 0.0232542 0.00641899 
661 0.174997 0.485362 0.111834 0.0983073 0.0543074 0.0349895 0.016651 0.0108972 0.00598094 0.00667309 
662 0.503123 0.419772 0.0344182 0.0257493 0.00799091 0.00415336 0.00232322 0.0011302 0.00065412 0.000685637 
663 0.0967635 0.557219 0.0799198 0.122094 0.0671873 0.0292754 0.0287559 0.0129235 0.00295082 0.00291062 
664 0.0696289 0.872392 0.0226965 0.0116899 0.0123972 0.0073067 0.00186889 0.00104876 0.000528612 0.000442794 
665 0.245194 0.472089 0.119166 0.0688392 0.036988 0.0233541 0.0229328 0.00560907 0.00313513 0.0026937 
666 0.165505 0.509774 0.104331 0.0803967 0.0542241 0.0466832 0.0162078 0.0105859 0.00581005 0.00648243 
667 0.247752 0.635285 0.0581785 0.0229206 0.0087485 0.00528573 0.00269146 0.0173867 0.000982553 0.000769266 
668 0.478626 0.438265 0.0294164 0.0329824 0.0120275 0.00418004 0.0019673 0.00121994 0.000707831 0.000607574 
669 0.830823 0.123779 0.0135477 0.0160707 0.000998884 0.0142834 0.000179338 9.7207e-05 0.00017533 4.49661e-05 
670 0.157123 0.545648 0.103159 0.0807361 0.0482593 0.0298629 0.0164114 0.00911516 0.00520914 0.00447569 
671 0.12296 0.791484 0.0450227 0.0208547 0.00850178 0.00490592 0.00301346 0.00169108 0.000852364 0.000713986 
672 0.152728 0.315587 0.14179 0.152887 0.115658 0.0641898 0.0214881 0.0150694 0.0111594 0.00944305 
673 0.160469 0.560172 0.120317 0.0855493 0.0379965 0.0155804 0.00957023 0.00537056 0.00270696 0.00226749 
674 0.139832 0.722925 0.0462719 0.0299631 0.0195001 0.015168 0.011379 0.0113248 0.00199926 0.00163763 
675 0.167921 0.470958 0.0943327 0.0974784 0.0806332 0.0368728 0.0285765 0.0107572 0.00589426 0.00657637 
676 0.14975 0.748184 0.0390244 0.0300035 0.0148918 0.00796523 0.00489265 0.00274562 0.00138389 0.00115922 
677 0.0625396 0.727532 0.0589119 0.065855 0.0369596 0.0357116 0.00588518 0.00320262 0.00183024 0.00157254 
678 0.148014 0.536297 0.118834 0.075876 0.0594928 0.0283156 0.01546 0.00858674 0.00490717 0.00421623 
679 0.164582 0.513255 0.0910289 0.0790278 0.0519226 0.0341338 0.0309475 0.0227203 0.00599097 0.00639112 
680 0.374343 0.5619 0.0393139 0.0137611 0.00398152 0.00445751 0.0010104 0.000592976 0.000344054 0.000295322 
681 0.293176 0.601064 0.0404015 0.0303997 0.0154973 0.00936329 0.00441237 0.00273616 0.00158756 0.0013627 
682 0.175484 0.477947 0.097925 0.09231 0.0757484 0.0391653 0.0171555 0.0112274 0.00616218 0.0068753 
683 0.121921 0.619266 0.0829812 0.0740639 0.0446444 0.0323823 0.0106975 0.00651537 0.00335888 0.00416927 
684 0.300396 0.570333 0.0468684 0.0439134 0.0175299 0.0100835 0.00475178 0.00294663 0.00170968 0.00146752 
685 0.130736 0.730166 0.0715512 0.0276884 0.0133485 0.00825996 0.00485097 0.00611082 0.00605021 0.00123796 
686 0.171786 0.581038 0.0774184 0.0808915 0.0389227 0.0168574 0.0109718 0.0166831 0.00300327 0.00242755 
687 0.140045 0.453141 0.112384 0.105128 0.077219 0.0626001 0.0213949 0.0130307 0.00671776 0.00833854 
688 0.152121 0.456084 0.0923135 0.115668 0.0749809 0.0607856 0.0207748 0.012653 0.00652305 0.00809684 
689 0.420869 0.515143 0.0250781 0.0211407 0.00559181 0.00362079 0.00641075 0.00108097 0.000572832 0.000491696 
690 0.183709 0.600912 0.0702839 0.0478233 0.0498378 0.024493 0.0110241 0.00618634 0.00311814 0.00261192 
691 0.135557 0.686695 0.0573534 0.0439097 0.0365393 0.0185882 0.00884582 0.00578914 0.00317737 0.00354508 
692 0.131355 0.681893 0.0760394 0.04204 0.030772 0.0185126 0.00803025 0.00525539 0.00288442 0.00321823 
693 0.190898 0.496136 0.173905 0.0639146 0.0339116 0.0191878 0.00913117 0.00597589 0.00327987 0.00365943 
694 0.159365 0.573698 0.0532622 0.0477258 0.134075 0.0146133 0.0082942 0.00465449 0.00234603 0.00196516 
695 0.160699 0.596304 0.0779389 0.0723042 0.0513827 0.020179 0.00877725 0.00574426 0.00315274 0.00351759 
696 0.132825 0.77209 0.0445416 0.0203559 0.0145831 0.00684939 0.0042072 0.00236097 0.00119002 0.000996821 
697 0.150311 0.573052 0.0933054 0.074998 0.0461302 0.0285455 0.0156874 0.00871302 0.00497933 0.00427824 
698 0.648972 0.276347 0.0158919 0.0486094 0.0046485 0.00256753 0.00143617 0.000698669 0.000404365 0.000423849 
699 0.215 0.529091 0.0821276 0.0573019 0.0371594 0.042368 0.0119859 0.00817073 0.0134585 0.00333706 
700 0.260877 0.595817 0.0585389 0.0426937 0.0214705 0.00913324 0.00551197 0.00309317 0.00155907 0.00130596 
701 0.208388 0.601641 0.0832456 0.0435348 0.0273002 0.0157535 0.00967657 0.00543024 0.00273704 0.00229269 
702 0.217208 0.733409 0.0257003 0.0147231 0.00178429 0.00184284 0.00303151 0.000316149 0.000414707 0.0015697 
703 0.0921623 0.657831 0.155408 0.0462365 0.0202692 0.013073 0.00622124 0.00407148 0.00223464 0.00249324 
704 0.178742 0.744101 0.0293915 0.0193763 0.00867311 0.00945605 0.00717802 0.00160274 0.00080501 0.00067432 
705 0.194269 0.667657 0.0721042 0.0272129 0.0180386 0.0145455 0.00271152 0.00166549 0.000966343 0.00082947 
706 0.125493 0.63865 0.0832776 0.0654421 0.0365128 0.0235573 0.0112105 0.00733673 0.00402677 0.00449277 
707 0.0864629 0.567767 0.0989471 0.0680376 0.0910348 0.0241215 0.0250337 0.0283162 0.00516981 0.00510907 
708 0.304698 0.581672 0.0413975 0.0338025 0.017036 0.00995518 0.00473751 0.00310046 0.00170169 0.00189862 
709 0.0954177 0.677302 0.0604921 0.0739404 0.0392091 0.0299586 0.010239 0.00623614 0.00321493 0.00399059 
710 0.109733 0.405421 0.24462 0.154165 0.0592612 0.0167938 0.00635788 0.00177485 0.00100772 0.000865833 
711 0.143372 0.441106 0.0862096 0.139982 0.0834765 0.0591598 0.0201896 0.0122966 0.0063393 0.00786876 
712 0.162335 0.517371 0.0942327 0.117377 0.0548631 0.0250451 0.0119186 0.00780011 0.00428109 0.00477652 
713 0.222311 0.65237 0.0469229 0.0400276 0.0116669 0.0221778 0.00275464 0.00085125 0.000493908 0.000423951 
714 0.175484 0.506645 0.09953 0.0850148 0.0558561 0.0360498 0.0171555 0.0112274 0.00616218 0.0068753 
715 0.175205 0.521372 0.118831 0.0699801 0.0457832 0.0374351 0.0146542 0.00811624 0.00463828 0.00398521 
716 0.151051 0.656622 0.100241 0.0663601 0.0150507 0.00746241 0.00140394 0.000870596 0.000505134 0.000433586 
717 0.358639 0.443873 0.0560496 0.0527133 0.0522603 0.0167335 0.00919604 0.00510763 0.00291892 0.00250793 
718 0.378154 0.582094 0.0214425 0.00784989 0.00472053 0.00266442 0.00149037 0.000725034 0.000419624 0.000439843 
719 0.258183 0.709598 0.00976993 0.00648052 0.0111898 0.00229037 0.00120595 0.000586668 0.000339543 0.000355903 
720 0.228131 0.580066 0.0759298 0.0517406 0.027422 0.0158787 0.0091277 0.00835091 0.00182469 0.00152846 
721 0.118947 0.382744 0.172454 0.251877 0.0340729 0.0183122 0.0100636 0.00558949 0.00319429 0.00274453 
722 0.216953 0.66946 0.0452379 0.0411554 0.0120561 0.00728256 0.00343184 0.00212812 0.00123477 0.00105988 
723 0.222509 0.659433 0.0893767 0.018209 0.00182156 0.0032546 0.00208191 0.00294404 0.000214306 0.000155931 
724 0.135385 0.540446 0.271099 0.0236381 0.0185452 0.00672893 0.00181686 0.00112665 0.000653702 0.000561112 
725 0.126856 0.73282 0.048773 0.0567857 0.0130009 0.0122721 0.00461519 0.00253223 0.00127634 0.00106913 
726 0.092844 0.64789 0.0872235 0.0992529 0.0373207 0.0255605 0.00461793 0.00256487 0.00146578 0.00125939 
727 0.139011 0.806696 0.0156088 0.0208521 0.0156897 0.000994491 0.000556264 0.000270611 0.00015662 0.000164167 
728 0.125958 0.723828 0.0727986 0.0658486 0.00517065 0.00307714 0.00145007 0.000899207 0.000521734 0.000447836 
729 0.165456 0.450635 0.0960022 0.106782 0.0903352 0.0517049 0.016205 0.0105859 0.00581005 0.00648243 
730 0.245766 0.53578 0.0479557 0.0967408 0.0498951 0.00715579 0.0126863 0.00193475 0.00112252 0.000963526 
731 0.167334 0.404879 0.144207 0.0961382 0.071239 0.0707867 0.0196364 0.0119597 0.00616562 0.00765318 
732 0.193948 0.548539 0.101679 0.0769898 0.0290781 0.0166801 0.0105832 0.0171767 0.00289828 0.00242755 
733 0.328873 0.607111 0.0310598 0.0155141 0.0121504 0.00245736 0.00137373 0.000668292 0.000386784 0.00040542 
734 0.143216 0.547832 0.0776104 0.0868649 0.0723085 0.0433911 0.0119186 0.00780011 0.00428109 0.00477652 
735 0.167854 0.457166 0.0953709 0.150716 0.0547908 0.0344824 0.0164096 0.0107393 0.00589426 0.00657637 
736 0.150111 0.560723 0.117174 0.0686463 0.0439687 0.0303389 0.0126962 0.00756133 0.00415004 0.0046303 
737 0.203938 0.673963 0.0295975 0.0687402 0.0105348 0.0063634 0.0029987 0.00185953 0.00107893 0.000926107 
738 0.1881 0.602795 0.0678743 0.0563485 0.0366719 0.0211614 0.0129984 0.00729435 0.00367661 0.00307973 
739 0.166806 0.531945 0.0953845 0.0801568 0.0526644 0.0339898 0.0161752 0.0105859 0.00581005 0.00648243 
740 0.176991 0.481958 0.0976274 0.0994303 0.0566641 0.0339898 0.0166406 0.0243826 0.00583367 0.00648243 
741 0.191699 0.704971 0.0522861 0.0141976 0.0281671 0.00449597 0.00182761 0.00113332 0.00065757 0.000564432 
742 0.335055 0.532426 0.0399109 0.0309589 0.0392165 0.0124756 0.00435022 0.00269762 0.0015652 0.00134351 
743 0.685964 0.265011 0.0210277 0.0213183 0.00296503 0.00189447 0.000732033 0.000431905 0.000385289 0.000270421 
744 0.143433 0.756379 0.033028 0.0207682 0.0218999 0.00854386 0.0104895 0.00472926 0.000403156 0.000326675 
745 0.311245 0.437629 0.0706791 0.0549875 0.0392113 0.0298072 0.0186015 0.0251881 0.00957054 0.00307987 
746 0.328531 0.404487 0.0929478 0.0470079 0.0699991 0.0288799 0.0114119 0.00675174 0.00820563 0.00177881 
747 0.125025 0.399169 0.232102 0.128602 0.0665873 0.0263306 0.00947471 0.00588103 0.00322781 0.00360135 
748 0.114529 0.537382 0.148792 0.0890065 0.0550482 0.0238621 0.0137227 0.00748661 0.00511539 0.00505529 
749 0.265082 0.566713 0.068164 0.0575847 0.0174755 0.0181461 0.0030442 0.00182411 0.00105838 0.000908467 
750 0.298574 0.519669 0.114464 0.0371051 0.0216421 0.00517265 0.00147789 0.000912053 0.000529188 0.000454233 
751 0.247592 0.614971 0.0450794 0.0507857 0.0143306 0.0187042 0.00374125 0.0023076 0.00133891 0.00114927 
752 0.5986 0.30624 0.0689447 0.0123225 0.00214876 0.0104584 0.000517124 0.000305107 0.000272176 0.000191031 
753 0.339998 0.568828 0.0304523 0.0383809 0.00664897 0.00238376 0.00998669 0.00257857 0.000399747 0.000343126 
754 0.217903 0.55807 0.0678706 0.0563485 0.0385252 0.0342334 0.0129984 0.00729435 0.00367661 0.00307973 
755 0.154805 0.492685 0.0672362 0.104412 0.0838837 0.0242893 0.0639042 0.00605834 0.00148393 0.00124302 
756 0.182784 0.512374 0.184547 0.0613341 0.0367664 0.00994868 0.0058844 0.00330217 0.00166441 0.0013942 
757 0.164739 0.504466 0.125477 0.0880935 0.0403109 0.0206504 0.0153398 0.0289089 0.00891966 0.00309491 
758 0.140729 0.630995 0.0602052 0.0410364 0.0273713 0.0360092 0.0528994 0.00583355 0.00267753 0.00224285 
759 0.464479 0.49157 0.0233258 0.0153778 0.00330943 0.000899453 0.000503118 0.000244757 0.000141656 0.000148482 
760 0.369786 0.370877 0.0793733 0.0724339 0.0503984 0.0243743 0.0175528 0.00716236 0.00380097 0.00424084 
761 0.125098 0.661583 0.104057 0.0508351 0.0267065 0.0222147 0.00443469 0.00245845 0.00140496 0.00120714 
762 0.113414 0.57948 0.0876195 0.100594 0.0731014 0.0110251 0.0278942 0.00356731 0.00179805 0.00150615 
763 0.193112 0.525226 0.142096 0.0516787 0.0365901 0.0280224 0.01467 0.00417247 0.00238447 0.00204873 
764 0.167312 0.537618 0.103375 0.0817448 0.0468188 0.0289715 0.0159215 0.00884307 0.00505365 0.00434209 
765 0.162324 0.547347 0.0910847 0.089829 0.0530177 0.0258812 0.0142232 0.0078998 0.00451459 0.00387893 
766 0.218806 0.608139 0.054508 0.0648193 0.0228869 0.0069251 0.00200953 0.0205737 0.000716964 0.000615413 
767 0.155886 0.581161 0.109122 0.0659384 0.0266223 0.016484 0.0344298 0.0050211 0.00286944 0.00246542 
768 0.115724 0.561765 0.140311 0.0961541 0.0428215 0.016894 0.0162301 0.00489812 0.0027983 0.0024043 
769 0.214169 0.397983 0.131544 0.108825 0.0601591 0.0487698 0.0166681 0.0101519 0.00523361 0.0064963 
770 0.23063 0.586031 0.0951391 0.0342229 0.0135369 0.0162186 0.0154068 0.00593035 0.00172984 0.00115444 
771 0.39498 0.52616 0.0248528 0.0111405 0.0321471 0.0077544 0.00143827 0.000698669 0.000404365 0.000423849 
772 0.271193 0.569368 0.0406705 0.0416961 0.0366057 0.0303166 0.00462115 0.00266016 0.00154346 0.00132485 
773 0.223111 0.667308 0.0358433 0.0508731 0.00672476 0.0127078 0.00149942 0.000929763 0.000539463 0.000463054 
774 0.305383 0.567304 0.0428405 0.0332073 0.0306012 0.00995233 0.00467978 0.00290199 0.00168378 0.00144529 
775 0.0968767 0.657371 0.210703 0.0158653 0.0144545 0.00252681 0.000962199 0.00059667 0.000346198 0.000297162 
776 0.107065 0.595416 0.132978 0.0537987 0.0342786 0.0319471 0.0257907 0.0049756 0.0045263 0.00922344 
777 0.291458 0.580544 0.0447871 0.0317608 0.0161912 0.00978254 0.0110864 0.010568 0.0023982 0.00142372 
778 0.157123 0.538758 0.0969411 0.0784595 0.0525066 0.0381278 0.0192838 0.00911516 0.00520914 0.00447569 
779 0.256425 0.651187 0.0531969 0.0176609 0.00383975 0.0104088 0.00613055 0.000531626 0.000302586 0.000317166 
780 0.111821 0.649359 0.0762152 0.0992201 0.0237645 0.0152924 0.0150686 0.00448992 0.00256511 0.00220394 
781 0.124403 0.826224 0.0245909 0.0102593 0.0100563 0.00214897 0.00101267 0.000627971 0.000364359 0.000312751 
782 0.300396 0.570333 0.0438213 0.0416535 0.0228369 0.0100835 0.00475178 0.00294663 0.00170968 0.00146752 
783 0.244809 0.595435 0.0804137 0.0261214 0.0368066 0.00789677 0.00372127 0.0023076 0.00133891 0.00114927 
784 0.157123 0.538758 0.0969411 0.0804775 0.0615396 0.0299492 0.0164114 0.00911516 0.00520914 0.00447569 
785 0.18779 0.471047 0.111409 0.0983941 0.0550461 0.0355117 0.0168995 0.0110599 0.00607021 0.00677268 
786 0.65577 0.295598 0.0122929 0.00436393 0.00772474 0.0120728 0.000827115 0.000402375 0.000273037 0.0106749 
787 0.144355 0.448035 0.0891518 0.123278 0.079649 0.0645262 0.0220532 0.0134317 0.00692447 0.00859511 
788 0.114498 0.668192 0.0630632 0.103956 0.0270268 0.0125453 0.00521404 0.00285802 0.00144054 0.00120668 
789 0.170323 0.492392 0.0997608 0.091379 0.0628511 0.0413284 0.0184145 0.0108972 0.00598094 0.00667308 
790 0.200093 0.643199 0.0279212 0.074548 0.0309919 0.00549159 0.0117818 0.00428313 0.000920227 0.000769933 
791 0.141966 0.541028 0.0914368 0.0698612 0.0458383 0.0507268 0.015006 0.0083098 0.030922 0.00490522 
792 0.223081 0.550999 0.0652846 0.0459258 0.0844672 0.0139154 0.00784586 0.00440289 0.00221922 0.00185894 
793 0.293088 0.628585 0.0472688 0.0147444 0.00723206 0.00436953 0.0020591 0.00127687 0.000740863 0.000635927 
794 0.206052 0.577456 0.0692097 0.0396082 0.0428202 0.0212539 0.0182922 0.0218313 0.00214468 0.00133124 
795 0.279639 0.532997 0.106237 0.0269795 0.0395921 0.00703494 0.00328581 0.00203757 0.00118223 0.00101478 
796 0.120738 0.713057 0.0829806 0.0359819 0.0251543 0.0109011 0.00537587 0.0030168 0.00152057 0.00127372 
797 0.300396 0.570333 0.0434996 0.0398699 0.0249243 0.0101014 0.00475178 0.00294663 0.00170968 0.00146752 
798 0.388025 0.531962 0.0183222 0.0518982 0.0050406 0.00220647 0.00123421 0.000600419 0.000347501 0.000364245 
799 0.200711 0.532227 0.0779523 0.0848756 0.0446522 0.0199717 0.0134056 0.0198222 0.00347557 0.00290622 
800 0.291355 0.448663 0.0819184 0.0651389 0.0549095 0.0317076 0.0122614 0.00681018 0.00389189 0.00334391 
801 0.257668 0.649825 0.0422309 0.0233844 0.011921 0.00720253 0.00339413 0.00210474 0.0012212 0.00104823 
802 0.175484 0.477947 0.098326 0.0962222 0.0602259 0.0472634 0.0202668 0.0112274 0.00616218 0.0068753 
803 0.148724 0.458781 0.141099 0.106418 0.0678121 0.0333261 0.0191714 0.0104592 0.00714649 0.00706253 
804 0.119352 0.475746 0.132902 0.0979402 0.0674822 0.0333261 0.0271455 0.0171911 0.00811325 0.0208017 
805 0.15492 0.453452 0.094159 0.108167 0.077219 0.0626001 0.0213949 0.0130307 0.00671776 0.00833854 
806 0.213555 0.435072 0.0973917 0.148699 0.053868 0.0304382 0.00707969 0.0090623 0.00228488 0.00254927 
807 0.250368 0.576329 0.0719192 0.0423953 0.0180855 0.0217361 0.0120709 0.00383422 0.001543 0.00171883 
808 0.176245 0.49217 0.104991 0.0882127 0.0534776 0.0368401 0.0254765 0.0106357 0.00564866 0.00630236 
809 0.154892 0.295111 0.165595 0.143923 0.0987393 0.0547658 0.03785 0.0282228 0.0113211 0.00957991 
810 0.141729 0.591117 0.0945059 0.0683493 0.049999 0.024957 0.0136762 0.00759597 0.00434095 0.00372974 
811 0.157187 0.342911 0.178935 0.149015 0.095677 0.0370475 0.0147467 0.0103418 0.00765842 0.00648052 
812 0.318205 0.572809 0.0631546 0.0189003 0.00847569 0.012915 0.00243047 0.00149634 0.000868198 0.000745227 
813 0.12482 0.483448 0.140195 0.100212 0.0705968 0.0348643 0.0200563 0.010942 0.00747633 0.0073885 
814 0.201514 0.714957 0.0423464 0.0196383 0.00678007 0.00426129 0.00801556 0.00119707 0.000694559 0.000596181 
815 0.143853 0.535501 0.130941 0.0718649 0.0449625 0.0406424 0.0150245 0.00834486 0.00476894 0.00409747 
816 0.114295 0.643309 0.116247 0.0623142 0.0312036 0.0151602 0.00814306 0.00452279 0.00258469 0.00222076 
817 0.182648 0.556341 0.0670263 0.0820543 0.0503287 0.0352073 0.0127514 0.00708291 0.00357005 0.00299046 
818 0.295906 0.613033 0.0646917 0.0194067 0.00338353 0.00166134 0.000929288 0.00045208 0.000261648 0.000274255 
819 0.208059 0.464942 0.10016 0.127196 0.0569158 0.0196081 0.0107752 0.0059847 0.00342015 0.00293859 
820 0.254944 0.696406 0.0245314 0.0114646 0.00626673 0.00505324 0.000582766 0.00036138 0.000209678 0.000179979 
821 0.172744 0.618765 0.0672838 0.0632979 0.0336607 0.0194221 0.01193 0.00669481 0.00337443 0.0028266 
822 0.157715 0.553527 0.0969646 0.0784595 0.0482593 0.0298629 0.0164114 0.00911516 0.00520914 0.00447569 
823 0.181014 0.534355 0.0864694 0.0826562 0.0438642 0.0265903 0.0146129 0.00885146 0.0176017 0.00398521 
824 0.52818 0.422386 0.0195757 0.0128007 0.00769809 0.00434505 0.00243045 0.00118236 0.00068431 0.000717282 
825 0.197799 0.735162 0.0410202 0.0141955 0.00512257 0.00294152 0.00180683 0.00101394 0.000511065 0.000428095 
826 0.134343 0.587228 0.0776175 0.0640459 0.0745982 0.0342561 0.013009 0.00722543 0.0041292 0.00354781 
827 0.112685 0.528817 0.120004 0.091979 0.0736055 0.0315057 0.0181064 0.00987817 0.00674947 0.00667017 
828 0.304498 0.516255 0.052537 0.0778189 0.0180152 0.0169649 0.0070398 0.00356731 0.00179805 0.00150615 
829 0.165456 0.53635 0.0923293 0.0801568 0.0526644 0.0339898 0.0161752 0.0105859 0.00581005 0.00648243 
830 0.318084 0.601666 0.0508669 0.0184585 0.00484297 0.00292603 0.00137886 0.00085505 0.000496113 0.000425844 
831 0.535574 0.417152 0.0187326 0.0122359 0.00735847 0.00415336 0.00232322 0.0011302 0.00065412 0.000685637 
832 0.130718 0.499052 0.128862 0.09456 0.0684894 0.0338236 0.0194576 0.0106153 0.00725316 0.00716794 
833 0.267832 0.424558 0.0833181 0.065366 0.0744931 0.0543911 0.0124425 0.00814297 0.00446927 0.00498648 
834 0.324683 0.55697 0.0398235 0.0299715 0.0197266 0.0188683 0.00435022 0.00269762 0.0015652 0.00134351 
835 0.604311 0.28645 0.0214808 0.0288764 0.0221741 0.031693 0.00219131 0.00135838 0.000788152 0.000676518 
836 0.316597 0.558363 0.0440691 0.0449833 0.0159535 0.00963868 0.00454214 0.00281663 0.00163426 0.00140278 
837 0.397477 0.526986 0.041456 0.0221373 0.00378182 0.0057156 0.00106879 0.000662738 0.000384531 0.000330066 
838 0.155896 0.559732 0.0954854 0.0772707 0.0475281 0.0294105 0.0161627 0.00897705 0.00513022 0.00440788 
839 0.20013 0.727229 0.0319043 0.0253952 0.0127417 0.00120696 0.000675124 0.000328434 0.000190086 0.000199245 
840 0.069738 0.760733 0.0823461 0.0265659 0.0171934 0.03716 0.00301712 0.00168525 0.000849425 0.000711524 
841 0.281526 0.517285 0.0826315 0.0687453 0.0265866 0.0139243 0.00406402 0.00252015 0.00146223 0.00125512 
842 0.480036 0.415434 0.0539065 0.0198457 0.0096858 0.00585205 0.00275773 0.0017101 0.00123858 0.00953391 
843 0.189953 0.543192 0.10706 0.0599618 0.0340778 0.032143 0.0198308 0.00790216 0.00319913 0.00267977 
844 0.193888 0.575192 0.0699589 0.0629661 0.0481624 0.0219511 0.0133983 0.00751879 0.00378974 0.00317449 
845 0.15607 0.688583 0.0551756 0.0532433 0.0203791 0.00782159 0.0139025 0.00252676 0.00125042 0.00104742 
846 0.13643 0.177131 0.225547 0.216031 0.119961 0.0483355 0.0318679 0.0242486 0.00950321 0.0109457 
847 0.960512 0.0364563 0.00151348 0.000600177 0.000407692 0.00026049 0.000100655 5.93869e-05 5.29772e-05 3.71828e-05 
848 0.0710066 0.0961297 0.234433 0.154484 0.189503 0.0420957 0.130959 0.0175198 0.0279183 0.0359508 
849 0.520306 0.414876 0.0235378 0.0242191 0.0077022 0.00434505 0.00243045 0.00118236 0.00068431 0.000717282 
850 0.180039 0.604316 0.0661817 0.057462 0.0424548 0.0236571 0.0124413 0.00698173 0.00351905 0.00294774 
851 0.367262 0.505733 0.0192446 0.016953 0.0365844 0.0128952 0.0119694 0.0286117 0.000364645 0.000382158 
852 0.235192 0.558366 0.0554101 0.0386849 0.0431443 0.0175901 0.0339665 0.0121141 0.00363882 0.00189305 
853 0.266247 0.475202 0.0767166 0.0158547 0.0193886 0.131807 0.012528 0.00156118 0.000339543 0.000355903 
854 0.14271 0.487123 0.142392 0.0892398 0.0646309 0.031918 0.0183614 0.0100173 0.00684453 0.00676412 
855 0.122929 0.485359 0.131536 0.0959928 0.0695272 0.0420529 0.027187 0.0107762 0.00736305 0.00727655 
856 0.30738 0.475458 0.0638856 0.0738415 0.0305599 0.0261261 0.00993661 0.00592808 0.00325363 0.00363016 
857 0.209697 0.587429 0.0537404 0.0785504 0.0354647 0.0183548 0.00820576 0.00444292 0.00223939 0.00187584 
858 0.157123 0.538758 0.0969411 0.0791974 0.0627288 0.0300401 0.0164114 0.00911516 0.00520914 0.00447569 
859 0.420572 0.357763 0.0529077 0.0414638 0.0845325 0.0115023 0.0146947 0.0135537 0.00165356 0.00135751 
860 0.163413 0.465449 0.0953371 0.0972545 0.060184 0.036176 0.024892 0.0386522 0.0127485 0.00589311 
861 0.17264 0.56705 0.103206 0.0786339 0.0342221 0.0194221 0.01193 0.00669481 0.00337443 0.0028266 
862 0.173996 0.490951 0.102761 0.0881808 0.0571901 0.0467031 0.0166665 0.0108972 0.00598094 0.00667308 
863 0.895745 0.06452 0.0199949 0.0192048 0.00019831 0.000179787 5.6128e-05 3.09493e-05 5.58226e-05 1.43166e-05 
864 0.287197 0.518165 0.0412925 0.052447 0.0149214 0.0416018 0.0389773 0.00260767 0.00150175 0.00128904 
865 0.178184 0.4853 0.100033 0.101029 0.056792 0.0366044 0.0174195 0.0114002 0.00625698 0.00698107 
866 0.182347 0.472222 0.112037 0.102383 0.0569098 0.0344824 0.0164096 0.0107393 0.00589426 0.00657637 
867 0.164897 0.51499 0.0933472 0.103727 0.0486483 0.0407333 0.0156874 0.00871302 0.00497933 0.00427824 
868 0.266077 0.587739 0.043721 0.0509862 0.0189376 0.0112232 0.0140334 0.00380056 0.00189487 0.00158725 
869 0.184724 0.483376 0.091279 0.107221 0.0623379 0.0330933 0.0157259 0.0102918 0.00564866 0.00630236 
870 0.154742 0.560165 0.0962054 0.0772707 0.0475281 0.0294105 0.0161627 0.00897705 0.00513022 0.00440788 
871 0.144355 0.448035 0.0891485 0.123317 0.0796139 0.0645262 0.0220532 0.0134317 0.00692447 0.00859511 
872 0.310996 0.561692 0.0428405 0.0322421 0.0164365 0.0122924 0.0174668 0.00290481 0.00168378 0.00144529 
873 0.0815275 0.739947 0.0615298 0.0793508 0.0201308 0.00707434 0.00656071 0.00188091 0.0010749 0.000923556 
874 0.150676 0.529417 0.126828 0.066025 0.055135 0.028063 0.0222292 0.0115026 0.00478475 0.00533847 
875 0.187627 0.476279 0.120279 0.0844788 0.0550225 0.0355117 0.0168995 0.0110599 0.00607021 0.00677268 
876 0.190636 0.477947 0.097925 0.0850148 0.0569486 0.0476463 0.0196181 0.0112274 0.00616218 0.0068753 
877 0.10611 0.573784 0.112688 0.0757423 0.0606234 0.0247958 0.0298103 0.00697287 0.00476433 0.00470836 
878 0.177503 0.589474 0.0845856 0.0542526 0.0401234 0.0282112 0.012591 0.0068834 0.00346948 0.00290622 
879 0.193888 0.575192 0.0699589 0.061057 0.0470337 0.0249889 0.0133983 0.00751879 0.00378974 0.00317449 
880 0.178184 0.485626 0.114326 0.0864859 0.0567155 0.0366044 0.0174195 0.0114002 0.00625698 0.00698107 
881 0.214778 0.708322 0.0292431 0.0230718 0.00551117 0.0175145 0.000755899 0.00036772 0.000212824 0.000223078 
882 0.169695 0.532117 0.0863174 0.0703856 0.0657516 0.030682 0.0146129 0.00811624 0.0131081 0.00921398 
883 0.29607 0.617148 0.0319712 0.0180577 0.00920577 0.0180805 0.00617738 0.00158291 0.000918425 0.000788339 
884 0.417569 0.489212 0.029876 0.0496492 0.00618358 0.00348677 0.00195036 0.00094881 0.000549137 0.000575597 
885 0.231261 0.511872 0.175795 0.0424054 0.0181243 0.00569942 0.00268579 0.00174401 0.00958346 0.000829486 
886 0.146654 0.546631 0.0961569 0.0919401 0.0480978 0.0377565 0.0155521 0.00834486 0.00476894 0.00409747 
887 0.232598 0.644206 0.0499156 0.0312393 0.0243041 0.0114727 0.00315531 0.00149634 0.000868198 0.000745227 
888 0.178184 0.500583 0.0995327 0.0863227 0.0567155 0.0366044 0.0174195 0.0114002 0.00625698 0.00698107 
889 0.353109 0.400499 0.134487 0.0436924 0.0206477 0.0162777 0.0231703 0.00397517 0.00222759 0.00191395 
890 0.12482 0.480342 0.145925 0.0975879 0.0705968 0.0348643 0.0200563 0.010942 0.00747633 0.0073885 
891 0.146641 0.581017 0.0574221 0.0930043 0.0503964 0.0399448 0.013652 0.00831485 0.00428657 0.00532078 
892 0.190948 0.515401 0.0972918 0.0810889 0.0497185 0.0305037 0.0145162 0.00950013 0.00521415 0.00581756 
893 0.132516 0.302588 0.157337 0.15922 0.131165 0.0422397 0.024132 0.0207546 0.00594448 0.0241034 
894 0.240951 0.615285 0.0498138 0.0385855 0.0142906 0.0164071 0.0175917 0.00448857 0.00140762 0.0011791 
895 0.16363 0.523911 0.125256 0.072923 0.0478767 0.0308998 0.0147047 0.00962351 0.00528187 0.00589311 
896 0.196033 0.476917 0.092614 0.0801568 0.0587875 0.04144 0.0168876 0.0119423 0.0172451 0.00797668 
897 0.129364 0.311696 0.139868 0.177234 0.129232 0.0461387 0.0263596 0.0226704 0.00583311 0.0116038 
898 0.157123 0.554143 0.0969412 0.0784595 0.0482593 0.0298629 0.0164114 0.00911516 0.00520914 0.00447569 
899 0.291429 0.598084 0.0422011 0.0317608 0.0161912 0.00978254 0.00460994 0.00285867 0.00165865 0.00142372 
900 0.144355 0.448035 0.0901098 0.119747 0.0822223 0.0645262 0.0220532 0.0134317 0.00692447 0.00859511 
901 0.137347 0.539234 0.107238 0.10262 0.068458 0.0210114 0.0112288 0.00623669 0.00356415 0.00306232 
902 0.176829 0.320534 0.144151 0.128029 0.101804 0.0730798 0.0208912 0.0146508 0.0108494 0.00918074 
903 0.119289 0.547649 0.124001 0.111752 0.041666 0.0219307 0.0206864 0.00632954 0.00360207 0.00309489 
904 0.177949 0.527544 0.110872 0.0574488 0.0596572 0.0410988 0.0118527 0.00658317 0.00376216 0.00323245 
905 0.256923 0.566798 0.103829 0.0399578 0.014566 0.00862408 0.00406402 0.00252015 0.00146223 0.00125512 
906 0.275345 0.574988 0.0524304 0.0356611 0.0137072 0.0114438 0.0120612 0.0122293 0.0109707 0.0011636 
907 0.172865 0.472605 0.12172 0.0879533 0.0685424 0.0355117 0.0168995 0.0110599 0.00607021 0.00677268 
908 0.168385 0.551239 0.0943075 0.0761174 0.0468188 0.0289715 0.0159215 0.00884307 0.00505365 0.00434209 
909 0.064222 0.154734 0.260748 0.147262 0.151896 0.0624852 0.0639116 0.0663615 0.016823 0.0115577 
910 0.179197 0.716802 0.0531042 0.0213697 0.0210815 0.00423799 0.00183849 0.00114007 0.000661485 0.000567792 
911 0.299393 0.569973 0.0532013 0.0295552 0.0150668 0.0091032 0.00484342 0.0159681 0.0015708 0.00132485 
912 0.150191 0.544399 0.107372 0.074998 0.0465332 0.0393236 0.0192121 0.00871302 0.00497933 0.00427824 
913 0.297704 0.590108 0.042868 0.0322421 0.0164365 0.00993076 0.00467978 0.00290199 0.00168378 0.00144529 
914 0.151273 0.568605 0.105461 0.0605643 0.0639324 0.0192597 0.0118343 0.0112414 0.00556104 0.00226749 
915 0.256918 0.597351 0.0855322 0.0279997 0.0142738 0.00862408 0.00406402 0.00252015 0.00146223 0.00125512 
916 0.148842 0.498021 0.108033 0.121266 0.0591154 0.0301176 0.0143325 0.00937988 0.00514815 0.00574392 
917 0.19881 0.52252 0.111676 0.0841545 0.0326485 0.0275304 0.0105618 0.00586619 0.00335242 0.0028804 
918 0.193888 0.588959 0.0715774 0.0580823 0.0378002 0.0218125 0.0133983 0.00751879 0.00378974 0.00317449 
919 0.0371007 0.669434 0.231163 0.0335324 0.0134265 0.00662625 0.00381187 0.00207962 0.00142094 0.00140425 
920 0.0950764 0.843538 0.0262916 0.0137525 0.0108529 0.00597599 0.0021941 0.00120375 0.000606732 0.000508231 
921 0.180024 0.552815 0.0857573 0.0725943 0.0560041 0.0276543 0.0117224 0.00651083 0.00372082 0.00319692 
922 0.314532 0.43578 0.0787583 0.0663495 0.0806307 0.0170868 0.0029987 0.00185953 0.00107893 0.000926107 
923 0.141603 0.453085 0.0547756 0.163492 0.0846502 0.0430844 0.0487317 0.00549126 0.00276779 0.00231845 
924 0.306982 0.57039 0.0418328 0.0450516 0.0159994 0.00949899 0.00447631 0.00277581 0.00161057 0.00138245 
925 0.152433 0.522676 0.108973 0.0768925 0.0608188 0.0294841 0.0264857 0.012842 0.00505365 0.00434209 
926 0.16922 0.511403 0.119249 0.074264 0.0625182 0.0300076 0.0138081 0.00903671 0.0049598 0.00553378 
927 0.145244 0.550059 0.115157 0.063349 0.0336888 0.0283306 0.0159825 0.0417649 0.00345532 0.00296857 
928 0.154743 0.545729 0.0954898 0.0790011 0.0609386 0.0294211 0.0161627 0.00897705 0.00513022 0.00440788 
929 0.104837 0.759566 0.0649646 0.0427403 0.0111752 0.00457638 0.00369705 0.00695166 0.000835199 0.00065714 
930 0.150191 0.514989 0.099266 0.101905 0.0701168 0.0298742 0.0156874 0.00871302 0.00497933 0.00427824 
931 0.178184 0.4853 0.106287 0.0948515 0.0567156 0.0366044 0.0174195 0.0114002 0.00625698 0.00698107 
932 0.196717 0.525575 0.0736931 0.0648828 0.0305546 0.0812141 0.0161477 0.00582724 0.00293254 0.00245645 
933 0.144355 0.451317 0.100018 0.109185 0.079595 0.0645262 0.0220532 0.0134317 0.00692447 0.00859511 
934 0.189803 0.521682 0.168218 0.0545233 0.0280077 0.0173312 0.00952447 0.00529005 0.00302316 0.0025975 
935 0.534644 0.386959 0.0404146 0.0156892 0.0155812 0.00322937 0.00152151 0.000943503 0.000547435 0.000469897 
936 0.109557 0.491609 0.138604 0.125681 0.0713005 0.0273315 0.0157067 0.00856902 0.00585496 0.00578617 
937 0.121509 0.528258 0.127225 0.0952665 0.0595947 0.0294309 0.0169306 0.00923673 0.00631119 0.00623704 
