0 1 1 100 0.104552
1 1 1 100 0.895448
0 2 1 100 7.46585e-06
1 2 1 100 0.999993
0 3 1 100 2.14475e-05
1 3 1 100 0.999979
0 4 1 100 0.125144
1 4 1 100 0.874856
0 5 1 100 4.83913e-05
1 5 1 100 0.999952
0 6 1 100 2.6926e-05
1 6 1 100 0.999973
0 7 1 100 5.92375e-05
1 7 1 100 0.999941
0 8 1 100 5.47856e-05
1 8 1 100 0.999945
0 1 2 100 0.115638
1 1 2 100 0.492767
2 1 2 100 0.391595
0 2 2 100 0.0762414
1 2 2 100 0.369692
2 2 2 100 0.554067
0 3 2 100 0.14198
1 3 2 100 0.347232
2 3 2 100 0.510787
0 4 2 100 0.117669
1 4 2 100 0.228187
2 4 2 100 0.654144
0 5 2 100 0.120506
1 5 2 100 0.180937
2 5 2 100 0.698557
0 6 2 100 0.200712
1 6 2 100 0.250691
2 6 2 100 0.548597
0 7 2 100 0.000852258
1 7 2 100 0.497502
2 7 2 100 0.501646
0 8 2 100 0.153856
1 8 2 100 0.2296
2 8 2 100 0.616544
0 9 2 100 0.098773
1 9 2 100 0.000826784
2 9 2 100 0.9004
0 10 2 100 0.191684
1 10 2 100 0.181784
2 10 2 100 0.626532
0 11 2 100 0.0714959
1 11 2 100 0.0216748
2 11 2 100 0.906829
0 12 2 100 0.186298
1 12 2 100 0.00262693
2 12 2 100 0.811075
0 13 2 100 0.305176
1 13 2 100 0.0114022
2 13 2 100 0.683422
0 14 2 100 0.00102723
1 14 2 100 0.500001
2 14 2 100 0.498972
1 15 2 100 2.46519e-05
2 15 2 100 0.999975
0 16 2 100 0.891887
1 16 2 100 3.43113e-05
2 16 2 100 0.108078
0 1 3 100 0.145479
1 1 3 100 0.435684
2 1 3 100 0.223233
3 1 3 100 0.195605
0 2 3 100 0.0311578
1 2 3 100 0.279528
2 2 3 100 0.382986
3 2 3 100 0.306328
0 3 3 100 0.0888388
1 3 3 100 0.265905
2 3 3 100 0.290517
3 3 3 100 0.354739
0 4 3 100 0.0309549
1 4 3 100 0.237224
2 4 3 100 0.273026
3 4 3 100 0.458795
0 5 3 100 0.191427
1 5 3 100 0.214029
2 5 3 100 0.204969
3 5 3 100 0.389575
0 6 3 100 0.119166
1 6 3 100 0.210899
2 6 3 100 0.154691
3 6 3 100 0.515243
0 7 3 100 0.136155
1 7 3 100 0.248659
2 7 3 100 0.268112
3 7 3 100 0.347073
0 8 3 100 0.0938112
1 8 3 100 0.172363
2 8 3 100 0.299281
3 8 3 100 0.434545
0 9 3 100 0.116098
1 9 3 100 0.0558442
2 9 3 100 0.445145
3 9 3 100 0.382912
0 10 3 100 0.231003
1 10 3 100 0.158813
2 10 3 100 0.235391
3 10 3 100 0.374793
0 11 3 100 0.126666
1 11 3 100 0.170684
2 11 3 100 0.266761
3 11 3 100 0.43589
0 12 3 100 0.00522299
1 12 3 100 0.439918
2 12 3 100 0.226313
3 12 3 100 0.328546
0 13 3 100 0.00221156
1 13 3 100 0.372893
2 13 3 100 0.204975
3 13 3 100 0.41992
0 14 3 100 2.00331e-05
1 14 3 100 0.000170323
2 14 3 100 0.942497
3 14 3 100 0.057313
0 15 3 100 0.333112
1 15 3 100 0.0388742
2 15 3 100 0.333299
3 15 3 100 0.294714
0 16 3 100 0.451079
1 16 3 100 0.499999
2 16 3 100 0.0489217
0 17 3 100 0.495564
1 17 3 100 0.00524746
2 17 3 100 7.20882e-06
3 17 3 100 0.499182
0 18 3 100 1.06804e-05
2 18 3 100 0.999989
0 1 4 100 0.12801
1 1 4 100 0.548749
2 1 4 100 0.134584
3 1 4 100 0.0698979
4 1 4 100 0.118759
0 2 4 100 0.0442625
1 2 4 100 0.193548
2 2 4 100 0.395908
3 2 4 100 0.166563
4 2 4 100 0.199718
0 3 4 100 0.103051
1 3 4 100 0.147597
2 3 4 100 0.244423
3 3 4 100 0.260251
4 3 4 100 0.244678
0 4 4 100 0.0857885
1 4 4 100 0.109594
2 4 4 100 0.209681
3 4 4 100 0.305281
4 4 4 100 0.289655
0 5 4 100 0.0831258
1 5 4 100 0.128865
2 5 4 100 0.168816
3 5 4 100 0.251098
4 5 4 100 0.368096
0 6 4 100 0.1391
1 6 4 100 0.12637
2 6 4 100 0.192988
3 6 4 100 0.207153
4 6 4 100 0.334389
0 7 4 100 0.0805449
1 7 4 100 0.144092
2 7 4 100 0.19156
3 7 4 100 0.251249
4 7 4 100 0.332554
0 8 4 100 0.218904
1 8 4 100 0.169283
2 8 4 100 0.227012
3 8 4 100 0.144782
4 8 4 100 0.240018
0 9 4 100 0.166315
1 9 4 100 0.135187
2 9 4 100 0.279947
3 9 4 100 0.211967
4 9 4 100 0.206583
0 10 4 100 0.117565
1 10 4 100 0.0372295
2 10 4 100 0.297673
3 10 4 100 0.216588
4 10 4 100 0.330945
0 11 4 100 0.227092
1 11 4 100 0.0501993
2 11 4 100 0.289013
3 11 4 100 0.198418
4 11 4 100 0.235277
0 12 4 100 0.0440504
1 12 4 100 0.0425356
2 12 4 100 0.337164
3 12 4 100 0.0970449
4 12 4 100 0.479205
0 13 4 100 0.171407
1 13 4 100 0.0588692
2 13 4 100 0.11378
3 13 4 100 0.127694
4 13 4 100 0.52825
0 14 4 100 0.263892
1 14 4 100 0.120366
2 14 4 100 0.000883222
3 14 4 100 0.0771353
4 14 4 100 0.537724
0 15 4 100 0.130059
1 15 4 100 0.20682
3 15 4 100 0.203424
4 15 4 100 0.459697
0 16 4 100 0.498922
1 16 4 100 0.249999
3 16 4 100 1.9303e-05
4 16 4 100 0.251059
0 17 4 100 0.0033073
1 17 4 100 0.333333
3 17 4 100 0.0849446
4 17 4 100 0.578415
1 18 4 100 1
1 19 4 100 1
1 20 4 100 1
0 1 5 100 0.145362
1 1 5 100 0.501802
2 1 5 100 0.114216
3 1 5 100 0.100573
4 1 5 100 0.0611406
5 1 5 100 0.0769057
0 2 5 100 0.0376057
1 2 5 100 0.247036
2 2 5 100 0.258079
3 2 5 100 0.164561
4 2 5 100 0.115096
5 2 5 100 0.177621
0 3 5 100 0.140416
1 3 5 100 0.132748
2 3 5 100 0.151273
3 3 5 100 0.192471
4 3 5 100 0.156785
5 3 5 100 0.226307
0 4 5 100 0.14455
1 4 5 100 0.127113
2 4 5 100 0.127176
3 4 5 100 0.190676
4 4 5 100 0.172224
5 4 5 100 0.238261
0 5 5 100 0.127389
1 5 5 100 0.10686
2 5 5 100 0.119473
3 5 5 100 0.179346
4 5 5 100 0.166158
5 5 5 100 0.300775
0 6 5 100 0.165598
1 6 5 100 0.100218
2 6 5 100 0.114127
3 6 5 100 0.16409
4 6 5 100 0.164326
5 6 5 100 0.291641
0 7 5 100 0.148341
1 7 5 100 0.105674
2 7 5 100 0.139877
3 7 5 100 0.150275
4 7 5 100 0.191521
5 7 5 100 0.264312
0 8 5 100 0.153477
1 8 5 100 0.120377
2 8 5 100 0.123714
3 8 5 100 0.153735
4 8 5 100 0.160657
5 8 5 100 0.288039
0 9 5 100 0.0952557
1 9 5 100 0.13167
2 9 5 100 0.14758
3 9 5 100 0.192174
4 9 5 100 0.169537
5 9 5 100 0.263784
0 10 5 100 0.111448
1 10 5 100 0.119477
2 10 5 100 0.131979
3 10 5 100 0.168497
4 10 5 100 0.245293
5 10 5 100 0.223306
0 11 5 100 0.185955
1 11 5 100 0.120186
2 11 5 100 0.0818984
3 11 5 100 0.160089
4 11 5 100 0.222535
5 11 5 100 0.229337
0 12 5 100 0.0603561
1 12 5 100 0.108921
2 12 5 100 0.105775
3 12 5 100 0.194773
4 12 5 100 0.279778
5 12 5 100 0.250396
0 13 5 100 0.214514
1 13 5 100 0.0598521
2 13 5 100 0.134607
3 13 5 100 0.196185
4 13 5 100 0.119039
5 13 5 100 0.275803
0 14 5 100 0.0948156
1 14 5 100 0.032739
2 14 5 100 0.0645246
3 14 5 100 0.194129
4 14 5 100 0.363769
5 14 5 100 0.250023
0 15 5 100 0.164966
1 15 5 100 3.79499e-06
2 15 5 100 0.000118195
3 15 5 100 0.204004
4 15 5 100 0.232063
5 15 5 100 0.398845
0 16 5 100 0.12489
1 16 5 100 1.94559e-06
3 16 5 100 0.125422
4 16 5 100 0.250085
5 16 5 100 0.4996
0 17 5 100 0.5
4 17 5 100 5.0541e-06
5 17 5 100 0.499995
0 18 5 100 0.499999
2 18 5 100 0.00086978
3 18 5 100 0.169551
4 18 5 100 0.329581
5 19 5 100 1
4 20 5 100 1.5451e-05
5 20 5 100 0.999985
0 1 6 100 0.146245
1 1 6 100 0.478642
2 1 6 100 0.0815836
3 1 6 100 0.0816024
4 1 6 100 0.0656994
5 1 6 100 0.0664627
6 1 6 100 0.0797647
0 2 6 100 0.0614533
1 2 6 100 0.228131
2 2 6 100 0.252439
3 2 6 100 0.129025
4 2 6 100 0.103363
5 2 6 100 0.102169
6 2 6 100 0.123419
0 3 6 100 0.130065
1 3 6 100 0.115351
2 3 6 100 0.179758
3 3 6 100 0.168802
4 3 6 100 0.136638
5 3 6 100 0.129627
6 3 6 100 0.139759
0 4 6 100 0.143765
1 4 6 100 0.0918057
2 4 6 100 0.084858
3 4 6 100 0.156179
4 4 6 100 0.191888
5 4 6 100 0.157847
6 4 6 100 0.173658
0 5 6 100 0.156299
1 5 6 100 0.0708596
2 5 6 100 0.0765145
3 5 6 100 0.128675
4 5 6 100 0.180888
5 5 6 100 0.193011
6 5 6 100 0.193753
0 6 6 100 0.121801
1 6 6 100 0.0677601
2 6 6 100 0.0842
3 6 6 100 0.122695
4 6 6 100 0.141376
5 6 6 100 0.18771
6 6 6 100 0.274458
0 7 6 100 0.187306
1 7 6 100 0.0728796
2 7 6 100 0.0967916
3 7 6 100 0.124423
4 7 6 100 0.0926882
5 7 6 100 0.206069
6 7 6 100 0.219842
0 8 6 100 0.102159
1 8 6 100 0.086456
2 8 6 100 0.107798
3 8 6 100 0.154534
4 8 6 100 0.145295
5 8 6 100 0.178911
6 8 6 100 0.224848
0 9 6 100 0.170664
1 9 6 100 0.0616119
2 9 6 100 0.0593558
3 9 6 100 0.139626
4 9 6 100 0.0952457
5 9 6 100 0.226714
6 9 6 100 0.246783
0 10 6 100 0.113244
1 10 6 100 0.0777766
2 10 6 100 0.0480199
3 10 6 100 0.15088
4 10 6 100 0.124681
5 10 6 100 0.211005
6 10 6 100 0.274393
0 11 6 100 0.109406
1 11 6 100 0.0779488
2 11 6 100 0.0684266
3 11 6 100 0.155479
4 11 6 100 0.163913
5 11 6 100 0.159712
6 11 6 100 0.265115
0 12 6 100 0.122565
1 12 6 100 0.0475759
2 12 6 100 0.0122167
3 12 6 100 0.123191
4 12 6 100 0.196336
5 12 6 100 0.203156
6 12 6 100 0.294958
0 13 6 100 0.239253
1 13 6 100 0.0171891
2 13 6 100 0.0646316
3 13 6 100 0.0774409
4 13 6 100 0.0914169
5 13 6 100 0.201929
6 13 6 100 0.308139
0 14 6 100 0.0260832
1 14 6 100 0.025123
2 14 6 100 0.119906
3 14 6 100 0.28901
4 14 6 100 0.0626031
5 14 6 100 0.214428
6 14 6 100 0.262847
0 15 6 100 0.0867267
1 15 6 100 0.0356727
2 15 6 100 0.158976
3 15 6 100 0.167359
4 15 6 100 0.168065
5 15 6 100 0.204673
6 15 6 100 0.178527
0 16 6 100 0.0715548
1 16 6 100 0.147666
2 16 6 100 0.00416269
3 16 6 100 0.137993
4 16 6 100 0.217707
5 16 6 100 0.142913
6 16 6 100 0.278003
0 17 6 100 0.495264
2 17 6 100 0.100092
3 17 6 100 7.62897e-05
4 17 6 100 0.101192
5 17 6 100 0.19994
6 17 6 100 0.103436
3 18 6 100 5.99974e-06
4 18 6 100 0.333238
5 18 6 100 0.33341
6 18 6 100 0.333346
0 19 6 100 0.0775008
4 19 6 100 0.00499413
6 19 6 100 0.917505
4 20 6 100 0.788629
6 20 6 100 0.211371
0 1 7 100 0.160456
1 1 7 100 0.49215
2 1 7 100 0.0919556
3 1 7 100 0.0727815
4 1 7 100 0.0359234
5 1 7 100 0.0321977
6 1 7 100 0.0467424
7 1 7 100 0.0677931
0 2 7 100 0.0757613
1 2 7 100 0.194785
2 2 7 100 0.266778
3 2 7 100 0.131283
4 2 7 100 0.0713243
5 2 7 100 0.0725399
6 2 7 100 0.0854902
7 2 7 100 0.102039
0 3 7 100 0.121798
1 3 7 100 0.102491
2 3 7 100 0.148516
3 3 7 100 0.192253
4 3 7 100 0.118893
5 3 7 100 0.107854
6 3 7 100 0.0856398
7 3 7 100 0.122554
0 4 7 100 0.129588
1 4 7 100 0.0901415
2 4 7 100 0.109404
3 4 7 100 0.149109
4 4 7 100 0.140314
5 4 7 100 0.126926
6 4 7 100 0.121542
7 4 7 100 0.132974
0 5 7 100 0.156234
1 5 7 100 0.0619856
2 5 7 100 0.100638
3 5 7 100 0.112786
4 5 7 100 0.121182
5 5 7 100 0.151075
6 5 7 100 0.135315
7 5 7 100 0.160785
0 6 7 100 0.162938
1 6 7 100 0.0584952
2 6 7 100 0.0913749
3 6 7 100 0.0872441
4 6 7 100 0.103473
5 6 7 100 0.161162
6 6 7 100 0.151726
7 6 7 100 0.183586
0 7 7 100 0.157845
1 7 7 100 0.053872
2 7 7 100 0.087312
3 7 7 100 0.0703145
4 7 7 100 0.094856
5 7 7 100 0.142559
6 7 7 100 0.151169
7 7 7 100 0.242073
0 8 7 100 0.140915
1 8 7 100 0.0694241
2 8 7 100 0.102028
3 8 7 100 0.0571954
4 8 7 100 0.1142
5 8 7 100 0.155182
6 8 7 100 0.143146
7 8 7 100 0.217909
0 9 7 100 0.118177
1 9 7 100 0.0719301
2 9 7 100 0.0768342
3 9 7 100 0.0864573
4 9 7 100 0.106026
5 9 7 100 0.172962
6 9 7 100 0.169132
7 9 7 100 0.198481
0 10 7 100 0.151545
1 10 7 100 0.0775943
2 10 7 100 0.0805907
3 10 7 100 0.0627071
4 10 7 100 0.0924746
5 10 7 100 0.14515
6 10 7 100 0.151186
7 10 7 100 0.238752
0 11 7 100 0.163248
1 11 7 100 0.0697965
2 11 7 100 0.0697117
3 11 7 100 0.0873571
4 11 7 100 0.117218
5 11 7 100 0.134279
6 11 7 100 0.14394
7 11 7 100 0.214451
0 12 7 100 0.134718
1 12 7 100 0.0587665
2 12 7 100 0.0921674
3 12 7 100 0.067176
4 12 7 100 0.0890801
5 12 7 100 0.150836
6 12 7 100 0.162979
7 12 7 100 0.244277
0 13 7 100 0.14697
1 13 7 100 0.0944749
2 13 7 100 0.0983172
3 13 7 100 0.0475796
4 13 7 100 0.0771966
5 13 7 100 0.149189
6 13 7 100 0.158245
7 13 7 100 0.228027
0 14 7 100 0.22338
1 14 7 100 0.0340092
2 14 7 100 0.0585892
3 14 7 100 0.021518
4 14 7 100 0.114259
5 14 7 100 0.119163
6 14 7 100 0.146803
7 14 7 100 0.282278
0 15 7 100 0.251071
1 15 7 100 0.0353082
2 15 7 100 0.056713
3 15 7 100 0.00830345
4 15 7 100 0.127653
5 15 7 100 0.13044
6 15 7 100 0.0926264
7 15 7 100 0.297885
0 16 7 100 0.25043
1 16 7 100 0.0357316
2 16 7 100 0.109977
3 16 7 100 0.00102038
4 16 7 100 0.140588
5 16 7 100 0.107209
6 16 7 100 0.10415
7 16 7 100 0.250894
0 17 7 100 0.0810611
1 17 7 100 1.78881e-06
2 17 7 100 0.0795876
3 17 7 100 0.214325
4 17 7 100 0.142761
5 17 7 100 0.0535568
6 17 7 100 0.0717554
7 17 7 100 0.356952
0 18 7 100 0.16996
1 18 7 100 0.00183094
2 18 7 100 0.0018622
4 18 7 100 0.137438
5 18 7 100 0.00874162
6 18 7 100 0.395118
7 18 7 100 0.285048
0 19 7 100 0.00701679
2 19 7 100 0.333264
3 19 7 100 0.0198939
5 19 7 100 0.313439
6 19 7 100 0.326386
2 20 7 100 1
0 1 8 100 0.14568
1 1 8 100 0.483591
2 1 8 100 0.0797746
3 1 8 100 0.0781193
4 1 8 100 0.0532621
5 1 8 100 0.0384807
6 1 8 100 0.0316417
7 1 8 100 0.0353368
8 1 8 100 0.0541139
0 2 8 100 0.069454
1 2 8 100 0.218422
2 2 8 100 0.261707
3 2 8 100 0.112871
4 2 8 100 0.0700561
5 2 8 100 0.0625224
6 2 8 100 0.065579
7 2 8 100 0.0700729
8 2 8 100 0.0693156
0 3 8 100 0.15282
1 3 8 100 0.109639
2 3 8 100 0.130993
3 3 8 100 0.181217
4 3 8 100 0.123649
5 3 8 100 0.0803654
6 3 8 100 0.0772083
7 3 8 100 0.0678562
8 3 8 100 0.0762534
0 4 8 100 0.166462
1 4 8 100 0.0689287
2 4 8 100 0.0836453
3 4 8 100 0.142503
4 4 8 100 0.14188
5 4 8 100 0.12108
6 4 8 100 0.100628
7 4 8 100 0.0841594
8 4 8 100 0.0907141
0 5 8 100 0.144238
1 5 8 100 0.0566057
2 5 8 100 0.0600497
3 5 8 100 0.0937429
4 5 8 100 0.131578
5 5 8 100 0.155005
6 5 8 100 0.104641
7 5 8 100 0.104155
8 5 8 100 0.149984
0 6 8 100 0.132988
1 6 8 100 0.0497844
2 6 8 100 0.0578709
3 6 8 100 0.0790253
4 6 8 100 0.09358
5 6 8 100 0.136892
6 6 8 100 0.121887
7 6 8 100 0.138562
8 6 8 100 0.189411
0 7 8 100 0.142165
1 7 8 100 0.0424111
2 7 8 100 0.0641091
3 7 8 100 0.0907795
4 7 8 100 0.0868391
5 7 8 100 0.110298
6 7 8 100 0.130697
7 7 8 100 0.133889
8 7 8 100 0.198812
0 8 8 100 0.12832
1 8 8 100 0.0492627
2 8 8 100 0.0644535
3 8 8 100 0.0900323
4 8 8 100 0.0857836
5 8 8 100 0.0871425
6 8 8 100 0.111489
7 8 8 100 0.15221
8 8 8 100 0.231307
0 9 8 100 0.138633
1 9 8 100 0.0604789
2 9 8 100 0.056034
3 9 8 100 0.0797762
4 9 8 100 0.0907001
5 9 8 100 0.105514
6 9 8 100 0.0869421
7 9 8 100 0.154586
8 9 8 100 0.227336
0 10 8 100 0.154387
1 10 8 100 0.0729006
2 10 8 100 0.0580171
3 10 8 100 0.0731953
4 10 8 100 0.10743
5 10 8 100 0.0931523
6 10 8 100 0.0827958
7 10 8 100 0.1286
8 10 8 100 0.229521
0 11 8 100 0.147772
1 11 8 100 0.0522295
2 11 8 100 0.0597544
3 11 8 100 0.0867328
4 11 8 100 0.116934
5 11 8 100 0.115807
6 11 8 100 0.072617
7 11 8 100 0.12936
8 11 8 100 0.218793
0 12 8 100 0.187364
1 12 8 100 0.0201057
2 12 8 100 0.0548406
3 12 8 100 0.0741731
4 12 8 100 0.0908267
5 12 8 100 0.113979
6 12 8 100 0.093905
7 12 8 100 0.131711
8 12 8 100 0.233094
0 13 8 100 0.217386
1 13 8 100 0.0306411
2 13 8 100 0.049171
3 13 8 100 0.0895611
4 13 8 100 0.0900829
5 13 8 100 0.103127
6 13 8 100 0.0819333
7 13 8 100 0.119439
8 13 8 100 0.218659
0 14 8 100 0.106139
1 14 8 100 0.0197054
2 14 8 100 0.0338501
3 14 8 100 0.0971659
4 14 8 100 0.066158
5 14 8 100 0.155608
6 14 8 100 0.103879
7 14 8 100 0.174891
8 14 8 100 0.242604
0 15 8 100 0.190036
1 15 8 100 0.0465154
2 15 8 100 0.0526989
3 15 8 100 0.0522844
4 15 8 100 0.0534293
5 15 8 100 0.149725
6 15 8 100 0.110635
7 15 8 100 0.135641
8 15 8 100 0.209035
0 16 8 100 0.203426
1 16 8 100 0.0295702
2 16 8 100 0.00176466
3 16 8 100 0.0692032
4 16 8 100 0.114399
5 16 8 100 0.182891
6 16 8 100 0.143654
7 16 8 100 0.0951227
8 16 8 100 0.15997
0 17 8 100 0.135841
2 17 8 100 0.00386212
3 17 8 100 0.0669789
4 17 8 100 0.133296
5 17 8 100 0.194899
6 17 8 100 0.265846
7 17 8 100 0.0762696
8 17 8 100 0.123007
0 18 8 100 0.186973
1 18 8 100 3.6934e-06
2 18 8 100 0.0129631
4 18 8 100 0.199996
6 18 8 100 0.400059
7 18 8 100 0.200005
0 19 8 100 0.576935
2 19 8 100 0.00178612
3 19 8 100 0.000192826
6 19 8 100 0.358692
7 19 8 100 0.060926
8 19 8 100 0.00146797
0 20 8 100 0.5
6 20 8 100 7.33649e-05
7 20 8 100 0.499927
0 21 8 100 0.496357
4 21 8 100 0.00364348
8 21 8 100 0.5
0 22 8 100 0.0516338
3 22 8 100 0.000305015
7 22 8 100 0.948061
0 1 9 100 0.170528
1 1 9 100 0.473783
2 1 9 100 0.0856683
3 1 9 100 0.0612434
4 1 9 100 0.0512877
5 1 9 100 0.030768
6 1 9 100 0.0298845
7 1 9 100 0.0318151
8 1 9 100 0.0255599
9 1 9 100 0.039462
0 2 9 100 0.0668327
1 2 9 100 0.191857
2 2 9 100 0.273499
3 2 9 100 0.122187
4 2 9 100 0.0755069
5 2 9 100 0.0503316
6 2 9 100 0.0548077
7 2 9 100 0.0505014
8 2 9 100 0.060066
9 2 9 100 0.0544112
0 3 9 100 0.142441
1 3 9 100 0.110058
2 3 9 100 0.123572
3 3 9 100 0.173084
4 3 9 100 0.125127
5 3 9 100 0.0804239
6 3 9 100 0.0635154
7 3 9 100 0.0635079
8 3 9 100 0.0538255
9 3 9 100 0.0644452
0 4 9 100 0.16755
1 4 9 100 0.0728704
2 4 9 100 0.0622255
3 4 9 100 0.134669
4 4 9 100 0.15536
5 4 9 100 0.107073
6 4 9 100 0.0931493
7 4 9 100 0.0826922
8 4 9 100 0.0623493
9 4 9 100 0.0620618
0 5 9 100 0.156288
1 5 9 100 0.0516292
2 5 9 100 0.0646311
3 5 9 100 0.0788582
4 5 9 100 0.128023
5 5 9 100 0.131676
6 5 9 100 0.109625
7 5 9 100 0.0981901
8 5 9 100 0.0796062
9 5 9 100 0.101474
0 6 9 100 0.14139
1 6 9 100 0.0554942
2 6 9 100 0.0507547
3 6 9 100 0.0660727
4 6 9 100 0.0934901
5 6 9 100 0.0952745
6 6 9 100 0.130233
7 6 9 100 0.136342
8 6 9 100 0.111635
9 6 9 100 0.119314
0 7 9 100 0.152933
1 7 9 100 0.035148
2 7 9 100 0.0536112
3 7 9 100 0.0657363
4 7 9 100 0.0769865
5 7 9 100 0.083159
6 7 9 100 0.118391
7 7 9 100 0.131588
8 7 9 100 0.135014
9 7 9 100 0.147433
0 8 9 100 0.148789
1 8 9 100 0.0476445
2 8 9 100 0.0529917
3 8 9 100 0.0477692
4 8 9 100 0.0890957
5 8 9 100 0.0876827
6 8 9 100 0.0995436
7 8 9 100 0.120183
8 8 9 100 0.140397
9 8 9 100 0.165903
0 9 9 100 0.126735
1 9 9 100 0.0367059
2 9 9 100 0.0419961
3 9 9 100 0.0709016
4 9 9 100 0.0724725
5 9 9 100 0.0754282
6 9 9 100 0.11482
7 9 9 100 0.12206
8 9 9 100 0.150223
9 9 9 100 0.188658
0 10 9 100 0.175327
1 10 9 100 0.0437175
2 10 9 100 0.0594986
3 10 9 100 0.0543578
4 10 9 100 0.0627402
5 10 9 100 0.065625
6 10 9 100 0.115773
7 10 9 100 0.076538
8 10 9 100 0.166871
9 10 9 100 0.179552
0 11 9 100 0.100856
1 11 9 100 0.0595779
2 11 9 100 0.053166
3 11 9 100 0.0649477
4 11 9 100 0.0767503
5 11 9 100 0.107473
6 11 9 100 0.109535
7 11 9 100 0.10367
8 11 9 100 0.116705
9 11 9 100 0.207319
0 12 9 100 0.130089
1 12 9 100 0.0526754
2 12 9 100 0.0412127
3 12 9 100 0.0667976
4 12 9 100 0.103597
5 12 9 100 0.0902939
6 12 9 100 0.101895
7 12 9 100 0.0822606
8 12 9 100 0.142801
9 12 9 100 0.188378
0 13 9 100 0.141069
1 13 9 100 0.0600967
2 13 9 100 0.0494761
3 13 9 100 0.0505115
4 13 9 100 0.0886617
5 13 9 100 0.0796884
6 13 9 100 0.093617
7 13 9 100 0.0818139
8 13 9 100 0.141052
9 13 9 100 0.214014
0 14 9 100 0.201346
1 14 9 100 0.0379606
2 14 9 100 0.0531915
3 14 9 100 0.0301104
4 14 9 100 0.0851788
5 14 9 100 0.0991412
6 14 9 100 0.0872508
7 14 9 100 0.100313
8 14 9 100 0.090849
9 14 9 100 0.214659
0 15 9 100 0.177455
1 15 9 100 0.0499657
2 15 9 100 0.0236342
3 15 9 100 0.045235
4 15 9 100 0.072851
5 15 9 100 0.142595
6 15 9 100 0.113302
7 15 9 100 0.0709622
8 15 9 100 0.0750521
9 15 9 100 0.228948
0 16 9 100 0.0974224
1 16 9 100 0.0449918
2 16 9 100 0.0730407
3 16 9 100 0.0584403
4 16 9 100 0.0640687
5 16 9 100 0.140062
6 16 9 100 0.112567
7 16 9 100 0.115515
8 16 9 100 0.0297433
9 16 9 100 0.264149
0 17 9 100 0.147233
1 17 9 100 0.0665365
2 17 9 100 0.00938558
3 17 9 100 0.16628
4 17 9 100 0.106848
5 17 9 100 0.0715993
6 17 9 100 0.254509
7 17 9 100 8.47127e-06
8 17 9 100 0.034878
9 17 9 100 0.142722
0 18 9 100 0.357343
1 18 9 100 0.0129157
2 18 9 100 3.15841e-06
3 18 9 100 0.071429
5 18 9 100 0.127525
6 18 9 100 0.214081
7 18 9 100 0.0714333
8 18 9 100 0.0738447
9 18 9 100 0.0714246
0 19 9 100 0.414737
1 19 9 100 1.20255e-05
4 19 9 100 1.72098e-06
5 19 9 100 0.166665
6 19 9 100 0.37688
8 19 9 100 0.000261457
9 19 9 100 0.0414427
0 20 9 100 0.249947
1 20 9 100 0.000851106
3 20 9 100 0.249933
4 20 9 100 0.228689
5 20 9 100 0.000127913
7 20 9 100 0.249149
9 20 9 100 0.0213028
3 21 9 100 0.5
6 21 9 100 0.5
3 22 9 100 1
0 1 10 100 0.160087
1 1 10 100 0.447786
2 1 10 100 0.0958957
3 1 10 100 0.0507503
4 1 10 100 0.0487776
5 1 10 100 0.0374317
6 1 10 100 0.0491744
7 1 10 100 0.0379698
8 1 10 100 0.021886
9 1 10 100 0.0207837
10 1 10 100 0.0294574
0 2 10 100 0.0786687
1 2 10 100 0.181731
2 2 10 100 0.244807
3 2 10 100 0.118779
4 2 10 100 0.0682026
5 2 10 100 0.0652727
6 2 10 100 0.0489608
7 2 10 100 0.0478106
8 2 10 100 0.0373566
9 2 10 100 0.0487889
10 2 10 100 0.0596218
0 3 10 100 0.16998
1 3 10 100 0.0921535
2 3 10 100 0.109202
3 3 10 100 0.19096
4 3 10 100 0.0976505
5 3 10 100 0.0782072
6 3 10 100 0.0564363
7 3 10 100 0.0533115
8 3 10 100 0.0416036
9 3 10 100 0.0496185
10 3 10 100 0.0608771
0 4 10 100 0.153903
1 4 10 100 0.0736239
2 4 10 100 0.0743916
3 4 10 100 0.11814
4 4 10 100 0.150922
5 4 10 100 0.0936484
6 4 10 100 0.0982472
7 4 10 100 0.0736804
8 4 10 100 0.048273
9 4 10 100 0.0521028
10 4 10 100 0.0630685
0 5 10 100 0.185117
1 5 10 100 0.0465763
2 5 10 100 0.045971
3 5 10 100 0.0767544
4 5 10 100 0.115874
5 5 10 100 0.117363
6 5 10 100 0.087619
7 5 10 100 0.102526
8 5 10 100 0.0573258
9 5 10 100 0.0712873
10 5 10 100 0.0935866
0 6 10 100 0.173223
1 6 10 100 0.0462482
2 6 10 100 0.0330366
3 6 10 100 0.0531927
4 6 10 100 0.077988
5 6 10 100 0.10741
6 6 10 100 0.118152
7 6 10 100 0.117411
8 6 10 100 0.0789341
9 6 10 100 0.0846616
10 6 10 100 0.109742
0 7 10 100 0.164799
1 7 10 100 0.0429404
2 7 10 100 0.0239964
3 7 10 100 0.0531225
4 7 10 100 0.0778559
5 7 10 100 0.0854999
6 7 10 100 0.0981673
7 7 10 100 0.127555
8 7 10 100 0.0940397
9 7 10 100 0.0951405
10 7 10 100 0.136884
0 8 10 100 0.133032
1 8 10 100 0.0400906
2 8 10 100 0.0295627
3 8 10 100 0.060408
4 8 10 100 0.0572907
5 8 10 100 0.0863438
6 8 10 100 0.0966453
7 8 10 100 0.0987349
8 8 10 100 0.116716
9 8 10 100 0.111319
10 8 10 100 0.169858
0 9 10 100 0.125367
1 9 10 100 0.0426334
2 9 10 100 0.0387807
3 9 10 100 0.0516787
4 9 10 100 0.0555275
5 9 10 100 0.0829256
6 9 10 100 0.079523
7 9 10 100 0.0889138
8 9 10 100 0.103258
9 9 10 100 0.146948
10 9 10 100 0.184444
0 10 10 100 0.158985
1 10 10 100 0.0368534
2 10 10 100 0.045524
3 10 10 100 0.0552866
4 10 10 100 0.0527448
5 10 10 100 0.0800587
6 10 10 100 0.08507
7 10 10 100 0.0949369
8 10 10 100 0.0811219
9 10 10 100 0.131078
10 10 10 100 0.17834
0 11 10 100 0.134735
1 11 10 100 0.0363663
2 11 10 100 0.0376262
3 11 10 100 0.0595737
4 11 10 100 0.0612944
5 11 10 100 0.0746583
6 11 10 100 0.0604229
7 11 10 100 0.0850746
8 11 10 100 0.0898663
9 11 10 100 0.168509
10 11 10 100 0.191873
0 12 10 100 0.136698
1 12 10 100 0.0382617
2 12 10 100 0.0442362
3 12 10 100 0.0317055
4 12 10 100 0.0686509
5 12 10 100 0.096822
6 12 10 100 0.0560356
7 12 10 100 0.095121
8 12 10 100 0.0867373
9 12 10 100 0.153134
10 12 10 100 0.192598
0 13 10 100 0.15667
1 13 10 100 0.0518473
2 13 10 100 0.0446249
3 13 10 100 0.0479773
4 13 10 100 0.0388441
5 13 10 100 0.0850493
6 13 10 100 0.0615755
7 13 10 100 0.0838171
8 13 10 100 0.10394
9 13 10 100 0.124314
10 13 10 100 0.20134
0 14 10 100 0.159761
1 14 10 100 0.0553577
2 14 10 100 0.0499836
3 14 10 100 0.0671956
4 14 10 100 0.0876269
5 14 10 100 0.0978525
6 14 10 100 0.0412302
7 14 10 100 0.0847174
8 14 10 100 0.0762588
9 14 10 100 0.11357
10 14 10 100 0.166446
0 15 10 100 0.121331
1 15 10 100 0.0455251
2 15 10 100 0.0309981
3 15 10 100 0.0410239
4 15 10 100 0.112864
5 15 10 100 0.0645319
6 15 10 100 0.0326395
7 15 10 100 0.114931
8 15 10 100 0.108065
9 15 10 100 0.146015
10 15 10 100 0.182075
0 16 10 100 0.195819
1 16 10 100 0.0684106
2 16 10 100 0.00430101
3 16 10 100 0.0319967
4 16 10 100 0.0698149
5 16 10 100 0.087314
6 16 10 100 0.0247799
7 16 10 100 0.0820448
8 16 10 100 0.0641615
9 16 10 100 0.151932
10 16 10 100 0.219426
0 17 10 100 0.133991
1 17 10 100 2.43876e-06
2 17 10 100 0.000468519
3 17 10 100 0.0810812
4 17 10 100 0.163689
5 17 10 100 0.0547729
6 17 10 100 0.0270271
7 17 10 100 0.107721
8 17 10 100 0.028241
9 17 10 100 0.297717
10 17 10 100 0.105289
0 18 10 100 0.128302
2 18 10 100 2.64584e-06
3 18 10 100 0.145274
4 18 10 100 2.51501e-05
5 18 10 100 0.0896341
6 18 10 100 0.0887906
7 18 10 100 0.0454565
8 18 10 100 0.00432237
9 18 10 100 0.284342
10 18 10 100 0.213851
0 19 10 100 0.347298
2 19 10 100 3.3249e-06
3 19 10 100 0.00125475
4 19 10 100 6.01248e-06
5 19 10 100 0.0313157
6 19 10 100 0.00487181
7 19 10 100 0.315735
8 19 10 100 0.00338959
9 19 10 100 0.0204336
10 19 10 100 0.275692
0 20 10 100 0.498017
1 20 10 100 0.00197409
2 20 10 100 2.45486e-05
5 20 10 100 0.499984
0 21 10 100 0.999209
10 21 10 100 0.00079079
0 22 10 100 0.935902
7 22 10 100 0.0640977
0 1 11 100 0.15481
1 1 11 100 0.463987
2 1 11 100 0.0719276
3 1 11 100 0.0529362
4 1 11 100 0.0394666
5 1 11 100 0.0328908
6 1 11 100 0.0369292
7 1 11 100 0.0259517
8 1 11 100 0.0192277
9 1 11 100 0.0309181
10 1 11 100 0.0232003
11 1 11 100 0.0477546
0 2 11 100 0.0779976
1 2 11 100 0.206254
2 2 11 100 0.223687
3 2 11 100 0.126069
4 2 11 100 0.0576586
5 2 11 100 0.0590886
6 2 11 100 0.0400575
7 2 11 100 0.0348987
8 2 11 100 0.0362363
9 2 11 100 0.0413821
10 2 11 100 0.0477763
11 2 11 100 0.0488948
0 3 11 100 0.149521
1 3 11 100 0.109152
2 3 11 100 0.120911
3 3 11 100 0.183288
4 3 11 100 0.102264
5 3 11 100 0.0751631
6 3 11 100 0.0497021
7 3 11 100 0.0426295
8 3 11 100 0.0326319
9 3 11 100 0.0345032
10 3 11 100 0.046065
11 3 11 100 0.0541688
0 4 11 100 0.155229
1 4 11 100 0.09015
2 4 11 100 0.0721616
3 4 11 100 0.112336
4 4 11 100 0.133279
5 4 11 100 0.0942468
6 4 11 100 0.0791579
7 4 11 100 0.0493265
8 4 11 100 0.0498258
9 4 11 100 0.0620973
10 4 11 100 0.0506406
11 4 11 100 0.051549
0 5 11 100 0.186246
1 5 11 100 0.0523124
2 5 11 100 0.0632975
3 5 11 100 0.0717754
4 5 11 100 0.100069
5 5 11 100 0.110753
6 5 11 100 0.0985943
7 5 11 100 0.0675994
8 5 11 100 0.0626383
9 5 11 100 0.0586979
10 5 11 100 0.0554884
11 5 11 100 0.0725282
0 6 11 100 0.164168
1 6 11 100 0.0468782
2 6 11 100 0.0357984
3 6 11 100 0.0731711
4 6 11 100 0.0642898
5 6 11 100 0.0834049
6 6 11 100 0.105949
7 6 11 100 0.0950386
8 6 11 100 0.0908039
9 6 11 100 0.0668378
10 6 11 100 0.0689503
11 6 11 100 0.10471
0 7 11 100 0.172548
1 7 11 100 0.0375042
2 7 11 100 0.0323301
3 7 11 100 0.0572688
4 7 11 100 0.0624249
5 7 11 100 0.0559145
6 7 11 100 0.0963199
7 7 11 100 0.0938486
8 7 11 100 0.0840695
9 7 11 100 0.0972143
10 7 11 100 0.0960129
11 7 11 100 0.114544
0 8 11 100 0.151562
1 8 11 100 0.0403812
2 8 11 100 0.0422295
3 8 11 100 0.052978
4 8 11 100 0.0535019
5 8 11 100 0.0622102
6 8 11 100 0.0784694
7 8 11 100 0.0877391
8 8 11 100 0.0972555
9 8 11 100 0.095241
10 8 11 100 0.107577
11 8 11 100 0.130855
0 9 11 100 0.129587
1 9 11 100 0.0439465
2 9 11 100 0.0387811
3 9 11 100 0.0490752
4 9 11 100 0.0515688
5 9 11 100 0.0581029
6 9 11 100 0.0586098
7 9 11 100 0.0917833
8 9 11 100 0.100098
9 9 11 100 0.120184
10 9 11 100 0.112447
11 9 11 100 0.145816
0 10 11 100 0.142703
1 10 11 100 0.0341861
2 10 11 100 0.0315924
3 10 11 100 0.0525962
4 10 11 100 0.0347802
5 10 11 100 0.070095
6 10 11 100 0.053964
7 10 11 100 0.0651694
8 10 11 100 0.103598
9 10 11 100 0.102009
10 10 11 100 0.141273
11 10 11 100 0.168034
0 11 11 100 0.135985
1 11 11 100 0.039029
2 11 11 100 0.0228043
3 11 11 100 0.0503559
4 11 11 100 0.0418925
5 11 11 100 0.0426376
6 11 11 100 0.0766156
7 11 11 100 0.08235
8 11 11 100 0.122335
9 11 11 100 0.0955138
10 11 11 100 0.116346
11 11 11 100 0.174135
0 12 11 100 0.147116
1 12 11 100 0.0315779
2 12 11 100 0.0323719
3 12 11 100 0.0565668
4 12 11 100 0.0478476
5 12 11 100 0.0540694
6 12 11 100 0.0656657
7 12 11 100 0.0735478
8 12 11 100 0.0563146
9 12 11 100 0.119704
10 12 11 100 0.148361
11 12 11 100 0.166857
0 13 11 100 0.140595
1 13 11 100 0.0421405
2 13 11 100 0.0262302
3 13 11 100 0.0958699
4 13 11 100 0.0605454
5 13 11 100 0.0470265
6 13 11 100 0.0536128
7 13 11 100 0.058768
8 13 11 100 0.0710034
9 13 11 100 0.108056
10 13 11 100 0.11954
11 13 11 100 0.176613
0 14 11 100 0.159068
1 14 11 100 0.0390024
2 14 11 100 0.0382204
3 14 11 100 0.0988877
4 14 11 100 0.0669459
5 14 11 100 0.0615673
6 14 11 100 0.0510982
7 14 11 100 0.0543999
8 14 11 100 0.0627948
9 14 11 100 0.10772
10 14 11 100 0.0838287
11 14 11 100 0.176466
0 15 11 100 0.193948
1 15 11 100 0.0140622
2 15 11 100 0.0199257
3 15 11 100 0.0498654
4 15 11 100 0.0576181
5 15 11 100 0.05722
6 15 11 100 0.0590595
7 15 11 100 0.0665879
8 15 11 100 0.0785852
9 15 11 100 0.0890864
10 15 11 100 0.137124
11 15 11 100 0.176918
0 16 11 100 0.199871
1 16 11 100 0.0397335
2 16 11 100 0.0257653
3 16 11 100 0.0428037
4 16 11 100 0.0610038
5 16 11 100 0.0545289
6 16 11 100 0.0763656
7 16 11 100 0.048963
8 16 11 100 0.112099
9 16 11 100 0.108862
10 16 11 100 0.0549766
11 16 11 100 0.175027
0 17 11 100 0.12316
1 17 11 100 0.0439801
2 17 11 100 0.0596526
3 17 11 100 0.0868361
4 17 11 100 0.0431299
5 17 11 100 0.111671
6 17 11 100 0.0675313
7 17 11 100 0.0434938
8 17 11 100 0.109162
9 17 11 100 0.0771255
10 17 11 100 0.124682
11 17 11 100 0.109576
0 18 11 100 0.269468
1 18 11 100 0.0415401
2 18 11 100 0.0337677
3 18 11 100 3.85927e-06
4 18 11 100 0.0418746
5 18 11 100 0.0446598
6 18 11 100 0.0715279
7 18 11 100 0.0429262
8 18 11 100 0.0420146
9 18 11 100 0.0434019
10 18 11 100 0.0372636
11 18 11 100 0.331552
0 19 11 100 0.137944
1 19 11 100 0.00175561
2 19 11 100 0.00166364
4 19 11 100 0.132898
5 19 11 100 0.00426612
6 19 11 100 0.0148089
7 19 11 100 0.132879
8 19 11 100 0.0742504
9 19 11 100 0.066831
10 19 11 100 2.49615e-05
11 19 11 100 0.432679
0 20 11 100 0.249086
1 20 11 100 2.248e-05
2 20 11 100 0.125012
3 20 11 100 1.04274e-05
5 20 11 100 0.194602
6 20 11 100 0.000860547
7 20 11 100 0.125
8 20 11 100 0.125
11 20 11 100 0.180407
7 21 11 100 0.333333
8 21 11 100 0.333333
9 21 11 100 3.67785e-06
11 21 11 100 0.33333
0 22 11 100 0.00464203
7 22 11 100 0.333334
9 22 11 100 0.00011101
10 22 11 100 0.328689
11 22 11 100 0.333223
4 23 11 100 8.90174e-05
7 23 11 100 0.999911
0 1 12 100 0.181843
1 1 12 100 0.445999
2 1 12 100 0.0900403
3 1 12 100 0.0718634
4 1 12 100 0.0290851
5 1 12 100 0.0425928
6 1 12 100 0.0273398
7 1 12 100 0.0267002
8 1 12 100 0.0160791
9 1 12 100 0.0221805
10 1 12 100 0.0108203
11 1 12 100 0.0148576
12 1 12 100 0.0205996
0 2 12 100 0.0841284
1 2 12 100 0.202666
2 2 12 100 0.215571
3 2 12 100 0.130043
4 2 12 100 0.0738049
5 2 12 100 0.0582785
6 2 12 100 0.0428656
7 2 12 100 0.0291228
8 2 12 100 0.0338104
9 2 12 100 0.0324286
10 2 12 100 0.0250536
11 2 12 100 0.0318228
12 2 12 100 0.0404038
0 3 12 100 0.157096
1 3 12 100 0.112989
2 3 12 100 0.094417
3 3 12 100 0.178813
4 3 12 100 0.111175
5 3 12 100 0.0678547
6 3 12 100 0.0571576
7 3 12 100 0.0450252
8 3 12 100 0.0411711
9 3 12 100 0.0372856
10 3 12 100 0.0296899
11 3 12 100 0.0348746
12 3 12 100 0.0324522
0 4 12 100 0.182846
1 4 12 100 0.0627737
2 4 12 100 0.046748
3 4 12 100 0.11702
4 4 12 100 0.138499
5 4 12 100 0.0891661
6 4 12 100 0.0953044
7 4 12 100 0.05824
8 4 12 100 0.0375753
9 4 12 100 0.0583788
10 4 12 100 0.0342353
11 4 12 100 0.0346874
12 4 12 100 0.0445255
0 5 12 100 0.172615
1 5 12 100 0.0559051
2 5 12 100 0.045192
3 5 12 100 0.0804054
4 5 12 100 0.0956986
5 5 12 100 0.0964328
6 5 12 100 0.106134
7 5 12 100 0.0747313
8 5 12 100 0.0734403
9 5 12 100 0.0538758
10 5 12 100 0.041802
11 5 12 100 0.0479576
12 5 12 100 0.0558098
0 6 12 100 0.16467
1 6 12 100 0.0414323
2 6 12 100 0.0454305
3 6 12 100 0.0565947
4 6 12 100 0.0665156
5 6 12 100 0.0716606
6 6 12 100 0.122802
7 6 12 100 0.0858549
8 6 12 100 0.0840209
9 6 12 100 0.0813529
10 6 12 100 0.0477433
11 6 12 100 0.0682542
12 6 12 100 0.0636679
0 7 12 100 0.162238
1 7 12 100 0.0294438
2 7 12 100 0.0234883
3 7 12 100 0.0407627
4 7 12 100 0.0686546
5 7 12 100 0.0745539
6 7 12 100 0.104467
7 7 12 100 0.102535
8 7 12 100 0.082062
9 7 12 100 0.0921345
10 7 12 100 0.0779309
11 7 12 100 0.0745408
12 7 12 100 0.0671871
0 8 12 100 0.158883
1 8 12 100 0.0253024
2 8 12 100 0.0211917
3 8 12 100 0.0575858
4 8 12 100 0.048922
5 8 12 100 0.0591361
6 8 12 100 0.076664
7 8 12 100 0.0911045
8 8 12 100 0.0882289
9 8 12 100 0.104609
10 8 12 100 0.0983367
11 8 12 100 0.0984486
12 8 12 100 0.0715864
0 9 12 100 0.167293
1 9 12 100 0.0194806
2 9 12 100 0.0250652
3 9 12 100 0.0439611
4 9 12 100 0.0476864
5 9 12 100 0.0570077
6 9 12 100 0.0593996
7 9 12 100 0.0784142
8 9 12 100 0.0843536
9 9 12 100 0.111508
10 9 12 100 0.101896
11 9 12 100 0.100931
12 9 12 100 0.103004
0 10 12 100 0.143161
1 10 12 100 0.0285196
2 10 12 100 0.0202048
3 10 12 100 0.0418911
4 10 12 100 0.0498012
5 10 12 100 0.0553566
6 10 12 100 0.0616093
7 10 12 100 0.0612569
8 10 12 100 0.0700368
9 10 12 100 0.0900512
10 10 12 100 0.115962
11 10 12 100 0.126087
12 10 12 100 0.136063
0 11 12 100 0.144872
1 11 12 100 0.028756
2 11 12 100 0.0356955
3 11 12 100 0.0375406
4 11 12 100 0.0626319
5 11 12 100 0.0490868
6 11 12 100 0.0491134
7 11 12 100 0.0596271
8 11 12 100 0.0467516
9 11 12 100 0.0820531
10 11 12 100 0.103882
11 11 12 100 0.1266
12 11 12 100 0.17339
0 12 12 100 0.142259
1 12 12 100 0.0281631
2 12 12 100 0.0233955
3 12 12 100 0.0349291
4 12 12 100 0.0542947
5 12 12 100 0.0444033
6 12 12 100 0.0589435
7 12 12 100 0.049962
8 12 12 100 0.0468828
9 12 12 100 0.0916489
10 12 12 100 0.0837656
11 12 12 100 0.180441
12 12 12 100 0.160911
0 13 12 100 0.132354
1 13 12 100 0.0306136
2 13 12 100 0.0236218
3 13 12 100 0.0347709
4 13 12 100 0.05151
5 13 12 100 0.0491982
6 13 12 100 0.0303304
7 13 12 100 0.0585426
8 13 12 100 0.0386039
9 13 12 100 0.0616989
10 13 12 100 0.111159
11 13 12 100 0.166843
12 13 12 100 0.210754
0 14 12 100 0.17207
1 14 12 100 0.018641
2 14 12 100 0.0274338
3 14 12 100 0.0318413
4 14 12 100 0.0516869
5 14 12 100 0.061289
6 14 12 100 0.0380094
7 14 12 100 0.0595428
8 14 12 100 0.0455617
9 14 12 100 0.0713446
10 14 12 100 0.108462
11 14 12 100 0.134267
12 14 12 100 0.179852
0 15 12 100 0.131837
1 15 12 100 0.0351038
2 15 12 100 0.0241869
3 15 12 100 0.0409265
4 15 12 100 0.0441998
5 15 12 100 0.0433032
6 15 12 100 0.0441422
7 15 12 100 0.0801069
8 15 12 100 0.0567017
9 15 12 100 0.0691482
10 15 12 100 0.131748
11 15 12 100 0.137452
12 15 12 100 0.161143
0 16 12 100 0.204986
1 16 12 100 0.0426867
2 16 12 100 0.0427926
3 16 12 100 0.0231591
4 16 12 100 0.0317823
5 16 12 100 0.0421708
6 16 12 100 0.0396654
7 16 12 100 0.0896306
8 16 12 100 0.0522391
9 16 12 100 0.0447106
10 16 12 100 0.101264
11 16 12 100 0.14155
12 16 12 100 0.143363
0 17 12 100 0.308701
1 17 12 100 3.83187e-05
2 17 12 100 0.0548213
3 17 12 100 8.83442e-06
4 17 12 100 0.0222675
5 17 12 100 0.0150938
6 17 12 100 0.0952757
7 17 12 100 0.0179271
8 17 12 100 0.0850297
9 17 12 100 0.00529764
10 17 12 100 0.123104
11 17 12 100 0.165316
12 17 12 100 0.10712
0 18 12 100 0.284169
1 18 12 100 4.84154e-07
2 18 12 100 0.0862666
3 18 12 100 0.0360397
4 18 12 100 0.00100356
5 18 12 100 9.2171e-06
6 18 12 100 0.0870279
7 18 12 100 0.0750573
8 18 12 100 0.043601
9 18 12 100 0.115279
10 18 12 100 0.0439234
11 18 12 100 0.216008
12 18 12 100 0.0116149
0 19 12 100 0.240285
4 19 12 100 0.00264264
5 19 12 100 0.108145
6 19 12 100 0.00029312
7 19 12 100 0.111411
8 19 12 100 1.22912e-06
9 19 12 100 0.205177
10 19 12 100 0.222257
12 19 12 100 0.109788
0 20 12 100 0.502498
3 20 12 100 2.69239e-06
5 20 12 100 0.247499
7 20 12 100 0.250001
0 21 12 100 0.333332
2 21 12 100 0.333334
10 21 12 100 0.333334
10 22 12 100 1
0 1 13 100 0.130061
1 1 13 100 0.492058
2 1 13 100 0.0712723
3 1 13 100 0.0650083
4 1 13 100 0.0260702
5 1 13 100 0.0260765
6 1 13 100 0.0171405
7 1 13 100 0.0193777
8 1 13 100 0.0306896
9 1 13 100 0.0154503
10 1 13 100 0.0194814
11 1 13 100 0.0354894
12 1 13 100 0.0239274
13 1 13 100 0.0278972
0 2 13 100 0.0975281
1 2 13 100 0.133321
2 2 13 100 0.234449
3 2 13 100 0.135907
4 2 13 100 0.0482469
5 2 13 100 0.0615237
6 2 13 100 0.0477351
7 2 13 100 0.0309389
8 2 13 100 0.0311809
9 2 13 100 0.0351613
10 2 13 100 0.0291673
11 2 13 100 0.0459119
12 2 13 100 0.0324948
13 2 13 100 0.0364346
0 3 13 100 0.129062
1 3 13 100 0.0966087
2 3 13 100 0.104599
3 3 13 100 0.167286
4 3 13 100 0.0973496
5 3 13 100 0.0681795
6 3 13 100 0.0575883
7 3 13 100 0.0428478
8 3 13 100 0.0369205
9 3 13 100 0.0365733
10 3 13 100 0.0293851
11 3 13 100 0.0563152
12 3 13 100 0.0286506
13 3 13 100 0.0486334
0 4 13 100 0.183927
1 4 13 100 0.0598212
2 4 13 100 0.064679
3 4 13 100 0.0807588
4 4 13 100 0.10809
5 4 13 100 0.0978876
6 4 13 100 0.0901736
7 4 13 100 0.0632937
8 4 13 100 0.047834
9 4 13 100 0.0340812
10 4 13 100 0.0404439
11 4 13 100 0.0291852
12 4 13 100 0.0472009
13 4 13 100 0.0526249
0 5 13 100 0.142355
1 5 13 100 0.0457721
2 5 13 100 0.0543151
3 5 13 100 0.0731758
4 5 13 100 0.0919595
5 5 13 100 0.107216
6 5 13 100 0.0824016
7 5 13 100 0.0742692
8 5 13 100 0.0641486
9 5 13 100 0.0563994
10 5 13 100 0.0499135
11 5 13 100 0.0460498
12 5 13 100 0.0518266
13 5 13 100 0.0601973
0 6 13 100 0.160208
1 6 13 100 0.0384315
2 6 13 100 0.037621
3 6 13 100 0.0377316
4 6 13 100 0.0672062
5 6 13 100 0.0617896
6 6 13 100 0.123027
7 6 13 100 0.0866925
8 6 13 100 0.0730133
9 6 13 100 0.0816804
10 6 13 100 0.0636142
11 6 13 100 0.0516915
12 6 13 100 0.0550064
13 6 13 100 0.0622866
0 7 13 100 0.143452
1 7 13 100 0.0335682
2 7 13 100 0.0317233
3 7 13 100 0.041944
4 7 13 100 0.0404464
5 7 13 100 0.0678448
6 7 13 100 0.0887163
7 7 13 100 0.0785633
8 7 13 100 0.0795945
9 7 13 100 0.104375
10 7 13 100 0.0819366
11 7 13 100 0.0503026
12 7 13 100 0.0701191
13 7 13 100 0.0874141
0 8 13 100 0.139891
1 8 13 100 0.0345185
2 8 13 100 0.0372999
3 8 13 100 0.0491088
4 8 13 100 0.0442944
5 8 13 100 0.0476174
6 8 13 100 0.0517457
7 8 13 100 0.0835084
8 8 13 100 0.0718455
9 8 13 100 0.0776013
10 8 13 100 0.0970148
11 8 13 100 0.0818317
12 8 13 100 0.088009
13 8 13 100 0.0957137
0 9 13 100 0.175225
1 9 13 100 0.0300634
2 9 13 100 0.0309644
3 9 13 100 0.0313815
4 9 13 100 0.0393139
5 9 13 100 0.0546184
6 9 13 100 0.0497314
7 9 13 100 0.0523993
8 9 13 100 0.0811916
9 9 13 100 0.0697844
10 9 13 100 0.0920388
11 9 13 100 0.0823459
12 9 13 100 0.0893038
13 9 13 100 0.121638
0 10 13 100 0.139324
1 10 13 100 0.0317185
2 10 13 100 0.0263013
3 10 13 100 0.0362897
4 10 13 100 0.049862
5 10 13 100 0.0498865
6 10 13 100 0.0564293
7 10 13 100 0.0582586
8 10 13 100 0.0528722
9 10 13 100 0.0852777
10 10 13 100 0.0963945
11 10 13 100 0.0978067
12 10 13 100 0.0955431
13 10 13 100 0.124036
0 11 13 100 0.148456
1 11 13 100 0.0276035
2 11 13 100 0.0277778
3 11 13 100 0.0246436
4 11 13 100 0.0366937
5 11 13 100 0.0473872
6 11 13 100 0.0491939
7 11 13 100 0.0503031
8 11 13 100 0.0665368
9 11 13 100 0.0702774
10 11 13 100 0.102498
11 11 13 100 0.0863517
12 11 13 100 0.12505
13 11 13 100 0.137228
0 12 13 100 0.16112
1 12 13 100 0.0249188
2 12 13 100 0.0250702
3 12 13 100 0.0321061
4 12 13 100 0.0325735
5 12 13 100 0.0400819
6 12 13 100 0.0413256
7 12 13 100 0.0535975
8 12 13 100 0.0656471
9 12 13 100 0.0763054
10 12 13 100 0.0853058
11 12 13 100 0.107157
12 12 13 100 0.096331
13 12 13 100 0.15846
0 13 13 100 0.154316
1 13 13 100 0.0316509
2 13 13 100 0.0230745
3 13 13 100 0.0419152
4 13 13 100 0.040816
5 13 13 100 0.0317355
6 13 13 100 0.0429571
7 13 13 100 0.0346883
8 13 13 100 0.0633318
9 13 13 100 0.0906419
10 13 13 100 0.0843763
11 13 13 100 0.103948
12 13 13 100 0.0942054
13 13 13 100 0.162343
0 14 13 100 0.135272
1 14 13 100 0.0327718
2 14 13 100 0.00759757
3 14 13 100 0.0421965
4 14 13 100 0.0357354
5 14 13 100 0.0547573
6 14 13 100 0.0566456
7 14 13 100 0.0406697
8 14 13 100 0.0815955
9 14 13 100 0.0579063
10 14 13 100 0.0692606
11 14 13 100 0.119596
12 14 13 100 0.0945135
13 14 13 100 0.171482
0 15 13 100 0.174228
1 15 13 100 0.0117903
2 15 13 100 0.0174424
3 15 13 100 0.0347334
4 15 13 100 0.0531926
5 15 13 100 0.0364828
6 15 13 100 0.0411414
7 15 13 100 0.0130478
8 15 13 100 0.0734919
9 15 13 100 0.0908831
10 15 13 100 0.0473695
11 15 13 100 0.144765
12 15 13 100 0.128797
13 15 13 100 0.132635
0 16 13 100 0.212224
1 16 13 100 0.0120774
2 16 13 100 0.0268989
3 16 13 100 0.0036536
4 16 13 100 0.0582781
5 16 13 100 0.0297176
6 16 13 100 0.0369967
7 16 13 100 0.0189985
8 16 13 100 0.109252
9 16 13 100 0.0786323
10 16 13 100 0.0894766
11 16 13 100 0.0530496
12 16 13 100 0.110291
13 16 13 100 0.160454
0 17 13 100 0.0921294
1 17 13 100 0.01719
2 17 13 100 0.0176034
3 17 13 100 0.0184409
4 17 13 100 0.0750375
5 17 13 100 0.0383762
6 17 13 100 0.000647914
7 17 13 100 0.0199842
8 17 13 100 0.168969
9 17 13 100 0.0717428
10 17 13 100 0.119529
11 17 13 100 0.0307918
12 17 13 100 0.138957
13 17 13 100 0.190601
0 18 13 100 0.278799
1 18 13 100 3.17632e-06
2 18 13 100 0.035032
3 18 13 100 0.0412802
4 18 13 100 0.0737535
5 18 13 100 0.010095
6 18 13 100 0.00142323
7 18 13 100 0.0178853
8 18 13 100 0.0674254
9 18 13 100 0.0648174
10 18 13 100 0.0870733
11 18 13 100 0.0361542
12 18 13 100 0.143324
13 18 13 100 0.142934
0 19 13 100 0.244354
2 19 13 100 0.0630776
4 19 13 100 0.0169162
5 19 13 100 7.11292e-06
6 19 13 100 0.000882083
9 19 13 100 0.129721
10 19 13 100 0.211422
11 19 13 100 3.51132e-05
12 19 13 100 0.133606
13 19 13 100 0.199978
0 20 13 100 0.446816
3 20 13 100 0.000715189
5 20 13 100 0.0188378
6 20 13 100 7.40059e-05
8 20 13 100 0.20021
9 20 13 100 0.166667
12 20 13 100 0.166667
13 20 13 100 1.30657e-05
0 21 13 100 0.332866
2 21 13 100 0.0168335
3 21 13 100 6.26589e-06
4 21 13 100 0.149902
5 21 13 100 0.000339625
8 21 13 100 4.27331e-06
9 21 13 100 0.166667
10 21 13 100 4.77259e-05
12 21 13 100 0.166667
13 21 13 100 0.166667
6 22 13 100 1
0 23 13 100 8.04256e-05
6 23 13 100 0.99992
0 24 13 100 1
6 25 13 100 1
0 26 13 100 1
6 27 13 100 1
6 28 13 100 1
0 29 13 100 0.000134414
6 29 13 100 0.5
12 29 13 100 0.499866
0 30 13 100 0.000134376
6 30 13 100 0.5
12 30 13 100 0.499866
8 31 13 100 1
0 1 14 100 0.132807
1 1 14 100 0.474055
2 1 14 100 0.092414
3 1 14 100 0.0800744
4 1 14 100 0.0345559
5 1 14 100 0.0187879
6 1 14 100 0.0285713
7 1 14 100 0.0424488
8 1 14 100 0.00807963
9 1 14 100 0.00851383
10 1 14 100 0.0138661
11 1 14 100 0.0321491
12 1 14 100 0.0187525
13 1 14 100 0.00710519
14 1 14 100 0.00781932
0 2 14 100 0.078144
1 2 14 100 0.171672
2 2 14 100 0.247403
3 2 14 100 0.13165
4 2 14 100 0.0739211
5 2 14 100 0.0472621
6 2 14 100 0.0440699
7 2 14 100 0.0417189
8 2 14 100 0.022161
9 2 14 100 0.0175646
10 2 14 100 0.0238612
11 2 14 100 0.0395363
12 2 14 100 0.0239292
13 2 14 100 0.019389
14 2 14 100 0.0177169
0 3 14 100 0.174573
1 3 14 100 0.0817144
2 3 14 100 0.0960251
3 3 14 100 0.184494
4 3 14 100 0.088624
5 3 14 100 0.0560205
6 3 14 100 0.0753048
7 3 14 100 0.0566215
8 3 14 100 0.0237143
9 3 14 100 0.0271226
10 3 14 100 0.031594
11 3 14 100 0.0306617
12 3 14 100 0.0338396
13 3 14 100 0.0184614
14 3 14 100 0.0212284
0 4 14 100 0.186029
1 4 14 100 0.0649661
2 4 14 100 0.068297
3 4 14 100 0.107309
4 4 14 100 0.100253
5 4 14 100 0.0826238
6 4 14 100 0.0824581
7 4 14 100 0.0644862
8 4 14 100 0.0516184
9 4 14 100 0.0281123
10 4 14 100 0.0373121
11 4 14 100 0.0347576
12 4 14 100 0.0265209
13 4 14 100 0.0297998
14 4 14 100 0.0354567
0 5 14 100 0.208347
1 5 14 100 0.0534373
2 5 14 100 0.0263052
3 5 14 100 0.0786024
4 5 14 100 0.0808325
5 5 14 100 0.0725148
6 5 14 100 0.0970123
7 5 14 100 0.0824636
8 5 14 100 0.0558516
9 5 14 100 0.0537349
10 5 14 100 0.0411105
11 5 14 100 0.0333943
12 5 14 100 0.0303952
13 5 14 100 0.0329466
14 5 14 100 0.0530514
0 6 14 100 0.1709
1 6 14 100 0.025485
2 6 14 100 0.0263787
3 6 14 100 0.0605928
4 6 14 100 0.0566755
5 6 14 100 0.0745987
6 6 14 100 0.0984433
7 6 14 100 0.0722098
8 6 14 100 0.0975898
9 6 14 100 0.0681286
10 6 14 100 0.0555418
11 6 14 100 0.0438009
12 6 14 100 0.0492094
13 6 14 100 0.0425657
14 6 14 100 0.0578802
0 7 14 100 0.138551
1 7 14 100 0.0308712
2 7 14 100 0.0182471
3 7 14 100 0.0622975
4 7 14 100 0.0446455
5 7 14 100 0.0510021
6 7 14 100 0.0666403
7 7 14 100 0.0870909
8 7 14 100 0.0775103
9 7 14 100 0.0836991
10 7 14 100 0.0955743
11 7 14 100 0.0771478
12 7 14 100 0.0394963
13 7 14 100 0.0498179
14 7 14 100 0.0774084
0 8 14 100 0.125086
1 8 14 100 0.0413325
2 8 14 100 0.0239884
3 8 14 100 0.0473052
4 8 14 100 0.0309022
5 8 14 100 0.054814
6 8 14 100 0.0486044
7 8 14 100 0.074043
8 8 14 100 0.0853243
9 8 14 100 0.0842089
10 8 14 100 0.0802551
11 8 14 100 0.0704305
12 8 14 100 0.068805
13 8 14 100 0.0574586
14 8 14 100 0.107442
0 9 14 100 0.15747
1 9 14 100 0.0375352
2 9 14 100 0.0291892
3 9 14 100 0.0522626
4 9 14 100 0.0546611
5 9 14 100 0.0334289
6 9 14 100 0.0661526
7 9 14 100 0.0483343
8 9 14 100 0.0832526
9 9 14 100 0.0555501
10 9 14 100 0.0737509
11 9 14 100 0.0829444
12 9 14 100 0.0719969
13 9 14 100 0.0666971
14 9 14 100 0.086774
0 10 14 100 0.111626
1 10 14 100 0.0320825
2 10 14 100 0.0190751
3 10 14 100 0.0428598
4 10 14 100 0.0357876
5 10 14 100 0.0360609
6 10 14 100 0.0594946
7 10 14 100 0.0680536
8 10 14 100 0.0696219
9 10 14 100 0.0468231
10 10 14 100 0.0978105
11 10 14 100 0.0800559
12 10 14 100 0.108575
13 10 14 100 0.0946208
14 10 14 100 0.0974522
0 11 14 100 0.161846
1 11 14 100 0.0366691
2 11 14 100 0.0154245
3 11 14 100 0.0442416
4 11 14 100 0.0357602
5 11 14 100 0.0381693
6 11 14 100 0.0558648
7 11 14 100 0.0555107
8 11 14 100 0.074291
9 11 14 100 0.0415292
10 11 14 100 0.0406606
11 11 14 100 0.0970726
12 11 14 100 0.0913301
13 11 14 100 0.117734
14 11 14 100 0.093897
0 12 14 100 0.145708
1 12 14 100 0.0372644
2 12 14 100 0.0186427
3 12 14 100 0.0366789
4 12 14 100 0.0296336
5 12 14 100 0.0286891
6 12 14 100 0.0339082
7 12 14 100 0.0290714
8 12 14 100 0.060238
9 12 14 100 0.043455
10 12 14 100 0.0812937
11 12 14 100 0.0827775
12 12 14 100 0.110491
13 12 14 100 0.122783
14 12 14 100 0.139366
0 13 14 100 0.186638
1 13 14 100 0.0317533
2 13 14 100 0.0152673
3 13 14 100 0.0444627
4 13 14 100 0.0200354
5 13 14 100 0.0348572
6 13 14 100 0.0310059
7 13 14 100 0.0645489
8 13 14 100 0.050415
9 13 14 100 0.0320383
10 13 14 100 0.060496
11 13 14 100 0.0868832
12 13 14 100 0.0841983
13 13 14 100 0.104712
14 13 14 100 0.152689
0 14 14 100 0.165867
1 14 14 100 0.0270219
2 14 14 100 0.0109971
3 14 14 100 0.0610877
4 14 14 100 0.0290513
5 14 14 100 0.0363957
6 14 14 100 0.0368171
7 14 14 100 0.0424267
8 14 14 100 0.0544927
9 14 14 100 0.021683
10 14 14 100 0.032432
11 14 14 100 0.0900226
12 14 14 100 0.10049
13 14 14 100 0.0964287
14 14 14 100 0.194787
0 15 14 100 0.0879706
1 15 14 100 0.030064
2 15 14 100 0.0300708
3 15 14 100 0.039895
4 15 14 100 0.0348014
5 15 14 100 0.0355205
6 15 14 100 0.0199368
7 15 14 100 0.0626667
8 15 14 100 0.0569171
9 15 14 100 0.0596274
10 15 14 100 0.06756
11 15 14 100 0.0635732
12 15 14 100 0.0883896
13 15 14 100 0.130992
14 15 14 100 0.192015
0 16 14 100 0.154473
1 16 14 100 0.0578014
2 16 14 100 0.0367469
3 16 14 100 0.0196331
4 16 14 100 0.0183619
5 16 14 100 0.0279641
6 16 14 100 0.0263161
7 16 14 100 0.0730397
8 16 14 100 0.0982613
9 16 14 100 0.0183804
10 16 14 100 0.0589956
11 16 14 100 0.0452413
12 16 14 100 0.0710685
13 16 14 100 0.111896
14 16 14 100 0.18182
0 17 14 100 0.188743
1 17 14 100 0.0780975
2 17 14 100 0.0184703
3 17 14 100 0.0781387
4 17 14 100 0.0469576
5 17 14 100 0.0547535
6 17 14 100 0.0468828
7 17 14 100 0.0465048
8 17 14 100 0.062373
9 17 14 100 7.12095e-05
10 17 14 100 0.0605702
11 17 14 100 0.0464703
12 17 14 100 0.0498213
13 17 14 100 0.108132
14 17 14 100 0.114013
0 18 14 100 0.272159
1 18 14 100 0.0303184
2 18 14 100 6.22917e-05
3 18 14 100 0.0909175
4 18 14 100 0.0606062
5 18 14 100 0.0013414
6 18 14 100 0.000347755
7 18 14 100 0.0596272
8 18 14 100 0.0601735
9 18 14 100 0.0303942
10 18 14 100 0.0909822
11 18 14 100 0.0303083
12 18 14 100 0.0909391
13 18 14 100 0.0912634
14 18 14 100 0.0905596
0 19 14 100 0.124155
1 19 14 100 0.0916128
2 19 14 100 3.01673e-05
4 19 14 100 0.124933
5 19 14 100 4.66065e-05
6 19 14 100 0.125
7 19 14 100 6.9311e-06
8 19 14 100 7.51073e-06
9 19 14 100 2.5353e-05
10 19 14 100 0.140963
11 19 14 100 0.00048023
12 19 14 100 0.175158
13 19 14 100 0.0968775
14 19 14 100 0.120705
0 20 14 100 0.15071
2 20 14 100 0.0833092
3 20 14 100 0.000213944
4 20 14 100 0.166664
5 20 14 100 3.06047e-06
7 20 14 100 0.00274649
9 20 14 100 0.017307
10 20 14 100 1.23118e-06
11 20 14 100 0.10122
12 20 14 100 0.146402
13 20 14 100 0.24809
14 20 14 100 0.0833334
0 21 14 100 0.125308
1 21 14 100 0.124861
2 21 14 100 4.7471e-06
3 21 14 100 0.0004632
4 21 14 100 0.124901
6 21 14 100 0.124462
7 21 14 100 0.00298657
8 21 14 100 0.124815
9 21 14 100 2.89846e-06
12 21 14 100 0.122195
13 21 14 100 0.125
14 21 14 100 0.125
0 22 14 100 0.142869
3 22 14 100 0.143187
7 22 14 100 0.000980325
8 22 14 100 0.135322
10 22 14 100 0.142857
11 22 14 100 0.141596
12 22 14 100 0.293073
13 22 14 100 0.000114741
3 23 14 100 0.197139
4 23 14 100 0.2
5 23 14 100 0.00286131
7 23 14 100 0.00418491
9 23 14 100 0.200004
11 23 14 100 0.198188
12 23 14 100 0.197623
0 24 14 100 0.00102465
1 24 14 100 0.00033616
6 24 14 100 0.332886
10 24 14 100 0.332309
11 24 14 100 0.333333
13 24 14 100 0.000111329
0 25 14 100 0.00447349
4 25 14 100 0.495527
14 25 14 100 0.499999
14 26 14 100 1
0 1 15 100 0.148338
1 1 15 100 0.498012
2 1 15 100 0.062444
3 1 15 100 0.0695638
4 1 15 100 0.0260475
5 1 15 100 0.0166896
6 1 15 100 0.0180074
7 1 15 100 0.0297224
8 1 15 100 0.0117467
9 1 15 100 0.0166352
10 1 15 100 0.0100287
11 1 15 100 0.0120796
12 1 15 100 0.0179771
13 1 15 100 0.0125219
14 1 15 100 0.0160882
15 1 15 100 0.0340984
0 2 15 100 0.0984101
1 2 15 100 0.114997
2 2 15 100 0.219047
3 2 15 100 0.144208
4 2 15 100 0.0418281
5 2 15 100 0.0504228
6 2 15 100 0.0175231
7 2 15 100 0.0494147
8 2 15 100 0.0330645
9 2 15 100 0.0434054
10 2 15 100 0.0279328
11 2 15 100 0.0264919
12 2 15 100 0.0362244
13 2 15 100 0.0308308
14 2 15 100 0.0262974
15 2 15 100 0.0399022
0 3 15 100 0.16738
1 3 15 100 0.0695996
2 3 15 100 0.119553
3 3 15 100 0.138927
4 3 15 100 0.0954705
5 3 15 100 0.0544774
6 3 15 100 0.0449339
7 3 15 100 0.0465165
8 3 15 100 0.0491323
9 3 15 100 0.0280562
10 3 15 100 0.0287977
11 3 15 100 0.03166
12 3 15 100 0.0203259
13 3 15 100 0.0292472
14 3 15 100 0.0251315
15 3 15 100 0.0507915
0 4 15 100 0.151075
1 4 15 100 0.0459277
2 4 15 100 0.0754488
3 4 15 100 0.0851222
4 4 15 100 0.0880933
5 4 15 100 0.102892
6 4 15 100 0.06353
7 4 15 100 0.0654797
8 4 15 100 0.0615618
9 4 15 100 0.0378142
10 4 15 100 0.0438802
11 4 15 100 0.0389399
12 4 15 100 0.0385417
13 4 15 100 0.022199
14 4 15 100 0.0285602
15 4 15 100 0.0509342
0 5 15 100 0.187921
1 5 15 100 0.0287677
2 5 15 100 0.031978
3 5 15 100 0.0646432
4 5 15 100 0.0914961
5 5 15 100 0.0729229
6 5 15 100 0.0811176
7 5 15 100 0.0617813
8 5 15 100 0.0678813
9 5 15 100 0.0656927
10 5 15 100 0.0352214
11 5 15 100 0.0468979
12 5 15 100 0.0379222
13 5 15 100 0.0212491
14 5 15 100 0.044622
15 5 15 100 0.0598858
0 6 15 100 0.167547
1 6 15 100 0.0239698
2 6 15 100 0.0177061
3 6 15 100 0.0511655
4 6 15 100 0.0630519
5 6 15 100 0.0549194
6 6 15 100 0.08043
7 6 15 100 0.100057
8 6 15 100 0.0742764
9 6 15 100 0.0773891
10 6 15 100 0.0612071
11 6 15 100 0.0538416
12 6 15 100 0.0483454
13 6 15 100 0.029429
14 6 15 100 0.0343289
15 6 15 100 0.0623354
0 7 15 100 0.169888
1 7 15 100 0.0162691
2 7 15 100 0.0152352
3 7 15 100 0.0348986
4 7 15 100 0.0233691
5 7 15 100 0.0589358
6 7 15 100 0.0692666
7 7 15 100 0.103788
8 7 15 100 0.0715664
9 7 15 100 0.0663186
10 7 15 100 0.0678019
11 7 15 100 0.0551804
12 7 15 100 0.0570016
13 7 15 100 0.070747
14 7 15 100 0.0487416
15 7 15 100 0.0709921
0 8 15 100 0.134331
1 8 15 100 0.0134817
2 8 15 100 0.0111435
3 8 15 100 0.0289541
4 8 15 100 0.0357636
5 8 15 100 0.0535001
6 8 15 100 0.0547755
7 8 15 100 0.0548974
8 8 15 100 0.124449
9 8 15 100 0.0645695
10 8 15 100 0.0594703
11 8 15 100 0.0910904
12 8 15 100 0.0863474
13 8 15 100 0.068446
14 8 15 100 0.0408187
15 8 15 100 0.0779615
0 9 15 100 0.181033
1 9 15 100 0.0300212
2 9 15 100 0.0273798
3 9 15 100 0.0271603
4 9 15 100 0.0097837
5 9 15 100 0.0455276
6 9 15 100 0.041237
7 9 15 100 0.070794
8 9 15 100 0.0620942
9 9 15 100 0.089762
10 9 15 100 0.0837885
11 9 15 100 0.0605617
12 9 15 100 0.0518084
13 9 15 100 0.0861654
14 9 15 100 0.0527705
15 9 15 100 0.0801133
0 10 15 100 0.157536
1 10 15 100 0.0225056
2 10 15 100 0.0234741
3 10 15 100 0.026217
4 10 15 100 0.00908687
5 10 15 100 0.0157764
6 10 15 100 0.0331904
7 10 15 100 0.049942
8 10 15 100 0.0569138
9 10 15 100 0.0750111
10 10 15 100 0.111761
11 10 15 100 0.0867598
12 10 15 100 0.070863
13 10 15 100 0.0810819
14 10 15 100 0.0723888
15 10 15 100 0.107492
0 11 15 100 0.134967
1 11 15 100 0.0214768
2 11 15 100 0.0244061
3 11 15 100 0.0356292
4 11 15 100 0.00724088
5 11 15 100 0.0254918
6 11 15 100 0.0555647
7 11 15 100 0.0354973
8 11 15 100 0.0465155
9 11 15 100 0.0740011
10 11 15 100 0.0788701
11 11 15 100 0.103245
12 11 15 100 0.11716
13 11 15 100 0.0745655
14 11 15 100 0.0457483
15 11 15 100 0.11962
0 12 15 100 0.142649
1 12 15 100 0.0214941
2 12 15 100 0.0108773
3 12 15 100 0.030889
4 12 15 100 0.015514
5 12 15 100 0.025607
6 12 15 100 0.0290349
7 12 15 100 0.062936
8 12 15 100 0.0265787
9 12 15 100 0.0669832
10 12 15 100 0.0718022
11 12 15 100 0.104445
12 12 15 100 0.126583
13 12 15 100 0.0833549
14 12 15 100 0.0525945
15 12 15 100 0.128658
0 13 15 100 0.104315
1 13 15 100 0.0249702
2 13 15 100 0.0273452
3 13 15 100 0.0321462
4 13 15 100 0.0136173
5 13 15 100 0.0267918
6 13 15 100 0.0503382
7 13 15 100 0.0322144
8 13 15 100 0.0251839
9 13 15 100 0.0653992
10 13 15 100 0.0499244
11 13 15 100 0.0954803
12 13 15 100 0.120784
13 13 15 100 0.107573
14 13 15 100 0.0914578
15 13 15 100 0.13246
0 14 15 100 0.133488
1 14 15 100 0.0242663
2 14 15 100 0.0237015
3 14 15 100 0.0193202
4 14 15 100 0.00744712
5 14 15 100 0.0248515
6 14 15 100 0.0655588
7 14 15 100 0.0467767
8 14 15 100 0.0373303
9 14 15 100 0.072511
10 14 15 100 0.051292
11 14 15 100 0.0629407
12 14 15 100 0.12192
13 14 15 100 0.0886584
14 14 15 100 0.092516
15 14 15 100 0.127421
0 15 15 100 0.210612
1 15 15 100 0.0132695
2 15 15 100 0.0163706
3 15 15 100 0.00677227
4 15 15 100 0.000456012
5 15 15 100 0.0189239
6 15 15 100 0.0355467
7 15 15 100 0.0630451
8 15 15 100 0.0421229
9 15 15 100 0.0657789
10 15 15 100 0.0277611
11 15 15 100 0.0982477
12 15 15 100 0.0810892
13 15 15 100 0.095688
14 15 15 100 0.0856577
15 15 15 100 0.138659
0 16 15 100 0.213168
1 16 15 100 0.0171934
2 16 15 100 0.0163536
3 16 15 100 0.0186209
4 16 15 100 0.00863439
5 16 15 100 0.0127978
6 16 15 100 0.101349
7 16 15 100 0.0223524
8 16 15 100 0.0587991
9 16 15 100 0.0654417
10 16 15 100 0.0323331
11 16 15 100 0.0843821
12 16 15 100 0.04667
13 16 15 100 0.0632857
14 16 15 100 0.0898124
15 16 15 100 0.148806
0 17 15 100 0.198277
1 17 15 100 0.0141384
2 17 15 100 0.0277221
3 17 15 100 0.000349248
4 17 15 100 0.0400799
5 17 15 100 0.0280252
6 17 15 100 0.0721543
7 17 15 100 0.000836966
8 17 15 100 0.0425444
9 17 15 100 0.0422925
10 17 15 100 0.0171293
11 17 15 100 0.055943
12 17 15 100 0.0995509
13 17 15 100 0.0965119
14 17 15 100 0.077544
15 17 15 100 0.186901
0 18 15 100 0.12211
1 18 15 100 0.000458232
2 18 15 100 0.0655672
3 18 15 100 0.000462032
4 18 15 100 0.0258492
5 18 15 100 0.0223067
6 18 15 100 0.122939
7 18 15 100 0.0058182
8 18 15 100 0.0768572
9 18 15 100 0.030005
10 18 15 100 0.0014706
11 18 15 100 0.0706129
12 18 15 100 0.0620367
13 18 15 100 0.117882
14 18 15 100 0.112099
15 18 15 100 0.163527
0 19 15 100 0.0435536
2 19 15 100 0.0433687
4 19 15 100 0.000114021
5 19 15 100 0.0859614
6 19 15 100 0.11973
7 19 15 100 0.0437847
8 19 15 100 0.088317
10 19 15 100 0.0444036
11 19 15 100 0.0869399
12 19 15 100 0.0434129
13 19 15 100 0.215404
14 19 15 100 0.0866577
15 19 15 100 0.0983532
0 20 15 100 0.354948
1 20 15 100 0.0017888
2 20 15 100 0.0714459
3 20 15 100 7.8208e-07
5 20 15 100 0.000593306
6 20 15 100 0.142859
8 20 15 100 2.13352e-06
10 20 15 100 6.32727e-05
11 20 15 100 0.142977
12 20 15 100 0.142819
13 20 15 100 0.142345
14 20 15 100 0.00010953
15 20 15 100 4.82545e-05
0 21 15 100 0.167013
3 21 15 100 0.00188626
5 21 15 100 0.0080226
8 21 15 100 4.02347e-05
9 21 15 100 3.6891e-06
11 21 15 100 0.00808097
12 21 15 100 0.2
13 21 15 100 0.582212
14 21 15 100 0.0327408
0 22 15 100 0.016423
7 22 15 100 0.00570839
10 22 15 100 7.58478e-06
11 22 15 100 0.244292
12 22 15 100 0.25
13 22 15 100 0.233572
14 22 15 100 0.249997
12 23 15 100 0.5
13 23 15 100 0.499865
14 23 15 100 0.000135249
13 24 15 100 0.0167988
14 24 15 100 0.983201
0 25 15 100 8.99465e-05
8 25 15 100 0.00313453
13 25 15 100 0.996776
8 26 15 100 0.116291
13 26 15 100 0.883709
15 27 15 100 1
0 1 16 100 0.128516
1 1 16 100 0.527204
2 1 16 100 0.0721054
3 1 16 100 0.0436622
4 1 16 100 0.0450759
5 1 16 100 0.0171035
6 1 16 100 0.0347592
7 1 16 100 0.036332
8 1 16 100 0.00974282
9 1 16 100 0.0153092
10 1 16 100 0.00945342
11 1 16 100 0.015911
12 1 16 100 0.00963858
13 1 16 100 0.00577032
14 1 16 100 0.0128292
15 1 16 100 0.00402458
16 1 16 100 0.012563
0 2 16 100 0.0800205
1 2 16 100 0.172679
2 2 16 100 0.205706
3 2 16 100 0.128749
4 2 16 100 0.0806965
5 2 16 100 0.0631143
6 2 16 100 0.0472247
7 2 16 100 0.0516774
8 2 16 100 0.0315761
9 2 16 100 0.0162775
10 2 16 100 0.0309664
11 2 16 100 0.0225225
12 2 16 100 0.00878701
13 2 16 100 0.0163326
14 2 16 100 0.0170673
15 2 16 100 0.00194934
16 2 16 100 0.0246538
0 3 16 100 0.154434
1 3 16 100 0.0732009
2 3 16 100 0.126231
3 3 16 100 0.162684
4 3 16 100 0.0998557
5 3 16 100 0.0896468
6 3 16 100 0.0660546
7 3 16 100 0.0462004
8 3 16 100 0.0364416
9 3 16 100 0.0288044
10 3 16 100 0.0309375
11 3 16 100 0.0341008
12 3 16 100 0.00928457
13 3 16 100 0.00227993
14 3 16 100 0.00910586
15 3 16 100 0.00935415
16 3 16 100 0.0213846
0 4 16 100 0.210089
1 4 16 100 0.0765812
2 4 16 100 0.045194
3 4 16 100 0.0705864
4 4 16 100 0.0920746
5 4 16 100 0.103861
6 4 16 100 0.0953389
7 4 16 100 0.0627542
8 4 16 100 0.0410553
9 4 16 100 0.0200371
10 4 16 100 0.049603
11 4 16 100 0.0251988
12 4 16 100 0.01906
13 4 16 100 0.0126322
14 4 16 100 0.0135796
15 4 16 100 0.0183165
16 4 16 100 0.044038
0 5 16 100 0.169922
1 5 16 100 0.0373802
2 5 16 100 0.0296249
3 5 16 100 0.0339573
4 5 16 100 0.0962761
5 5 16 100 0.145753
6 5 16 100 0.090338
7 5 16 100 0.0810881
8 5 16 100 0.0776638
9 5 16 100 0.0353039
10 5 16 100 0.0480736
11 5 16 100 0.0315542
12 5 16 100 0.0289757
13 5 16 100 0.0212084
14 5 16 100 0.008889
15 5 16 100 0.0198623
16 5 16 100 0.0441299
0 6 16 100 0.149163
1 6 16 100 0.0619401
2 6 16 100 0.0179076
3 6 16 100 0.0365901
4 6 16 100 0.0594786
5 6 16 100 0.099364
6 6 16 100 0.106456
7 6 16 100 0.098525
8 6 16 100 0.067548
9 6 16 100 0.0456478
10 6 16 100 0.0654965
11 6 16 100 0.0477297
12 6 16 100 0.023304
13 6 16 100 0.028146
14 6 16 100 0.0183261
15 6 16 100 0.0201606
16 6 16 100 0.054217
0 7 16 100 0.111751
1 7 16 100 0.0483009
2 7 16 100 0.0167507
3 7 16 100 0.0285406
4 7 16 100 0.028832
5 7 16 100 0.100473
6 7 16 100 0.0882471
7 7 16 100 0.0639741
8 7 16 100 0.108124
9 7 16 100 0.0618796
10 7 16 100 0.0815966
11 7 16 100 0.0394633
12 7 16 100 0.0381761
13 7 16 100 0.0438075
14 7 16 100 0.0385397
15 7 16 100 0.0485232
16 7 16 100 0.0530207
0 8 16 100 0.176094
1 8 16 100 0.0174386
2 8 16 100 0.037273
3 8 16 100 0.0430027
4 8 16 100 0.0133662
5 8 16 100 0.0500311
6 8 16 100 0.0479697
7 8 16 100 0.0337013
8 8 16 100 0.108287
9 8 16 100 0.0744228
10 8 16 100 0.111372
11 8 16 100 0.0571107
12 8 16 100 0.0529857
13 8 16 100 0.0434467
14 8 16 100 0.0463273
15 8 16 100 0.0296824
16 8 16 100 0.0574891
0 9 16 100 0.14917
1 9 16 100 0.0093407
2 9 16 100 0.0177226
3 9 16 100 0.0537473
4 9 16 100 0.00903204
5 9 16 100 0.00572488
6 9 16 100 0.0573737
7 9 16 100 0.0472571
8 9 16 100 0.0801627
9 9 16 100 0.0834633
10 9 16 100 0.0985382
11 9 16 100 0.0753809
12 9 16 100 0.0885287
13 9 16 100 0.0389931
14 9 16 100 0.0606349
15 9 16 100 0.0559194
16 9 16 100 0.06901
0 10 16 100 0.16436
1 10 16 100 0.0138689
2 10 16 100 0.0109499
3 10 16 100 0.0275762
4 10 16 100 0.0201759
5 10 16 100 0.036503
6 10 16 100 0.0429143
7 10 16 100 0.0333088
8 10 16 100 0.044052
9 10 16 100 0.0389326
10 10 16 100 0.11609
11 10 16 100 0.0878595
12 10 16 100 0.0686293
13 10 16 100 0.0922656
14 10 16 100 0.0325646
15 10 16 100 0.113002
16 10 16 100 0.0569474
0 11 16 100 0.121241
1 11 16 100 0.0296768
2 11 16 100 0.0157063
3 11 16 100 0.0143014
4 11 16 100 0.0181482
5 11 16 100 0.0315982
6 11 16 100 0.0588912
7 11 16 100 0.0334319
8 11 16 100 0.0611851
9 11 16 100 0.0344594
10 11 16 100 0.0780997
11 11 16 100 0.077348
12 11 16 100 0.0938629
13 11 16 100 0.0825206
14 11 16 100 0.0685923
15 11 16 100 0.0889726
16 11 16 100 0.0919647
0 12 16 100 0.12893
1 12 16 100 0.0289466
2 12 16 100 0.0348006
3 12 16 100 0.0110825
4 12 16 100 0.00621057
5 12 16 100 0.0355112
6 12 16 100 0.0452037
7 12 16 100 0.0481759
8 12 16 100 0.0307827
9 12 16 100 0.0527143
10 12 16 100 0.0570078
11 12 16 100 0.112411
12 12 16 100 0.0482688
13 12 16 100 0.0860731
14 12 16 100 0.0409083
15 12 16 100 0.121562
16 12 16 100 0.111411
0 13 16 100 0.139422
1 13 16 100 0.0308044
2 13 16 100 0.0117151
3 13 16 100 0.0195002
4 13 16 100 0.00116278
5 13 16 100 0.0447394
6 13 16 100 0.0237059
7 13 16 100 0.0652756
8 13 16 100 0.0324876
9 13 16 100 0.0428716
10 13 16 100 0.0621016
11 13 16 100 0.0395024
12 13 16 100 0.0767664
13 13 16 100 0.0844827
14 13 16 100 0.114557
15 13 16 100 0.112442
16 13 16 100 0.0984632
0 14 16 100 0.146783
1 14 16 100 0.0314647
2 14 16 100 1.74652e-05
3 14 16 100 0.0310586
4 14 16 100 0.000958411
5 14 16 100 0.0320751
6 14 16 100 0.0588033
7 14 16 100 0.0199535
8 14 16 100 0.0576124
9 14 16 100 0.0318857
10 14 16 100 0.0819336
11 14 16 100 0.0387924
12 14 16 100 0.0404962
13 14 16 100 0.0554298
14 14 16 100 0.145358
15 14 16 100 0.0972795
16 14 16 100 0.130099
0 15 16 100 0.161156
1 15 16 100 0.0258257
2 15 16 100 0.00173326
3 15 16 100 0.0414389
4 15 16 100 0.0101818
5 15 16 100 0.0259266
6 15 16 100 0.0507707
7 15 16 100 0.018086
8 15 16 100 0.0883673
9 15 16 100 0.0154035
10 15 16 100 0.0618636
11 15 16 100 0.0157025
12 15 16 100 0.0471653
13 15 16 100 0.0730959
14 15 16 100 0.126724
15 15 16 100 0.0870491
16 15 16 100 0.149509
0 16 16 100 0.103725
1 16 16 100 0.0330264
2 16 16 100 5.961e-05
3 16 16 100 0.050252
4 16 16 100 0.0135463
5 16 16 100 0.0123092
6 16 16 100 0.035135
7 16 16 100 0.0322512
8 16 16 100 0.0426181
9 16 16 100 0.0426418
10 16 16 100 0.0428921
11 16 16 100 0.0433726
12 16 16 100 0.0784298
13 16 16 100 0.0752761
14 16 16 100 0.0456089
15 16 16 100 0.203165
16 16 16 100 0.14569
0 17 16 100 0.19767
1 17 16 100 0.017732
2 17 16 100 0.000570318
3 17 16 100 0.0453856
4 17 16 100 0.0152118
5 17 16 100 0.0325388
6 17 16 100 0.0380265
7 17 16 100 0.0152914
8 17 16 100 0.0393538
9 17 16 100 0.0454132
10 17 16 100 0.0123245
11 17 16 100 0.0485675
12 17 16 100 0.0733239
13 17 16 100 0.0626881
14 17 16 100 0.118592
15 17 16 100 0.102528
16 17 16 100 0.134783
0 18 16 100 0.146573
1 18 16 100 0.0222286
2 18 16 100 0.000525277
3 18 16 100 0.0462503
4 18 16 100 0.000630756
5 18 16 100 0.0667084
6 18 16 100 0.0257437
7 18 16 100 0.0455385
8 18 16 100 0.0222223
9 18 16 100 0.0692237
10 18 16 100 0.0352274
11 18 16 100 0.117481
12 18 16 100 0.0500162
13 18 16 100 0.0667062
14 18 16 100 0.0716706
15 18 16 100 0.0816525
16 18 16 100 0.131601
0 19 16 100 0.126141
1 19 16 100 0.0416685
2 19 16 100 0.00010024
3 19 16 100 0.0380152
4 19 16 100 0.0064446
5 19 16 100 0.0835986
6 19 16 100 0.0417161
7 19 16 100 0.0715116
8 19 16 100 0.0413355
9 19 16 100 0.0416786
10 19 16 100 0.08425
12 19 16 100 0.00024383
13 19 16 100 0.083291
14 19 16 100 0.164399
15 19 16 100 0.0816894
16 19 16 100 0.0939168
0 20 16 100 0.134565
2 20 16 100 0.0217574
3 20 16 100 0.000745743
5 20 16 100 1.20944e-06
6 20 16 100 0.000921783
7 20 16 100 0.064256
8 20 16 100 0.0702907
9 20 16 100 0.0625001
10 20 16 100 0.0625144
11 20 16 100 0.120699
12 20 16 100 0.0625041
13 20 16 100 0.0330712
15 20 16 100 0.244497
16 20 16 100 0.121678
0 21 16 100 0.295643
1 21 16 100 0.0080655
4 21 16 100 3.31567e-06
5 21 16 100 4.04786e-06
7 21 16 100 0.102215
9 21 16 100 0.100565
10 21 16 100 0.1
11 21 16 100 0.1
12 21 16 100 0.0999831
15 21 16 100 0.0894514
16 21 16 100 0.104069
0 22 16 100 2.47201e-06
3 22 16 100 0.00117106
6 22 16 100 2.93086e-06
7 22 16 100 0.0017932
9 22 16 100 2.29049e-06
10 22 16 100 0.333334
12 22 16 100 0.166667
14 22 16 100 0.164737
15 22 16 100 0.19191
16 22 16 100 0.14038
0 23 16 100 0.0166665
6 23 16 100 4.77106e-06
11 23 16 100 0.2
12 23 16 100 0.383334
15 23 16 100 0.399995
8 24 16 100 0.5
10 24 16 100 0.5
0 25 16 100 0.5
11 25 16 100 0.5
8 26 16 100 0.5
11 26 16 100 0.5
5 27 16 100 0.499999
6 27 16 100 0.500001
0 28 16 100 1.97889e-05
6 28 16 100 0.99998
6 29 16 100 1
0 1 17 100 0.12684
1 1 17 100 0.553365
2 1 17 100 0.0647319
3 1 17 100 0.0364439
4 1 17 100 0.0174265
5 1 17 100 0.028783
6 1 17 100 0.050664
7 1 17 100 0.0296717
8 1 17 100 0.00675257
9 1 17 100 0.00071657
10 1 17 100 0.0180064
11 1 17 100 0.00182872
12 1 17 100 0.011545
13 1 17 100 0.000154714
14 1 17 100 0.0157399
15 1 17 100 0.0151377
16 1 17 100 0.0100418
17 1 17 100 0.0121513
0 2 17 100 0.148385
1 2 17 100 0.183984
2 2 17 100 0.196573
3 2 17 100 0.132358
4 2 17 100 0.0792379
5 2 17 100 0.0380202
6 2 17 100 0.0721222
7 2 17 100 0.0473098
8 2 17 100 0.0108972
9 2 17 100 0.0168749
10 2 17 100 0.0153474
11 2 17 100 0.0104579
12 2 17 100 0.013125
13 2 17 100 0.00995325
14 2 17 100 0.0148155
15 2 17 100 0.00026348
16 2 17 100 0.00872841
17 2 17 100 0.00154663
0 3 17 100 0.124499
1 3 17 100 0.11178
2 3 17 100 0.156654
3 3 17 100 0.179973
4 3 17 100 0.0937983
5 3 17 100 0.0752338
6 3 17 100 0.0475039
7 3 17 100 0.0548189
8 3 17 100 0.0138497
9 3 17 100 0.0231464
10 3 17 100 0.0327001
11 3 17 100 0.0228902
12 3 17 100 0.0101007
13 3 17 100 0.0168118
14 3 17 100 0.0112349
15 3 17 100 0.013629
16 3 17 100 0.000352681
17 3 17 100 0.011023
0 4 17 100 0.140807
1 4 17 100 0.0253161
2 4 17 100 0.0586337
3 4 17 100 0.118474
4 4 17 100 0.0918479
5 4 17 100 0.120602
6 4 17 100 0.106482
7 4 17 100 0.0647004
8 4 17 100 0.0418954
9 4 17 100 0.0315491
10 4 17 100 0.0107776
11 4 17 100 0.0331943
12 4 17 100 0.0349931
13 4 17 100 0.0119067
14 4 17 100 0.0362841
15 4 17 100 0.0287313
16 4 17 100 0.00577548
17 4 17 100 0.0380301
0 5 17 100 0.160944
1 5 17 100 0.0371302
2 5 17 100 0.024121
3 5 17 100 0.0709786
4 5 17 100 0.0820151
5 5 17 100 0.104255
6 5 17 100 0.132581
7 5 17 100 0.0760091
8 5 17 100 0.0661006
9 5 17 100 0.0448014
10 5 17 100 0.0112823
11 5 17 100 0.0560609
12 5 17 100 0.0469068
13 5 17 100 0.0209024
14 5 17 100 0.0250931
15 5 17 100 0.00993199
16 5 17 100 0.0110554
17 5 17 100 0.0198308
0 6 17 100 0.200743
1 6 17 100 0.0276912
2 6 17 100 0.0108819
3 6 17 100 0.046388
4 6 17 100 0.0705528
5 6 17 100 0.0908735
6 6 17 100 0.112332
7 6 17 100 0.0636385
8 6 17 100 0.0635165
9 6 17 100 0.0635051
10 6 17 100 0.0575089
11 6 17 100 0.0341311
12 6 17 100 0.0386129
13 6 17 100 0.0316031
14 6 17 100 0.0270845
15 6 17 100 0.0219159
16 6 17 100 0.0226601
17 6 17 100 0.0163607
0 7 17 100 0.147627
1 7 17 100 0.0289692
2 7 17 100 0.00741805
3 7 17 100 0.0326455
4 7 17 100 0.072678
5 7 17 100 0.027298
6 7 17 100 0.109164
7 7 17 100 0.0914847
8 7 17 100 0.0694084
9 7 17 100 0.0947735
10 7 17 100 0.0656632
11 7 17 100 0.0454564
12 7 17 100 0.0243356
13 7 17 100 0.026164
14 7 17 100 0.0508352
15 7 17 100 0.0339046
16 7 17 100 0.0327227
17 7 17 100 0.0394512
0 8 17 100 0.118015
1 8 17 100 0.0218338
2 8 17 100 0.000113602
3 8 17 100 0.0389233
4 8 17 100 0.0394696
5 8 17 100 0.0417193
6 8 17 100 0.0728516
7 8 17 100 0.0711604
8 8 17 100 0.0803295
9 8 17 100 0.0666606
10 8 17 100 0.0890368
11 8 17 100 0.034404
12 8 17 100 0.0693122
13 8 17 100 0.0344733
14 8 17 100 0.0688942
15 8 17 100 0.0528128
16 8 17 100 0.0719759
17 8 17 100 0.0280135
0 9 17 100 0.234238
1 9 17 100 0.0177606
2 9 17 100 0.00162707
3 9 17 100 0.0248339
4 9 17 100 0.0140067
5 9 17 100 0.0256275
6 9 17 100 0.0360893
7 9 17 100 0.0617577
8 9 17 100 0.0720594
9 9 17 100 0.034343
10 9 17 100 0.0850225
11 9 17 100 0.0779477
12 9 17 100 0.0616281
13 9 17 100 0.0355109
14 9 17 100 0.053285
15 9 17 100 0.0552145
16 9 17 100 0.0390261
17 9 17 100 0.0700229
0 10 17 100 0.148091
1 10 17 100 0.0127608
2 10 17 100 0.0112337
3 10 17 100 0.0179916
4 10 17 100 0.0122942
5 10 17 100 0.0130218
6 10 17 100 0.0474925
7 10 17 100 0.0477778
8 10 17 100 0.0391768
9 10 17 100 0.0864578
10 10 17 100 0.1066
11 10 17 100 0.0873158
12 10 17 100 0.0400261
13 10 17 100 0.0596939
14 10 17 100 0.0780445
15 10 17 100 0.0530761
16 10 17 100 0.0616726
17 10 17 100 0.0772727
0 11 17 100 0.133496
1 11 17 100 0.0289361
2 11 17 100 0.0123505
3 11 17 100 0.0188071
4 11 17 100 0.0223555
5 11 17 100 0.0249694
6 11 17 100 0.0328717
7 11 17 100 0.0378539
8 11 17 100 0.0198539
9 11 17 100 0.038214
10 11 17 100 0.0518545
11 11 17 100 0.118415
12 11 17 100 0.0985525
13 11 17 100 0.044717
14 11 17 100 0.111903
15 11 17 100 0.0557394
16 11 17 100 0.0591492
17 11 17 100 0.0899608
0 12 17 100 0.187905
1 12 17 100 0.013475
2 12 17 100 0.00101625
3 12 17 100 0.0307492
4 12 17 100 0.00739014
5 12 17 100 0.0244977
6 12 17 100 0.033189
7 12 17 100 0.0456386
8 12 17 100 0.0129634
9 12 17 100 0.0197784
10 12 17 100 0.0785051
11 12 17 100 0.0547219
12 12 17 100 0.0468874
13 12 17 100 0.112272
14 12 17 100 0.0996401
15 12 17 100 0.0626771
16 12 17 100 0.110128
17 12 17 100 0.0585653
0 13 17 100 0.185454
1 13 17 100 0.0341435
2 13 17 100 0.0100307
3 13 17 100 0.014265
4 13 17 100 0.00755185
5 13 17 100 0.0153788
6 13 17 100 0.0707611
7 13 17 100 0.0668827
8 13 17 100 0.027771
9 13 17 100 0.0221107
10 13 17 100 0.052596
11 13 17 100 0.0285553
12 13 17 100 0.0780741
13 13 17 100 0.0597736
14 13 17 100 0.0857899
15 13 17 100 0.11297
16 13 17 100 0.0797612
17 13 17 100 0.0481307
0 14 17 100 0.148937
1 14 17 100 0.0343276
2 14 17 100 0.0197062
3 14 17 100 0.0216136
4 14 17 100 0.00528303
5 14 17 100 0.0479564
6 14 17 100 0.0642849
7 14 17 100 0.0555074
8 14 17 100 0.0420269
9 14 17 100 0.0199948
10 14 17 100 0.0839368
11 14 17 100 0.0357742
12 14 17 100 0.022889
13 14 17 100 0.056553
14 14 17 100 0.0947695
15 14 17 100 0.0746494
16 14 17 100 0.0863422
17 14 17 100 0.0854481
0 15 17 100 0.164904
1 15 17 100 0.0082186
2 15 17 100 0.0183799
3 15 17 100 0.00859018
4 15 17 100 0.0127385
5 15 17 100 0.00859476
6 15 17 100 0.0566609
7 15 17 100 0.0732673
8 15 17 100 0.0291672
9 15 17 100 0.0184036
10 15 17 100 0.10959
11 15 17 100 0.0150358
12 15 17 100 0.0406798
13 15 17 100 0.0253268
14 15 17 100 0.0827524
15 15 17 100 0.116784
16 15 17 100 0.15188
17 15 17 100 0.0590257
0 16 17 100 0.148821
1 16 17 100 0.0205053
2 16 17 100 0.0237707
3 16 17 100 0.0107371
4 16 17 100 0.0208678
5 16 17 100 0.0123026
6 16 17 100 0.0653306
7 16 17 100 0.0325286
8 16 17 100 0.0426244
9 16 17 100 0.0229876
10 16 17 100 0.0894267
11 16 17 100 0.0432483
12 16 17 100 0.0378603
13 16 17 100 0.0213218
14 16 17 100 0.0788952
15 16 17 100 0.0743202
16 16 17 100 0.131207
17 16 17 100 0.123244
0 17 17 100 0.189571
1 17 17 100 0.0142444
2 17 17 100 0.0143363
3 17 17 100 0.0145548
4 17 17 100 0.029375
5 17 17 100 0.028644
6 17 17 100 0.130573
7 17 17 100 0.0162778
8 17 17 100 0.0186211
9 17 17 100 0.0281251
10 17 17 100 0.0945199
11 17 17 100 0.0266929
12 17 17 100 0.0484763
13 17 17 100 0.0369507
14 17 17 100 0.0843131
15 17 17 100 0.0986623
16 17 17 100 0.0517019
17 17 17 100 0.0743597
0 18 17 100 0.166073
1 18 17 100 0.0184293
2 18 17 100 0.0332257
3 18 17 100 0.016824
4 18 17 100 0.0632133
5 18 17 100 0.0179364
6 18 17 100 0.0766521
7 18 17 100 0.000193741
8 18 17 100 0.0184857
9 18 17 100 4.10196e-05
10 18 17 100 0.102089
11 18 17 100 0.0507848
12 18 17 100 0.0663678
13 18 17 100 0.0354638
14 18 17 100 0.0921336
15 18 17 100 0.0808258
16 18 17 100 0.0648431
17 18 17 100 0.0964185
0 19 17 100 0.163086
1 19 17 100 3.04231e-06
2 19 17 100 8.82915e-05
3 19 17 100 0.000203809
4 19 17 100 0.0608085
5 19 17 100 0.0341846
6 19 17 100 0.166756
7 19 17 100 0.00112997
8 19 17 100 0.0625001
10 19 17 100 0.0657104
11 19 17 100 0.0597484
12 19 17 100 0.0313106
13 19 17 100 0.0704185
14 19 17 100 0.0331663
15 19 17 100 0.0623509
16 19 17 100 0.126193
17 19 17 100 0.0623406
0 20 17 100 0.283453
2 20 17 100 0.00385359
3 20 17 100 4.84721e-05
4 20 17 100 0.0525527
5 20 17 100 1.41005e-05
6 20 17 100 0.0970268
7 20 17 100 0.0475335
8 20 17 100 5.57385e-06
9 20 17 100 0.0530623
10 20 17 100 0.0582418
11 20 17 100 0.0476245
12 20 17 100 0.00973818
13 20 17 100 0.0913523
14 20 17 100 0.0032824
15 20 17 100 0.0457703
16 20 17 100 0.115621
17 20 17 100 0.0908199
0 21 17 100 0.224158
1 21 17 100 0.00137967
3 21 17 100 0.0666676
4 21 17 100 0.000169545
5 21 17 100 2.01977e-05
6 21 17 100 0.170844
7 21 17 100 0.0699493
8 21 17 100 1.29281e-05
9 21 17 100 0.133259
10 21 17 100 0.00626782
11 21 17 100 0.133334
12 21 17 100 3.15355e-05
13 21 17 100 3.91949e-06
14 21 17 100 0.0626908
16 21 17 100 0.127341
17 21 17 100 0.00387129
0 22 17 100 0.0158402
2 22 17 100 0.00977774
4 22 17 100 0.136376
7 22 17 100 0.148539
9 22 17 100 0.142472
10 22 17 100 5.76538e-05
11 22 17 100 9.78914e-05
12 22 17 100 0.123588
14 22 17 100 0.142857
15 22 17 100 0.000420507
16 22 17 100 0.279974
0 23 17 100 0.288775
4 23 17 100 0.164041
6 23 17 100 0.0441305
7 23 17 100 0.166648
10 23 17 100 0.166667
12 23 17 100 0.0190731
15 23 17 100 0.000372756
16 23 17 100 0.150292
0 24 17 100 0.25
7 24 17 100 0.25
10 24 17 100 0.25
16 24 17 100 0.25
7 25 17 100 0.25
10 25 17 100 0.249996
11 25 17 100 0.25
14 25 17 100 0.25
16 25 17 100 3.26051e-06
0 26 17 100 0.00160633
7 26 17 100 0.25
10 26 17 100 0.179579
11 26 17 100 0.25
14 26 17 100 0.25
17 26 17 100 0.0688146
10 27 17 100 1
10 28 17 100 1
0 1 18 100 0.120836
1 1 18 100 0.559384
2 1 18 100 0.0666295
3 1 18 100 0.0415399
4 1 18 100 0.028358
5 1 18 100 0.0287772
6 1 18 100 0.0294836
7 1 18 100 0.00310865
8 1 18 100 0.0100431
9 1 18 100 0.0134097
10 1 18 100 0.000829677
11 1 18 100 0.0136766
12 1 18 100 0.00131561
13 1 18 100 0.0123116
14 1 18 100 0.00921535
15 1 18 100 0.00505548
16 1 18 100 0.0298576
17 1 18 100 0.00690606
18 1 18 100 0.019262
0 2 18 100 0.0805186
1 2 18 100 0.204418
2 2 18 100 0.183032
3 2 18 100 0.132861
4 2 18 100 0.0736236
5 2 18 100 0.108694
6 2 18 100 0.0592848
7 2 18 100 0.0145086
8 2 18 100 0.0225542
9 2 18 100 0.00645967
10 2 18 100 0.00744586
11 2 18 100 0.0247662
12 2 18 100 0.00421638
13 2 18 100 0.00694764
14 2 18 100 0.0164904
15 2 18 100 0.00307548
16 2 18 100 0.0334027
17 2 18 100 0.00909007
18 2 18 100 0.00861115
0 3 18 100 0.0739633
1 3 18 100 0.103527
2 3 18 100 0.167358
3 3 18 100 0.13721
4 3 18 100 0.0741855
5 3 18 100 0.147703
6 3 18 100 0.0312882
7 3 18 100 0.0594721
8 3 18 100 0.0321219
9 3 18 100 0.0268603
10 3 18 100 0.0313414
11 3 18 100 0.0177374
12 3 18 100 0.00755324
13 3 18 100 0.00342699
14 3 18 100 0.0257805
15 3 18 100 0.0138191
16 3 18 100 0.0192664
17 3 18 100 0.0136196
18 3 18 100 0.0137669
0 4 18 100 0.145804
1 4 18 100 0.0297422
2 4 18 100 0.0354074
3 4 18 100 0.1279
4 4 18 100 0.0835676
5 4 18 100 0.152407
6 4 18 100 0.0855113
7 4 18 100 0.0714851
8 4 18 100 0.0428414
9 4 18 100 0.0386483
10 4 18 100 0.0345214
11 4 18 100 0.0364769
12 4 18 100 0.00818172
13 4 18 100 0.015479
14 4 18 100 0.0209607
15 4 18 100 0.0145075
16 4 18 100 0.0147978
17 4 18 100 0.013979
18 4 18 100 0.0277815
0 5 18 100 0.156191
1 5 18 100 0.0353969
2 5 18 100 0.0356486
3 5 18 100 0.0408602
4 5 18 100 0.0581575
5 5 18 100 0.10523
6 5 18 100 0.107556
7 5 18 100 0.0632095
8 5 18 100 0.0504901
9 5 18 100 0.0675475
10 5 18 100 0.0571082
11 5 18 100 0.0542474
12 5 18 100 0.0330535
13 5 18 100 0.0500554
14 5 18 100 0.0210364
15 5 18 100 0.0139131
16 5 18 100 0.0139561
17 5 18 100 0.0222195
18 5 18 100 0.0141227
0 6 18 100 0.158142
1 6 18 100 0.0141472
2 6 18 100 0.0332487
3 6 18 100 0.047663
4 6 18 100 0.039212
5 6 18 100 0.123582
6 6 18 100 0.0881358
7 6 18 100 0.0577584
8 6 18 100 0.072013
9 6 18 100 0.0565385
10 6 18 100 0.0627219
11 6 18 100 0.0802276
12 6 18 100 0.034536
13 6 18 100 0.0280443
14 6 18 100 0.0141903
15 6 18 100 0.020644
16 6 18 100 0.00673915
17 6 18 100 0.0209592
18 6 18 100 0.0414977
0 7 18 100 0.116976
1 7 18 100 0.0133967
2 7 18 100 0.0275557
3 7 18 100 0.0545831
4 7 18 100 0.0423794
5 7 18 100 0.0922438
6 7 18 100 0.0924044
7 7 18 100 0.0777028
8 7 18 100 0.0678258
9 7 18 100 0.0429701
10 7 18 100 0.088083
11 7 18 100 0.0414955
12 7 18 100 0.0333337
13 7 18 100 0.0514161
14 7 18 100 0.0218209
15 7 18 100 0.0513072
16 7 18 100 0.0350751
17 7 18 100 0.0296074
18 7 18 100 0.0198233
0 8 18 100 0.122989
1 8 18 100 0.00773623
2 8 18 100 0.0159578
3 8 18 100 0.0296743
4 8 18 100 0.0227963
5 8 18 100 0.0646078
6 8 18 100 0.0564997
7 8 18 100 0.0879754
8 8 18 100 0.0634657
9 8 18 100 0.066373
10 8 18 100 0.04677
11 8 18 100 0.0829068
12 8 18 100 0.0673695
13 8 18 100 0.0645617
14 8 18 100 0.0431847
15 8 18 100 0.038705
16 8 18 100 0.0392142
17 8 18 100 0.0299211
18 8 18 100 0.0492922
0 9 18 100 0.119306
1 9 18 100 0.0150192
2 9 18 100 0.00055531
3 9 18 100 0.0318614
4 9 18 100 0.0247532
5 9 18 100 0.0543267
6 9 18 100 0.0415613
7 9 18 100 0.0401031
8 9 18 100 0.0668327
9 9 18 100 0.0975992
10 9 18 100 0.0624295
11 9 18 100 0.0665506
12 9 18 100 0.0607286
13 9 18 100 0.0895253
14 9 18 100 0.0589583
15 9 18 100 0.0417789
16 9 18 100 0.0228055
17 9 18 100 0.0289745
18 9 18 100 0.0763308
0 10 18 100 0.177242
1 10 18 100 0.01529
2 10 18 100 0.0167438
3 10 18 100 0.0489503
4 10 18 100 0.0250767
5 10 18 100 0.0307043
6 10 18 100 0.0374859
7 10 18 100 0.0298186
8 10 18 100 0.0387244
9 10 18 100 0.0528909
10 10 18 100 0.0845454
11 10 18 100 0.0604203
12 10 18 100 0.062029
13 10 18 100 0.0720565
14 10 18 100 0.096984
15 10 18 100 0.0458467
16 10 18 100 0.0601793
17 10 18 100 0.0154348
18 10 18 100 0.0295771
0 11 18 100 0.147044
1 11 18 100 0.0399371
2 11 18 100 0.0211389
3 11 18 100 0.0249916
4 11 18 100 0.0311738
5 11 18 100 0.031321
6 11 18 100 0.0176608
7 11 18 100 0.0233364
8 11 18 100 0.0547796
9 11 18 100 0.0374234
10 11 18 100 0.0638255
11 11 18 100 0.0642806
12 11 18 100 0.0320023
13 11 18 100 0.0957753
14 11 18 100 0.130084
15 11 18 100 0.0466338
16 11 18 100 0.039315
17 11 18 100 0.0432196
18 11 18 100 0.0560569
0 12 18 100 0.258842
1 12 18 100 0.0255682
2 12 18 100 0.0166071
3 12 18 100 0.023041
4 12 18 100 0.0403598
5 12 18 100 0.0420789
6 12 18 100 0.0228714
7 12 18 100 0.0162284
8 12 18 100 0.0175561
9 12 18 100 0.0429697
10 12 18 100 0.0726831
11 12 18 100 0.0474725
12 12 18 100 0.0100227
13 12 18 100 0.0580143
14 12 18 100 0.0856566
15 12 18 100 0.0552368
16 12 18 100 0.0782428
17 12 18 100 0.0488789
18 12 18 100 0.0376694
0 13 18 100 0.138008
1 13 18 100 0.0327752
2 13 18 100 0.0159596
3 13 18 100 0.0245746
4 13 18 100 0.0433211
5 13 18 100 0.0841575
6 13 18 100 0.0170019
7 13 18 100 0.0333432
8 13 18 100 0.0248699
9 13 18 100 0.0354144
10 13 18 100 0.0137238
11 13 18 100 0.0614549
12 13 18 100 0.0288355
13 13 18 100 0.10354
14 13 18 100 0.0990263
15 13 18 100 0.0628095
16 13 18 100 0.0828226
17 13 18 100 0.0477884
18 13 18 100 0.0505726
0 14 18 100 0.185869
1 14 18 100 0.0283618
2 14 18 100 0.009685
3 14 18 100 0.0239019
4 14 18 100 0.0344953
5 14 18 100 0.027415
6 14 18 100 0.0180141
7 14 18 100 0.0201702
8 14 18 100 0.0140866
9 14 18 100 0.0105927
10 14 18 100 0.0181124
11 14 18 100 0.0588141
12 14 18 100 0.0341061
13 14 18 100 0.0651995
14 14 18 100 0.110113
15 14 18 100 0.091888
16 14 18 100 0.0750618
17 14 18 100 0.0904964
18 14 18 100 0.0836167
0 15 18 100 0.167313
1 15 18 100 0.0113643
2 15 18 100 0.0210966
3 15 18 100 0.013167
4 15 18 100 0.040741
5 15 18 100 0.0634845
6 15 18 100 0.0411101
7 15 18 100 0.0143769
8 15 18 100 0.0109239
9 15 18 100 0.00994909
10 15 18 100 0.0527147
11 15 18 100 0.0623885
12 15 18 100 0.0119233
13 15 18 100 0.0740267
14 15 18 100 0.0891807
15 15 18 100 0.132207
16 15 18 100 0.0676868
17 15 18 100 0.0500742
18 15 18 100 0.0662718
0 16 18 100 0.180553
1 16 18 100 0.0687987
2 16 18 100 0.0225359
3 16 18 100 0.000224774
4 16 18 100 0.0112675
5 16 18 100 0.0475949
6 16 18 100 0.0358623
7 16 18 100 0.0390209
8 16 18 100 7.627e-06
9 16 18 100 0.0209733
10 16 18 100 0.0371871
11 16 18 100 0.0340216
12 16 18 100 0.00021735
13 16 18 100 0.0873465
14 16 18 100 0.0784115
15 16 18 100 0.173489
16 16 18 100 0.0570022
17 16 18 100 0.0648753
18 16 18 100 0.0406099
0 17 18 100 0.182518
1 17 18 100 0.067459
2 17 18 100 0.0138967
3 17 18 100 0.0010309
4 17 18 100 0.00112781
5 17 18 100 0.0579483
6 17 18 100 0.0212905
7 17 18 100 0.0365807
8 17 18 100 2.16655e-06
9 17 18 100 0.0194022
10 17 18 100 0.053138
11 17 18 100 0.0354668
12 17 18 100 0.00194775
13 17 18 100 0.0549792
14 17 18 100 0.119779
15 17 18 100 0.161122
16 17 18 100 0.073161
17 17 18 100 0.0561556
18 17 18 100 0.0429945
0 18 18 100 0.162574
1 18 18 100 0.084802
2 18 18 100 0.0335789
3 18 18 100 0.0167661
4 18 18 100 1.10915e-05
5 18 18 100 0.0665747
6 18 18 100 0.050943
7 18 18 100 3.77156e-05
8 18 18 100 8.96642e-05
9 18 18 100 6.3716e-05
10 18 18 100 0.0541875
11 18 18 100 0.0435723
12 18 18 100 6.30674e-05
13 18 18 100 0.0736854
14 18 18 100 0.0341613
15 18 18 100 0.173761
16 18 18 100 0.0964382
17 18 18 100 0.0601711
18 18 18 100 0.0485191
0 19 18 100 0.0791827
1 19 18 100 0.0697889
2 19 18 100 0.0199237
3 19 18 100 8.05109e-05
4 19 18 100 7.69659e-05
5 19 18 100 0.0748895
6 19 18 100 0.0233493
7 19 18 100 0.0674344
8 19 18 100 3.68628e-05
9 19 18 100 9.81967e-06
10 19 18 100 0.0716832
11 19 18 100 0.0232553
12 19 18 100 0.0454728
13 19 18 100 0.139432
14 19 18 100 0.0667312
15 19 18 100 0.11276
16 19 18 100 0.0671389
17 19 18 100 0.114007
18 19 18 100 0.0247464
0 20 18 100 0.120292
1 20 18 100 1.35026e-05
3 20 18 100 1.11962e-05
4 20 18 100 4.37247e-06
5 20 18 100 5.80614e-07
6 20 18 100 0.117301
7 20 18 100 0.0555836
8 20 18 100 3.12205e-05
9 20 18 100 3.99114e-06
10 20 18 100 0.109278
11 20 18 100 0.0673638
12 20 18 100 0.0015039
13 20 18 100 0.111854
14 20 18 100 0.000361503
15 20 18 100 0.173219
17 20 18 100 0.204097
18 20 18 100 0.0390818
0 21 18 100 0.315249
1 21 18 100 0.0909434
4 21 18 100 1.22965e-05
5 21 18 100 0.0909007
6 21 18 100 0.0999101
7 21 18 100 0.0909092
8 21 18 100 6.49169e-06
9 21 18 100 0.000731832
10 21 18 100 0.0890861
12 21 18 100 0.00182645
13 21 18 100 0.0909691
14 21 18 100 0.000463443
15 21 18 100 0.0909093
16 21 18 100 0.0272923
17 21 18 100 0.0107898
0 22 18 100 0.00148793
3 22 18 100 0.000208341
6 22 18 100 0.142857
7 22 18 100 0.140736
10 22 18 100 0.140459
11 22 18 100 0.144767
12 22 18 100 2.4276e-06
13 22 18 100 0.00213442
14 22 18 100 0.00239798
15 22 18 100 0.143122
17 22 18 100 0.281828
0 23 18 100 0.399948
10 23 18 100 0.195661
12 23 18 100 0.00432392
13 23 18 100 0.2
15 23 18 100 0.2
16 23 18 100 4.89483e-05
18 23 18 100 1.73689e-05
0 24 18 100 0.325762
7 24 18 100 0.00757137
10 24 18 100 0.333289
11 24 18 100 0.333333
18 24 18 100 4.44005e-05
11 25 18 100 1
0 26 18 100 0.99995
11 26 18 100 5.03519e-05
0 1 19 100 0.0736809
1 1 19 100 0.640607
2 1 19 100 0.0486226
3 1 19 100 0.0623271
4 1 19 100 0.0221284
5 1 19 100 0.0433674
6 1 19 100 0.000836277
7 1 19 100 0.0103402
8 1 19 100 0.0109103
9 1 19 100 0.00106633
10 1 19 100 0.0117957
11 1 19 100 0.0032077
12 1 19 100 0.00387334
13 1 19 100 0.00640031
14 1 19 100 0.011062
15 1 19 100 0.00193854
16 1 19 100 0.0222606
17 1 19 100 0.0126293
18 1 19 100 0.00099849
19 1 19 100 0.0119481
0 2 19 100 0.138874
1 2 19 100 0.196074
2 2 19 100 0.104925
3 2 19 100 0.134119
4 2 19 100 0.103782
5 2 19 100 0.0589025
6 2 19 100 0.0314681
7 2 19 100 0.0525857
8 2 19 100 0.00070606
9 2 19 100 0.028824
10 2 19 100 0.0117989
11 2 19 100 0.0213174
12 2 19 100 0.000443754
13 2 19 100 0.0188747
14 2 19 100 0.0273691
15 2 19 100 0.00292353
16 2 19 100 0.023823
17 2 19 100 0.0209278
18 2 19 100 0.0117124
19 2 19 100 0.0105485
0 3 19 100 0.104004
1 3 19 100 0.0893602
2 3 19 100 0.118306
3 3 19 100 0.113389
4 3 19 100 0.0253522
5 3 19 100 0.0734237
6 3 19 100 0.102127
7 3 19 100 0.084796
8 3 19 100 0.0438412
9 3 19 100 0.0403891
10 3 19 100 0.038947
11 3 19 100 0.0103877
12 3 19 100 0.019934
13 3 19 100 0.0105901
14 3 19 100 0.0378391
15 3 19 100 0.00137242
16 3 19 100 0.00181404
17 3 19 100 0.0317456
18 3 19 100 0.041949
19 3 19 100 0.0104326
0 4 19 100 0.126177
1 4 19 100 0.120596
2 4 19 100 0.0346496
3 4 19 100 0.1045
4 4 19 100 0.085913
5 4 19 100 0.072285
6 4 19 100 0.0791778
7 4 19 100 0.022439
8 4 19 100 0.0674936
9 4 19 100 0.0544606
10 4 19 100 1.56359e-05
11 4 19 100 0.0396735
12 4 19 100 0.0195039
13 4 19 100 0.0115535
14 4 19 100 0.0229294
15 4 19 100 0.01044
16 4 19 100 0.0290686
17 4 19 100 0.0314112
18 4 19 100 0.0607338
19 4 19 100 0.00697881
0 5 19 100 0.178506
1 5 19 100 0.0426915
2 5 19 100 0.00969087
3 5 19 100 0.0653246
4 5 19 100 0.0709349
5 5 19 100 0.1023
6 5 19 100 0.0780902
7 5 19 100 0.0642288
8 5 19 100 0.0416531
9 5 19 100 0.082548
10 5 19 100 0.0529004
11 5 19 100 0.0410105
12 5 19 100 0.0120482
13 5 19 100 0.000503336
14 5 19 100 0.0313998
15 5 19 100 0.0215003
16 5 19 100 0.0178776
17 5 19 100 0.0198155
18 5 19 100 0.045619
19 5 19 100 0.0213584
0 6 19 100 0.127474
1 6 19 100 0.0208881
2 6 19 100 0.0308752
3 6 19 100 0.0828651
4 6 19 100 0.0426199
5 6 19 100 0.0732599
6 6 19 100 0.0701962
7 6 19 100 0.0752696
8 6 19 100 0.0483371
9 6 19 100 0.121683
10 6 19 100 0.0497803
11 6 19 100 0.059558
12 6 19 100 0.0201167
13 6 19 100 0.00170553
14 6 19 100 0.0307238
15 6 19 100 0.0206865
16 6 19 100 0.0110009
17 6 19 100 0.0312731
18 6 19 100 0.0509294
19 6 19 100 0.0307581
0 7 19 100 0.177092
1 7 19 100 0.0108702
2 7 19 100 0.0104651
3 7 19 100 0.0508591
4 7 19 100 0.0286477
5 7 19 100 0.040235
6 7 19 100 0.0499111
7 7 19 100 0.102828
8 7 19 100 0.0532783
9 7 19 100 0.0745258
10 7 19 100 0.101003
11 7 19 100 0.031346
12 7 19 100 0.058032
13 7 19 100 0.0196061
14 7 19 100 0.0346988
15 7 19 100 0.0209198
16 7 19 100 0.0208469
17 7 19 100 0.0317236
18 7 19 100 0.0429235
19 7 19 100 0.0401884
0 8 19 100 0.208343
1 8 19 100 0.0117287
2 8 19 100 0.00140989
3 8 19 100 0.0220486
4 8 19 100 0.0313089
5 8 19 100 0.0947229
6 8 19 100 0.031506
7 8 19 100 0.044395
8 8 19 100 0.0298228
9 8 19 100 0.109809
10 8 19 100 0.0748353
11 8 19 100 0.0434129
12 8 19 100 0.0133267
13 8 19 100 0.0026581
14 8 19 100 0.0350785
15 8 19 100 0.0508318
16 8 19 100 0.0012527
17 8 19 100 0.0587866
18 8 19 100 0.100074
19 8 19 100 0.0346487
0 9 19 100 0.15828
1 9 19 100 0.0316398
2 9 19 100 0.00116844
3 9 19 100 0.0140031
4 9 19 100 0.0223482
5 9 19 100 0.0289461
6 9 19 100 0.0556885
7 9 19 100 0.0645167
8 9 19 100 0.0312235
9 9 19 100 0.040686
10 9 19 100 0.0736016
11 9 19 100 0.0647814
12 9 19 100 0.063695
13 9 19 100 1.09143e-05
14 9 19 100 0.0772735
15 9 19 100 0.0704478
16 9 19 100 0.0345259
17 9 19 100 0.0444867
18 9 19 100 0.0555839
19 9 19 100 0.0670931
0 10 19 100 0.109747
1 10 19 100 0.0998962
2 10 19 100 0.0127269
3 10 19 100 0.00030279
4 10 19 100 0.0234329
5 10 19 100 0.0566974
6 10 19 100 0.0122432
7 10 19 100 0.0301944
8 10 19 100 0.0437224
9 10 19 100 0.0625228
10 10 19 100 0.0655297
11 10 19 100 0.0626349
12 10 19 100 0.0247324
13 10 19 100 0.0110251
14 10 19 100 0.0750894
15 10 19 100 0.100652
16 10 19 100 0.0447709
17 10 19 100 0.0711244
18 10 19 100 0.0371794
19 10 19 100 0.0557761
0 11 19 100 0.137152
1 11 19 100 0.0814568
2 11 19 100 2.78185e-06
3 11 19 100 0.025636
4 11 19 100 0.0235412
5 11 19 100 0.0759428
6 11 19 100 0.0349558
7 11 19 100 0.0123585
8 11 19 100 0.0376082
9 11 19 100 0.0594907
10 11 19 100 0.0129102
11 11 19 100 0.0567787
12 11 19 100 0.045988
13 11 19 100 0.0815306
14 11 19 100 0.044813
15 11 19 100 0.0796215
16 11 19 100 0.0199978
17 11 19 100 0.0236748
18 11 19 100 0.0567185
19 11 19 100 0.0898222
0 12 19 100 0.161707
1 12 19 100 0.0836998
2 12 19 100 0.0253487
3 12 19 100 0.0268716
4 12 19 100 0.0119475
5 12 19 100 0.0476697
6 12 19 100 0.0348838
7 12 19 100 0.0354879
8 12 19 100 0.0239897
9 12 19 100 0.0479125
10 12 19 100 0.0532342
11 12 19 100 0.0302832
12 12 19 100 0.000259153
13 12 19 100 0.0460648
14 12 19 100 0.0536944
15 12 19 100 0.0950668
16 12 19 100 0.0598026
17 12 19 100 0.0590625
18 12 19 100 0.0457975
19 12 19 100 0.0572172
0 13 19 100 0.131517
1 13 19 100 0.100384
2 13 19 100 0.0380127
3 13 19 100 0.0240104
4 13 19 100 0.000196771
5 13 19 100 0.0995146
6 13 19 100 0.0383251
7 13 19 100 0.0256997
8 13 19 100 0.0251995
9 13 19 100 0.0765821
10 13 19 100 0.0129702
11 13 19 100 0.0144744
12 13 19 100 0.0117873
13 13 19 100 0.0509776
14 13 19 100 0.0383864
15 13 19 100 0.109433
16 13 19 100 0.0630662
17 13 19 100 0.0632881
18 13 19 100 0.0378366
19 13 19 100 0.0383382
0 14 19 100 0.120277
1 14 19 100 0.114966
2 14 19 100 3.34227e-05
3 14 19 100 0.0266839
4 14 19 100 0.0265108
5 14 19 100 0.0635002
6 14 19 100 0.0390158
7 14 19 100 0.0523184
8 14 19 100 0.0542277
9 14 19 100 0.0689097
10 14 19 100 0.0140069
11 14 19 100 0.00358263
12 14 19 100 0.00200317
13 14 19 100 0.0425547
14 14 19 100 0.0593407
15 14 19 100 0.0359292
16 14 19 100 0.0680864
17 14 19 100 0.0892862
18 14 19 100 0.0653906
19 14 19 100 0.053376
0 15 19 100 0.111503
1 15 19 100 0.139909
2 15 19 100 8.91249e-05
3 15 19 100 0.00278454
4 15 19 100 0.0317666
5 15 19 100 0.0413777
6 15 19 100 0.032639
7 15 19 100 0.0356238
8 15 19 100 0.000336747
9 15 19 100 0.148306
10 15 19 100 0.00201849
11 15 19 100 0.000598951
12 15 19 100 0.0318377
13 15 19 100 0.0232141
14 15 19 100 0.0458811
15 15 19 100 0.0610788
16 15 19 100 0.0969616
17 15 19 100 0.0582566
18 15 19 100 0.0994101
19 15 19 100 0.0364078
0 16 19 100 0.129376
1 16 19 100 0.0943509
2 16 19 100 0.020142
3 16 19 100 0.0328762
4 16 19 100 0.0188685
5 16 19 100 0.037674
6 16 19 100 0.0767357
7 16 19 100 0.0198471
8 16 19 100 0.000191108
9 16 19 100 0.0757131
10 16 19 100 0.0377561
11 16 19 100 0.0236571
12 16 19 100 3.40043e-05
13 16 19 100 0.0382868
14 16 19 100 0.0554898
15 16 19 100 0.0144255
16 16 19 100 0.132058
17 16 19 100 0.0602343
18 16 19 100 0.0894779
19 16 19 100 0.0428066
0 17 19 100 0.195636
1 17 19 100 0.0539414
2 17 19 100 0.0256421
3 17 19 100 0.0171763
4 17 19 100 0.0256377
5 17 19 100 0.0578126
6 17 19 100 0.0258448
7 17 19 100 0.0249773
8 17 19 100 0.0187374
9 17 19 100 0.102766
10 17 19 100 0.0513349
11 17 19 100 0.00567542
12 17 19 100 0.00229151
13 17 19 100 0.0256723
14 17 19 100 0.0251972
15 17 19 100 0.00039259
16 17 19 100 0.0780687
17 17 19 100 0.0265564
18 17 19 100 0.0256636
19 17 19 100 0.210975
0 18 19 100 0.150282
1 18 19 100 2.99049e-05
2 18 19 100 0.0290614
3 18 19 100 0.0175202
4 18 19 100 1.36725e-05
5 18 19 100 0.00260369
6 18 19 100 0.123903
7 18 19 100 0.00440601
8 18 19 100 5.53286e-05
9 18 19 100 0.123048
10 18 19 100 0.000623763
11 18 19 100 0.000602053
12 18 19 100 0.000261717
13 18 19 100 0.000837851
14 18 19 100 1.60923e-05
15 18 19 100 0.00300347
16 18 19 100 0.262035
17 18 19 100 0.0999403
18 18 19 100 0.150507
19 18 19 100 0.03125
0 19 19 100 0.0558435
4 19 19 100 0.0543379
5 19 19 100 0.0527304
6 19 19 100 0.0597157
7 19 19 100 0.000233893
8 19 19 100 0.0421121
9 19 19 100 0.00325462
11 19 19 100 0.00053134
12 19 19 100 0.208243
14 19 19 100 0.000797742
15 19 19 100 0.00887624
16 19 19 100 0.210016
18 19 19 100 0.250573
19 19 19 100 0.0527345
0 20 19 100 0.212457
2 20 19 100 6.51579e-05
4 20 19 100 0.0152254
5 20 19 100 0.0713646
6 20 19 100 0.0730923
7 20 19 100 0.0714367
8 20 19 100 0.000333669
9 20 19 100 0.0730827
11 20 19 100 0.126797
12 20 19 100 0.00315196
13 20 19 100 0.143359
15 20 19 100 0.00798121
16 20 19 100 0.0682296
17 20 19 100 0.00405858
18 20 19 100 0.0623033
19 20 19 100 0.0670627
0 21 19 100 0.222262
1 21 19 100 1.49946e-06
2 21 19 100 0.222223
3 21 19 100 0.110754
5 21 19 100 2.47485e-06
6 21 19 100 0.111109
8 21 19 100 0.000314413
16 21 19 100 0.00340115
19 21 19 100 0.329933
0 22 19 100 0.269505
10 22 19 100 0.000350068
15 22 19 100 0.332133
16 22 19 100 0.0153339
19 22 19 100 0.382677
0 23 19 100 0.498536
5 23 19 100 0.5
14 23 19 100 0.00146448
5 24 19 100 0.5
15 24 19 100 0.5
15 25 19 100 1
0 1 20 100 0.136146
1 1 20 100 0.497219
2 1 20 100 0.0418405
3 1 20 100 0.0742894
4 1 20 100 0.0169891
5 1 20 100 0.124392
6 1 20 100 0.0272612
7 1 20 100 0.017064
8 1 20 100 0.0159329
9 1 20 100 0.000637578
10 1 20 100 0.011987
11 1 20 100 0.0141998
12 1 20 100 0.000111844
13 1 20 100 0.00220866
14 1 20 100 0.017137
15 1 20 100 0.000932802
16 1 20 100 0.00131313
17 1 20 100 1.22644e-05
18 1 20 100 0.000141975
19 1 20 100 0.000154431
20 1 20 100 2.9596e-05
0 2 20 100 0.083144
1 2 20 100 0.165025
2 2 20 100 0.206535
3 2 20 100 0.104415
4 2 20 100 0.0705861
5 2 20 100 0.083423
6 2 20 100 0.0287609
7 2 20 100 0.0422454
8 2 20 100 0.043497
9 2 20 100 0.00245151
10 2 20 100 0.0131398
11 2 20 100 0.0326839
12 2 20 100 0.0536207
13 2 20 100 0.000707998
14 2 20 100 0.01297
15 2 20 100 0.00143754
16 2 20 100 0.013234
17 2 20 100 0.0281358
18 2 20 100 0.000222903
19 2 20 100 0.0135021
20 2 20 100 0.000262215
0 3 20 100 0.0969572
1 3 20 100 0.0964459
2 3 20 100 0.0994079
3 3 20 100 0.0432757
4 3 20 100 0.0840167
5 3 20 100 0.0805807
6 3 20 100 0.0737538
7 3 20 100 0.124723
8 3 20 100 0.0502257
9 3 20 100 0.0349861
10 3 20 100 0.0279572
11 3 20 100 0.0265589
12 3 20 100 0.0210662
13 3 20 100 0.0139017
14 3 20 100 0.0132363
15 3 20 100 0.0256511
16 3 20 100 0.0024663
17 3 20 100 0.0569852
18 3 20 100 0.0138854
19 3 20 100 0.0132419
20 3 20 100 0.000677321
0 4 20 100 0.152052
1 4 20 100 0.042804
2 4 20 100 0.0639734
3 4 20 100 0.0473929
4 4 20 100 0.10175
5 4 20 100 0.100057
6 4 20 100 0.0902827
7 4 20 100 0.0429996
8 4 20 100 0.0799286
9 4 20 100 0.0689612
10 4 20 100 0.057893
11 4 20 100 0.0429034
12 4 20 100 0.000157903
13 4 20 100 0.000915197
14 4 20 100 0.0140646
15 4 20 100 0.0402629
16 4 20 100 8.46659e-05
17 4 20 100 0.0418489
18 4 20 100 2.41494e-05
19 4 20 100 0.000360928
20 4 20 100 0.0112834
0 5 20 100 0.0997634
1 5 20 100 0.0458507
2 5 20 100 0.00404385
3 5 20 100 0.014943
4 5 20 100 0.0769391
5 5 20 100 0.112127
6 5 20 100 0.163877
7 5 20 100 0.112013
8 5 20 100 0.0508164
9 5 20 100 0.0966187
10 5 20 100 0.0401085
11 5 20 100 0.0713399
12 5 20 100 0.0274021
13 5 20 100 9.3512e-05
14 5 20 100 0.0152854
15 5 20 100 0.0348442
16 5 20 100 0.00562909
17 5 20 100 0.0138015
18 5 20 100 0.000296926
19 5 20 100 0.000315899
20 5 20 100 0.0138905
0 6 20 100 0.16716
1 6 20 100 0.0461358
2 6 20 100 0.0253351
3 6 20 100 0.0355396
4 6 20 100 0.0425638
5 6 20 100 0.0895939
6 6 20 100 0.101247
7 6 20 100 0.0939912
8 6 20 100 0.0767419
9 6 20 100 0.0655039
10 6 20 100 0.0431371
11 6 20 100 0.0883094
12 6 20 100 0.0142463
13 6 20 100 0.00383035
14 6 20 100 0.00238739
15 6 20 100 0.0389052
16 6 20 100 0.0172133
17 6 20 100 0.0154431
18 6 20 100 0.0140882
19 6 20 100 0.0186131
20 6 20 100 1.49386e-05
0 7 20 100 0.212301
1 7 20 100 0.023251
2 7 20 100 0.0154793
3 7 20 100 0.013983
4 7 20 100 0.0147536
5 7 20 100 0.0142781
6 7 20 100 0.0827989
7 7 20 100 0.0564854
8 7 20 100 0.0277327
9 7 20 100 0.0525327
10 7 20 100 0.128068
11 7 20 100 0.0710547
12 7 20 100 0.0701411
13 7 20 100 0.0150167
14 7 20 100 0.0566668
15 7 20 100 0.0416786
16 7 20 100 5.98227e-06
17 7 20 100 0.0298729
18 7 20 100 0.0148542
19 7 20 100 0.0302483
20 7 20 100 0.0287971
0 8 20 100 0.163512
1 8 20 100 0.0233218
2 8 20 100 0.0391569
3 8 20 100 0.0452939
4 8 20 100 0.0302044
5 8 20 100 0.0434802
6 8 20 100 0.0301577
7 8 20 100 0.0434959
8 8 20 100 0.0438356
9 8 20 100 0.0313461
10 8 20 100 0.046338
11 8 20 100 0.0565752
12 8 20 100 0.0554985
13 8 20 100 0.0811596
14 8 20 100 0.0512365
15 8 20 100 0.0434668
16 8 20 100 0.000700648
17 8 20 100 0.0590963
18 8 20 100 0.0448497
19 8 20 100 0.0284204
20 8 20 100 0.038854
0 9 20 100 0.17095
1 9 20 100 0.0483202
2 9 20 100 0.0107227
3 9 20 100 0.0280294
4 9 20 100 6.58657e-05
5 9 20 100 0.00174943
6 9 20 100 0.0435709
7 9 20 100 0.0569465
8 9 20 100 0.0464638
9 9 20 100 0.0374213
10 9 20 100 0.0302164
11 9 20 100 0.0952601
12 9 20 100 0.0895857
13 9 20 100 0.060319
14 9 20 100 0.05569
15 9 20 100 0.0673023
16 9 20 100 0.0343812
17 9 20 100 0.030245
18 9 20 100 0.000346947
19 9 20 100 0.0778109
20 9 20 100 0.0146021
0 10 20 100 0.304245
1 10 20 100 0.0148829
2 10 20 100 0.0114159
3 10 20 100 0.029009
4 10 20 100 0.0136705
5 10 20 100 0.0145909
6 10 20 100 0.0436159
7 10 20 100 0.0301043
8 10 20 100 0.0160765
9 10 20 100 0.103477
10 10 20 100 0.0284921
11 10 20 100 0.0323107
12 10 20 100 0.0203342
13 10 20 100 0.0127361
14 10 20 100 0.0733275
15 10 20 100 0.0580235
16 10 20 100 0.0366567
17 10 20 100 0.0406389
18 10 20 100 0.00103646
19 10 20 100 0.0714253
20 10 20 100 0.0439311
0 11 20 100 0.191788
1 11 20 100 1.54967e-07
2 11 20 100 0.029838
3 11 20 100 0.0161889
4 11 20 100 0.0438706
5 11 20 100 0.0206579
6 11 20 100 0.056485
7 11 20 100 0.0145977
8 11 20 100 0.0295034
9 11 20 100 0.0369921
10 11 20 100 0.0303384
11 11 20 100 0.0401207
12 11 20 100 0.0886
13 11 20 100 0.0594359
14 11 20 100 0.0725004
15 11 20 100 0.0868796
16 11 20 100 0.0407444
17 11 20 100 0.0496381
18 11 20 100 0.0193973
19 11 20 100 0.043432
20 11 20 100 0.0289917
0 12 20 100 0.0768524
1 12 20 100 0.000734896
2 12 20 100 0.0198304
3 12 20 100 0.0323079
4 12 20 100 0.0273551
5 12 20 100 7.82962e-05
6 12 20 100 0.0448509
7 12 20 100 0.00182581
8 12 20 100 0.0295802
9 12 20 100 0.0675955
10 12 20 100 0.0446265
11 12 20 100 0.0807337
12 12 20 100 0.0549242
13 12 20 100 0.0565679
14 12 20 100 0.0610052
15 12 20 100 0.107337
16 12 20 100 0.0299643
17 12 20 100 0.154454
18 12 20 100 0.0017187
19 12 20 100 0.0609103
20 12 20 100 0.0467467
0 13 20 100 0.196213
1 13 20 100 0.0153886
2 13 20 100 0.00491465
3 13 20 100 0.0613516
4 13 20 100 0.022986
5 13 20 100 0.0156314
6 13 20 100 0.0624658
7 13 20 100 1.93492e-05
8 13 20 100 0.0151065
9 13 20 100 0.0616622
10 13 20 100 0.042262
11 13 20 100 0.0431288
12 13 20 100 0.0609401
13 13 20 100 0.0449827
14 13 20 100 0.0780429
15 13 20 100 0.0642792
16 13 20 100 0.0461049
17 13 20 100 0.0596273
18 13 20 100 0.00778032
19 13 20 100 0.067319
20 13 20 100 0.0297941
0 14 20 100 0.159995
1 14 20 100 0.0208121
2 14 20 100 0.0273127
3 14 20 100 0.0201066
4 14 20 100 4.04261e-06
5 14 20 100 0.0354393
6 14 20 100 0.0473024
7 14 20 100 1.45363e-06
8 14 20 100 0.0643037
9 14 20 100 0.0351549
10 14 20 100 0.0163463
11 14 20 100 0.0659574
12 14 20 100 0.0612807
13 14 20 100 0.0489228
14 14 20 100 0.0447409
15 14 20 100 0.0719128
16 14 20 100 0.0333121
17 14 20 100 0.148305
18 14 20 100 0.0333536
19 14 20 100 0.034318
20 14 20 100 0.0311179
0 15 20 100 0.142203
1 15 20 100 0.0341628
2 15 20 100 0.0177107
3 15 20 100 0.0173576
4 15 20 100 3.86845e-05
5 15 20 100 0.000846121
6 15 20 100 0.0689482
7 15 20 100 0.0156883
8 15 20 100 0.0689554
9 15 20 100 0.0517931
10 15 20 100 0.0332125
11 15 20 100 0.0331294
12 15 20 100 0.070415
13 15 20 100 0.000161799
14 15 20 100 0.0675721
15 15 20 100 0.0495802
16 15 20 100 0.0705111
17 15 20 100 0.119052
18 15 20 100 0.0350764
19 15 20 100 0.0688601
20 15 20 100 0.0347251
0 16 20 100 0.143139
1 16 20 100 0.0374859
2 16 20 100 0.00339045
3 16 20 100 0.0389159
4 16 20 100 0.000737004
5 16 20 100 0.000154754
6 16 20 100 0.0792155
7 16 20 100 0.0396143
8 16 20 100 0.0576486
9 16 20 100 0.0540885
10 16 20 100 0.0192582
11 16 20 100 0.0370447
12 16 20 100 0.0218311
13 16 20 100 0.0742195
14 16 20 100 0.0193062
15 16 20 100 0.074972
16 16 20 100 0.0222102
17 16 20 100 0.094811
18 16 20 100 0.0751517
19 16 20 100 0.0310798
20 16 20 100 0.0757254
0 17 20 100 0.184827
1 17 20 100 0.0315105
2 17 20 100 0.000117356
3 17 20 100 0.0110392
4 17 20 100 0.00273856
5 17 20 100 0.0305191
6 17 20 100 0.0317325
8 17 20 100 0.0606063
9 17 20 100 0.106556
10 17 20 100 0.0606545
11 17 20 100 0.0895165
12 17 20 100 0.0879156
13 17 20 100 0.0303223
14 17 20 100 0.000108416
15 17 20 100 0.0901247
16 17 20 100 0.000622808
17 17 20 100 0.0901702
18 17 20 100 0.0004303
19 17 20 100 0.0601825
20 17 20 100 0.0303062
0 18 20 100 0.219326
1 18 20 100 0.0368436
2 18 20 100 8.56955e-05
3 18 20 100 0.0423229
4 18 20 100 0.00270896
5 18 20 100 0.00847102
6 18 20 100 0.0748589
7 18 20 100 8.51651e-05
9 18 20 100 0.0434454
10 18 20 100 0.0948439
11 18 20 100 3.52755e-05
12 18 20 100 0.0438938
13 18 20 100 0.0122838
14 18 20 100 0.000143084
15 18 20 100 0.174845
16 18 20 100 0.0006908
17 18 20 100 0.116682
18 18 20 100 0.0364028
19 18 20 100 0.0455642
20 18 20 100 0.0464665
0 19 20 100 0.0577464
1 19 20 100 0.000606163
2 19 20 100 0.0588419
3 19 20 100 0.117441
4 19 20 100 8.36068e-06
6 19 20 100 0.165292
7 19 20 100 0.000925031
9 19 20 100 0.0586739
10 19 20 100 0.0459422
11 19 20 100 9.54e-06
12 19 20 100 0.058282
13 19 20 100 0.000643198
14 19 20 100 1.73053e-06
15 19 20 100 0.247766
16 19 20 100 0.0140403
17 19 20 100 0.0550661
18 19 20 100 0.0638436
19 19 20 100 0.0548699
0 20 20 100 0.0997892
2 20 20 100 8.09036e-05
3 20 20 100 0.201379
6 20 20 100 0.00134102
7 20 20 100 9.46931e-05
9 20 20 100 0.0999193
10 20 20 100 0.0999552
12 20 20 100 0.0985201
13 20 20 100 0.000206058
15 20 20 100 0.2
17 20 20 100 0.0987058
18 20 20 100 5.29837e-06
19 20 20 100 0.0999949
20 20 20 100 7.95991e-06
0 21 20 100 0.00887027
2 21 20 100 0.125
3 21 20 100 0.125049
4 21 20 100 0.115758
6 21 20 100 0.00826479
9 21 20 100 5.66259e-06
10 21 20 100 0.113063
12 21 20 100 0.125001
13 21 20 100 0.124995
15 21 20 100 0.124962
16 21 20 100 0.0122183
17 21 20 100 0.116741
20 21 20 100 7.18348e-05
3 22 20 100 0.00142806
11 22 20 100 1.60351e-05
12 22 20 100 0.998249
13 22 20 100 4.27594e-05
