2 0.659522 0.280786 0.0191592 0.0113237 0.00979554 0.00553228 0.00463622 0.00327249 0.00270994 0.00326239 
3 0.624921 0.319557 0.0148596 0.00873915 0.0191553 0.00435621 0.00265791 0.00204849 0.00133194 0.0023737 
4 0.738317 0.212204 0.0107961 0.00655656 0.0107407 0.00323241 0.00772775 0.0019091 0.00662932 0.00188794 
5 0.353655 0.592191 0.0249094 0.00817025 0.00706767 0.00399165 0.00334512 0.00236116 0.00195528 0.00235388 
6 0.709101 0.243875 0.0121705 0.00736553 0.00555508 0.00373381 0.00227821 0.00175883 0.0121277 0.00203462 
7 0.574874 0.332789 0.0262109 0.0162274 0.0238618 0.00741988 0.006218 0.00438898 0.00363451 0.00437545 
8 0.765352 0.194039 0.00825073 0.00602528 0.00535309 0.00306603 0.00248701 0.00362168 0.00875948 0.00304531 
9 0.327552 0.441788 0.0744484 0.0569187 0.0322815 0.0205079 0.0167757 0.00958895 0.00781603 0.0123227 
10 0.378018 0.595845 0.0176127 0.00198352 0.00168685 0.000952689 0.000798383 0.000563972 0.00197681 0.000561802 
11 0.318843 0.50363 0.0564607 0.0297497 0.0366858 0.0167215 0.0136758 0.00781708 0.00637176 0.0100457 
12 0.591371 0.400796 0.00216151 0.00150271 0.00133506 0.000764669 0.000620261 0.000477403 0.000362934 0.00060895 
13 0.555534 0.393782 0.0398248 0.00335174 0.00252756 0.00169888 0.00103659 0.000798913 0.000519458 0.000925743 
14 0.859587 0.102618 0.00851709 0.0101078 0.00501899 0.00538704 0.00472896 0.00165426 0.00108019 0.00130039 
15 0.674323 0.264333 0.0153771 0.00971396 0.00732626 0.00541407 0.0169869 0.00233633 0.00150567 0.00268331 
16 0.845939 0.131929 0.00581722 0.00583591 0.00241222 0.00324821 0.000684178 0.000513085 0.00048713 0.00313471 
17 0.80052 0.16768 0.00830564 0.0049736 0.0109902 0.00266994 0.00153568 0.00118357 0.000769567 0.00137147 
18 0.941086 0.0479535 0.00371323 0.00355668 0.00138269 0.000657643 0.000551126 0.000389013 0.000322141 0.000387813 
19 0.368789 0.574775 0.0362343 0.01219 0.00256566 0.00146943 0.00119193 0.000917406 0.000697435 0.00117019 
20 0.329709 0.434589 0.0652105 0.041078 0.0367082 0.0236629 0.0193566 0.0151892 0.0202194 0.0142772 
21 0.207638 0.652737 0.0708954 0.0200531 0.0133448 0.0100244 0.00977126 0.00419663 0.00482996 0.00650938 
22 0.271734 0.698645 0.0119838 0.0049271 0.00426218 0.00240718 0.00201729 0.00142391 0.00117913 0.00141951 
23 0.312591 0.67259 0.00648411 0.00221272 0.00196029 0.00112277 0.000910735 0.000700976 0.0005329 0.000894128 
24 0.536145 0.374537 0.0701492 0.00254862 0.013593 0.00103276 0.000630143 0.000485661 0.00031578 0.000562762 
25 0.361716 0.452315 0.0700824 0.0306926 0.0274257 0.0176792 0.0144618 0.00826634 0.00673796 0.010623 
26 0.265875 0.381264 0.0819888 0.0735442 0.0733104 0.0352536 0.0342723 0.0147195 0.0169409 0.0228314 
27 0.667638 0.269858 0.0158611 0.0110631 0.0179913 0.007939 0.00304878 0.00234974 0.00152782 0.00272277 
28 0.261846 0.40518 0.0807913 0.069257 0.0461181 0.0349915 0.0481259 0.0145032 0.0166918 0.0224957 
29 0.578772 0.40185 0.0129019 0.0020079 0.0015045 0.00101124 0.000617015 0.000475543 0.000309201 0.000551037 
30 0.419253 0.418874 0.0512667 0.0322567 0.0214797 0.0161352 0.0157277 0.00675486 0.00777425 0.0104774 
31 0.496891 0.385722 0.0322245 0.0195591 0.0169196 0.00955576 0.00800802 0.00565248 0.005471 0.0199964 
32 0.682748 0.246611 0.0270964 0.00974108 0.00683124 0.00459158 0.00280158 0.00443232 0.0126216 0.00252478 
33 0.671139 0.264269 0.0311683 0.0103253 0.00777711 0.00522734 0.00318949 0.00245819 0.00159833 0.00284844 
34 0.604031 0.378509 0.013465 0.00120409 0.000893613 0.000511825 0.000415166 0.000319546 0.000242927 0.000407596 
35 0.273917 0.377749 0.0845115 0.0724535 0.0482467 0.0362422 0.0353269 0.01747 0.0272021 0.0268811 
36 0.403457 0.545447 0.0381428 0.00362598 0.00312799 0.00176661 0.00148048 0.001045 0.00086536 0.00104177 
37 0.430286 0.304014 0.0617844 0.0529155 0.0352365 0.0377016 0.027282 0.0182434 0.0153486 0.0171877 
38 0.482686 0.384776 0.0322245 0.023526 0.037261 0.0155504 0.00800802 0.00565248 0.00468081 0.00563504 
39 0.50478 0.438708 0.0197761 0.00843725 0.00729864 0.00412209 0.00345643 0.00897227 0.00201918 0.0024308 
40 0.662158 0.298781 0.0140987 0.00770417 0.00581048 0.00390548 0.00238296 0.00183658 0.00119416 0.00212814 
41 0.480626 0.487961 0.0129701 0.00736268 0.00384678 0.00206105 0.00172722 0.00121916 0.00100959 0.0012154 
42 0.731055 0.216101 0.0131977 0.00837829 0.0063189 0.00424721 0.00259146 0.00199728 0.00130074 0.0148123 
43 0.503554 0.380811 0.0317435 0.0192671 0.016667 0.00941314 0.0078885 0.00556811 0.00936314 0.0157241 
44 0.457567 0.524611 0.0124182 0.00115629 0.000858255 0.000576951 0.0012017 0.00111927 0.000176386 0.000314344 
45 0.376446 0.554519 0.0548137 0.00397567 0.00343597 0.00194055 0.00162624 0.00114789 0.000950564 0.00114435 
46 0.474983 0.451147 0.0270304 0.0107575 0.00930576 0.00525567 0.00440441 0.00310886 0.00257466 0.0114324 
47 0.410052 0.507755 0.0276225 0.0125331 0.02055 0.00612343 0.00513136 0.00362197 0.00299935 0.0036108 
48 0.273917 0.377749 0.0849349 0.087173 0.0484884 0.0362422 0.0353269 0.0151724 0.0174622 0.0235339 
49 0.836963 0.126803 0.0160465 0.0102879 0.00364775 0.00178158 0.00149302 0.00105385 0.000872693 0.0010506 
50 0.45481 0.542818 0.00124899 0.000852659 6.02915e-05 8.91584e-05 4.25119e-05 1.51477e-05 2.57925e-05 3.67266e-05 
51 0.949531 0.0365967 0.00202652 0.00137264 0.00259132 0.00660293 0.000417501 0.000306684 0.000199408 0.000355372 
52 0.273917 0.377749 0.0845115 0.0724535 0.0482467 0.0362422 0.0398818 0.0229898 0.0204744 0.0235339 
53 0.78453 0.205788 0.00460771 0.00156608 0.0011811 0.000793871 0.000484386 0.000373324 0.000242737 0.00043259 
54 0.505325 0.37463 0.0416662 0.0198676 0.0150904 0.011451 0.0159769 0.00679198 0.00417478 0.00502585 
55 0.407867 0.585968 0.00206001 0.00167017 0.00077975 0.000446593 0.000362253 0.00027882 0.000211966 0.000355648 
56 0.870113 0.122303 0.00538268 0.000679493 0.000512169 0.000344252 0.000210047 0.000161887 0.00010526 0.000187587 
57 0.974525 0.0235855 0.00120058 0.000216137 0.000105664 0.000156271 7.45122e-05 2.655e-05 4.52075e-05 6.43721e-05 
58 0.665759 0.267011 0.019891 0.0100039 0.0095522 0.0155994 0.00548428 0.00238481 0.00155062 0.00276341 
59 0.339839 0.428031 0.0642225 0.0404556 0.036152 0.0233044 0.0216187 0.0234909 0.00888365 0.0140031 
60 0.962837 0.0327784 0.00156343 0.00155517 0.000424826 0.000226951 0.000184091 0.000141692 0.000107718 0.000180735 
61 0.973361 0.025389 0.000419273 0.000256315 0.000193313 0.000129934 7.928e-05 6.11023e-05 3.97291e-05 7.08025e-05 
62 0.193247 0.555244 0.0699788 0.0775266 0.0285231 0.0214158 0.020875 0.00896554 0.0103186 0.0139064 
63 0.196723 0.361814 0.103955 0.158483 0.0444862 0.0384399 0.0303294 0.0263975 0.0168662 0.0225055 
64 0.829416 0.128695 0.0231067 0.00653985 0.00410548 0.00231868 0.00194312 0.00137156 0.00113578 0.00136733 
65 0.923857 0.0672195 0.00846145 0.000210808 5.6219e-05 8.31451e-05 3.96447e-05 1.41261e-05 2.40529e-05 3.42496e-05 
66 0.97114 0.0229848 0.00117716 0.00227279 0.00109295 0.000359489 0.000291599 0.000224439 0.000170624 0.000286282 
67 0.707854 0.213026 0.0334715 0.0175432 0.0105966 0.0101371 0.00232941 0.00179531 0.00116732 0.00208032 
68 0.737988 0.252196 0.00515287 0.0024701 0.000151044 0.00181914 7.883e-05 2.80885e-05 4.78272e-05 6.81023e-05 
69 0.671139 0.263823 0.0162433 0.0160164 0.0174517 0.00523265 0.00318949 0.00245819 0.00159833 0.00284844 
70 0.366441 0.472008 0.072668 0.0238672 0.0209301 0.013492 0.0110366 0.00630852 0.00514213 0.00810704 
71 0.63618 0.275012 0.0281474 0.0173939 0.0221362 0.00674475 0.00480482 0.00339149 0.00280849 0.00338103 
72 0.466939 0.446971 0.049239 0.00980036 0.00870815 0.00561346 0.00459189 0.00262471 0.00213942 0.003373 
73 0.409908 0.570307 0.00645828 0.00281623 0.002124 0.00142763 0.00087108 0.000671355 0.00275918 0.00265695 
74 0.666728 0.32467 0.00267357 0.0015705 0.00139529 0.000799165 0.000648242 0.00049894 0.000379307 0.000636422 
75 0.325088 0.441472 0.0873229 0.0386988 0.0345802 0.0222911 0.0182345 0.0104228 0.00849569 0.0133942 
76 0.331253 0.447596 0.0660441 0.041078 0.0367082 0.0236629 0.0193566 0.0110642 0.0090185 0.0142185 
77 0.958947 0.0396233 0.000946423 0.000151771 7.41967e-05 0.000109733 5.23223e-05 1.86433e-05 3.17446e-05 4.52019e-05 
78 0.273917 0.377749 0.0845115 0.0783403 0.0562004 0.0377862 0.0353269 0.0151724 0.0174622 0.0235339 
79 0.168959 0.362796 0.101616 0.109435 0.0910753 0.0549982 0.0345318 0.0277038 0.0166551 0.0322306 
80 0.974939 0.0222016 0.000969625 0.000583344 0.000439958 0.000295715 0.000180433 0.000139062 9.04191e-05 0.000161139 
81 0.401202 0.476268 0.0684439 0.0220124 0.0107933 0.00606423 0.00508202 0.00358715 0.00297051 0.00357608 
82 0.425659 0.543501 0.0181395 0.0039197 0.00295621 0.001987 0.00121238 0.000934401 0.000607553 0.00108274 
83 0.211011 0.397736 0.104335 0.0847111 0.0712655 0.0433515 0.0272192 0.0218371 0.0131282 0.0254053 
84 0.476651 0.405135 0.0343228 0.0192671 0.016667 0.00955667 0.0226703 0.00556812 0.00461095 0.00555094 
85 0.426745 0.512999 0.0189993 0.0115259 0.00997046 0.00563107 0.00471901 0.00333092 0.00275833 0.00332065 
86 0.319867 0.450932 0.0637985 0.0398518 0.0356124 0.0229566 0.0187788 0.0108886 0.0235101 0.0138039 
87 0.987546 0.00945446 0.00140146 0.000900548 0.000249882 0.000152709 9.31761e-05 7.18123e-05 4.66928e-05 8.32127e-05 
88 0.50551 0.486267 0.00541955 0.000781627 0.00064735 0.000370776 0.000300754 0.000231485 0.000175981 0.00029527 
89 0.656247 0.296288 0.0155287 0.00985681 0.007434 0.00499672 0.00304878 0.00234974 0.00152782 0.00272277 
90 0.245383 0.752061 0.000933208 0.000500944 0.000377812 0.000253944 0.000154945 0.000119419 7.76469e-05 0.000138377 
91 0.215793 0.37778 0.101672 0.116663 0.0516849 0.0389738 0.0307507 0.0267642 0.0171004 0.0228181 
92 0.469121 0.451471 0.0317685 0.0133117 0.0115123 0.00650186 0.00544876 0.00384602 0.00318488 0.00383415 
93 0.288607 0.586249 0.0396981 0.0249218 0.0165928 0.0124642 0.0121495 0.00521804 0.00600551 0.00809368 
94 0.661255 0.328359 0.00412749 0.00193159 0.00145681 0.000979184 0.000597456 0.000460468 0.000299399 0.000533569 
95 0.614398 0.376532 0.00358291 0.0014539 0.0012917 0.000739831 0.000600113 0.000461896 0.000351145 0.00058917 
96 0.351909 0.448907 0.0552629 0.0346763 0.0406818 0.0232678 0.01634 0.00933989 0.00761302 0.0120026 
97 0.660971 0.320929 0.00886132 0.00244781 0.00217469 0.00124557 0.00101035 0.000777645 0.000591186 0.000991923 
98 0.51182 0.457992 0.0199063 0.00408744 0.00371131 0.000847327 0.000517 0.00039846 0.000259081 0.000461717 
99 0.363639 0.596332 0.0163156 0.0105522 0.0044138 0.00249281 0.00208905 0.00147456 0.00122108 0.00147001 
100 0.200168 0.410623 0.114122 0.0998107 0.0437769 0.042978 0.0292476 0.0237904 0.0152004 0.0202827 
101 0.158974 0.373758 0.115767 0.0870768 0.0931932 0.0566904 0.0355943 0.0285563 0.0171676 0.0332223 
102 0.460532 0.490216 0.0234267 0.00722271 0.0062385 0.00352335 0.00295268 0.00208415 0.00172588 0.00207773 
103 0.329709 0.44555 0.0696343 0.041078 0.0367082 0.0236629 0.0193566 0.0110642 0.0090185 0.0142185 
104 0.41716 0.540811 0.0277827 0.00449624 0.00328254 0.00220634 0.00134621 0.00103755 0.00067462 0.00120226 
105 0.273917 0.378081 0.0995527 0.0724652 0.0482467 0.0362422 0.0353269 0.0151724 0.0174622 0.0235339 
106 0.273917 0.377749 0.0845142 0.0875035 0.0485786 0.0362422 0.0353269 0.0151724 0.0174622 0.0235339 
107 0.672218 0.318133 0.00563429 0.00123916 0.000934403 0.000628054 0.000383211 0.000295347 0.000192036 0.000342234 
108 0.263763 0.3532 0.118534 0.0766141 0.0498324 0.0449705 0.0345265 0.0235092 0.015015 0.0200354 
109 0.478086 0.431818 0.0284861 0.017212 0.0148892 0.00840907 0.00704706 0.00497418 0.00411911 0.00495884 
110 0.345825 0.640863 0.00883681 0.00138603 0.00104015 0.00069913 0.000426579 0.000328771 0.000213769 0.000380964 
111 0.319873 0.450514 0.0642113 0.0398518 0.0356124 0.0229566 0.0187788 0.0108702 0.0235015 0.0138308 
112 0.119266 0.124215 0.0997573 0.305251 0.0967764 0.0751951 0.0881928 0.0126382 0.0435743 0.0351344 
113 0.239128 0.432604 0.0763146 0.0619668 0.0477401 0.0508124 0.0302373 0.0129764 0.0152464 0.0329739 
114 0.131769 0.278391 0.16123 0.142061 0.0831965 0.0677615 0.0521524 0.0264595 0.024747 0.0322329 
115 0.507184 0.47953 0.0070285 0.00165775 0.00147281 0.000843564 0.000684256 0.000526659 0.00040038 0.000671779 
116 0.195383 0.357964 0.0959541 0.0832349 0.0890818 0.0548859 0.0480043 0.0273255 0.0164102 0.0317566 
117 0.490112 0.390695 0.0327203 0.01986 0.0171799 0.0106325 0.0224498 0.00587578 0.00475282 0.00572174 
118 0.246836 0.425756 0.130453 0.0574553 0.0382443 0.0287286 0.028003 0.0120269 0.013842 0.0186549 
119 0.273917 0.377749 0.0845115 0.0724535 0.0502518 0.0486219 0.0363267 0.0151724 0.0174622 0.0235339 
120 0.462445 0.447588 0.0283578 0.017212 0.0148892 0.00840907 0.00704706 0.00497418 0.00411911 0.00495884 
121 0.608042 0.325605 0.0107598 0.0163733 0.03008 0.00312076 0.00190199 0.00146589 0.000953133 0.00169861 
122 0.487311 0.481656 0.0177149 0.00372132 0.00321813 0.00181752 0.00152314 0.00107511 0.000890298 0.0010718 
123 0.051996 0.195221 0.232021 0.070016 0.208208 0.0386393 0.111528 0.00810528 0.0631485 0.0211166 
124 0.447648 0.444038 0.0302493 0.0179292 0.0165209 0.0216249 0.00735285 0.00518144 0.00429074 0.00516546 
125 0.300633 0.371013 0.0934387 0.0645188 0.0429594 0.0322704 0.0319551 0.0247876 0.0174696 0.0209549 
126 0.838052 0.141001 0.00538656 0.00412256 0.00366264 0.00209781 0.00170164 0.00130972 0.000995681 0.00167061 
127 0.399117 0.525029 0.0286213 0.0125954 0.0160398 0.0052999 0.00444143 0.00313499 0.00259608 0.00312532 
128 0.434949 0.470746 0.0395531 0.0162288 0.0227151 0.00450502 0.00377521 0.00266474 0.00220667 0.00265652 
129 0.273917 0.377749 0.084539 0.0848486 0.0512086 0.0362422 0.0353269 0.0151724 0.0174622 0.0235339 
130 0.534567 0.385937 0.0224212 0.0143886 0.0169022 0.0121364 0.00456244 0.00321606 0.00266322 0.00320614 
131 0.62087 0.374386 0.00163384 0.000868707 0.000751475 0.000424415 0.000355673 0.000251052 0.000207896 0.000250278 
132 0.66603 0.270873 0.0157584 0.0100039 0.00754496 0.0050713 0.00309428 0.00238481 0.00155155 0.0176879 
133 0.740316 0.233792 0.0126503 0.00408699 0.00308239 0.00207181 0.00126413 0.000974283 0.000633485 0.00112895 
134 0.50099 0.489591 0.00485666 0.00140812 0.001062 0.000713817 0.00043554 0.000335678 0.00021826 0.000388968 
135 0.265219 0.600379 0.0574456 0.0189442 0.0164621 0.0161116 0.0100629 0.0049598 0.00404277 0.00637381 
136 0.366457 0.435987 0.0774606 0.0318589 0.0284052 0.0183106 0.0149783 0.00856157 0.0069786 0.0110024 
137 0.406434 0.573011 0.00650964 0.0039237 0.0033942 0.00191696 0.00160647 0.00113393 0.000939007 0.00113043 
138 0.222161 0.616003 0.055954 0.0324674 0.0182385 0.0157647 0.0124385 0.010826 0.00691703 0.00922979 
139 0.240747 0.619073 0.0404979 0.029071 0.0193582 0.0145416 0.0141744 0.00608771 0.00700642 0.00944262 
140 0.218893 0.378146 0.115296 0.0866226 0.0499455 0.043171 0.0340623 0.0296465 0.018942 0.0252754 
141 0.332531 0.446549 0.0658125 0.041078 0.0367082 0.0236629 0.0193566 0.0110642 0.0090185 0.0142185 
142 0.542246 0.416308 0.0247531 0.0035278 0.00792365 0.0017883 0.00109114 0.000840961 0.000546798 0.000974466 
143 0.119266 0.124215 0.0998411 0.320356 0.0969716 0.0733852 0.0771583 0.0100981 0.0435743 0.0351344 
144 0.363082 0.405295 0.0638183 0.0370843 0.0331394 0.026152 0.0397017 0.0107496 0.0081417 0.0128361 
145 0.319896 0.436512 0.0632641 0.0398518 0.0356124 0.0229566 0.0187788 0.0112633 0.0371383 0.0147263 
146 0.200398 0.373873 0.0944501 0.0908792 0.0984673 0.0431263 0.0311838 0.0271411 0.0173413 0.0231395 
147 0.484145 0.406428 0.0266682 0.0161362 0.0139586 0.0078835 0.00660662 0.00586965 0.0276553 0.00464892 
148 0.338724 0.429145 0.0642225 0.0404556 0.0386737 0.0358992 0.0190984 0.0108965 0.00888185 0.0140031 
149 0.394161 0.570619 0.0112782 0.00668859 0.00578597 0.00326777 0.00273849 0.00193297 0.00160069 0.00192701 
150 0.624114 0.329313 0.01172 0.00736553 0.00555508 0.0037362 0.0132081 0.00181254 0.00114167 0.0020346 
151 0.181272 0.322525 0.120319 0.0987636 0.0913608 0.0432514 0.0628154 0.0266492 0.0223143 0.0307287 
152 0.181271 0.310486 0.120367 0.11039 0.0917277 0.0432514 0.0628154 0.0266492 0.0223143 0.0307287 
153 0.239799 0.714928 0.0422012 0.000986955 0.0007021 0.000471912 0.00028794 0.00022192 0.000144294 0.000257151 
154 0.354803 0.596054 0.0281939 0.0058822 0.0050529 0.00285376 0.00239154 0.00168807 0.00139789 0.00168286 
155 0.352196 0.460189 0.0487418 0.0306905 0.0274257 0.0176792 0.0144618 0.00826669 0.029726 0.0106231 
156 0.393059 0.591342 0.0104156 0.00159972 0.00120647 0.000810924 0.00049479 0.000381343 0.000247951 0.000441882 
157 0.618569 0.367542 0.0110456 0.000950608 0.000637468 0.00042847 0.000261434 0.000201491 0.000131011 0.000233479 
158 0.238259 0.383497 0.0931853 0.0757841 0.0452997 0.0665356 0.0307567 0.0267642 0.0171004 0.0228181 
159 0.376682 0.507597 0.0421302 0.0194896 0.0174163 0.0112269 0.00918377 0.00524943 0.00427885 0.006746 
160 0.391539 0.505209 0.0276315 0.0113426 0.0272808 0.0143416 0.00464527 0.0120309 0.00271743 0.00326239 
161 0.358963 0.586772 0.0163634 0.0100379 0.00897005 0.00578229 0.00472999 0.00270365 0.00220377 0.00347444 
162 0.242377 0.480376 0.115728 0.0471288 0.0313603 0.0235574 0.0229625 0.00986209 0.0113504 0.0152971 
163 0.960981 0.0344563 0.00152158 0.000938743 0.000708 0.000475878 0.00029036 0.000223785 0.000145506 0.000259312 
164 0.554896 0.369883 0.031987 0.017618 0.00859175 0.00485139 0.00406561 0.00286972 0.00237641 0.00286087 
165 0.455104 0.362789 0.0303901 0.0327201 0.0159527 0.0149748 0.0158605 0.00534002 0.00501474 0.0618544 
166 0.420106 0.474548 0.0728155 0.00956589 0.00770132 0.00434952 0.00364503 0.00257285 0.00213058 0.00256492 
167 0.694807 0.250171 0.0190404 0.00777025 0.00941006 0.0102016 0.00287249 0.00202752 0.00167899 0.00202127 
168 0.847418 0.130238 0.00830613 0.00400771 0.00336353 0.00189964 0.00159196 0.00112368 0.000930522 0.00112022 
169 0.343112 0.562637 0.0563764 0.0105813 0.00915321 0.00516951 0.00433221 0.0030579 0.00253224 0.00304847 
170 0.461204 0.448677 0.036298 0.015102 0.0129848 0.00733349 0.00614569 0.00433795 0.00359225 0.00432457 
171 0.448405 0.446046 0.0547813 0.0187495 0.0107382 0.00606423 0.00508202 0.00358715 0.00297051 0.00357608 
172 0.310258 0.534987 0.0429013 0.0369857 0.0241014 0.0155363 0.0127089 0.00726436 0.00592124 0.00933537 
173 0.59564 0.355796 0.00868464 0.0127694 0.0179803 0.00404347 0.00160711 0.00123862 0.000805361 0.00143526 
174 0.526406 0.339262 0.0558751 0.025419 0.0172584 0.0102554 0.00985513 0.00423266 0.00487142 0.00656526 
175 0.986035 0.0118976 0.00100758 0.000348537 0.000239352 0.000160879 9.81615e-05 7.56546e-05 4.91911e-05 8.76651e-05 
176 0.829156 0.162731 0.00530423 0.000744277 0.000661189 0.000378702 0.000307183 0.000236433 0.000179743 0.000301582 
177 0.551419 0.352271 0.0406599 0.012845 0.0191433 0.00799484 0.00523297 0.0036937 0.00305875 0.00368231 
178 0.749697 0.169994 0.0283816 0.0172834 0.0233174 0.003551 0.00233017 0.00179349 0.00136345 0.00228768 
179 0.678484 0.27171 0.0173934 0.0100039 0.00754496 0.0050713 0.00309428 0.00238481 0.00155062 0.00276341 
180 0.509539 0.376527 0.0312767 0.0189838 0.0164219 0.00927471 0.0078344 0.0177503 0.00692305 0.00546931 
181 0.51776 0.395956 0.0408884 0.0127514 0.010948 0.00618314 0.00518166 0.00365748 0.00302876 0.0036462 
182 0.324713 0.428004 0.0642271 0.0553199 0.0364346 0.0233044 0.0190633 0.0108965 0.00923118 0.0288052 
183 0.450903 0.430764 0.0443683 0.021137 0.0225642 0.00944225 0.00695434 0.00490873 0.00406491 0.00489359 
184 0.633368 0.323475 0.0142014 0.00893684 0.00674016 0.00453036 0.00276423 0.00213043 0.00138522 0.00246865 
185 0.533201 0.357679 0.0299552 0.0181817 0.0157281 0.00888282 0.00744408 0.00525441 0.00443739 0.0192365 
186 0.303752 0.496604 0.0713458 0.0344767 0.030203 0.0194695 0.0159263 0.00910344 0.00742028 0.0116988 
187 0.287358 0.57632 0.0323553 0.0273176 0.02527 0.0119631 0.0173745 0.00737106 0.00617205 0.00849944 
188 0.473737 0.513354 0.00837568 0.00139931 0.00105535 0.000709346 0.000432812 0.000333575 0.000216893 0.000386531 
189 0.45221 0.512732 0.0167759 0.00430756 0.00841061 0.00189822 0.0011582 0.00089264 0.0005804 0.00103435 
190 0.173241 0.424091 0.0929597 0.0735062 0.0801441 0.0578517 0.0315635 0.0241059 0.0144921 0.0280448 
191 0.813598 0.1455 0.0261878 0.00337932 0.00292328 0.001654 0.00399811 0.000976878 0.000808726 0.000973593 
192 0.759672 0.199882 0.00777434 0.00608378 0.00560553 0.0126021 0.00251311 0.00193279 0.00146935 0.00246536 
193 0.112054 0.257693 0.140717 0.155109 0.111012 0.0778541 0.0559871 0.028405 0.0265666 0.034603 
194 0.297654 0.475639 0.0589643 0.0509107 0.0331396 0.0352511 0.0174747 0.00998849 0.0081417 0.0128361 
195 0.663882 0.320113 0.00417972 0.00313315 0.00278361 0.00159433 0.00129324 0.000995385 0.000756717 0.00126966 
196 0.975563 0.0169923 0.00657814 0.000290063 0.000128853 0.000190568 9.08651e-05 3.23768e-05 5.5129e-05 7.84996e-05 
197 0.933801 0.0635486 0.00159972 0.000329622 0.000161143 0.000238323 0.000113636 4.04903e-05 6.89442e-05 9.81714e-05 
198 0.334642 0.419215 0.116833 0.0444508 0.0210843 0.0182215 0.0143769 0.0125131 0.00799501 0.0106682 
199 0.487895 0.449367 0.0486499 0.00350885 0.00788697 0.000918802 0.000560316 0.000431845 0.000280788 0.000500402 
200 0.24972 0.377311 0.0918149 0.080501 0.0660877 0.0384665 0.0303294 0.0263975 0.0168662 0.0225055 
201 0.694236 0.241758 0.0276175 0.00964076 0.00856494 0.00490565 0.00397921 0.00306273 0.00232836 0.00390665 
202 0.221482 0.636786 0.0376637 0.0306542 0.0182385 0.0157647 0.0124385 0.010826 0.00691703 0.00922979 
203 0.299031 0.650116 0.01611 0.00970601 0.00839618 0.00474196 0.00397391 0.00280499 0.00232281 0.00279634 
204 0.454746 0.452902 0.0277462 0.0263233 0.0128444 0.0072492 0.00607505 0.00428809 0.00355096 0.00427486 
205 0.478144 0.394523 0.0611253 0.018638 0.0159527 0.00900972 0.00755042 0.00532948 0.00441333 0.00531304 
206 0.579463 0.372142 0.0247882 0.00728684 0.0054947 0.00369323 0.00225345 0.00173677 0.00112926 0.00201248 
207 0.698869 0.238095 0.0263242 0.0103696 0.00843517 0.00483132 0.00391892 0.00301632 0.00229308 0.00384746 
208 0.146571 0.376502 0.119646 0.115191 0.0853292 0.0518997 0.0325863 0.026143 0.0157168 0.0304148 
209 0.59564 0.397107 0.00214405 0.00200382 0.00156467 0.000415736 0.000337221 0.000259553 0.000197319 0.000331072 
210 0.397189 0.477835 0.0208515 0.0714793 0.010948 0.00618314 0.00518166 0.00365748 0.00302876 0.0036462 
211 0.934263 0.0612535 0.00177246 0.000836783 0.000631101 0.000424191 0.000258823 0.000199479 0.000129702 0.000231147 
212 0.284918 0.372026 0.0864515 0.0832867 0.0475156 0.035693 0.0347916 0.0149426 0.0171976 0.0231773 
213 0.416508 0.563202 0.0100527 0.0064821 0.00226022 0.000510176 0.000311287 0.000239914 0.000155993 0.000278001 
214 0.158974 0.387154 0.102371 0.0870765 0.0931932 0.0566904 0.0355943 0.0285563 0.0171676 0.0332223 
215 0.417549 0.374292 0.0774313 0.0340447 0.0369261 0.0169715 0.0165198 0.00709503 0.00816576 0.0110051 
216 0.880517 0.102271 0.00701663 0.00314678 0.0023733 0.0015952 0.00097332 0.000750153 0.000487754 0.000869242 
217 0.218893 0.392971 0.103148 0.0839455 0.0499455 0.043171 0.0340623 0.0296465 0.018942 0.0252754 
218 0.273917 0.378266 0.0935165 0.0783162 0.0482467 0.0362422 0.0353269 0.0151724 0.0174622 0.0235339 
219 0.566914 0.414053 0.00545709 0.00553014 0.00270023 0.00152338 0.00127664 0.000901119 0.000746216 0.00089834 
220 0.841326 0.132085 0.00661691 0.0109061 0.0042255 0.00165543 0.00100639 0.000775643 0.000504328 0.000898779 
221 0.569635 0.376777 0.0251982 0.0100938 0.00613567 0.00346528 0.00290401 0.0020498 0.00169744 0.00204348 
222 0.320675 0.47395 0.0613478 0.0381439 0.0340862 0.0219727 0.017974 0.0102739 0.00837432 0.0132029 
223 0.482686 0.386337 0.0607762 0.0197495 0.0169196 0.00955576 0.00800802 0.00565248 0.00468081 0.00563504 
224 0.947488 0.0249406 0.0188461 0.00120976 0.00315766 0.000588561 0.00346097 6.16717e-05 0.000101717 0.000144837 
225 0.479908 0.378717 0.0606966 0.0237078 0.0278509 0.00829843 0.00695434 0.00490873 0.00406491 0.00489359 
226 0.674188 0.253363 0.0107322 0.00943893 0.0320627 0.0133901 0.00233698 0.00159783 0.00103892 0.00185149 
227 0.734388 0.221756 0.0190684 0.00883561 0.00556222 0.00296094 0.00248136 0.00175147 0.00145039 0.00174607 
228 0.280666 0.366473 0.0867206 0.0949938 0.0472223 0.0351603 0.0342723 0.0147195 0.0169409 0.0228314 
229 0.482686 0.384776 0.0327393 0.0493106 0.0169562 0.00955576 0.00800802 0.00565248 0.00468081 0.00563504 
230 0.490112 0.390695 0.0327203 0.0262812 0.0261134 0.00973263 0.00813122 0.00573944 0.00475282 0.00572174 
231 0.824749 0.145243 0.00710881 0.00999399 0.00697299 0.00222443 0.00117128 0.000902726 0.000586958 0.00104604 
232 0.490112 0.390695 0.033075 0.0347129 0.0173568 0.00970277 0.00813122 0.00573944 0.00475282 0.00572174 
233 0.821154 0.0996679 0.0736132 0.00300576 0.000572196 0.000846249 0.000403503 0.000143775 0.00024481 0.000348592 
234 0.205711 0.301218 0.113483 0.0958155 0.0888191 0.0566888 0.0609517 0.0258537 0.0216482 0.0298115 
235 0.694236 0.241758 0.0122334 0.00997749 0.0226604 0.00585776 0.00397921 0.00306273 0.00232836 0.00390665 
236 0.703363 0.234542 0.0118682 0.00951013 0.0206655 0.00717086 0.00386043 0.0029713 0.00225886 0.00379003 
237 0.393927 0.531583 0.0188538 0.0108519 0.0228736 0.00861294 0.00444143 0.00313499 0.00259608 0.00312532 
238 0.749235 0.143049 0.0375121 0.0198368 0.0179633 0.00426668 0.00801386 0.00278427 0.00842216 0.00891649 
239 0.863018 0.0816016 0.0154232 0.0101402 0.00353411 0.00175048 0.00836616 0.00358266 0.000341953 0.0122419 
240 0.156565 0.368095 0.0988618 0.0898813 0.102124 0.0703628 0.03636 0.0281236 0.0169075 0.0327189 
241 0.650826 0.274494 0.0150841 0.00957519 0.00722161 0.0334252 0.00296187 0.00228261 0.00148416 0.00264498 
242 0.490342 0.393699 0.0320681 0.0192671 0.016667 0.00941314 0.0078885 0.00588295 0.0183729 0.00639949 
243 0.370076 0.354268 0.0977932 0.072122 0.0469793 0.0195732 0.0141368 0.00808058 0.00658654 0.0103843 
244 0.513075 0.299571 0.0684326 0.0317884 0.0271719 0.022637 0.018081 0.0074436 0.00457971 0.00722033 
245 0.644293 0.339599 0.0116602 0.00139004 0.00102956 0.00069201 0.000422234 0.000325423 0.000211592 0.000377085 
246 0.557709 0.320953 0.0341012 0.0270183 0.0338715 0.00750835 0.00629202 0.00444123 0.00367778 0.00442753 
247 0.365037 0.457997 0.0461832 0.0566561 0.0238681 0.0153809 0.0125818 0.00719171 0.00586202 0.00924202 
248 0.0205725 0.063942 0.220573 0.0568955 0.225656 0.0309344 0.26265 0.0117813 0.011343 0.0956527 
249 0.321528 0.424485 0.0730461 0.0740483 0.0370894 0.0213623 0.0174747 0.00998849 0.0081417 0.0128361 
250 0.239562 0.703354 0.0425471 0.00406508 0.00351161 0.00198327 0.00166204 0.00117316 0.000971489 0.00116954 
251 0.378295 0.608783 0.00511014 0.00241102 0.00181839 0.00122222 0.000745745 0.000574757 0.000373711 0.000666002 
252 0.273917 0.377749 0.0904354 0.0803881 0.0497727 0.0362422 0.0353269 0.0151724 0.0174622 0.0235339 
253 0.945812 0.0497219 0.00291679 0.000486308 0.000237743 0.000351611 0.000167653 5.97374e-05 0.000101717 0.000144837 
254 0.414475 0.561764 0.00405336 0.0117896 0.00340749 0.00121705 0.000987209 0.000759836 0.000577647 0.000969207 
255 0.421351 0.443594 0.027297 0.0195659 0.0210607 0.0098518 0.00660662 0.00592947 0.0394058 0.00533864 
256 0.957968 0.024434 0.0131734 0.00387497 0.000280098 0.000114647 5.46651e-05 1.94781e-05 3.3166e-05 4.72259e-05 
257 0.947639 0.0437653 0.00145999 0.00422781 0.00158513 0.000446086 0.000262587 0.000202108 0.000153648 0.000257799 
258 0.30409 0.662355 0.0207804 0.00293531 0.00479628 0.00144696 0.0012012 0.000847871 0.000702121 0.000845256 
259 0.964881 0.0278857 0.006452 9.31002e-05 0.000244211 0.000367532 3.07676e-05 8.97165e-06 1.52763e-05 2.17524e-05 
260 0.428531 0.556147 0.00681391 0.00225407 0.00200259 0.001147 0.000930391 0.000716105 0.000544401 0.000913426 
261 0.438224 0.537416 0.0140922 0.00286869 0.00248154 0.00140151 0.00117451 0.00082903 0.000686519 0.000826473 
262 0.118493 0.349277 0.136174 0.13127 0.0768778 0.062615 0.0481914 0.0244499 0.0228674 0.0297849 
263 0.443577 0.514663 0.0184208 0.00652164 0.00563986 0.00318525 0.00266934 0.00188416 0.00156027 0.00187835 
264 0.0497021 0.199456 0.22398 0.0912752 0.189116 0.0368624 0.106607 0.00804856 0.0746245 0.0203281 
265 0.419568 0.514688 0.055433 0.00332702 0.00235122 0.00158036 0.000964265 0.000743175 0.000483216 0.000861156 
266 0.458974 0.438113 0.0367868 0.0169181 0.0231692 0.00742209 0.006218 0.00438898 0.00363451 0.00437545 
267 0.868811 0.103458 0.00821503 0.00252929 0.00190759 0.00128218 0.00568955 0.00447489 0.0029291 0.000703208 
268 0.648884 0.294522 0.0467366 0.00787688 0.000666912 0.000448254 0.000273505 0.000210795 0.00013706 0.000244259 
269 0.190166 0.379878 0.0940757 0.0812889 0.0954026 0.0543283 0.0325863 0.026143 0.0157168 0.0304148 
270 0.338962 0.424507 0.0614302 0.0416489 0.0507894 0.0321152 0.0182344 0.0104228 0.00849569 0.0133942 
271 0.243492 0.636725 0.0470423 0.0212142 0.0141263 0.0106114 0.0103435 0.00444238 0.0051128 0.00689056 
272 0.386842 0.565654 0.0295922 0.0110243 0.00231886 0.00155861 0.000950996 0.000732948 0.000476567 0.000849305 
273 0.543818 0.350052 0.0291345 0.0176835 0.0152971 0.00863945 0.00724013 0.00511046 0.0122303 0.0107949 
274 0.482686 0.384776 0.0449499 0.0371324 0.0169238 0.00955576 0.00800802 0.00565248 0.00468081 0.00563504 
275 0.651214 0.320546 0.00967885 0.00572874 0.00432062 0.00290408 0.00177194 0.00136566 0.000887962 0.00158247 
276 0.958916 0.0376984 0.00199302 0.000437062 0.000213668 0.000316005 0.000150675 5.36881e-05 9.14165e-05 0.00013017 
277 0.165549 0.468627 0.0863474 0.0706394 0.0761452 0.0309014 0.0448681 0.0190352 0.0159388 0.0219491 
278 0.315193 0.663039 0.00467127 0.00684483 0.00207217 0.00139253 0.000870153 0.0047327 0.000425802 0.000758805 
279 0.335175 0.389825 0.103787 0.0444297 0.0295852 0.023104 0.0393361 0.00961837 0.0107079 0.0144312 
280 0.738283 0.228057 0.0184398 0.005477 0.00327178 0.00184409 0.00154541 0.00109083 0.000903314 0.00108746 
281 0.880884 0.0654351 0.00553835 0.00122223 0.000994979 0.0446919 0.000463421 0.000150137 0.000255643 0.000364016 
282 0.431547 0.534264 0.019901 0.00440982 0.00332574 0.00223537 0.00136393 0.0010512 0.000683497 0.00121808 
283 0.553602 0.423034 0.0121934 0.00333919 0.00250775 0.00143634 0.00116508 0.000896744 0.000681727 0.00114384 
284 0.355735 0.477113 0.0730146 0.0261386 0.0218902 0.0141109 0.0115429 0.0065979 0.005378 0.00847892 
285 0.416883 0.503307 0.0241596 0.0130633 0.0205507 0.00636889 0.00523297 0.0036937 0.00305875 0.00368231 
286 0.573333 0.368195 0.028019 0.00854636 0.00734666 0.00414921 0.00347717 0.00245436 0.00203246 0.0024468 
287 0.294039 0.498712 0.0685722 0.0385163 0.0322437 0.020785 0.0170024 0.00971853 0.00792165 0.0124892 
288 0.406554 0.478098 0.0640064 0.0143436 0.0124077 0.00700756 0.00587255 0.00414515 0.00343259 0.00413236 
289 0.85749 0.117498 0.00778258 0.00378056 0.00271781 0.00182676 0.00131653 0.00603331 0.000558716 0.000995422 
290 0.269767 0.372026 0.083231 0.0852289 0.0634155 0.036223 0.0347916 0.0149426 0.0171976 0.0231773 
291 0.25472 0.434676 0.0799115 0.0672783 0.0448005 0.0336535 0.0328035 0.0140887 0.0162149 0.0218529 
292 0.344136 0.424125 0.0874305 0.0384245 0.0340862 0.0219727 0.017974 0.0102739 0.00837432 0.0132029 
293 0.26714 0.391634 0.0840423 0.0675751 0.06251 0.029593 0.0429789 0.0182337 0.0152677 0.0210249 
294 0.300297 0.390499 0.0785117 0.0672783 0.0448005 0.0336535 0.0328035 0.0140887 0.0162149 0.0218529 
295 0.111546 0.281824 0.138681 0.150295 0.0880287 0.0861715 0.0551775 0.0279934 0.0261816 0.0341015 
296 0.517171 0.332009 0.0432292 0.025923 0.0231654 0.0149329 0.0122153 0.00698225 0.00727198 0.0171009 
297 0.19381 0.766411 0.0078857 0.0172649 0.00377273 0.00213111 0.00516352 0.00126035 0.00104369 0.00125646 
298 0.248204 0.46209 0.0806723 0.0670622 0.0414735 0.0321387 0.0263936 0.0113357 0.0130464 0.0175828 
299 0.729895 0.179639 0.0113652 0.0299493 0.0233627 0.0193073 0.00208101 0.0015665 0.00101854 0.00181518 
300 0.517223 0.451011 0.0157976 0.00492845 0.003717 0.00249836 0.00152439 0.00117487 0.000763908 0.00136139 
301 0.774063 0.178717 0.0113528 0.0142987 0.00436294 0.00292911 0.00178722 0.00138611 0.00950757 0.00159616 
302 0.300145 0.648393 0.0270673 0.00649206 0.00576337 0.00371519 0.00303908 0.00173713 0.00141595 0.00223237 
303 0.286992 0.355882 0.0830545 0.0793108 0.0570514 0.0370253 0.034421 0.0276436 0.0164499 0.0221696 
304 0.496576 0.37496 0.0445253 0.020265 0.0164219 0.00927471 0.0145884 0.0128682 0.00505112 0.00546931 
305 0.329111 0.49402 0.0455806 0.0382884 0.0254962 0.0191524 0.0186687 0.00801796 0.00922797 0.0124366 
306 0.52867 0.35141 0.0361134 0.0163468 0.0268792 0.0205496 0.00669032 0.00472232 0.00391055 0.00470776 
307 0.327066 0.608184 0.0244366 0.0101638 0.0118721 0.00559496 0.00457519 0.00261517 0.00213165 0.00336074 
308 0.269767 0.372026 0.083231 0.0713559 0.062667 0.0356931 0.0348475 0.0299585 0.0172773 0.0231773 
309 0.837864 0.117085 0.0078724 0.00403773 0.00304525 0.00698 0.0132556 0.00209502 0.000629249 0.00713559 
310 0.5026 0.424294 0.0312703 0.0261017 0.0053438 0.00296094 0.00248136 0.00175147 0.00145039 0.00174607 
311 0.482686 0.395389 0.0367632 0.0195591 0.0212444 0.0203743 0.00801615 0.00565248 0.00468081 0.00563504 
312 0.774661 0.185067 0.0100652 0.00638346 0.0048144 0.00323597 0.00219111 0.0106269 0.00119145 0.00176332 
313 0.359147 0.451554 0.0508295 0.0390794 0.0297318 0.0199053 0.0157025 0.0136668 0.00873214 0.0116518 
314 0.436951 0.522762 0.0141816 0.00729321 0.00630899 0.00356316 0.00298604 0.0021077 0.00174539 0.0021012 
315 0.475394 0.409748 0.0356932 0.0181817 0.0157281 0.00918564 0.0212249 0.00525528 0.00435117 0.00523821 
316 0.231342 0.349667 0.0876911 0.0754663 0.0822329 0.0650421 0.0401075 0.0247806 0.0148786 0.0287927 
317 0.289379 0.69656 0.00823843 0.00179697 0.00135526 0.00091093 0.00055581 0.000428371 0.00027853 0.000496377 
318 0.470516 0.419913 0.0490468 0.0146091 0.0223716 0.00670941 0.00562266 0.00396876 0.00328653 0.00395652 
319 0.158974 0.373758 0.100383 0.0907391 0.104379 0.0572267 0.0355943 0.0285562 0.0171676 0.0332223 
320 0.326822 0.456699 0.066002 0.0398518 0.0356124 0.0229566 0.0187788 0.0107339 0.00874929 0.0137941 
321 0.156565 0.368095 0.0988618 0.100434 0.107053 0.0561855 0.035055 0.0281236 0.0169075 0.0327189 
322 0.285798 0.385064 0.138561 0.0523668 0.0348448 0.026175 0.0366234 0.0109594 0.0126116 0.0169967 
323 0.252527 0.497594 0.155944 0.0253068 0.0220929 0.0142416 0.0116498 0.006659 0.0054278 0.00855743 
324 0.696577 0.253829 0.013206 0.00964045 0.00856494 0.00490565 0.00397921 0.00306273 0.00232836 0.00390665 
325 0.66097 0.260832 0.0259797 0.0215653 0.0152325 0.00547891 0.00314117 0.00242095 0.00157411 0.00280528 
326 0.436747 0.326749 0.065535 0.0453706 0.0293087 0.0262701 0.0321489 0.0122354 0.0113386 0.0142963 
327 0.291925 0.525265 0.0668299 0.0307867 0.0274257 0.0176792 0.0144618 0.00826634 0.00673796 0.010623 
328 0.273917 0.379466 0.0980814 0.0725514 0.0482467 0.0362422 0.0353269 0.0151724 0.0174622 0.0235339 
329 0.273151 0.383793 0.0838533 0.0804066 0.0529943 0.0356931 0.0347916 0.0149426 0.0171976 0.0231773 
330 0.651105 0.300723 0.0157584 0.0100039 0.00754496 0.0050713 0.00309428 0.00238481 0.00155062 0.00276341 
331 0.485097 0.362451 0.0436573 0.05247 0.0275658 0.00820823 0.00686402 0.00484498 0.00401212 0.00483004 
332 0.301753 0.269482 0.111951 0.0780162 0.0949608 0.0420457 0.0448681 0.0190352 0.0159388 0.0219491 
333 0.0131117 0.174478 0.283164 0.163263 0.068183 0.11046 0.0533421 0.0354865 0.0449298 0.0535815 
334 0.482686 0.384776 0.0384788 0.0423693 0.018158 0.00955576 0.00800802 0.00565248 0.00468081 0.00563504 
335 0.228709 0.376702 0.125204 0.079997 0.0470501 0.0406683 0.0320877 0.0279278 0.0178439 0.0238102 
336 0.530973 0.376707 0.0226286 0.0264891 0.0199065 0.00663876 0.00556347 0.00392698 0.00325193 0.00391487 
337 0.2638 0.619761 0.034472 0.0217079 0.0193986 0.0125048 0.0102291 0.00584692 0.00476587 0.00751384 
338 0.276667 0.527846 0.0858957 0.0290271 0.0259351 0.0167184 0.0136758 0.00781708 0.00637176 0.0100457 
339 0.486219 0.500085 0.00453324 0.00282811 0.00213296 0.00143366 0.000874755 0.000674188 0.000438361 0.000781218 
340 0.253007 0.376894 0.102399 0.0895051 0.0412157 0.036296 0.0363498 0.0279515 0.0155852 0.0207962 
341 0.326042 0.451897 0.0591798 0.0678563 0.0305908 0.0197191 0.0161305 0.00922015 0.00751541 0.0118487 
342 0.451745 0.469775 0.0247512 0.0150105 0.0129848 0.00733349 0.00614569 0.00433795 0.00359225 0.00432457 
343 0.49235 0.397878 0.0286867 0.0217822 0.0188614 0.0103227 0.00844414 0.00487643 0.0105831 0.0062155 
344 0.723192 0.229817 0.0121378 0.0183362 0.00557335 0.00373381 0.00227821 0.00175585 0.00114167 0.0020346 
345 0.329869 0.444827 0.0623337 0.0397104 0.0493498 0.0226191 0.0185026 0.0105761 0.00862062 0.0135912 
346 0.842259 0.137481 0.00938998 0.00365128 0.00243035 0.00163354 0.000996717 0.000768185 0.000499479 0.000890137 
347 0.710623 0.212495 0.0253802 0.00927824 0.0295728 0.00455086 0.00255947 0.00197262 0.00128261 0.00228578 
348 0.490435 0.393931 0.0329605 0.0329661 0.0166765 0.00941314 0.0078885 0.00556811 0.00461095 0.00555094 
349 0.286777 0.393064 0.0826823 0.069257 0.0461181 0.0346433 0.0337683 0.0145031 0.0166918 0.0224957 
350 0.547545 0.363648 0.0280079 0.0169855 0.0146933 0.00829842 0.00695434 0.00490873 0.00406491 0.00489359 
351 0.306159 0.482613 0.0671998 0.0381439 0.0340862 0.0219727 0.017974 0.0102739 0.00837432 0.0132029 
352 0.444672 0.523294 0.0130283 0.00993371 0.00307258 0.00204685 0.0012489 0.000962545 0.000625853 0.00111535 
353 0.490112 0.390695 0.0327203 0.01986 0.017214 0.0216891 0.0114954 0.00573944 0.00475282 0.00572174 
354 0.770823 0.18584 0.008283 0.0106326 0.0120393 0.00339291 0.00269426 0.00207372 0.00157649 0.00264513 
355 0.965069 0.0242878 0.00181375 0.00447101 0.00116013 0.000458889 0.00230243 0.000255356 7.48384e-05 0.000106564 
356 0.979532 0.019367 0.000651256 0.000141218 6.90378e-05 0.000102104 4.86843e-05 1.7347e-05 2.95374e-05 4.20591e-05 
357 0.246485 0.399293 0.0969411 0.0757841 0.0450897 0.0389738 0.0307507 0.0267642 0.0171004 0.0228181 
358 0.970617 0.0174339 0.00164492 0.00308606 0.00452165 0.00237911 0.000112298 4.00128e-05 6.81311e-05 9.70137e-05 
359 0.687766 0.25371 0.0137548 0.0206218 0.00773241 0.00442871 0.00359234 0.00276496 0.00210199 0.00352684 
360 0.373269 0.410941 0.0597058 0.0419938 0.043196 0.0217707 0.0177208 0.0101292 0.00825637 0.0130169 
361 0.541264 0.448743 0.00329083 0.00206871 0.00156022 0.00104869 0.000639868 0.000493156 0.000320653 0.000571446 
362 0.388136 0.481784 0.0224801 0.0123261 0.0655127 0.00665982 0.0116439 0.00515247 0.00286049 0.00344364 
363 0.671139 0.278056 0.0173943 0.0103117 0.00777711 0.00522734 0.00318949 0.00245819 0.00159833 0.00284844 
364 0.939936 0.0559941 0.00238977 0.000527143 0.000257706 0.000381135 0.00018173 6.47535e-05 0.000110258 0.000156999 
365 0.698388 0.221607 0.0103269 0.0142507 0.0270533 0.00417941 0.00335907 0.00592981 0.00829107 0.00661486 
366 0.344498 0.423801 0.0819814 0.0453277 0.0336061 0.0216632 0.0177208 0.0101292 0.00825637 0.0130169 
367 0.768668 0.176344 0.00926682 0.00954317 0.00813746 0.00924285 0.012965 0.00273829 0.00115635 0.00193841 
368 0.539299 0.430079 0.0123581 0.00510243 0.0044138 0.00249281 0.00208905 0.00147456 0.00122108 0.00147001 
369 0.399916 0.430793 0.0710798 0.0262508 0.0231654 0.0149329 0.0122153 0.00698225 0.00569129 0.00897284 
370 0.12145 0.274934 0.134764 0.164389 0.0953819 0.0696703 0.0536215 0.0272048 0.0254441 0.0331409 
371 0.502169 0.382402 0.0316225 0.0168204 0.0243854 0.00991155 0.00669025 0.00472232 0.00396721 0.0173092 
372 0.562974 0.417854 0.00373508 0.00287454 0.00714079 0.00146274 0.00118646 0.000913198 0.000694236 0.00116483 
373 0.371709 0.456859 0.125391 0.014615 0.0101301 0.00651733 0.00533126 0.00304734 0.00248391 0.00391611 
374 0.573376 0.401808 0.00919266 0.00482204 0.00363678 0.00244444 0.00149149 0.00114951 0.000747421 0.001332 
375 0.46317 0.433685 0.069902 0.00928718 0.00803375 0.00453727 0.00380237 0.00268391 0.00222254 0.00267563 
376 0.566794 0.396028 0.0111821 0.0136774 0.00415523 0.00278506 0.00169932 0.00130969 0.00085157 0.00151761 
377 0.171054 0.311648 0.147787 0.0939635 0.100379 0.0409223 0.0591739 0.0251043 0.0210207 0.0289474 
378 0.233003 0.635503 0.038999 0.0244961 0.0218902 0.0141109 0.0115429 0.0065979 0.005378 0.00847892 
379 0.329709 0.434597 0.0796855 0.0419798 0.0367082 0.0236629 0.0193566 0.0110642 0.0090185 0.0142185 
380 0.26653 0.410371 0.0820769 0.0702907 0.0468065 0.0351603 0.0342723 0.0147195 0.0169409 0.0228314 
381 0.336675 0.564531 0.0604732 0.00906508 0.00857806 0.00830988 0.00524652 0.0025207 0.00208739 0.00251292 
382 0.504158 0.361997 0.0245192 0.0154244 0.0459023 0.00729001 0.00818447 0.0247404 0.00355841 0.00422628 
383 0.220199 0.6806 0.0404418 0.0184777 0.0129676 0.00835918 0.00683792 0.00390854 0.00318588 0.00502284 
384 0.250377 0.598823 0.054757 0.025453 0.0227241 0.0146485 0.0119826 0.00684925 0.00558288 0.00880192 
385 0.488178 0.351918 0.103588 0.0166763 0.0132939 0.0075081 0.00629202 0.00444123 0.00367778 0.00442753 
386 0.271312 0.404828 0.0752508 0.0645322 0.0691208 0.0334874 0.0314554 0.0135097 0.0155485 0.0209549 
387 0.345478 0.604883 0.0161555 0.00935434 0.00809197 0.00457015 0.00382992 0.00270336 0.00223865 0.00269502 
388 0.206473 0.496302 0.0730366 0.0776477 0.0338189 0.0292304 0.0241633 0.0289108 0.0133041 0.0171136 
389 0.339865 0.428004 0.0642225 0.0404556 0.0361527 0.0368421 0.0206764 0.0108965 0.00888185 0.0140031 
390 0.212359 0.367937 0.113373 0.0828932 0.0598926 0.0439161 0.0330455 0.0287615 0.0202544 0.0375686 
391 0.273917 0.377749 0.0857889 0.0851722 0.0496351 0.0362422 0.0353269 0.0151724 0.0174622 0.0235339 
392 0.273917 0.381467 0.0950153 0.0736161 0.0482467 0.0362422 0.0353269 0.0151724 0.0174622 0.0235339 
393 0.28292 0.394615 0.0917723 0.0672791 0.0448005 0.0336535 0.0328035 0.0140887 0.0162149 0.0218529 
394 0.119266 0.124215 0.099758 0.318629 0.0987818 0.0733852 0.0771583 0.0100981 0.0435743 0.0351344 
395 0.227195 0.396165 0.10016 0.0814396 0.0484546 0.0418823 0.0330455 0.0287615 0.0183766 0.0245209 
396 0.399321 0.539114 0.0232516 0.0191758 0.00641783 0.0036246 0.00303753 0.00214404 0.00177548 0.00213743 
397 0.694236 0.243982 0.0193219 0.0157128 0.00856494 0.00490565 0.00397921 0.00306273 0.00232836 0.00390665 
398 0.755216 0.181879 0.0109875 0.0266115 0.00523132 0.0132833 0.00225734 0.00161397 0.00104941 0.00187019 
399 0.340132 0.623049 0.0235435 0.00280881 0.00211511 0.00142166 0.000998263 0.00472182 0.000434693 0.00077468 
400 0.745065 0.20468 0.0123846 0.0167483 0.00688329 0.00384177 0.00311625 0.00239852 0.00182342 0.00305942 
401 0.315287 0.463597 0.0804515 0.0341845 0.030203 0.0194695 0.0159263 0.0095342 0.0196431 0.0117034 
402 0.264193 0.45212 0.0766556 0.0603779 0.0402055 0.0302018 0.0294391 0.0126437 0.0145518 0.0196116 
403 0.701282 0.254967 0.0144041 0.00905761 0.00683124 0.00459158 0.00280158 0.00215922 0.00140394 0.00250201 
404 0.158346 0.379857 0.100471 0.087589 0.103296 0.0576361 0.035055 0.0281236 0.0169075 0.0327189 
405 0.329709 0.434589 0.0652105 0.0439507 0.0491974 0.0236857 0.0193566 0.0110642 0.0090185 0.0142185 
406 0.412892 0.525581 0.0235254 0.00874639 0.0114707 0.00708742 0.00357636 0.0025207 0.00208739 0.00251292 
407 0.329709 0.449972 0.0652119 0.041078 0.0367082 0.0236629 0.0193566 0.0110642 0.0090185 0.0142185 
408 0.158974 0.373758 0.100383 0.0908525 0.103013 0.0584791 0.0355943 0.0285563 0.0171676 0.0332223 
409 0.588044 0.372108 0.0130369 0.00827485 0.00624089 0.00419478 0.00255947 0.00197262 0.00128261 0.00228578 
410 0.302241 0.364793 0.0864297 0.0774863 0.0469481 0.0346433 0.0337683 0.0145031 0.0166918 0.0224957 
411 0.284458 0.372485 0.083231 0.0713557 0.0475156 0.0404713 0.0448548 0.0152526 0.0171976 0.0231773 
412 0.490112 0.390697 0.0478208 0.0201422 0.0171799 0.00970277 0.00813122 0.00573944 0.00475282 0.00572174 
413 0.119602 0.246181 0.144997 0.157127 0.0933256 0.085319 0.0611593 0.0292658 0.0273716 0.0356516 
414 0.119266 0.124215 0.0997573 0.305251 0.0967764 0.0761045 0.085032 0.0148898 0.0435743 0.0351344 
415 0.328015 0.438558 0.0450737 0.0620026 0.0730359 0.0169843 0.013106 0.00749137 0.00610627 0.0096271 
416 0.269767 0.372026 0.083231 0.0713559 0.0626575 0.0357026 0.0347916 0.0202005 0.0267912 0.0234773 
417 0.333182 0.446269 0.0582523 0.0443951 0.0364715 0.020785 0.0170024 0.0101675 0.0171989 0.0162765 
418 0.273917 0.377749 0.0845115 0.0724535 0.0482468 0.0499239 0.0370296 0.0151724 0.0174622 0.0235339 
419 0.490112 0.390695 0.0327203 0.01986 0.0173259 0.0249379 0.00813466 0.00573944 0.00475282 0.00572174 
420 0.534685 0.398421 0.0228866 0.0122943 0.0106352 0.00600648 0.00503362 0.00355299 0.00294222 0.00354203 
421 0.329869 0.42147 0.0810729 0.0583815 0.0352967 0.022619 0.0185026 0.0105761 0.00862062 0.0135912 
422 0.273917 0.377749 0.0845115 0.0724535 0.0482783 0.0515949 0.0353271 0.0151724 0.0174622 0.0235339 
423 0.528135 0.444401 0.0152542 0.00377424 0.00283996 0.00190886 0.0011647 0.000897655 0.00058366 0.00104016 
424 0.273917 0.377749 0.0845115 0.0724535 0.0556866 0.0441869 0.0353269 0.0151724 0.0174622 0.0235339 
425 0.487988 0.402668 0.0265862 0.0411003 0.0139937 0.0078835 0.00660662 0.00466329 0.00386167 0.00464891 
426 0.259977 0.570398 0.0743058 0.0317693 0.0174225 0.0130875 0.0127569 0.00547894 0.00630578 0.00849836 
427 0.342552 0.417439 0.0623336 0.0398168 0.0587252 0.0278432 0.0185026 0.0105761 0.00862062 0.0135912 
428 0.48168 0.428583 0.0286428 0.0140315 0.012138 0.00729869 0.0159592 0.00426681 0.00335797 0.00404253 
429 0.323594 0.438264 0.105358 0.0390224 0.0257052 0.0193094 0.0188217 0.00808368 0.00930361 0.0125386 
430 0.293158 0.360654 0.111392 0.0693815 0.0410944 0.0355204 0.0280259 0.0243927 0.0155852 0.0207962 
431 0.54201 0.341399 0.0408274 0.0189154 0.0273403 0.00840907 0.00704706 0.00497418 0.00411911 0.00495884 
432 0.812426 0.154155 0.00929494 0.00554034 0.00479267 0.00270678 0.00226837 0.00211735 0.00509397 0.00160374 
433 0.826331 0.143562 0.00854595 0.0103278 0.00596836 0.00183018 0.00108543 0.000836558 0.000543935 0.000969364 
434 0.490112 0.390965 0.0416144 0.0260812 0.0171799 0.00970277 0.00813122 0.00573944 0.00475282 0.00572174 
435 0.490112 0.390695 0.0327203 0.0202982 0.032126 0.00970305 0.00813122 0.00573944 0.00475282 0.00572174 
436 0.177323 0.737134 0.0282593 0.0151709 0.013557 0.00873914 0.00714873 0.0040862 0.0033307 0.00525115 
437 0.477827 0.392166 0.0417314 0.0208784 0.0245545 0.00847296 0.0203181 0.00497418 0.00411911 0.00495884 
438 0.574146 0.319314 0.0387381 0.0226763 0.0116551 0.00656958 0.00864237 0.0111484 0.00323557 0.00387409 
439 0.482686 0.399 0.0331517 0.0195591 0.0187509 0.0223275 0.00855639 0.00565248 0.00468081 0.00563504 
440 0.474226 0.393646 0.063308 0.0212518 0.0159527 0.00900972 0.00755042 0.00532948 0.00441333 0.00531304 
441 0.743015 0.183919 0.00811487 0.00639418 0.00877668 0.0179815 0.00522387 0.0020314 0.00314868 0.0213949 
442 0.340775 0.610861 0.020859 0.00768395 0.00664697 0.00375405 0.00314601 0.00222062 0.00183889 0.00221377 
443 0.268031 0.357959 0.0713089 0.0646667 0.0368373 0.0416387 0.0934553 0.0351175 0.0131981 0.0177873 
444 0.344356 0.441546 0.0820019 0.0319555 0.0290147 0.0296048 0.0149793 0.00856157 0.0069786 0.0110024 
445 0.505237 0.379128 0.0332901 0.0312925 0.0180205 0.00941314 0.0078885 0.00556811 0.00461095 0.00555094 
446 0.531888 0.416533 0.0224556 0.00668871 0.0108442 0.00339076 0.0027385 0.00193297 0.00160069 0.00192701 
447 0.439816 0.495402 0.0179422 0.0124072 0.015138 0.00610704 0.00440441 0.00310886 0.00257445 0.00309927 
448 0.674204 0.28027 0.0216609 0.00736553 0.00555508 0.00373381 0.00227821 0.00175585 0.00114167 0.0020346 
449 0.490112 0.390695 0.0327203 0.01986 0.0171799 0.00970277 0.00813122 0.00586882 0.0200081 0.00572174 
450 0.21143 0.274582 0.14443 0.0991154 0.0802494 0.0379911 0.0563425 0.0329576 0.035911 0.0269915 
451 0.156565 0.368096 0.0988619 0.0857572 0.0940946 0.0686555 0.0350692 0.0281236 0.0170544 0.0477228 
452 0.271149 0.424352 0.0758526 0.0661938 0.0497259 0.0334304 0.0306166 0.0131495 0.0151339 0.0203961 
453 0.512247 0.362789 0.0303831 0.0184414 0.0159527 0.00900972 0.00755042 0.00650334 0.0298474 0.00727651 
454 0.301861 0.482277 0.0738623 0.0376069 0.0336061 0.0216632 0.0177208 0.0101292 0.00825637 0.0130169 
455 0.472077 0.403527 0.0646422 0.0117378 0.0133367 0.0204031 0.00478183 0.00336093 0.00278318 0.00335057 
456 0.461797 0.425162 0.0315815 0.0187087 0.0161839 0.00914029 0.00858515 0.0189741 0.00447733 0.00539004 
457 0.366366 0.459857 0.0656696 0.0382148 0.0265659 0.0132594 0.0108464 0.00619975 0.00505347 0.00796726 
458 0.245256 0.42905 0.0908015 0.0675726 0.0485237 0.0352825 0.0263577 0.0229407 0.0146575 0.0195584 
459 0.554628 0.365152 0.0258584 0.015187 0.0131375 0.00741977 0.006218 0.00438898 0.00363451 0.00437545 
460 0.262685 0.359557 0.106505 0.0758673 0.0450897 0.0389738 0.0307507 0.0267642 0.0197298 0.0340776 
461 0.329709 0.434589 0.0652105 0.0417631 0.0492901 0.0257806 0.0193566 0.0110642 0.0090185 0.0142185 
462 0.27119 0.385754 0.0832311 0.0713557 0.0475157 0.0356931 0.0347916 0.0149426 0.0174363 0.0380901 
463 0.718283 0.218162 0.0132944 0.0201229 0.00609067 0.0040937 0.00263178 0.0138389 0.00125208 0.00223071 
464 0.697484 0.24222 0.0115245 0.00908159 0.00806842 0.00467779 0.0181848 0.00288518 0.00219338 0.00368018 
465 0.274575 0.410908 0.0763445 0.0654094 0.043556 0.0330723 0.0454069 0.0137179 0.0157645 0.0212459 
466 0.344966 0.429694 0.0623701 0.0392658 0.0350887 0.022619 0.0185026 0.0105761 0.00862969 0.028288 
467 0.760284 0.184818 0.00845923 0.00941507 0.012584 0.00462022 0.00649632 0.00889618 0.00172526 0.00270141 
468 0.289094 0.490089 0.056711 0.0409114 0.0424378 0.0176792 0.0144618 0.00896469 0.0290281 0.010623 
469 0.218002 0.499018 0.0860473 0.0574334 0.0382443 0.0287286 0.028003 0.0120269 0.013842 0.0186549 
470 0.671139 0.263823 0.0162433 0.0103117 0.00870376 0.0191922 0.00368255 0.00245819 0.00159833 0.00284844 
471 0.15111 0.360693 0.115083 0.0982106 0.108604 0.0658746 0.0320045 0.0247487 0.0148786 0.0287926 
472 0.59993 0.321804 0.0251542 0.0148379 0.0128355 0.0072492 0.00607505 0.00428809 0.00355096 0.00427486 
473 0.210321 0.403619 0.0989389 0.080242 0.047742 0.0412664 0.0325595 0.0329156 0.0282352 0.0241603 
474 0.546391 0.416268 0.015338 0.00614714 0.00531758 0.00300324 0.00251681 0.00177649 0.00147111 0.00177101 
475 0.175869 0.331057 0.113485 0.0977125 0.101636 0.0419863 0.0609403 0.0258537 0.0216482 0.0298115 
476 0.577069 0.299465 0.0309218 0.0287169 0.0281828 0.0109086 0.00892324 0.00510051 0.00415746 0.00655462 
477 0.226281 0.376345 0.101552 0.0826736 0.0491888 0.0425169 0.0414287 0.0362285 0.0188928 0.0248925 
478 0.482686 0.399417 0.0327349 0.0195591 0.0188071 0.0207528 0.010075 0.00565248 0.00468081 0.00563504 
479 0.483265 0.388095 0.0312767 0.0189838 0.0164219 0.00927471 0.00831321 0.021076 0.0177603 0.00553347 
480 0.273917 0.377749 0.0845115 0.0724535 0.0482467 0.0375853 0.0480117 0.0165291 0.0174622 0.0235339 
481 0.113721 0.263379 0.155872 0.154817 0.0906469 0.0738297 0.0568227 0.028829 0.0269631 0.0351195 
482 0.273917 0.377749 0.0845133 0.0856784 0.0504046 0.0362422 0.0353269 0.0151724 0.0174622 0.0235339 
483 0.218339 0.414469 0.0987246 0.0790791 0.0470501 0.0406683 0.0320877 0.0279278 0.0178439 0.0238102 
484 0.1794 0.388538 0.0960684 0.0832349 0.0890818 0.0541894 0.034024 0.0272964 0.0164102 0.0317566 
485 0.490112 0.390695 0.0327739 0.0290055 0.0233653 0.00970277 0.00813122 0.00573944 0.00475282 0.00572174 
486 0.490211 0.405922 0.0327789 0.01986 0.0171799 0.00970277 0.00813122 0.00573944 0.00475282 0.00572174 
487 0.340293 0.442097 0.0565168 0.0356009 0.03183 0.0338249 0.0169845 0.0212977 0.00923182 0.0123227 
488 0.526848 0.364901 0.0265146 0.015937 0.0137863 0.00917762 0.024893 0.00953769 0.00381399 0.00459152 
489 0.217926 0.543035 0.0856248 0.0522814 0.025499 0.0221757 0.0235999 0.00819353 0.00922797 0.0124366 
490 0.169054 0.362701 0.0977717 0.11022 0.094134 0.0549982 0.0345318 0.0277038 0.0166551 0.0322306 
491 0.49246 0.391872 0.0317762 0.021144 0.028534 0.0105947 0.0078885 0.00556811 0.00461095 0.00555094 
492 0.563149 0.422063 0.00836228 0.00198303 0.0014956 0.00100526 0.000613364 0.00047273 0.000307372 0.000547777 
493 0.528578 0.378166 0.0432171 0.0146154 0.0118797 0.00670936 0.00562266 0.00396876 0.00328653 0.00395652 
494 0.324713 0.428176 0.0889691 0.0458406 0.036152 0.0233044 0.0190633 0.0108965 0.00888185 0.0140031 
495 0.497319 0.385294 0.0322245 0.0195591 0.0169196 0.00955576 0.00800802 0.0110282 0.0142678 0.00582376 
496 0.470215 0.403391 0.0318127 0.0205328 0.0424322 0.00901025 0.00755042 0.00532948 0.00441333 0.00531304 
497 0.787792 0.145908 0.00736266 0.00584564 0.0328527 0.00303189 0.0116111 0.00184332 0.00140133 0.00235122 
498 0.252947 0.382583 0.106533 0.0764397 0.0450897 0.0389738 0.0307507 0.0267642 0.0171004 0.0228181 
499 0.167867 0.371945 0.0988618 0.0857572 0.0917812 0.0558315 0.035055 0.0281236 0.0185242 0.0462538 
500 0.193215 0.352112 0.0945634 0.0820286 0.0877907 0.0698611 0.0460593 0.0269008 0.0161724 0.0312964 
501 0.315657 0.363496 0.0873877 0.078803 0.0424552 0.0318343 0.0310304 0.0133271 0.0153384 0.0206717 
502 0.329709 0.434589 0.0652105 0.041078 0.0367082 0.0236629 0.0223663 0.0229344 0.0095231 0.0142185 
503 0.499802 0.376993 0.0299552 0.0197007 0.042378 0.00888284 0.00744408 0.00525442 0.00435118 0.00523821 
504 0.490447 0.489333 0.00821774 0.00335306 0.0029005 0.00163813 0.0013728 0.000968996 0.000802424 0.000966007 
505 0.336242 0.552098 0.0295072 0.0317206 0.0162426 0.0104632 0.00855903 0.00489232 0.00398777 0.00628709 
506 0.526798 0.35151 0.0355937 0.0414883 0.0158685 0.00819065 0.00686402 0.00484498 0.00401212 0.00483004 
507 0.489787 0.326788 0.0471329 0.0437897 0.0255427 0.0189979 0.0185181 0.0079533 0.00915355 0.0123363 
508 0.675311 0.260637 0.0159972 0.0101555 0.00765928 0.00514814 0.00314117 0.00242095 0.00179995 0.0177307 
509 0.671139 0.263823 0.0162433 0.0103117 0.00777711 0.00522734 0.00318949 0.00245819 0.00428778 0.0155434 
510 0.274539 0.383571 0.0732436 0.0760323 0.0419077 0.0314102 0.0706163 0.0131495 0.0151339 0.0203961 
511 0.191466 0.388339 0.0959483 0.080378 0.0908797 0.0589931 0.029852 0.023202 0.0139487 0.0269931 
512 0.158974 0.373758 0.100383 0.0870765 0.0931932 0.0566904 0.0355943 0.034873 0.0262003 0.0332575 
513 0.410793 0.5508 0.022783 0.00482206 0.00363678 0.00244444 0.00149149 0.00114951 0.000747421 0.001332 
514 0.490201 0.327864 0.0504251 0.0485554 0.0227889 0.0170706 0.0166395 0.00714644 0.00822493 0.0110848 
515 0.16697 0.501279 0.0725383 0.0615224 0.0763054 0.0404593 0.0251481 0.0201756 0.0121293 0.0234723 
516 0.541106 0.425647 0.0104852 0.00635911 0.00550094 0.0031068 0.00260359 0.00183775 0.00152184 0.00183208 
517 0.275727 0.499801 0.0500634 0.0432059 0.0462409 0.0281288 0.0176613 0.0141691 0.00851828 0.0164843 
518 0.26574 0.381395 0.0848621 0.0971651 0.0469125 0.0351603 0.0342723 0.0147195 0.0169409 0.0228314 
519 0.119266 0.124215 0.0997574 0.31825 0.0991618 0.0733852 0.0771583 0.0100981 0.0435743 0.0351344 
520 0.218893 0.377619 0.103115 0.0976448 0.0516307 0.043171 0.0340623 0.0296465 0.018942 0.0252754 
521 0.231557 0.373849 0.0971407 0.0790791 0.0470501 0.0406683 0.0325877 0.0484139 0.0258433 0.0238102 
522 0.181271 0.310486 0.116975 0.0987636 0.0913608 0.0486943 0.0726656 0.0267407 0.0223143 0.0307287 
523 0.532735 0.358145 0.0299552 0.0181817 0.0157281 0.00888282 0.00791931 0.0188548 0.00436006 0.00523821 
524 0.265798 0.381341 0.0819888 0.0702907 0.0563802 0.0546548 0.0350548 0.0147195 0.0169409 0.0228314 
525 0.184073 0.362608 0.0973862 0.0895014 0.100313 0.0549982 0.0345318 0.0277038 0.0166551 0.0322306 
526 0.437444 0.429297 0.0399078 0.0247229 0.0220929 0.0142416 0.0116498 0.006659 0.0054278 0.00855743 
527 0.898739 0.0886651 0.00513484 0.00209033 0.00180111 0.00101723 0.000852467 0.000601715 0.00049828 0.000599859 
528 0.419371 0.502708 0.0233505 0.0125403 0.0203362 0.00632999 0.00513136 0.00362197 0.00299935 0.0036108 
529 0.697468 0.227743 0.0115242 0.00908158 0.00806842 0.00462126 0.00374853 0.0110305 0.0212433 0.00547044 
530 0.519631 0.421636 0.0245898 0.00965881 0.00821097 0.00463735 0.00388625 0.00274311 0.00227157 0.00273465 
531 0.252087 0.63568 0.0467661 0.0173383 0.0154937 0.00998759 0.00816998 0.00466994 0.00380651 0.00600131 
532 0.574565 0.2525 0.0173899 0.00928704 0.00803375 0.00522853 0.0609973 0.029872 0.0393535 0.00277245 
533 0.696184 0.218255 0.0111598 0.03636 0.0077374 0.00442871 0.00359234 0.00276496 0.00210779 0.0174099 
534 0.324713 0.428004 0.0642225 0.0404556 0.036152 0.0233044 0.0190633 0.0108965 0.0134179 0.03977 
535 0.186209 0.218558 0.132892 0.144042 0.0982318 0.0687026 0.0528767 0.026827 0.0257804 0.0458798 
536 0.711023 0.231848 0.0142678 0.00905761 0.00683124 0.00459158 0.00280158 0.00241582 0.0145989 0.00256397 
537 0.382519 0.422047 0.0516006 0.0317866 0.0284052 0.0183106 0.0149783 0.00856157 0.0072306 0.0345599 
538 0.273917 0.377749 0.0845115 0.0724535 0.0482467 0.0362422 0.0353269 0.0202453 0.0277716 0.0235362 
539 0.291258 0.375763 0.0808006 0.0839582 0.0461182 0.0346433 0.0337683 0.0145031 0.0166918 0.0224957 
540 0.451988 0.399165 0.039055 0.0284545 0.0264477 0.0273821 0.0100885 0.00561853 0.00457971 0.00722033 
541 0.158974 0.373758 0.100383 0.0922412 0.100617 0.0594866 0.0355943 0.0285562 0.0171676 0.0332223 
542 0.309242 0.409571 0.0749475 0.05614 0.043395 0.0277586 0.0260937 0.013214 0.0219499 0.0176878 
543 0.455269 0.426936 0.041401 0.0202426 0.018076 0.0116522 0.00953164 0.00544827 0.00444093 0.00700153 
544 0.329812 0.412422 0.114533 0.0388402 0.0336061 0.0216632 0.0177208 0.0101292 0.00825637 0.0130169 
545 0.117217 0.238833 0.147204 0.159544 0.0962305 0.0884911 0.0587715 0.029716 0.0277927 0.0362001 
546 0.374661 0.403279 0.0671625 0.0342317 0.0305902 0.0197191 0.0161305 0.00922015 0.00756467 0.0374405 
547 0.475482 0.393958 0.0317502 0.0488159 0.0169624 0.00941314 0.0078885 0.00556811 0.00461095 0.00555094 
548 0.466353 0.495222 0.0224563 0.00492841 0.003717 0.00249836 0.00152439 0.00117487 0.000763908 0.00136139 
549 0.446938 0.427944 0.059567 0.0329061 0.010948 0.00618314 0.00518166 0.00365748 0.00302876 0.0036462 
550 0.326328 0.448337 0.0647277 0.0531891 0.0345802 0.0222911 0.0182344 0.0104228 0.00849569 0.0133942 
551 0.488339 0.39795 0.0322506 0.0220042 0.0273615 0.00915996 0.00765985 0.00540672 0.0044773 0.00539004 
552 0.33513 0.320451 0.105063 0.0588685 0.0392004 0.0322266 0.063295 0.0124558 0.014188 0.0191213 
553 0.458744 0.422653 0.0578042 0.0169855 0.0146933 0.00829842 0.00695434 0.00490873 0.00406491 0.00489359 
554 0.380258 0.547902 0.0298048 0.0159936 0.0087521 0.00492719 0.00412914 0.00291456 0.00241354 0.00290557 
555 0.117217 0.238833 0.147204 0.159544 0.0934361 0.0761013 0.0585711 0.0372036 0.0355969 0.036293 
556 0.117217 0.238833 0.147204 0.159544 0.0934361 0.0761013 0.0585711 0.029716 0.0278296 0.0515479 
557 0.418836 0.55939 0.0104623 0.00349097 0.00263287 0.00176967 0.00107978 0.000832201 0.000541102 0.000964315 
558 0.31937 0.473731 0.0544264 0.0447911 0.0314051 0.0195031 0.0285124 0.00914197 0.00742028 0.0116988 
559 0.556848 0.36548 0.0214643 0.0134092 0.02019 0.00678356 0.0052853 0.00373063 0.00308933 0.00371913 
560 0.328813 0.444071 0.0593114 0.0392911 0.0533841 0.0266886 0.0174747 0.00998849 0.0081417 0.0128361 
561 0.051996 0.195221 0.232021 0.0696983 0.193217 0.0385637 0.111528 0.00965717 0.076981 0.0211168 
562 0.158974 0.373758 0.100383 0.0904857 0.105167 0.0566924 0.0355943 0.0285562 0.0171676 0.0332223 
563 0.329709 0.435511 0.0796696 0.0410812 0.0367082 0.0236629 0.0193566 0.0110642 0.0090185 0.0142185 
564 0.128882 0.236925 0.144973 0.157127 0.0920204 0.0749483 0.0576837 0.0321397 0.0355755 0.0397253 
565 0.490115 0.406057 0.03274 0.01986 0.0171799 0.00970277 0.00813122 0.00573944 0.00475282 0.00572174 
566 0.671163 0.279175 0.0162518 0.0103117 0.00777711 0.00522734 0.00318949 0.00245819 0.00159833 0.00284844 
567 0.329713 0.449932 0.0652481 0.041078 0.0367082 0.0236629 0.0193566 0.0110642 0.0090185 0.0142185 
568 0.707725 0.231092 0.0116936 0.00921514 0.00818708 0.00468922 0.00380366 0.00437448 0.015059 0.00415996 
569 0.497319 0.398871 0.0327219 0.01986 0.0171799 0.00970277 0.00813122 0.00573944 0.00475282 0.00572174 
570 0.707041 0.244338 0.0122334 0.00964045 0.00856494 0.00490565 0.00397921 0.00306273 0.00232836 0.00390665 
571 0.50028 0.395912 0.0327203 0.01986 0.0171799 0.00970277 0.00813122 0.00573944 0.00475282 0.00572174 
572 0.490112 0.390695 0.0333699 0.0345243 0.0172506 0.00970277 0.00813122 0.00573944 0.00475282 0.00572174 
573 0.316787 0.487944 0.0590262 0.036082 0.0322437 0.020785 0.0170024 0.00971853 0.00792165 0.0124892 
574 0.279618 0.359403 0.0849689 0.0779383 0.0629417 0.0376683 0.039706 0.0196876 0.0162149 0.0218529 
575 0.435313 0.424486 0.0302849 0.0737223 0.012138 0.00685522 0.00574489 0.00405504 0.00335797 0.00404253 
576 0.266827 0.509382 0.0573122 0.0485513 0.0323302 0.024286 0.0236726 0.0101671 0.0117014 0.0157702 
577 0.22993 0.378353 0.10031 0.0814396 0.0491779 0.0560769 0.033053 0.0287615 0.0183766 0.0245209 
578 0.349713 0.421621 0.0686984 0.0489642 0.0359909 0.0229566 0.0187788 0.0107339 0.00874929 0.0137941 
579 0.218893 0.377619 0.103115 0.0839455 0.0499455 0.043171 0.0340623 0.0296465 0.0242329 0.0353691 
580 0.574279 0.305867 0.0241165 0.0250505 0.0127637 0.00765303 0.0148859 0.00559746 0.00472362 0.0250635 
581 0.62102 0.325978 0.0108636 0.00900686 0.0129706 0.00412653 0.0104064 0.00270828 0.00104941 0.00187019 
582 0.880611 0.0810759 0.00781142 0.00172639 0.000843988 0.00124822 0.000595166 0.0070097 0.00802229 0.0110553 
583 0.212684 0.395873 0.100037 0.0814396 0.0484561 0.0566815 0.0331703 0.0287615 0.0183766 0.0245209 
584 0.329709 0.434589 0.0652105 0.041078 0.0367082 0.023682 0.0288919 0.0168944 0.0090185 0.0142185 
585 0.452716 0.514064 0.0120904 0.00485301 0.00419809 0.00237098 0.00198707 0.00516178 0.00116141 0.00139817 
586 0.339852 0.428017 0.0680511 0.0505953 0.0373352 0.0233044 0.0190633 0.0108965 0.00888185 0.0140031 
587 0.339865 0.428004 0.0642225 0.0404556 0.036152 0.0301287 0.0273482 0.0109388 0.00888185 0.0140031 
588 0.22497 0.374677 0.127916 0.080264 0.047742 0.0412664 0.0325595 0.0283385 0.0181064 0.0241603 
589 0.3167 0.471238 0.055153 0.0346768 0.0439719 0.0224965 0.0264082 0.00973944 0.00761302 0.0120026 
590 0.247035 0.358375 0.0971379 0.093571 0.0470501 0.0406683 0.0320877 0.0279295 0.0323293 0.0238159 
591 0.329709 0.434589 0.0652105 0.041078 0.0367082 0.0236629 0.0193566 0.0110642 0.0154325 0.0231891 
592 0.768412 0.153659 0.0559996 0.0163209 0.0022768 0.000273105 0.000128344 0.00274114 7.78642e-05 0.000110873 
593 0.684125 0.236036 0.0156791 0.0192706 0.00930951 0.0270973 0.00272921 0.00204849 0.00133194 0.0023737 
594 0.381048 0.457916 0.114016 0.023064 0.00803421 0.00453727 0.00380237 0.00268391 0.00222254 0.00267563 
595 0.705086 0.281349 0.00970524 0.00121151 0.000592273 0.000875942 0.000417661 0.00014882 0.0002534 0.000360823 
596 0.265776 0.396282 0.0820706 0.0838857 0.0480607 0.0351603 0.0342723 0.0147195 0.0169409 0.0228314 
597 0.507087 0.38375 0.0299978 0.0181817 0.0201157 0.0185507 0.00747306 0.00525441 0.00435117 0.00523821 
598 0.329709 0.434589 0.0652105 0.041078 0.0367082 0.0236629 0.0193566 0.0110642 0.0125186 0.026103 
599 0.211933 0.386888 0.0993521 0.0803347 0.0650271 0.0533004 0.0325596 0.0283385 0.0181064 0.0241603 
600 0.360439 0.492335 0.0443489 0.0272456 0.0243473 0.0156948 0.0128385 0.00733848 0.00598166 0.00943063 
601 0.65034 0.279257 0.0399725 0.0157941 0.00532886 0.00317549 0.00193754 0.00149329 0.000970949 0.00173036 
602 0.257717 0.435168 0.071421 0.0611621 0.0407277 0.0307745 0.0426279 0.0128079 0.0148257 0.0327684 
603 0.230974 0.38871 0.097356 0.0790791 0.0470501 0.0406683 0.0320877 0.0279278 0.0193708 0.0367761 
604 0.677277 0.258185 0.0364841 0.00951703 0.00624089 0.00419478 0.00255947 0.00197262 0.00128261 0.00228578 
605 0.124915 0.264968 0.142168 0.150295 0.0880195 0.0716897 0.0551757 0.0287896 0.039878 0.0341015 
606 0.344123 0.427211 0.0632639 0.0398518 0.0356124 0.0229566 0.0187788 0.0107339 0.00877272 0.028696 
607 0.257064 0.436222 0.0749778 0.0648912 0.0546426 0.0318344 0.0310304 0.0133271 0.0153384 0.0206717 
608 0.468545 0.425066 0.031446 0.0172121 0.0282182 0.00841328 0.00704706 0.00497418 0.00411911 0.00495884 
609 0.812191 0.0737638 0.0873033 0.024533 0.000497479 0.000728886 0.000347542 0.000123835 0.000210858 0.000300247 
610 0.486039 0.387937 0.0641038 0.0186755 0.0145025 0.00819065 0.00686402 0.00484498 0.00401212 0.00483004 
611 0.27514 0.386924 0.0819889 0.0702907 0.0468065 0.0351603 0.0481696 0.0157476 0.0169409 0.0228314 
612 0.464811 0.41351 0.0345641 0.0169878 0.0364822 0.012823 0.00695434 0.00490873 0.00406491 0.00489359 
613 0.16632 0.464761 0.100041 0.0666716 0.0712654 0.0433515 0.0272192 0.0218371 0.0131282 0.0254053 
614 0.482686 0.399927 0.0322245 0.0195591 0.0169196 0.00955582 0.0231136 0.00569837 0.00468081 0.00563504 
615 0.336941 0.495115 0.0446589 0.0317869 0.0367998 0.0191092 0.0128385 0.00733848 0.00598166 0.00943063 
616 0.696372 0.254755 0.0124849 0.00964045 0.00856494 0.00490565 0.00397921 0.00306273 0.00232836 0.00390665 
617 0.120179 0.13508 0.103363 0.305251 0.0967764 0.0733852 0.0771583 0.0100981 0.0435743 0.0351344 
618 0.205686 0.473282 0.0865486 0.0690691 0.0410944 0.0355204 0.0280259 0.0243927 0.0155852 0.0207962 
619 0.490112 0.390696 0.0327203 0.01986 0.0171799 0.00970277 0.0140389 0.0142415 0.00572771 0.00572174 
620 0.498691 0.398571 0.0327282 0.0195591 0.0169196 0.00955576 0.00800802 0.00565248 0.00468081 0.00563504 
621 0.232673 0.386566 0.0978014 0.0790791 0.0470501 0.0406683 0.0320877 0.0279278 0.019681 0.0364658 
622 0.567235 0.403244 0.0156898 0.0036645 0.00325568 0.00186472 0.00151257 0.00116419 0.00088505 0.00148498 
623 0.273917 0.377749 0.0845115 0.0724535 0.0482467 0.0362422 0.0360332 0.0292741 0.0180389 0.0235339 
624 0.26574 0.381398 0.096912 0.0702932 0.0468065 0.0407745 0.0397066 0.0185965 0.0169409 0.0228314 
625 0.17619 0.359303 0.0957153 0.109391 0.100394 0.0526478 0.0330518 0.0265165 0.0159413 0.0308493 
626 0.277187 0.369952 0.0819888 0.0702907 0.0468065 0.0351603 0.0342723 0.0147195 0.0169477 0.0526754 
627 0.341842 0.427057 0.0774476 0.0505314 0.0333179 0.0213623 0.0174747 0.00998849 0.0081417 0.0128361 
628 0.307565 0.411235 0.169733 0.0475703 0.0205705 0.0132594 0.0108464 0.00619975 0.00505347 0.00796726 
629 0.376749 0.462144 0.0516609 0.0310747 0.0254084 0.0241376 0.0103996 0.00594357 0.00484465 0.00763803 
630 0.525902 0.374415 0.0155628 0.067749 0.00577691 0.00361465 0.0022055 0.00169981 0.00110523 0.00196967 
631 0.158974 0.373758 0.101943 0.100884 0.0932093 0.0566904 0.0355943 0.0285563 0.0171676 0.0332223 
632 0.119266 0.124215 0.101556 0.318574 0.0970398 0.0733852 0.0771583 0.0100981 0.0435743 0.0351344 
633 0.338868 0.444139 0.0642356 0.0404556 0.036152 0.0233044 0.0190633 0.0108965 0.00888185 0.0140031 
634 0.347544 0.411395 0.0557786 0.0482352 0.0314439 0.020238 0.0169938 0.0221797 0.00805343 0.038138 
635 0.701539 0.195254 0.0571619 0.0184737 0.00519787 0.016554 0.00228611 0.00125813 0.000818044 0.00145786 
636 0.352655 0.488961 0.0422115 0.0352869 0.0229443 0.0147893 0.0120979 0.00691511 0.00611321 0.0180253 
637 0.355641 0.334364 0.0843567 0.0619672 0.042415 0.0418082 0.0314087 0.0129764 0.0149347 0.0201277 
638 0.158974 0.373758 0.100383 0.0870765 0.0931932 0.0566904 0.0355943 0.0285563 0.0208195 0.044955 
639 0.597618 0.337661 0.0282232 0.00838255 0.00725124 0.00409533 0.00343217 0.00891379 0.0020081 0.00241502 
640 0.496741 0.42473 0.019416 0.0117762 0.0186485 0.00568371 0.0122276 0.0046985 0.00275833 0.00332065 
641 0.34187 0.453541 0.0605613 0.0381439 0.0340862 0.0219727 0.017974 0.0102739 0.00837432 0.0132029 
642 0.239901 0.408421 0.0943968 0.0757841 0.0450897 0.0389738 0.0307507 0.0267642 0.0171004 0.0228181 
643 0.24221 0.366347 0.100037 0.0814396 0.0484546 0.0418823 0.0330455 0.0315526 0.030509 0.0245228 
644 0.356463 0.571312 0.0294389 0.0119539 0.0103397 0.00583963 0.00489379 0.00345429 0.00286049 0.00344364 
645 0.340687 0.430024 0.0732048 0.0376068 0.0336061 0.0216632 0.0178031 0.0220673 0.0103204 0.0130169 
646 0.169167 0.372462 0.102438 0.0844772 0.0904114 0.0549982 0.0494183 0.0277425 0.0166551 0.0322306 
647 0.273917 0.377749 0.0845115 0.0744423 0.0616275 0.0362571 0.0353269 0.0151724 0.0174622 0.0235339 
648 0.329709 0.434589 0.0652105 0.041078 0.0367082 0.0255119 0.0317827 0.0121736 0.0090185 0.0142185 
649 0.54349 0.379368 0.0322804 0.0125333 0.0108417 0.00612311 0.00513136 0.00362197 0.00299935 0.0036108 
650 0.311883 0.462437 0.089406 0.0278361 0.0522878 0.0198193 0.013106 0.00749137 0.00610627 0.0096271 
651 0.558478 0.372677 0.0422329 0.00894747 0.0059472 0.00399738 0.00243902 0.00187979 0.00122225 0.00217822 
652 0.273917 0.377749 0.0845115 0.0724535 0.0482467 0.0362422 0.0353269 0.0151724 0.0175411 0.0388396 
653 0.473761 0.398249 0.0395978 0.0438988 0.0149849 0.00840907 0.00704706 0.00497418 0.00411911 0.00495884 
654 0.234444 0.335797 0.0893819 0.0775339 0.0829803 0.0504778 0.0316936 0.0382586 0.029849 0.0295842 
655 0.158974 0.373758 0.100383 0.0870959 0.108554 0.0566952 0.0355943 0.0285562 0.0171676 0.0332223 
656 0.493035 0.390331 0.0284142 0.0298522 0.0288591 0.00840907 0.00704706 0.00497418 0.00411911 0.00495884 
657 0.158974 0.374523 0.107817 0.0942623 0.0931932 0.0566904 0.0355943 0.0285563 0.0171676 0.0332223 
658 0.119266 0.124215 0.0997573 0.312257 0.104551 0.0739892 0.0771583 0.0100981 0.0435743 0.0351344 
659 0.184079 0.362602 0.0973862 0.0844772 0.0904114 0.0549982 0.0350495 0.042111 0.0166556 0.0322306 
660 0.181271 0.310486 0.116975 0.0987636 0.0984408 0.05149 0.0628815 0.0266492 0.0223143 0.0307287 
661 0.051996 0.195221 0.232021 0.0715293 0.20642 0.0389136 0.111528 0.00810528 0.0631485 0.0211166 
662 0.43388 0.377356 0.0599044 0.0310474 0.0277446 0.0178848 0.01463 0.0144288 0.0123767 0.0107477 
663 0.45984 0.465242 0.0202012 0.0173995 0.0107899 0.0133979 0.00441914 0.00308317 0.00255317 0.00307366 
664 0.361546 0.547235 0.0270027 0.0170068 0.0151977 0.00979675 0.00801387 0.00458071 0.00373377 0.00588664 
665 0.490421 0.404734 0.0337572 0.01986 0.0171799 0.00970277 0.00813122 0.00573944 0.00475282 0.00572174 
666 0.273922 0.392788 0.084852 0.0724535 0.0482467 0.0362422 0.0353269 0.0151724 0.0174622 0.0235339 
667 0.158974 0.374262 0.111117 0.0912237 0.0931932 0.0566904 0.0355943 0.0285563 0.0171676 0.0332223 
668 0.180996 0.340372 0.1345 0.0904305 0.0836402 0.0395963 0.057507 0.0243972 0.0204286 0.0281319 
669 0.667296 0.269615 0.0305624 0.0101169 0.00754496 0.0050713 0.00309428 0.00238481 0.00155062 0.00276341 
670 0.667988 0.259375 0.0272885 0.0204837 0.0102187 0.00499672 0.00304878 0.00234974 0.00152782 0.00272277 
671 0.735532 0.209726 0.0104627 0.00824512 0.00732528 0.0042801 0.0164703 0.0026258 0.00199136 0.00334121 
672 0.215774 0.385036 0.103369 0.0827903 0.0640625 0.042678 0.0335462 0.0291973 0.018655 0.0248925 
673 0.115441 0.238062 0.157248 0.157155 0.0951398 0.0867502 0.0579139 0.0292658 0.0273716 0.0356516 
674 0.273917 0.377749 0.0845115 0.0728014 0.063231 0.0362946 0.0353269 0.0151724 0.0174622 0.0235339 
675 0.329709 0.434589 0.0652105 0.041078 0.0448854 0.0304084 0.0198186 0.0110642 0.0090185 0.0142185 
676 0.263583 0.327861 0.0740621 0.0753076 0.0820333 0.097857 0.0306166 0.0131495 0.0151339 0.0203961 
677 0.246592 0.376072 0.0992331 0.074484 0.0494061 0.0456913 0.03147 0.0355821 0.0192677 0.0222014 
678 0.490112 0.390695 0.0327203 0.01986 0.0171799 0.00970277 0.00813122 0.00573944 0.00497772 0.0208815 
679 0.490907 0.371807 0.0581619 0.0321103 0.0158439 0.00888282 0.00744408 0.00525441 0.00435117 0.00523821 
680 0.694491 0.245116 0.0150831 0.00957519 0.0072216 0.00485396 0.00296167 0.0022833 0.0157131 0.00270109 
681 0.497837 0.384776 0.0322245 0.0195591 0.0169196 0.00955576 0.00800802 0.00654517 0.0189043 0.00567041 
682 0.641017 0.294366 0.0183853 0.0278778 0.0062092 0.00414362 0.00252826 0.00194857 0.00126697 0.00225791 
683 0.549769 0.408425 0.0237457 0.00384796 0.00287231 0.0076084 0.00118182 0.000907855 0.000590293 0.00105198 
684 0.051996 0.195221 0.232021 0.0696996 0.208461 0.0387026 0.111528 0.00810528 0.0631485 0.0211166 
685 0.329709 0.434589 0.0652105 0.041078 0.0374591 0.0382954 0.0193578 0.0110642 0.0090185 0.0142185 
686 0.344717 0.444304 0.0669503 0.0381439 0.0340862 0.0219727 0.017974 0.0102739 0.00837432 0.0132029 
687 0.319402 0.347536 0.0843798 0.0611621 0.0412469 0.0451664 0.0533975 0.0131013 0.0147408 0.0198663 
688 0.671139 0.263823 0.0162433 0.0103117 0.00777711 0.00522734 0.00318949 0.00245819 0.00167036 0.0181609 
689 0.308915 0.33749 0.0871337 0.0945598 0.0443519 0.0364431 0.0287539 0.0250262 0.01599 0.0213364 
690 0.476406 0.408799 0.0288117 0.0254867 0.0317533 0.00819213 0.00686402 0.00484498 0.00401212 0.00483004 
691 0.285738 0.358056 0.10411 0.0718208 0.0454497 0.0341412 0.0342027 0.027759 0.0165528 0.0221696 
692 0.510071 0.382283 0.0295806 0.0179292 0.0155096 0.00908477 0.0209037 0.00518198 0.00429074 0.00516546 
693 0.273917 0.377749 0.0845115 0.0724535 0.0482467 0.0362422 0.0353269 0.0151724 0.0175561 0.0388246 
694 0.324717 0.44314 0.0642351 0.0404556 0.036152 0.0233044 0.0191607 0.024374 0.0104585 0.0140031 
695 0.303292 0.40294 0.0763555 0.0569815 0.0561175 0.0353259 0.028421 0.0109579 0.0126116 0.0169967 
696 0.268491 0.352856 0.0752502 0.0655669 0.11892 0.0374476 0.0314554 0.0135097 0.0155485 0.0209549 
697 0.181271 0.310486 0.116975 0.0995326 0.105916 0.0433115 0.0628154 0.0266492 0.0223143 0.0307287 
698 0.273917 0.377749 0.0845115 0.0737946 0.0597055 0.0388269 0.0353269 0.0151724 0.0174622 0.0235339 
699 0.494979 0.393456 0.0333907 0.0169316 0.0358037 0.00724989 0.00607505 0.00428809 0.00355096 0.00427486 
700 0.347504 0.328263 0.0722796 0.0619668 0.0412636 0.0309967 0.056289 0.0263725 0.0149371 0.0201277 
701 0.372029 0.431052 0.0482603 0.0303417 0.0271659 0.0316479 0.0228456 0.0194936 0.0066615 0.0105023 
702 0.282546 0.5733 0.0499285 0.0249553 0.0222994 0.0143747 0.0117587 0.00672123 0.00547853 0.0086374 
703 0.326497 0.552789 0.0433607 0.02403 0.017166 0.0110654 0.00905163 0.0051739 0.00421728 0.00664893 
704 0.162229 0.713097 0.0321428 0.0258762 0.0201091 0.0132992 0.0104931 0.0091328 0.00583522 0.00778627 
705 0.158974 0.373758 0.100383 0.0870765 0.0931932 0.062388 0.0452172 0.0286203 0.0171676 0.0332223 
706 0.16122 0.362716 0.110386 0.0992444 0.102758 0.0541894 0.034024 0.0272964 0.0164102 0.0317566 
707 0.474193 0.394384 0.0476771 0.0165938 0.0426483 0.00711427 0.00580802 0.0040996 0.00339487 0.00408695 
708 0.604773 0.375978 0.00599993 0.00246704 0.00418519 0.00319901 0.0010183 0.000783768 0.00059584 0.000999733 
709 0.698869 0.238095 0.012048 0.00949439 0.00843517 0.00483132 0.0039574 0.0177042 0.00271826 0.00384746 
710 0.329709 0.449549 0.0656351 0.041078 0.0367082 0.0236629 0.0193566 0.0110642 0.0090185 0.0142185 
711 0.57531 0.356452 0.043965 0.00552889 0.0104212 0.00224555 0.00182147 0.00140195 0.0010658 0.00178826 
712 0.718989 0.223228 0.011044 0.00870319 0.0107959 0.0150531 0.0037932 0.00276496 0.00210199 0.00352684 
713 0.851668 0.0752605 0.019577 0.0137105 0.0014622 0.0366517 0.000622459 0.000204403 0.000348044 0.000495588 
714 0.671139 0.263823 0.0162433 0.0103118 0.0231246 0.00526439 0.00318949 0.00245819 0.00159833 0.00284844 
715 0.4556 0.460728 0.0275928 0.0278601 0.00946373 0.00534475 0.00447906 0.00316155 0.00261808 0.0031518 
716 0.257656 0.39006 0.10397 0.0779069 0.0456998 0.0432349 0.0314597 0.0135097 0.0155485 0.0209549 
717 0.120422 0.285719 0.147175 0.152291 0.0811673 0.075512 0.0597713 0.0252894 0.0228674 0.0297849 
718 0.22075 0.256783 0.0829834 0.0857479 0.221233 0.0318173 0.0443804 0.0188283 0.0157656 0.0217105 
719 0.341596 0.359748 0.07679 0.0620052 0.0368916 0.0318877 0.0251597 0.021898 0.0144683 0.029556 
720 0.245724 0.351253 0.0894369 0.098583 0.0725942 0.0488721 0.0295209 0.0256936 0.0164164 0.0219054 
721 0.230016 0.37261 0.101552 0.0826736 0.0491888 0.0425169 0.0393011 0.0361387 0.0211103 0.0248925 
722 0.218893 0.382042 0.112808 0.0852149 0.0499455 0.043171 0.0340623 0.0296465 0.018942 0.0252754 
723 0.421738 0.410463 0.0280525 0.0169855 0.0146933 0.0136361 0.0795709 0.00590188 0.00406491 0.00489359 
724 0.455104 0.362789 0.0387086 0.0958068 0.0159761 0.00900972 0.00755042 0.00532948 0.00441333 0.00531304 
725 0.214478 0.398417 0.120852 0.0822 0.0457248 0.0395227 0.0311838 0.0271411 0.0173413 0.0231395 
726 0.77132 0.17335 0.0257432 0.0064254 0.00468067 0.00314608 0.00762489 0.0050324 0.000962993 0.00171434 
727 0.897228 0.0944527 0.00363893 0.00144453 0.00108947 0.000732278 0.000446804 0.000344359 0.000223904 0.000399027 
728 0.469845 0.441075 0.0257764 0.0226885 0.0154668 0.00716682 0.00600602 0.00423936 0.00351061 0.00422628 
729 0.50825 0.357025 0.0269668 0.0616797 0.0184146 0.0078835 0.00660662 0.00466329 0.00386167 0.00464891 
730 0.296346 0.415409 0.0912735 0.057472 0.0382443 0.0287286 0.028003 0.0120269 0.013842 0.0186549 
731 0.294973 0.537983 0.0658052 0.0332397 0.0218903 0.0141109 0.0115429 0.0065979 0.005378 0.00847892 
732 0.386783 0.465087 0.0614283 0.0233523 0.0203934 0.0131461 0.0107537 0.00614676 0.00501028 0.00789916 
733 0.378821 0.425207 0.0567647 0.0284428 0.0253833 0.0194388 0.0407004 0.00917395 0.00623619 0.00983194 
734 0.444958 0.351069 0.0688504 0.107236 0.0108631 0.00485139 0.00406561 0.00286972 0.00237641 0.00286087 
735 0.333081 0.438182 0.063335 0.0398518 0.0356124 0.0229566 0.0187788 0.0107339 0.00955681 0.0279119 
736 0.551388 0.33172 0.0406062 0.0255135 0.0163489 0.0105349 0.00861765 0.00492583 0.00401508 0.00633015 
737 0.738073 0.192583 0.0322051 0.00669184 0.00485922 0.0107681 0.0022214 0.00138941 0.00104958 0.0101592 
738 0.215576 0.371898 0.101552 0.0826736 0.0491888 0.043607 0.0625388 0.0294176 0.018655 0.0248925 
739 0.181271 0.310486 0.125397 0.10553 0.0915563 0.0432514 0.0628154 0.0266492 0.0223143 0.0307287 
740 0.156565 0.368095 0.0988618 0.0857572 0.0917812 0.0558315 0.035055 0.0281236 0.0316144 0.0483151 
741 0.331713 0.455477 0.0588941 0.0370843 0.0331393 0.0216625 0.0310093 0.0100426 0.0081417 0.0128361 
742 0.264174 0.355729 0.097137 0.0790791 0.0470501 0.0406683 0.0320877 0.0279278 0.0185388 0.0376079 
743 0.226201 0.491749 0.0721118 0.0586716 0.0349082 0.0301733 0.023807 0.0207206 0.0132542 0.0284032 
744 0.615769 0.313284 0.0203066 0.0136872 0.0112484 0.00504544 0.00422824 0.00298451 0.00704043 0.00640633 
745 0.469281 0.427662 0.0351059 0.0189838 0.0164219 0.00927471 0.00777249 0.00548623 0.00454314 0.00546931 
746 0.280666 0.366473 0.0819888 0.0702907 0.0505242 0.0612927 0.034273 0.0147195 0.0169409 0.0228314 
747 0.158974 0.373916 0.112045 0.0906417 0.0931932 0.0566904 0.0355943 0.0285563 0.0171676 0.0332223 
748 0.274326 0.388808 0.088428 0.0724535 0.0482467 0.0362422 0.0353269 0.0151724 0.0174622 0.0235339 
749 0.117217 0.238833 0.147204 0.159544 0.101859 0.0827654 0.0588684 0.029716 0.0277927 0.0362001 
750 0.254318 0.414578 0.104836 0.0640959 0.0411791 0.0471273 0.023327 0.0202844 0.0129603 0.0172937 
751 0.774583 0.160573 0.00822842 0.00533948 0.0451282 0.00209748 0.00127973 0.000986312 0.000641306 0.00114289 
752 0.234741 0.457624 0.124799 0.0559646 0.031519 0.0272438 0.0214956 0.0187089 0.0119537 0.0159505 
753 0.67186 0.259504 0.0190516 0.025462 0.0118796 0.00730175 0.00156613 0.00120137 0.000781139 0.00139209 
754 0.299525 0.461007 0.0593795 0.0480685 0.0674995 0.019805 0.0161305 0.00922015 0.00751541 0.0118487 
755 0.349324 0.588488 0.0238534 0.0101525 0.00907237 0.00584825 0.00478394 0.00273449 0.00222891 0.00351408 
756 0.160614 0.363489 0.134633 0.0814418 0.0884991 0.0646044 0.0334118 0.0265165 0.0159413 0.0308493 
757 0.26574 0.366473 0.0819888 0.0702907 0.0662692 0.0602918 0.0344542 0.0147195 0.0169409 0.0228314 
758 0.158974 0.373758 0.100383 0.0875165 0.104619 0.0602092 0.0355943 0.0285562 0.0171676 0.0332223 
759 0.331219 0.501249 0.0483074 0.033389 0.0247014 0.0255152 0.0128681 0.00733848 0.00598166 0.00943063 
760 0.340675 0.431606 0.112728 0.0346252 0.0300851 0.0154029 0.0125818 0.00719171 0.00586202 0.00924202 
761 0.16428 0.3951 0.0950034 0.0820286 0.0877907 0.0545808 0.0468417 0.0269059 0.0161724 0.0312964 
762 0.265839 0.39467 0.083544 0.0702907 0.0468065 0.0351603 0.0402196 0.0236917 0.0169468 0.0228314 
763 0.489234 0.441104 0.0432311 0.00558567 0.0042126 0.00283155 0.0100609 0.00133152 0.000865763 0.0015429 
764 0.5168 0.339438 0.0345628 0.0485071 0.0190542 0.0210871 0.00686404 0.00484498 0.00401212 0.00483004 
765 0.26884 0.366909 0.088576 0.100819 0.0562428 0.0336535 0.0328035 0.0140887 0.0162149 0.0218529 
766 0.273917 0.377749 0.0845115 0.0724535 0.0482467 0.0363601 0.0447253 0.0210407 0.0174622 0.0235339 
767 0.278318 0.401862 0.0782925 0.0663307 0.0441695 0.0331795 0.0323415 0.0138903 0.0175356 0.0340806 
768 0.511644 0.374422 0.0312767 0.0190083 0.0289544 0.0114237 0.0077725 0.00548623 0.00454314 0.00546931 
769 0.349717 0.421617 0.0632639 0.0398518 0.0356124 0.0255506 0.0259673 0.0158766 0.00874929 0.0137941 
770 0.311544 0.463225 0.0848074 0.0374809 0.0331394 0.0213623 0.0174747 0.00998849 0.0081417 0.0128361 
771 0.236487 0.391767 0.104171 0.0748662 0.044472 0.0384399 0.0303294 0.0263975 0.0168701 0.0362003 
772 0.497837 0.384776 0.0322257 0.0291877 0.0224413 0.00955576 0.00800802 0.00565248 0.00468081 0.00563504 
773 0.323775 0.370326 0.117239 0.036793 0.0270212 0.0438373 0.0382353 0.0192817 0.0115406 0.0119508 
774 0.310596 0.409395 0.0614302 0.0386967 0.0345802 0.0228773 0.0373529 0.0204829 0.0469363 0.0176526 
775 0.61296 0.335806 0.0271049 0.00744738 0.0056168 0.0037753 0.00230352 0.00177536 0.00115435 0.00205721 
776 0.547146 0.411396 0.0272522 0.00439231 0.003304 0.00222076 0.00135501 0.00104433 0.00067903 0.00121012 
777 0.330838 0.4483 0.0657557 0.041078 0.0367082 0.0236629 0.0193566 0.0110642 0.0090185 0.0142185 
778 0.233008 0.399773 0.0782946 0.0658137 0.0748006 0.0615434 0.0270986 0.0215832 0.0129755 0.0251099 
779 0.237262 0.719786 0.0201898 0.00635932 0.00550094 0.0031068 0.00260359 0.00183775 0.00152184 0.00183208 
780 0.362177 0.558604 0.0235169 0.0147518 0.0131825 0.00849773 0.00695125 0.00397332 0.00323869 0.00510609 
781 0.490112 0.390695 0.0327203 0.01986 0.0171799 0.00970277 0.00813122 0.00659787 0.015252 0.00974869 
782 0.268637 0.402418 0.0981662 0.0673651 0.0448005 0.0336535 0.0328035 0.0140887 0.0162149 0.0218529 
783 0.306223 0.488909 0.0608402 0.0381439 0.0340862 0.0219727 0.017974 0.0102739 0.00837432 0.0132029 
784 0.470607 0.478893 0.0191432 0.0109747 0.0109834 0.00320857 0.00195582 0.00150738 0.000980109 0.00174668 
785 0.525026 0.370511 0.04201 0.0174553 0.0150904 0.0085227 0.00714229 0.0050414 0.00417478 0.00502585 
786 0.366774 0.411188 0.0614302 0.0386967 0.0345802 0.0222911 0.0211447 0.0220053 0.00849569 0.0133942 
787 0.678957 0.224282 0.0107455 0.0090832 0.0341072 0.0309444 0.00371471 0.00269023 0.00204518 0.00343152 
788 0.273917 0.377749 0.0845115 0.0724535 0.0482467 0.0362422 0.0353269 0.0151724 0.0218288 0.0345519 
789 0.560662 0.402752 0.0202745 0.00432159 0.00383946 0.00219908 0.00178378 0.00137295 0.00104375 0.00175126 
790 0.209236 0.36096 0.107888 0.129691 0.0477938 0.0412664 0.0325595 0.0283385 0.0181064 0.0241603 
791 0.468489 0.373459 0.0540922 0.0549631 0.0164506 0.00927471 0.00777249 0.00548623 0.00454314 0.00546931 
792 0.187758 0.342282 0.114008 0.113545 0.0856462 0.0518997 0.0325863 0.026143 0.0157168 0.0304148 
793 0.474208 0.404817 0.0352002 0.0264495 0.0153104 0.00863945 0.00977644 0.0154813 0.00502347 0.0050947 
794 0.359211 0.415486 0.0623336 0.0392658 0.0388353 0.0320375 0.0200434 0.0105761 0.00862062 0.0135912 
795 0.269946 0.388503 0.101137 0.0721941 0.0461181 0.0346433 0.0337683 0.0145031 0.0166918 0.0224957 
796 0.490112 0.390695 0.0327203 0.01986 0.0248904 0.0165269 0.00898117 0.00573944 0.00475282 0.00572174 
797 0.429581 0.45273 0.0510158 0.0265552 0.0134541 0.00759856 0.00636783 0.00449474 0.00372209 0.00448088 
798 0.201895 0.34778 0.109592 0.0759026 0.0567113 0.110615 0.0308211 0.0267642 0.0171004 0.0228181 
799 0.92095 0.0657806 0.00268255 0.00408676 0.00143438 0.00195406 0.00193755 0.000440557 0.000263684 0.00046992 
800 0.497978 0.377041 0.0438527 0.0333876 0.0161255 0.00900972 0.00755042 0.00532948 0.00441333 0.00531304 
801 0.371158 0.367015 0.0659461 0.0683784 0.0506935 0.0200019 0.0159263 0.00910344 0.00859933 0.0231779 
802 0.273917 0.377749 0.0857522 0.0819195 0.0529246 0.0362422 0.0353269 0.0151724 0.0174622 0.0235339 
803 0.113925 0.239242 0.14999 0.154781 0.0906469 0.0738297 0.0588956 0.0539319 0.0296381 0.0351195 
804 0.519779 0.36758 0.0505944 0.0224861 0.0184832 0.00600648 0.00503362 0.00355299 0.00294222 0.00354203 
805 0.219203 0.392054 0.103755 0.0839455 0.0499455 0.043171 0.0340623 0.0296465 0.018942 0.0252754 
806 0.496313 0.39944 0.0331597 0.01986 0.0171799 0.00970277 0.00813122 0.00573944 0.00475282 0.00572174 
807 0.671139 0.263823 0.0162433 0.0103117 0.00915684 0.0192029 0.0032188 0.00245819 0.00159833 0.00284844 
808 0.332671 0.356253 0.0722801 0.0619668 0.0416158 0.056921 0.0302529 0.0129764 0.0149347 0.0201277 
809 0.641893 0.295525 0.0197206 0.00905761 0.0072987 0.017633 0.00280625 0.00215922 0.00140394 0.00250201 
810 0.331403 0.441759 0.0638679 0.0392658 0.0350887 0.022619 0.0263754 0.0167377 0.00929204 0.0135912 
811 0.329709 0.434589 0.0652105 0.041078 0.0367082 0.0236629 0.0193566 0.013652 0.0207537 0.0152801 
812 0.537873 0.352741 0.0271585 0.0281044 0.0196669 0.0146752 0.00660662 0.00466329 0.00386167 0.00464891 
813 0.218893 0.393003 0.103115 0.0839455 0.0499455 0.043171 0.0340623 0.0296465 0.018942 0.0252754 
814 0.429614 0.526413 0.0210795 0.00649127 0.00550094 0.0031068 0.00260359 0.00183775 0.00152184 0.00183208 
815 0.66487 0.264631 0.0400562 0.00867966 0.00729864 0.00412209 0.00345444 0.00243832 0.00201917 0.0024308 
816 0.158974 0.373758 0.100383 0.0870765 0.0993347 0.0659331 0.0355947 0.0285563 0.0171676 0.0332223 
817 0.329709 0.43459 0.0754806 0.0461915 0.0367082 0.0236629 0.0193566 0.0110642 0.0090185 0.0142185 
818 0.431512 0.474964 0.0391127 0.0235573 0.0103618 0.00583963 0.00489379 0.00345429 0.00286049 0.00344364 
819 0.418156 0.515086 0.0271481 0.0118621 0.00930576 0.00525567 0.00440441 0.00310886 0.00257445 0.00309927 
820 0.476128 0.414851 0.0474078 0.017215 0.0148892 0.00840907 0.00704706 0.00497418 0.00411911 0.00495884 
821 0.327717 0.343926 0.0762951 0.0705747 0.0522792 0.0328058 0.0456944 0.0136974 0.0157645 0.0212459 
822 0.358579 0.459753 0.0714324 0.0337924 0.0246303 0.0158566 0.0129709 0.00741414 0.00604332 0.00952786 
823 0.220292 0.415062 0.0934762 0.0757841 0.0450897 0.0389738 0.0307507 0.0267642 0.026193 0.0276145 
824 0.117217 0.238833 0.147204 0.159544 0.0934361 0.0761013 0.0585711 0.029716 0.0287468 0.0506306 
825 0.419175 0.456447 0.0635793 0.0169855 0.0146933 0.00829842 0.00695434 0.00490873 0.00406491 0.00489359 
826 0.334792 0.421616 0.0699991 0.0627906 0.0357892 0.0229566 0.0187788 0.0107339 0.00874929 0.0137941 
827 0.338255 0.414308 0.0605526 0.0381439 0.0340862 0.0223793 0.0461307 0.0102819 0.00841163 0.0274513 
828 0.218893 0.377619 0.107559 0.0942396 0.0505918 0.043171 0.0340623 0.0296465 0.018942 0.0252754 
829 0.218893 0.378294 0.116742 0.0850282 0.0499455 0.043171 0.0340623 0.0296465 0.018942 0.0252754 
830 0.242769 0.373579 0.108662 0.0782895 0.0583716 0.0395232 0.0311838 0.0271411 0.0173413 0.0231395 
831 0.694209 0.245398 0.0150831 0.00957519 0.0072216 0.00485396 0.00296167 0.00228261 0.00199015 0.0164247 
832 0.181271 0.310486 0.116975 0.0987636 0.0916723 0.0583052 0.0628346 0.0266492 0.0223143 0.0307287 
833 0.515229 0.430544 0.034237 0.00964115 0.00331387 0.00189802 0.00153958 0.00118498 0.000900854 0.0015115 
834 0.299852 0.479184 0.0539866 0.0507252 0.0293092 0.0295117 0.0233106 0.00921691 0.0106079 0.0142963 
835 0.151965 0.371167 0.096757 0.0860105 0.100993 0.0568323 0.0494899 0.0382703 0.0167578 0.0317566 
836 0.158974 0.373758 0.100383 0.0870765 0.0931932 0.0566904 0.0355943 0.0285563 0.0173668 0.0484077 
837 0.207405 0.144826 0.0821045 0.263724 0.0796897 0.0603803 0.0634847 0.00830853 0.0453119 0.0447648 
838 0.329709 0.449364 0.0658197 0.041078 0.0367082 0.0236629 0.0193566 0.0110642 0.0090185 0.0142185 
839 0.215948 0.386174 0.117129 0.0827526 0.0491888 0.0425169 0.0335462 0.0291973 0.018655 0.0248925 
840 0.385207 0.47329 0.0458496 0.0281072 0.0199295 0.0192226 0.0105577 0.00575337 0.00468962 0.00739362 
841 0.329709 0.434589 0.0652105 0.0424332 0.0505362 0.0238644 0.0193566 0.0110642 0.0090185 0.0142185 
842 0.218893 0.37762 0.103115 0.0839455 0.0504418 0.0508346 0.041287 0.0296465 0.018942 0.0252754 
843 0.619688 0.3456 0.0113607 0.00720713 0.00543561 0.00365352 0.00222922 0.00171809 0.00111711 0.00199084 
844 0.484641 0.412202 0.0361899 0.0187087 0.0161839 0.00914029 0.00765985 0.00540672 0.0044773 0.00539004 
845 0.181271 0.310486 0.116975 0.0987636 0.0913608 0.0432514 0.0630044 0.0418445 0.0223145 0.0307287 
846 0.218893 0.381175 0.114919 0.0839697 0.0499455 0.043171 0.0340623 0.0296465 0.018942 0.0252754 
847 0.119266 0.124215 0.0999136 0.318427 0.0988286 0.0733852 0.0771583 0.0100981 0.0435743 0.0351344 
848 0.051996 0.195221 0.232394 0.0803178 0.197609 0.0385637 0.111528 0.00810528 0.0631485 0.0211166 
849 0.230725 0.371901 0.105945 0.0912764 0.0513453 0.0425169 0.0335462 0.0291973 0.018655 0.0248925 
850 0.264599 0.410338 0.0898429 0.0796165 0.0386838 0.0334061 0.0263577 0.0229407 0.0146575 0.0195584 
851 0.181271 0.310486 0.116975 0.0987636 0.09522 0.0514192 0.066173 0.0266492 0.0223143 0.0307287 
852 0.324729 0.45829 0.0642241 0.0404556 0.036152 0.0233044 0.0190633 0.0108965 0.00888185 0.0140031 
853 0.519613 0.372653 0.0540042 0.0150115 0.0129848 0.00733349 0.00614569 0.00433795 0.00359225 0.00432457 
854 0.390012 0.539555 0.019335 0.0117359 0.0192422 0.00573346 0.00480481 0.00339149 0.00280849 0.00338103 
855 0.474065 0.497687 0.00936926 0.00398966 0.003009 0.00202874 0.00718015 0.000951087 0.000618402 0.00110207 
856 0.117217 0.239546 0.161692 0.159728 0.0934361 0.0761013 0.0585711 0.029716 0.0277927 0.0362001 
857 0.18156 0.324765 0.117791 0.0987636 0.0913608 0.0432514 0.0628154 0.0266492 0.0223143 0.0307287 
858 0.159079 0.388921 0.100499 0.0870765 0.0931932 0.0566904 0.0355943 0.0285563 0.0171676 0.0332223 
859 0.37578 0.445631 0.0599777 0.0314128 0.028071 0.0180952 0.0148021 0.00846084 0.0068965 0.010873 
860 0.115441 0.248358 0.147019 0.172241 0.0920204 0.0749483 0.0576837 0.0292658 0.0273716 0.0356516 
861 0.33022 0.449161 0.0655126 0.041078 0.0367082 0.0236629 0.0193566 0.0110642 0.0090185 0.0142185 
862 0.486426 0.366522 0.0531374 0.0258037 0.0255192 0.0130347 0.0106625 0.00609467 0.00496782 0.00783222 
863 0.218893 0.37836 0.117715 0.0839886 0.0499455 0.043171 0.0340623 0.0296465 0.018942 0.0252754 
864 0.182296 0.322143 0.119677 0.0987636 0.0913608 0.0432514 0.0628154 0.0266492 0.0223143 0.0307287 
865 0.329709 0.434589 0.0652105 0.041078 0.0367082 0.0286256 0.028776 0.0120667 0.0090185 0.0142185 
866 0.495451 0.376679 0.0538804 0.0170177 0.027155 0.00899455 0.00695434 0.00490873 0.00406491 0.00489359 
867 0.329397 0.445144 0.0624891 0.0392658 0.0354074 0.0370042 0.0185046 0.0105761 0.00862062 0.0135912 
868 0.212702 0.432856 0.119394 0.0737173 0.0400797 0.0346434 0.0273339 0.0237904 0.0152004 0.0202827 
869 0.853705 0.11212 0.00526625 0.0107721 0.00405325 0.00836787 0.0017129 0.00131839 0.00100227 0.00168167 
870 0.701271 0.237238 0.03332 0.00747296 0.00662763 0.00379604 0.00307915 0.00236997 0.00180171 0.003023 
871 0.273917 0.377749 0.0845115 0.0724535 0.0482467 0.0366126 0.0503401 0.0151733 0.0174622 0.0235339 
872 0.119266 0.124215 0.101693 0.318603 0.0968726 0.0733852 0.0771583 0.0100981 0.0435743 0.0351344 
873 0.489439 0.378894 0.0409226 0.0423391 0.0134798 0.00685522 0.00574489 0.00405504 0.00404232 0.0142277 
874 0.222284 0.370294 0.138955 0.0790791 0.0470501 0.0406683 0.0320877 0.0279278 0.0178439 0.0238102 
875 0.293015 0.374019 0.0807831 0.0717157 0.0583641 0.0346445 0.0337683 0.0145031 0.0166918 0.0224957 
876 0.343276 0.407984 0.104815 0.0346797 0.0309874 0.0200473 0.0292337 0.00936104 0.00761302 0.0120026 
877 0.334718 0.4179 0.0756814 0.0518465 0.0480567 0.0219727 0.017974 0.0102739 0.00837432 0.0132029 
878 0.227284 0.366347 0.100037 0.0814396 0.0500905 0.0560496 0.0470218 0.0288328 0.0183766 0.0245209 
879 0.242266 0.402194 0.0946354 0.0768515 0.0457248 0.0395227 0.0311838 0.0271411 0.0173413 0.0231395 
880 0.122343 0.243464 0.144973 0.157127 0.0937608 0.0882514 0.0577917 0.0292658 0.0273716 0.0356516 
881 0.181271 0.310486 0.116975 0.0991801 0.105224 0.0443563 0.0628154 0.0266492 0.0223143 0.0307287 
882 0.114963 0.260307 0.142815 0.169704 0.0906469 0.0738297 0.0568227 0.028829 0.0269631 0.0351195 
883 0.490112 0.390696 0.0327203 0.01986 0.0171799 0.00970277 0.00813123 0.00573944 0.00708431 0.0187748 
884 0.295581 0.366483 0.0819888 0.0702907 0.0468067 0.0499471 0.0344107 0.0147195 0.0169409 0.0228314 
885 0.218893 0.377619 0.103115 0.0839455 0.0499455 0.043171 0.0340623 0.0296465 0.0190567 0.0405454 
886 0.342888 0.431678 0.0624642 0.0392658 0.0350887 0.022619 0.0185026 0.0105761 0.0086937 0.028224 
887 0.310559 0.554926 0.0373047 0.0234217 0.0209301 0.013492 0.0110366 0.00630853 0.00536605 0.0166545 
888 0.218893 0.377619 0.103115 0.0866118 0.0593446 0.0464902 0.0340623 0.0296465 0.018942 0.0252754 
889 0.50323 0.369994 0.0308234 0.0187087 0.0161839 0.0100703 0.0293606 0.0117614 0.0044773 0.00539004 
890 0.181271 0.310486 0.116975 0.102326 0.100935 0.0454997 0.0628154 0.0266492 0.0223143 0.0307287 
891 0.270326 0.387055 0.097946 0.0713557 0.0475156 0.0356931 0.0347916 0.0149426 0.0171976 0.0231773 
892 0.273917 0.377749 0.0845115 0.0724535 0.052541 0.0471505 0.0355088 0.0151724 0.0174622 0.0235339 
893 0.115441 0.250366 0.144973 0.157127 0.0920204 0.0749483 0.05983 0.0396494 0.0299933 0.0356516 
894 0.179534 0.334647 0.115631 0.0972672 0.0899766 0.042596 0.0618636 0.0262454 0.0219762 0.0302632 
895 0.642239 0.271579 0.0134717 0.018964 0.0100401 0.028583 0.00978067 0.00190217 0.0012368 0.00220415 
896 0.481965 0.428832 0.0435872 0.0147834 0.0103397 0.00583963 0.00489379 0.00345429 0.00286049 0.00344364 
897 0.263066 0.378601 0.0953119 0.0683203 0.0743682 0.0341412 0.0332789 0.0142929 0.0164499 0.0221696 
898 0.209243 0.375526 0.100418 0.121999 0.0483836 0.0412664 0.0325595 0.0283385 0.0181064 0.0241603 
899 0.212359 0.366347 0.100037 0.0814396 0.0526036 0.0643728 0.05118 0.0287636 0.0183766 0.0245209 
900 0.883662 0.0656897 0.00624914 0.00138112 0.000675192 0.000998576 0.000476134 0.000169654 0.000744719 0.039954 
901 0.27872 0.392724 0.0732442 0.0808373 0.0504355 0.0315972 0.0437297 0.0131824 0.0151339 0.0203961 
902 0.369284 0.396091 0.0624794 0.0497856 0.0415218 0.0286248 0.0265761 0.00827669 0.00673796 0.010623 
903 0.30546 0.370681 0.0752504 0.0645134 0.0429594 0.0322706 0.0451539 0.0135099 0.029247 0.0209549 
904 0.698868 0.238095 0.012048 0.00949438 0.00843517 0.00483132 0.00391892 0.00301632 0.00328025 0.0180118 
905 0.220694 0.399462 0.111373 0.0790818 0.0470501 0.0406683 0.0320877 0.0279278 0.0178439 0.0238102 
906 0.329709 0.434589 0.066092 0.05509 0.0371993 0.0236629 0.0193566 0.0110642 0.0090185 0.0142185 
907 0.635388 0.257249 0.0159597 0.0529552 0.00756261 0.00350286 0.00962001 0.014292 0.00156212 0.00190875 
908 0.786444 0.16075 0.0189692 0.0208932 0.00567377 0.00248012 0.00151326 0.0011663 0.000758332 0.00135145 
909 0.329711 0.44997 0.0652126 0.041078 0.0367082 0.0236629 0.0193566 0.0110642 0.0090185 0.0142185 
910 0.257595 0.386022 0.0967524 0.0837322 0.0406327 0.035202 0.0380996 0.0260382 0.0153904 0.0205363 
911 0.482965 0.399597 0.0400974 0.0268887 0.0169196 0.00955576 0.00800802 0.00565248 0.00468081 0.00563504 
912 0.326699 0.362226 0.0722796 0.0619668 0.0412636 0.0309971 0.0433712 0.0131934 0.0278757 0.0201277 
913 0.301846 0.411947 0.060738 0.121075 0.0336061 0.0216632 0.0177208 0.0101292 0.00825637 0.0130169 
914 0.759327 0.19611 0.0114126 0.0186624 0.00463935 0.00265723 0.00215541 0.00165898 0.0012612 0.0021161 
915 0.280664 0.366474 0.0903103 0.0918199 0.0468065 0.0351603 0.0342723 0.0147195 0.0169409 0.0228314 
916 0.269677 0.286179 0.109507 0.0844689 0.0781376 0.0369913 0.0537237 0.0227921 0.0190846 0.039439 
917 0.698865 0.238099 0.012048 0.0113196 0.0217615 0.00483132 0.00391892 0.00301632 0.00229308 0.00384746 
918 0.21706 0.39757 0.1047 0.0826736 0.0491888 0.0425169 0.0335462 0.0291973 0.018655 0.0248925 
919 0.26574 0.411168 0.0820695 0.0702907 0.0468065 0.0351603 0.0342723 0.0147195 0.0169409 0.0228314 
920 0.66603 0.255947 0.0157594 0.0398534 0.00754531 0.0050713 0.00309428 0.00238481 0.00155062 0.00276341 
921 0.767401 0.17329 0.0100554 0.00639312 0.0143238 0.0032407 0.00197445 0.00155596 0.011553 0.0102132 
922 0.324713 0.428004 0.0687225 0.0656379 0.0367728 0.0233044 0.0190633 0.0108965 0.00888185 0.0140031 
923 0.255944 0.366553 0.098586 0.092235 0.046378 0.0400874 0.0316293 0.0275289 0.017589 0.02347 
924 0.781321 0.168126 0.00702249 0.0287817 0.0050617 0.00261366 0.00212007 0.00163178 0.00124052 0.00208141 
925 0.311944 0.439184 0.0683919 0.0721082 0.0318454 0.0264788 0.0214643 0.00922015 0.00751541 0.0118487 
926 0.438379 0.462229 0.0295838 0.0313966 0.0223742 0.00457075 0.00382992 0.00270336 0.00223865 0.00269502 
927 0.490112 0.390695 0.032893 0.034983 0.0172687 0.00970277 0.00813122 0.00573944 0.00475282 0.00572174 
928 0.469005 0.411636 0.0396262 0.0288683 0.0201268 0.00875945 0.00734069 0.00518144 0.00429074 0.00516546 
929 0.273917 0.379082 0.0985366 0.0724797 0.0482467 0.0362422 0.0353269 0.0151724 0.0174622 0.0235339 
930 0.158974 0.374028 0.114163 0.088412 0.0931932 0.0566904 0.0355943 0.0285563 0.0171676 0.0332223 
931 0.218986 0.392733 0.103293 0.0839455 0.0499455 0.043171 0.0340623 0.0296465 0.018942 0.0252754 
932 0.184709 0.320468 0.11894 0.0987636 0.0913608 0.0432514 0.0628154 0.0266492 0.0223143 0.0307287 
933 0.218893 0.378532 0.117104 0.0844282 0.0499455 0.043171 0.0340623 0.0296465 0.018942 0.0252754 
934 0.117217 0.238833 0.147206 0.174901 0.0934611 0.0761013 0.0585711 0.029716 0.0277927 0.0362001 
935 0.273917 0.377749 0.0845115 0.0724535 0.0636312 0.0362422 0.0353269 0.0151724 0.0174622 0.0235339 
936 0.206206 0.412651 0.110656 0.0810985 0.0470501 0.0406683 0.0320877 0.0279278 0.0178439 0.0238102 
937 0.158974 0.375606 0.113612 0.0873843 0.0931932 0.0566904 0.0355943 0.0285563 0.0171676 0.0332223 
938 0.2272 0.384697 0.103115 0.0839455 0.0499455 0.043171 0.0340623 0.0296465 0.018942 0.0252754 
939 0.119266 0.124215 0.107004 0.31302 0.0971452 0.0733852 0.0771583 0.0100981 0.0435743 0.0351344 
940 0.632853 0.335191 0.0104542 0.00663627 0.00500507 0.00336413 0.00205264 0.00158201 0.00102863 0.00183315 
941 0.219679 0.389846 0.105487 0.0839455 0.0499455 0.043171 0.0340623 0.0296465 0.018942 0.0252754 
942 0.158974 0.373758 0.101555 0.099947 0.0945347 0.0566904 0.0355943 0.0285563 0.0171676 0.0332223 
943 0.329709 0.434589 0.0670207 0.0546014 0.0367593 0.0236629 0.0193566 0.0110642 0.0090185 0.0142185 
944 0.051996 0.195497 0.246297 0.0705319 0.193217 0.0385638 0.111528 0.00810528 0.0631485 0.0211166 
945 0.391545 0.443678 0.0563147 0.0287645 0.0256563 0.0165386 0.0135288 0.00773303 0.00630325 0.00993766 
946 0.277501 0.394292 0.0835343 0.0713557 0.0475156 0.0356931 0.0347916 0.0149426 0.0171976 0.0231773 
947 0.27392 0.393126 0.0845163 0.0724535 0.0482467 0.0362422 0.0353269 0.0151724 0.0174622 0.0235339 
948 0.3299 0.448234 0.0667593 0.041078 0.0367082 0.0236629 0.0193566 0.0110642 0.0090185 0.0142185 
949 0.331269 0.448165 0.0654596 0.041078 0.0367082 0.0236629 0.0193566 0.0110642 0.0090185 0.0142185 
