0 2 1.52978e-07
0 4 0.0788329
0 6 0.0132823
0 7 0.000606527
0 9 0.000533215
0 13 0.0420214
0 19 0.0244053
0 20 5.40683e-05
0 21 0.00200914
0 22 0.00026865
0 24 0.00105928
0 27 2.80208e-07
0 28 0.223615
0 30 1.68366e-06
0 40 0.00244599
0 42 6.27683e-06
0 45 0.000169995
0 56 0.0150594
0 57 0.340241
0 58 0.00185359
0 66 0.0768266
0 82 2.05674e-06
0 92 0.00938555
0 93 1.25507e-05
0 100 0.000781811
0 110 0.0614684
0 117 0.00021258
0 122 7.51782e-05
0 141 0.00220507
0 142 2.52586e-06
0 146 3.56761e-06
0 153 1.03649e-06
0 157 4.12091e-05
0 160 1.72761e-06
0 180 1.54754e-06
0 186 1.8812e-07
0 190 1.50926e-05
0 191 0.0016171
0 195 4.4144e-06
0 199 2.81729e-05
0 203 0.0507577
0 225 8.87079e-07
0 234 0.039927
0 237 0.00298203
0 245 1.52019e-05
0 249 9.43899e-07
0 254 0.00642633
0 283 9.32671e-05
0 288 2.61101e-06
0 289 2.39114e-05
0 314 2.8129e-05
0 332 4.99043e-05
0 345 0.000142678
0 371 2.73245e-05
0 436 1.1661e-07
0 487 1.26353e-07
0 630 4.24122e-07
0 847 2.75408e-06
0 942 4.40681e-07
0 1159 2.02485e-07
0 1196 1.12192e-06
0 1205 1.19948e-07
0 1266 0.000286517
0 1357 2.77937e-05
0 1908 1.12578e-06
0 2763 2.11966e-07
0 3330 1.94237e-07
0 3393 1.4602e-07
0 3442 2.22263e-07
0 3443 1.33784e-07
0 4396 9.81955e-07
0 6419 1.38958e-05
0 6469 2.77728e-07
0 8276 1.12991e-07
0 9919 1.0786e-07
0 11949 1.56658e-07
0 13999 6.48064e-06
0 14357 5.92439e-07
0 17333 1.254e-05
0 17473 4.02116e-07
0 19867 1.49756e-07
2 2 3.16531e-05
2 6 2.22172e-06
2 9 0.000365383
2 13 0.906525
2 19 2.83418e-05
2 20 0.00187406
2 24 9.82516e-06
2 45 0.0868591
2 57 5.08409e-05
2 58 1.05957e-05
2 66 2.19271e-05
2 141 0.00337694
2 283 1.722e-06
2 288 0.00083748
2 400 3.20884e-07
2 512 1.12201e-07
2 1160 2.73279e-07
2 20087 3.59859e-06
3 2 0.0161627
3 3 0.623047
3 6 0.115287
3 13 0.0175634
3 28 0.00040076
3 141 0.00192572
3 157 0.0168703
3 186 0.0166094
3 191 0.0784934
3 237 0.0293187
3 625 0.000160099
3 974 0.0168389
3 1394 0.0336782
3 19597 0.0336447
4 5 0.253358
4 10 0.119062
4 58 6.08118e-07
4 100 0.00163584
4 202 0.00859462
4 639 0.333618
4 708 0.0086897
4 1167 7.78953e-06
4 1826 1.43312e-06
4 1837 0.00923624
4 1913 0.0092674
4 1914 0.00922955
4 2584 0.00923653
4 3027 0.00923523
4 3061 0.064616
4 3204 0.0466137
4 3206 0.0371358
4 3688 8.84193e-06
4 3725 0.00923643
4 4491 7.94825e-06
4 4554 1.82112e-05
4 7644 0.00923391
4 8370 0.00923658
4 9591 0.00923654
4 9700 0.00923583
4 9701 0.000461568
4 9702 0.0279557
4 18868 0.00582989
5 4 0.753443
5 6 4.50597e-05
5 11 1.94229e-07
5 57 0.000232079
5 58 0.000119094
5 66 1.50487e-05
5 78 1.32777e-07
5 100 0.00942221
5 110 6.95854e-07
5 117 0.0041487
5 141 2.56742e-07
5 157 0.038913
5 160 2.05575e-07
5 191 0.000470983
5 203 4.16333e-05
5 237 5.5828e-05
5 254 2.03717e-06
5 289 0.0494866
5 314 1.17904e-07
5 332 0.0103418
5 345 0.000121632
5 409 0.00348723
5 446 3.02081e-06
5 659 0.000899867
5 847 1.8189e-05
5 1247 0.000536659
5 1357 0.0103654
5 1493 0.0208261
5 1554 0.00351969
5 1558 0.00990648
5 1559 0.00997636
5 1560 3.72418e-06
5 1606 0.0034436
5 1629 0.0104427
5 1764 0.0034809
5 2103 0.000666131
5 2109 0.0310727
5 3767 0.00348661
5 6445 0.00174835
5 6446 0.00348066
5 10988 0.00532784
5 14253 0.0104427
5 20147 3.99173e-06
6 4 0.99773
6 6 6.92404e-07
6 7 1.96144e-07
6 21 2.3183e-07
6 28 1.69579e-07
6 57 3.3858e-06
6 58 5.516e-06
6 141 5.78019e-06
6 191 3.43584e-07
6 254 4.35016e-07
6 287 0.00205142
6 289 0.000166852
6 597 1.68051e-05
6 655 1.30144e-05
6 942 1.05792e-07
6 2483 1.04577e-07
6 17333 1.94323e-06
6 23142 1.05245e-06
7 4 3.56974e-06
7 6 0.000673131
7 7 0.84641
7 13 5.3252e-07
7 24 1.26694e-07
7 56 1.39172e-05
7 57 2.15637e-06
7 58 5.32136e-06
7 84 4.63984e-05
7 89 1.24149e-07
7 141 0.115219
7 142 0.0222232
7 147 0.000123558
7 157 2.60905e-07
7 191 0.000215436
7 655 8.59639e-05
7 668 0.0125478
7 1001 5.22757e-06
7 1199 2.39654e-07
7 1266 0.000120869
7 1394 4.58467e-07
7 1541 1.37724e-06
7 2574 5.85465e-05
7 3071 1.61144e-07
7 3370 0.00109435
7 3773 0.000995636
7 5982 2.49693e-07
7 16762 5.39966e-07
7 17723 0.000151374
8 2 0.0303185
8 6 0.894539
8 12 0.00147883
8 20 1.03405e-06
8 56 8.85879e-07
8 57 2.1558e-06
8 92 2.6594e-07
8 100 1.47998e-07
8 110 8.06749e-07
8 114 2.46578e-07
8 144 0.0587184
8 147 0.000717466
8 157 0.00234489
8 190 5.73869e-06
8 195 0.000107552
8 283 1.65729e-06
8 390 6.51368e-06
8 518 1.97551e-07
8 1214 0.00123283
8 1718 0.0100492
8 1950 1.29873e-06
8 2525 1.23973e-07
8 5067 1.45806e-05
8 5982 0.000456132
8 14946 6.85414e-07
9 4 2.54355e-05
9 6 0.00096143
9 8 6.65512e-06
9 9 0.381821
9 13 0.00373507
9 19 0.000583222
9 21 0.00760816
9 22 0.0874643
9 28 0.00140251
9 40 0.000271368
9 45 0.160387
9 56 0.00133404
9 57 0.000589654
9 58 0.0741228
9 66 8.44673e-07
9 89 0.000116833
9 92 2.0384e-05
9 110 4.88844e-06
9 141 0.015401
9 180 0.00352852
9 187 3.2991e-07
9 190 3.66265e-06
9 234 0.000628458
9 254 1.99543e-06
9 345 3.88857e-05
9 409 0.00998445
9 466 0.00771886
9 516 5.18772e-05
9 542 0.00995954
9 597 0.000202598
9 1162 2.16284e-05
9 1573 0.0423901
9 1882 5.39952e-05
9 3318 7.07553e-07
9 3442 0.00997722
9 5031 0.00893508
9 5067 1.03509e-05
9 6355 0.000213716
9 7135 0.00995894
9 10683 0.0406737
9 13303 0.0101006
9 13999 4.31813e-05
9 14946 8.20416e-06
9 15129 0.00995892
9 15485 9.66502e-07
9 15486 0.00995651
9 15487 0.00995701
9 15808 0.00996968
9 15814 0.00995894
9 15815 0.00995955
9 15816 0.00995926
9 20393 8.02436e-05
9 21041 0.0199178
9 21043 0.0199177
10 8 0.553332
10 19 1.8921e-06
10 24 0.112742
10 26 0.00205873
10 57 1.88029e-05
10 100 2.03401e-07
10 137 0.000162005
10 190 2.43874e-06
10 216 0.159793
10 237 3.11265e-07
10 253 0.00236805
10 566 0.0337347
10 568 0.00903801
10 588 0.0388182
10 630 0.00241514
10 759 0.00568376
10 1300 0.00223149
10 1484 0.0015457
10 1659 6.06972e-06
10 2483 8.74372e-06
10 2584 0.00223195
10 2993 3.7195e-05
10 4394 0.00222769
10 5000 1.16264e-05
10 5542 0.00247597
10 5550 0.00223054
10 5679 0.00892336
10 5680 0.0044617
10 5681 0.00223083
10 5874 0.0489789
10 7273 1.78559e-06
10 15863 0.00222737
11 4 1.11714e-06
11 6 0.00656978
11 7 0.117249
11 11 0.00473606
11 13 0.000122033
11 19 1.76148e-07
11 21 2.12307e-06
11 28 4.28191e-05
11 38 0.00681106
11 42 1.67122e-06
11 45 1.59464e-05
11 56 5.83404e-06
11 57 0.000126323
11 78 1.25048e-07
11 89 0.0411793
11 92 0.000879822
11 100 0.000378227
11 121 2.07141e-06
11 122 7.66402e-07
11 141 0.564498
11 142 0.0743803
11 146 0.0519242
11 147 0.00704748
11 153 0.0652257
11 160 0.000219902
11 180 0.0362848
11 191 2.68108e-05
11 195 3.48075e-07
11 203 3.7412e-05
11 225 0.00381917
11 234 0.000197301
11 254 1.52878e-05
11 371 1.04089e-06
11 820 0.00163638
11 942 1.41886e-06
11 1292 5.73987e-06
11 1908 3.66086e-07
11 2332 2.63709e-07
11 3330 2.06512e-05
11 4489 3.65212e-07
11 6980 0.00157848
11 7145 0.0062049
11 7166 0.00299399
11 7319 7.51609e-07
11 11033 0.00121683
11 11415 0.00149699
11 11416 0.00149631
11 11949 7.41893e-06
11 17813 0.00149726
11 18320 3.95422e-05
12 4 0.689577
12 6 0.000195529
12 7 0.00392171
12 9 1.01157e-06
12 11 1.65574e-06
12 20 1.31752e-05
12 22 2.28992e-06
12 28 0.000800859
12 45 6.20967e-05
12 56 3.66633e-06
12 57 0.00235059
12 58 6.54369e-05
12 66 0.00250479
12 92 0.000507156
12 93 3.91382e-06
12 100 0.00070122
12 110 2.11525e-06
12 141 1.27636e-06
12 142 0.0166748
12 153 1.25292e-05
12 160 1.72558e-05
12 184 1.57553e-06
12 191 0.27489
12 195 0.000152866
12 254 3.54348e-06
12 305 1.06895e-07
12 371 3.99672e-05
12 585 2.20753e-06
12 655 1.18364e-06
12 2332 4.38219e-07
12 2399 1.11551e-07
12 2622 5.28864e-06
12 3330 1.44806e-05
12 3373 0.00745892
12 3393 1.0105e-07
12 3734 2.5585e-07
12 6469 8.37945e-06
12 7029 1.19363e-07
12 9535 1.59642e-07
13 4 0.000120194
13 6 7.79363e-05
13 7 0.0493808
13 9 0.172586
13 11 0.059344
13 13 9.91896e-05
13 19 4.22212e-05
13 20 0.010487
13 21 1.17811e-05
13 22 0.000417699
13 28 0.000268551
13 40 5.11959e-05
13 42 0.0219887
13 45 0.0525355
13 57 0.00195606
13 58 0.00882419
13 66 0.0249645
13 78 0.00232485
13 92 0.0149631
13 100 3.03231e-06
13 110 1.37025e-07
13 117 1.12372e-06
13 121 0.00888079
13 122 1.29045e-05
13 141 0.0118609
13 146 0.00255732
13 147 0.203526
13 160 1.7459e-05
13 180 1.9175e-06
13 190 6.0824e-07
13 191 0.000565738
13 195 0.00307881
13 203 3.05208e-05
13 211 0.00103476
13 234 0.00108077
13 245 0.0173476
13 254 0.000178009
13 283 0.0293139
13 332 0.0694659
13 345 5.71386e-05
13 446 0.0344522
13 689 2.69084e-05
13 950 0.0336747
13 1196 0.0132957
13 1266 0.00883008
13 1328 0.0249408
13 1590 1.32364e-06
13 1950 2.67969e-06
13 2399 4.08532e-05
13 2428 0.0173802
13 2483 0.0407654
13 2859 0.0087162
13 5037 0.00011996
13 5586 6.76175e-06
13 11949 0.00545355
13 14734 0.0328041
13 16674 1.72589e-07
13 16823 0.00979592
13 16999 0.0001874
13 19002 1.04188e-06
13 19103 4.18942e-05
13 21806 2.85903e-06
13 22676 1.78466e-07
14 6 0.0202586
14 13 9.98021e-06
14 20 1.67178e-07
14 28 0.000106076
14 42 0.0752788
14 57 3.17135e-05
14 66 0.0030915
14 73 3.45694e-05
14 84 0.0270124
14 88 0.026791
14 89 6.06995e-07
14 92 0.0791981
14 100 1.11012e-06
14 141 0.0561765
14 157 0.013366
14 191 0.116786
14 194 0.00361071
14 203 0.000567121
14 211 0.0265533
14 216 0.012213
14 225 1.31459e-06
14 260 2.05364e-05
14 446 0.000954185
14 462 0.0532662
14 463 0.0535424
14 464 0.053543
14 470 0.0316773
14 498 0.0132619
14 504 1.39419e-06
14 541 0.020258
14 542 0.0196661
14 543 0.026771
14 847 0.0133809
14 1207 1.7702e-07
14 1328 0.0268247
14 1981 0.0118962
14 2987 0.0133786
14 3510 0.0264333
14 3571 0.0134015
14 4370 0.0267824
14 13278 0.0267716
14 13279 0.0267715
14 13781 0.0133816
14 21284 0.0133857
14 21285 0.0133857
14 21286 0.0133854
14 23208 0.0267703
15 4 0.0429239
15 6 0.00153094
15 7 0.0163369
15 9 0.000758006
15 19 3.38155e-05
15 20 0.175318
15 21 0.000518743
15 22 0.000894198
15 27 3.48336e-07
15 28 0.181633
15 36 0.00033491
15 40 2.36307e-07
15 45 1.22389e-05
15 48 1.0909e-05
15 56 0.00612626
15 57 0.0997201
15 58 0.0144858
15 66 0.0352722
15 86 1.01601e-05
15 92 0.007242
15 93 4.09293e-07
15 100 0.00389278
15 105 0.00217866
15 110 0.000119014
15 117 1.36631e-05
15 122 4.00391e-05
15 141 1.69993e-05
15 142 8.57581e-05
15 153 0.0205169
15 160 0.000870063
15 191 0.26517
15 193 6.89499e-07
15 195 2.71349e-07
15 203 0.000501915
15 234 3.27138e-05
15 245 0.000269267
15 254 0.00180348
15 446 0.10508
15 655 5.35073e-07
15 657 4.60475e-07
15 745 6.58271e-06
15 750 2.67636e-07
15 847 0.000210745
15 921 3.79719e-07
15 942 1.09054e-05
15 1060 1.66738e-05
15 1087 0.00201312
15 1196 2.40155e-06
15 1205 4.02961e-07
15 1247 9.61042e-05
15 1266 6.96878e-07
15 1908 7.32884e-05
15 3330 1.49814e-06
15 3393 0.0132567
15 4880 6.96592e-07
15 7091 9.74773e-05
15 14357 1.18988e-06
15 14465 1.16275e-05
15 15519 0.000379751
15 21605 6.3643e-05
16 4 0.00152739
16 5 0.164491
16 8 0.0126497
16 9 0.0182175
16 10 0.4049
16 11 7.46027e-05
16 21 0.0211437
16 22 0.0260056
16 45 0.0331836
16 179 0.0127242
16 180 0.0697163
16 237 0.0213629
16 639 0.0632659
16 1892 0.0369753
16 4315 0.0251901
16 4316 0.0379595
16 7097 0.0126529
16 7098 0.012653
16 21036 0.0126532
16 21037 0.0126532
17 4 0.000339502
17 6 0.00216401
17 9 0.00494407
17 12 0.000599828
17 16 0.115957
17 18 0.00330416
17 20 1.23887e-07
17 21 0.173326
17 22 3.25195e-05
17 24 0.000174753
17 28 4.29988e-05
17 34 0.0305902
17 56 1.27223e-05
17 57 0.000269975
17 58 2.37692e-05
17 98 5.24878e-06
17 100 9.27123e-06
17 110 8.63455e-06
17 146 1.22102e-05
17 147 7.88592e-05
17 157 2.36553e-05
17 190 0.585479
17 193 0.0596035
17 203 4.13758e-07
17 254 5.85553e-06
17 310 6.59862e-07
17 314 3.58555e-07
17 390 6.49253e-06
17 708 1.13144e-07
17 752 3.55439e-07
17 942 1.79537e-05
17 1061 5.4944e-06
17 1484 0.000781688
17 1586 1.87715e-05
17 1606 0.00508682
17 1908 0.00836918
17 2951 5.16126e-05
17 2962 0.00413347
17 3974 0.00203518
17 7903 0.00248201
17 18196 1.29807e-07
18 12 0.186326
18 14 0.0259792
18 16 0.00534219
18 19 0.0164953
18 21 0.07167
18 30 0.036387
18 32 0.0724795
18 90 0.0362397
18 92 0.00937074
18 141 0.00043209
18 180 0.0279848
18 190 0.03734
18 199 0.0723621
18 287 0.00307511
18 1028 0.0724795
18 1227 0.0362398
18 1606 0.0361198
18 2709 0.0362387
18 4306 0.0362398
18 4310 0.0362397
18 4311 0.0362398
18 4312 0.0362397
18 15641 0.0362394
18 19725 0.0362397
19 4 0.000984808
19 6 0.10847
19 13 0.20729
19 122 0.0598031
19 234 4.2787e-05
19 424 0.121076
19 985 0.0598405
19 1012 0.0602728
19 1309 0.181323
19 1559 0.0198955
19 3150 7.2234e-07
19 4641 0.0602224
19 13397 0.0602417
19 13398 0.0605376
20 12 0.000123192
20 14 0.0473968
20 15 0.00433118
20 16 0.948149
21 6 2.65819e-07
21 13 5.02967e-07
21 14 0.0143436
21 17 0.751543
21 18 0.0263159
21 22 8.81847e-05
21 24 0.000243868
21 26 0.000190649
21 40 0.0319129
21 111 7.85039e-05
21 157 1.38105e-06
21 180 0.01347
21 191 2.39233e-06
21 283 1.7278e-06
21 289 0.0504509
21 488 2.34789e-07
21 542 2.35977e-06
21 595 0.0139272
21 847 0.0278221
21 1642 0.0139203
21 4088 0.0139201
21 9332 3.80358e-06
21 18181 0.0139202
21 18182 0.0139202
21 21247 0.0139203
22 6 0.000182233
22 8 2.90305e-05
22 13 0.00220345
22 18 0.913263
22 19 5.33664e-06
22 24 1.95228e-06
22 26 4.37827e-07
22 36 8.46352e-07
22 40 0.000158747
22 100 5.66547e-06
22 110 2.90267e-06
22 111 0.0393672
22 141 1.66697e-05
22 157 0.0206904
22 180 5.27763e-07
22 245 2.08744e-07
22 289 1.56765e-05
22 372 8.59822e-06
22 837 0.0120022
22 942 2.42899e-05
22 995 1.72469e-06
22 1957 7.92259e-05
22 5563 3.53477e-07
22 7133 0.000155247
22 18389 0.00382817
22 19808 0.000296241
22 21921 0.00765797
22 22982 1.29151e-06
23 6 2.57484e-06
23 9 0.00794434
23 14 0.0476912
23 19 0.00122372
23 21 0.0128168
23 22 0.822536
23 24 0.0538313
23 30 2.79019e-05
23 100 0.00030167
23 156 0.0011338
23 157 0.00422464
23 187 0.00100897
23 190 0.0111962
23 195 1.59634e-06
23 199 1.34237e-07
23 200 2.40287e-07
23 314 1.151e-07
23 399 2.04642e-07
23 487 0.00101357
23 588 3.46791e-07
23 750 1.21936e-07
23 985 9.00427e-07
23 1060 2.74318e-05
23 1196 3.40866e-05
23 1198 1.5365e-06
23 2365 0.00187583
23 3450 1.1587e-05
23 4502 0.00829138
23 5035 0.00502121
23 5037 2.02981e-05
23 5545 1.75229e-06
23 5547 0.000876645
23 5550 0.0011822
23 5570 0.00202174
23 5572 0.014475
23 5593 1.11182e-07
23 5619 1.42125e-07
23 6316 0.00100357
23 6469 0.000189131
23 14262 9.85948e-07
23 17473 7.17413e-06
23 17825 3.15404e-07
24 14 0.271393
24 66 1.51495e-05
24 133 0.0171924
24 190 0.00116814
24 3310 0.285177
24 3311 0.282466
24 14251 0.142588
25 9 0.000133345
25 11 2.57298e-07
25 15 0.710011
25 45 0.0105507
25 141 5.80718e-07
25 142 0.116129
25 153 0.0238329
25 211 1.27583e-06
25 1166 0.0404701
25 1180 1.07079e-06
25 1337 0.00441123
25 1689 1.06188e-07
25 1748 0.0044123
25 1856 0.0260907
25 1892 0.00445581
25 2347 0.0044123
25 2438 0.0017192
25 3138 1.09882e-07
25 3219 3.0159e-05
25 3241 0.0044123
25 4820 1.0299e-07
25 4823 6.25288e-05
25 4824 0.0101905
25 4825 0.00887238
25 5217 8.6206e-05
25 6321 1.57239e-05
25 8156 0.0038513
25 8157 7.38814e-05
25 8158 0.00440264
25 8159 0.001792
25 8372 0.00689041
25 9777 1.85231e-07
25 9862 8.77027e-07
25 10310 1.67931e-06
25 12742 2.99205e-07
25 14671 0.0038513
25 14672 0.00440264
25 17521 0.00441228
25 17864 1.1419e-07
25 19568 1.79206e-05
26 12 1.44186e-05
26 14 9.16415e-06
26 19 0.433169
26 28 8.72404e-06
26 142 0.0453196
26 254 0.449223
26 1292 0.004253
26 5853 0.0003324
26 5854 0.0676705
27 19 0.0508181
27 20 0.837837
27 21 0.0342332
27 22 2.35098e-05
27 30 0.00381822
27 99 0.0355713
27 130 0.0152815
27 157 3.47512e-06
27 186 0.000296134
27 190 2.50177e-06
27 287 4.0372e-07
27 289 3.04418e-07
27 345 0.00114238
27 461 6.68089e-05
27 942 0.00032028
27 1106 0.00192097
27 1147 0.000113339
27 1659 3.68832e-05
27 1882 3.41036e-05
27 2419 0.00135877
27 2836 0.000646021
27 3110 0.0110414
27 3443 7.8879e-05
27 3808 0.00119461
27 4536 4.51975e-07
27 5130 1.56335e-07
27 5133 1.73538e-06
27 5548 2.05466e-05
27 5755 1.91604e-06
27 5874 0.00120422
27 10769 0.000596162
27 10772 0.000593654
27 15295 0.0017388
28 21 6.6167e-07
28 28 4.67287e-05
28 42 1.36439e-05
28 45 0.00086349
28 111 0.0159852
28 153 0.0153908
28 254 0.00423107
28 266 0.0526592
28 335 0.649847
28 344 0.115772
28 371 5.13108e-05
28 525 0.0309581
28 531 0.00214238
28 837 1.46044e-05
28 863 0.0154791
28 1701 0.00367922
28 1929 0.0154759
28 1930 0.0154713
28 2294 8.90711e-07
28 4497 0.0154792
28 6332 0.0154793
28 17485 0.0309587
29 7 0.00229154
29 22 1.07976e-06
29 23 0.376892
29 27 3.2673e-07
29 40 1.72457e-07
29 57 2.8928e-07
29 58 0.000330042
29 78 0.498243
29 82 1.47406e-06
29 121 0.0618314
29 122 1.00135e-06
29 141 1.45122e-05
29 195 0.000137345
29 199 9.34201e-06
29 209 1.28827e-07
29 639 1.01504e-07
29 752 2.68633e-05
29 985 0.00103492
29 1087 1.05989e-07
29 1567 0.0550458
29 2597 1.22314e-07
29 3324 4.44758e-07
29 3450 0.00057181
29 3566 6.3502e-07
29 4400 0.00213856
29 6445 0.000186117
29 7725 0.00123855
29 17861 3.26004e-07
29 20449 1.242e-07
30 19 0.00308557
30 21 0.542561
30 22 0.000120908
30 23 0.454232
31 19 0.256088
31 22 4.92755e-05
31 28 0.00282824
31 57 0.00911641
31 89 0.0793771
31 202 0.00164033
31 504 2.73105e-05
31 1039 3.53197e-05
31 1152 0.358459
31 2811 0.145281
31 10236 0.0726413
31 20137 0.0744569
32 12 0.00103027
32 16 0.38504
32 19 0.0244359
32 22 9.09977e-05
32 24 0.381922
32 173 2.04615e-06
32 254 0.0148827
32 3611 3.21254e-06
32 6443 0.19252
32 9991 4.08977e-06
32 15544 5.4924e-05
32 15545 7.53696e-06
32 15546 5.71432e-06
33 12 0.654916
33 19 0.118711
33 20 0.00200017
33 21 0.191166
33 22 0.00265153
33 24 0.000156064
33 30 0.00664459
33 32 0.000638651
33 64 0.000577199
33 101 0.00104694
33 144 1.20349e-07
33 157 1.1207e-07
33 187 1.3894e-05
33 190 0.00456687
33 399 0.00632352
33 487 1.12089e-07
33 942 0.00553055
33 1113 0.00346397
33 1147 2.52373e-06
33 1394 3.52572e-06
33 1669 3.20644e-07
33 1689 0.000947785
33 1882 2.58091e-07
33 2232 3.69344e-06
33 2757 2.36391e-07
33 3324 3.23508e-06
33 4396 2.37094e-06
33 9224 1.39901e-07
33 18907 2.35573e-07
33 21908 0.00062603
34 19 0.00138141
34 24 0.000100692
34 1061 0.110945
34 2415 0.110946
34 3448 0.110947
34 3473 0.221893
34 3474 0.221893
34 3475 0.110947
34 3476 0.110947
35 4 0.000133796
35 9 0.000774757
35 28 1.82484e-06
35 29 0.819232
35 57 3.62498e-07
35 105 1.11128e-07
35 122 0.00340547
35 147 1.16021e-07
35 178 0.00251476
35 181 1.42563e-05
35 191 0.000269239
35 193 1.91606e-05
35 200 0.000362769
35 234 2.34558e-07
35 274 0.000207685
35 283 4.49421e-07
35 368 0.00497237
35 392 0.00452464
35 470 0.00339443
35 889 0.00346193
35 921 0.00334289
35 1806 0.0177941
35 1908 0.0271983
35 1909 0.0271984
35 1970 3.79992e-05
35 2203 0.0033624
35 2413 2.23136e-07
35 5251 0.00339979
35 5542 8.42716e-07
35 5610 6.5687e-06
35 5836 1.5125e-07
35 7304 0.0271984
35 7305 0.0271984
35 9292 2.86966e-05
35 11342 3.12892e-06
35 14279 8.79342e-07
35 14872 0.00339979
35 19205 0.0165379
36 2 0.000190992
36 4 1.59007e-07
36 6 0.0275479
36 7 0.127362
36 11 0.00218376
36 13 0.00717265
36 20 1.11051e-07
36 28 1.8597e-06
36 42 1.02305e-06
36 45 0.00112773
36 56 1.89126e-06
36 57 9.28727e-05
36 92 0.000240733
36 100 0.00231748
36 114 1.12286e-06
36 122 4.04454e-06
36 141 0.542869
36 142 0.000389373
36 144 1.46779e-05
36 146 0.085395
36 147 0.064242
36 153 0.0132034
36 180 0.102851
36 191 2.15572e-05
36 203 7.53086e-06
36 237 8.78111e-06
36 655 1.36537e-06
36 942 7.70438e-05
36 1001 6.00093e-07
36 1196 0.00097163
36 1644 0.00209557
36 1950 0.0106396
36 2056 0.00093835
36 2483 0.00110606
36 3804 1.44675e-07
36 4370 1.72721e-05
36 5610 0.00117338
36 6380 0.000935778
36 10191 7.11233e-07
36 10864 0.000937166
36 10865 0.000948219
36 10866 0.000937635
36 13866 0.000984802
36 16315 0.000984655
37 6 0.125741
37 7 0.0669608
37 13 0.199925
37 14 3.31836e-06
37 25 0.0589681
37 26 0.086352
37 27 0.0620911
37 31 0.0589682
37 32 0.058945
37 33 0.0589681
37 39 0.0295453
37 72 0.0511408
37 82 5.18594e-07
37 122 1.21359e-06
37 180 0.000167911
37 283 0.00120508
37 390 1.43686e-06
37 436 0.0531737
37 750 3.32746e-07
37 1252 0.05835
37 1266 6.87854e-06
37 16132 0.0294841
37 17302 4.21933e-07
38 13 2.64625e-07
38 14 1.43538e-05
38 35 0.616019
38 66 1.92219e-06
38 69 0.105843
38 79 0.000720124
38 80 0.00827694
38 81 0.00811695
38 86 1.09938e-07
38 142 0.095381
38 237 2.96182e-05
38 595 0.00483584
38 930 0.000206908
38 1159 0.00137859
38 1178 1.83833e-05
38 1444 0.0593154
38 1541 2.94309e-07
38 1681 5.34024e-05
38 2090 0.00422912
38 2232 0.00097469
38 2623 1.17846e-05
38 2672 0.00403494
38 2765 0.00406211
38 2993 9.60082e-07
38 3713 0.00406182
38 3818 3.88052e-05
38 5096 0.0215011
38 6159 3.8301e-05
38 7145 2.50802e-07
38 7317 0.00812486
38 7318 0.00812478
38 7542 9.15625e-07
38 8038 0.00372286
38 9141 0.0029792
38 10054 0.00406225
38 11171 3.64322e-07
38 13683 0.00406113
38 13939 0.0176029
38 14398 0.00406221
38 15672 0.00404777
38 15673 0.00404371
39 4 7.60577e-05
39 9 0.25177
39 12 1.03314e-05
39 14 0.253869
39 19 0.23803
39 34 0.255237
39 35 1.09638e-05
39 8009 0.00099637
40 6 1.07569e-06
40 19 4.75492e-07
40 28 0.999936
40 56 1.38845e-05
40 57 3.64215e-06
40 156 2.05781e-07
40 199 3.46106e-07
40 594 7.95283e-06
40 1196 2.05249e-07
40 2226 1.05305e-07
40 2622 4.24435e-07
40 3393 3.19837e-05
40 3579 4.09153e-07
40 14389 1.49241e-06
41 19 0.0122645
41 21 0.0664779
41 36 0.14423
41 1134 1.92019e-05
41 2987 0.0625394
41 6055 0.648982
41 19312 0.0654879
42 19 0.00333383
42 21 0.0160333
42 27 0.00190798
42 37 0.782219
42 58 2.91076e-06
42 89 0.00387578
42 104 0.123994
42 157 2.53839e-05
42 199 8.29186e-05
42 287 0.00366522
42 409 0.00190819
42 498 1.73963e-05
42 594 0.0019077
42 1148 0.00190778
42 1601 0.00190774
42 1709 0.0019078
42 1908 0.00382715
42 2155 0.00191909
42 2226 0.00189908
42 2413 0.00190576
42 3285 0.00190751
42 5086 0.0019078
42 8473 0.00190785
42 9180 0.00190779
42 9223 0.00381172
42 9224 0.0019078
42 9439 0.0038088
42 9440 0.00381552
42 9767 1.10521e-07
42 10634 0.00190757
42 10867 0.00190773
42 10868 0.00190764
42 12567 0.00188378
42 13563 0.00190784
42 20538 0.00190756
42 20539 0.00572347
42 20747 0.00190782
42 20748 0.00190781
42 20749 0.00190779
42 20763 0.00190756
43 9 2.1763e-07
43 24 0.00511862
43 38 0.943128
43 40 1.78847e-07
43 75 0.0007248
43 144 0.00301026
43 191 7.4456e-06
43 413 4.09661e-06
43 472 0.00243032
43 497 2.45723e-07
43 578 0.00251444
43 1628 0.00247805
43 1922 0.002478
43 3122 0.00247802
43 3324 0.00487874
43 4094 0.0024794
43 4107 0.00247798
43 5903 0.00248217
43 7404 0.00247802
43 9406 0.00247805
43 10315 0.00247803
43 10586 0.00243069
43 11504 0.00105383
43 11949 0.00247755
43 16386 0.00247804
43 17130 0.00247805
43 21559 0.00247803
43 23192 0.00247804
44 6 1.7815e-07
44 21 3.34968e-07
44 39 0.907691
44 43 1.09005e-07
44 72 5.33415e-07
44 100 1.35011e-05
44 106 0.00330089
44 137 0.0166114
44 146 0.00691273
44 147 0.00666372
44 157 0.00248575
44 168 5.83239e-05
44 225 5.91222e-07
44 254 0.000405926
44 283 1.09803e-07
44 345 1.26108e-06
44 436 0.00333293
44 449 0.00330046
44 657 0.00329592
44 842 0.00330066
44 1055 2.23135e-07
44 2155 0.0129938
44 2658 0.00330674
44 2862 6.56639e-07
44 4058 0.00651655
44 7072 9.75182e-06
44 8474 1.1945e-05
44 9767 0.00328135
44 10766 1.25483e-07
44 11008 0.00330023
44 11987 0.0066013
44 21053 0.00330067
44 21298 0.00330061
45 19 9.68822e-05
45 27 0.000535499
45 40 0.997344
45 89 0.000122095
45 110 5.57975e-06
45 111 0.000132994
45 486 1.81946e-05
45 3879 5.78979e-07
45 5447 0.00172037
45 14744 1.24086e-07
45 15728 7.55573e-06
45 15733 1.53179e-05
46 41 1
47 9 9.74068e-07
47 13 3.43001e-06
47 40 0.00242656
47 42 0.688073
47 45 0.00591895
47 57 1.22365e-05
47 66 0.275474
47 89 5.17042e-06
47 92 3.64692e-06
47 107 1.02742e-06
47 110 6.04559e-07
47 117 0.000205237
47 122 0.000115584
47 191 1.72546e-05
47 200 1.79083e-05
47 202 0.00172725
47 203 6.48128e-07
47 253 0.000731187
47 254 0.00177089
47 266 0.00245336
47 287 6.60864e-07
47 461 0.002375
47 633 1.33091e-07
47 1070 3.46925e-07
47 1659 2.63417e-06
47 1811 0.0064465
47 3206 1.05576e-07
47 4488 1.1425e-05
47 4503 1.46564e-07
47 5641 0.000280179
47 6463 1.5529e-07
47 7091 0.00105438
47 15003 0.00161571
47 18448 0.00276436
47 19472 0.00323091
47 19473 0.00161477
47 21604 0.000124874
47 21605 0.00151671
48 11 4.47016e-07
48 22 2.34654e-07
48 24 1.06342e-06
48 28 4.94341e-05
48 38 1.98752e-07
48 39 0.12066
48 40 3.16556e-06
48 43 0.866247
48 56 3.20254e-07
48 58 0.00124684
48 66 0.000111987
48 95 1.45508e-06
48 99 1.10561e-07
48 137 2.05661e-07
48 146 2.61303e-07
48 371 1.69505e-07
48 512 0.00831112
48 752 0.00159412
48 1266 0.00035656
48 1908 4.01423e-07
48 2155 1.49491e-05
48 2483 4.66601e-05
48 4330 1.18364e-06
48 5617 1.87977e-07
48 5618 5.05622e-07
48 5619 2.75147e-07
48 6037 3.31408e-07
48 6039 7.70454e-06
48 6532 0.000623522
48 7150 1.95365e-05
48 9769 2.04184e-07
48 15128 1.57702e-07
48 19254 0.000264359
48 19737 4.06745e-05
48 22307 0.000393102
49 6 4.55945e-07
49 19 1.11756e-06
49 43 0.00278137
49 44 0.8221
49 45 1.50145e-05
49 56 1.50396e-06
49 105 0.10754
49 146 1.0202e-07
49 628 0.00257998
49 2162 0.00832394
49 3393 0.0153232
49 3776 0.0383548
49 5256 2.69347e-05
49 21622 0.00295084
50 6 1.74499e-05
50 19 0.000612309
50 21 0.0625191
50 45 0.90023
50 56 1.03484e-06
50 57 3.89018e-05
50 107 0.0245581
50 110 1.36463e-05
50 157 7.97922e-05
50 179 3.43813e-06
50 332 0.00343125
50 400 0.000209583
50 701 0.00363887
50 1196 0.000332395
50 2226 6.8389e-07
50 3566 1.00114e-06
50 5853 0.00383342
50 6557 1.43792e-07
50 14389 0.000478304
51 6 6.17387e-05
51 21 7.14023e-06
51 24 0.0152847
51 45 7.2414e-07
51 46 0.955409
51 100 0.000232576
51 144 0.00637947
51 155 0.00570969
51 157 0.000879583
51 168 1.30402e-06
51 186 0.00710257
51 254 0.000137315
51 257 8.29204e-06
51 287 5.60672e-07
51 406 1.96996e-05
51 1929 1.2114e-07
51 1930 1.52503e-07
51 4472 1.27047e-07
51 5491 0.00260068
51 7426 5.21304e-07
51 18644 0.00529324
51 19254 0.000870473
52 19 0.00122046
52 21 0.0013903
52 47 0.6902
52 56 0.000461341
52 160 0.0766441
52 190 1.88239e-05
52 649 0.0766882
52 3054 0.0766885
52 7034 0.0766881
53 20 0.0652461
53 24 0.0272098
53 48 0.606492
53 66 0.000238414
53 111 0.0263942
53 144 0.039411
53 190 0.0268643
53 254 0.0258468
53 279 0.0767683
53 332 0.0135147
53 638 0.000247342
53 1148 0.0128076
53 1150 0.0143031
53 1267 0.0118601
53 1967 0.0264002
53 9060 0.0263964
54 6 0.00659874
54 19 0.0280226
54 49 0.322152
54 56 0.177194
54 66 1.74345e-05
54 137 0.0358676
54 180 0.177507
54 3637 0.0733018
54 6472 0.179338
55 9 4.57299e-06
55 13 0.0505694
55 28 1.79947e-06
55 42 0.0616682
55 50 0.689742
55 69 0.00212766
55 144 6.99639e-06
55 203 0.00482013
55 234 0.00753199
55 1196 4.72623e-06
55 4058 0.0168561
55 7148 0.0337124
55 7441 0.0337124
55 10447 0.0168557
55 10477 0.0168561
55 10685 0.0168561
55 12149 0.0140237
55 19269 0.000533459
55 20694 0.0168561
55 20706 0.0168558
55 21087 0.000404375
56 9 0.0201009
56 26 0.0080199
56 28 6.61122e-06
56 42 0.010645
56 51 0.705724
56 66 0.000337678
56 69 0.00822661
56 82 0.00801982
56 104 0.0095174
56 157 0.0136054
56 286 0.00801987
56 390 0.00801974
56 750 0.00801987
56 795 0.0080199
56 796 0.0080199
56 810 0.00801984
56 1364 0.00801851
56 2934 0.0320784
56 3039 0.0634298
56 6546 0.0160392
56 11489 0.016039
56 11797 0.0160383
56 15062 0.00801921
56 15968 0.00801541
57 42 3.46615e-06
57 52 0.910399
57 66 3.75005e-05
57 180 0.0409228
57 332 0.0185265
57 894 0.00498008
57 2544 0.00535326
57 3953 0.0197778
58 6 0.000531314
58 37 9.99534e-06
58 53 0.0157222
58 54 1.40335e-07
58 57 7.92365e-07
58 66 1.19257e-05
58 86 3.07746e-07
58 92 0.100947
58 101 5.02097e-05
58 160 0.0425777
58 191 0.000137005
58 199 8.42981e-06
58 332 6.53063e-06
58 488 0.0586008
58 638 0.690552
58 1061 8.86871e-06
58 1147 0.0086508
58 3890 0.0240341
58 4437 0.0119985
58 4891 2.83838e-07
58 10832 0.0107965
58 11290 0.0119985
58 12477 0.0119985
58 17905 0.0113579
59 36 0.0730489
59 53 9.16989e-07
59 54 0.0158663
59 107 3.15888e-05
59 160 8.21593e-07
59 162 9.86263e-05
59 816 0.847396
59 894 0.0146049
59 942 3.81137e-05
59 1010 0.0124897
59 1021 0.00446684
59 1130 1.65071e-06
59 9647 0.0172395
59 15091 0.000105938
59 20984 0.0146103
60 4 1.47868e-05
60 9 0.00067768
60 11 0.0205925
60 13 7.26018e-06
60 27 0.000235446
60 28 0.00577656
60 36 0.000587963
60 45 0.00585246
60 56 0.000807168
60 57 0.000109522
60 58 2.12369e-05
60 66 3.19686e-05
60 69 0.000185348
60 83 0.000107042
60 92 4.43139e-05
60 100 5.48174e-07
60 137 1.52916e-06
60 141 1.37289e-06
60 142 0.107104
60 144 6.40289e-06
60 153 4.32886e-06
60 191 0.0126017
60 203 2.47143e-07
60 254 0.808716
60 540 7.81635e-06
60 657 1.0148e-05
60 745 8.36837e-06
60 847 2.66041e-07
60 892 6.15627e-07
60 1292 1.57646e-05
60 1997 1.07685e-07
60 2870 0.00533627
60 3138 1.08293e-07
60 3146 0.000745979
60 3393 8.06518e-05
60 3578 6.71723e-07
60 4562 0.00012298
60 5617 0.00511275
60 5618 0.00525187
60 5619 0.00511143
60 5620 0.00503247
60 7645 0.00453856
60 9767 1.02051e-06
60 13103 0.00513003
60 17333 4.54369e-06
60 21498 6.94022e-07
61 53 0.402927
61 54 0.187278
61 55 0.204897
61 13765 0.204897
62 7 0.00117372
62 56 0.00171785
62 59 0.257474
62 142 7.63329e-07
62 195 7.58571e-06
62 304 0.0762671
62 597 0.015444
62 1093 0.00249497
62 1580 0.000703829
62 1908 0.0161128
62 2998 0.403413
62 4107 0.00798419
62 4362 0.0229898
62 4494 3.2817e-05
62 4525 0.0155344
62 4526 0.0155344
62 4527 0.0155344
62 4528 8.76991e-06
62 4733 0.0155321
62 7309 0.0155323
62 7970 0.0155344
62 9180 0.0155344
62 10927 0.0155344
62 10928 0.0155344
62 10929 0.0155344
62 10930 0.0155344
62 10931 0.0155344
62 14623 0.00776591
63 6 6.9659e-06
63 7 1.3582e-06
63 9 0.000411231
63 57 2.74875e-06
63 58 0.755098
63 69 0.0629117
63 92 2.32119e-06
63 100 0.00253273
63 191 8.44053e-07
63 195 0.129919
63 203 1.58744e-07
63 225 1.34827e-05
63 283 0.0263141
63 316 3.54048e-07
63 332 1.12923e-07
63 333 2.13239e-06
63 390 0.00456994
63 588 4.29237e-06
63 750 0.000211147
63 1060 0.000109495
63 1061 0.00283378
63 1184 1.03893e-07
63 1207 0.00138792
63 2847 0.000684756
63 4502 1.53388e-07
63 5086 0.00623641
63 5542 2.42936e-07
63 5554 0.00674068
63 5563 1.13398e-06
63 5721 3.14713e-07
63 12004 1.03889e-07
64 56 0.0831866
64 60 0.113925
64 142 0.101477
64 155 0.0438244
64 595 0.0513676
64 753 0.102736
64 1230 0.102736
64 2056 0.0513386
64 2320 0.102736
64 7325 0.102736
64 7326 0.102736
64 11613 0.0412031
65 59 0.438453
65 60 0.010795
65 61 0.000224478
65 62 3.17614e-05
65 19180 0.550496
66 59 0.00258965
66 60 0.20217
66 61 0.265014
66 62 0.265107
66 63 0.26512
67 4 0.000600007
67 6 1.64269e-05
67 7 1.54427e-07
67 9 0.000108805
67 13 0.21884
67 20 0.0127602
67 21 0.000677368
67 24 0.00102612
67 27 1.07817e-06
67 28 0.0772874
67 36 0.0286322
67 42 1.23471e-06
67 45 0.05285
67 56 0.00625275
67 57 0.0115574
67 58 0.000653287
67 66 0.00394927
67 86 0.0137523
67 92 0.20068
67 100 0.00220888
67 110 3.40331e-06
67 117 1.73941e-05
67 122 0.000841891
67 137 7.52143e-06
67 142 3.6055e-05
67 160 0.138804
67 191 0.00145813
67 193 0.0875284
67 203 0.000882246
67 234 8.81066e-05
67 250 4.79508e-07
67 254 0.000141072
67 287 8.82084e-06
67 446 0.00617137
67 638 3.64747e-07
67 759 1.65399e-07
67 847 2.38633e-06
67 1055 1.53057e-07
67 1060 6.64466e-07
67 1196 4.1484e-06
67 1908 0.0276276
67 3330 1.22483e-07
67 6410 0.0115709
67 10634 0.0234976
67 10857 0.0231505
67 10918 0.0231505
67 10919 0.0231505
67 11949 6.24165e-07
67 17333 2.3094e-07
68 13 0.00013546
68 14 2.18893e-07
68 24 0.000331033
68 28 1.59661e-05
68 66 2.32945e-05
68 67 0.947363
68 83 6.01826e-07
68 141 5.76373e-07
68 185 0.00232134
68 202 1.19779e-07
68 332 0.00661379
68 1026 1.17987e-07
68 1908 3.43611e-07
68 2312 0.00331299
68 2430 8.46789e-06
68 2531 1.04036e-07
68 2544 0.00376902
68 3578 0.00684647
68 3579 0.00662947
68 4873 0.0226183
68 5612 8.79474e-06
69 4 0.638837
69 57 0.00621851
69 64 0.337432
69 66 0.0174984
69 100 1.35279e-05
70 24 0.00168065
70 28 4.81827e-06
70 65 0.581325
70 67 0.0328049
70 82 5.49508e-05
70 120 0.0327026
70 122 0.00100966
70 137 3.44399e-06
70 146 9.97163e-07
70 333 4.31444e-06
70 416 0.00385443
70 1130 0.0583616
70 3324 0.0921981
70 4114 0.0653306
70 4706 3.62399e-06
70 5203 0.032663
70 5302 0.0653262
70 10112 5.70022e-06
70 15775 0.0326646
70 17096 1.0453e-06
71 2 0.00576818
71 4 0.00016188
71 6 0.0522539
71 7 2.79918e-05
71 19 2.49459e-05
71 26 0.0213031
71 28 0.00176202
71 53 1.4419e-07
71 56 6.84849e-05
71 57 1.51623e-05
71 58 0.00017321
71 64 0.00698862
71 66 1.21825e-06
71 70 0.463997
71 97 2.02036e-07
71 100 0.208251
71 117 2.67546e-07
71 141 0.000782911
71 158 6.83723e-06
71 187 0.00849694
71 193 6.32086e-06
71 283 5.62455e-06
71 285 1.72745e-07
71 288 0.0642357
71 289 0.0139171
71 314 6.48323e-05
71 400 4.188e-07
71 406 0.0261253
71 451 0.000101783
71 461 0.00619002
71 619 0.0137756
71 750 0.00199142
71 920 7.52202e-07
71 1026 0.00850037
71 1102 0.00123603
71 1180 0.0277749
71 1198 2.66354e-05
71 1505 1.85526e-05
71 1882 0.00641883
71 1991 1.21284e-07
71 3253 0.00688817
71 3271 1.26673e-06
71 7606 0.00688816
71 10215 0.0255067
71 11984 1.60434e-06
71 13410 0.00646339
71 21423 0.00688816
71 21425 0.00688814
72 9 3.15815e-06
72 28 0.000757815
72 42 0.00841295
72 65 0.0239922
72 68 0.828498
72 117 0.000292078
72 144 4.85549e-07
72 381 0.012293
72 383 0.0588219
72 750 8.78832e-07
72 1044 0.00838962
72 1070 2.11519e-05
72 1360 0.00815135
72 1680 0.0084423
72 1681 0.0167546
72 1682 0.00838964
72 1683 0.00838963
72 1684 0.00838957
73 11 0.0167097
73 13 2.3962e-05
73 14 0.0549285
73 20 1.40971e-06
73 24 1.38523e-06
73 28 5.57213e-05
73 40 2.77178e-07
73 42 2.00658e-07
73 45 0.0263122
73 56 2.63241e-07
73 58 3.53459e-06
73 69 0.377362
73 130 4.81886e-06
73 142 0.214804
73 153 0.0001908
73 175 4.91291e-06
73 199 0.00577176
73 203 4.38947e-05
73 234 1.34535e-06
73 237 0.000244313
73 254 0.146546
73 332 2.94106e-05
73 333 0.00416267
73 488 0.00646327
73 613 2.40118e-07
73 630 1.27576e-06
73 745 0.00461916
73 930 0.00394803
73 1166 0.0120865
73 1261 1.57022e-07
73 1494 0.00581754
73 1559 8.95354e-06
73 2877 2.29102e-05
73 2933 2.95617e-06
73 3253 0.00579236
73 3578 3.21893e-06
73 3579 0.0129129
73 3580 0.00578784
73 5185 0.00578724
73 5732 0.0057876
73 6118 0.011575
73 6563 6.07993e-07
73 6564 1.96602e-06
73 6969 7.00892e-05
73 7461 0.00579068
73 10810 0.00578795
73 11853 0.0115754
73 15264 0.00325368
73 16449 2.78169e-07
73 16480 0.00578534
73 16481 0.00578568
73 16482 0.00578682
73 17136 0.00577818
73 17469 0.00579213
73 19568 0.00506659
73 21553 0.00578701
73 22861 0.000129666
73 22862 0.00578782
74 6 0.000781097
74 13 2.30343e-07
74 28 0.000636947
74 57 1.3765e-06
74 71 0.528269
74 193 2.18573e-05
74 296 0.218985
74 423 0.00417017
74 2024 1.04951e-07
74 2444 0.00282772
74 2723 0.190886
74 2731 0.053414
74 6438 5.90475e-07
74 12036 3.57027e-07
74 12560 1.4076e-07
74 14279 1.25325e-07
74 15361 4.13433e-06
74 19416 1.03051e-07
75 69 1
76 9 0.00384126
76 13 0.000119966
76 21 6.07899e-07
76 56 1.0433e-05
76 93 0.0797312
76 146 0.0394437
76 147 0.0394517
76 169 0.0825758
76 191 0.0491615
76 946 5.24541e-06
76 1277 0.000151128
76 1923 0.113803
76 2300 0.0393942
76 4116 0.157015
76 4121 0.0394519
76 4694 0.0394518
76 5004 0.00078703
76 6934 0.0394433
76 7256 0.0394513
76 7798 0.078903
76 13143 0.0394518
76 20171 0.0394513
76 20268 0.0394518
76 20269 0.0394519
77 66 0.043951
77 205 0.955959
77 206 8.97258e-05
78 4 6.209e-06
78 7 0.000105115
78 12 0.0330217
78 22 1.16793e-05
78 24 1.42714e-06
78 28 8.70518e-07
78 30 0.0221443
78 42 0.0198851
78 45 0.000137975
78 57 9.01542e-05
78 58 0.0101157
78 66 2.22051e-07
78 82 0.000349739
78 86 0.0217811
78 92 2.28892e-05
78 101 1.01543e-05
78 102 0.00321396
78 110 1.83116e-05
78 141 0.000241816
78 142 1.14461e-05
78 153 2.13052e-06
78 156 1.50769e-07
78 160 0.000148896
78 179 0.0136717
78 180 1.2613e-05
78 191 0.0223442
78 195 0.000414359
78 199 0.0103615
78 203 0.0891548
78 225 5.05101e-06
78 234 0.00722513
78 237 0.000852129
78 293 0.0103092
78 339 8.85862e-07
78 409 0.0711562
78 710 0.0701843
78 799 0.0108739
78 1404 0.0186142
78 1762 1.6696e-07
78 2584 0.0218077
78 2787 0.204674
78 2805 0.206754
78 3974 1.32703e-07
78 4350 0.0225834
78 4351 0.022646
78 4396 8.48655e-06
78 4588 0.0217538
78 5251 0.0108924
78 7400 0.0217539
78 7436 0.0217481
78 16472 0.00884145
78 21678 3.45455e-05
79 7 0.160729
79 97 0.0750597
79 141 0.0696793
79 203 0.00166566
79 406 0.0750596
79 847 0.0160815
79 4083 0.0621148
79 7317 0.0750598
79 10945 0.0750598
79 11041 0.0798017
79 11043 0.0845099
79 11072 0.0750598
79 11102 0.0750598
79 11130 0.0750597
80 69 0.465953
80 70 0.524309
80 71 0.00973774
81 69 0.00147302
81 70 0.998377
81 71 0.000150458
82 2 2.28679e-07
82 6 0.000101119
82 13 8.96346e-05
82 24 1.39626e-07
82 42 2.09428e-06
82 56 0.00046652
82 72 5.44075e-07
82 75 0.0298421
82 110 5.8974e-07
82 122 1.05739e-05
82 144 3.16174e-05
82 240 3.27497e-07
82 289 1.12552e-07
82 314 0.96334
82 462 1.91784e-05
82 565 0.000696699
82 1116 3.48459e-07
82 1755 7.98838e-07
82 2054 0.00069863
82 2180 2.56452e-07
82 3324 0.0013994
82 5578 1.00386e-07
82 10390 0.000678771
82 10908 0.000699751
82 11949 0.00120981
82 14730 1.44121e-06
82 14888 0.000696291
82 16373 1.06864e-07
82 21859 9.89555e-06
82 22035 1.21327e-06
83 4 4.89312e-07
83 8 3.24877e-06
83 9 0.00046825
83 22 1.39857e-06
83 24 0.705775
83 28 0.0058331
83 57 0.00122572
83 72 0.00448223
83 75 4.98126e-05
83 89 0.163179
83 133 3.33522e-05
83 137 0.00730113
83 144 5.41613e-05
83 157 0.000303636
83 186 1.66938e-05
83 190 0.000864391
83 191 2.82826e-05
83 194 6.20404e-06
83 203 1.98636e-06
83 204 0.00111564
83 216 3.13466e-06
83 225 0.023959
83 234 1.27769e-06
83 253 2.2046e-06
83 254 0.0229756
83 260 0.0172331
83 345 1.78494e-05
83 667 2.33756e-05
83 1192 1.81967e-07
83 1404 0.00344049
83 3393 1.1017e-05
83 4400 0.00641954
83 7762 2.40307e-07
83 10015 3.68717e-06
83 10194 0.00510149
83 10195 0.00339538
83 11033 0.00160286
83 12004 1.20254e-07
83 16340 0.00458118
83 17207 0.00514344
83 21557 0.0051135
83 21585 0.00511356
83 21586 0.00511356
84 20 0.00238377
84 28 0.117968
84 66 1.63484e-05
84 76 0.0836128
84 89 1.26376e-07
84 120 0.00010682
84 165 0.000328041
84 199 0.00171047
84 446 1.94114e-06
84 1057 0.7538
84 1245 0.00178833
84 1330 0.0321141
84 1567 3.11731e-07
84 2267 0.000587355
84 2399 9.25011e-05
84 3579 0.00373079
84 4554 3.34342e-07
84 7500 1.43365e-06
84 7758 0.00174095
84 11583 1.51958e-05
85 6 0.000272352
85 12 0.0027934
85 13 4.35367e-06
85 19 3.90697e-07
85 20 0.00213535
85 22 0.000694777
85 24 0.000616509
85 28 0.000137994
85 56 0.969152
85 57 4.52885e-06
85 58 0.00014765
85 72 0.0109655
85 92 4.01409e-06
85 100 2.40671e-05
85 110 1.20285e-05
85 122 0.00155563
85 141 0.00504616
85 157 0.00183847
85 187 1.23758e-07
85 190 7.1785e-06
85 257 1.01429e-07
85 314 0.00116782
85 332 2.21959e-06
85 398 8.45119e-07
85 400 2.67045e-06
85 706 0.00098797
85 947 0.00205541
85 1205 1.02779e-05
85 2574 5.8669e-07
85 4943 0.00029206
85 5001 1.23044e-07
85 7091 4.56244e-05
85 11141 2.83493e-06
85 14730 2.38023e-07
85 17333 1.44885e-06
85 21604 3.15597e-07
85 21605 1.41668e-05
86 20 3.23308e-06
86 28 0.023012
86 66 1.59629e-06
86 73 0.117401
86 123 1.67109e-07
86 157 5.40611e-07
86 160 1.11027e-07
86 211 0.81735
86 314 1.39374e-07
86 345 5.02403e-07
86 1062 0.00674638
86 1168 0.000117602
86 1755 0.00168391
86 2054 2.64372e-06
86 2870 1.68427e-06
86 3011 0.00168125
86 4562 2.40051e-07
86 5627 0.00168552
86 6429 0.0212257
86 10832 0.00416409
86 12733 0.00161147
86 16373 0.00168575
86 17861 1.63885e-07
86 20147 0.00162297
87 4 0.0114367
87 6 0.0514934
87 7 0.000287966
87 19 1.77836e-07
87 27 0.0254527
87 28 0.00567056
87 30 8.29478e-07
87 34 0.0289875
87 40 5.78499e-07
87 57 0.000160425
87 58 0.0227616
87 66 1.57006e-05
87 82 7.55799e-06
87 92 0.0461293
87 100 0.0214689
87 117 0.0388928
87 122 0.114122
87 130 5.08941e-07
87 141 7.47812e-06
87 155 4.97482e-07
87 173 0.0543456
87 191 0.000150546
87 199 8.0373e-05
87 200 0.054469
87 203 0.000784366
87 234 0.0118487
87 237 0.0327406
87 245 4.05902e-06
87 249 0.0108922
87 254 0.0786009
87 265 1.7012e-06
87 341 0.0544046
87 578 1.31265e-07
87 597 0.000155613
87 1026 0.044596
87 1292 0.00313439
87 1876 0.0211868
87 1892 0.0109274
87 2483 0.000246893
87 2498 0.0217847
87 2499 0.0217847
87 2500 0.0217847
87 2709 0.0107999
87 3479 0.0217831
87 3668 0.0108922
87 3711 1.16701e-07
87 5087 0.0217846
87 10494 0.0108921
87 12385 0.0217847
87 12386 3.61148e-06
87 12756 0.0108916
87 14632 0.0217846
87 17102 3.18083e-05
87 17478 0.0108922
87 17500 0.0108921
87 17524 0.0108919
87 17852 0.000131143
87 19072 0.00237325
87 20081 0.00156597
87 20082 1.99887e-07
87 20605 0.0108917
87 20608 0.0108916
88 4 1.09815e-06
88 8 1.56009e-07
88 9 0.00411206
88 19 1.70564e-07
88 21 7.84515e-07
88 24 0.124217
88 28 0.000239011
88 39 1.63039e-07
88 57 9.57483e-05
88 72 0.00146251
88 89 0.670926
88 137 0.000448011
88 144 1.08825e-07
88 186 0.000824187
88 190 7.72307e-07
88 194 2.92704e-05
88 225 0.18606
88 237 3.11823e-07
88 253 0.00144068
88 254 8.47705e-06
88 316 7.96135e-07
88 630 0.00019272
88 935 1.05906e-07
88 980 0.00152858
88 1192 1.75072e-07
88 1580 0.0022108
88 3443 0.00134009
88 4058 0.00160191
88 4325 0.00156065
88 4326 0.00156058
88 4604 0.000134881
88 7762 4.02984e-07
88 10511 9.82332e-07
88 10514 1.18304e-07
89 7 0.00899684
89 13 0.0248718
89 14 4.68778e-05
89 22 0.0358521
89 57 2.26441e-05
89 75 0.0318608
89 76 3.15448e-06
89 100 7.00939e-06
89 115 0.00175636
89 137 2.21268e-05
89 142 0.0811534
89 160 0.042075
89 194 1.13062e-05
89 195 2.69417e-05
89 198 3.3577e-06
89 199 0.0918964
89 200 1.47027e-05
89 204 0.018121
89 234 2.56008e-06
89 245 0.0194321
89 283 0.0240128
89 747 0.0212561
89 847 1.07539e-05
89 1061 0.044005
89 1401 0.0454845
89 2392 0.03417
89 3796 0.000100166
89 3814 0.000146664
89 4436 2.16784e-05
89 4810 0.474613
89 6268 1.66467e-06
89 12023 2.4626e-07
89 14652 4.58489e-07
90 7 0.00113053
90 20 2.4651e-05
90 28 1.16651e-06
90 57 8.25314e-07
90 74 0.902197
90 78 0.000925415
90 92 1.11176e-05
90 122 0.00371296
90 236 0.0012758
90 253 1.88084e-05
90 461 1.3631e-06
90 630 5.68015e-05
90 638 0.00291925
90 773 6.1203e-07
90 1141 0.00517013
90 1748 0.00127535
90 1890 0.00127418
90 1902 0.00135196
90 2404 1.64096e-05
90 2525 0.000383845
90 2609 0.0667759
90 2962 0.00127431
90 3253 0.00254964
90 3672 1.71845e-07
90 4207 1.20022e-07
90 4314 0.00254905
90 8701 0.00255059
90 8942 2.1509e-07
90 13845 0.00127535
90 13846 0.00127535
91 73 0.00244319
91 75 0.606055
91 76 0.391502
92 2 0.0380418
92 4 0.00165241
92 13 3.80042e-05
92 24 0.000320071
92 27 0.0313827
92 28 0.000362223
92 56 0.0736525
92 57 0.000163207
92 89 0.0301853
92 93 0.0321726
92 122 0.00330075
92 156 0.170893
92 169 0.0295996
92 225 0.151494
92 245 4.6955e-05
92 254 0.0369156
92 585 0.0009215
92 664 0.0296009
92 747 0.00025539
92 842 1.75589e-06
92 942 0.0590903
92 1130 0.0756808
92 1245 0.0604494
92 1266 0.0849476
92 1394 1.07905e-06
92 1505 2.8395e-05
92 2114 0.0296009
92 2656 0.0296009
92 4806 0.0296005
93 2 0.00972181
93 4 1.29707e-07
93 6 0.000651232
93 7 4.14312e-05
93 12 1.32829e-07
93 20 0.00126578
93 22 0.000192859
93 42 1.3275e-07
93 56 2.59746e-06
93 57 6.49101e-06
93 58 5.56966e-06
93 66 0.966561
93 69 3.91822e-07
93 89 5.09541e-07
93 92 2.80162e-06
93 190 2.48957e-07
93 199 0.000939702
93 200 0.00400435
93 254 4.20019e-07
93 332 1.83828e-06
93 568 0.00234333
93 588 2.10057e-06
93 750 1.49388e-07
93 1184 0.00788588
93 1300 0.00112859
93 3393 4.64076e-07
93 3797 5.49691e-07
93 4295 0.000215653
93 4300 1.25327e-07
93 5167 4.90906e-06
93 6285 0.00114955
93 6532 2.00586e-06
93 6629 4.84064e-06
93 7725 0.000955919
93 8678 1.05324e-07
93 11981 3.77648e-05
93 12153 0.00112826
93 16502 0.000635372
93 16559 2.27014e-06
93 20147 0.0011011
94 4 3.27468e-05
94 7 0.000316514
94 13 1.74041e-06
94 117 0.0198906
94 146 0.0360944
94 147 0.171393
94 160 0.0273134
94 245 1.30406e-06
94 283 0.00393546
94 759 0.0176487
94 942 0.0276467
94 943 0.0176499
94 1102 0.0152409
94 1166 0.0356622
94 1167 0.0353006
94 1184 0.00023523
94 1724 0.0705941
94 1824 0.21512
94 1830 0.0176503
94 1839 0.0176499
94 2378 0.000515659
94 3063 0.0206746
94 4347 0.0200203
94 4745 0.0352999
94 14825 0.0176503
94 17962 0.0176503
94 17964 1.32602e-06
94 20165 0.0882116
94 20195 0.0353005
94 20196 0.0176486
94 20201 0.0176497
95 2 0.00054815
95 6 1.18158e-06
95 12 0.155606
95 19 0.239484
95 20 0.197144
95 21 0.144722
95 56 0.000169009
95 190 0.0639183
95 245 9.06532e-07
95 260 3.72682e-05
95 287 0.0146399
95 294 0.00734866
95 461 8.25957e-07
95 472 8.70887e-06
95 667 0.0661384
95 825 0.0220462
95 942 0.0587885
95 1247 0.00734834
95 6113 7.09388e-07
95 8806 0.00732141
95 11607 7.39308e-06
95 11850 0.0073486
95 19701 0.0073486
95 20333 2.33681e-05
96 72 0.976339
96 73 0.0236614
97 20 0.0560221
97 21 3.17365e-05
97 42 0.0186454
97 92 6.04569e-07
97 93 0.0167579
97 101 0.0182526
97 157 0.097497
97 191 0.0520198
97 254 7.71065e-06
97 257 0.0187187
97 260 0.018713
97 341 0.0346758
97 480 0.131327
97 710 0.0362632
97 1093 8.61884e-07
97 1147 0.0230256
97 1304 0.0187182
97 1345 0.0376907
97 1394 0.0382842
97 1493 0.0187892
97 1620 0.014019
97 2763 0.112311
97 4016 0.149361
97 5245 0.0187467
97 11812 0.037354
97 11822 0.0187187
97 11829 0.014046
97 15873 1.2449e-06
98 21 8.20121e-07
98 36 0.880701
98 77 0.000765382
98 461 1.62106e-07
98 568 7.46699e-07
98 727 0.00130837
98 775 0.000689863
98 853 0.000703107
98 1830 0.00280617
98 2000 1.44036e-07
98 2438 0.014847
98 3324 0.00430245
98 3682 3.54426e-06
98 3683 1.47071e-07
98 3689 0.0912667
98 5245 1.65702e-07
98 8157 0.000691326
98 8158 1.06845e-06
98 8159 2.94665e-05
98 9242 1.86618e-07
98 10310 0.0018797
98 14672 1.06845e-06
98 15026 1.47942e-07
99 6 0.0578628
99 7 0.00152942
99 28 0.105465
99 40 0.00156194
99 78 6.50662e-06
99 85 4.08078e-05
99 86 0.000187387
99 122 0.0486789
99 141 6.18782e-07
99 142 0.0652284
99 180 0.0944725
99 203 0.0418349
99 220 0.00168864
99 288 0.0487176
99 485 0.0487196
99 1205 0.0487188
99 1567 0.000951003
99 1732 0.0487193
99 4000 0.0487193
99 5364 0.0487173
99 5365 0.0487025
99 5774 0.0487195
99 13081 0.0487196
99 17009 0.0445992
99 19116 0.0487195
99 20644 0.0487194
100 77 0.206866
100 79 0.520508
100 80 0.237479
100 81 0.0055147
100 82 1.09046e-05
100 142 0.0296215
101 79 0.106055
101 80 0.231951
101 81 0.439004
101 82 0.0312404
101 142 0.00160026
101 930 0.190148
102 21 3.02835e-07
102 30 0.0418073
102 42 1.30506e-06
102 66 6.48183e-06
102 87 0.00215988
102 92 1.51789e-07
102 122 1.80111e-06
102 141 2.24582e-07
102 142 1.53439e-07
102 190 1.83464e-05
102 234 0.0826562
102 253 0.00458448
102 363 0.0664233
102 487 1.08535e-06
102 930 1.47366e-06
102 1084 0.00416907
102 1147 5.69242e-07
102 1166 0.000145542
102 1567 6.18832e-07
102 1598 0.0642514
102 1667 1.69381e-07
102 2022 0.016815
102 2438 4.07554e-05
102 2832 1.37385e-06
102 2880 0.00418816
102 3208 0.00625669
102 4347 0.0128623
102 4350 0.182949
102 4351 0.184989
102 4355 0.0426752
102 4356 0.0235201
102 4359 4.89744e-06
102 4360 0.0458781
102 4361 0.0416911
102 4364 0.0291271
102 4365 0.0125072
102 4366 0.000149432
102 4410 0.0288166
102 4491 0.0249727
102 4493 0.00416905
102 4495 0.00416856
102 4496 0.00416909
102 4554 0.00618127
102 4556 0.0083435
102 4557 0.00834206
102 4574 0.00830635
102 4820 0.00461737
102 4823 0.0125449
102 4824 0.00143725
102 4825 1.46367e-06
102 5365 1.33033e-05
102 7202 0.00416877
102 8158 1.19068e-06
102 8159 0.00318085
102 14672 1.19068e-06
102 17858 0.00268236
102 17862 1.20975e-06
102 17863 0.00399565
103 9 3.28635e-05
103 28 0.000873749
103 66 2.30696e-06
103 69 4.51121e-07
103 83 0.9062
103 92 8.23113e-06
103 233 0.0395056
103 237 1.04959e-06
103 254 3.97315e-06
103 665 1.31336e-05
103 981 0.000156377
103 1189 0.0251649
103 1261 1.88918e-05
103 1702 0.0219045
103 1973 0.000895638
103 2381 0.000895587
103 2428 1.00724e-05
103 2620 2.20794e-06
103 3107 0.00089556
103 3108 0.00089556
103 3322 1.79593e-05
103 4829 4.82657e-06
103 4830 1.80907e-07
103 5619 1.52816e-07
103 5620 1.47345e-05
103 9868 0.00089561
103 10586 0.000320981
103 11388 8.78388e-06
103 11389 0.000171945
103 11947 0.000184887
103 16368 0.000895631
103 23186 2.28803e-06
104 9 0.0159655
104 13 0.000122354
104 24 0.000657798
104 28 0.000566219
104 45 0.000668803
104 56 2.11517e-07
104 57 2.70689e-06
104 58 0.0013085
104 66 4.68399e-05
104 82 0.906973
104 83 0.0101725
104 89 5.69042e-07
104 92 0.000361856
104 110 1.91455e-06
104 117 0.0548906
104 122 0.00529507
104 141 4.67842e-06
104 142 1.20053e-07
104 180 8.47938e-07
104 245 0.000124547
104 254 3.87976e-05
104 265 1.08301e-05
104 283 5.8695e-06
104 426 5.33374e-06
104 472 4.76889e-05
104 541 1.04286e-07
104 1267 0.00242691
104 2429 1.39922e-07
104 2709 0.000174732
104 3008 3.81505e-06
104 4936 2.84017e-05
104 4937 9.25648e-05
105 13 5.70864e-05
105 20 0.0002572
105 27 5.69824e-07
105 28 0.150052
105 43 3.74651e-07
105 66 0.00493586
105 84 0.75036
105 141 0.00145578
105 153 5.38119e-06
105 160 1.33479e-07
105 194 0.0705482
105 202 2.9859e-06
105 283 1.23993e-06
105 446 7.88003e-05
105 1196 9.19045e-06
105 1216 0.00105724
105 2347 0.00320331
105 3578 0.0178588
105 6304 2.93512e-06
105 7091 1.65198e-06
105 7180 4.18463e-05
105 11949 5.68517e-07
105 16340 6.55373e-05
105 17861 1.74678e-07
105 17863 1.7776e-07
105 21605 1.26955e-06
105 21653 2.85173e-07
106 28 0.0154512
106 66 0.0010482
106 117 2.44297e-07
106 131 0.921507
106 141 3.82517e-05
106 190 4.16958e-07
106 287 0.00101661
106 332 2.72546e-05
106 492 5.93279e-07
106 766 0.051235
106 842 3.92459e-06
106 975 0.00590459
106 1750 0.000624257
106 2327 0.000916006
106 3708 0.000281182
106 4519 1.12894e-07
106 5683 0.00107019
106 5853 1.15668e-07
106 7660 1.3377e-07
106 7758 2.89907e-07
106 16502 0.00087154
106 16592 2.18419e-07
106 18676 5.83259e-07
106 21177 7.53075e-07
107 22 0.143741
107 78 3.42925e-05
107 85 0.142996
107 86 0.285779
107 87 0.143029
107 220 0.141383
107 221 0.143036
108 2 0.00284451
108 4 2.5358e-07
108 22 1.47336e-07
108 26 4.34235e-06
108 40 9.20635e-07
108 58 4.33734e-07
108 86 0.0141016
108 88 0.450264
108 114 0.00284493
108 153 1.60449e-05
108 157 1.2383e-06
108 160 1.58788e-06
108 191 0.00789691
108 203 3.87498e-06
108 245 0.00280886
108 371 0.000454369
108 390 9.13035e-06
108 427 1.71599e-06
108 497 0.404048
108 540 0.0692206
108 847 0.00276375
108 863 0.00327233
108 1079 0.0033404
108 1137 0.00281353
108 1625 0.0105544
108 1950 0.00281836
108 2232 0.00281061
108 2493 0.000220016
108 2836 0.00281028
108 3397 0.0028287
108 11782 0.00281062
108 13875 6.91117e-07
108 18989 0.00281063
108 19660 0.00281062
108 19661 0.00281062
108 23011 4.57659e-07
109 28 0.00119345
109 45 0.0379351
109 95 8.24298e-06
109 99 0.0380174
109 110 1.31465e-05
109 133 0.0118425
109 137 3.44644e-06
109 141 0.151513
109 142 0.00145442
109 160 0.075937
109 234 1.13754e-06
109 265 0.038035
109 345 0.0379756
109 472 0.0605555
109 556 0.0374351
109 1008 0.000918942
109 1404 0.0760712
109 1426 0.0380298
109 1856 0.0534701
109 1858 0.0760712
109 1862 0.0760712
109 5365 3.37557e-05
109 14786 0.0380356
109 14787 0.0380356
109 14788 0.0380356
109 14794 0.0352713
109 14802 0.038035
110 13 0.107418
110 21 0.0166583
110 89 0.0564878
110 90 0.0284976
110 91 0.70988
110 93 0.00533148
110 96 0.0322415
110 98 1.59026e-05
110 550 2.11343e-05
110 18564 0.0398697
110 21758 0.00357831
111 4 8.93215e-06
111 13 1.84271e-07
111 19 4.78856e-05
111 21 1.1111e-05
111 40 5.59754e-06
111 57 2.82476e-05
111 58 1.31904e-05
111 94 0.0914435
111 95 0.307043
111 97 0.504245
111 100 0.0167496
111 110 1.32216e-07
111 137 6.16893e-07
111 141 4.7151e-05
111 160 0.0019693
111 190 0.000337067
111 191 5.72567e-06
111 203 1.88745e-06
111 289 0.00114477
111 371 1.88717e-07
111 446 6.41227e-06
111 462 0.00185868
111 472 0.00544566
111 486 9.29872e-06
111 487 0.000891019
111 553 0.000954534
111 630 1.58042e-07
111 837 1.87266e-06
111 1051 1.50329e-07
111 1095 0.0517341
111 1581 0.00371181
111 2071 0.00122935
111 2468 0.00185345
111 3253 6.68835e-07
111 4314 1.51172e-07
111 6578 0.00145582
111 7546 0.00371598
111 7996 3.4454e-05
111 10335 3.92274e-07
111 10421 0.000922575
111 10434 1.36681e-05
111 10435 0.000171844
111 12178 0.000936822
111 15184 0.000922151
111 15200 0.000156363
111 18320 0.000841531
111 20147 2.66403e-05
112 13 7.34657e-05
112 45 0.111764
112 91 3.61725e-06
112 94 0.326179
112 142 0.111362
112 212 0.11321
112 1896 0.00025723
112 9497 0.112651
112 9498 0.113208
112 12104 0.111292
113 13 0.258723
113 16 0.0297321
113 28 0.000626061
113 57 3.78605e-06
113 58 1.95991e-05
113 89 0.0300691
113 92 7.45439e-06
113 98 5.62935e-05
113 141 0.0271884
113 332 0.0291482
113 452 0.0297316
113 1059 0.0163563
113 1205 0.118883
113 1252 0.00106176
113 1493 0.000549231
113 1505 0.0623295
113 1662 0.0297322
113 2109 0.000204754
113 3324 0.0297322
113 3924 0.0297322
113 3974 0.0297302
113 6980 0.029732
113 15934 0.0297322
113 15936 0.0297322
113 16961 0.029732
113 19674 0.0297309
113 19675 0.0297309
113 21746 0.0594641
113 21756 0.00879727
113 21757 0.029732
114 89 0.000899507
114 90 0.273225
114 91 0.253921
114 92 0.260987
114 93 0.210968
115 2 0.00252265
115 4 5.97593e-05
115 6 0.00239329
115 9 0.0611167
115 13 0.3063
115 24 0.0379922
115 28 2.92624e-06
115 45 0.0231421
115 56 3.37027e-05
115 57 6.45361e-05
115 58 0.000379485
115 66 7.58532e-05
115 92 0.117863
115 100 2.27538e-05
115 117 0.000266892
115 137 0.0225261
115 141 2.11814e-05
115 144 0.00591347
115 203 2.7481e-06
115 212 0.0053406
115 240 0.00831158
115 283 0.0200712
115 289 0.384279
115 305 1.18075e-07
115 462 2.02634e-07
115 4370 0.00116525
115 7645 0.000131354
116 9 0.0453593
116 21 2.94677e-05
116 22 0.00160647
116 28 0.010176
116 45 3.15375e-06
116 58 0.193268
116 64 0.0034428
116 66 2.92689e-05
116 92 0.000168073
116 100 0.0600833
116 122 0.036745
116 123 0.0166091
116 141 3.46696e-07
116 155 0.00364992
116 160 0.0121951
116 179 0.0788522
116 181 0.0280776
116 187 0.0330669
116 203 4.47912e-06
116 233 1.66328e-06
116 283 0.00286717
116 289 0.0508616
116 345 0.00355376
116 378 4.9216e-07
116 430 0.0885909
116 432 4.53055e-07
116 443 0.0331715
116 461 0.0165864
116 469 0.0331704
116 470 3.61459e-07
116 483 0.0333336
116 484 0.0353844
116 485 0.0276747
116 495 1.38993e-05
116 633 2.7292e-06
116 891 0.0165863
116 1079 3.5273e-05
116 2670 0.0167769
116 2746 0.0165864
116 3804 0.000280012
116 4502 0.00156353
116 5076 0.0165863
116 6573 5.04945e-05
116 8603 0.0165863
116 9297 0.0166093
116 9767 0.016586
116 14279 2.22174e-07
116 17297 0.0165861
116 20397 0.0165862
117 2 4.80525e-07
117 6 0.00193644
117 21 0.0441951
117 22 5.78119e-05
117 42 0.000552854
117 58 0.0154303
117 89 1.00962e-07
117 93 0.432223
117 101 0.000204433
117 111 0.00063994
117 141 0.0127627
117 144 0.00815682
117 146 1.1194e-06
117 153 2.7655e-07
117 156 0.173554
117 157 0.00496944
117 158 4.2268e-05
117 179 0.196964
117 180 0.000382062
117 190 0.00108974
117 203 2.87347e-06
117 341 0.000147116
117 483 0.000194572
117 542 0.0682911
117 710 0.00104866
117 747 0.00256988
117 756 5.65816e-05
117 942 0.00325036
117 995 1.00556e-07
117 1060 1.41711e-05
117 1103 0.000572703
117 1130 0.0306749
117 3146 1.88264e-06
117 11981 1.06889e-07
117 12567 6.61895e-06
117 14338 2.7936e-06
118 4 8.46767e-07
118 6 0.0011032
118 22 2.3613e-05
118 23 0.0194124
118 42 0.0319719
118 56 5.60123e-05
118 58 0.084443
118 69 0.133595
118 89 0.00197235
118 96 1.09671e-05
118 100 0.21284
118 110 0.000598483
118 139 0.000170467
118 142 4.35362e-06
118 146 0.0188886
118 147 6.86535e-07
118 157 0.0344015
118 187 0.0397237
118 199 0.0580836
118 203 1.04846e-05
118 260 0.000342191
118 288 0.0195637
118 341 2.59787e-06
118 345 0.03876
118 655 0.0219444
118 835 0.0193799
118 1092 0.00037252
118 1102 0.00144641
118 1130 4.53796e-07
118 1206 0.0386414
118 1304 0.00176412
118 1957 0.0191882
118 2111 0.0385672
118 2829 0.0386449
118 5028 3.63311e-05
118 10310 0.00799145
118 10625 1.9598e-06
118 11108 6.41905e-07
118 19826 0.038747
118 19827 0.0579697
118 19828 0.0193233
118 22022 2.64779e-07
119 4 0.000331075
119 6 0.0265098
119 7 0.003357
119 9 2.32995e-06
119 21 0.0226816
119 28 0.0283614
119 56 0.000794939
119 57 0.037438
119 58 0.000559378
119 66 0.00175055
119 89 1.57921e-07
119 92 0.450195
119 105 1.26458e-06
119 110 8.83492e-07
119 117 4.91708e-05
119 122 5.03383e-05
119 137 0.0256552
119 141 0.046349
119 142 0.000113401
119 153 0.000252657
119 160 0.244553
119 180 2.94931e-06
119 191 1.14552e-05
119 203 0.002451
119 237 7.92754e-07
119 245 5.78447e-06
119 254 3.78265e-05
119 316 1.00244e-07
119 332 1.95567e-06
119 446 0.0123327
119 1087 0.00410842
119 1196 1.67114e-06
119 1205 1.21065e-05
119 1247 0.000334145
119 1266 0.00134252
119 1505 2.03261e-07
119 1580 2.25072e-07
119 1581 3.78033e-05
119 1660 0.0167801
119 2071 7.07481e-07
119 2428 1.55334e-07
119 3257 0.008335
119 3330 4.45578e-06
119 3797 0.0134221
119 4400 0.0166503
119 4446 0.0083465
119 4502 1.29909e-06
119 5359 0.00832519
119 6445 1.71145e-07
119 6532 8.87155e-06
119 7546 4.54852e-07
119 8679 3.74503e-07
119 9535 1.6946e-07
119 12082 1.90461e-07
119 12178 6.35874e-07
119 12567 1.41487e-06
119 13144 0.000644523
119 13866 0.000771496
119 15184 5.27783e-05
119 16315 0.000178427
119 17002 0.0083249
119 17003 0.008325
119 17333 2.10702e-05
119 18320 0.000115966
120 13 5.67908e-05
120 14 7.24481e-07
120 58 4.72191e-07
120 69 0.185989
120 117 0.0224185
120 283 1.08285e-05
120 459 0.0237244
120 460 0.0237244
120 568 0.116294
120 1026 0.0237244
120 1711 0.245439
120 2709 0.0182048
120 3873 0.0237241
120 4137 0.0431337
120 6103 0.0237243
120 6564 0.0128554
120 6629 0.0236567
120 7415 0.000118254
120 12169 0.023724
120 20166 9.54735e-07
120 20208 5.77827e-06
120 20252 0.0474486
120 20253 0.0474128
120 20254 0.0237243
120 20255 0.0237243
120 20256 0.0235844
120 20317 0.0235755
121 4 2.05186e-05
121 13 0.00514631
121 21 7.2301e-06
121 27 1.76142e-05
121 28 0.636105
121 45 0.000902922
121 57 0.00202941
121 58 1.66922e-05
121 66 0.0033581
121 72 0.00129182
121 92 0.000217365
121 122 0.243851
121 195 0.0467267
121 446 0.000415295
121 550 0.000947305
121 588 4.0036e-07
121 1653 4.27601e-07
121 1681 0.0218351
121 2232 0.0161995
121 2399 4.97443e-05
121 4752 0.0204415
121 15672 6.96195e-05
121 15673 9.05343e-05
121 18995 0.000260057
122 4 1.90507e-07
122 28 0.00130117
122 66 0.0427668
122 83 0.00157901
122 89 0.00598697
122 92 9.42978e-06
122 98 0.170974
122 153 3.99965e-07
122 550 0.365383
122 1357 1.84057e-07
122 2670 0.382616
122 4604 5.495e-06
122 9696 1.22248e-07
122 14178 0.00586149
122 14179 2.39674e-06
122 14180 1.84558e-06
122 19797 0.00587041
122 20178 0.00587029
122 21744 0.00590003
122 21745 0.00587043
122 22690 1.22999e-06
123 4 5.75861e-05
123 6 0.000280664
123 7 0.000238683
123 9 1.99e-05
123 10 0.0104341
123 19 2.3282e-05
123 20 0.0581613
123 21 1.96582e-05
123 22 4.83709e-06
123 23 8.35419e-06
123 28 0.000411183
123 56 1.62129e-05
123 57 0.000173207
123 58 0.0021814
123 66 0.00224509
123 82 0.221449
123 89 1.15665e-07
123 92 0.0128488
123 93 0.0217599
123 98 0.0235623
123 111 5.52108e-07
123 137 0.0235148
123 141 0.000919788
123 144 0.0107363
123 157 2.25516e-06
123 200 0.000674843
123 203 0.000111154
123 234 4.34038e-07
123 237 9.24527e-06
123 240 6.02644e-06
123 254 0.0141578
123 289 9.82112e-05
123 310 0.0104667
123 332 0.0155143
123 345 0.010258
123 446 0.0754995
123 470 0.000122256
123 701 1.15998e-06
123 755 2.11184e-07
123 756 0.000866814
123 773 0.0104288
123 837 0.0563244
123 842 3.8386e-06
123 847 2.07634e-07
123 873 4.26697e-07
123 974 5.41197e-05
123 992 3.06818e-06
123 1122 0.0165833
123 1159 0.0103213
123 1245 0.0104064
123 1267 0.0102098
123 1328 0.239357
123 1345 1.32962e-06
123 1404 0.0149797
123 1494 0.0104134
123 1586 0.0103259
123 1692 7.9067e-07
123 1876 1.14891e-07
123 3236 8.7746e-07
123 3257 0.0104018
123 4113 0.010407
123 4294 5.52615e-07
123 4488 1.71382e-07
123 4964 0.0104019
123 4965 0.0104018
123 5594 0.000156019
123 6201 0.0104014
123 6692 0.000154624
123 7614 0.000479691
123 10295 0.0104018
123 10296 0.0104018
123 11954 0.0102797
123 12670 0.00984075
123 13731 1.43446e-07
124 19 0.302499
124 20 0.142048
124 21 0.0518648
124 58 2.08342e-07
124 74 0.003601
124 99 0.485604
124 141 1.44837e-07
124 190 3.01713e-05
124 477 0.00178848
124 945 2.71574e-07
124 960 0.00179088
124 1178 0.00184366
124 3110 5.38729e-07
124 8709 0.00178802
124 8715 0.00178604
124 8716 0.00178144
124 8722 1.1693e-07
124 8723 1.22302e-07
124 8724 0.00178354
124 15305 4.41535e-07
124 15306 0.00178848
125 6 4.27387e-05
125 7 8.26665e-07
125 9 7.78181e-07
125 57 1.88365e-06
125 58 0.930225
125 69 0.0114462
125 93 7.3154e-06
125 195 0.035975
125 200 5.17387e-06
125 260 1.20764e-07
125 265 5.76099e-07
125 283 0.000604925
125 333 1.424e-07
125 372 1.56061e-07
125 390 0.0109278
125 448 2.67738e-06
125 750 0.00462657
125 1061 0.00183369
125 1247 0.0019806
125 1307 0.000288494
125 1882 1.62738e-07
125 3074 8.16592e-05
125 3373 8.51704e-07
125 3692 0.00177934
125 5086 1.58527e-07
125 5840 2.72171e-07
125 14465 0.000164583
126 13 3.14011e-06
126 21 1.69533e-07
126 56 2.97664e-07
126 57 4.32695e-07
126 95 2.95481e-07
126 102 0.144579
126 144 0.000754386
126 146 0.0111619
126 147 0.0111837
126 179 5.10297e-07
126 683 4.74489e-06
126 710 0.782669
126 820 1.22806e-07
126 1659 0.0156225
126 3621 2.8957e-06
126 7911 0.00559141
126 7912 0.00559132
126 11233 0.0111841
126 13736 0.000467062
126 16262 0.0055918
126 20708 0.00559077
127 6 1.58604e-05
127 13 6.23987e-07
127 27 0.0011014
127 57 8.39804e-07
127 82 0.0142556
127 93 0.0152424
127 101 0.47631
127 141 1.63235e-06
127 144 0.007999
127 156 2.97161e-06
127 260 0.0257416
127 341 0.032884
127 483 0.0063926
127 806 0.39461
127 995 4.04738e-07
127 1061 2.3995e-06
127 1106 1.05464e-06
127 1114 1.1002e-07
127 5000 0.00632591
127 6516 7.37309e-06
127 11503 0.0127309
127 15441 1.98984e-06
127 16057 0.00634439
127 18667 2.68114e-05
127 21337 1.06259e-07
128 4 1.24592e-06
128 19 0.00493779
128 22 1.08737e-05
128 26 0.0172263
128 58 2.05701e-05
128 100 0.878127
128 122 0.0118736
128 141 2.5547e-06
128 180 4.30656e-07
128 186 6.42013e-06
128 187 0.0337097
128 289 0.027396
128 364 0.00198887
128 451 0.00237202
128 750 9.3236e-05
128 756 1.06266e-05
128 971 0.00198896
128 1068 0.0019889
128 1483 0.0120506
128 1691 1.69594e-07
128 2271 0.00198927
128 3954 0.00217304
128 5946 1.48541e-07
128 5985 2.29017e-07
128 6039 1.88495e-07
128 6469 3.82297e-05
128 7049 1.53261e-06
128 8901 1.58444e-06
128 17478 0.00198896
129 4 1.89804e-06
129 6 1.77437e-07
129 21 0.000355274
129 30 0.00960385
129 56 0.0321166
129 58 0.000697317
129 90 0.303357
129 110 3.25599e-07
129 141 0.0452764
129 187 2.79881e-07
129 190 1.25909e-07
129 250 1.25115e-05
129 371 3.66039e-05
129 452 0.0828791
129 468 0.0636019
129 655 0.00186069
129 702 0.378507
129 793 0.0261435
129 942 2.07336e-06
129 1176 0.00825387
129 1193 2.02458e-07
129 1196 5.54714e-05
129 1205 1.21982e-06
129 1483 0.000389375
129 1505 0.00179364
129 1543 0.00043249
129 1548 2.27334e-07
129 2826 0.00914811
129 2989 0.00180775
129 2992 0.0017958
129 3974 0.000454719
129 4508 0.0124279
129 4607 0.0120935
129 5001 1.17402e-06
129 8898 2.94522e-07
129 8901 0.0015464
129 10968 3.6873e-07
129 13345 0.0017782
129 14288 0.00178516
129 15489 0.00178021
130 9 0.0137781
130 13 7.17474e-05
130 45 0.0767041
130 66 1.3205e-05
130 103 0.841804
130 158 0.000573804
130 1130 0.0670548
131 6 0.0127959
131 20 1.06091e-05
131 36 0.002256
131 44 0.00237202
131 58 7.22447e-07
131 86 0.000659232
131 92 5.6424e-06
131 105 0.915614
131 156 3.81844e-07
131 186 0.00139514
131 191 0.00313184
131 461 0.0055905
131 628 0.0012709
131 835 0.0041928
131 842 0.00419281
131 1087 0.000582467
131 1178 0.00139761
131 2162 8.59633e-06
131 2332 0.00482151
131 3138 0.0243224
131 3322 0.00134304
131 3324 0.00288355
131 3330 0.00135261
131 4412 0.0027951
131 6098 0.00140511
131 7033 0.00139756
131 7034 0.00139756
131 7732 7.48408e-06
131 11479 0.00279511
131 23139 2.29209e-07
131 23140 9.67569e-07
132 86 0.00363389
132 106 0.934184
132 378 0.0026752
132 387 0.0116588
132 762 0.00142553
132 1112 0.0114854
132 1597 0.0129866
132 1925 0.00447171
132 1926 7.46266e-07
132 4165 1.5981e-05
132 6449 0.0043721
132 10190 0.0130899
132 20402 1.32598e-07
133 45 0.0502286
133 106 6.99758e-05
133 107 0.949701
134 2 0.00386302
134 6 0.000138088
134 8 5.22529e-07
134 9 7.42301e-06
134 19 1.13369e-07
134 21 0.0121347
134 42 3.11154e-07
134 56 1.41172e-07
134 57 5.59913e-07
134 58 0.0108219
134 93 0.532552
134 141 0.00553966
134 144 2.92397e-05
134 156 0.186663
134 179 0.169634
134 180 6.05067e-07
134 190 0.0119182
134 341 5.70433e-06
134 542 0.00648731
134 710 6.44575e-06
134 747 3.63068e-06
134 756 0.00820551
134 942 0.0159267
134 995 1.17614e-06
134 1056 0.000846105
134 1061 0.00128902
134 1130 0.0331452
134 1196 5.59985e-06
134 1659 5.50713e-06
134 1908 0.000502311
134 3074 0.000259069
134 7091 8.64916e-07
134 7150 4.0003e-07
134 10421 2.97757e-06
134 21605 1.09146e-06
135 9 0.247094
135 108 0.501933
135 113 6.33076e-06
135 535 0.250967
136 13 2.54049e-06
136 109 0.596918
136 144 0.00266857
136 157 0.000469705
136 190 0.000104707
136 237 1.6239e-07
136 283 2.90413e-07
136 431 0.166352
136 432 0.095143
136 483 4.01603e-05
136 492 0.00264703
136 847 0.00264601
136 942 0.00589358
136 1045 2.5361e-07
136 1266 0.00257467
136 1573 0.00533379
136 1618 0.0460032
136 1673 0.000111613
136 2126 0.0107672
136 3481 0.0280695
136 4783 2.23625e-07
136 4880 0.00248518
136 6020 1.34793e-06
136 6402 0.00246749
136 7394 0.00266637
136 7579 0.005334
136 7581 0.00266659
136 9564 1.29283e-07
136 13303 0.00262765
136 15395 0.00266632
136 15396 0.00266637
136 15397 0.00266635
136 15751 0.00266637
136 15752 0.00266632
136 16449 1.67442e-07
136 16738 7.15598e-06
136 21652 0.00266591
137 6 2.77101e-06
137 21 3.98713e-05
137 40 0.00039714
137 58 0.000289108
137 110 0.0079967
137 111 0.961158
137 141 0.00256438
137 339 8.94253e-05
137 569 0.00277607
137 820 0.00654774
137 1098 0.000109728
137 1307 0.00523952
137 1383 7.03028e-06
137 1505 0.000267027
137 1563 0.00278366
137 1586 1.6848e-07
137 1908 2.52893e-05
137 2066 0.000960282
137 2413 1.00884e-06
137 3621 0.000305873
137 3934 0.00287047
137 5167 2.64612e-07
137 6702 1.05299e-07
137 6995 6.13126e-07
137 19709 0.00278325
137 20704 0.0027838
138 13 0.00292344
138 89 0.0611583
138 110 1.62898e-06
138 112 0.686346
138 113 0.0623903
138 1896 0.0623906
138 14387 0.0623949
138 14388 0.0623947
139 4 3.33365e-06
139 6 0.0294022
139 7 0.0141552
139 9 8.52013e-05
139 13 1.16639e-05
139 19 1.18719e-05
139 20 0.0513354
139 21 3.25441e-05
139 24 0.00231175
139 28 0.000252234
139 38 0.36411
139 40 0.00525148
139 42 0.0465253
139 45 0.00859967
139 56 0.0420896
139 57 2.73178e-05
139 58 0.0246593
139 66 0.000459306
139 82 0.00130309
139 84 0.00481281
139 86 0.0253347
139 89 6.1581e-05
139 92 7.37122e-05
139 93 0.00502445
139 117 5.07173e-07
139 120 4.55845e-07
139 137 5.09772e-06
139 141 0.0497452
139 146 9.24664e-07
139 147 1.67271e-07
139 153 1.41677e-06
139 157 3.79557e-06
139 173 4.27695e-07
139 186 0.00995763
139 190 1.16544e-06
139 191 0.0345265
139 225 1.40997e-07
139 254 0.0778059
139 287 4.67324e-05
139 341 0.00273146
139 371 0.00513375
139 436 0.00177995
139 472 0.0548249
139 820 1.47969e-07
139 842 0.00491481
139 863 0.00504936
139 961 1.40382e-05
139 1117 1.82382e-06
139 1128 0.0100761
139 1207 0.000110319
139 1266 4.50624e-05
139 1601 0.00489562
139 1908 0.0135092
139 1909 0.0107755
139 2574 2.3677e-06
139 3117 0.00512392
139 4488 1.81059e-07
139 5167 1.08733e-06
139 5542 0.00538503
139 6159 0.00557496
139 6355 0.00407962
139 7050 0.00967363
139 9737 0.0287068
139 10865 0.00493491
139 11181 0.00489478
139 11954 5.64378e-05
139 11981 3.01015e-05
139 12533 0.00489526
139 16559 7.20113e-07
139 19194 8.93328e-06
139 20774 0.00497049
139 20789 0.00489562
139 21608 0.00487324
140 4 4.74684e-06
140 7 3.83041e-07
140 13 2.44774e-07
140 27 0.00706978
140 34 0.00797118
140 42 0.0592241
140 57 0.0018775
140 62 0.00747856
140 66 2.4136e-07
140 69 0.0105715
140 82 0.00856024
140 86 0.038172
140 93 0.000276557
140 110 0.00016253
140 117 8.15518e-06
140 122 2.13231e-05
140 141 0.00410235
140 142 0.00942187
140 153 1.43184e-05
140 184 0.00747946
140 191 0.0308448
140 200 3.01558e-05
140 203 1.02208e-06
140 212 0.0167805
140 237 3.80782e-05
140 250 3.04795e-05
140 253 0.00526902
140 283 1.25725e-07
140 375 0.00748686
140 483 1.18138e-07
140 486 0.0299066
140 630 8.56504e-06
140 638 9.35196e-06
140 708 0.043721
140 922 0.00752085
140 957 8.09622e-06
140 1001 0.38033
140 1081 0.00747871
140 1159 0.00747996
140 1206 0.0149261
140 1266 3.01435e-07
140 1307 0.0149574
140 1487 2.1022e-06
140 1541 0.0150612
140 1553 1.63423e-05
140 1579 0.00733857
140 1580 7.40496e-07
140 1603 0.00758973
140 1620 0.00747893
140 1912 0.0149578
140 1981 0.0598519
140 2310 0.00747811
140 2444 7.28718e-07
140 2556 0.0151931
140 2623 0.00820469
140 2993 1.26901e-07
140 3053 1.03947e-07
140 3055 0.0457104
140 3579 0.00706497
140 4880 4.86716e-06
140 4984 0.00747892
140 4985 0.00747892
140 8379 0.00747602
140 10634 0.00747821
140 14520 2.05581e-05
140 17300 0.0149563
140 17550 1.47252e-07
140 18495 0.00746624
140 19391 0.00747879
140 19392 0.00747858
140 23094 0.00747766
140 23140 1.0463e-05
141 13 0.178023
141 66 0.00028728
141 114 0.0245173
141 115 0.0245174
141 116 0.129287
141 942 0.0424487
141 1130 0.0629621
141 1341 0.0735523
141 2124 0.243967
141 2605 0.0980636
141 3637 0.0735521
141 6402 0.0245172
141 9051 0.0243049
142 28 6.69788e-05
142 57 3.91528e-07
142 58 1.79241e-06
142 82 0.000393155
142 117 0.968724
142 265 0.0298656
142 314 9.11417e-07
142 472 4.4105e-06
142 633 1.09589e-07
142 1426 0.000941044
142 1595 1.22457e-07
143 24 0.0261859
143 28 0.0457488
143 117 0.137206
143 118 0.780775
143 191 2.73383e-06
143 1396 5.21079e-06
143 3566 1.10532e-07
143 3699 1.91977e-07
143 5856 1.09676e-07
143 5874 0.000972127
143 5875 0.00910249
143 6514 1.5296e-06
143 10803 1.73069e-07
144 7 0.00184102
144 21 0.00169326
144 22 0.000378478
144 23 0.117414
144 58 4.97482e-06
144 78 0.84389
144 121 0.0109946
144 141 9.23091e-05
144 153 0.0049755
144 310 1.04907e-07
144 594 0.000175308
144 745 3.13919e-05
144 847 0.00180388
144 971 0.00181208
144 3253 0.00181193
144 3724 0.00181161
144 3842 0.00181204
144 5067 0.00181164
144 7495 0.0018117
144 13152 0.00181135
144 14357 0.000397791
144 14946 0.0018118
144 18995 1.01133e-06
144 22079 0.00181193
145 11 1.25169e-07
145 28 0.0700787
145 42 1.20635e-07
145 58 2.12241e-07
145 66 2.31788e-05
145 120 0.794008
145 121 1.61739e-06
145 144 1.66204e-07
145 180 6.475e-06
145 203 3.21272e-07
145 212 4.3032e-07
145 279 0.0747268
145 594 2.329e-05
145 630 0.00117566
145 984 0.00264421
145 1762 0.0246164
145 1857 0.000439349
145 1860 2.2057e-07
145 1997 0.00804369
145 2498 0.00229526
145 2499 0.00229525
145 2500 0.00229526
145 2622 0.00103227
145 2685 0.0151689
145 6954 1.15334e-07
145 9917 4.31086e-07
145 9918 1.15213e-06
145 9919 0.00111321
145 12153 1.62694e-07
145 17861 7.33785e-06
145 19194 1.25154e-07
146 13 0.00121004
146 22 1.7106e-05
146 28 0.00577301
146 38 0.112499
146 66 0.00404479
146 117 0.00146259
146 119 0.38849
146 137 7.77587e-05
146 200 0.00439366
146 260 0.00170981
146 384 0.451063
146 436 0.00269626
146 480 2.31653e-07
146 594 0.00138364
146 820 1.11003e-06
146 1055 0.00160956
146 1166 1.21345e-07
146 1247 1.04637e-05
146 2112 0.00477845
146 2128 0.00159229
146 2158 8.20384e-06
146 2309 6.55903e-07
146 2847 0.00159246
146 2859 0.000142477
146 7029 0.00955291
146 9439 5.73241e-06
146 9955 0.00159205
146 10328 0.00152421
146 12219 0.00159212
146 12314 1.29478e-06
146 14357 0.00116876
146 18946 1.10874e-07
146 18947 5.46886e-06
147 28 7.81061e-05
147 57 0.000697405
147 92 0.332075
147 121 0.330894
147 122 0.33497
147 137 0.00122304
147 9813 6.27259e-05
148 6 0.000178072
148 7 8.64316e-06
148 28 9.69187e-07
148 57 1.58923e-06
148 92 0.472569
148 100 1.83302e-06
148 105 9.91612e-05
148 121 2.46803e-06
148 122 0.279359
148 137 0.0909588
148 142 0.00424115
148 153 1.74483e-05
148 160 1.50729e-06
148 198 4.47727e-07
148 212 0.0258947
148 240 4.53073e-06
148 245 0.0144444
148 289 0.00869778
148 366 0.00181802
148 518 0.0049976
148 585 0.0035572
148 638 0.00209885
148 698 0.00178029
148 889 2.19952e-07
148 961 0.000202753
148 1040 0.00179916
148 1041 0.0017992
148 1266 0.00385055
148 1349 0.0246425
148 1357 1.16811e-07
148 1494 0.00407868
148 1997 2.28842e-07
148 2188 1.14274e-07
148 5115 0.00177779
148 5216 0.0107641
148 5217 0.0385519
148 6098 0.0017692
148 16781 2.85072e-05
148 19473 1.21365e-07
149 2 0.000202795
149 20 6.74575e-05
149 28 0.0636139
149 66 0.000147841
149 69 0.00186834
149 123 0.692434
149 133 0.228802
149 144 3.23269e-06
149 153 6.69421e-05
149 253 8.13793e-05
149 446 0.000672686
149 480 2.76271e-05
149 565 5.26859e-06
149 578 1.44587e-07
149 1059 1.0107e-06
149 1444 1.07383e-07
149 1896 0.000735658
149 2180 0.00314035
149 2327 1.31773e-05
149 2970 1.53587e-06
149 3164 0.0080079
149 3206 4.4752e-05
149 14279 1.07323e-07
149 14888 3.3704e-06
149 16480 2.84003e-07
149 16481 2.38536e-07
149 17136 1.24567e-06
149 18320 5.49962e-05
149 19500 3.17904e-07
150 4 9.01806e-06
150 13 0.0429442
150 19 8.60539e-06
150 20 0.0190533
150 21 1.17738e-06
150 22 6.95428e-05
150 24 0.000470454
150 26 5.19693e-06
150 27 0.019035
150 28 0.0821169
150 30 0.0993337
150 45 0.0571957
150 57 0.00310349
150 58 4.82144e-06
150 66 0.000175962
150 92 4.66433e-05
150 180 9.01853e-06
150 190 0.0881342
150 203 0.00157871
150 234 0.000784607
150 283 3.25843e-06
150 371 1.88264e-06
150 942 2.63768e-07
150 974 0.0372686
150 1001 0.0395041
150 1021 0.0186136
150 1559 0.0186308
150 1583 0.0749859
150 1908 0.0222257
150 2399 0.000462369
150 2468 0.0186136
150 2847 0.0561481
150 3442 0.0186749
150 4289 3.05294e-05
150 4295 0.000264082
150 7311 0.0184974
150 9746 0.055841
150 11249 0.0186137
150 11250 0.0186137
150 15485 0.0186114
150 15487 3.38037e-07
150 18995 0.0183484
150 20744 0.037227
150 21096 0.0947391
151 13 0.00025449
151 24 0.00911144
151 82 0.0108804
151 124 0.693961
151 141 0.0174365
151 157 0.00823402
151 186 1.44999e-05
151 260 0.0093336
151 638 0.0648281
151 1385 5.69565e-06
151 1394 5.87013e-06
151 2237 0.00938143
151 2763 0.000153575
151 3021 7.27694e-05
151 3047 0.102692
151 3146 0.00802786
151 3537 0.0187445
151 5359 0.00938147
151 8706 0.00938145
151 14060 0.00938139
151 18839 0.00938143
151 19414 0.00933574
152 6 3.35146e-05
152 12 7.59212e-05
152 13 0.000150998
152 19 5.74736e-06
152 20 0.413019
152 21 0.000162508
152 24 0.000108515
152 28 0.0017952
152 30 0.00449237
152 42 0.0452039
152 56 0.305335
152 92 4.7234e-05
152 99 0.0436808
152 117 8.74921e-07
152 130 0.0100804
152 160 0.000246495
152 191 0.000487213
152 193 1.01368e-07
152 195 4.27806e-06
152 203 1.90934e-05
152 236 0.00356475
152 237 0.000278092
152 254 6.67591e-07
152 287 0.0892528
152 361 0.000395503
152 472 4.18606e-06
152 516 2.88069e-06
152 1162 0.00354394
152 1543 0.00282173
152 1765 0.00356821
152 2539 0.0285433
152 3289 0.00355181
152 5874 6.82825e-07
152 6980 0.00350713
152 7996 0.00342984
152 9587 0.00355401
152 9868 0.00355179
152 11033 2.28493e-07
152 11141 0.00355127
152 11417 0.00355162
152 15796 0.00355181
152 15848 0.00355178
152 15927 0.000619866
152 16368 0.0035518
152 16371 0.00355182
152 21653 0.00354951
153 6 1.46789e-06
153 8 0.024688
153 13 0.107153
153 24 0.0665217
153 42 0.052063
153 44 0.0235172
153 56 1.68363e-05
153 57 0.0547526
153 66 1.38714e-05
153 144 0.0227441
153 158 0.0493337
153 231 0.0247013
153 234 1.29024e-06
153 253 0.0518177
153 289 1.64437e-05
153 332 0.0249741
153 400 0.0248068
153 470 0.033209
153 578 0.0247013
153 630 0.0525128
153 756 2.27988e-05
153 1055 0.0247013
153 1487 0.0247006
153 1583 0.0247811
153 1755 0.0247011
153 2464 0.0247013
153 2483 1.47563e-06
153 4289 0.0247013
153 4295 0.0412168
153 7498 0.0247011
153 10477 0.0247013
153 12076 0.0247011
153 13467 1.73492e-05
153 15526 0.0247013
153 20699 0.0247013
153 20700 0.0247013
153 20701 0.0247013
154 56 0.0514831
154 66 0.263804
154 125 0.502145
154 1701 0.182565
154 2870 3.67787e-06
155 11 0.00689183
155 28 0.000100535
155 66 1.25911e-06
155 126 0.487339
155 157 0.00367084
155 254 1.63275e-07
155 332 0.145153
155 446 0.00664783
155 755 0.250947
155 974 2.67737e-05
155 1267 0.089902
155 1328 1.962e-07
155 1814 1.25112e-06
155 4746 1.21141e-07
155 9363 0.0031062
155 12004 0.00621238
156 6 1.70158e-07
156 7 5.17076e-05
156 58 2.38958e-05
156 127 0.60708
156 472 3.10913e-05
156 517 0.0173339
156 773 0.297725
156 976 0.00290408
156 1141 2.34437e-05
156 1193 0.00557224
156 1247 0.00278364
156 2310 1.48703e-07
156 3219 0.0637912
156 7133 0.00267814
156 18389 4.43066e-07
157 6 1.81499e-05
157 13 2.50333e-05
157 19 0.000276243
157 27 0.0419783
157 28 0.00601975
157 43 1.79151e-07
157 57 0.000239845
157 58 2.74876e-05
157 115 0.0173634
157 191 1.65233e-05
157 199 0.0172256
157 212 1.03571e-05
157 234 0.027634
157 245 0.0173487
157 254 9.63216e-07
157 283 1.54815e-06
157 314 0.0302814
157 409 0.0516868
157 597 0.0172292
157 610 0.0172292
157 613 2.56361e-06
157 971 0.0512049
157 1061 0.017246
157 1117 0.0172292
157 1175 0.017228
157 1199 0.0172292
157 1660 0.103336
157 1762 0.0514771
157 1765 1.71008e-06
157 1950 0.00250086
157 2130 0.0172291
157 2157 0.0172217
157 2397 6.76477e-07
157 2399 0.0310918
157 2847 0.00507786
157 3579 7.95115e-07
157 4058 0.0348845
157 4295 0.0100644
157 4325 0.138362
157 4585 3.69617e-05
157 4825 3.4649e-05
157 6972 0.017229
157 7196 0.0172292
157 9862 0.051682
157 14048 0.0172494
157 15623 0.0516207
157 15626 0.0172292
157 15631 0.0172291
157 15633 0.0172291
157 15636 0.0172292
158 20 4.07847e-05
158 28 1.42969e-05
158 40 0.0233682
158 66 2.68798e-05
158 111 0.0253258
158 128 0.611138
158 203 5.51802e-06
158 237 0.00801857
158 362 0.0254691
158 381 0.00103722
158 500 0.0254694
158 559 0.0254695
158 758 0.0252659
158 2318 0.0278869
158 2380 0.0254694
158 2457 0.0254694
158 3055 0.0230676
158 6778 0.0254693
158 16092 5.40292e-06
158 16413 0.0254694
158 18975 0.0255762
158 21016 0.0254689
158 21017 0.0254689
159 4 0.00146355
159 6 6.07947e-06
159 28 0.000226863
159 40 0.0146521
159 53 0.294292
159 66 0.00419001
159 100 9.94857e-05
159 110 1.11915e-07
159 115 0.0463445
159 117 1.92112e-07
159 142 1.50246e-07
159 147 0.000449145
159 200 7.07715e-07
159 253 8.10565e-07
159 310 0.0142635
159 371 2.82442e-06
159 441 0.00387077
159 484 0.0207812
159 487 0.00328792
159 488 0.00206965
159 506 0.00328184
159 519 0.00351549
159 595 0.00312253
159 689 5.48643e-07
159 753 0.39695
159 769 1.20724e-07
159 807 0.0310508
159 828 0.0696098
159 1069 0.000355832
159 1563 1.04092e-07
159 1583 0.00328897
159 1586 0.0098629
159 1908 0.00667344
159 2005 1.34177e-07
159 2090 0.0131506
159 2548 0.00641082
159 4007 0.000428368
159 4856 9.1225e-06
159 7088 0.00328768
159 9292 0.000282423
159 10782 0.0131506
159 10865 0.0131242
159 14735 0.0131507
159 16313 0.00328768
159 16818 2.26217e-07
159 17424 1.63427e-06
159 19709 5.68583e-07
160 7 0.000925223
160 11 0.12924
160 19 0.000154873
160 28 1.03302e-05
160 42 1.76743e-06
160 56 0.0987668
160 57 0.000537337
160 66 0.000613753
160 107 0.0313295
160 141 9.69681e-06
160 142 0.173765
160 146 2.15075e-07
160 173 0.0167928
160 181 0.000960848
160 196 0.0157044
160 245 1.67454e-06
160 254 0.0048328
160 333 9.28072e-05
160 371 0.0483663
160 461 0.0483061
160 595 0.0320753
160 954 0.0155866
160 1207 0.0966028
160 1273 0.0966121
160 1491 0.0161003
160 1543 0.0167493
160 1689 2.99058e-07
160 2398 0.0304765
160 5874 0.016102
160 6159 0.0137207
160 7238 0.0483059
160 8059 0.0150526
160 20531 0.016102
160 21342 0.0161007
161 13 5.94978e-07
161 57 1.66169e-06
161 86 3.5259e-07
161 99 1.37254e-07
161 100 0.00316953
161 129 0.363259
161 156 1.00209e-07
161 192 0.0410079
161 265 4.09036e-06
161 289 1.92267e-05
161 461 0.00312327
161 519 0.00267846
161 820 0.00596289
161 910 0.0118007
161 942 0.00628153
161 956 0.27873
161 1266 1.05594e-06
161 1559 6.68316e-05
161 1680 1.32474e-06
161 3143 0.266074
161 4484 0.0062393
161 4489 0.00621573
161 4497 2.59467e-07
161 5442 9.53153e-06
161 13397 0.00530201
161 13427 1.87664e-05
161 16225 3.12652e-05
161 16676 3.50636e-07
162 6 0.000612267
162 7 0.0158506
162 9 0.000275994
162 13 0.639503
162 22 0.0156831
162 23 2.79672e-07
162 24 0.117131
162 26 1.07833e-05
162 27 0.00888664
162 28 0.00016229
162 40 2.77925e-05
162 57 0.00464204
162 58 0.00025549
162 66 0.000816208
162 100 0.0785326
162 122 1.09255e-06
162 141 6.55784e-07
162 195 4.14431e-05
162 203 0.000251105
162 234 1.79722e-05
162 237 0.000144608
162 245 1.11088e-05
162 283 0.0623566
162 289 7.00811e-06
162 487 0.00040055
162 588 8.55544e-06
162 752 0.00382867
162 942 0.000132591
162 1196 0.000997466
162 2218 0.00401973
162 2399 0.00045745
162 3008 0.00416039
162 3195 0.00403331
162 3761 1.12892e-05
162 3804 0.00401872
162 4058 2.12458e-06
162 4936 0.00397544
162 4937 0.00387572
162 6402 0.000330305
162 7375 0.0040187
162 7692 0.00401866
162 8608 0.00046398
162 11834 2.51029e-06
162 13129 3.26283e-05
162 13815 0.00401873
162 13816 0.00401872
162 15341 1.26241e-07
162 16999 0.00392143
162 19001 1.23666e-05
162 21594 0.00401746
163 4 0.000167082
163 6 4.46804e-05
163 9 2.0403e-07
163 19 0.000190462
163 21 0.0708698
163 28 0.108598
163 40 9.81351e-05
163 44 7.5234e-07
163 57 0.0814644
163 58 0.00284235
163 66 0.000267309
163 92 0.600699
163 105 7.60549e-05
163 122 1.56615e-05
163 141 0.000781338
163 142 4.04631e-05
163 153 4.65315e-05
163 160 0.00010539
163 191 1.75974e-07
163 195 2.0627e-05
163 203 0.00028672
163 234 6.16221e-07
163 287 3.69491e-07
163 332 1.93702e-06
163 507 1.20459e-06
163 579 0.0153684
163 585 8.61342e-07
163 628 5.03556e-07
163 1247 1.95018e-06
163 1266 0.00699391
163 1637 0.0153361
163 1988 0.0352148
163 1989 0.00979149
163 2877 0.000578647
163 3923 0.0246509
163 6557 0.0153361
163 7029 3.56778e-07
163 9279 0.00176435
163 10177 0.00525354
163 10194 2.63811e-05
163 10195 0.00305787
163 15264 4.36159e-06
164 7 0.0377789
164 19 0.0583451
164 20 2.20903e-05
164 28 4.41836e-05
164 57 0.0754473
164 66 0.00795744
164 82 0.0395087
164 110 5.61418e-06
164 117 6.38298e-06
164 141 0.164223
164 158 0.0790156
164 160 0.383794
164 499 5.35399e-07
164 1095 0.000198477
164 1494 0.0352059
164 2706 0.0395108
164 5159 0.0394263
164 6411 0.0395106
165 20 2.74113e-06
165 56 0.407187
165 72 0.338689
165 78 0.000104897
165 1134 6.74325e-06
165 5245 0.169352
165 8021 0.0846567
166 56 0.00870045
166 130 0.289627
166 468 0.000369649
166 3421 0.000472281
166 7857 0.397541
166 7858 0.30329
167 13 0.123084
167 24 0.000323121
167 40 0.0202031
167 132 0.828229
167 180 8.72695e-06
167 289 0.000850294
167 400 0.00020865
167 1092 0.0223841
167 1122 0.00470742
167 1295 7.1696e-07
168 28 0.165222
168 13885 0.416749
168 13886 0.418029
169 20 0.00128449
169 21 1.17517e-07
169 24 1.73e-05
169 28 0.0123648
169 133 0.931032
169 157 0.00210056
169 1543 3.457e-07
169 2172 0.0452209
169 2403 0.00797957
170 95 0.543891
170 134 0.358399
170 135 0.0977105
171 4 1.64856e-05
171 6 0.0228683
171 7 0.00135531
171 9 0.295938
171 19 0.000907396
171 20 5.31542e-07
171 21 0.00956968
171 22 3.38995e-05
171 28 0.0228602
171 30 0.000333957
171 40 0.00155366
171 45 0.437714
171 57 0.0147319
171 58 0.0023318
171 66 0.000726741
171 92 0.0395698
171 122 2.83608e-05
171 141 0.0790504
171 142 0.00815594
171 160 0.0230453
171 193 5.12979e-05
171 203 1.05749e-05
171 234 1.54311e-05
171 332 5.01824e-07
171 392 5.16796e-05
171 446 0.000689423
171 448 4.47552e-07
171 461 2.92676e-06
171 487 5.33038e-05
171 1207 0.00366941
171 1266 1.98057e-06
171 1277 6.47901e-05
171 1543 1.06478e-06
171 1681 0.00680885
171 2399 6.55911e-07
171 2574 2.13156e-07
171 2813 5.97605e-05
171 2940 0.00682034
171 3318 0.00680729
171 4044 1.28805e-05
171 4489 1.64869e-06
171 4794 0.00708196
171 7692 4.01704e-06
171 21678 0.000182931
171 21787 0.00680256
171 23177 1.14968e-05
172 4 0.000197922
172 13 1.50942e-05
172 22 1.84195e-05
172 40 7.2136e-05
172 134 0.196018
172 137 5.57743e-05
172 157 9.99943e-05
172 254 6.96887e-07
172 310 0.0108398
172 392 1.20259e-07
172 601 0.157045
172 659 0.00229795
172 1019 0.00309988
172 1128 0.00310287
172 1266 0.0031953
172 1293 2.50448e-05
172 1599 0.0414577
172 1782 0.00309721
172 1811 1.80534e-05
172 1884 0.471333
172 1986 3.73473e-06
172 2108 0.0151423
172 2221 0.00316923
172 2267 0.00309467
172 2370 3.36135e-07
172 3236 0.061759
172 5330 0.00309723
172 6995 0.00309574
172 11798 0.00309713
172 14338 0.00264209
172 16472 0.000578912
172 20312 0.0123199
172 21498 6.56879e-06
172 21529 3.15586e-06
173 95 0.000160345
173 135 0.999731
173 7872 0.000108967
174 95 0.000334838
174 136 0.999665
175 78 0.511734
175 110 4.13461e-05
175 135 0.116363
175 136 6.89332e-06
175 146 0.371854
176 6 0.0111568
176 9 0.00713757
176 45 0.026958
176 56 6.47849e-05
176 57 2.26251e-05
176 88 0.87116
176 92 0.000119387
176 141 0.0318045
176 173 2.23658e-06
176 398 3.95786e-07
176 497 0.0109231
176 935 0.000138626
176 985 0.000910763
176 1026 2.47399e-06
176 1079 2.82795e-07
176 1110 1.96131e-07
176 1277 0.00789714
176 2709 2.48141e-05
176 3443 0.00791345
176 4111 8.28545e-07
176 5325 3.16147e-06
176 9225 0.00791775
176 12386 0.0158386
176 14022 1.84531e-06
176 19813 2.13703e-07
177 6 0.000827643
177 9 0.000551558
177 57 3.62907e-07
177 66 5.08429e-07
177 92 0.901913
177 93 4.12851e-07
177 137 0.0618085
177 141 0.00132868
177 144 1.76253e-07
177 160 0.0187022
177 190 1.30342e-07
177 518 1.4127e-05
177 959 1.34185e-06
177 995 0.00952127
177 1059 0.00177672
177 5225 0.0017766
177 6418 0.00177661
178 28 6.64341e-05
178 137 0.485935
178 138 0.513998
179 13 0.000209517
179 40 3.61919e-05
179 56 2.44614e-07
179 69 2.82585e-05
179 86 0.0168485
179 139 0.86422
179 191 0.0156069
179 1247 0.00792859
179 1385 0.0158362
179 1541 1.95799e-07
179 2783 0.00792915
179 4488 0.0158521
179 4489 0.0158582
179 10764 0.0158583
179 14716 0.00792914
179 15300 0.00792917
179 18211 0.00792915
180 140 1
181 2 3.85493e-06
181 4 6.66869e-07
181 6 0.133143
181 7 0.0917936
181 11 0.00327975
181 13 0.00424865
181 27 1.13413e-06
181 28 0.000299273
181 40 4.1859e-05
181 42 1.64492e-07
181 45 1.88919e-06
181 56 3.81922e-06
181 57 0.000637064
181 92 0.00147734
181 122 0.00484446
181 133 5.44734e-05
181 141 0.548848
181 142 0.00628286
181 146 0.0655437
181 147 0.0327917
181 153 5.10787e-05
181 155 9.79323e-07
181 180 0.0479304
181 191 0.000851826
181 203 3.60376e-05
181 254 0.00610289
181 451 2.07033e-05
181 461 3.46188e-06
181 508 0.00270118
181 540 5.83901e-05
181 643 0.00264161
181 942 0.00283896
181 985 0.00259038
181 1026 1.10908e-06
181 1505 0.00760444
181 1765 0.00299927
181 1882 0.000178416
181 1950 0.00822893
181 2232 1.48714e-07
181 2327 1.17678e-07
181 2399 1.86069e-07
181 2483 0.00249523
181 2542 0.00261807
181 3071 4.49539e-05
181 3442 1.33735e-07
181 6402 0.00262018
181 9270 0.00261803
181 9292 8.81048e-06
181 17078 0.00261888
181 17102 0.0026102
181 17424 0.00622724
182 2 0.000580684
182 7 0.070795
182 13 0.000161862
182 21 4.677e-06
182 42 5.22719e-06
182 45 2.00768e-06
182 92 4.076e-07
182 114 0.00387911
182 141 0.903101
182 142 0.0150728
182 146 0.00190994
182 147 0.000102747
182 2763 1.10519e-07
182 2859 0.00224918
182 3208 0.00143177
182 6519 1.34526e-07
182 7072 0.000435425
182 10421 1.01044e-06
182 10434 1.79605e-07
182 10435 3.15474e-07
182 14465 0.000171023
182 18191 3.88801e-07
182 21065 9.35517e-05
183 7 0.0622604
183 19 0.00078665
183 21 0.0134108
183 57 4.20587e-05
183 141 0.000951482
183 142 0.453292
183 200 0.0347689
183 203 0.000111095
183 253 0.0679386
183 254 0.00023332
183 371 2.24308e-07
183 559 0.0347725
183 630 0.0695753
183 716 0.0173849
183 1001 0.0237959
183 1266 0.0168823
183 1331 0.0349358
183 1494 0.0173863
183 3063 0.012373
183 4149 1.22465e-05
183 5115 0.0173856
183 5116 0.017385
183 5123 0.0347726
183 5127 0.034772
183 8379 0.0173856
183 8380 0.017385
183 21498 7.92861e-07
184 4 2.3117e-06
184 28 0.0903012
184 89 7.61889e-06
184 121 3.95309e-07
184 137 0.102959
184 143 0.662656
184 757 0.0288146
184 1892 0.0288148
184 7593 0.0288148
184 7597 0.0288148
184 7598 0.0288145
185 6 0.0055543
185 13 9.30731e-05
185 19 0.000266923
185 22 3.09377e-07
185 24 0.000489739
185 40 1.15673e-06
185 56 0.00324331
185 66 1.55472e-06
185 92 0.000168355
185 100 2.65498e-05
185 110 5.50333e-07
185 114 0.00269911
185 117 0.00280893
185 141 0.0134872
185 144 0.869795
185 147 2.24004e-07
185 186 0.00184475
185 191 1.2352e-07
185 200 1.46937e-05
185 260 2.86689e-07
185 310 0.00280521
185 345 0.00510483
185 367 0.000724768
185 426 2.10094e-06
185 462 0.00753491
185 935 0.0160645
185 995 4.62299e-07
185 1160 0.00263774
185 1937 0.00263832
185 2522 0.00269734
185 3122 0.00263854
185 3253 0.00263942
185 3467 0.00263853
185 3566 0.00834545
185 4620 0.00263859
185 4767 0.00263869
185 9279 0.0139945
185 10191 7.85148e-06
185 11659 0.00263869
185 11660 0.00263869
185 11661 0.00263867
185 15180 3.98385e-06
185 15188 0.00263798
185 16222 0.00263855
185 20148 0.00527741
185 20949 0.00263852
185 21493 0.00263872
186 145 1
187 78 0.0307077
187 110 0.968619
187 136 2.5115e-05
187 145 0.000648489
188 78 0.000133131
188 147 0.903738
188 148 0.0961293
189 4 1.94641e-06
189 6 5.9391e-05
189 40 1.91369e-06
189 66 3.33339e-07
189 141 0.0597224
189 148 0.379647
189 179 0.000836187
189 193 0.000878218
189 195 0.0214714
189 254 6.0325e-05
189 260 9.37564e-07
189 483 0.000164907
189 889 0.0847863
189 1026 0.131711
189 3711 1.63256e-05
189 4746 0.0451865
189 4776 0.231881
189 5209 1.48199e-05
189 10304 0.0209696
189 14626 0.0225901
190 148 0.0794105
190 149 0.92059
191 148 0.00161432
191 150 0.998386
192 4 9.45567e-05
192 24 0.000545382
192 27 0.000192419
192 40 0.00112614
192 57 7.5664e-06
192 88 0.010441
192 100 0.00430984
192 110 0.000381466
192 141 0.0185615
192 147 2.09636e-06
192 151 0.798325
192 177 0.00112603
192 203 1.01294e-05
192 216 4.50623e-07
192 557 0.0656671
192 1580 4.81694e-05
192 3393 1.07367e-06
192 3683 4.68981e-07
192 5542 0.021591
192 5610 0.0215245
192 8598 0.0214831
192 11798 0.0215919
192 12977 5.19797e-06
192 20816 0.0129642
193 11 0.0225734
193 40 3.3675e-07
193 43 1.36098e-06
193 45 1.15831e-07
193 57 1.0136e-06
193 89 0.00110244
193 120 0.00207734
193 147 0.00326534
193 153 0.739669
193 157 0.00497811
193 180 0.217331
193 212 0.000771107
193 942 2.89636e-07
193 1207 2.45102e-07
193 1887 0.00074606
193 5982 0.00334801
193 12082 0.00206515
193 16060 0.00206902
194 7 0.00694974
194 89 0.00621345
194 141 5.38016e-06
194 152 0.389583
194 153 0.00552676
194 157 0.0218734
194 184 4.17186e-05
194 195 0.000378766
194 332 0.00588429
194 345 0.00443402
194 472 0.000233403
194 474 0.465517
194 655 3.01404e-07
194 750 0.0168683
194 1061 0.000109273
194 1151 0.00750995
194 1659 0.000552369
194 1954 0.025135
194 3915 0.0369358
194 9020 2.369e-07
194 9027 0.000382059
194 11380 1.33201e-07
194 11397 0.000101722
194 13310 0.00576365
195 6 0.000549004
195 7 8.00937e-05
195 9 7.67384e-07
195 28 3.91547e-05
195 40 0.0140133
195 53 2.3717e-05
195 57 2.36644e-06
195 66 0.00190959
195 86 5.29065e-06
195 89 0.0108242
195 92 0.115559
195 110 0.000884013
195 141 0.134897
195 144 3.8694e-06
195 153 0.0154285
195 187 0.00185618
195 191 1.19725e-06
195 234 1.06917e-05
195 237 0.0242648
195 345 0.0250143
195 519 0.0126003
195 764 0.0127451
195 1166 0.0126004
195 1267 0.0130952
195 1329 0.0126003
195 1603 0.0126004
195 1606 0.000685577
195 2317 0.0126003
195 2399 0.00074007
195 3208 0.0128218
195 3384 0.0126125
195 3586 4.16406e-07
195 3714 0.0126003
195 4090 0.0126004
195 5248 0.0126282
195 5359 0.0253465
195 5360 0.0125999
195 5361 0.0126002
195 5362 0.189104
195 5364 0.0682218
195 5365 0.0488591
195 5368 0.0126144
195 5369 0.0126099
195 5370 0.0266021
195 5925 0.000480485
195 9851 0.00208631
195 9852 0.0257875
195 9856 4.14952e-06
195 9859 0.0125368
195 9864 0.000935442
195 9874 0.000310849
195 9875 0.0126003
195 9876 0.0126003
195 21105 0.0126004
195 21106 0.0126004
196 2 0.00818508
196 40 1.6102e-06
196 57 1.57637e-07
196 86 0.0265246
196 100 0.000853284
196 110 0.00070013
196 154 0.812228
196 155 2.88336e-06
196 163 0.0063983
196 169 0.0267127
196 190 0.0133384
196 191 0.000120331
196 200 0.00398264
196 314 0.00603861
196 367 0.0212698
196 400 0.00357483
196 470 0.00639832
196 553 5.63612e-07
196 630 0.00246285
196 1068 0.00322777
196 1070 0.00607203
196 1150 0.00655248
196 1265 0.0127965
196 1266 0.00641758
196 1505 0.00589368
196 4820 1.1622e-07
196 4997 0.000562457
196 10080 0.0063694
196 12140 0.0133143
197 6 4.26944e-07
197 9 0.0234555
197 13 6.26763e-06
197 45 7.67983e-07
197 66 0.0556102
197 154 0.014384
197 155 0.402882
197 168 0.00968469
197 185 0.001455
197 191 1.58915e-05
197 254 0.18349
197 257 0.279278
197 657 0.00899998
197 1908 0.00715349
197 1909 0.00451122
197 19318 4.90422e-05
197 19844 0.0045113
197 22122 0.00451131
198 4 3.88846e-06
198 6 5.59968e-07
198 7 1.10534e-06
198 13 7.81264e-06
198 22 0.0164775
198 23 0.0123327
198 24 0.00583314
198 28 4.36987e-06
198 56 1.59581e-06
198 57 0.000105628
198 58 0.00686069
198 64 9.23094e-05
198 87 4.61869e-06
198 89 1.35559e-06
198 92 8.78149e-05
198 117 0.00645885
198 141 7.66031e-05
198 146 0.296379
198 147 0.205996
198 157 0.0227264
198 180 0.0336789
198 187 2.39744e-05
198 195 1.04623e-06
198 203 3.17986e-06
198 234 8.19321e-06
198 250 1.11919e-06
198 254 1.28411e-06
198 345 0.062885
198 390 1.93536e-06
198 540 1.78933e-05
198 935 1.44556e-06
198 959 6.40036e-07
198 1025 0.0309118
198 1150 0.00616681
198 1199 1.29653e-07
198 1267 0.00525175
198 1563 0.00617775
198 1653 0.00649005
198 1681 0.00614244
198 1692 0.00611792
198 1950 0.00630628
198 2399 0.00447443
198 2763 7.74571e-07
198 2768 1.07204e-07
198 2870 0.00667636
198 3069 0.0126558
198 3331 0.00613684
198 3876 0.0726413
198 3883 0.0324645
198 3888 0.0122695
198 4000 0.0500705
198 5330 0.00613507
198 5853 1.17282e-07
198 6460 1.73982e-05
198 7626 0.00613507
198 9702 2.46381e-06
198 11948 3.32196e-06
198 13264 0.0061681
198 14114 3.01132e-05
198 14744 0.0122225
198 15180 0.00612457
198 15728 0.0098595
198 21871 0.00613507
198 21872 0.00613507
199 13 0.158172
199 19 0.0338212
199 24 0.000836621
199 94 0.293307
199 97 0.193448
199 100 0.0504071
199 114 0.00151718
199 141 9.392e-06
199 158 0.0417008
199 190 2.62132e-06
199 487 1.00406e-06
199 595 0.0109959
199 1095 0.158944
199 1130 0.00137139
199 2181 9.82002e-05
199 2765 0.0109961
199 5873 0.0109962
199 6411 0.0109952
199 8034 0.0106551
199 15852 0.0117245
199 22830 6.76507e-07
200 100 0.0561038
200 159 0.327011
200 869 0.104572
200 1567 0.0112551
200 1620 0.0665786
200 2419 0.0495709
200 2821 0.0540429
200 3714 0.0544905
200 11964 0.0544233
200 11965 0.0545948
200 11966 0.0545948
200 11967 0.0545948
200 12375 0.058168
201 6 8.93525e-07
201 9 0.845747
201 19 5.4984e-05
201 21 0.0311397
201 22 0.000536031
201 45 0.058634
201 57 2.57045e-06
201 58 0.00312505
201 89 0.00290793
201 110 2.21577e-07
201 144 0.012701
201 157 0.000480101
201 160 0.00247562
201 240 0.00236698
201 498 3.25569e-06
201 512 1.64107e-06
201 588 2.35916e-05
201 747 0.0307938
201 942 1.20544e-06
201 1061 5.5362e-07
201 1196 1.02783e-05
201 1207 0.00361678
201 1394 1.49033e-05
201 1505 0.00144232
201 2569 0.00130282
201 5840 9.98601e-06
201 6782 0.00130299
201 18235 0.00130282
202 9 6.00788e-05
202 14 0.00316577
202 19 0.000121173
202 21 0.0021616
202 22 0.957171
202 24 0.0134695
202 40 2.81237e-07
202 58 9.02165e-06
202 100 0.000531929
202 157 0.0012662
202 190 0.0198682
202 191 1.2206e-07
202 497 1.71027e-07
202 745 0.000144794
202 935 2.65245e-07
202 1589 2.07619e-07
202 1680 0.000535644
202 1908 2.31392e-07
202 2271 0.000153915
202 4586 0.00133798
203 6 2.55001e-07
203 9 0.00172778
203 21 0.00294681
203 49 3.01047e-06
203 92 0.000265753
203 101 0.000399156
203 160 0.98459
203 180 9.01188e-06
203 225 2.12158e-06
203 655 0.000293379
203 811 4.43599e-05
203 3006 2.39774e-06
203 6475 3.37723e-06
203 6476 0.000222244
203 9351 0.00948305
203 20991 2.5709e-06
203 21859 4.30527e-06
204 6 0.000761191
204 12 3.64604e-06
204 45 0.0303569
204 101 0.00540372
204 141 0.102742
204 157 5.12068e-07
204 160 1.37138e-06
204 161 0.297496
204 178 0.0799326
204 180 1.06295e-05
204 181 0.4154
204 191 0.00857833
204 623 0.00988295
204 1689 0.0197811
204 11326 0.00988294
204 11327 0.00988291
204 11328 0.00988274
205 20 1.40358e-06
205 89 0.000252494
205 100 0.0373103
205 101 0.0357356
205 114 0.0358354
205 157 0.1057
205 162 0.680186
205 195 5.26267e-07
205 260 0.00152985
205 1667 0.0317755
205 1960 0.0358368
205 6377 0.0358362
206 4 0.000143432
206 28 0.000281596
206 157 0.313423
206 163 0.321507
206 2108 0.043137
206 2109 0.321508
207 13 2.05545e-06
207 164 0.699926
207 178 0.182253
207 225 0.0269934
207 873 0.0808095
207 942 0.0100085
207 1130 7.57046e-06
208 9 5.10044e-07
208 28 1.61573e-05
208 66 1.50487e-07
208 69 0.0386805
208 141 9.86317e-05
208 142 4.02432e-05
208 153 8.11564e-05
208 160 2.86728e-05
208 165 0.649463
208 200 3.4806e-07
208 337 2.35296e-05
208 987 0.014105
208 1128 0.00665838
208 1293 0.0135944
208 1414 6.53496e-07
208 1857 0.00108367
208 1859 3.7247e-05
208 1860 0.15505
208 1986 0.000857999
208 2354 0.0211989
208 4439 3.60931e-07
208 5584 0.00709293
208 8072 1.93276e-06
208 8372 1.69028e-06
208 9777 0.00706591
208 10676 0.0848183
209 14 0.945216
209 21 0.000257116
209 22 0.00043308
209 157 1.78867e-07
209 745 0.016409
209 1176 0.00540559
209 1266 3.04091e-05
209 1494 0.0053852
209 1541 0.0204529
209 5060 0.00117435
209 8141 0.00523664
210 6 3.32672e-06
210 9 1.38288e-06
210 13 0.00809376
210 24 0.00295043
210 57 5.23072e-05
210 66 9.34911e-05
210 92 0.000324302
210 155 0.0176832
210 168 0.937588
210 187 2.94622e-07
210 191 8.27847e-05
210 193 1.20064e-07
210 202 0.00698018
210 203 5.01759e-06
210 237 2.40444e-05
210 254 4.11264e-06
210 257 0.0174617
210 260 8.28491e-05
210 289 0.000133401
210 578 1.91901e-07
210 1093 0.00702587
210 5246 5.91607e-07
210 6595 6.19325e-07
210 16371 1.77585e-05
210 16415 0.00139024
211 2 0.00598139
211 6 9.05613e-05
211 9 9.24136e-07
211 13 0.00292232
211 20 0.00263815
211 31 2.90792e-05
211 40 0.000310195
211 42 0.00198316
211 57 1.4451e-07
211 58 0.00203741
211 66 0.000489536
211 157 0.00842005
211 169 0.0532145
211 172 0.0254756
211 187 0.00418851
211 203 1.54005e-05
211 234 4.41964e-07
211 237 0.000115198
211 247 2.44201e-07
211 250 0.00631377
211 283 5.52297e-07
211 289 0.0030121
211 331 0.00269051
211 446 0.00382573
211 463 1.57019e-07
211 512 3.72e-05
211 649 2.2967e-06
211 863 0.00275594
211 954 0.00269016
211 1178 0.000400352
211 1494 0.00269041
211 1601 0.00269051
211 1620 0.762404
211 1667 0.0203476
211 1681 0.00275291
211 1969 3.1111e-05
211 2072 0.00538101
211 2090 0.00268967
211 2399 0.00278243
211 2498 0.00538102
211 2499 0.00538101
211 2500 0.00538102
211 2869 0.00186065
211 3289 0.0053711
211 3370 2.63173e-07
211 3732 0.00269043
211 4020 0.00269179
211 5530 8.51522e-05
211 5583 0.00269051
211 12552 0.00269004
211 13152 0.00269041
211 14182 4.24069e-07
211 16371 0.00267625
211 16407 0.00814722
211 16408 0.00269052
211 16409 0.00269052
211 16415 0.00157555
211 18208 0.00218239
211 18448 0.000777526
211 18990 0.00269039
211 19003 0.00262088
211 20147 0.000242494
211 21484 0.00269003
211 22083 0.00269021
212 13 0.118338
212 28 0.042613
212 57 2.31224e-05
212 167 0.838715
212 3579 8.40664e-05
212 20199 0.000226579
213 4 8.9173e-06
213 19 5.99784e-06
213 24 1.16948e-06
213 40 3.798e-05
213 89 0.00540648
213 117 0.00500389
213 157 0.00459824
213 190 0.0344801
213 310 3.36746e-06
213 400 0.00504669
213 419 0.22984
213 607 0.015341
213 910 0.00516141
213 1061 0.00482745
213 1180 0.00495649
213 1213 0.499699
213 2403 6.71422e-07
213 2404 0.1661
213 2413 0.00460607
213 4057 0.00495814
213 4058 0.00495814
213 4059 0.00495814
214 6 0.0019957
214 157 0.0176883
214 166 0.0767766
214 169 0.000309902
214 191 0.0046762
214 203 3.13274e-05
214 254 0.0744895
214 309 0.0767684
214 364 0.0767778
214 372 2.01612e-05
214 847 0.0813613
214 3468 0.0767779
214 4358 0.0767782
214 4769 0.0767782
214 5908 0.0767009
214 7461 0.0767782
214 11102 0.0767782
214 11912 0.0517358
214 11913 0.0767775
215 4 0.000178383
215 9 0.000626795
215 30 0.000123062
215 69 0.0228339
215 89 1.60778e-05
215 142 5.52921e-07
215 153 0.0364026
215 157 6.6649e-06
215 170 0.745871
215 240 0.000127337
215 521 0.00637504
215 859 0.0238033
215 1196 0.0319175
215 2413 0.0125317
215 2622 3.46664e-06
215 4342 0.00637295
215 5586 0.00637457
215 6003 0.0227027
215 6457 0.045326
215 6980 1.1895e-07
