2 0.443511 0.554548 0.000913929 0.000498849 0.00020764 0.000113945 8.36877e-05 5.48667e-05 3.59315e-05 3.22596e-05 
3 0.038585 0.633201 0.117355 0.10978 0.0504504 0.0177458 0.0112953 0.0106342 0.00553494 0.0054187 
4 0.292724 0.618152 0.0333528 0.0172923 0.0208477 0.0132217 0.00190434 0.00107415 0.000630351 0.000800533 
5 0.734273 0.250951 0.00305821 0.00273637 0.00840806 0.000277245 0.000119258 8.51574e-05 3.97602e-05 5.20356e-05 
6 0.570258 0.429064 0.000295195 0.000126042 9.95179e-05 5.58115e-05 4.09913e-05 2.68744e-05 1.75997e-05 1.58011e-05 
7 0.300131 0.689983 0.00755804 0.00166814 0.000247332 0.00017466 9.57844e-05 6.83956e-05 3.19341e-05 4.17933e-05 
8 0.387024 0.609226 0.00271845 0.000339989 0.000268436 0.000150544 0.000110568 7.24898e-05 4.74727e-05 4.26213e-05 
9 0.901824 0.0879859 0.00347653 0.00410196 0.0012102 0.000209782 0.000115045 8.21575e-05 0.000903126 9.12156e-05 
10 0.44921 0.511989 0.0320453 0.00440542 0.000411986 0.000290224 0.000159161 0.000121299 0.00121639 0.000151605 
11 0.839093 0.151823 0.0086078 0.000413655 1.93404e-05 2.06118e-05 1.09629e-05 4.73778e-06 1.89498e-06 5.56447e-06 
12 0.925868 0.0732456 0.0005224 0.000137522 8.50519e-05 6.00619e-05 3.29383e-05 2.35198e-05 1.09815e-05 1.43718e-05 
13 0.966484 0.0275532 0.00318027 0.000592758 0.00115498 0.000888002 7.94139e-05 3.01091e-05 1.97181e-05 1.77031e-05 
14 0.863811 0.10448 0.0134724 0.00264334 0.00153663 0.00296018 0.00905202 0.00159145 0.00020199 0.000251476 
15 0.990943 0.00822395 0.000571871 0.000144309 4.37163e-05 3.08716e-05 1.69302e-05 1.20891e-05 5.64443e-06 7.38707e-06 
16 0.0890576 0.682232 0.104178 0.0645417 0.0243615 0.0229053 0.00553185 0.00321426 0.00179397 0.00218464 
17 0.668708 0.320728 0.00890823 0.00083787 0.000336281 0.000171333 0.000125838 8.25006e-05 5.40286e-05 4.85073e-05 
18 0.166826 0.616314 0.0865543 0.0360817 0.0189752 0.0135076 0.00863999 0.0246686 0.0223574 0.00607516 
19 0.0301431 0.396596 0.268205 0.0952722 0.0731493 0.0559819 0.0297232 0.0150475 0.0146497 0.0212327 
20 0.0700537 0.591556 0.129589 0.0915348 0.0431812 0.0329703 0.0153437 0.01235 0.00554745 0.00787365 
21 0.163524 0.694755 0.0900481 0.0162347 0.0101201 0.00720406 0.00482015 0.00990448 0.00152819 0.00186099 
22 0.326868 0.62062 0.0490058 0.00133498 0.000813798 0.000574687 0.000315162 0.000225044 0.000105073 0.000137513 
23 0.336111 0.60685 0.0547459 0.00167743 0.000230636 0.000162869 8.93181e-05 6.37783e-05 2.97782e-05 3.89718e-05 
24 0.0675949 0.399902 0.293206 0.0983617 0.0479622 0.0338151 0.0322741 0.0148999 0.00342826 0.00855583 
25 0.20162 0.643299 0.120935 0.0248434 0.0033299 0.00089435 0.00435126 0.000350169 0.000163493 0.000213969 
26 0.0424682 0.434092 0.269763 0.1042 0.050869 0.0358645 0.0342301 0.015803 0.00363604 0.00907437 
27 0.151276 0.798636 0.0477118 0.000864639 0.000305363 0.00104107 6.68123e-05 4.77079e-05 2.22749e-05 2.9152e-05 
28 0.149268 0.644043 0.10495 0.0419949 0.020228 0.0117392 0.0165992 0.00447103 0.00284161 0.0038655 
29 0.147371 0.838197 0.0129599 0.00102228 0.00018094 0.00011392 6.24742e-05 4.46102e-05 2.08286e-05 2.72591e-05 
30 0.0483898 0.444121 0.261274 0.101135 0.0493728 0.0348096 0.0332233 0.0153382 0.00352909 0.00880747 
31 0.173776 0.583748 0.114754 0.0488159 0.0306989 0.0178154 0.0134289 0.00678407 0.00431256 0.00586646 
32 0.0552284 0.410129 0.286476 0.103086 0.0493728 0.0348096 0.0332233 0.0153382 0.00352909 0.00880747 
33 0.174575 0.529239 0.279774 0.0145469 0.000457671 0.000310604 0.000249006 0.000685684 7.1361e-05 9.06265e-05 
34 0.0707848 0.402432 0.261968 0.102644 0.0501097 0.0353292 0.0337192 0.0155671 0.00358198 0.0238641 
35 0.138676 0.798258 0.0276975 0.00339398 0.00204506 0.027744 0.000866828 0.000565343 0.000331764 0.000421333 
36 0.763779 0.211379 0.023767 0.000166469 0.000777576 5.58318e-05 3.03997e-05 2.17071e-05 1.01351e-05 1.32642e-05 
37 0.286883 0.506 0.0834435 0.034372 0.0205433 0.0209428 0.0146322 0.00544783 0.0116322 0.0161034 
38 0.129951 0.623717 0.134825 0.0590865 0.0176999 0.0235118 0.00570566 0.00220094 0.00139911 0.00190324 
39 0.0722112 0.562158 0.138242 0.0783175 0.0737013 0.0253099 0.0171958 0.0161894 0.00842633 0.00824937 
40 0.63491 0.364681 0.000232726 6.66106e-05 4.11959e-05 2.90917e-05 1.5954e-05 1.13921e-05 5.319e-06 6.96117e-06 
41 0.0886157 0.627299 0.140129 0.0557059 0.0343343 0.0199251 0.0150192 0.00758745 0.00482326 0.00656118 
42 0.0186935 0.911105 0.0354102 0.0169849 0.0037206 0.00833445 0.0016534 0.000964328 0.00245124 0.000682877 
43 0.0793668 0.877177 0.0186313 0.0105124 0.00297099 0.00829209 0.00130431 0.000779831 0.000435245 0.000530029 
44 0.0673067 0.869803 0.0212484 0.0261864 0.00872088 0.00270908 0.00172196 0.00102964 0.000574669 0.000699816 
45 0.1587 0.839446 0.00112565 0.000274903 0.000170016 0.000120062 6.58425e-05 4.70154e-05 2.19516e-05 2.87288e-05 
46 0.111283 0.644929 0.109671 0.0495354 0.0296065 0.0233299 0.0133227 0.00776262 0.005057 0.00550316 
47 0.524694 0.466147 0.00705689 0.00144811 0.000244966 0.000172964 9.48545e-05 6.77316e-05 3.16241e-05 4.13875e-05 
48 0.0361965 0.949828 0.0127974 0.000440723 0.000265871 0.000188208 0.000111588 7.36838e-05 4.32403e-05 5.49144e-05 
49 0.0696617 0.894182 0.0226323 0.00492395 0.00310503 0.00221034 0.00140497 0.000840091 0.000468878 0.000570986 
50 0.629341 0.367375 0.00166984 0.00102116 0.00022234 0.00015691 8.60503e-05 6.14449e-05 2.86888e-05 3.7546e-05 
51 0.145506 0.815973 0.0247255 0.00977048 0.00145171 0.00102673 0.00060875 0.000401969 0.00023589 0.000299576 
52 0.137707 0.681102 0.0868761 0.0431116 0.018529 0.0131425 0.00835385 0.00499513 0.00278792 0.00339505 
53 0.378663 0.533689 0.0218514 0.0196109 0.0254633 0.00234647 0.00240875 0.0151921 0.000336073 0.000439825 
54 0.299812 0.553537 0.0418512 0.0161734 0.0581699 0.0116545 0.0128497 0.00260746 0.00147355 0.00187138 
55 0.272819 0.616757 0.057996 0.0102462 0.00774362 0.015315 0.0151805 0.00174091 0.00096977 0.00123159 
56 0.131067 0.733858 0.0892828 0.0132974 0.00767535 0.00555192 0.0089829 0.00209649 0.00115926 0.00702916 
57 0.115524 0.752851 0.0695622 0.0199241 0.0205502 0.00868351 0.00551951 0.00330036 0.00184202 0.00224316 
58 0.383833 0.569307 0.0264701 0.00916102 0.00256514 0.00677473 0.00076054 0.000543069 0.00025356 0.000331844 
59 0.0658518 0.788485 0.0760449 0.0257131 0.0153683 0.0121102 0.0069156 0.00402945 0.00262501 0.0028566 
60 0.915332 0.0798579 0.00340088 0.000722268 0.000467828 9.26024e-05 5.07837e-05 3.62625e-05 1.6931e-05 2.21583e-05 
61 0.154398 0.657691 0.0825987 0.0346361 0.034041 0.0147356 0.00936644 0.00560061 0.00312585 0.00380657 
62 0.182787 0.68138 0.090072 0.00979041 0.00422822 0.0148177 0.00207114 0.0011718 0.000699143 0.0129823 
63 0.312083 0.674191 0.013293 0.000197054 8.84944e-05 6.2493e-05 3.42715e-05 2.44718e-05 1.1426e-05 1.49536e-05 
64 0.319087 0.534953 0.0579958 0.0185766 0.022467 0.00715739 0.0101142 0.0259171 0.00164439 0.00208835 
65 0.061324 0.597535 0.14061 0.0762493 0.0477768 0.0256864 0.0174563 0.0164347 0.00855401 0.00837436 
66 0.0281319 0.137175 0.499713 0.0669807 0.0841892 0.12746 8.71082e-05 0.000164336 0.0554365 0.000663109 
67 0.987053 0.0122121 0.000317377 6.51169e-05 4.16531e-05 0.000257544 3.02388e-05 1.1121e-05 5.19243e-06 6.79552e-06 
68 0.299322 0.684742 0.00845107 0.00116578 0.000784408 0.00247317 0.00262517 0.000221119 9.3065e-05 0.000121798 
69 0.154127 0.674281 0.0827765 0.0323355 0.0203912 0.0145156 0.00922664 0.00551701 0.0030792 0.00374976 
70 0.226333 0.609585 0.0840708 0.0421692 0.0136622 0.00972548 0.00618185 0.0036964 0.00206306 0.00251234 
71 0.489443 0.485087 0.0178608 0.00174968 0.00102488 0.000723747 0.000714253 0.00309106 0.000132335 0.000173181 
72 0.216822 0.730135 0.0320527 0.00585995 0.00359613 0.00254567 0.00150932 0.00100144 0.00573469 0.000742764 
73 0.760803 0.220576 0.00999967 0.00255107 0.00216607 0.00177766 0.00110142 0.000710963 0.00013837 0.000175727 
74 0.106131 0.837475 0.0382404 0.00661605 0.00416528 0.00296509 0.00188471 0.00112695 0.000628982 0.000765957 
75 0.330255 0.573296 0.0492248 0.0174517 0.0107331 0.00759784 0.00450475 0.00297457 0.00174559 0.00221686 
76 0.538799 0.382652 0.0159546 0.0284481 0.0161142 0.0136332 0.00178053 0.00116734 0.000764474 0.000686351 
77 0.110486 0.603262 0.131161 0.0592764 0.0372772 0.021633 0.0163066 0.00823781 0.00523668 0.00712356 
78 0.9534 0.0267881 0.00713423 0.0094602 0.000117895 0.00189472 0.000906649 0.000275724 5.71734e-06 1.67885e-05 
79 0.618498 0.326357 0.0120698 0.00595392 0.00685684 0.0121412 0.0142353 0.0023098 0.000831365 0.000746406 
80 0.336748 0.566803 0.0492247 0.0174517 0.0107331 0.00759784 0.00450475 0.00297457 0.00174559 0.00221686 
81 0.106932 0.588321 0.137726 0.0638361 0.0401447 0.023297 0.0175609 0.00887148 0.0056395 0.00767153 
82 0.215863 0.775402 0.0065566 0.00113994 0.000374638 0.000265088 0.00015717 0.000103782 6.09033e-05 7.73461e-05 
83 0.939882 0.0573421 0.0018749 0.000330774 0.000145583 0.000314374 4.53396e-05 2.89669e-05 1.89701e-05 1.70315e-05 
84 0.110829 0.769903 0.112304 0.00223572 0.00271895 0.000802193 0.000475339 0.000313875 0.000184193 0.000233922 
85 0.372488 0.625412 0.00129447 0.000297343 0.00018287 0.000129452 7.67521e-05 5.06808e-05 2.97413e-05 3.77709e-05 
86 0.118263 0.853746 0.0244421 0.00226966 0.000481006 0.000338101 0.000185416 0.000132398 6.18169e-05 8.0902e-05 
87 0.875262 0.0856078 0.0228094 0.00266235 0.00563991 0.00595223 0.00176122 0.000146733 6.8408e-05 8.95281e-05 
88 0.624632 0.363358 0.0106081 0.000316737 0.000190541 0.000712505 7.35439e-05 5.25145e-05 2.45192e-05 3.20891e-05 
89 0.489853 0.4307 0.0393316 0.032943 0.00268832 0.00189835 0.00104107 0.000743382 0.000347087 0.000454245 
90 0.188247 0.794749 0.0115708 0.00231706 0.000707217 0.00104932 0.000138354 0.00112022 4.35652e-05 5.70143e-05 
91 0.103601 0.583705 0.145616 0.0638933 0.0401447 0.023297 0.0175609 0.00887148 0.0056395 0.00767153 
92 0.755505 0.205175 0.0175706 0.0112376 0.00238147 0.00107608 0.00220381 0.0036378 0.000908251 0.000304656 
93 0.662613 0.336803 0.000357815 0.000133462 2.67796e-05 3.10938e-05 1.6538e-05 7.14716e-06 2.85867e-06 8.39427e-06 
94 0.630261 0.307573 0.0410942 0.00783717 0.000445585 0.0115155 0.000981989 0.000113178 4.52679e-05 0.000132926 
95 0.605603 0.161523 0.0319609 0.195958 0.00403502 0.000433703 0.000230675 9.96901e-05 3.98733e-05 0.000117085 
96 0.326702 0.576476 0.0495973 0.0174517 0.0107331 0.00759784 0.00450475 0.00297457 0.00174559 0.00221686 
97 0.452567 0.457953 0.0170732 0.00474423 0.0193448 0.0444788 0.00162745 0.000986002 0.000645721 0.000579733 
98 0.0547077 0.935208 0.0080912 0.000736678 0.000453018 0.000320687 0.000190135 0.00012555 7.36772e-05 9.35686e-05 
99 0.227585 0.529953 0.0992784 0.0510512 0.036387 0.0197267 0.018636 0.00893413 0.0040456 0.00440253 
100 0.581937 0.344826 0.0139576 0.00885725 0.0424778 0.00284229 0.00206541 0.00135411 0.00088679 0.000796167 
101 0.0641404 0.567242 0.12576 0.123268 0.0517654 0.0301841 0.014047 0.0113063 0.00507865 0.00720827 
102 0.845858 0.0357029 0.0124686 0.046 0.0134216 0.0461202 0.000250397 8.56398e-05 3.99854e-05 5.23304e-05 
103 0.0964958 0.878463 0.018594 0.00188254 0.00186741 0.00155682 0.000487924 0.000291744 0.00016283 0.00019829 
104 0.655309 0.337595 0.00422749 0.00205568 0.000315259 0.000176791 0.000129846 8.51284e-05 5.57496e-05 5.00524e-05 
105 0.0837384 0.783637 0.130537 0.00160942 0.00017946 0.000126488 6.93666e-05 4.95318e-05 2.31265e-05 3.02665e-05 
106 0.09732 0.874733 0.0243045 0.00273322 0.000353943 0.000235126 0.000128944 9.20737e-05 4.29894e-05 5.62618e-05 
107 0.122262 0.519523 0.107827 0.152664 0.0359865 0.0274753 0.0127864 0.0102917 0.00462288 0.00656137 
108 0.145237 0.802227 0.0267303 0.0129193 0.00307302 0.00436554 0.00137873 0.000823251 0.000462124 0.00278407 
109 0.37576 0.489285 0.0618202 0.0136748 0.00840541 0.00624472 0.0353285 0.0063788 0.00136703 0.0017361 
110 0.0596356 0.620366 0.159628 0.0656278 0.0418243 0.0235502 0.0109598 0.00882143 0.00396247 0.00562403 
111 0.275244 0.69901 0.0167189 0.00679466 0.00139862 0.000332816 0.000197311 0.000130288 7.64576e-05 9.70997e-05 
112 0.119618 0.639652 0.115769 0.0461729 0.0275787 0.021732 0.0124102 0.00723093 0.00471063 0.00512623 
113 0.597108 0.318592 0.024036 0.0293929 0.016921 0.00209865 0.00114485 0.00982542 0.000381503 0.00049926 
114 0.553033 0.385416 0.0251079 0.017817 0.010333 0.0035143 0.0019244 0.00137413 0.000641585 0.000839665 
115 0.690553 0.30637 0.00192081 0.000808167 0.000135091 7.56768e-05 5.55816e-05 3.64399e-05 2.38641e-05 2.14253e-05 
116 0.869786 0.0958517 0.0193387 0.0107093 0.00115064 0.00231983 0.000380084 0.00020684 0.000135457 0.000121614 
117 0.408175 0.546732 0.0425801 0.00220459 0.000117903 8.06966e-05 4.42544e-05 3.16002e-05 1.47542e-05 1.93094e-05 
118 0.789214 0.1711 0.0108568 0.0107514 0.00394659 0.000922846 0.000526519 0.00562432 0.00683044 0.00022774 
119 0.966976 0.0307064 0.000992373 0.000436611 0.000617471 0.000110686 6.31462e-05 4.16966e-05 2.44691e-05 3.10752e-05 
120 0.586366 0.305873 0.0575167 0.0171 0.0103992 0.00207208 0.00134346 0.00952671 0.000387083 0.00941617 
121 0.959123 0.0386563 0.00146113 0.000289237 0.000176418 0.000124583 6.83218e-05 4.87857e-05 2.27781e-05 2.98106e-05 
122 0.105398 0.813342 0.0509806 0.010413 0.00944616 0.00437302 0.00258655 0.00154661 0.000863206 0.00105119 
123 0.87584 0.0876656 0.0180951 0.00377969 0.00829705 0.0053169 0.000410123 0.000255412 0.000149885 0.000190351 
124 0.106119 0.448963 0.429784 0.00953855 0.00285211 0.00109517 0.000649244 0.000428708 0.000251581 0.000319503 
125 0.209248 0.788697 0.00192441 7.66222e-05 1.53745e-05 1.78513e-05 9.49464e-06 4.10326e-06 1.64119e-06 4.81924e-06 
126 0.0840828 0.828446 0.0386162 0.0256623 0.0081183 0.00639691 0.003653 0.00212846 0.0013866 0.00150893 
127 0.108704 0.737677 0.0997605 0.0237792 0.0117049 0.00679061 0.00511866 0.00258586 0.0016438 0.0022361 
128 0.166358 0.806292 0.0121774 0.0104655 0.00116047 0.00236678 0.000464466 0.000306414 0.000179815 0.000228361 
129 0.278069 0.676361 0.0286099 0.0015751 0.0143239 0.00063612 0.000171173 0.000122227 5.70682e-05 7.46872e-05 
130 0.139593 0.683064 0.0938076 0.0316976 0.0187152 0.0133226 0.00846829 0.00506356 0.00282611 0.00344156 
131 0.0747854 0.893469 0.0200281 0.00157272 0.0039691 0.00456669 0.00103234 0.000247247 0.000145093 0.000184266 
132 0.0423247 0.935714 0.0142033 0.00282465 0.00178124 0.00126799 0.000805978 0.000481929 0.000268978 0.000327554 
133 0.129063 0.619705 0.113051 0.0510365 0.0305037 0.0240369 0.0137264 0.00799785 0.00521024 0.00566992 
134 0.381226 0.58714 0.0308371 0.000415372 0.000143027 0.000101003 5.53904e-05 3.95519e-05 1.84669e-05 2.41683e-05 
135 0.149857 0.653052 0.0806239 0.0608177 0.0200914 0.0143022 0.00909095 0.00543588 0.00303392 0.00369461 
136 0.140931 0.814173 0.0249733 0.00490741 0.0123063 0.00108097 0.00064072 0.000423079 0.000248278 0.000315308 
137 0.185251 0.799246 0.0103508 0.00317488 0.000810991 0.000493814 0.000270811 0.000193374 9.0287e-05 0.000118162 
138 0.275777 0.603495 0.080863 0.0147324 0.00906038 0.00641376 0.00380271 0.002511 0.00147355 0.00187138 
139 0.901789 0.0888002 0.00592326 0.00148646 0.00117359 0.000148359 7.61208e-05 4.99057e-05 3.30131e-05 0.00052041 
140 0.821286 0.149273 0.0141514 0.00572111 0.00275722 0.00318505 0.00173425 0.000253115 0.000148204 0.00149138 
141 0.120466 0.569981 0.181637 0.0833456 0.0161245 0.0114417 0.00727276 0.00434871 0.00242713 0.00295569 
142 0.380388 0.61654 0.00193211 0.000621957 0.000200796 0.000112606 8.27048e-05 5.42222e-05 3.55095e-05 3.18807e-05 
143 0.0701482 0.71412 0.146226 0.0331041 0.012742 0.0100407 0.00573382 0.00334087 0.00217643 0.00236845 
144 0.119339 0.857836 0.0134706 0.00484273 0.00207174 0.0019446 0.000199388 0.000142375 6.6475e-05 8.69982e-05 
145 0.0945892 0.836762 0.0601113 0.00248037 0.00153697 0.00275434 0.000899205 0.000387058 0.000216028 0.000263072 
146 0.0619381 0.763436 0.155581 0.00681073 0.00414192 0.00255646 0.00309036 0.0010713 0.000581853 0.000791507 
147 0.129716 0.603957 0.113315 0.0658649 0.0305054 0.0240369 0.0137264 0.00799785 0.00521024 0.00566992 
148 0.456207 0.402968 0.112319 0.0192469 0.00523101 0.00315314 0.000344532 0.000227467 0.000133486 0.000169525 
149 0.0800684 0.872955 0.0428931 0.00151489 0.000927503 0.00066025 0.000419678 0.000250944 0.000140059 0.000170559 
150 0.959282 0.0296801 0.00468052 0.00115272 0.00122576 0.00372857 0.000105974 6.94962e-05 3.2448e-05 4.24658e-05 
151 0.0924755 0.739616 0.115043 0.0218001 0.0088715 0.00631525 0.00404015 0.0088584 0.00134905 0.00163139 
152 0.59338 0.395617 0.00356733 0.000797518 0.00414598 0.00205653 0.000175837 0.000124749 5.82457e-05 7.62282e-05 
153 0.757029 0.18982 0.0217341 0.0116419 0.00687651 0.00196767 0.00118639 0.00405297 0.00439758 0.00129419 
154 0.13587 0.598319 0.154837 0.0605184 0.0182162 0.0129673 0.00824247 0.00492853 0.00275075 0.00334978 
155 0.144979 0.740977 0.0364571 0.0138832 0.0528035 0.00266014 0.00173174 0.00564719 0.000427732 0.000432721 
156 0.151665 0.809565 0.0299895 0.00456394 0.00152023 0.00107595 0.000637928 0.000421235 0.000247196 0.000313934 
157 0.822459 0.129439 0.00551675 0.00440475 0.0219882 0.00667163 0.000923422 0.00423795 0.000270532 0.00408861 
158 0.403764 0.522097 0.028248 0.00656795 0.0306256 0.00541179 0.00132302 0.000944715 0.00044109 0.00057727 
159 0.481171 0.488671 0.0100423 0.00222857 0.00581526 0.0108272 0.000493535 0.000322245 0.000189105 0.00024016 
160 0.764584 0.144955 0.048145 0.0338189 0.00220782 0.000941459 0.000516357 0.00443209 0.000173696 0.000225276 
161 0.174126 0.786242 0.0262523 0.00881573 0.00164542 0.00116476 0.000690587 0.000456007 0.000267602 0.000339849 
162 0.808369 0.18225 0.00418389 0.00308435 0.00056813 0.00101793 0.000215071 0.000133435 7.83045e-05 9.94452e-05 
163 0.954615 0.0431211 0.00106341 0.000762158 0.000165103 0.000115568 6.33784e-05 4.52558e-05 2.11301e-05 2.76537e-05 
164 0.448172 0.489245 0.0372147 0.00937491 0.0057657 0.00408148 0.00241991 0.00159791 0.000937712 0.00119088 
165 0.160787 0.678149 0.0837838 0.0281364 0.017743 0.0126305 0.00802837 0.00480052 0.0026793 0.00326278 
166 0.536291 0.418315 0.0247269 0.00779834 0.00482295 0.00340587 0.0018678 0.00133371 0.000622715 0.000814969 
167 0.126471 0.716913 0.0939665 0.0269498 0.0128888 0.00917498 0.00583193 0.00348717 0.00194629 0.00237013 
168 0.552631 0.385864 0.0388806 0.00936646 0.0049691 0.00350908 0.0019244 0.00137413 0.000641585 0.000839665 
169 0.0216357 0.917433 0.030015 0.0135926 0.00637904 0.00487062 0.00226668 0.00182443 0.00081951 0.00116315 
170 0.168855 0.660953 0.0813767 0.0323355 0.0203912 0.0145156 0.00922664 0.00551701 0.0030792 0.00374976 
171 0.925441 0.0711818 0.00172551 0.000460373 0.000283137 0.000200482 0.000521689 8.14059e-05 4.60483e-05 5.84805e-05 
172 0.134555 0.818882 0.0275559 0.00520322 0.00564699 0.00249062 0.00369251 0.000882209 0.000492377 0.000599603 
173 0.105684 0.681737 0.0956562 0.0431847 0.0258108 0.0203389 0.0116147 0.00676741 0.00440867 0.00479762 
174 0.145576 0.691508 0.0779075 0.0309497 0.0195173 0.0138935 0.00883121 0.00528057 0.00294723 0.00358905 
175 0.181273 0.653381 0.0791051 0.0313982 0.0198002 0.0140949 0.0089592 0.0053571 0.00298995 0.00364107 
176 0.159857 0.780821 0.0347432 0.0144735 0.00369284 0.00255886 0.00151715 0.0010018 0.000587892 0.000746611 
177 0.237114 0.756743 0.00301854 0.000691335 0.00172197 0.000300778 0.000164948 0.000117783 5.4993e-05 7.19713e-05 
178 0.0289199 0.300141 0.234097 0.236267 0.043146 0.0534271 0.0213668 0.0309566 0.0211056 0.0305733 
179 0.118641 0.771415 0.0620741 0.0118391 0.0231008 0.00520082 0.0033058 0.00197668 0.00110324 0.0013435 
180 0.103601 0.591672 0.137706 0.0638361 0.0401447 0.023297 0.0175609 0.00887148 0.0056395 0.00767153 
181 0.754233 0.219744 0.023657 0.000523921 0.000754589 0.000171592 0.000762277 6.82285e-05 4.46671e-05 4.01024e-05 
182 0.1906 0.805948 0.00294226 0.000169329 0.000131865 7.39522e-05 5.43149e-05 3.56095e-05 2.33202e-05 2.09371e-05 
183 0.664129 0.25527 0.057983 0.00288843 0.00895344 0.00887675 0.000932495 0.00046509 0.000217152 0.000284194 
184 0.0781627 0.610819 0.138926 0.0740691 0.0334056 0.0240011 0.0215891 0.00933381 0.00400649 0.00568652 
185 0.491918 0.4741 0.0201646 0.00534827 0.0029134 0.00247434 0.000783917 0.000477628 0.00117846 0.00064225 
186 0.152103 0.677716 0.081366 0.0323355 0.0203912 0.0145156 0.00922664 0.00551701 0.0030792 0.00374976 
187 0.170642 0.656565 0.0826318 0.0328254 0.0207002 0.0147356 0.00936644 0.00560061 0.00312585 0.00380657 
188 0.169547 0.656082 0.0842103 0.0328254 0.0207002 0.0147356 0.00936644 0.00560061 0.00312585 0.00380657 
189 0.47756 0.368062 0.132312 0.0134849 0.00360827 0.00210545 0.00115464 0.000824478 0.000384951 0.000503799 
190 0.11642 0.627214 0.116059 0.0518217 0.030973 0.0244067 0.0139376 0.00812089 0.0052904 0.00575715 
191 0.103601 0.591647 0.137731 0.0638361 0.0401447 0.023297 0.0175609 0.00887148 0.0056395 0.00767153 
192 0.160723 0.603162 0.106111 0.0627986 0.0260481 0.0183169 0.00852427 0.00686111 0.00308192 0.00437425 
193 0.25288 0.721012 0.021052 0.00373659 0.000494672 0.00034932 0.000191569 0.000136791 6.38682e-05 8.35865e-05 
194 0.192924 0.72071 0.0664769 0.00830959 0.00654914 0.00200756 0.00119028 0.000785964 0.000461232 0.000585756 
195 0.654919 0.236564 0.0429368 0.0167197 0.0270594 0.00507384 0.00489045 0.00609851 0.00110771 0.00463066 
196 0.321816 0.630811 0.0224212 0.00938199 0.00497757 0.00511531 0.000529212 0.000377887 0.000202937 0.00436659 
197 0.309968 0.542517 0.0774838 0.0599179 0.00260423 0.00170067 0.00347464 0.00146904 0.000380749 0.000483544 
198 0.856703 0.0866555 0.0438338 0.0113417 8.56038e-05 9.81296e-05 5.21926e-05 2.25559e-05 1.4796e-05 0.00119305 
199 0.164775 0.610288 0.164809 0.0264371 0.00962121 0.00764016 0.0096649 0.00354263 0.00145286 0.00176925 
200 0.295263 0.582357 0.054785 0.0165824 0.0156442 0.025295 0.00406077 0.00257796 0.00151284 0.00192128 
201 0.465659 0.523701 0.00741411 0.00192532 0.000472621 0.000330341 0.000195859 0.000129329 7.58951e-05 9.63853e-05 
202 0.149814 0.813986 0.0339268 0.00185747 0.000161339 0.000108072 5.92675e-05 4.23204e-05 1.97595e-05 2.586e-05 
203 0.311249 0.674744 0.0101572 0.00145286 0.000898522 0.000634518 0.000347973 0.000248473 0.000116013 0.00015183 
204 0.092749 0.781869 0.0596126 0.0325497 0.0110255 0.00722329 0.00959965 0.00240026 0.00133965 0.00163139 
205 0.0333755 0.509247 0.251319 0.0913436 0.039039 0.0275239 0.0262696 0.0121279 0.00279045 0.00696405 
206 0.154398 0.656032 0.0993955 0.0328387 0.0207002 0.0147356 0.00936644 0.00560061 0.00312585 0.00380657 
207 0.214902 0.70861 0.0457928 0.0113436 0.00697649 0.00493859 0.00292809 0.00193347 0.00113463 0.00144096 
208 0.0346917 0.778459 0.100916 0.0460129 0.0147083 0.0112203 0.00522167 0.00420288 0.00188788 0.00267951 
209 0.162969 0.805762 0.0124067 0.0108454 0.00338123 0.00184966 0.00109666 0.000724146 0.000424955 0.000539685 
210 0.340521 0.626501 0.0267809 0.00233379 0.00139251 0.000985747 0.000584449 0.000385922 0.000226473 0.000287617 
211 0.305256 0.646918 0.0211135 0.00720953 0.00886292 0.00672245 0.00119281 0.002001 0.000451879 0.000271367 
212 0.0821798 0.739624 0.105149 0.0415526 0.0119953 0.00784313 0.00498536 0.00298097 0.00166376 0.00202608 
213 0.173135 0.75028 0.0545163 0.0110927 0.00275018 0.00549148 0.0010771 0.000710835 0.000417144 0.000529765 
214 0.54562 0.365692 0.0312512 0.0299142 0.00573291 0.00344211 0.0155635 0.00140708 0.000596403 0.000780534 
215 0.0793423 0.781535 0.0516571 0.0341057 0.0299532 0.0127755 0.00449376 0.00260028 0.00169397 0.00184342 
216 0.0384811 0.598314 0.190536 0.0861153 0.0299622 0.0205831 0.0196451 0.00906952 0.00208677 0.0052079 
217 0.20557 0.696627 0.0514082 0.0226883 0.0050387 0.0122586 0.00369259 0.00116474 0.000683513 0.000868048 
218 0.0794803 0.849918 0.02882 0.0104295 0.0229536 0.00373571 0.00199414 0.00119239 0.000665504 0.000810432 
219 0.383365 0.49923 0.0691845 0.0106685 0.0117375 0.0184053 0.00341326 0.0017857 0.000996649 0.00121369 
220 0.148668 0.742652 0.0425627 0.0352859 0.0104699 0.00310833 0.0144017 0.00123222 0.000713605 0.000906264 
221 0.180089 0.782045 0.0156139 0.00686077 0.0131126 0.000964996 0.000529209 0.000377886 0.000176436 0.000230908 
222 0.0478732 0.934276 0.0131739 0.00168593 0.00096519 0.000317174 0.00100833 0.000537321 7.30337e-05 9.01727e-05 
223 0.115799 0.731703 0.084877 0.0246199 0.0155251 0.0110517 0.00702483 0.00420045 0.00234439 0.00285493 
224 0.152094 0.659258 0.0998278 0.0323407 0.0203912 0.0145156 0.00922664 0.00551701 0.0030792 0.00374976 
225 0.193878 0.78958 0.0104795 0.00340285 0.00171483 0.000405263 0.000212488 0.00014031 8.2339e-05 0.000104569 
226 0.16145 0.694288 0.122811 0.0105479 0.00408914 0.00359499 0.00137695 0.000823252 0.000459479 0.000559541 
227 0.172924 0.67721 0.0923032 0.0135529 0.0101957 0.0258304 0.00526768 0.00116474 0.000683513 0.000868048 
228 0.164226 0.750732 0.0535225 0.009013 0.00531618 0.0114822 0.00248931 0.00143829 0.000802748 0.000977564 
229 0.065804 0.709333 0.117674 0.0397834 0.0175065 0.0143012 0.0247531 0.00459992 0.00299023 0.00325404 
230 0.380494 0.601573 0.0118524 0.00165266 0.00150235 0.00256465 0.000145391 0.000103767 4.84492e-05 6.34072e-05 
231 0.190086 0.633533 0.149982 0.00913198 0.00410382 0.00290505 0.00172241 0.00113734 0.000758465 0.00663893 
232 0.292967 0.696636 0.00812623 0.0008567 0.000529823 0.00037415 0.000205186 0.000146515 6.84081e-05 8.95281e-05 
233 0.222486 0.629631 0.134815 0.00503008 0.00599222 0.00129108 0.000303852 0.000216968 0.000101303 0.000132579 
234 0.17317 0.60867 0.0983771 0.0556014 0.023101 0.0174333 0.00995542 0.00580064 0.00377886 0.00411225 
235 0.132397 0.68148 0.108273 0.0287046 0.017743 0.0126305 0.00802837 0.00480052 0.0026793 0.00326278 
236 0.294972 0.660193 0.0269203 0.00400931 0.00246541 0.00527841 0.00103503 0.0029974 0.00161996 0.000509173 
237 0.313514 0.649201 0.0191167 0.00506414 0.00311451 0.00220473 0.00130913 0.00525533 0.00057669 0.000643286 
238 0.399876 0.543544 0.0312166 0.00358488 0.0200219 0.000877023 0.000353789 0.000252626 0.000117952 0.000154367 
239 0.676239 0.236041 0.0342107 0.0121464 0.0155768 0.00544551 0.00226644 0.0173012 0.000432696 0.000339987 
240 0.157296 0.828728 0.00917716 0.00205793 0.00190482 0.000297391 0.000218178 0.00014304 9.3675e-05 8.41021e-05 
241 0.49829 0.482183 0.0159036 0.000888234 0.00123287 0.000482379 0.000121744 0.000883499 3.75509e-06 1.1007e-05 
242 0.135435 0.608298 0.131888 0.0402508 0.0281995 0.0101615 0.0191107 0.0176589 0.00639422 0.00260396 
243 0.460807 0.481163 0.054806 0.00050505 6.0363e-05 0.000907076 0.00170867 1.80745e-05 6.43978e-06 1.89099e-05 
244 0.743826 0.189218 0.0358191 0.0235365 0.00141669 0.0049194 0.000510695 0.00036277 0.000169378 0.000221671 
245 0.206234 0.747023 0.0240219 0.00484317 0.00546957 0.00857162 0.00215476 0.000721444 0.00042337 0.000537671 
246 0.643044 0.306002 0.0219735 0.0175715 0.0039323 0.00138314 0.00505382 0.000449936 0.000259641 0.000329739 
247 0.111637 0.864337 0.0223352 0.000652867 0.000389039 0.000274732 0.000150664 0.000107583 5.02308e-05 6.57389e-05 
248 0.135255 0.64969 0.107539 0.0398495 0.0236852 0.0186639 0.0106582 0.00621009 0.0040456 0.00440253 
249 0.0515111 0.847168 0.0763276 0.00815978 0.00842317 0.0034137 0.00220785 0.00111537 0.000709028 0.000964506 
250 0.656008 0.194851 0.108232 0.0154145 0.012311 0.00116163 0.0113191 0.000419833 0.000122738 0.000160632 
251 0.0731854 0.763665 0.106293 0.0210513 0.0163518 0.00958295 0.0041557 0.00242137 0.00157741 0.00171658 
252 0.304166 0.68988 0.00371758 0.000737372 0.000581265 0.000325984 0.000239422 0.000156968 0.000102796 9.22914e-05 
253 0.939224 0.0332867 0.009244 0.0143306 0.00350651 0.000207266 8.08467e-05 5.77292e-05 2.69539e-05 3.52755e-05 
254 0.904132 0.058603 0.00744711 0.0169247 0.00699322 0.00270344 0.000303888 0.00274621 7.00166e-05 7.63332e-05 
255 0.69257 0.28336 0.00963817 0.00277483 0.000373527 0.000646779 0.00504019 0.000258448 4.05304e-05 0.00529753 
256 0.212426 0.601766 0.0723957 0.0249555 0.0213144 0.0506256 0.00711622 0.00420045 0.00234439 0.00285493 
257 0.120519 0.561579 0.136739 0.0908224 0.0357057 0.0201908 0.0152195 0.00768862 0.00488757 0.00664866 
258 0.0791536 0.847935 0.0326493 0.0159604 0.0140064 0.00424762 0.00258655 0.00154661 0.000863206 0.00105119 
259 0.299082 0.557264 0.062807 0.0378411 0.024417 0.00811393 0.00412407 0.0027232 0.00159807 0.00202952 
260 0.433226 0.455097 0.0385495 0.0139341 0.0261854 0.0228688 0.00470665 0.00232948 0.00136703 0.0017361 
261 0.350357 0.54069 0.0561014 0.014732 0.00906038 0.00641376 0.00428864 0.0149747 0.00151088 0.00187138 
262 0.326585 0.556651 0.0453618 0.0159987 0.0352123 0.00971679 0.00412407 0.0027232 0.00159807 0.00202952 
263 0.112499 0.669876 0.110318 0.0396422 0.0236852 0.0186639 0.0106582 0.00621009 0.0040456 0.00440253 
264 0.35417 0.563253 0.0589318 0.00444245 0.00273239 0.00579482 0.00113939 0.000752598 0.0082233 0.000560705 
265 0.135022 0.72914 0.080481 0.0216329 0.00649186 0.0060861 0.00924797 0.000938851 0.00132511 0.00963391 
266 0.321114 0.525744 0.0855473 0.0151249 0.00930199 0.00658479 0.00413809 0.029009 0.00151447 0.00192128 
267 0.891716 0.0848252 0.00812944 0.00750539 0.00561502 0.00043627 7.21562e-05 6.48829e-05 0.00159253 4.36093e-05 
268 0.0975937 0.517534 0.303397 0.0164075 0.0105754 0.043326 0.00503891 0.00273807 0.00152819 0.00186099 
269 0.217268 0.763674 0.0115144 0.00467696 0.00103376 0.000731644 0.000433791 0.00028644 0.000168094 0.000213476 
270 0.174679 0.772681 0.0292469 0.00543308 0.0122567 0.00227585 0.00134935 0.000891001 0.000522872 0.000664037 
271 0.307751 0.586899 0.0608638 0.01644 0.0101109 0.00715738 0.00424361 0.00280213 0.00164439 0.00208835 
272 0.147354 0.846351 0.00286803 0.000480467 0.000374326 0.00120006 0.000153706 0.00109276 6.60118e-05 5.92385e-05 
273 0.318664 0.587754 0.0477671 0.0169308 0.0104127 0.00737104 0.00437028 0.00288578 0.00169348 0.00215069 
274 0.381097 0.51652 0.0450844 0.0300324 0.00983555 0.00695577 0.00412407 0.0027232 0.00159807 0.00202952 
275 0.094624 0.634201 0.120193 0.0664716 0.0264674 0.0311418 0.0113271 0.00659822 0.00429845 0.00467768 
276 0.269923 0.525019 0.142832 0.0249142 0.0202949 0.00760177 0.00370644 0.00244743 0.00143624 0.001824 
277 0.145207 0.654479 0.105877 0.0381155 0.0275372 0.011578 0.00735934 0.00440048 0.00245603 0.00299088 
278 0.0271109 0.379651 0.253165 0.0947069 0.0753008 0.0576285 0.0325679 0.050004 0.0123118 0.0175532 
279 0.116478 0.841267 0.0243951 0.00645355 0.00202228 0.00432992 0.000848723 0.000561026 0.00320303 0.00044147 
280 0.391877 0.598978 0.00486384 0.000958093 0.000686458 0.00117067 0.00108568 0.000163331 9.58303e-05 0.000121703 
281 0.512407 0.476371 0.00673147 0.00253165 0.000800345 0.000462415 0.000274166 0.000181037 0.000106239 0.000134921 
282 0.50348 0.384908 0.0822975 0.00169179 0.011813 0.000935847 0.0114963 0.000305075 0.00291094 0.000161902 
283 0.911929 0.085141 0.00074825 0.000626173 0.0012705 0.000228414 2.69167e-05 1.16325e-05 4.65268e-06 1.36623e-05 
284 0.963679 0.0312485 0.000687671 0.00155469 8.54668e-05 0.00167476 0.00103657 1.28582e-05 5.12353e-06 1.50449e-05 
285 0.279383 0.666675 0.0164173 0.0252693 0.00971901 0.000901365 0.000661991 0.000434009 0.000284227 0.000255182 
286 0.098335 0.609673 0.122725 0.0771551 0.0247292 0.026623 0.0263725 0.00720684 0.00343876 0.00374215 
287 0.15382 0.795205 0.0154266 0.005159 0.0161178 0.0109493 0.00133637 0.00085175 0.000499838 0.000634784 
288 0.0242393 0.640631 0.168439 0.0517766 0.0460351 0.0328652 0.0161289 0.00738938 0.00324217 0.00925284 
289 0.134607 0.707257 0.0993669 0.0225145 0.0141049 0.00818544 0.00617006 0.00311701 0.00198145 0.0026954 
290 0.318544 0.58784 0.0478012 0.0169308 0.0104127 0.00737104 0.00437028 0.00288578 0.00169348 0.00215069 
291 0.0271109 0.391424 0.26456 0.0862449 0.0753008 0.0585429 0.0518508 0.0212621 0.0061506 0.0175532 
292 0.394866 0.600636 0.00294019 0.000514127 0.000404821 0.000227031 0.000166745 0.00010932 7.15923e-05 6.42761e-05 
293 0.496317 0.386986 0.055396 0.032466 0.00379345 0.0171302 0.00569982 0.000986002 0.000645721 0.000579733 
294 0.534044 0.375472 0.0247332 0.00999187 0.0475939 0.00345674 0.00189567 0.00135362 0.000632009 0.000827133 
295 0.32042 0.585857 0.0479083 0.0169308 0.0104127 0.00737104 0.00437028 0.00288578 0.00169348 0.00215069 
296 0.702305 0.288207 0.00384016 0.0018606 0.00146906 0.000823873 0.000605102 0.000396712 0.000259802 0.000233252 
297 0.225065 0.649645 0.0677621 0.0119638 0.0206155 0.0114305 0.00235639 0.00148729 0.000916579 0.00875695 
298 0.135138 0.695035 0.05837 0.0531227 0.0151889 0.0119281 0.0068116 0.00424191 0.0123834 0.00778034 
299 0.0898352 0.656787 0.106988 0.0443267 0.0683407 0.0125475 0.00935623 0.00472661 0.00300465 0.00408729 
300 0.106581 0.659917 0.105051 0.0474424 0.0283555 0.0223441 0.0127598 0.00743462 0.00484332 0.00527063 
301 0.14207 0.806322 0.0297749 0.00408447 0.00548549 0.00950929 0.00113225 0.000695493 0.000408141 0.000518331 
302 0.0630202 0.696294 0.0927203 0.053152 0.0518068 0.0191453 0.00890482 0.00716741 0.0032195 0.00456953 
303 0.103186 0.592506 0.141891 0.0568404 0.0365275 0.033658 0.0156388 0.00789927 0.00502147 0.00683081 
304 0.343456 0.461056 0.0433915 0.132426 0.00853984 0.00166648 0.000913742 0.000695264 0.00745599 0.000398782 
305 0.634758 0.363562 0.000732789 0.000312132 0.000246447 0.000138212 0.000101511 6.65519e-05 4.3584e-05 3.91301e-05 
306 0.0689667 0.598574 0.126822 0.0901479 0.0425269 0.0324708 0.0151112 0.0121629 0.0054634 0.00775435 
307 0.0809057 0.825128 0.0378386 0.0272811 0.0088777 0.0115166 0.00361515 0.00216164 0.00120647 0.0014692 
308 0.871985 0.102891 0.0127305 0.00347318 0.00541938 0.000524859 0.000287353 0.000205187 0.000463669 0.00201987 
309 0.268715 0.709799 0.0114277 0.00510698 0.00179421 0.00125984 0.000746962 0.000493232 0.000289447 0.000367592 
310 0.373069 0.617045 0.00520371 0.00224116 0.000320683 0.000193159 0.00176906 7.71629e-05 3.52578e-05 4.61431e-05 
311 0.0423992 0.428574 0.271448 0.105803 0.0516516 0.0364163 0.0347567 0.0160461 0.00369197 0.00921397 
312 0.584001 0.379175 0.015242 0.00710916 0.00561311 0.00314793 0.00231203 0.00151579 0.000992675 0.000891231 
313 0.111284 0.644925 0.109673 0.0495354 0.0296065 0.0233299 0.0133227 0.00776262 0.005057 0.00550316 
314 0.090253 0.860259 0.038889 0.00295496 0.00181679 0.00130704 0.00334568 0.000503563 0.000295477 0.00037525 
315 0.152094 0.6628 0.0813662 0.0323355 0.0203912 0.0150921 0.0235279 0.00556467 0.0030792 0.00374976 
316 0.0279324 0.401995 0.273867 0.0888583 0.0775826 0.0593748 0.0315246 0.0144429 0.00633698 0.0180851 
317 0.0971858 0.626716 0.122114 0.0466176 0.0396146 0.0186025 0.0219393 0.00648629 0.0151188 0.00560499 
318 0.0689667 0.598598 0.126798 0.0901479 0.0425269 0.0324708 0.0151112 0.0121629 0.0054634 0.00775435 
319 0.833826 0.126138 0.0234898 0.00530357 0.00694868 0.00331399 0.00045782 0.000232932 0.000152544 0.000136955 
320 0.103601 0.591396 0.137982 0.0638361 0.0401447 0.023297 0.0175609 0.00887148 0.0056395 0.00767153 
321 0.557586 0.396013 0.025108 0.00803466 0.0049691 0.00350908 0.0019244 0.00137413 0.000641585 0.000839665 
322 0.103601 0.591311 0.138067 0.0638361 0.0401447 0.023297 0.0175609 0.00887148 0.0056395 0.00767153 
323 0.557391 0.396205 0.0251112 0.00803466 0.0049691 0.00350908 0.0019244 0.00137413 0.000641585 0.000839665 
324 0.116421 0.627744 0.115528 0.0518217 0.030973 0.0244067 0.0139376 0.00812089 0.0052904 0.00575715 
325 0.11642 0.62854 0.114733 0.0518217 0.030973 0.0244067 0.0139376 0.00812089 0.0052904 0.00575715 
326 0.116421 0.628427 0.114844 0.0518217 0.030973 0.0244067 0.0139376 0.00812089 0.0052904 0.00575715 
327 0.11692 0.622405 0.120367 0.0518217 0.030973 0.0244067 0.0139376 0.00812089 0.0052904 0.00575715 
328 0.11642 0.619922 0.123349 0.0518239 0.030973 0.0244067 0.0139376 0.00812089 0.0052904 0.00575715 
329 0.303354 0.541448 0.0664177 0.0531663 0.0179336 0.00705513 0.00418299 0.0027621 0.0016209 0.00205851 
330 0.156774 0.654354 0.0973246 0.0333306 0.0210186 0.0149623 0.00951054 0.00568677 0.00317394 0.00386514 
331 0.213247 0.714921 0.0395884 0.0238357 0.00577415 0.00125031 0.000557062 0.000397775 0.000185722 0.000243061 
332 0.29111 0.61039 0.0564516 0.0155392 0.00955684 0.0067652 0.00401108 0.00264859 0.00155429 0.00197392 
333 0.105103 0.62549 0.128852 0.0467835 0.0279617 0.0220338 0.0144022 0.0193595 0.00481713 0.00519743 
334 0.0377368 0.674196 0.243324 0.0217474 0.00800085 0.00331547 0.00209554 0.00163946 0.00708737 0.000856829 
335 0.0791126 0.603166 0.15817 0.0786069 0.0211706 0.0170197 0.0297741 0.00550035 0.00358204 0.00389807 
336 0.103601 0.576287 0.137706 0.0640995 0.0548016 0.0237614 0.0175609 0.00887148 0.0056395 0.00767153 
337 0.208598 0.764148 0.0230624 0.00204644 0.000803824 0.000567644 0.000311299 0.000222286 0.000103786 0.000135828 
338 0.0771409 0.764451 0.0640811 0.0338516 0.0308057 0.0128579 0.00707768 0.00412389 0.00268653 0.00292355 
339 0.0557379 0.618214 0.134235 0.0729341 0.0456995 0.0245696 0.0166973 0.0157201 0.00818209 0.00801025 
340 0.112944 0.639629 0.111308 0.0502747 0.0300484 0.0236781 0.0135215 0.00787848 0.00513248 0.00558529 
341 0.812641 0.172302 0.0137475 0.00077356 0.000154701 0.000179624 9.55372e-05 4.12879e-05 1.6514e-05 4.84923e-05 
342 0.117146 0.567592 0.137745 0.0758821 0.0395492 0.022944 0.0172949 0.00873707 0.00555405 0.00755529 
343 0.153413 0.566013 0.132295 0.0582575 0.0286386 0.0326852 0.0120851 0.00703811 0.00458501 0.00498953 
344 0.102561 0.804387 0.046923 0.0167944 0.0105908 0.00753913 0.00479213 0.00286543 0.00159927 0.00194755 
345 0.0646026 0.772553 0.140581 0.00974763 0.00491167 0.00305833 0.00194398 0.00116239 0.000648762 0.000790044 
346 0.110404 0.735754 0.0799476 0.0269918 0.0133942 0.0103076 0.0150918 0.00362392 0.00202261 0.00246308 
347 0.270428 0.683352 0.0339424 0.00197265 0.00350773 0.00208206 0.000465456 0.00389891 0.000151931 0.00019863 
348 0.047718 0.772931 0.114852 0.0293466 0.0127773 0.0102141 0.00330303 0.00265827 0.00308551 0.00311424 
349 0.316273 0.511687 0.0643631 0.0422734 0.0411742 0.0154778 0.00344622 0.00227467 0.00133486 0.00169525 
350 0.22993 0.670256 0.0316801 0.0396353 0.00677456 0.00559395 0.0117523 0.00187718 0.00110158 0.00139899 
351 0.557277 0.381171 0.0251079 0.00803465 0.0049691 0.00350908 0.0029838 0.0154662 0.000641585 0.000839665 
352 0.164547 0.806253 0.0149324 0.00181539 0.00671682 0.00316852 0.00101555 0.00118613 0.000160885 0.000204102 
353 0.13587 0.672963 0.0984916 0.0288872 0.0315486 0.0129673 0.00824246 0.00492853 0.00275075 0.00334978 
354 0.134183 0.611711 0.114371 0.0544676 0.0318642 0.0371774 0.00706412 0.00388131 0.0025285 0.00275158 
355 0.102364 0.587857 0.160655 0.0595476 0.0388383 0.0216593 0.0122425 0.00713321 0.00464697 0.00505695 
356 0.106844 0.825837 0.0279949 0.0126873 0.00691878 0.00871657 0.00672072 0.00181396 0.0011817 0.00128596 
357 0.0836453 0.690063 0.114615 0.0374882 0.033108 0.0174334 0.00995542 0.00580064 0.00377886 0.00411225 
358 0.843382 0.134123 0.0111523 0.00414854 0.00127644 0.00116723 0.00160711 0.000845428 0.000207719 0.00209102 
359 0.0626224 0.758966 0.0914203 0.0229041 0.0261313 0.0170613 0.00602094 0.0101128 0.00228266 0.00247824 
360 0.627674 0.303457 0.0325596 0.00480531 0.0100993 0.0186604 0.0012124 0.000737338 0.000344265 0.000450552 
361 0.073373 0.570607 0.140336 0.0762494 0.0607071 0.0279075 0.0174563 0.0164347 0.00855401 0.00837436 
362 0.394923 0.449854 0.113658 0.012857 0.0139167 0.0104671 0.00170238 0.00112411 0.00065967 0.000837767 
363 0.212919 0.630796 0.0877349 0.0243931 0.0104321 0.00742423 0.0123197 0.00325118 0.00879755 0.00193183 
364 0.20351 0.703025 0.0482425 0.0104207 0.0105136 0.00868909 0.00280629 0.00167258 0.00103019 0.0100899 
365 0.210823 0.618637 0.10085 0.0601257 0.00481969 0.00191742 0.00111334 0.00073516 0.000431419 0.000547893 
366 0.301037 0.677222 0.0187093 0.00258419 0.000173863 9.71495e-05 7.13524e-05 4.67795e-05 3.06353e-05 2.75046e-05 
367 0.347394 0.602336 0.0315527 0.00691684 0.00425396 0.00301134 0.00178542 0.00117895 0.000691849 0.000878634 
368 0.198842 0.701588 0.0569266 0.0181612 0.00949819 0.0100673 0.00195065 0.00127202 0.000746468 0.000948 
369 0.194235 0.78439 0.011355 0.00206314 0.00450849 0.00302013 0.000173439 0.000122723 5.72998e-05 7.49903e-05 
370 0.372767 0.468126 0.0466873 0.0699063 0.0158747 0.00587928 0.00348582 0.00230175 0.00140949 0.0135614 
371 0.110014 0.724992 0.0544427 0.0344725 0.0455434 0.00912918 0.0141441 0.00324868 0.0018097 0.00220381 
372 0.205893 0.643266 0.0482463 0.0428954 0.0296204 0.00467375 0.00271119 0.00919111 0.0121682 0.00133424 
373 0.165034 0.707389 0.0458036 0.00876254 0.0206926 0.0289239 0.0198577 0.00164192 0.000834288 0.00105953 
374 0.150123 0.790878 0.0303265 0.00647513 0.00950699 0.00284825 0.00728776 0.00109922 0.000641035 0.000814102 
375 0.560794 0.335541 0.0692506 0.0067698 0.00383238 0.0203299 0.00167014 0.000872044 0.00040716 0.000532864 
376 0.0608167 0.698853 0.0965579 0.07319 0.0259945 0.0198433 0.00923463 0.00743287 0.00333874 0.00473877 
377 0.156774 0.652425 0.0853756 0.0466792 0.0215483 0.0149623 0.00951054 0.00568677 0.00317394 0.00386514 
378 0.156774 0.652425 0.084396 0.0462695 0.0229376 0.0149623 0.00951054 0.00568677 0.00317394 0.00386514 
379 0.113446 0.591968 0.134933 0.0610198 0.0383736 0.0222692 0.0167862 0.00848009 0.0053907 0.00733308 
380 0.0809185 0.678379 0.187304 0.0167958 0.0135059 0.00573601 0.00432404 0.00719793 0.00395028 0.00188882 
381 0.245444 0.635054 0.0750915 0.0229076 0.00775167 0.00548733 0.00325343 0.0021483 0.0012607 0.00160107 
382 0.181094 0.804049 0.00890448 0.00317284 0.00162833 0.000415655 0.000297896 0.000195304 0.000127902 0.000114832 
383 0.0259848 0.549595 0.228539 0.0545761 0.0461302 0.0369353 0.0349856 0.00873307 0.00376793 0.0107533 
384 0.116798 0.805485 0.0227345 0.0135391 0.02806 0.007298 0.00451689 0.000674255 0.000393969 0.000500333 
385 0.388489 0.492521 0.0497211 0.0386843 0.0147194 0.00633153 0.00375396 0.00247881 0.00145466 0.00184738 
386 0.351261 0.557322 0.0659901 0.0103156 0.00796139 0.00382213 0.00140727 0.00081334 0.000529855 0.000576602 
387 0.256314 0.638963 0.0395532 0.0443875 0.00802365 0.00509133 0.00301865 0.00199327 0.00116972 0.00148553 
388 0.154398 0.642539 0.0825987 0.0464267 0.037402 0.0147356 0.00936644 0.00560061 0.00312585 0.00380657 
389 0.508054 0.416961 0.0293124 0.016018 0.0094935 0.00452049 0.0115177 0.00180186 0.00102219 0.00129816 
390 0.444058 0.441269 0.0668462 0.026909 0.0112397 0.00386752 0.00228757 0.00151052 0.000886431 0.00112575 
391 0.203012 0.717078 0.0295313 0.0339782 0.0059123 0.00418525 0.00248143 0.00163854 0.000961552 0.00122115 
392 0.099033 0.580271 0.131631 0.0642452 0.0498398 0.0222836 0.0167862 0.00848009 0.00649086 0.0209388 
393 0.0603784 0.636859 0.111386 0.0910825 0.0369313 0.0281983 0.0131229 0.0105625 0.00474453 0.00673404 
394 0.121419 0.807499 0.0440646 0.0107068 0.00588884 0.00419202 0.00266459 0.00159328 0.000889251 0.0010829 
395 0.171319 0.750193 0.0469803 0.0114862 0.00722863 0.00514576 0.00327082 0.00195577 0.00109157 0.00132928 
396 0.206902 0.722516 0.0564009 0.00421497 0.00513022 0.00379301 0.000437366 0.000291616 0.000136156 0.000178193 
397 0.11722 0.853879 0.0195943 0.00418292 0.000896454 0.000632784 0.00034875 0.0029783 0.000115697 0.000151415 
398 0.149857 0.669103 0.0935289 0.0318621 0.0200913 0.0143022 0.00909095 0.00543588 0.00303392 0.00369461 
399 0.114462 0.570276 0.137263 0.0691573 0.0467565 0.022944 0.0172949 0.00873707 0.00555405 0.00755529 
400 0.0544942 0.806637 0.0887225 0.0139833 0.00979758 0.00915265 0.00380027 0.00299037 0.00840137 0.00202126 
401 0.0417568 0.408327 0.272732 0.126542 0.0520351 0.0358645 0.0342301 0.015803 0.00363604 0.00907437 
402 0.138329 0.56683 0.122949 0.0588548 0.0572057 0.0252274 0.00831244 0.0149954 0.00303113 0.00426489 
403 0.113259 0.654265 0.0824095 0.0791103 0.0297984 0.0183169 0.00852427 0.00686111 0.00308192 0.00437425 
404 0.0606907 0.534112 0.163933 0.138998 0.0380592 0.0285743 0.0132979 0.0107033 0.00480779 0.00682383 
405 0.137865 0.808998 0.0219544 0.016021 0.00362805 0.00254594 0.00666201 0.00099832 0.000584862 0.000742763 
406 0.11642 0.613156 0.114732 0.0518217 0.030973 0.0244067 0.0139376 0.00812089 0.00529041 0.0211418 
407 0.374434 0.54709 0.0274906 0.0339021 0.00249176 0.00857814 0.00103461 0.00395077 0.000530795 0.000496883 
408 0.131653 0.796646 0.0365149 0.00565855 0.00844519 0.00252963 0.0119563 0.00531563 0.000564516 0.000716896 
409 0.648154 0.317054 0.0131164 0.00496891 0.00426127 0.00299532 0.00916261 0.000154077 5.77689e-05 7.56042e-05 
410 0.151475 0.676904 0.0841122 0.03186 0.0200913 0.0143022 0.00909095 0.00543588 0.00303392 0.00369461 
411 0.143525 0.597291 0.0855115 0.0466251 0.0895704 0.01712 0.00870683 0.0052062 0.00290572 0.0035385 
412 0.215105 0.679083 0.0957743 0.00371292 0.0022799 0.00161392 0.000956892 0.000631853 0.000370794 0.000470902 
413 0.0720693 0.69666 0.125463 0.0510307 0.0191737 0.0151089 0.00862803 0.00502722 0.00327501 0.00356395 
414 0.0666737 0.479571 0.166537 0.186471 0.0601676 0.0150021 0.0113016 0.00570937 0.00362938 0.00493712 
415 0.129001 0.697956 0.0724654 0.0400192 0.0172938 0.0123107 0.00957305 0.0149796 0.0032212 0.00318017 
416 0.128335 0.760234 0.0541383 0.0150924 0.0200618 0.0127415 0.00395614 0.00230506 0.00150164 0.00163412 
417 0.0358422 0.737939 0.109728 0.0485981 0.0221007 0.0244166 0.00818496 0.00632087 0.00283925 0.00402982 
418 0.780162 0.178527 0.0278246 0.00570758 0.00182759 0.000890765 0.000493566 0.00381797 0.000534793 0.000213146 
419 0.0470102 0.616913 0.140938 0.0718387 0.0625112 0.0235218 0.0128013 0.0120521 0.00627294 0.00614119 
420 0.624137 0.341004 0.0179426 0.00530123 0.00573235 0.00236632 0.0015041 0.000899367 0.000501962 0.000611275 
421 0.554309 0.393559 0.0243507 0.016455 0.00431278 0.00296922 0.00162834 0.00116273 0.00054288 0.000710486 
422 0.0508351 0.792185 0.081715 0.0294682 0.026289 0.0093849 0.0037778 0.00304072 0.00136585 0.00193859 
423 0.0565741 0.583159 0.146339 0.093301 0.0463716 0.0249309 0.0169429 0.0159513 0.00830242 0.00812805 
424 0.0417568 0.408327 0.267917 0.132506 0.050886 0.0358645 0.0342301 0.015803 0.00363604 0.00907437 
425 0.10725 0.570908 0.254107 0.0361082 0.0101316 0.00611666 0.00388796 0.00232478 0.00131793 0.00784872 
426 0.127379 0.705068 0.0708574 0.0359814 0.030296 0.0123515 0.00772731 0.0046205 0.00257883 0.00314042 
427 0.574124 0.354575 0.0515078 0.00746948 0.00461916 0.00326196 0.00178888 0.00127736 0.000596403 0.000780534 
428 0.114656 0.628089 0.119074 0.0510365 0.0305037 0.0240369 0.0137264 0.00799785 0.00521024 0.00566992 
429 0.056651 0.579557 0.136564 0.0975787 0.0444468 0.0292597 0.0249223 0.0152843 0.00795161 0.00778461 
430 0.130816 0.853927 0.0124964 0.000332655 0.0014586 0.000771669 7.95956e-05 5.68249e-05 2.65317e-05 3.4723e-05 
431 0.188327 0.607194 0.0962039 0.0289934 0.0317721 0.0187665 0.0116873 0.00399266 0.00982735 0.00323589 
432 0.154398 0.642539 0.0938421 0.0517996 0.0207857 0.0147356 0.00936644 0.00560061 0.00312585 0.00380657 
433 0.260462 0.65303 0.0382717 0.0229877 0.00337374 0.00607852 0.00132297 0.00498819 0.000521508 0.00896404 
434 0.102031 0.567555 0.13562 0.062871 0.0695593 0.0232222 0.0172949 0.00873707 0.00555405 0.00755529 
435 0.104864 0.549481 0.128159 0.0859082 0.0381182 0.0317541 0.0243161 0.0131968 0.0176043 0.00659844 
436 0.12827 0.824898 0.0209083 0.00828234 0.0130712 0.00183585 0.0010765 0.000710835 0.000417144 0.000529765 
437 0.363896 0.591614 0.0176604 0.0132434 0.00801706 0.000767643 0.0018591 0.00250322 0.000231336 0.000207335 
438 0.18222 0.629258 0.1359 0.0264008 0.00761452 0.00299053 0.0115584 0.00257763 0.000652087 0.000828138 
439 0.319174 0.498773 0.143303 0.0186886 0.00782923 0.00452032 0.00340734 0.00172133 0.00109423 0.00148851 
440 0.163738 0.590206 0.0856019 0.0607333 0.036332 0.0268006 0.0110661 0.00599992 0.0152654 0.00425687 
441 0.632064 0.290232 0.0250482 0.0359027 0.0080753 0.00565265 0.00127761 0.000749408 0.00043978 0.000558511 
442 0.154398 0.642539 0.0826066 0.0612147 0.022606 0.0147356 0.00936644 0.00560061 0.00312585 0.00380657 
443 0.472181 0.43441 0.0247825 0.0218311 0.0251776 0.00294513 0.00910438 0.00877952 0.000341512 0.000446918 
444 0.294928 0.574922 0.0458498 0.017798 0.045028 0.0111444 0.00406679 0.00268538 0.00157588 0.00200133 
445 0.31658 0.572493 0.104316 0.00443316 0.000815822 0.000576117 0.000315946 0.000225603 0.000105335 0.000137855 
446 0.11125 0.654474 0.109822 0.0459465 0.0234098 0.0184469 0.0105342 0.00613788 0.00425804 0.0157198 
447 0.636881 0.320052 0.0146622 0.0109257 0.0160792 0.000659112 0.000350554 0.000151498 6.05948e-05 0.000177932 
448 0.126725 0.686187 0.10687 0.0392156 0.0132062 0.0141169 0.00672884 0.00310622 0.00173367 0.00211121 
449 0.290154 0.544031 0.0432643 0.051442 0.0390984 0.0084462 0.00785795 0.0120595 0.001699 0.00194724 
450 0.500967 0.410753 0.020714 0.00692968 0.0173449 0.0393485 0.00158765 0.00113366 0.000529308 0.000692724 
451 0.174762 0.783374 0.02779 0.00527695 0.00317113 0.00224481 0.00133095 0.000878851 0.000515742 0.000654982 
452 0.568734 0.385733 0.0248664 0.00779834 0.00482295 0.00340587 0.0018678 0.00133371 0.000622715 0.000814969 
453 0.149857 0.653053 0.0801696 0.0318646 0.0494985 0.0143023 0.00909095 0.00543588 0.00303392 0.00369461 
454 0.0632231 0.630052 0.118224 0.0826355 0.038983 0.0297649 0.0138519 0.0111493 0.00500812 0.00710815 
455 0.111674 0.722651 0.104562 0.0250737 0.0130115 0.00926236 0.00588747 0.00352038 0.00196482 0.0023927 
456 0.292727 0.623861 0.0367647 0.0212498 0.00916923 0.00652717 0.00414889 0.00248081 0.00138461 0.00168613 
457 0.132593 0.567375 0.212054 0.0426601 0.017632 0.0102318 0.00771257 0.00389626 0.00247681 0.00336925 
458 0.112011 0.709679 0.0802452 0.0362194 0.0216478 0.0170584 0.00974132 0.00567589 0.00369759 0.00402381 
459 0.855462 0.125982 0.0152546 0.0019577 0.000387585 0.000450025 0.000239357 0.000103442 4.13739e-05 0.000121491 
460 0.114656 0.603866 0.120006 0.0743268 0.0305038 0.0240369 0.0137264 0.00799785 0.00521024 0.00566992 
461 0.264579 0.717488 0.0123922 0.00204764 0.00125929 0.000891443 0.000528536 0.000349002 0.000204807 0.000260101 
462 0.177566 0.629973 0.0788808 0.0351089 0.039264 0.0185591 0.00883121 0.00528057 0.00294723 0.00358905 
463 0.0939791 0.690081 0.099204 0.0446167 0.0280581 0.0162829 0.0122738 0.0062005 0.00394158 0.00536182 
464 0.161445 0.721004 0.0680279 0.0185062 0.0111985 0.00797171 0.00506709 0.00302984 0.00169103 0.00205929 
465 0.0962872 0.584492 0.112708 0.0844046 0.0358348 0.0312527 0.0329651 0.011012 0.00456436 0.00647832 
466 0.23872 0.706559 0.0220137 0.00912311 0.00913784 0.00320739 0.00832958 0.0012474 0.00073202 0.000929651 
467 0.0470857 0.700392 0.118232 0.0513389 0.0251054 0.0347979 0.00860693 0.00692026 0.00310849 0.00441196 
468 0.146642 0.326572 0.412497 0.0959582 0.00454206 0.0109624 0.00118088 0.000705647 0.000414099 0.000525898 
469 0.0949989 0.626969 0.137495 0.0677602 0.0298073 0.0182349 0.0104131 0.00606733 0.0039526 0.00430132 
470 0.102031 0.567555 0.13562 0.0704752 0.0602887 0.0248885 0.0172949 0.00873707 0.00555405 0.00755529 
471 0.144672 0.812754 0.0302864 0.00352569 0.00208254 0.00147421 0.000874238 0.00355953 0.000341219 0.000430137 
472 0.323672 0.489055 0.0864541 0.0420545 0.037127 0.00487038 0.00294382 0.0113461 0.00109099 0.00138554 
473 0.749109 0.220562 0.0173503 0.00508004 0.00284755 0.00201575 0.00119514 0.000789172 0.000463115 0.000588147 
474 0.173693 0.801516 0.0160337 0.00348455 0.000928569 0.00391426 0.000172925 0.000123391 5.76117e-05 7.53985e-05 
475 0.102031 0.567555 0.13562 0.0654807 0.0672277 0.0229441 0.0172949 0.00873707 0.00555405 0.00755529 
476 0.178007 0.758597 0.0483659 0.00559071 0.00340317 0.00240907 0.00142834 0.000943157 0.000553479 0.000702907 
477 0.332421 0.574009 0.0477555 0.0169308 0.0104127 0.00737104 0.00437028 0.00288578 0.00169348 0.00215069 
478 0.0914438 0.575435 0.119436 0.0812421 0.0744297 0.025722 0.0142683 0.00720808 0.00458209 0.00623312 
479 0.154398 0.672839 0.082602 0.0328254 0.0207002 0.0147356 0.00936644 0.00560061 0.00312585 0.00380657 
480 0.203905 0.650358 0.0722553 0.0158812 0.0315831 0.00792436 0.0139525 0.00208016 0.000907705 0.00115277 
481 0.155027 0.747682 0.0695689 0.0135966 0.00509233 0.00360481 0.00213729 0.00141129 0.000828198 0.0010518 
482 0.0405286 0.396479 0.312091 0.105821 0.0493728 0.0348096 0.0332233 0.0153382 0.00352909 0.00880747 
483 0.115774 0.624467 0.123013 0.0590222 0.027206 0.0214383 0.0122425 0.00713322 0.00464697 0.00505696 
484 0.155936 0.780655 0.0291912 0.0134408 0.00619854 0.00795441 0.00279101 0.00162418 0.00105808 0.00115143 
485 0.277782 0.534366 0.151285 0.0068486 0.00754984 0.0116653 0.00215387 0.00678065 0.000701745 0.000868048 
486 0.299097 0.565487 0.0927599 0.0157778 0.00968958 0.00685916 0.00406679 0.00268538 0.00157588 0.00200133 
487 0.0689667 0.568295 0.150252 0.0969972 0.0425269 0.0324708 0.0151112 0.0121629 0.0054634 0.00775435 
488 0.170609 0.783978 0.0292048 0.00641408 0.00245817 0.00161921 0.000960291 0.00391229 0.000372076 0.000472446 
489 0.0680106 0.599101 0.13032 0.0888024 0.0418922 0.0319861 0.0148857 0.0119813 0.00538186 0.00763861 
490 0.112944 0.599408 0.139315 0.0624766 0.0300608 0.0236781 0.0135215 0.00787848 0.00513248 0.00558529 
491 0.101314 0.586361 0.150215 0.0620052 0.0389464 0.0226016 0.0170367 0.00860666 0.00547115 0.00744253 
492 0.509997 0.425802 0.0333638 0.00679856 0.00423229 0.0157621 0.00162834 0.00116273 0.000542879 0.000710486 
493 0.312277 0.566145 0.0617311 0.0166818 0.0102595 0.00726264 0.00496559 0.0168897 0.00166858 0.00211906 
494 0.221815 0.651458 0.0534153 0.0205611 0.00938563 0.00657127 0.00432376 0.0157122 0.0125387 0.00421829 
495 0.0578524 0.607291 0.167394 0.0649294 0.0394159 0.0211913 0.0144015 0.0135586 0.00705705 0.00690884 
496 0.17283 0.753929 0.0494153 0.00943369 0.00559959 0.00324959 0.00244949 0.00123744 0.000786625 0.00107006 
497 0.270047 0.590035 0.0593894 0.021177 0.0189015 0.0268643 0.00907202 0.00193845 0.00113463 0.00144096 
498 0.0105654 0.301599 0.209056 0.354035 0.0215986 0.0151942 0.0526217 0.00981221 8.9357e-06 0.0255095 
499 0.197561 0.562054 0.21951 0.0171275 0.00141941 0.000985528 0.000540469 0.000385926 0.00018019 0.000235821 
500 0.179697 0.696207 0.0386732 0.0566035 0.0112017 0.00389058 0.00270139 0.00830768 0.00171656 0.00100093 
501 0.152094 0.632949 0.0813659 0.0323355 0.0308205 0.0398588 0.0182303 0.00551702 0.0030792 0.00374976 
502 0.128869 0.819585 0.0234877 0.00679192 0.00737811 0.00308857 0.00749901 0.0018666 0.000646728 0.000787567 
503 0.133465 0.828883 0.0194383 0.0122795 0.00273653 0.00127612 0.000756612 0.000499605 0.000293186 0.000372341 
504 0.303354 0.567172 0.0832891 0.018538 0.00996642 0.00705513 0.00418299 0.0027621 0.0016209 0.00205851 
505 0.0641099 0.542661 0.173904 0.0839024 0.0629817 0.0348006 0.014047 0.0113063 0.00507865 0.00720827 
506 0.0491518 0.473362 0.268347 0.0957422 0.0385903 0.0272075 0.0259677 0.0119885 0.00275837 0.006884 
507 0.107212 0.843957 0.021508 0.00772037 0.0140694 0.00222551 0.00141461 0.000845858 0.000472097 0.000574906 
508 0.0812187 0.63138 0.156286 0.0503073 0.0314386 0.0182447 0.0137525 0.00694755 0.00441647 0.00600782 
509 0.111885 0.687607 0.081515 0.0450703 0.0452704 0.012942 0.0067194 0.00401783 0.00224246 0.0027308 
510 0.164868 0.713216 0.061191 0.0135299 0.0161168 0.00637123 0.00363833 0.00231042 0.0170813 0.00167636 
511 0.29121 0.695849 0.00764145 0.00297261 0.000902887 0.000505783 0.000371477 0.000243545 0.000159495 0.000143196 
512 0.321739 0.55297 0.0484789 0.0171873 0.0105705 0.0377845 0.00443768 0.0029295 0.00171914 0.00218327 
513 0.34997 0.601327 0.0199824 0.022 0.00302339 0.00156486 0.000858177 0.000612788 0.000286112 0.000374445 
514 0.283903 0.700535 0.00927141 0.00232451 0.00142961 0.00101201 0.000600019 0.000396203 0.000232506 0.000295279 
515 0.0811411 0.591669 0.173915 0.0651002 0.0302728 0.0204206 0.0239121 0.00766243 0.00168999 0.00421766 
516 0.273159 0.68596 0.0240463 0.00590299 0.00124728 0.0010706 0.00782622 0.000416119 0.000161006 0.000210714 
517 0.0437016 0.463092 0.20095 0.0801276 0.0740449 0.0527494 0.0542649 0.0118809 0.00497905 0.0142097 
518 0.0704489 0.592074 0.157472 0.0657861 0.0407373 0.0307632 0.0247055 0.00863185 0.00387725 0.00550309 
519 0.185541 0.771108 0.0219945 0.00616028 0.00128612 0.000910009 0.00848675 0.00412991 0.000166066 0.000217325 
520 0.424278 0.529832 0.0295616 0.00941165 0.00100445 0.00339477 0.00197395 0.000255908 0.000151848 0.00013633 
521 0.421316 0.521245 0.0342733 0.00369308 0.0157504 0.0015762 0.000864015 0.000616956 0.000288058 0.000376992 
522 0.134352 0.618069 0.105044 0.0474424 0.0284724 0.036295 0.0127766 0.00743462 0.00484332 0.00527063 
523 0.0582714 0.570557 0.140336 0.0768236 0.0771921 0.0259998 0.0174563 0.0164347 0.00855401 0.00837436 
524 0.0476004 0.604235 0.123224 0.100005 0.038968 0.0206761 0.0384198 0.0132469 0.00688493 0.00674033 
525 0.14669 0.645173 0.0736691 0.0292767 0.0184917 0.0266258 0.00860086 0.0452627 0.00281471 0.00339505 
526 0.609681 0.285737 0.0299588 0.0311203 0.00824598 0.0218314 0.0012987 0.00100702 0.0105254 0.000594693 
527 0.849312 0.108181 0.0251908 0.00844279 0.00224355 0.00267235 0.00157573 0.000181756 0.000241276 0.0019583 
528 0.350134 0.594055 0.0216612 0.00411076 0.0025425 0.00954711 0.00104987 0.0161391 0.000330785 0.000429596 
529 0.183712 0.610543 0.0812978 0.0414134 0.0199202 0.0171445 0.0308171 0.00861509 0.00294723 0.00358905 
530 0.112599 0.803555 0.0358691 0.0116986 0.0100494 0.0131716 0.0086009 0.0020101 0.00110324 0.0013435 
531 0.0549416 0.580811 0.150643 0.0964226 0.045048 0.0242186 0.0164588 0.0154955 0.00806521 0.00789582 
532 0.32402 0.655883 0.00932666 0.00191374 0.00506046 0.000580442 0.000310697 0.00266276 0.000107342 0.000135496 
533 0.102031 0.597816 0.135663 0.0628689 0.0395365 0.022944 0.0172949 0.00873707 0.00555405 0.00755529 
534 0.130648 0.684709 0.0726197 0.0506879 0.0176657 0.0251388 0.00792548 0.00473897 0.00264495 0.00322095 
535 0.29493 0.58926 0.0731661 0.0157652 0.00968958 0.00685916 0.00406679 0.00268538 0.00157588 0.00200133 
536 0.134083 0.663078 0.0827206 0.030854 0.0248388 0.0453902 0.00815183 0.00486368 0.00271456 0.00330571 
537 0.0592883 0.7149 0.0955479 0.0371591 0.0234452 0.0470816 0.0100399 0.00501432 0.00318754 0.00433608 
538 0.238136 0.611644 0.064963 0.020647 0.0162945 0.0302507 0.0101876 0.00352038 0.00196482 0.0023927 
539 0.0689667 0.568294 0.139201 0.108043 0.0425314 0.0324708 0.0151112 0.0121629 0.0054634 0.00775435 
540 0.0948458 0.590006 0.152561 0.0681214 0.0367522 0.0213283 0.0160769 0.00812178 0.00516292 0.00702323 
541 0.0714642 0.723225 0.0915992 0.0491153 0.0167773 0.0139579 0.0234785 0.00439885 0.00286563 0.00311846 
542 0.0549416 0.561755 0.179817 0.0721638 0.0544526 0.0289547 0.0164588 0.0154955 0.00806521 0.00789582 
543 0.111283 0.615424 0.11237 0.0762573 0.0296905 0.0233299 0.0133227 0.00776262 0.005057 0.00550316 
544 0.24967 0.648079 0.0390791 0.0183025 0.00651295 0.0134099 0.00294633 0.0196597 0.00103149 0.00130996 
545 0.0792275 0.861277 0.0360991 0.00576686 0.00967808 0.00297103 0.00139135 0.00268822 0.000406123 0.000494555 
546 0.152094 0.663602 0.0954889 0.0323361 0.0203912 0.0145156 0.00922664 0.00551701 0.0030792 0.00374976 
547 0.14987 0.667575 0.0803401 0.0324497 0.0323902 0.0161194 0.00909095 0.00543588 0.00303392 0.00369462 
548 0.0981697 0.588809 0.134442 0.0782863 0.0369313 0.0281983 0.0131229 0.0105625 0.00474453 0.00673404 
549 0.153537 0.578038 0.140845 0.0387111 0.0495097 0.0167073 0.00953624 0.0055564 0.00361975 0.0039391 
550 0.11423 0.651394 0.0994427 0.0449121 0.0268432 0.0211525 0.0120792 0.00725807 0.0176969 0.00499096 
551 0.0582714 0.570557 0.145722 0.0983191 0.0506248 0.0256864 0.0174563 0.0164347 0.008554 0.00837435 
552 0.0835024 0.875097 0.0215881 0.0081595 0.0050901 0.0022066 0.00149625 0.00140868 0.0007332 0.000717801 
553 0.114482 0.745394 0.0690776 0.022942 0.0148549 0.0133114 0.0075574 0.00756344 0.00206312 0.00275497 
554 0.316452 0.6537 0.0188945 0.00508928 0.00211409 0.00149654 0.0008873 0.000585901 0.000343828 0.000436655 
555 0.229003 0.670722 0.0545956 0.0139511 0.0145345 0.00810324 0.00502865 0.00174187 0.00102219 0.00129816 
556 0.146362 0.65873 0.087193 0.0453125 0.0253944 0.0117987 0.00723671 0.013252 0.00213123 0.00259004 
557 0.301991 0.622947 0.0294552 0.0120742 0.00398195 0.00915402 0.0178491 0.00109242 0.000641035 0.000814102 
558 0.101483 0.602584 0.133898 0.0619306 0.0389464 0.0226016 0.0170367 0.00860666 0.00547116 0.00744253 
559 0.102096 0.581827 0.136435 0.0628689 0.0395365 0.022944 0.0185596 0.0215367 0.00664114 0.00755529 
560 0.20248 0.499848 0.117639 0.055761 0.0379882 0.0360252 0.0311443 0.0104195 0.00375751 0.00493712 
561 0.115456 0.616932 0.114279 0.0510365 0.0305037 0.0240369 0.0137264 0.00799785 0.00983585 0.0161958 
562 0.114524 0.628934 0.122414 0.0495464 0.0296065 0.0233299 0.0133227 0.00776262 0.005057 0.00550316 
563 0.102031 0.597606 0.135873 0.0628689 0.0395365 0.022944 0.0172949 0.00873707 0.00555405 0.00755529 
564 0.0080133 0.250829 0.297165 0.17895 0.142312 0.0152195 0.045272 0.0324726 0.00105653 0.0287098 
565 0.103601 0.576287 0.137706 0.0638361 0.0401578 0.0380184 0.0182111 0.00887148 0.0056395 0.00767153 
566 0.408864 0.501114 0.0475599 0.0112302 0.0055369 0.0111164 0.0108575 0.00167696 0.000900501 0.00114362 
567 0.415982 0.373918 0.0577132 0.0452515 0.00834728 0.0655246 0.0040746 0.0266608 0.00199471 0.000532864 
568 0.429053 0.420093 0.099183 0.0200854 0.0260252 0.00240635 0.0012701 0.000906926 0.000423446 0.000554179 
569 0.884852 0.0837274 0.0134874 0.0121325 0.00302486 0.00242052 0.000156944 9.52653e-05 4.44796e-05 5.82121e-05 
570 0.159984 0.58962 0.165153 0.0327828 0.0160984 0.0103463 0.00657644 0.00393383 0.0125007 0.00300354 
571 0.685628 0.23174 0.0747381 0.00212411 0.00102295 0.000724134 0.000541552 0.00310342 0.00016679 0.000211284 
572 0.0962517 0.860091 0.0334807 0.00566563 0.00162623 0.00115119 0.000682538 0.000450692 0.000264483 0.000335888 
573 0.18404 0.591357 0.154912 0.0142234 0.0118502 0.010268 0.0027225 0.0288194 0.000800169 0.00100766 
574 0.0831037 0.707029 0.0878509 0.0541699 0.0245166 0.0182554 0.0149881 0.00403592 0.00256341 0.00348706 
575 0.0890268 0.680633 0.0877525 0.0749187 0.0236886 0.0186639 0.0106582 0.00621009 0.0040456 0.00440253 
576 0.713931 0.246653 0.0256025 0.00525086 0.00308695 0.00218522 0.00129562 0.000855519 0.00050205 0.000637593 
577 0.328848 0.57241 0.0746599 0.00942199 0.00528522 0.00374136 0.00221825 0.00146475 0.000859569 0.00109164 
578 0.0864095 0.690609 0.107964 0.0494843 0.0230526 0.0180277 0.0102948 0.00599839 0.00390768 0.00425244 
579 0.11642 0.613156 0.129915 0.0520235 0.030973 0.0244067 0.0139376 0.00812089 0.0052904 0.00575715 
580 0.13815 0.739573 0.0709106 0.0161897 0.0171894 0.00736011 0.00454548 0.00271794 0.00151696 0.00184731 
581 0.327447 0.630134 0.0186877 0.0106194 0.00244871 0.00845737 0.000888213 0.000634214 0.000296116 0.000387538 
582 0.0677618 0.872698 0.0256649 0.0122703 0.00989762 0.00432659 0.00326132 0.00164756 0.00104734 0.00142471 
583 0.172379 0.702757 0.0712945 0.0211443 0.0127274 0.00840325 0.00468141 0.00418241 0.00127278 0.00115776 
584 0.124564 0.609472 0.120344 0.0696267 0.0268046 0.0208741 0.0119203 0.0069455 0.00452468 0.00492388 
585 0.168639 0.803569 0.0156627 0.00782831 0.0016337 0.00106435 0.000631054 0.000416697 0.000244533 0.000310552 
586 0.108767 0.541074 0.172999 0.0702564 0.0469182 0.0236006 0.0160769 0.00812178 0.00516292 0.00702323 
587 0.0609591 0.613961 0.117453 0.0926614 0.0374257 0.0285743 0.0132979 0.0128074 0.0160292 0.0068317 
588 0.129001 0.605101 0.200209 0.0258566 0.0143812 0.0102373 0.00650721 0.00389095 0.00217164 0.00264457 
589 0.237974 0.572484 0.125014 0.0392698 0.0098414 0.00375184 0.00876487 0.00167385 0.000540301 0.000686171 
590 0.180574 0.743914 0.044732 0.0116675 0.00690006 0.00491186 0.00312215 0.00186687 0.00104195 0.00126886 
591 0.116747 0.548139 0.16041 0.0570416 0.0352623 0.0233216 0.0395941 0.00779259 0.00495361 0.0067385 
592 0.0574017 0.576793 0.146168 0.082285 0.0470637 0.025303 0.0308047 0.0175058 0.00842633 0.00824936 
593 0.103601 0.578907 0.147747 0.0665601 0.0401447 0.023297 0.0175609 0.00887148 0.0056395 0.00767153 
594 0.103601 0.57901 0.149275 0.0649291 0.0401447 0.023297 0.0175609 0.00887148 0.0056395 0.00767153 
595 0.1028 0.581938 0.150003 0.0636378 0.0395365 0.022944 0.0172949 0.00873707 0.00555405 0.00755529 
596 0.152318 0.713813 0.0619621 0.0312582 0.0158146 0.00917762 0.00691794 0.00349483 0.00222162 0.00302212 
597 0.312277 0.576959 0.0541062 0.0273068 0.0111518 0.00726264 0.00430602 0.00284334 0.00166858 0.00211906 
598 0.103601 0.576287 0.137706 0.0638361 0.0401447 0.023297 0.018632 0.0187713 0.0100532 0.00767153 
599 0.15378 0.601687 0.150739 0.0336739 0.0245161 0.0102877 0.0166992 0.00385058 0.00214902 0.00261702 
600 0.0868287 0.635569 0.144381 0.0468098 0.0403711 0.0170147 0.0128254 0.00647917 0.00411873 0.0056028 
601 0.100623 0.588745 0.135504 0.0750233 0.0389465 0.0226016 0.0170367 0.00860666 0.00547115 0.00744253 
602 0.149857 0.664707 0.0832212 0.0362087 0.0304485 0.0143022 0.00909095 0.00543588 0.00303392 0.00369461 
603 0.154398 0.642539 0.082599 0.0628082 0.0210201 0.0147356 0.00936644 0.00560061 0.00312585 0.00380657 
604 0.109671 0.606629 0.137033 0.0488182 0.0431111 0.0235507 0.0131296 0.00765012 0.00498371 0.0054234 
605 0.124643 0.544192 0.176043 0.0593069 0.0372772 0.021633 0.0163066 0.00823781 0.00523668 0.00712356 
606 0.32174 0.583221 0.0485311 0.0171873 0.0105704 0.00748272 0.0044365 0.0029295 0.00171914 0.00218327 
607 0.126491 0.592874 0.126218 0.0734372 0.0316101 0.0182447 0.0137525 0.00694755 0.00441647 0.00600782 
608 0.0986399 0.709009 0.0875295 0.0352176 0.0210987 0.0263195 0.00934075 0.00544183 0.00354511 0.00385788 
609 0.0974974 0.596813 0.159313 0.0549241 0.0407392 0.0188202 0.0140921 0.00711909 0.00452552 0.00615616 
610 0.458138 0.429144 0.0296996 0.0391577 0.00449643 0.0229983 0.0131336 0.00214669 0.000470496 0.000615754 
611 0.0876796 0.667189 0.106463 0.0687353 0.0240082 0.0136424 0.010485 0.0140024 0.00330241 0.00449234 
612 0.175633 0.661009 0.0832865 0.0373554 0.0211279 0.00868372 0.00551951 0.00330036 0.00184202 0.00224316 
613 0.132353 0.642128 0.0957965 0.0559715 0.0258234 0.0203389 0.0116147 0.00676741 0.00440867 0.00479762 
614 0.156774 0.652425 0.0838694 0.0333304 0.0210186 0.0163841 0.0218532 0.00730689 0.00317394 0.00386514 
615 0.0741005 0.644431 0.108273 0.086937 0.0321508 0.0240795 0.0112061 0.00901966 0.00405151 0.00575042 
616 0.0954956 0.569158 0.140187 0.0719847 0.043705 0.0430857 0.0160769 0.00812178 0.00516292 0.00702323 
617 0.272732 0.660285 0.0510521 0.0045104 0.00312088 0.00538279 0.00116293 0.000752324 0.000441491 0.000560685 
618 0.11642 0.613156 0.114732 0.0529417 0.0452363 0.0244079 0.0139376 0.00812089 0.0052904 0.00575715 
619 0.379727 0.566806 0.035232 0.00714147 0.00273052 0.00128844 0.00605539 0.000490231 0.00022889 0.000299556 
620 0.135707 0.692293 0.0725578 0.0351025 0.027936 0.0203441 0.00686872 0.00410711 0.00229229 0.00279149 
621 0.178049 0.761077 0.0282118 0.0063012 0.0138837 0.00577037 0.00459341 0.00112242 0.000436397 0.000554215 
622 0.238714 0.572071 0.111502 0.0273308 0.0275503 0.00503938 0.00298785 0.00530091 0.00803387 0.00147039 
623 0.170544 0.563515 0.0868308 0.0483137 0.0474525 0.0563459 0.0131549 0.00586509 0.00382084 0.00415794 
624 0.242729 0.684729 0.0320013 0.00339269 0.0210207 0.00151318 0.011469 0.0025257 0.000268004 0.000350746 
625 0.0591679 0.579335 0.142495 0.0774224 0.0485118 0.0260815 0.0204664 0.0282825 0.00973373 0.00850319 
626 0.220479 0.597076 0.08296 0.0604658 0.0140929 0.0100263 0.00637304 0.00381072 0.00212687 0.00259004 
627 0.147685 0.655553 0.0960282 0.0313982 0.0218712 0.0265166 0.0089592 0.0053571 0.00298995 0.00364107 
628 0.102369 0.637158 0.128833 0.0489683 0.0335147 0.0215681 0.0116147 0.00676741 0.00440867 0.00479762 
629 0.103357 0.606354 0.135198 0.0592764 0.0372772 0.021633 0.0163066 0.00823781 0.00523668 0.00712356 
630 0.0549563 0.587394 0.16857 0.0718984 0.0450467 0.0242186 0.0164588 0.0154955 0.00806521 0.00789582 
631 0.119997 0.625132 0.126342 0.0492413 0.022526 0.0354546 0.00897068 0.00522632 0.00340471 0.0037051 
632 0.130164 0.570081 0.148099 0.0813618 0.0243758 0.0171012 0.0158274 0.00519501 0.00330241 0.00449234 
633 0.244738 0.656091 0.0457158 0.012032 0.00734368 0.00519861 0.0113196 0.00432411 0.00128733 0.0119501 
634 0.0910006 0.627693 0.134579 0.0560909 0.0352623 0.0204636 0.0154251 0.00779252 0.00495361 0.00673851 
635 0.128355 0.781799 0.0608027 0.0102847 0.00736389 0.00531577 0.00255916 0.00149112 0.000971401 0.0010571 
636 0.135142 0.655597 0.101628 0.0374484 0.020886 0.0198359 0.00744803 0.00445349 0.00296206 0.0145987 
637 0.100802 0.572651 0.148253 0.0632623 0.0397702 0.0367031 0.0170367 0.00860666 0.00547115 0.00744253 
638 0.0405286 0.440424 0.272829 0.101138 0.0493728 0.0348096 0.0332233 0.0153382 0.00352909 0.00880747 
639 0.0922635 0.622662 0.122658 0.057367 0.0489113 0.02075 0.0156364 0.00789927 0.00502147 0.00683081 
640 0.163726 0.734045 0.0495119 0.0194707 0.0116372 0.00917014 0.00523666 0.0030512 0.00198772 0.00216309 
641 0.0935288 0.603088 0.124822 0.0576298 0.0382085 0.0350985 0.0274646 0.00814248 0.00509121 0.00692569 
642 0.284094 0.632887 0.0314153 0.0155798 0.00509237 0.00360481 0.00245406 0.0126472 0.0107577 0.00146736 
643 0.542136 0.407952 0.0286199 0.00803466 0.0049691 0.00350908 0.0019244 0.00137413 0.000641585 0.000839665 
644 0.171466 0.642095 0.0798841 0.0257914 0.0239213 0.039601 0.00739376 0.00440048 0.00245603 0.00299088 
645 0.129968 0.658433 0.064613 0.0849581 0.0342356 0.0111787 0.00710557 0.00424873 0.00237134 0.00288774 
646 0.0883654 0.758606 0.10615 0.0253985 0.00929406 0.00587395 0.0026995 0.00161415 0.000900901 0.00109709 
647 0.0536398 0.659125 0.124847 0.0725166 0.038963 0.0230702 0.010389 0.00836198 0.00375609 0.00533111 
648 0.0791803 0.866579 0.0270177 0.0120709 0.00373215 0.0083474 0.00132796 0.000779831 0.000435245 0.000530029 
649 0.292371 0.620072 0.0485222 0.0116713 0.0179883 0.00374137 0.00221825 0.00146475 0.000859569 0.00109164 
650 0.246905 0.631866 0.0640935 0.018207 0.0224041 0.00572439 0.00741286 0.00192427 0.000644677 0.000818727 
651 0.110593 0.618234 0.143355 0.0387194 0.0231407 0.0188869 0.0303981 0.00841876 0.0039526 0.00430132 
652 0.123844 0.587534 0.136636 0.0659978 0.0334541 0.0194142 0.0146341 0.0073929 0.00469958 0.00639294 
653 0.722732 0.201391 0.0275032 0.0053364 0.00196798 0.0302021 0.00583406 0.00193833 0.00277114 0.000323097 
654 0.276903 0.452211 0.108532 0.0851965 0.0299467 0.0210105 0.00977784 0.0078701 0.00353514 0.00501752 
655 0.154398 0.672584 0.0828568 0.0328254 0.0207002 0.0147356 0.00936644 0.00560061 0.00312585 0.00380657 
656 0.1343 0.798822 0.0391892 0.00802258 0.00803406 0.00671611 0.00210308 0.00125728 0.000701722 0.000854537 
657 0.11642 0.613156 0.117346 0.0613322 0.0342334 0.0244067 0.0139376 0.00812089 0.0052904 0.00575715 
658 0.0393707 0.38782 0.318668 0.111498 0.0496694 0.0338151 0.0322741 0.0148999 0.00342826 0.00855583 
659 0.137225 0.656534 0.118267 0.0472564 0.0147189 0.0104575 0.00664715 0.00397462 0.00221835 0.00270144 
660 0.107098 0.795851 0.0414527 0.0255099 0.00859256 0.00611676 0.0101771 0.00232485 0.00129752 0.00158009 
661 0.0976084 0.595465 0.135095 0.0601355 0.0378175 0.0219465 0.0165429 0.00835719 0.00585699 0.0211751 
662 0.395492 0.521418 0.026785 0.00554906 0.0345192 0.0129031 0.00137091 0.000944715 0.00044109 0.00057727 
663 0.245145 0.640101 0.066002 0.0274627 0.010591 0.00428761 0.00252422 0.00166679 0.000978131 0.00124221 
664 0.103782 0.822191 0.0377432 0.0132102 0.00833056 0.00593017 0.00376942 0.0022539 0.00125796 0.00153191 
665 0.0668926 0.659291 0.141667 0.0545803 0.0188018 0.0161232 0.0344461 0.00347354 0.00226234 0.00246194 
666 0.109671 0.606695 0.150794 0.0494845 0.0291774 0.0229918 0.0131296 0.00765012 0.00498371 0.0054234 
667 0.100508 0.601319 0.136137 0.0619306 0.0389464 0.0226016 0.0170367 0.00860666 0.00547116 0.00744253 
668 0.184789 0.770221 0.027297 0.00334653 0.00495247 0.00710668 0.00097638 0.000562056 0.000329835 0.000418884 
669 0.102031 0.567959 0.151389 0.0769949 0.0395409 0.022944 0.0172949 0.00873707 0.00555405 0.00755529 
670 0.733944 0.259769 0.0028446 0.00113408 0.000895424 0.00050217 0.000368824 0.000241805 0.000158355 0.000142173 
671 0.308894 0.600198 0.0464206 0.01644 0.0101109 0.00715738 0.00424361 0.00280213 0.00164439 0.00208835 
672 0.0379494 0.659451 0.142036 0.0660229 0.029894 0.0255535 0.0178764 0.0108724 0.00522745 0.00511766 
673 0.326689 0.576856 0.0492303 0.0174517 0.0107331 0.00759784 0.00450475 0.00297457 0.00174559 0.00221686 
674 0.166672 0.752118 0.0424131 0.00667456 0.00513175 0.00737177 0.0163728 0.00200827 0.000545496 0.000692769 
675 0.198296 0.643361 0.0811141 0.024072 0.0151801 0.0108061 0.00686872 0.00410711 0.00235738 0.0138375 
676 0.0746488 0.703466 0.151172 0.0261275 0.0156065 0.0122979 0.00702281 0.00409192 0.00266571 0.00290089 
677 0.0574032 0.605846 0.139212 0.0751112 0.0470637 0.025303 0.0171958 0.0161894 0.00842633 0.00824936 
678 0.0591679 0.59472 0.142496 0.0774224 0.0485118 0.0260815 0.0177249 0.0166875 0.00868561 0.00850319 
679 0.0526156 0.768928 0.0711529 0.0546739 0.0206171 0.0118305 0.00891766 0.00450505 0.00286381 0.0038957 
680 0.589125 0.25826 0.00672322 0.0491262 0.0927268 0.00143478 0.00105378 0.000690872 0.000452444 0.000406207 
681 0.0544743 0.704406 0.0794886 0.0893717 0.0257144 0.0195648 0.015973 0.00440275 0.00279822 0.00380648 
682 0.16349 0.64772 0.0776063 0.0464693 0.0357726 0.0123286 0.00710557 0.00424874 0.00237134 0.00288774 
683 0.236835 0.679614 0.0700737 0.0113463 0.000800159 0.000563501 0.000309027 0.000220663 0.000103028 0.000134837 
684 0.113186 0.572748 0.153834 0.0780578 0.0345271 0.0176082 0.0132728 0.00670519 0.00426241 0.00579825 
685 0.115338 0.663453 0.130747 0.0208973 0.0384868 0.00884606 0.00579718 0.0122739 0.00187552 0.00228394 
686 0.110337 0.663069 0.102664 0.0415933 0.0245523 0.0315413 0.0110481 0.00643729 0.00419361 0.00456359 
687 0.164067 0.68798 0.0791411 0.0428052 0.00944508 0.00666129 0.00423414 0.00253178 0.00141306 0.00172078 
688 0.0883118 0.606847 0.157617 0.0758165 0.0334247 0.014064 0.0105691 0.00533932 0.00339414 0.00461712 
689 0.114939 0.793956 0.0528337 0.0197217 0.00669712 0.00476739 0.00303032 0.00181196 0.00101131 0.00123154 
690 0.114656 0.619203 0.127959 0.0510371 0.0305037 0.0240369 0.0137264 0.00799785 0.00521024 0.00566992 
691 0.0944702 0.870698 0.0233878 0.00357465 0.00187037 0.00132402 0.000785011 0.000518357 0.000307843 0.00306351 
692 0.0684469 0.66575 0.135269 0.0702878 0.0239831 0.0134009 0.0101014 0.00510307 0.00324396 0.00441283 
693 0.100811 0.780268 0.0433042 0.0187319 0.00794322 0.040538 0.0035941 0.00214907 0.00119946 0.00146066 
694 0.232642 0.690901 0.0428003 0.0123529 0.0128213 0.00342326 0.0019919 0.00131529 0.000771858 0.000980245 
695 0.0765235 0.686763 0.101982 0.0471517 0.0296524 0.017208 0.0129711 0.00867212 0.012719 0.00635735 
696 0.0555663 0.648286 0.118442 0.0847504 0.0342291 0.026135 0.0121627 0.00978963 0.00439737 0.0062413 
697 0.237887 0.639543 0.0558792 0.0288974 0.0140886 0.00953479 0.00606064 0.00362392 0.00202261 0.00246308 
698 0.103601 0.576287 0.152951 0.0639757 0.0401447 0.023297 0.0175609 0.00887148 0.0056395 0.00767153 
699 0.0588727 0.722123 0.123241 0.0371731 0.0225233 0.0121093 0.0082294 0.00774777 0.0040326 0.00394791 
700 0.069292 0.580403 0.161228 0.0718964 0.0450467 0.0242186 0.0164588 0.0154955 0.00806521 0.00789582 
701 0.103572 0.622291 0.139898 0.051436 0.0322149 0.0186951 0.0140921 0.00711909 0.00452552 0.00615617 
702 0.0975949 0.588677 0.156389 0.0601355 0.0378175 0.0219465 0.0165429 0.00835719 0.00531257 0.0072268 
703 0.238239 0.646318 0.0793762 0.0132707 0.00823019 0.00585872 0.00372401 0.00222675 0.00124281 0.00151346 
704 0.0909496 0.667383 0.190207 0.0199153 0.0105284 0.0117513 0.00396272 0.00236949 0.00132248 0.00161047 
705 0.392999 0.541905 0.0338539 0.0054109 0.0207512 0.00218511 0.00116523 0.000832042 0.000388483 0.000508421 
706 0.237091 0.630755 0.0651628 0.0371716 0.017191 0.00503953 0.00298785 0.00197293 0.00115779 0.00147037 
707 0.271542 0.642579 0.0146264 0.00401733 0.00248455 0.00799647 0.0553263 0.000687144 0.000320792 0.000419833 
708 0.126302 0.723162 0.0669652 0.0332087 0.0249089 0.0102388 0.00650721 0.00389095 0.00217164 0.00264457 
709 0.166022 0.764795 0.0334941 0.0154459 0.00619665 0.00891643 0.00202015 0.00133343 0.000782505 0.000993766 
710 0.252529 0.614498 0.0706091 0.038625 0.0107122 0.00519852 0.0030822 0.00203523 0.00119435 0.0015168 
711 0.222721 0.605847 0.0822313 0.0309143 0.0166434 0.0250599 0.00721498 0.00396886 0.00258553 0.00281364 
712 0.127065 0.838443 0.0176261 0.00623275 0.00383324 0.00271351 0.00160884 0.00106235 0.000623424 0.000791736 
713 0.129426 0.728902 0.0859618 0.0231835 0.0134755 0.0093508 0.00414889 0.00248081 0.00138461 0.00168613 
714 0.323008 0.527085 0.0762933 0.0346023 0.0140847 0.0100263 0.00637304 0.00381072 0.00212687 0.00259004 
715 0.111662 0.652918 0.109124 0.0388342 0.0267565 0.0165517 0.0284893 0.00919534 0.00309798 0.0033713 
716 0.13996 0.828759 0.0104603 0.0123922 0.00330643 0.000787197 0.0037115 0.000300312 0.000140214 0.000183503 
717 0.208864 0.610005 0.0736903 0.0292767 0.0184623 0.0135762 0.0213249 0.0182184 0.00318696 0.00339505 
718 0.214917 0.727411 0.0295109 0.010407 0.00640045 0.00453082 0.00268632 0.00177383 0.00104095 0.00132198 
719 0.0549416 0.541888 0.19899 0.0727146 0.0450467 0.0242186 0.0184419 0.0277962 0.00806717 0.00789582 
720 0.180396 0.692332 0.0831394 0.0161023 0.0101201 0.00720406 0.00457915 0.00273807 0.00152819 0.00186099 
721 0.301672 0.625104 0.0345253 0.00865925 0.00629802 0.0168723 0.00342757 0.00147593 0.000866131 0.00109997 
722 0.344265 0.577067 0.0403613 0.0046112 0.00303343 0.0105223 0.00111011 0.000872428 0.0176757 0.000481899 
723 0.0800612 0.569799 0.204245 0.0512981 0.0376233 0.0180239 0.0124075 0.0169768 0.00414482 0.0054201 
724 0.16641 0.696778 0.0737034 0.01748 0.0152025 0.0188379 0.00502351 0.00293365 0.00163735 0.00199392 
725 0.108477 0.561824 0.163597 0.0660212 0.0414866 0.0176011 0.0244163 0.00663123 0.00421342 0.0057316 
726 0.147685 0.636879 0.100209 0.0313982 0.0198002 0.0140949 0.0106898 0.0175916 0.0180103 0.00364107 
727 0.152094 0.677725 0.0813658 0.0323355 0.0203912 0.0145156 0.00922664 0.00551701 0.0030792 0.00374976 
728 0.0990301 0.609685 0.131632 0.0610198 0.0383736 0.0222692 0.0167862 0.00848009 0.0053907 0.00733308 
729 0.114656 0.603866 0.122027 0.072306 0.030504 0.0240369 0.0137264 0.00799785 0.00521024 0.00566992 
730 0.248701 0.564769 0.136536 0.0263817 0.00610196 0.0059019 0.00857301 0.00192022 0.000491182 0.000623792 
731 0.834205 0.134002 0.0166537 0.0020014 0.00151442 0.0046628 0.00597386 0.000560284 0.000187853 0.00023857 
732 0.140789 0.486312 0.334082 0.0242243 0.00724791 0.00419584 0.00134683 0.000805316 0.000449469 0.00054735 
733 0.204459 0.750149 0.0160713 0.0104169 0.0117539 0.00158934 0.00411584 0.000621002 0.000362502 0.00046037 
734 0.186665 0.623831 0.0851195 0.0414351 0.0179765 0.0127967 0.0113469 0.0148087 0.00271456 0.00330571 
735 0.103601 0.576287 0.137706 0.0638361 0.0401447 0.023297 0.0175609 0.0136522 0.0162357 0.00767927 
736 0.315524 0.614856 0.0354931 0.0200908 0.00594641 0.00322784 0.00191378 0.00126371 0.000741589 0.000941804 
737 0.103601 0.576287 0.137706 0.0638361 0.0433055 0.0355209 0.0175609 0.00887148 0.0056395 0.00767153 
738 0.0289199 0.299301 0.221785 0.249403 0.0431621 0.0534271 0.0213668 0.0309566 0.0211056 0.0305733 
739 0.10361 0.589544 0.139825 0.0638361 0.0401447 0.023297 0.0175609 0.00887148 0.0056395 0.00767153 
740 0.467112 0.336992 0.15546 0.0269468 0.00235943 0.00166618 0.0012179 0.00754255 0.000304637 0.00039869 
741 0.102434 0.580399 0.137525 0.0628689 0.0395365 0.027171 0.0277223 0.00923416 0.00555405 0.00755529 
742 0.070181 0.590444 0.130574 0.0915348 0.0431812 0.0329703 0.0153437 0.01235 0.00554745 0.00787365 
743 0.127698 0.790323 0.0397328 0.0161293 0.00527922 0.00407846 0.00584546 0.00915443 0.000793489 0.000966284 
744 0.550514 0.367749 0.0492324 0.00716654 0.0044319 0.00312972 0.00171635 0.00122559 0.0140857 0.000748945 
745 0.128335 0.71074 0.0814973 0.041815 0.0143629 0.00935142 0.00594409 0.00355423 0.00198371 0.00241571 
746 0.341645 0.567073 0.0480485 0.0159769 0.00982605 0.00695577 0.00412407 0.0027232 0.00159807 0.00202952 
747 0.629123 0.291931 0.0345038 0.00330147 0.00757 0.0315684 0.000873827 0.000543069 0.00025356 0.000331844 
748 0.159005 0.740119 0.0520424 0.0133487 0.00838167 0.00596655 0.00379255 0.00243146 0.0127836 0.00212962 
749 0.419174 0.542443 0.0258397 0.00796203 0.00171709 0.00121256 0.000664975 0.00047483 0.000221699 0.000290146 
750 0.321332 0.550953 0.0599384 0.0265922 0.010107 0.00685916 0.00780479 0.0105649 0.00384728 0.00200133 
751 0.128326 0.699023 0.16505 0.00205795 0.00395859 0.000689671 0.000352357 0.000232668 0.000136538 0.000173401 
752 0.316963 0.573873 0.056351 0.0239287 0.0104127 0.00737104 0.00437028 0.00288578 0.00169348 0.00215069 
753 0.110602 0.797361 0.0451816 0.0170589 0.0107576 0.00765786 0.0048676 0.00291055 0.00162446 0.00197822 
754 0.403216 0.526506 0.0379664 0.0119406 0.00734368 0.00519852 0.0030822 0.00203523 0.00119435 0.0015168 
755 0.125912 0.600874 0.109684 0.0495354 0.0296065 0.0344152 0.0263291 0.0130826 0.005057 0.00550316 
756 0.18568 0.657214 0.078809 0.0285063 0.0179765 0.0127967 0.00813401 0.00486368 0.00271456 0.00330571 
757 0.511157 0.408516 0.0602132 0.00761428 0.00468515 0.00330856 0.00181443 0.00129561 0.000604923 0.000791684 
758 0.0696604 0.912896 0.0140271 0.000918356 0.000284935 0.000798313 0.0012468 8.28668e-05 3.67894e-05 4.81476e-05 
759 0.0718106 0.573552 0.19377 0.116968 0.0220344 0.00928109 0.00529791 0.00308689 0.00201097 0.00218839 
760 0.326689 0.561478 0.0645655 0.017495 0.0107331 0.00759784 0.00450475 0.00297457 0.00174559 0.00221686 
761 0.294928 0.591466 0.0570836 0.0157556 0.0103297 0.0194443 0.0047305 0.00268538 0.00157588 0.00200133 
762 0.481742 0.451164 0.0351618 0.00961078 0.00401485 0.0145513 0.00151203 0.00107967 0.000504102 0.000659737 
763 0.334451 0.582923 0.0391091 0.020752 0.00583835 0.00478899 0.00468955 0.00354984 0.00293591 0.000962582 
764 0.112465 0.839361 0.0324664 0.00963355 0.00219414 0.00154815 0.000917896 0.000606104 0.000355684 0.000451711 
765 0.326147 0.552247 0.0470531 0.0229282 0.0292198 0.0114676 0.00430602 0.00284334 0.00166858 0.00211906 
766 0.255293 0.709106 0.0219231 0.0030245 0.00190664 0.00694848 0.00072766 0.000515299 0.000240594 0.000314874 
767 0.150282 0.740647 0.0633474 0.0152797 0.0104502 0.00749379 0.00419411 0.00616473 0.000998469 0.00114197 
768 0.588464 0.354319 0.0233398 0.00746884 0.00461916 0.00326196 0.00178888 0.00294197 0.012915 0.000881879 
769 0.137719 0.759681 0.0899364 0.00553707 0.00257294 0.00183154 0.00116419 0.00069612 0.000388524 0.000473133 
770 0.118868 0.81869 0.0394082 0.00695731 0.0022743 0.00412772 0.001691 0.000629929 0.00688408 0.000469392 
771 0.326689 0.561477 0.0492247 0.0236121 0.0178307 0.00972442 0.00450475 0.00297457 0.00174559 0.00221686 
772 0.293945 0.612589 0.0267752 0.0169961 0.00640873 0.00408167 0.0252849 0.0117906 0.000937714 0.00119088 
773 0.0700277 0.577037 0.128749 0.0915348 0.0522541 0.0392819 0.0153437 0.01235 0.00554745 0.00787365 
774 0.157609 0.649454 0.0977156 0.0419236 0.0192424 0.0136979 0.00870683 0.0052062 0.00290572 0.0035385 
775 0.0555898 0.87722 0.0330865 0.0123825 0.00718862 0.00638508 0.00213929 0.00437711 0.00080503 0.000826427 
776 0.130167 0.666171 0.0684693 0.0267467 0.0168668 0.0120068 0.010587 0.0496074 0.00542986 0.0139481 
777 0.0990301 0.594956 0.133654 0.0737206 0.0383796 0.0222692 0.0167862 0.00848009 0.0053907 0.00733308 
778 0.102261 0.644251 0.115319 0.0604457 0.027206 0.0214383 0.0122425 0.00713322 0.00464697 0.00505696 
779 0.233353 0.723785 0.020586 0.00967827 0.00299423 0.00211957 0.00125669 0.000829816 0.000486999 0.00491024 
780 0.440617 0.352507 0.0724566 0.104287 0.0243539 0.0024574 0.00133695 0.000954659 0.000445733 0.000583346 
781 0.141548 0.828087 0.0260138 0.00145563 0.000688293 0.00142892 0.000332806 0.000190678 0.000111897 0.000142107 
782 0.630167 0.317557 0.0127444 0.00544365 0.0122439 0.00527819 0.0157711 0.000336466 0.000116599 0.000342385 
783 0.444674 0.490015 0.0361054 0.0119911 0.00687775 0.00329869 0.00457581 0.00110033 0.000614007 0.00074772 
784 0.317215 0.589101 0.0478692 0.0169308 0.0104127 0.00737104 0.00437028 0.00288578 0.00169348 0.00215069 
785 0.691111 0.266045 0.0163151 0.0182074 0.00234287 0.000424897 0.000225992 0.000105428 0.00510657 0.000115581 
786 0.446374 0.452478 0.085246 0.00356619 0.00215763 0.00152368 0.000839673 0.00717153 0.000278584 0.000364591 
787 0.216062 0.62343 0.105714 0.0176862 0.00524559 0.00376347 0.00959071 0.00182188 0.0156 0.00108544 
788 0.0721942 0.81556 0.0573033 0.0240731 0.00889062 0.0126532 0.00398924 0.00238477 0.00133101 0.00162086 
789 0.222175 0.717498 0.0326422 0.00797577 0.0112896 0.00335961 0.0019919 0.00131529 0.000771858 0.000980245 
790 0.132582 0.760905 0.0580946 0.0154242 0.0115843 0.0112984 0.00440654 0.00254924 0.0014228 0.00173265 
791 0.102031 0.567555 0.135713 0.0779236 0.0404388 0.0371945 0.0172973 0.00873707 0.00555405 0.00755529 
792 0.0689667 0.583446 0.129268 0.102829 0.0425284 0.0324708 0.0151112 0.0121629 0.0054634 0.00775435 
793 0.0740097 0.566752 0.130098 0.100655 0.0387213 0.0524484 0.0149808 0.0107033 0.00480779 0.00682383 
794 0.0591679 0.59472 0.142496 0.0774224 0.0485118 0.0260815 0.0177249 0.0166875 0.00868561 0.00850319 
795 0.0881331 0.803129 0.0531225 0.0225372 0.0112027 0.0107831 0.00490422 0.00247488 0.00157325 0.00214013 
796 0.100847 0.675195 0.13132 0.0375869 0.0186389 0.0108165 0.00815329 0.00411901 0.0097609 0.00356196 
797 0.154398 0.657691 0.0825987 0.0328254 0.0207371 0.0298461 0.00937051 0.00560061 0.00312585 0.00380657 
798 0.139042 0.595877 0.118986 0.0471518 0.0296524 0.017208 0.0151342 0.0268525 0.00443009 0.00566647 
799 0.113083 0.580914 0.131644 0.0610198 0.0383736 0.0222692 0.0173846 0.0225811 0.0053971 0.00733308 
800 0.628568 0.329789 0.0270408 0.00133384 0.00627618 0.000605103 0.000580574 0.00522242 0.000424816 0.000160087 
801 0.32411 0.483816 0.0858375 0.0746578 0.00628547 0.0118455 0.00992531 0.00151055 0.000886431 0.00112575 
802 0.109671 0.606597 0.12388 0.0761822 0.0294918 0.0229918 0.0131296 0.00765012 0.00498371 0.0054234 
803 0.149858 0.679962 0.0826703 0.03186 0.0200913 0.0143022 0.00909095 0.00543588 0.00303392 0.00369462 
804 0.274831 0.673225 0.0264837 0.00456231 0.0179056 0.00126875 0.000694045 0.000495588 0.000231391 0.00030283 
805 0.0957883 0.571526 0.141258 0.0486808 0.0838147 0.0316923 0.0114676 0.00668175 0.00435286 0.00473689 
806 0.306958 0.669191 0.0205852 0.00123623 0.000760929 0.000537353 0.000294687 0.000210424 9.82473e-05 0.00012858 
807 0.177648 0.581751 0.101755 0.0575638 0.0428694 0.0142694 0.0106679 0.00538922 0.00342586 0.00466027 
808 0.189925 0.787512 0.016483 0.0022627 0.00137603 0.000974082 0.000577533 0.000381355 0.000223793 0.000284213 
809 0.421268 0.534533 0.0204127 0.00781061 0.00875981 0.00479009 0.000962059 0.000627751 0.000368387 0.000467844 
810 0.246157 0.69967 0.0357874 0.0079773 0.00288083 0.0048905 0.00103838 0.000685628 0.000402351 0.000510979 
811 0.139593 0.648946 0.0888492 0.034269 0.0278229 0.027021 0.00846829 0.00747822 0.0141101 0.00344156 
812 0.485724 0.458306 0.017803 0.00284312 0.00335187 0.0297017 0.000922103 0.000600936 0.000393546 0.000353328 
813 0.0879934 0.672666 0.0879512 0.0722887 0.0240036 0.0299015 0.0107073 0.00613788 0.00399856 0.00435133 
814 0.537431 0.390249 0.0271605 0.0158311 0.00722805 0.00330856 0.0018713 0.0155244 0.000604923 0.000791684 
815 0.0760412 0.623398 0.114642 0.0815036 0.038449 0.0293571 0.0136622 0.0109966 0.00493951 0.00701078 
816 0.158395 0.710998 0.0686194 0.0225695 0.0142314 0.0101307 0.00643943 0.00385042 0.00214902 0.00261702 
817 0.0962007 0.563756 0.184952 0.0592764 0.0372772 0.021633 0.0163066 0.00823781 0.00523668 0.00712356 
818 0.37225 0.567876 0.0302945 0.00474652 0.00295957 0.00620796 0.00125129 0.00930613 0.00450572 0.000602913 
819 0.0822819 0.762964 0.0612228 0.0223289 0.0133327 0.0117721 0.0145929 0.0216356 0.00739084 0.00247824 
820 0.550129 0.412318 0.0198609 0.0157775 0.000717919 0.000506781 0.000277922 0.000198452 9.26577e-05 0.000121265 
821 0.0971635 0.798234 0.0372376 0.0185646 0.00795379 0.0286545 0.00759698 0.00205356 0.00114615 0.00139574 
822 0.303354 0.578514 0.0457087 0.0162459 0.0242113 0.00705602 0.0184677 0.00276222 0.0016209 0.00205851 
823 0.099954 0.585758 0.139929 0.0635676 0.0505316 0.0222694 0.0167862 0.00848009 0.0053907 0.00733308 
824 0.156774 0.652425 0.0838694 0.0333304 0.0210186 0.0155407 0.0243164 0.00568717 0.00317394 0.00386514 
825 0.163732 0.637052 0.130108 0.0433308 0.0104272 0.00757929 0.00332357 0.00198731 0.00110917 0.00135072 
826 0.156774 0.652425 0.0842699 0.0481975 0.0211357 0.0149623 0.00951054 0.00568677 0.00317394 0.00386514 
827 0.103601 0.576287 0.137706 0.0638442 0.0552318 0.0235865 0.0175609 0.00887148 0.0056395 0.00767153 
828 0.145575 0.662995 0.0986744 0.0384783 0.019735 0.0138935 0.00883121 0.00528057 0.00294723 0.00358905 
829 0.471415 0.414522 0.0634321 0.0345221 0.00476411 0.00945526 0.000760566 0.000543069 0.00025356 0.000331844 
830 0.326474 0.572728 0.0706453 0.00849036 0.016326 0.00217155 0.001246 0.000822754 0.000482822 0.000613175 
831 0.112532 0.722684 0.0752785 0.0216648 0.0142702 0.0350517 0.0102476 0.0036964 0.00206306 0.00251234 
832 0.273075 0.683427 0.0240976 0.013279 0.00229523 0.00161957 0.000888183 0.000634214 0.000296116 0.000387538 
833 0.0283622 0.397492 0.270949 0.0926592 0.0787762 0.0602882 0.0320096 0.0146651 0.00643447 0.0183633 
834 0.0679374 0.589396 0.125173 0.0888024 0.0436528 0.0450443 0.0149923 0.0119813 0.00538186 0.00763861 
835 0.0700277 0.577037 0.132658 0.103005 0.0431867 0.0329703 0.0153437 0.01235 0.00554745 0.00787365 
836 0.0700333 0.588541 0.132625 0.0915348 0.0431812 0.0329703 0.0153437 0.01235 0.00554745 0.00787365 
837 0.102031 0.573393 0.160009 0.0629458 0.0395365 0.022944 0.0172949 0.00873707 0.00555405 0.00755529 
838 0.116437 0.623416 0.11984 0.0518217 0.030973 0.0244067 0.0139376 0.00812089 0.0052904 0.00575715 
839 0.0591679 0.594719 0.142496 0.0774224 0.0485118 0.0260815 0.0177249 0.0166875 0.00868561 0.00850319 
840 0.0591679 0.585743 0.150661 0.0782332 0.0485118 0.0260815 0.0177249 0.0166875 0.00868561 0.00850319 
841 0.103601 0.577375 0.151672 0.0641675 0.0401447 0.023297 0.0175609 0.00887148 0.0056395 0.00767153 
842 0.11642 0.627818 0.115455 0.0518217 0.030973 0.0244067 0.0139376 0.00812089 0.0052904 0.00575715 
843 0.140185 0.61304 0.0944515 0.0728071 0.0256644 0.0291507 0.00624506 0.00404257 0.011872 0.00254176 
844 0.548782 0.405508 0.024735 0.00791474 0.00489493 0.0034567 0.00189567 0.00135362 0.000632009 0.000827133 
845 0.134883 0.513341 0.109624 0.0563683 0.0728752 0.0753797 0.0199442 0.00703227 0.00447033 0.00608109 
846 0.141532 0.669071 0.0797903 0.043161 0.0189752 0.0135076 0.0085859 0.00695508 0.0103884 0.00803397 
847 0.0896355 0.676789 0.103746 0.0538181 0.0197534 0.0164249 0.0152632 0.00777555 0.0127629 0.00403144 
848 0.729176 0.265518 0.00373052 0.00081286 0.000309256 0.000191721 0.000105141 7.50766e-05 3.50535e-05 4.58757e-05 
849 0.096677 0.532413 0.139397 0.146507 0.0337857 0.0189288 0.0142683 0.00720808 0.00458209 0.00623312 
850 0.0700277 0.59072 0.130451 0.0915348 0.0431812 0.0329703 0.0153437 0.01235 0.00554745 0.00787365 
851 0.114656 0.619015 0.125135 0.0540494 0.0305037 0.0240369 0.0137264 0.00799785 0.00521024 0.00566992 
852 0.223805 0.678373 0.0481577 0.0222426 0.00990009 0.00704745 0.0044796 0.00267855 0.00149497 0.00182053 
853 0.0976028 0.599659 0.130907 0.0601355 0.0417958 0.032461 0.0165429 0.00835719 0.00531257 0.0072268 
854 0.103601 0.59167 0.137708 0.0638361 0.0401447 0.023297 0.0175609 0.00887148 0.0056395 0.00767153 
855 0.0591679 0.594719 0.142496 0.0774224 0.0485118 0.0260815 0.0177249 0.0166875 0.00868561 0.00850319 
856 0.120665 0.614515 0.120345 0.049382 0.0283555 0.0223441 0.0127598 0.00743462 0.00571455 0.0184839 
857 0.103601 0.576287 0.137707 0.0791662 0.0401988 0.023297 0.0175609 0.00887148 0.0056395 0.00767153 
858 0.102066 0.583523 0.149821 0.0629686 0.0395365 0.022944 0.0172949 0.00873707 0.00555405 0.00755529 
859 0.0423992 0.414678 0.285315 0.10583 0.0516516 0.0364163 0.0347567 0.0160461 0.00369197 0.00921397 
860 0.114656 0.634169 0.112994 0.0510365 0.0305037 0.0240369 0.0137264 0.00799785 0.00521024 0.00566992 
861 0.103601 0.591672 0.137706 0.0638361 0.0401447 0.023297 0.0175609 0.00887148 0.0056395 0.00767153 
862 0.158335 0.561888 0.0921389 0.0841075 0.0541434 0.0260915 0.00872914 0.00698043 0.00313552 0.00445032 
863 0.292441 0.566746 0.0592186 0.0387951 0.020162 0.014967 0.0031158 0.001953 0.00114609 0.00145552 
864 0.143525 0.639846 0.118756 0.0445758 0.0192424 0.0136979 0.00870683 0.0052062 0.00290572 0.0035385 
865 0.111315 0.796797 0.0565603 0.0126624 0.0103127 0.00550244 0.00292979 0.00175185 0.000977755 0.00119068 
866 0.102031 0.582894 0.14445 0.0690037 0.0395365 0.022944 0.0172949 0.00873707 0.00555405 0.00755529 
867 0.16881 0.645804 0.093771 0.0342806 0.0207002 0.0147356 0.00936644 0.00560061 0.00312585 0.00380657 
868 0.103601 0.576287 0.138458 0.0784676 0.0401465 0.023297 0.0175609 0.00887148 0.0056395 0.00767153 
869 0.156774 0.652425 0.089497 0.037997 0.0261091 0.0149623 0.00951054 0.00568677 0.00317394 0.00386514 
870 0.326689 0.576773 0.049313 0.0174517 0.0107331 0.00759784 0.00450475 0.00297457 0.00174559 0.00221686 
871 0.108104 0.6265 0.120825 0.0481201 0.0287606 0.0226633 0.012942 0.00754083 0.00514114 0.019403 
872 0.194566 0.673356 0.0797149 0.0270484 0.0150009 0.00411551 0.00244008 0.00161123 0.000945526 0.0012008 
873 0.102261 0.606704 0.154216 0.0455817 0.027206 0.0214383 0.0122511 0.0206381 0.00464698 0.00505696 
874 0.103601 0.591646 0.137732 0.0638361 0.0401447 0.023297 0.0175609 0.00887148 0.0056395 0.00767153 
875 0.0700277 0.577037 0.128749 0.0916692 0.0584278 0.0329739 0.0153437 0.01235 0.00554745 0.00787365 
876 0.108473 0.668971 0.107052 0.0426987 0.0254841 0.0200814 0.0114676 0.00668175 0.00435286 0.00473689 
877 0.091783 0.611688 0.12292 0.0694595 0.0371998 0.0312585 0.0162075 0.00779252 0.00495361 0.00673851 
878 0.026718 0.388641 0.243343 0.0874053 0.103544 0.0830185 0.0301547 0.0138149 0.00606146 0.0172988 
879 0.109272 0.752794 0.0571662 0.0336561 0.0172599 0.0067347 0.0175258 0.00250035 0.00139396 0.00169753 
880 0.0977935 0.575018 0.177106 0.0525246 0.0330305 0.0192517 0.0270108 0.00731232 0.00464009 0.00631202 
881 0.147685 0.657988 0.0935924 0.0458915 0.0198009 0.0140949 0.0089592 0.0053571 0.00298995 0.00364107 
882 0.138392 0.630675 0.073025 0.0494619 0.0555842 0.0347003 0.00794982 0.00456346 0.00254699 0.00310165 
883 0.11642 0.628516 0.114757 0.0518217 0.030973 0.0244067 0.0139376 0.00812089 0.0052904 0.00575715 
884 0.316937 0.589489 0.0477588 0.0169308 0.0104127 0.00737104 0.00437028 0.00288578 0.00169348 0.00215069 
885 0.0700277 0.577037 0.128826 0.105571 0.0444526 0.0329703 0.0153437 0.01235 0.00554745 0.00787365 
886 0.103427 0.666992 0.109667 0.0384236 0.0411953 0.0171571 0.00974132 0.00567589 0.00369759 0.00402381 
887 0.100723 0.655244 0.12433 0.0495736 0.0307786 0.0166993 0.00953624 0.0055564 0.00361975 0.0039391 
888 0.0968898 0.555997 0.220107 0.0396621 0.0334995 0.0180277 0.0102948 0.00599839 0.00390772 0.015616 
889 0.272241 0.590789 0.0718269 0.0146914 0.0108097 0.0173896 0.0164714 0.00247881 0.00145466 0.00184738 
890 0.45981 0.436605 0.0530399 0.0153111 0.00935114 0.0110349 0.00918359 0.00240069 0.00156307 0.00170098 
891 0.0821681 0.660261 0.135052 0.0341195 0.0203358 0.0160247 0.0190765 0.0155122 0.0136705 0.00378011 
892 0.179126 0.696362 0.0753434 0.0198141 0.00875325 0.00689754 0.00459315 0.00578203 0.00170167 0.00162702 
893 0.11642 0.613156 0.130116 0.0518219 0.030973 0.0244067 0.0139376 0.00812089 0.0052904 0.00575715 
894 0.242198 0.664883 0.0464714 0.0267218 0.00829612 0.00760443 0.00157019 0.000966736 0.000567316 0.00072048 
895 0.294945 0.605866 0.0565087 0.0158019 0.00968958 0.00685916 0.00406679 0.00268538 0.00157588 0.00200133 
896 0.116425 0.628512 0.114756 0.0518217 0.030973 0.0244067 0.0139376 0.00812089 0.0052904 0.00575715 
897 0.118395 0.717226 0.0688966 0.0435031 0.0163676 0.0202359 0.00657645 0.00393234 0.00219475 0.0026727 
898 0.279406 0.572198 0.0422181 0.0149258 0.0091796 0.00649815 0.00385275 0.00254404 0.0097426 0.0594356 
899 0.110361 0.68965 0.0864822 0.0409096 0.0232323 0.0262263 0.00974169 0.00567589 0.00369759 0.00402381 
900 0.152536 0.69505 0.0768351 0.0301923 0.0157368 0.0130509 0.0109873 0.00254118 0.00138461 0.00168613 
901 0.156774 0.660613 0.091066 0.0333304 0.0210186 0.0149623 0.00951054 0.00568677 0.00317394 0.00386514 
902 0.0380799 0.893977 0.0256506 0.0181373 0.00787205 0.00874081 0.00285009 0.0022486 0.00101004 0.00143358 
903 0.137218 0.80001 0.0467112 0.00692991 0.00357276 0.00223574 0.00142111 0.000849747 0.000474267 0.000577549 
904 0.229523 0.675846 0.0559135 0.0187667 0.00719226 0.00509133 0.00301865 0.00199327 0.00116972 0.00148553 
905 0.121415 0.696934 0.082553 0.0323715 0.0379412 0.0115785 0.00735934 0.00440048 0.00245603 0.00299088 
906 0.278642 0.560289 0.101563 0.0209246 0.0068399 0.0153516 0.0119685 0.00189564 0.00111238 0.00141271 
907 0.138656 0.592104 0.108081 0.0778022 0.0291782 0.0229918 0.0131296 0.00765012 0.00498371 0.0054234 
908 0.319773 0.544163 0.03884 0.013667 0.00889034 0.0655907 0.00364326 0.00232948 0.00136703 0.0017361 
909 0.107876 0.765327 0.0824296 0.0124416 0.0144734 0.0116235 0.00249348 0.00149048 0.00083188 0.00101304 
910 0.130685 0.633827 0.120066 0.0284457 0.0431288 0.0124962 0.00817744 0.0172993 0.00265315 0.00322095 
911 0.153096 0.531388 0.16979 0.0741677 0.0300088 0.01764 0.010066 0.00586509 0.00382084 0.00415794 
912 0.142279 0.672698 0.0770288 0.0468263 0.0318979 0.011856 0.00744801 0.00445349 0.00248562 0.00302691 
913 0.734706 0.253846 0.0064289 0.00244954 0.000449566 0.000532816 0.00126875 0.000183776 5.80063e-05 7.59149e-05 
914 0.560246 0.39264 0.0254942 0.00815827 0.00504555 0.00356306 0.001954 0.00139527 0.000651456 0.000852583 
915 0.103601 0.586976 0.142402 0.0638361 0.0401447 0.023297 0.0175609 0.00887148 0.0056395 0.00767153 
916 0.177104 0.571412 0.0738962 0.112826 0.0162705 0.0213016 0.00688834 0.00410711 0.00229286 0.0139018 
917 0.0591679 0.593951 0.143264 0.0774224 0.0485118 0.0260815 0.0177249 0.0166875 0.00868561 0.00850319 
918 0.108782 0.677737 0.0976701 0.0518992 0.0192103 0.0149778 0.0179692 0.0049798 0.00324411 0.00353033 
919 0.623634 0.291488 0.0384208 0.00566798 0.024377 0.00256525 0.00133695 0.000954659 0.000540448 0.0110149 
920 0.0632199 0.576848 0.157055 0.0970124 0.038983 0.0297649 0.0138519 0.0111493 0.00500812 0.00710815 
921 0.0650258 0.592962 0.135893 0.0972291 0.0400968 0.0306153 0.0142477 0.0114679 0.00515121 0.00731124 
922 0.0659682 0.616 0.121335 0.0862284 0.0406779 0.031059 0.0144542 0.0116341 0.00522586 0.0074172 
923 0.326745 0.576538 0.0494926 0.0174517 0.0107331 0.00759784 0.00450475 0.00297457 0.00174559 0.00221686 
924 0.0591679 0.579603 0.152959 0.0820757 0.0485118 0.0260815 0.0177249 0.0166875 0.00868561 0.00850319 
925 0.581928 0.38097 0.0148564 0.0073279 0.00578582 0.00324479 0.00238317 0.00156243 0.00102322 0.000918654 
926 0.605729 0.325093 0.0226093 0.00643776 0.00536029 0.0160819 0.00210214 0.0148801 0.00089936 0.000806926 
927 0.0437999 0.686216 0.139416 0.0486507 0.0367132 0.0167355 0.0101385 0.0115667 0.00279619 0.00396734 
928 0.11354 0.860339 0.0133318 0.0047265 0.00290687 0.00205775 0.00122004 0.000805613 0.000472763 0.0006004 
