0 2 6.77828e-05
0 3 6.77828e-05
0 4 6.77828e-05
0 5 6.77828e-05
0 6 6.77828e-05
0 7 6.77828e-05
0 8 6.77828e-05
0 9 6.77828e-05
0 10 6.77828e-05
0 11 6.77828e-05
0 12 6.77828e-05
0 13 6.77828e-05
0 14 6.77828e-05
0 15 6.77828e-05
0 16 6.77828e-05
0 17 6.77828e-05
0 18 6.77828e-05
0 19 6.77828e-05
0 20 6.77828e-05
0 21 6.77828e-05
0 22 6.77828e-05
0 23 6.77828e-05
0 24 6.77828e-05
0 25 6.77828e-05
0 26 6.77828e-05
0 27 6.77828e-05
0 28 6.77828e-05
0 29 6.77828e-05
0 30 6.77828e-05
0 31 6.77828e-05
0 32 6.77828e-05
0 33 6.77828e-05
0 34 6.77828e-05
0 35 6.77828e-05
0 36 6.77828e-05
0 37 6.77828e-05
0 38 6.77828e-05
0 39 6.77828e-05
0 40 6.77828e-05
0 41 6.77828e-05
0 42 6.77828e-05
0 43 6.77828e-05
0 44 6.77828e-05
0 45 6.77828e-05
0 46 6.77828e-05
0 47 6.77828e-05
0 48 6.77828e-05
0 49 6.77828e-05
0 50 6.77828e-05
0 51 6.77828e-05
0 52 6.77828e-05
0 53 6.77828e-05
0 54 6.77828e-05
0 55 6.77828e-05
0 56 6.77828e-05
0 57 6.77828e-05
0 58 6.77828e-05
0 59 6.77828e-05
0 60 6.77828e-05
0 61 6.77828e-05
0 62 6.77828e-05
0 63 6.77828e-05
0 64 6.77828e-05
0 65 6.77828e-05
0 66 6.77828e-05
0 67 6.77828e-05
0 68 6.77828e-05
0 69 6.77828e-05
0 70 6.77828e-05
0 71 6.77828e-05
0 72 6.77828e-05
0 73 6.77828e-05
0 74 6.77828e-05
0 75 6.77828e-05
0 76 6.77828e-05
0 77 6.77828e-05
0 78 6.77828e-05
0 79 6.77828e-05
0 80 6.77828e-05
0 81 6.77828e-05
0 82 6.77828e-05
0 83 6.77828e-05
0 84 6.77828e-05
0 85 6.77828e-05
0 86 6.77828e-05
0 87 6.77828e-05
0 88 6.77828e-05
0 89 6.77828e-05
0 90 6.77828e-05
0 91 6.77828e-05
0 92 6.77828e-05
0 93 6.77828e-05
0 94 6.77828e-05
0 95 6.77828e-05
0 96 6.77828e-05
0 97 6.77828e-05
0 98 6.77828e-05
0 99 6.77828e-05
0 100 6.77828e-05
0 101 6.77828e-05
0 102 6.77828e-05
0 103 6.77828e-05
0 104 6.77828e-05
0 105 6.77828e-05
0 106 6.77828e-05
0 107 6.77828e-05
0 108 6.77828e-05
0 109 6.77828e-05
0 110 6.77828e-05
0 111 6.77828e-05
0 112 6.77828e-05
0 113 6.77828e-05
0 114 6.77828e-05
0 115 6.77828e-05
0 116 6.77828e-05
0 117 6.77828e-05
0 118 6.77828e-05
0 119 6.77828e-05
0 120 6.77828e-05
0 121 6.77828e-05
0 122 6.77828e-05
0 123 6.77828e-05
0 124 6.77828e-05
0 125 6.77828e-05
0 126 6.77828e-05
0 127 6.77828e-05
0 128 6.77828e-05
0 129 6.77828e-05
0 130 6.77828e-05
0 131 6.77828e-05
0 132 6.77828e-05
0 133 6.77828e-05
0 134 6.77828e-05
0 135 6.77828e-05
0 136 6.77828e-05
0 137 6.77828e-05
0 138 6.77828e-05
0 139 6.77828e-05
0 140 6.77828e-05
0 141 6.77828e-05
0 142 6.77828e-05
0 143 6.77828e-05
0 144 6.77828e-05
0 145 6.77828e-05
0 146 6.77828e-05
0 147 6.77828e-05
0 148 6.77828e-05
0 149 6.77828e-05
0 150 6.77828e-05
0 151 6.77828e-05
0 152 6.77828e-05
0 153 6.77828e-05
0 154 6.77828e-05
0 155 6.77828e-05
0 156 6.77828e-05
0 157 6.77828e-05
0 158 6.77828e-05
0 159 6.77828e-05
0 160 6.77828e-05
0 161 6.77828e-05
0 162 6.77828e-05
0 163 6.77828e-05
0 164 6.77828e-05
0 165 6.77828e-05
0 166 6.77828e-05
0 167 6.77828e-05
0 168 6.77828e-05
0 169 6.77828e-05
0 170 6.77828e-05
0 171 6.77828e-05
0 172 6.77828e-05
0 173 6.77828e-05
0 174 6.77828e-05
0 175 6.77828e-05
0 176 6.77828e-05
0 177 6.77828e-05
0 178 6.77828e-05
0 179 6.77828e-05
0 180 6.77828e-05
0 181 6.77828e-05
0 182 6.77828e-05
0 183 6.77828e-05
0 184 6.77828e-05
0 185 6.77828e-05
0 186 6.77828e-05
0 187 6.77828e-05
0 188 6.77828e-05
0 189 6.77828e-05
0 190 6.77828e-05
0 191 6.77828e-05
0 192 6.77828e-05
0 193 6.77828e-05
0 194 6.77828e-05
0 195 6.77828e-05
0 196 6.77828e-05
0 197 6.77828e-05
0 198 6.77828e-05
0 199 6.77828e-05
0 200 6.77828e-05
0 201 6.77828e-05
0 202 6.77828e-05
0 203 6.77828e-05
0 204 6.77828e-05
0 205 6.77828e-05
0 206 6.77828e-05
0 207 6.77828e-05
0 208 6.77828e-05
0 209 6.77828e-05
0 210 6.77828e-05
0 211 6.77828e-05
0 212 6.77828e-05
0 213 6.77828e-05
0 214 6.77828e-05
0 215 6.77828e-05
0 216 6.77828e-05
0 217 6.77828e-05
0 218 6.77828e-05
0 219 6.77828e-05
0 220 6.77828e-05
0 221 6.77828e-05
0 222 6.77828e-05
0 223 6.77828e-05
0 224 6.77828e-05
0 225 6.77828e-05
0 226 6.77828e-05
0 227 6.77828e-05
0 228 6.77828e-05
0 229 6.77828e-05
0 230 6.77828e-05
0 231 6.77828e-05
0 232 6.77828e-05
0 233 6.77828e-05
0 234 6.77828e-05
0 235 6.77828e-05
0 236 6.77828e-05
0 237 6.77828e-05
0 238 6.77828e-05
0 239 6.77828e-05
0 240 6.77828e-05
0 241 6.77828e-05
0 242 6.77828e-05
0 243 6.77828e-05
0 244 6.77828e-05
0 245 6.77828e-05
0 246 6.77828e-05
0 247 6.77828e-05
0 248 6.77828e-05
0 249 6.77828e-05
0 250 6.77828e-05
0 251 6.77828e-05
0 252 6.77828e-05
0 253 6.77828e-05
0 254 6.77828e-05
0 255 6.77828e-05
0 256 6.77828e-05
0 257 6.77828e-05
0 258 6.77828e-05
0 259 6.77828e-05
0 260 6.77828e-05
0 261 6.77828e-05
0 262 6.77828e-05
0 263 6.77828e-05
0 264 6.77828e-05
0 265 6.77828e-05
0 266 6.77828e-05
0 267 6.77828e-05
0 268 6.77828e-05
0 269 6.77828e-05
0 270 6.77828e-05
0 271 6.77828e-05
0 272 6.77828e-05
0 273 6.77828e-05
0 274 6.77828e-05
0 275 6.77828e-05
0 276 6.77828e-05
0 277 6.77828e-05
0 278 6.77828e-05
0 279 6.77828e-05
0 280 6.77828e-05
0 281 6.77828e-05
0 282 6.77828e-05
0 283 6.77828e-05
0 284 6.77828e-05
0 285 6.77828e-05
0 286 6.77828e-05
0 287 6.77828e-05
0 288 6.77828e-05
0 289 6.77828e-05
0 290 6.77828e-05
0 291 6.77828e-05
0 292 6.77828e-05
0 293 6.77828e-05
0 294 6.77828e-05
0 295 6.77828e-05
0 296 6.77828e-05
0 297 6.77828e-05
0 298 6.77828e-05
0 299 6.77828e-05
0 300 6.77828e-05
0 301 6.77828e-05
0 302 6.77828e-05
0 303 6.77828e-05
0 304 6.77828e-05
0 305 6.77828e-05
0 306 6.77828e-05
0 307 6.77828e-05
0 308 6.77828e-05
0 309 6.77828e-05
0 310 6.77828e-05
0 311 6.77828e-05
0 312 6.77828e-05
0 313 6.77828e-05
0 314 6.77828e-05
0 315 6.77828e-05
0 316 6.77828e-05
0 317 6.77828e-05
0 318 6.77828e-05
0 319 6.77828e-05
0 320 6.77828e-05
0 321 6.77828e-05
0 322 6.77828e-05
0 323 6.77828e-05
0 324 6.77828e-05
0 325 6.77828e-05
0 326 6.77828e-05
0 327 6.77828e-05
0 328 6.77828e-05
0 329 6.77828e-05
0 330 6.77828e-05
0 331 6.77828e-05
0 332 6.77828e-05
0 333 6.77828e-05
0 334 6.77828e-05
0 335 6.77828e-05
0 336 6.77828e-05
0 337 6.77828e-05
0 338 6.77828e-05
0 339 6.77828e-05
0 340 6.77828e-05
0 341 6.77828e-05
0 342 6.77828e-05
0 343 6.77828e-05
0 344 6.77828e-05
0 345 6.77828e-05
0 346 6.77828e-05
0 347 6.77828e-05
0 348 6.77828e-05
0 349 6.77828e-05
0 350 6.77828e-05
0 351 6.77828e-05
0 352 6.77828e-05
0 353 6.77828e-05
0 354 6.77828e-05
0 355 6.77828e-05
0 356 6.77828e-05
0 357 6.77828e-05
0 358 6.77828e-05
0 359 6.77828e-05
0 360 6.77828e-05
0 361 6.77828e-05
0 362 6.77828e-05
0 363 6.77828e-05
0 364 6.77828e-05
0 365 6.77828e-05
0 366 6.77828e-05
0 367 6.77828e-05
0 368 6.77828e-05
0 369 6.77828e-05
0 370 6.77828e-05
0 371 6.77828e-05
0 372 6.77828e-05
0 373 6.77828e-05
0 374 6.77828e-05
0 375 6.77828e-05
0 376 6.77828e-05
0 377 6.77828e-05
0 378 6.77828e-05
0 379 6.77828e-05
0 380 6.77828e-05
0 381 6.77828e-05
0 382 6.77828e-05
0 383 6.77828e-05
0 384 6.77828e-05
0 385 6.77828e-05
0 386 6.77828e-05
0 387 6.77828e-05
0 388 6.77828e-05
0 389 6.77828e-05
0 390 6.77828e-05
0 391 6.77828e-05
0 392 6.77828e-05
0 393 6.77828e-05
0 394 6.77828e-05
0 395 6.77828e-05
0 396 6.77828e-05
0 397 6.77828e-05
0 398 6.77828e-05
0 399 6.77828e-05
0 400 6.77828e-05
0 401 6.77828e-05
0 402 6.77828e-05
0 403 6.77828e-05
0 404 6.77828e-05
0 405 6.77828e-05
0 406 6.77828e-05
0 407 6.77828e-05
0 408 6.77828e-05
0 409 6.77828e-05
0 410 6.77828e-05
0 411 6.77828e-05
0 412 6.77828e-05
0 413 6.77828e-05
0 414 6.77828e-05
0 415 6.77828e-05
0 416 6.77828e-05
0 417 6.77828e-05
0 418 6.77828e-05
0 419 6.77828e-05
0 420 6.77828e-05
0 421 6.77828e-05
0 422 6.77828e-05
0 423 6.77828e-05
0 424 6.77828e-05
0 425 6.77828e-05
0 426 6.77828e-05
0 427 6.77828e-05
0 428 6.77828e-05
0 429 6.77828e-05
0 430 6.77828e-05
0 431 6.77828e-05
0 432 6.77828e-05
0 433 6.77828e-05
0 434 6.77828e-05
0 435 6.77828e-05
0 436 6.77828e-05
0 437 6.77828e-05
0 438 6.77828e-05
0 439 6.77828e-05
0 440 6.77828e-05
0 441 6.77828e-05
0 442 6.77828e-05
0 443 6.77828e-05
0 444 6.77828e-05
0 445 6.77828e-05
0 446 6.77828e-05
0 447 6.77828e-05
0 448 6.77828e-05
0 449 6.77828e-05
0 450 6.77828e-05
0 451 6.77828e-05
0 452 6.77828e-05
0 453 6.77828e-05
0 454 6.77828e-05
0 455 6.77828e-05
0 456 6.77828e-05
0 457 6.77828e-05
0 458 6.77828e-05
0 459 6.77828e-05
0 460 6.77828e-05
0 461 6.77828e-05
0 462 6.77828e-05
0 463 6.77828e-05
0 464 6.77828e-05
0 465 6.77828e-05
0 466 6.77828e-05
0 467 6.77828e-05
0 468 6.77828e-05
0 469 6.77828e-05
0 470 6.77828e-05
0 471 6.77828e-05
0 472 6.77828e-05
0 473 6.77828e-05
0 474 6.77828e-05
0 475 6.77828e-05
0 476 6.77828e-05
0 477 6.77828e-05
0 478 6.77828e-05
0 479 6.77828e-05
0 480 6.77828e-05
0 481 6.77828e-05
0 482 6.77828e-05
0 483 6.77828e-05
0 484 6.77828e-05
0 485 6.77828e-05
0 486 6.77828e-05
0 487 6.77828e-05
0 488 6.77828e-05
0 489 6.77828e-05
0 490 6.77828e-05
0 491 6.77828e-05
0 492 6.77828e-05
0 493 6.77828e-05
0 494 6.77828e-05
0 495 6.77828e-05
0 496 6.77828e-05
0 497 6.77828e-05
0 498 6.77828e-05
0 499 6.77828e-05
0 500 6.77828e-05
0 501 6.77828e-05
0 502 6.77828e-05
0 503 6.77828e-05
0 504 6.77828e-05
0 505 6.77828e-05
0 506 6.77828e-05
0 507 6.77828e-05
0 508 6.77828e-05
0 509 6.77828e-05
0 510 6.77828e-05
0 511 6.77828e-05
0 512 6.77828e-05
0 513 6.77828e-05
0 514 6.77828e-05
0 515 6.77828e-05
0 516 6.77828e-05
0 517 6.77828e-05
0 518 6.77828e-05
0 519 6.77828e-05
0 520 6.77828e-05
0 521 6.77828e-05
0 522 6.77828e-05
0 523 6.77828e-05
0 524 6.77828e-05
0 525 6.77828e-05
0 526 6.77828e-05
0 527 6.77828e-05
0 528 6.77828e-05
0 529 6.77828e-05
0 530 6.77828e-05
0 531 6.77828e-05
0 532 6.77828e-05
0 533 6.77828e-05
0 534 6.77828e-05
0 535 6.77828e-05
0 536 6.77828e-05
0 537 6.77828e-05
0 538 6.77828e-05
0 539 6.77828e-05
0 540 6.77828e-05
0 541 6.77828e-05
0 542 6.77828e-05
0 543 6.77828e-05
0 544 6.77828e-05
0 545 6.77828e-05
0 546 6.77828e-05
0 547 6.77828e-05
0 548 6.77828e-05
0 549 6.77828e-05
0 550 6.77828e-05
0 551 6.77828e-05
0 552 6.77828e-05
0 553 6.77828e-05
0 554 6.77828e-05
0 555 6.77828e-05
0 556 6.77828e-05
0 557 6.77828e-05
0 558 6.77828e-05
0 559 6.77828e-05
0 560 6.77828e-05
0 561 6.77828e-05
0 562 6.77828e-05
0 563 6.77828e-05
0 564 6.77828e-05
0 565 6.77828e-05
0 566 6.77828e-05
0 567 6.77828e-05
0 568 6.77828e-05
0 569 6.77828e-05
0 570 6.77828e-05
0 571 6.77828e-05
0 572 6.77828e-05
0 573 6.77828e-05
0 574 6.77828e-05
0 575 6.77828e-05
0 576 6.77828e-05
0 577 6.77828e-05
0 578 6.77828e-05
0 579 6.77828e-05
0 580 6.77828e-05
0 581 6.77828e-05
0 582 6.77828e-05
0 583 6.77828e-05
0 584 6.77828e-05
0 585 6.77828e-05
0 586 6.77828e-05
0 587 6.77828e-05
0 588 6.77828e-05
0 589 6.77828e-05
0 590 6.77828e-05
0 591 6.77828e-05
0 592 6.77828e-05
0 593 6.77828e-05
0 594 6.77828e-05
0 595 6.77828e-05
0 596 6.77828e-05
0 597 6.77828e-05
0 598 6.77828e-05
0 599 6.77828e-05
0 600 6.77828e-05
0 601 6.77828e-05
0 602 6.77828e-05
0 603 6.77828e-05
0 604 6.77828e-05
0 605 6.77828e-05
0 606 6.77828e-05
0 607 6.77828e-05
0 608 6.77828e-05
0 609 6.77828e-05
0 610 6.77828e-05
0 611 6.77828e-05
0 612 6.77828e-05
0 613 6.77828e-05
0 614 6.77828e-05
0 615 6.77828e-05
0 616 6.77828e-05
0 617 6.77828e-05
0 618 6.77828e-05
0 619 6.77828e-05
0 620 6.77828e-05
0 621 6.77828e-05
0 622 6.77828e-05
0 623 6.77828e-05
0 624 6.77828e-05
0 625 6.77828e-05
0 626 6.77828e-05
0 627 6.77828e-05
0 628 6.77828e-05
0 629 6.77828e-05
0 630 6.77828e-05
0 631 6.77828e-05
0 632 6.77828e-05
0 633 6.77828e-05
0 634 6.77828e-05
0 635 6.77828e-05
0 636 6.77828e-05
0 637 6.77828e-05
0 638 6.77828e-05
0 639 6.77828e-05
0 640 6.77828e-05
0 641 6.77828e-05
0 642 6.77828e-05
0 643 6.77828e-05
0 644 6.77828e-05
0 645 6.77828e-05
0 646 6.77828e-05
0 647 6.77828e-05
0 648 6.77828e-05
0 649 6.77828e-05
0 650 6.77828e-05
0 651 6.77828e-05
0 652 6.77828e-05
0 653 6.77828e-05
0 654 6.77828e-05
0 655 6.77828e-05
0 656 6.77828e-05
0 657 6.77828e-05
0 658 6.77828e-05
0 659 6.77828e-05
0 660 6.77828e-05
0 661 6.77828e-05
0 662 6.77828e-05
0 663 6.77828e-05
0 664 6.77828e-05
0 665 6.77828e-05
0 666 6.77828e-05
0 667 6.77828e-05
0 668 6.77828e-05
0 669 6.77828e-05
0 670 6.77828e-05
0 671 6.77828e-05
0 672 6.77828e-05
0 673 6.77828e-05
0 674 6.77828e-05
0 675 6.77828e-05
0 676 6.77828e-05
0 677 6.77828e-05
0 678 6.77828e-05
0 679 6.77828e-05
0 680 6.77828e-05
0 681 6.77828e-05
0 682 6.77828e-05
0 683 6.77828e-05
0 684 6.77828e-05
0 685 6.77828e-05
0 686 6.77828e-05
0 687 6.77828e-05
0 688 6.77828e-05
0 689 6.77828e-05
0 690 6.77828e-05
0 691 6.77828e-05
0 692 6.77828e-05
0 693 6.77828e-05
0 694 6.77828e-05
0 695 6.77828e-05
0 696 6.77828e-05
0 697 6.77828e-05
0 698 6.77828e-05
0 699 6.77828e-05
0 700 6.77828e-05
0 701 6.77828e-05
0 702 6.77828e-05
0 703 6.77828e-05
0 704 6.77828e-05
0 705 6.77828e-05
0 706 6.77828e-05
0 707 6.77828e-05
0 708 6.77828e-05
0 709 6.77828e-05
0 710 6.77828e-05
0 711 6.77828e-05
0 712 6.77828e-05
0 713 6.77828e-05
0 714 6.77828e-05
0 715 6.77828e-05
0 716 6.77828e-05
0 717 6.77828e-05
0 718 6.77828e-05
0 719 6.77828e-05
0 720 6.77828e-05
0 721 6.77828e-05
0 722 6.77828e-05
0 723 6.77828e-05
0 724 6.77828e-05
0 725 6.77828e-05
0 726 6.77828e-05
0 727 6.77828e-05
0 728 6.77828e-05
0 729 6.77828e-05
0 730 6.77828e-05
0 731 6.77828e-05
0 732 6.77828e-05
0 733 6.77828e-05
0 734 6.77828e-05
0 735 6.77828e-05
0 736 6.77828e-05
0 737 6.77828e-05
0 738 6.77828e-05
0 739 6.77828e-05
0 740 6.77828e-05
0 741 6.77828e-05
0 742 6.77828e-05
0 743 6.77828e-05
0 744 6.77828e-05
0 745 6.77828e-05
0 746 6.77828e-05
0 747 6.77828e-05
0 748 6.77828e-05
0 749 6.77828e-05
0 750 6.77828e-05
0 751 6.77828e-05
0 752 6.77828e-05
0 753 6.77828e-05
0 754 6.77828e-05
0 755 6.77828e-05
0 756 6.77828e-05
0 757 6.77828e-05
0 758 6.77828e-05
0 759 6.77828e-05
0 760 6.77828e-05
0 761 6.77828e-05
0 762 6.77828e-05
0 763 6.77828e-05
0 764 6.77828e-05
0 765 6.77828e-05
0 766 6.77828e-05
0 767 6.77828e-05
0 768 6.77828e-05
0 769 6.77828e-05
0 770 6.77828e-05
0 771 6.77828e-05
0 772 6.77828e-05
0 773 6.77828e-05
0 774 6.77828e-05
0 775 6.77828e-05
0 776 6.77828e-05
0 777 6.77828e-05
0 778 6.77828e-05
0 779 6.77828e-05
0 780 6.77828e-05
0 781 6.77828e-05
0 782 6.77828e-05
0 783 6.77828e-05
0 784 6.77828e-05
0 785 6.77828e-05
0 786 6.77828e-05
0 787 6.77828e-05
0 788 6.77828e-05
0 789 6.77828e-05
0 790 6.77828e-05
0 791 6.77828e-05
0 792 6.77828e-05
0 793 6.77828e-05
0 794 6.77828e-05
0 795 6.77828e-05
0 796 6.77828e-05
0 797 6.77828e-05
0 798 6.77828e-05
0 799 6.77828e-05
0 800 6.77828e-05
0 801 6.77828e-05
0 802 6.77828e-05
0 803 6.77828e-05
0 804 6.77828e-05
0 805 6.77828e-05
0 806 6.77828e-05
0 807 6.77828e-05
0 808 6.77828e-05
0 809 6.77828e-05
0 810 6.77828e-05
0 811 6.77828e-05
0 812 6.77828e-05
0 813 6.77828e-05
0 814 6.77828e-05
0 815 6.77828e-05
0 816 6.77828e-05
0 817 6.77828e-05
0 818 6.77828e-05
0 819 6.77828e-05
0 820 6.77828e-05
0 821 6.77828e-05
0 822 6.77828e-05
0 823 6.77828e-05
0 824 6.77828e-05
0 825 6.77828e-05
0 826 6.77828e-05
0 827 6.77828e-05
0 828 6.77828e-05
0 829 6.77828e-05
0 830 6.77828e-05
0 831 6.77828e-05
0 832 6.77828e-05
0 833 6.77828e-05
0 834 6.77828e-05
0 835 6.77828e-05
0 836 6.77828e-05
0 837 6.77828e-05
0 838 6.77828e-05
0 839 6.77828e-05
0 840 6.77828e-05
0 841 6.77828e-05
0 842 6.77828e-05
0 843 6.77828e-05
0 844 6.77828e-05
0 845 6.77828e-05
0 846 6.77828e-05
0 847 6.77828e-05
0 848 6.77828e-05
0 849 6.77828e-05
0 850 6.77828e-05
0 851 6.77828e-05
0 852 6.77828e-05
0 853 6.77828e-05
0 854 6.77828e-05
0 855 6.77828e-05
0 856 6.77828e-05
0 857 6.77828e-05
0 858 6.77828e-05
0 859 6.77828e-05
0 860 6.77828e-05
0 861 6.77828e-05
0 862 6.77828e-05
0 863 6.77828e-05
0 864 6.77828e-05
0 865 6.77828e-05
0 866 6.77828e-05
0 867 6.77828e-05
0 868 6.77828e-05
0 869 6.77828e-05
0 870 6.77828e-05
0 871 6.77828e-05
0 872 6.77828e-05
0 873 6.77828e-05
0 874 6.77828e-05
0 875 6.77828e-05
0 876 6.77828e-05
0 877 6.77828e-05
0 878 6.77828e-05
0 879 6.77828e-05
0 880 6.77828e-05
0 881 6.77828e-05
0 882 6.77828e-05
0 883 6.77828e-05
0 884 6.77828e-05
0 885 6.77828e-05
0 886 6.77828e-05
0 887 6.77828e-05
0 888 6.77828e-05
0 889 6.77828e-05
0 890 6.77828e-05
0 891 6.77828e-05
0 892 6.77828e-05
0 893 6.77828e-05
0 894 6.77828e-05
0 895 6.77828e-05
0 896 6.77828e-05
0 897 6.77828e-05
0 898 6.77828e-05
0 899 6.77828e-05
0 900 6.77828e-05
0 901 6.77828e-05
0 902 6.77828e-05
0 903 6.77828e-05
0 904 6.77828e-05
0 905 6.77828e-05
0 906 6.77828e-05
0 907 6.77828e-05
0 908 6.77828e-05
0 909 6.77828e-05
0 910 6.77828e-05
0 911 6.77828e-05
0 912 6.77828e-05
0 913 6.77828e-05
0 914 6.77828e-05
0 915 6.77828e-05
0 916 6.77828e-05
0 917 6.77828e-05
0 918 6.77828e-05
0 919 6.77828e-05
0 920 6.77828e-05
0 921 6.77828e-05
0 922 6.77828e-05
0 923 6.77828e-05
0 924 6.77828e-05
0 925 6.77828e-05
0 926 6.77828e-05
0 927 6.77828e-05
0 928 6.77828e-05
0 929 6.77828e-05
0 930 6.77828e-05
0 931 6.77828e-05
0 932 6.77828e-05
0 933 6.77828e-05
0 934 6.77828e-05
0 935 6.77828e-05
0 936 6.77828e-05
0 937 6.77828e-05
0 938 6.77828e-05
0 939 6.77828e-05
0 940 6.77828e-05
0 941 6.77828e-05
0 942 6.77828e-05
0 943 6.77828e-05
0 944 6.77828e-05
0 945 6.77828e-05
0 946 6.77828e-05
0 947 6.77828e-05
0 948 6.77828e-05
0 949 6.77828e-05
0 950 6.77828e-05
0 951 6.77828e-05
0 952 6.77828e-05
0 953 6.77828e-05
0 954 6.77828e-05
0 955 6.77828e-05
0 956 6.77828e-05
0 957 6.77828e-05
0 958 6.77828e-05
0 959 6.77828e-05
0 960 6.77828e-05
0 961 6.77828e-05
0 962 6.77828e-05
0 963 6.77828e-05
0 964 6.77828e-05
0 965 6.77828e-05
0 966 6.77828e-05
0 967 6.77828e-05
0 968 6.77828e-05
0 969 6.77828e-05
0 970 6.77828e-05
0 971 6.77828e-05
0 972 6.77828e-05
0 973 6.77828e-05
0 974 6.77828e-05
0 975 6.77828e-05
0 976 6.77828e-05
0 977 6.77828e-05
0 978 6.77828e-05
0 979 6.77828e-05
0 980 6.77828e-05
0 981 6.77828e-05
0 982 6.77828e-05
0 983 6.77828e-05
0 984 6.77828e-05
0 985 6.77828e-05
0 986 6.77828e-05
0 987 6.77828e-05
0 988 6.77828e-05
0 989 6.77828e-05
0 990 6.77828e-05
0 991 6.77828e-05
0 992 6.77828e-05
0 993 6.77828e-05
0 994 6.77828e-05
0 995 6.77828e-05
0 996 6.77828e-05
0 997 6.77828e-05
0 998 6.77828e-05
0 999 6.77828e-05
0 1000 6.77828e-05
0 1001 6.77828e-05
0 1002 6.77828e-05
0 1003 6.77828e-05
0 1004 6.77828e-05
0 1005 6.77828e-05
0 1006 6.77828e-05
0 1007 6.77828e-05
0 1008 6.77828e-05
0 1009 6.77828e-05
0 1010 6.77828e-05
0 1011 6.77828e-05
0 1012 6.77828e-05
0 1013 6.77828e-05
0 1014 6.77828e-05
0 1015 6.77828e-05
0 1016 6.77828e-05
0 1017 6.77828e-05
0 1018 6.77828e-05
0 1019 6.77828e-05
0 1020 6.77828e-05
0 1021 6.77828e-05
0 1022 6.77828e-05
0 1023 6.77828e-05
0 1024 6.77828e-05
0 1025 6.77828e-05
0 1026 6.77828e-05
0 1027 6.77828e-05
0 1028 6.77828e-05
0 1029 6.77828e-05
0 1030 6.77828e-05
0 1031 6.77828e-05
0 1032 6.77828e-05
0 1033 6.77828e-05
0 1034 6.77828e-05
0 1035 6.77828e-05
0 1036 6.77828e-05
0 1037 6.77828e-05
0 1038 6.77828e-05
0 1039 6.77828e-05
0 1040 6.77828e-05
0 1041 6.77828e-05
0 1042 6.77828e-05
0 1043 6.77828e-05
0 1044 6.77828e-05
0 1045 6.77828e-05
0 1046 6.77828e-05
0 1047 6.77828e-05
0 1048 6.77828e-05
0 1049 6.77828e-05
0 1050 6.77828e-05
0 1051 6.77828e-05
0 1052 6.77828e-05
0 1053 6.77828e-05
0 1054 6.77828e-05
0 1055 6.77828e-05
0 1056 6.77828e-05
0 1057 6.77828e-05
0 1058 6.77828e-05
0 1059 6.77828e-05
0 1060 6.77828e-05
0 1061 6.77828e-05
0 1062 6.77828e-05
0 1063 6.77828e-05
0 1064 6.77828e-05
0 1065 6.77828e-05
0 1066 6.77828e-05
0 1067 6.77828e-05
0 1068 6.77828e-05
0 1069 6.77828e-05
0 1070 6.77828e-05
0 1071 6.77828e-05
0 1072 6.77828e-05
0 1073 6.77828e-05
0 1074 6.77828e-05
0 1075 6.77828e-05
0 1076 6.77828e-05
0 1077 6.77828e-05
0 1078 6.77828e-05
0 1079 6.77828e-05
0 1080 6.77828e-05
0 1081 6.77828e-05
0 1082 6.77828e-05
0 1083 6.77828e-05
0 1084 6.77828e-05
0 1085 6.77828e-05
0 1086 6.77828e-05
0 1087 6.77828e-05
0 1088 6.77828e-05
0 1089 6.77828e-05
0 1090 6.77828e-05
0 1091 6.77828e-05
0 1092 6.77828e-05
0 1093 6.77828e-05
0 1094 6.77828e-05
0 1095 6.77828e-05
0 1096 6.77828e-05
0 1097 6.77828e-05
0 1098 6.77828e-05
0 1099 6.77828e-05
0 1100 6.77828e-05
0 1101 6.77828e-05
0 1102 6.77828e-05
0 1103 6.77828e-05
0 1104 6.77828e-05
0 1105 6.77828e-05
0 1106 6.77828e-05
0 1107 6.77828e-05
0 1108 6.77828e-05
0 1109 6.77828e-05
0 1110 6.77828e-05
0 1111 6.77828e-05
0 1112 6.77828e-05
0 1113 6.77828e-05
0 1114 6.77828e-05
0 1115 6.77828e-05
0 1116 6.77828e-05
0 1117 6.77828e-05
0 1118 6.77828e-05
0 1119 6.77828e-05
0 1120 6.77828e-05
0 1121 6.77828e-05
0 1122 6.77828e-05
0 1123 6.77828e-05
0 1124 6.77828e-05
0 1125 6.77828e-05
0 1126 6.77828e-05
0 1127 6.77828e-05
0 1128 6.77828e-05
0 1129 6.77828e-05
0 1130 6.77828e-05
0 1131 6.77828e-05
0 1132 6.77828e-05
0 1133 6.77828e-05
0 1134 6.77828e-05
0 1135 6.77828e-05
0 1136 6.77828e-05
0 1137 6.77828e-05
0 1138 6.77828e-05
0 1139 6.77828e-05
0 1140 6.77828e-05
0 1141 6.77828e-05
0 1142 6.77828e-05
0 1143 6.77828e-05
0 1144 6.77828e-05
0 1145 6.77828e-05
0 1146 6.77828e-05
0 1147 6.77828e-05
0 1148 6.77828e-05
0 1149 6.77828e-05
0 1150 6.77828e-05
0 1151 6.77828e-05
0 1152 6.77828e-05
0 1153 6.77828e-05
0 1154 6.77828e-05
0 1155 6.77828e-05
0 1156 6.77828e-05
0 1157 6.77828e-05
0 1158 6.77828e-05
0 1159 6.77828e-05
0 1160 6.77828e-05
0 1161 6.77828e-05
0 1162 6.77828e-05
0 1163 6.77828e-05
0 1164 6.77828e-05
0 1165 6.77828e-05
0 1166 6.77828e-05
0 1167 6.77828e-05
0 1168 6.77828e-05
0 1169 6.77828e-05
0 1170 6.77828e-05
0 1171 6.77828e-05
0 1172 6.77828e-05
0 1173 6.77828e-05
0 1174 6.77828e-05
0 1175 6.77828e-05
0 1176 6.77828e-05
0 1177 6.77828e-05
0 1178 6.77828e-05
0 1179 6.77828e-05
0 1180 6.77828e-05
0 1181 6.77828e-05
0 1182 6.77828e-05
0 1183 6.77828e-05
0 1184 6.77828e-05
0 1185 6.77828e-05
0 1186 6.77828e-05
0 1187 6.77828e-05
0 1188 6.77828e-05
0 1189 6.77828e-05
0 1190 6.77828e-05
0 1191 6.77828e-05
0 1192 6.77828e-05
0 1193 6.77828e-05
0 1194 6.77828e-05
0 1195 6.77828e-05
0 1196 6.77828e-05
0 1197 6.77828e-05
0 1198 6.77828e-05
0 1199 6.77828e-05
0 1200 6.77828e-05
0 1201 6.77828e-05
0 1202 6.77828e-05
0 1203 6.77828e-05
0 1204 6.77828e-05
0 1205 6.77828e-05
0 1206 6.77828e-05
0 1207 6.77828e-05
0 1208 6.77828e-05
0 1209 6.77828e-05
0 1210 6.77828e-05
0 1211 6.77828e-05
0 1212 6.77828e-05
0 1213 6.77828e-05
0 1214 6.77828e-05
0 1215 6.77828e-05
0 1216 6.77828e-05
0 1217 6.77828e-05
0 1218 6.77828e-05
0 1219 6.77828e-05
0 1220 6.77828e-05
0 1221 6.77828e-05
0 1222 6.77828e-05
0 1223 6.77828e-05
0 1224 6.77828e-05
0 1225 6.77828e-05
0 1226 6.77828e-05
0 1227 6.77828e-05
0 1228 6.77828e-05
0 1229 6.77828e-05
0 1230 6.77828e-05
0 1231 6.77828e-05
0 1232 6.77828e-05
0 1233 6.77828e-05
0 1234 6.77828e-05
0 1235 6.77828e-05
0 1236 6.77828e-05
0 1237 6.77828e-05
0 1238 6.77828e-05
0 1239 6.77828e-05
0 1240 6.77828e-05
0 1241 6.77828e-05
0 1242 6.77828e-05
0 1243 6.77828e-05
0 1244 6.77828e-05
0 1245 6.77828e-05
0 1246 6.77828e-05
0 1247 6.77828e-05
0 1248 6.77828e-05
0 1249 6.77828e-05
0 1250 6.77828e-05
0 1251 6.77828e-05
0 1252 6.77828e-05
0 1253 6.77828e-05
0 1254 6.77828e-05
0 1255 6.77828e-05
0 1256 6.77828e-05
0 1257 6.77828e-05
0 1258 6.77828e-05
0 1259 6.77828e-05
0 1260 6.77828e-05
0 1261 6.77828e-05
0 1262 6.77828e-05
0 1263 6.77828e-05
0 1264 6.77828e-05
0 1265 6.77828e-05
0 1266 6.77828e-05
0 1267 6.77828e-05
0 1268 6.77828e-05
0 1269 6.77828e-05
0 1270 6.77828e-05
0 1271 6.77828e-05
0 1272 6.77828e-05
0 1273 6.77828e-05
0 1274 6.77828e-05
0 1275 6.77828e-05
0 1276 6.77828e-05
0 1277 6.77828e-05
0 1278 6.77828e-05
0 1279 6.77828e-05
0 1280 6.77828e-05
0 1281 6.77828e-05
0 1282 6.77828e-05
0 1283 6.77828e-05
0 1284 6.77828e-05
0 1285 6.77828e-05
0 1286 6.77828e-05
0 1287 6.77828e-05
0 1288 6.77828e-05
0 1289 6.77828e-05
0 1290 6.77828e-05
0 1291 6.77828e-05
0 1292 6.77828e-05
0 1293 6.77828e-05
0 1294 6.77828e-05
0 1295 6.77828e-05
0 1296 6.77828e-05
0 1297 6.77828e-05
0 1298 6.77828e-05
0 1299 6.77828e-05
0 1300 6.77828e-05
0 1301 6.77828e-05
0 1302 6.77828e-05
0 1303 6.77828e-05
0 1304 6.77828e-05
0 1305 6.77828e-05
0 1306 6.77828e-05
0 1307 6.77828e-05
0 1308 6.77828e-05
0 1309 6.77828e-05
0 1310 6.77828e-05
0 1311 6.77828e-05
0 1312 6.77828e-05
0 1313 6.77828e-05
0 1314 6.77828e-05
0 1315 6.77828e-05
0 1316 6.77828e-05
0 1317 6.77828e-05
0 1318 6.77828e-05
0 1319 6.77828e-05
0 1320 6.77828e-05
0 1321 6.77828e-05
0 1322 6.77828e-05
0 1323 6.77828e-05
0 1324 6.77828e-05
0 1325 6.77828e-05
0 1326 6.77828e-05
0 1327 6.77828e-05
0 1328 6.77828e-05
0 1329 6.77828e-05
0 1330 6.77828e-05
0 1331 6.77828e-05
0 1332 6.77828e-05
0 1333 6.77828e-05
0 1334 6.77828e-05
0 1335 6.77828e-05
0 1336 6.77828e-05
0 1337 6.77828e-05
0 1338 6.77828e-05
0 1339 6.77828e-05
0 1340 6.77828e-05
0 1341 6.77828e-05
0 1342 6.77828e-05
0 1343 6.77828e-05
0 1344 6.77828e-05
0 1345 6.77828e-05
0 1346 6.77828e-05
0 1347 6.77828e-05
0 1348 6.77828e-05
0 1349 6.77828e-05
0 1350 6.77828e-05
0 1351 6.77828e-05
0 1352 6.77828e-05
0 1353 6.77828e-05
0 1354 6.77828e-05
0 1355 6.77828e-05
0 1356 6.77828e-05
0 1357 6.77828e-05
0 1358 6.77828e-05
0 1359 6.77828e-05
0 1360 6.77828e-05
0 1361 6.77828e-05
0 1362 6.77828e-05
0 1363 6.77828e-05
0 1364 6.77828e-05
0 1365 6.77828e-05
0 1366 6.77828e-05
0 1367 6.77828e-05
0 1368 6.77828e-05
0 1369 6.77828e-05
0 1370 6.77828e-05
0 1371 6.77828e-05
0 1372 6.77828e-05
0 1373 6.77828e-05
0 1374 6.77828e-05
0 1375 6.77828e-05
0 1376 6.77828e-05
0 1377 6.77828e-05
0 1378 6.77828e-05
0 1379 6.77828e-05
0 1380 6.77828e-05
0 1381 6.77828e-05
0 1382 6.77828e-05
0 1383 6.77828e-05
0 1384 6.77828e-05
0 1385 6.77828e-05
0 1386 6.77828e-05
0 1387 6.77828e-05
0 1388 6.77828e-05
0 1389 6.77828e-05
0 1390 6.77828e-05
0 1391 6.77828e-05
0 1392 6.77828e-05
0 1393 6.77828e-05
0 1394 6.77828e-05
0 1395 6.77828e-05
0 1396 6.77828e-05
0 1397 6.77828e-05
0 1398 6.77828e-05
0 1399 6.77828e-05
0 1400 6.77828e-05
0 1401 6.77828e-05
0 1402 6.77828e-05
0 1403 6.77828e-05
0 1404 6.77828e-05
0 1405 6.77828e-05
0 1406 6.77828e-05
0 1407 6.77828e-05
0 1408 6.77828e-05
0 1409 6.77828e-05
0 1410 6.77828e-05
0 1411 6.77828e-05
0 1412 6.77828e-05
0 1413 6.77828e-05
0 1414 6.77828e-05
0 1415 6.77828e-05
0 1416 6.77828e-05
0 1417 6.77828e-05
0 1418 6.77828e-05
0 1419 6.77828e-05
0 1420 6.77828e-05
0 1421 6.77828e-05
0 1422 6.77828e-05
0 1423 6.77828e-05
0 1424 6.77828e-05
0 1425 6.77828e-05
0 1426 6.77828e-05
0 1427 6.77828e-05
0 1428 6.77828e-05
0 1429 6.77828e-05
0 1430 6.77828e-05
0 1431 6.77828e-05
0 1432 6.77828e-05
0 1433 6.77828e-05
0 1434 6.77828e-05
0 1435 6.77828e-05
0 1436 6.77828e-05
0 1437 6.77828e-05
0 1438 6.77828e-05
0 1439 6.77828e-05
0 1440 6.77828e-05
0 1441 6.77828e-05
0 1442 6.77828e-05
0 1443 6.77828e-05
0 1444 6.77828e-05
0 1445 6.77828e-05
0 1446 6.77828e-05
0 1447 6.77828e-05
0 1448 6.77828e-05
0 1449 6.77828e-05
0 1450 6.77828e-05
0 1451 6.77828e-05
0 1452 6.77828e-05
0 1453 6.77828e-05
0 1454 6.77828e-05
0 1455 6.77828e-05
0 1456 6.77828e-05
0 1457 6.77828e-05
0 1458 6.77828e-05
0 1459 6.77828e-05
0 1460 6.77828e-05
0 1461 6.77828e-05
0 1462 6.77828e-05
0 1463 6.77828e-05
0 1464 6.77828e-05
0 1465 6.77828e-05
0 1466 6.77828e-05
0 1467 6.77828e-05
0 1468 6.77828e-05
0 1469 6.77828e-05
0 1470 6.77828e-05
0 1471 6.77828e-05
0 1472 6.77828e-05
0 1473 6.77828e-05
0 1474 6.77828e-05
0 1475 6.77828e-05
0 1476 6.77828e-05
0 1477 6.77828e-05
0 1478 6.77828e-05
0 1479 6.77828e-05
0 1480 6.77828e-05
0 1481 6.77828e-05
0 1482 6.77828e-05
0 1483 6.77828e-05
0 1484 6.77828e-05
0 1485 6.77828e-05
0 1486 6.77828e-05
0 1487 6.77828e-05
0 1488 6.77828e-05
0 1489 6.77828e-05
0 1490 6.77828e-05
0 1491 6.77828e-05
0 1492 6.77828e-05
0 1493 6.77828e-05
0 1494 6.77828e-05
0 1495 6.77828e-05
0 1496 6.77828e-05
0 1497 6.77828e-05
0 1498 6.77828e-05
0 1499 6.77828e-05
0 1500 6.77828e-05
0 1501 6.77828e-05
0 1502 6.77828e-05
0 1503 6.77828e-05
0 1504 6.77828e-05
0 1505 6.77828e-05
0 1506 6.77828e-05
0 1507 6.77828e-05
0 1508 6.77828e-05
0 1509 6.77828e-05
0 1510 6.77828e-05
0 1511 6.77828e-05
0 1512 6.77828e-05
0 1513 6.77828e-05
0 1514 6.77828e-05
0 1515 6.77828e-05
0 1516 6.77828e-05
0 1517 6.77828e-05
0 1518 6.77828e-05
0 1519 6.77828e-05
0 1520 6.77828e-05
0 1521 6.77828e-05
0 1522 6.77828e-05
0 1523 6.77828e-05
0 1524 6.77828e-05
0 1525 6.77828e-05
0 1526 6.77828e-05
0 1527 6.77828e-05
0 1528 6.77828e-05
0 1529 6.77828e-05
0 1530 6.77828e-05
0 1531 6.77828e-05
0 1532 6.77828e-05
0 1533 6.77828e-05
0 1534 6.77828e-05
0 1535 6.77828e-05
0 1536 6.77828e-05
0 1537 6.77828e-05
0 1538 6.77828e-05
0 1539 6.77828e-05
0 1540 6.77828e-05
0 1541 6.77828e-05
0 1542 6.77828e-05
0 1543 6.77828e-05
0 1544 6.77828e-05
0 1545 6.77828e-05
0 1546 6.77828e-05
0 1547 6.77828e-05
0 1548 6.77828e-05
0 1549 6.77828e-05
0 1550 6.77828e-05
0 1551 6.77828e-05
0 1552 6.77828e-05
0 1553 6.77828e-05
0 1554 6.77828e-05
0 1555 6.77828e-05
0 1556 6.77828e-05
0 1557 6.77828e-05
0 1558 6.77828e-05
0 1559 6.77828e-05
0 1560 6.77828e-05
0 1561 6.77828e-05
0 1562 6.77828e-05
0 1563 6.77828e-05
0 1564 6.77828e-05
0 1565 6.77828e-05
0 1566 6.77828e-05
0 1567 6.77828e-05
0 1568 6.77828e-05
0 1569 6.77828e-05
0 1570 6.77828e-05
0 1571 6.77828e-05
0 1572 6.77828e-05
0 1573 6.77828e-05
0 1574 6.77828e-05
0 1575 6.77828e-05
0 1576 6.77828e-05
0 1577 6.77828e-05
0 1578 6.77828e-05
0 1579 6.77828e-05
0 1580 6.77828e-05
0 1581 6.77828e-05
0 1582 6.77828e-05
0 1583 6.77828e-05
0 1584 6.77828e-05
0 1585 6.77828e-05
0 1586 6.77828e-05
0 1587 6.77828e-05
0 1588 6.77828e-05
0 1589 6.77828e-05
0 1590 6.77828e-05
0 1591 6.77828e-05
0 1592 6.77828e-05
0 1593 6.77828e-05
0 1594 6.77828e-05
0 1595 6.77828e-05
0 1596 6.77828e-05
0 1597 6.77828e-05
0 1598 6.77828e-05
0 1599 6.77828e-05
0 1600 6.77828e-05
0 1601 6.77828e-05
0 1602 6.77828e-05
0 1603 6.77828e-05
0 1604 6.77828e-05
0 1605 6.77828e-05
0 1606 6.77828e-05
0 1607 6.77828e-05
0 1608 6.77828e-05
0 1609 6.77828e-05
0 1610 6.77828e-05
0 1611 6.77828e-05
0 1612 6.77828e-05
0 1613 6.77828e-05
0 1614 6.77828e-05
0 1615 6.77828e-05
0 1616 6.77828e-05
0 1617 6.77828e-05
0 1618 6.77828e-05
0 1619 6.77828e-05
0 1620 6.77828e-05
0 1621 6.77828e-05
0 1622 6.77828e-05
0 1623 6.77828e-05
0 1624 6.77828e-05
0 1625 6.77828e-05
0 1626 6.77828e-05
0 1627 6.77828e-05
0 1628 6.77828e-05
0 1629 6.77828e-05
0 1630 6.77828e-05
0 1631 6.77828e-05
0 1632 6.77828e-05
0 1633 6.77828e-05
0 1634 6.77828e-05
0 1635 6.77828e-05
0 1636 6.77828e-05
0 1637 6.77828e-05
0 1638 6.77828e-05
0 1639 6.77828e-05
0 1640 6.77828e-05
0 1641 6.77828e-05
0 1642 6.77828e-05
0 1643 6.77828e-05
0 1644 6.77828e-05
0 1645 6.77828e-05
0 1646 6.77828e-05
0 1647 6.77828e-05
0 1648 6.77828e-05
0 1649 6.77828e-05
0 1650 6.77828e-05
0 1651 6.77828e-05
0 1652 6.77828e-05
0 1653 6.77828e-05
0 1654 6.77828e-05
0 1655 6.77828e-05
0 1656 6.77828e-05
0 1657 6.77828e-05
0 1658 6.77828e-05
0 1659 6.77828e-05
0 1660 6.77828e-05
0 1661 6.77828e-05
0 1662 6.77828e-05
0 1663 6.77828e-05
0 1664 6.77828e-05
0 1665 6.77828e-05
0 1666 6.77828e-05
0 1667 6.77828e-05
0 1668 6.77828e-05
0 1669 6.77828e-05
0 1670 6.77828e-05
0 1671 6.77828e-05
0 1672 6.77828e-05
0 1673 6.77828e-05
0 1674 6.77828e-05
0 1675 6.77828e-05
0 1676 6.77828e-05
0 1677 6.77828e-05
0 1678 6.77828e-05
0 1679 6.77828e-05
0 1680 6.77828e-05
0 1681 6.77828e-05
0 1682 6.77828e-05
0 1683 6.77828e-05
0 1684 6.77828e-05
0 1685 6.77828e-05
0 1686 6.77828e-05
0 1687 6.77828e-05
0 1688 6.77828e-05
0 1689 6.77828e-05
0 1690 6.77828e-05
0 1691 6.77828e-05
0 1692 6.77828e-05
0 1693 6.77828e-05
0 1694 6.77828e-05
0 1695 6.77828e-05
0 1696 6.77828e-05
0 1697 6.77828e-05
0 1698 6.77828e-05
0 1699 6.77828e-05
0 1700 6.77828e-05
0 1701 6.77828e-05
0 1702 6.77828e-05
0 1703 6.77828e-05
0 1704 6.77828e-05
0 1705 6.77828e-05
0 1706 6.77828e-05
0 1707 6.77828e-05
0 1708 6.77828e-05
0 1709 6.77828e-05
0 1710 6.77828e-05
0 1711 6.77828e-05
0 1712 6.77828e-05
0 1713 6.77828e-05
0 1714 6.77828e-05
0 1715 6.77828e-05
0 1716 6.77828e-05
0 1717 6.77828e-05
0 1718 6.77828e-05
0 1719 6.77828e-05
0 1720 6.77828e-05
0 1721 6.77828e-05
0 1722 6.77828e-05
0 1723 6.77828e-05
0 1724 6.77828e-05
0 1725 6.77828e-05
0 1726 6.77828e-05
0 1727 6.77828e-05
0 1728 6.77828e-05
0 1729 6.77828e-05
0 1730 6.77828e-05
0 1731 6.77828e-05
0 1732 6.77828e-05
0 1733 6.77828e-05
0 1734 6.77828e-05
0 1735 6.77828e-05
0 1736 6.77828e-05
0 1737 6.77828e-05
0 1738 6.77828e-05
0 1739 6.77828e-05
0 1740 6.77828e-05
0 1741 6.77828e-05
0 1742 6.77828e-05
0 1743 6.77828e-05
0 1744 6.77828e-05
0 1745 6.77828e-05
0 1746 6.77828e-05
0 1747 6.77828e-05
0 1748 6.77828e-05
0 1749 6.77828e-05
0 1750 6.77828e-05
0 1751 6.77828e-05
0 1752 6.77828e-05
0 1753 6.77828e-05
0 1754 6.77828e-05
0 1755 6.77828e-05
0 1756 6.77828e-05
0 1757 6.77828e-05
0 1758 6.77828e-05
0 1759 6.77828e-05
0 1760 6.77828e-05
0 1761 6.77828e-05
0 1762 6.77828e-05
0 1763 6.77828e-05
0 1764 6.77828e-05
0 1765 6.77828e-05
0 1766 6.77828e-05
0 1767 6.77828e-05
0 1768 6.77828e-05
0 1769 6.77828e-05
0 1770 6.77828e-05
0 1771 6.77828e-05
0 1772 6.77828e-05
0 1773 6.77828e-05
0 1774 6.77828e-05
0 1775 6.77828e-05
0 1776 6.77828e-05
0 1777 6.77828e-05
0 1778 6.77828e-05
0 1779 6.77828e-05
0 1780 6.77828e-05
0 1781 6.77828e-05
0 1782 6.77828e-05
0 1783 6.77828e-05
0 1784 6.77828e-05
0 1785 6.77828e-05
0 1786 6.77828e-05
0 1787 6.77828e-05
0 1788 6.77828e-05
0 1789 6.77828e-05
0 1790 6.77828e-05
0 1791 6.77828e-05
0 1792 6.77828e-05
0 1793 6.77828e-05
0 1794 6.77828e-05
0 1795 6.77828e-05
0 1796 6.77828e-05
0 1797 6.77828e-05
0 1798 6.77828e-05
0 1799 6.77828e-05
0 1800 6.77828e-05
0 1801 6.77828e-05
0 1802 6.77828e-05
0 1803 6.77828e-05
0 1804 6.77828e-05
0 1805 6.77828e-05
0 1806 6.77828e-05
0 1807 6.77828e-05
0 1808 6.77828e-05
0 1809 6.77828e-05
0 1810 6.77828e-05
0 1811 6.77828e-05
0 1812 6.77828e-05
0 1813 6.77828e-05
0 1814 6.77828e-05
0 1815 6.77828e-05
0 1816 6.77828e-05
0 1817 6.77828e-05
0 1818 6.77828e-05
0 1819 6.77828e-05
0 1820 6.77828e-05
0 1821 6.77828e-05
0 1822 6.77828e-05
0 1823 6.77828e-05
0 1824 6.77828e-05
0 1825 6.77828e-05
0 1826 6.77828e-05
0 1827 6.77828e-05
0 1828 6.77828e-05
0 1829 6.77828e-05
0 1830 6.77828e-05
0 1831 6.77828e-05
0 1832 6.77828e-05
0 1833 6.77828e-05
0 1834 6.77828e-05
0 1835 6.77828e-05
0 1836 6.77828e-05
0 1837 6.77828e-05
0 1838 6.77828e-05
0 1839 6.77828e-05
0 1840 6.77828e-05
0 1841 6.77828e-05
0 1842 6.77828e-05
0 1843 6.77828e-05
0 1844 6.77828e-05
0 1845 6.77828e-05
0 1846 6.77828e-05
0 1847 6.77828e-05
0 1848 6.77828e-05
0 1849 6.77828e-05
0 1850 6.77828e-05
0 1851 6.77828e-05
0 1852 6.77828e-05
0 1853 6.77828e-05
0 1854 6.77828e-05
0 1855 6.77828e-05
0 1856 6.77828e-05
0 1857 6.77828e-05
0 1858 6.77828e-05
0 1859 6.77828e-05
0 1860 6.77828e-05
0 1861 6.77828e-05
0 1862 6.77828e-05
0 1863 6.77828e-05
0 1864 6.77828e-05
0 1865 6.77828e-05
0 1866 6.77828e-05
0 1867 6.77828e-05
0 1868 6.77828e-05
0 1869 6.77828e-05
0 1870 6.77828e-05
0 1871 6.77828e-05
0 1872 6.77828e-05
0 1873 6.77828e-05
0 1874 6.77828e-05
0 1875 6.77828e-05
0 1876 6.77828e-05
0 1877 6.77828e-05
0 1878 6.77828e-05
0 1879 6.77828e-05
0 1880 6.77828e-05
0 1881 6.77828e-05
0 1882 6.77828e-05
0 1883 6.77828e-05
0 1884 6.77828e-05
0 1885 6.77828e-05
0 1886 6.77828e-05
0 1887 6.77828e-05
0 1888 6.77828e-05
0 1889 6.77828e-05
0 1890 6.77828e-05
0 1891 6.77828e-05
0 1892 6.77828e-05
0 1893 6.77828e-05
0 1894 6.77828e-05
0 1895 6.77828e-05
0 1896 6.77828e-05
0 1897 6.77828e-05
0 1898 6.77828e-05
0 1899 6.77828e-05
0 1900 6.77828e-05
0 1901 6.77828e-05
0 1902 6.77828e-05
0 1903 6.77828e-05
0 1904 6.77828e-05
0 1905 6.77828e-05
0 1906 6.77828e-05
0 1907 6.77828e-05
0 1908 6.77828e-05
0 1909 6.77828e-05
0 1910 6.77828e-05
0 1911 6.77828e-05
0 1912 6.77828e-05
0 1913 6.77828e-05
0 1914 6.77828e-05
0 1915 6.77828e-05
0 1916 6.77828e-05
0 1917 6.77828e-05
0 1918 6.77828e-05
0 1919 6.77828e-05
0 1920 6.77828e-05
0 1921 6.77828e-05
0 1922 6.77828e-05
0 1923 6.77828e-05
0 1924 6.77828e-05
0 1925 6.77828e-05
0 1926 6.77828e-05
0 1927 6.77828e-05
0 1928 6.77828e-05
0 1929 6.77828e-05
0 1930 6.77828e-05
0 1931 6.77828e-05
0 1932 6.77828e-05
0 1933 6.77828e-05
0 1934 6.77828e-05
0 1935 6.77828e-05
0 1936 6.77828e-05
0 1937 6.77828e-05
0 1938 6.77828e-05
0 1939 6.77828e-05
0 1940 6.77828e-05
0 1941 6.77828e-05
0 1942 6.77828e-05
0 1943 6.77828e-05
0 1944 6.77828e-05
0 1945 6.77828e-05
0 1946 6.77828e-05
0 1947 6.77828e-05
0 1948 6.77828e-05
0 1949 6.77828e-05
0 1950 6.77828e-05
0 1951 6.77828e-05
0 1952 6.77828e-05
0 1953 6.77828e-05
0 1954 6.77828e-05
0 1955 6.77828e-05
0 1956 6.77828e-05
0 1957 6.77828e-05
0 1958 6.77828e-05
0 1959 6.77828e-05
0 1960 6.77828e-05
0 1961 6.77828e-05
0 1962 6.77828e-05
0 1963 6.77828e-05
0 1964 6.77828e-05
0 1965 6.77828e-05
0 1966 6.77828e-05
0 1967 6.77828e-05
0 1968 6.77828e-05
0 1969 6.77828e-05
0 1970 6.77828e-05
0 1971 6.77828e-05
0 1972 6.77828e-05
0 1973 6.77828e-05
0 1974 6.77828e-05
0 1975 6.77828e-05
0 1976 6.77828e-05
0 1977 6.77828e-05
0 1978 6.77828e-05
0 1979 6.77828e-05
0 1980 6.77828e-05
0 1981 6.77828e-05
0 1982 6.77828e-05
0 1983 6.77828e-05
0 1984 6.77828e-05
0 1985 6.77828e-05
0 1986 6.77828e-05
0 1987 6.77828e-05
0 1988 6.77828e-05
0 1989 6.77828e-05
0 1990 6.77828e-05
0 1991 6.77828e-05
0 1992 6.77828e-05
0 1993 6.77828e-05
0 1994 6.77828e-05
0 1995 6.77828e-05
0 1996 6.77828e-05
0 1997 6.77828e-05
0 1998 6.77828e-05
0 1999 6.77828e-05
0 2000 6.77828e-05
0 2001 6.77828e-05
0 2002 6.77828e-05
0 2003 6.77828e-05
0 2004 6.77828e-05
0 2005 6.77828e-05
0 2006 6.77828e-05
0 2007 6.77828e-05
0 2008 6.77828e-05
0 2009 6.77828e-05
0 2010 6.77828e-05
0 2011 6.77828e-05
0 2012 6.77828e-05
0 2013 6.77828e-05
0 2014 6.77828e-05
0 2015 6.77828e-05
0 2016 6.77828e-05
0 2017 6.77828e-05
0 2018 6.77828e-05
0 2019 6.77828e-05
0 2020 6.77828e-05
0 2021 6.77828e-05
0 2022 6.77828e-05
0 2023 6.77828e-05
0 2024 6.77828e-05
0 2025 6.77828e-05
0 2026 6.77828e-05
0 2027 6.77828e-05
0 2028 6.77828e-05
0 2029 6.77828e-05
0 2030 6.77828e-05
0 2031 6.77828e-05
0 2032 6.77828e-05
0 2033 6.77828e-05
0 2034 6.77828e-05
0 2035 6.77828e-05
0 2036 6.77828e-05
0 2037 6.77828e-05
0 2038 6.77828e-05
0 2039 6.77828e-05
0 2040 6.77828e-05
0 2041 6.77828e-05
0 2042 6.77828e-05
0 2043 6.77828e-05
0 2044 6.77828e-05
0 2045 6.77828e-05
0 2046 6.77828e-05
0 2047 6.77828e-05
0 2048 6.77828e-05
0 2049 6.77828e-05
0 2050 6.77828e-05
0 2051 6.77828e-05
0 2052 6.77828e-05
0 2053 6.77828e-05
0 2054 6.77828e-05
0 2055 6.77828e-05
0 2056 6.77828e-05
0 2057 6.77828e-05
0 2058 6.77828e-05
0 2059 6.77828e-05
0 2060 6.77828e-05
0 2061 6.77828e-05
0 2062 6.77828e-05
0 2063 6.77828e-05
0 2064 6.77828e-05
0 2065 6.77828e-05
0 2066 6.77828e-05
0 2067 6.77828e-05
0 2068 6.77828e-05
0 2069 6.77828e-05
0 2070 6.77828e-05
0 2071 6.77828e-05
0 2072 6.77828e-05
0 2073 6.77828e-05
0 2074 6.77828e-05
0 2075 6.77828e-05
0 2076 6.77828e-05
0 2077 6.77828e-05
0 2078 6.77828e-05
0 2079 6.77828e-05
0 2080 6.77828e-05
0 2081 6.77828e-05
0 2082 6.77828e-05
0 2083 6.77828e-05
0 2084 6.77828e-05
0 2085 6.77828e-05
0 2086 6.77828e-05
0 2087 6.77828e-05
0 2088 6.77828e-05
0 2089 6.77828e-05
0 2090 6.77828e-05
0 2091 6.77828e-05
0 2092 6.77828e-05
0 2093 6.77828e-05
0 2094 6.77828e-05
0 2095 6.77828e-05
0 2096 6.77828e-05
0 2097 6.77828e-05
0 2098 6.77828e-05
0 2099 6.77828e-05
0 2100 6.77828e-05
0 2101 6.77828e-05
0 2102 6.77828e-05
0 2103 6.77828e-05
0 2104 6.77828e-05
0 2105 6.77828e-05
0 2106 6.77828e-05
0 2107 6.77828e-05
0 2108 6.77828e-05
0 2109 6.77828e-05
0 2110 6.77828e-05
0 2111 6.77828e-05
0 2112 6.77828e-05
0 2113 6.77828e-05
0 2114 6.77828e-05
0 2115 6.77828e-05
0 2116 6.77828e-05
0 2117 6.77828e-05
0 2118 6.77828e-05
0 2119 6.77828e-05
0 2120 6.77828e-05
0 2121 6.77828e-05
0 2122 6.77828e-05
0 2123 6.77828e-05
0 2124 6.77828e-05
0 2125 6.77828e-05
0 2126 6.77828e-05
0 2127 6.77828e-05
0 2128 6.77828e-05
0 2129 6.77828e-05
0 2130 6.77828e-05
0 2131 6.77828e-05
0 2132 6.77828e-05
0 2133 6.77828e-05
0 2134 6.77828e-05
0 2135 6.77828e-05
0 2136 6.77828e-05
0 2137 6.77828e-05
0 2138 6.77828e-05
0 2139 6.77828e-05
0 2140 6.77828e-05
0 2141 6.77828e-05
0 2142 6.77828e-05
0 2143 6.77828e-05
0 2144 6.77828e-05
0 2145 6.77828e-05
0 2146 6.77828e-05
0 2147 6.77828e-05
0 2148 6.77828e-05
0 2149 6.77828e-05
0 2150 6.77828e-05
0 2151 6.77828e-05
0 2152 6.77828e-05
0 2153 6.77828e-05
0 2154 6.77828e-05
0 2155 6.77828e-05
0 2156 6.77828e-05
0 2157 6.77828e-05
0 2158 6.77828e-05
0 2159 6.77828e-05
0 2160 6.77828e-05
0 2161 6.77828e-05
0 2162 6.77828e-05
0 2163 6.77828e-05
0 2164 6.77828e-05
0 2165 6.77828e-05
0 2166 6.77828e-05
0 2167 6.77828e-05
0 2168 6.77828e-05
0 2169 6.77828e-05
0 2170 6.77828e-05
0 2171 6.77828e-05
0 2172 6.77828e-05
0 2173 6.77828e-05
0 2174 6.77828e-05
0 2175 6.77828e-05
0 2176 6.77828e-05
0 2177 6.77828e-05
0 2178 6.77828e-05
0 2179 6.77828e-05
0 2180 6.77828e-05
0 2181 6.77828e-05
0 2182 6.77828e-05
0 2183 6.77828e-05
0 2184 6.77828e-05
0 2185 6.77828e-05
0 2186 6.77828e-05
0 2187 6.77828e-05
0 2188 6.77828e-05
0 2189 6.77828e-05
0 2190 6.77828e-05
0 2191 6.77828e-05
0 2192 6.77828e-05
0 2193 6.77828e-05
0 2194 6.77828e-05
0 2195 6.77828e-05
0 2196 6.77828e-05
0 2197 6.77828e-05
0 2198 6.77828e-05
0 2199 6.77828e-05
0 2200 6.77828e-05
0 2201 6.77828e-05
0 2202 6.77828e-05
0 2203 6.77828e-05
0 2204 6.77828e-05
0 2205 6.77828e-05
0 2206 6.77828e-05
0 2207 6.77828e-05
0 2208 6.77828e-05
0 2209 6.77828e-05
0 2210 6.77828e-05
0 2211 6.77828e-05
0 2212 6.77828e-05
0 2213 6.77828e-05
0 2214 6.77828e-05
0 2215 6.77828e-05
0 2216 6.77828e-05
0 2217 6.77828e-05
0 2218 6.77828e-05
0 2219 6.77828e-05
0 2220 6.77828e-05
0 2221 6.77828e-05
0 2222 6.77828e-05
0 2223 6.77828e-05
0 2224 6.77828e-05
0 2225 6.77828e-05
0 2226 6.77828e-05
0 2227 6.77828e-05
0 2228 6.77828e-05
0 2229 6.77828e-05
0 2230 6.77828e-05
0 2231 6.77828e-05
0 2232 6.77828e-05
0 2233 6.77828e-05
0 2234 6.77828e-05
0 2235 6.77828e-05
0 2236 6.77828e-05
0 2237 6.77828e-05
0 2238 6.77828e-05
0 2239 6.77828e-05
0 2240 6.77828e-05
0 2241 6.77828e-05
0 2242 6.77828e-05
0 2243 6.77828e-05
0 2244 6.77828e-05
0 2245 6.77828e-05
0 2246 6.77828e-05
0 2247 6.77828e-05
0 2248 6.77828e-05
0 2249 6.77828e-05
0 2250 6.77828e-05
0 2251 6.77828e-05
0 2252 6.77828e-05
0 2253 6.77828e-05
0 2254 6.77828e-05
0 2255 6.77828e-05
0 2256 6.77828e-05
0 2257 6.77828e-05
0 2258 6.77828e-05
0 2259 6.77828e-05
0 2260 6.77828e-05
0 2261 6.77828e-05
0 2262 6.77828e-05
0 2263 6.77828e-05
0 2264 6.77828e-05
0 2265 6.77828e-05
0 2266 6.77828e-05
0 2267 6.77828e-05
0 2268 6.77828e-05
0 2269 6.77828e-05
0 2270 6.77828e-05
0 2271 6.77828e-05
0 2272 6.77828e-05
0 2273 6.77828e-05
0 2274 6.77828e-05
0 2275 6.77828e-05
0 2276 6.77828e-05
0 2277 6.77828e-05
0 2278 6.77828e-05
0 2279 6.77828e-05
0 2280 6.77828e-05
0 2281 6.77828e-05
0 2282 6.77828e-05
0 2283 6.77828e-05
0 2284 6.77828e-05
0 2285 6.77828e-05
0 2286 6.77828e-05
0 2287 6.77828e-05
0 2288 6.77828e-05
0 2289 6.77828e-05
0 2290 6.77828e-05
0 2291 6.77828e-05
0 2292 6.77828e-05
0 2293 6.77828e-05
0 2294 6.77828e-05
0 2295 6.77828e-05
0 2296 6.77828e-05
0 2297 6.77828e-05
0 2298 6.77828e-05
0 2299 6.77828e-05
0 2300 6.77828e-05
0 2301 6.77828e-05
0 2302 6.77828e-05
0 2303 6.77828e-05
0 2304 6.77828e-05
0 2305 6.77828e-05
0 2306 6.77828e-05
0 2307 6.77828e-05
0 2308 6.77828e-05
0 2309 6.77828e-05
0 2310 6.77828e-05
0 2311 6.77828e-05
0 2312 6.77828e-05
0 2313 6.77828e-05
0 2314 6.77828e-05
0 2315 6.77828e-05
0 2316 6.77828e-05
0 2317 6.77828e-05
0 2318 6.77828e-05
0 2319 6.77828e-05
0 2320 6.77828e-05
0 2321 6.77828e-05
0 2322 6.77828e-05
0 2323 6.77828e-05
0 2324 6.77828e-05
0 2325 6.77828e-05
0 2326 6.77828e-05
0 2327 6.77828e-05
0 2328 6.77828e-05
0 2329 6.77828e-05
0 2330 6.77828e-05
0 2331 6.77828e-05
0 2332 6.77828e-05
0 2333 6.77828e-05
0 2334 6.77828e-05
0 2335 6.77828e-05
0 2336 6.77828e-05
0 2337 6.77828e-05
0 2338 6.77828e-05
0 2339 6.77828e-05
0 2340 6.77828e-05
0 2341 6.77828e-05
0 2342 6.77828e-05
0 2343 6.77828e-05
0 2344 6.77828e-05
0 2345 6.77828e-05
0 2346 6.77828e-05
0 2347 6.77828e-05
0 2348 6.77828e-05
0 2349 6.77828e-05
0 2350 6.77828e-05
0 2351 6.77828e-05
0 2352 6.77828e-05
0 2353 6.77828e-05
0 2354 6.77828e-05
0 2355 6.77828e-05
0 2356 6.77828e-05
0 2357 6.77828e-05
0 2358 6.77828e-05
0 2359 6.77828e-05
0 2360 6.77828e-05
0 2361 6.77828e-05
0 2362 6.77828e-05
0 2363 6.77828e-05
0 2364 6.77828e-05
0 2365 6.77828e-05
0 2366 6.77828e-05
0 2367 6.77828e-05
0 2368 6.77828e-05
0 2369 6.77828e-05
0 2370 6.77828e-05
0 2371 6.77828e-05
0 2372 6.77828e-05
0 2373 6.77828e-05
0 2374 6.77828e-05
0 2375 6.77828e-05
0 2376 6.77828e-05
0 2377 6.77828e-05
0 2378 6.77828e-05
0 2379 6.77828e-05
0 2380 6.77828e-05
0 2381 6.77828e-05
0 2382 6.77828e-05
0 2383 6.77828e-05
0 2384 6.77828e-05
0 2385 6.77828e-05
0 2386 6.77828e-05
0 2387 6.77828e-05
0 2388 6.77828e-05
0 2389 6.77828e-05
0 2390 6.77828e-05
0 2391 6.77828e-05
0 2392 6.77828e-05
0 2393 6.77828e-05
0 2394 6.77828e-05
0 2395 6.77828e-05
0 2396 6.77828e-05
0 2397 6.77828e-05
0 2398 6.77828e-05
0 2399 6.77828e-05
0 2400 6.77828e-05
0 2401 6.77828e-05
0 2402 6.77828e-05
0 2403 6.77828e-05
0 2404 6.77828e-05
0 2405 6.77828e-05
0 2406 6.77828e-05
0 2407 6.77828e-05
0 2408 6.77828e-05
0 2409 6.77828e-05
0 2410 6.77828e-05
0 2411 6.77828e-05
0 2412 6.77828e-05
0 2413 6.77828e-05
0 2414 6.77828e-05
0 2415 6.77828e-05
0 2416 6.77828e-05
0 2417 6.77828e-05
0 2418 6.77828e-05
0 2419 6.77828e-05
0 2420 6.77828e-05
0 2421 6.77828e-05
0 2422 6.77828e-05
0 2423 6.77828e-05
0 2424 6.77828e-05
0 2425 6.77828e-05
0 2426 6.77828e-05
0 2427 6.77828e-05
0 2428 6.77828e-05
0 2429 6.77828e-05
0 2430 6.77828e-05
0 2431 6.77828e-05
0 2432 6.77828e-05
0 2433 6.77828e-05
0 2434 6.77828e-05
0 2435 6.77828e-05
0 2436 6.77828e-05
0 2437 6.77828e-05
0 2438 6.77828e-05
0 2439 6.77828e-05
0 2440 6.77828e-05
0 2441 6.77828e-05
0 2442 6.77828e-05
0 2443 6.77828e-05
0 2444 6.77828e-05
0 2445 6.77828e-05
0 2446 6.77828e-05
0 2447 6.77828e-05
0 2448 6.77828e-05
0 2449 6.77828e-05
0 2450 6.77828e-05
0 2451 6.77828e-05
0 2452 6.77828e-05
0 2453 6.77828e-05
0 2454 6.77828e-05
0 2455 6.77828e-05
0 2456 6.77828e-05
0 2457 6.77828e-05
0 2458 6.77828e-05
0 2459 6.77828e-05
0 2460 6.77828e-05
0 2461 6.77828e-05
0 2462 6.77828e-05
0 2463 6.77828e-05
0 2464 6.77828e-05
0 2465 6.77828e-05
0 2466 6.77828e-05
0 2467 6.77828e-05
0 2468 6.77828e-05
0 2469 6.77828e-05
0 2470 6.77828e-05
0 2471 6.77828e-05
0 2472 6.77828e-05
0 2473 6.77828e-05
0 2474 6.77828e-05
0 2475 6.77828e-05
0 2476 6.77828e-05
0 2477 6.77828e-05
0 2478 6.77828e-05
0 2479 6.77828e-05
0 2480 6.77828e-05
0 2481 6.77828e-05
0 2482 6.77828e-05
0 2483 6.77828e-05
0 2484 6.77828e-05
0 2485 6.77828e-05
0 2486 6.77828e-05
0 2487 6.77828e-05
0 2488 6.77828e-05
0 2489 6.77828e-05
0 2490 6.77828e-05
0 2491 6.77828e-05
0 2492 6.77828e-05
0 2493 6.77828e-05
0 2494 6.77828e-05
0 2495 6.77828e-05
0 2496 6.77828e-05
0 2497 6.77828e-05
0 2498 6.77828e-05
0 2499 6.77828e-05
0 2500 6.77828e-05
0 2501 6.77828e-05
0 2502 6.77828e-05
0 2503 6.77828e-05
0 2504 6.77828e-05
0 2505 6.77828e-05
0 2506 6.77828e-05
0 2507 6.77828e-05
0 2508 6.77828e-05
0 2509 6.77828e-05
0 2510 6.77828e-05
0 2511 6.77828e-05
0 2512 6.77828e-05
0 2513 6.77828e-05
0 2514 6.77828e-05
0 2515 6.77828e-05
0 2516 6.77828e-05
0 2517 6.77828e-05
0 2518 6.77828e-05
0 2519 6.77828e-05
0 2520 6.77828e-05
0 2521 6.77828e-05
0 2522 6.77828e-05
0 2523 6.77828e-05
0 2524 6.77828e-05
0 2525 6.77828e-05
0 2526 6.77828e-05
0 2527 6.77828e-05
0 2528 6.77828e-05
0 2529 6.77828e-05
0 2530 6.77828e-05
0 2531 6.77828e-05
0 2532 6.77828e-05
0 2533 6.77828e-05
0 2534 6.77828e-05
0 2535 6.77828e-05
0 2536 6.77828e-05
0 2537 6.77828e-05
0 2538 6.77828e-05
0 2539 6.77828e-05
0 2540 6.77828e-05
0 2541 6.77828e-05
0 2542 6.77828e-05
0 2543 6.77828e-05
0 2544 6.77828e-05
0 2545 6.77828e-05
0 2546 6.77828e-05
0 2547 6.77828e-05
0 2548 6.77828e-05
0 2549 6.77828e-05
0 2550 6.77828e-05
0 2551 6.77828e-05
0 2552 6.77828e-05
0 2553 6.77828e-05
0 2554 6.77828e-05
0 2555 6.77828e-05
0 2556 6.77828e-05
0 2557 6.77828e-05
0 2558 6.77828e-05
0 2559 6.77828e-05
0 2560 6.77828e-05
0 2561 6.77828e-05
0 2562 6.77828e-05
0 2563 6.77828e-05
0 2564 6.77828e-05
0 2565 6.77828e-05
0 2566 6.77828e-05
0 2567 6.77828e-05
0 2568 6.77828e-05
0 2569 6.77828e-05
0 2570 6.77828e-05
0 2571 6.77828e-05
0 2572 6.77828e-05
0 2573 6.77828e-05
0 2574 6.77828e-05
0 2575 6.77828e-05
0 2576 6.77828e-05
0 2577 6.77828e-05
0 2578 6.77828e-05
0 2579 6.77828e-05
0 2580 6.77828e-05
0 2581 6.77828e-05
0 2582 6.77828e-05
0 2583 6.77828e-05
0 2584 6.77828e-05
0 2585 6.77828e-05
0 2586 6.77828e-05
0 2587 6.77828e-05
0 2588 6.77828e-05
0 2589 6.77828e-05
0 2590 6.77828e-05
0 2591 6.77828e-05
0 2592 6.77828e-05
0 2593 6.77828e-05
0 2594 6.77828e-05
0 2595 6.77828e-05
0 2596 6.77828e-05
0 2597 6.77828e-05
0 2598 6.77828e-05
0 2599 6.77828e-05
0 2600 6.77828e-05
0 2601 6.77828e-05
0 2602 6.77828e-05
0 2603 6.77828e-05
0 2604 6.77828e-05
0 2605 6.77828e-05
0 2606 6.77828e-05
0 2607 6.77828e-05
0 2608 6.77828e-05
0 2609 6.77828e-05
0 2610 6.77828e-05
0 2611 6.77828e-05
0 2612 6.77828e-05
0 2613 6.77828e-05
0 2614 6.77828e-05
0 2615 6.77828e-05
0 2616 6.77828e-05
0 2617 6.77828e-05
0 2618 6.77828e-05
0 2619 6.77828e-05
0 2620 6.77828e-05
0 2621 6.77828e-05
0 2622 6.77828e-05
0 2623 6.77828e-05
0 2624 6.77828e-05
0 2625 6.77828e-05
0 2626 6.77828e-05
0 2627 6.77828e-05
0 2628 6.77828e-05
0 2629 6.77828e-05
0 2630 6.77828e-05
0 2631 6.77828e-05
0 2632 6.77828e-05
0 2633 6.77828e-05
0 2634 6.77828e-05
0 2635 6.77828e-05
0 2636 6.77828e-05
0 2637 6.77828e-05
0 2638 6.77828e-05
0 2639 6.77828e-05
0 2640 6.77828e-05
0 2641 6.77828e-05
0 2642 6.77828e-05
0 2643 6.77828e-05
0 2644 6.77828e-05
0 2645 6.77828e-05
0 2646 6.77828e-05
0 2647 6.77828e-05
0 2648 6.77828e-05
0 2649 6.77828e-05
0 2650 6.77828e-05
0 2651 6.77828e-05
0 2652 6.77828e-05
0 2653 6.77828e-05
0 2654 6.77828e-05
0 2655 6.77828e-05
0 2656 6.77828e-05
0 2657 6.77828e-05
0 2658 6.77828e-05
0 2659 6.77828e-05
0 2660 6.77828e-05
0 2661 6.77828e-05
0 2662 6.77828e-05
0 2663 6.77828e-05
0 2664 6.77828e-05
0 2665 6.77828e-05
0 2666 6.77828e-05
0 2667 6.77828e-05
0 2668 6.77828e-05
0 2669 6.77828e-05
0 2670 6.77828e-05
0 2671 6.77828e-05
0 2672 6.77828e-05
0 2673 6.77828e-05
0 2674 6.77828e-05
0 2675 6.77828e-05
0 2676 6.77828e-05
0 2677 6.77828e-05
0 2678 6.77828e-05
0 2679 6.77828e-05
0 2680 6.77828e-05
0 2681 6.77828e-05
0 2682 6.77828e-05
0 2683 6.77828e-05
0 2684 6.77828e-05
0 2685 6.77828e-05
0 2686 6.77828e-05
0 2687 6.77828e-05
0 2688 6.77828e-05
0 2689 6.77828e-05
0 2690 6.77828e-05
0 2691 6.77828e-05
0 2692 6.77828e-05
0 2693 6.77828e-05
0 2694 6.77828e-05
0 2695 6.77828e-05
0 2696 6.77828e-05
0 2697 6.77828e-05
0 2698 6.77828e-05
0 2699 6.77828e-05
0 2700 6.77828e-05
0 2701 6.77828e-05
0 2702 6.77828e-05
0 2703 6.77828e-05
0 2704 6.77828e-05
0 2705 6.77828e-05
0 2706 6.77828e-05
0 2707 6.77828e-05
0 2708 6.77828e-05
0 2709 6.77828e-05
0 2710 6.77828e-05
0 2711 6.77828e-05
0 2712 6.77828e-05
0 2713 6.77828e-05
0 2714 6.77828e-05
0 2715 6.77828e-05
0 2716 6.77828e-05
0 2717 6.77828e-05
0 2718 6.77828e-05
0 2719 6.77828e-05
0 2720 6.77828e-05
0 2721 6.77828e-05
0 2722 6.77828e-05
0 2723 6.77828e-05
0 2724 6.77828e-05
0 2725 6.77828e-05
0 2726 6.77828e-05
0 2727 6.77828e-05
0 2728 6.77828e-05
0 2729 6.77828e-05
0 2730 6.77828e-05
0 2731 6.77828e-05
0 2732 6.77828e-05
0 2733 6.77828e-05
0 2734 6.77828e-05
0 2735 6.77828e-05
0 2736 6.77828e-05
0 2737 6.77828e-05
0 2738 6.77828e-05
0 2739 6.77828e-05
0 2740 6.77828e-05
0 2741 6.77828e-05
0 2742 6.77828e-05
0 2743 6.77828e-05
0 2744 6.77828e-05
0 2745 6.77828e-05
0 2746 6.77828e-05
0 2747 6.77828e-05
0 2748 6.77828e-05
0 2749 6.77828e-05
0 2750 6.77828e-05
0 2751 6.77828e-05
0 2752 6.77828e-05
0 2753 6.77828e-05
0 2754 6.77828e-05
0 2755 6.77828e-05
0 2756 6.77828e-05
0 2757 6.77828e-05
0 2758 6.77828e-05
0 2759 6.77828e-05
0 2760 6.77828e-05
0 2761 6.77828e-05
0 2762 6.77828e-05
0 2763 6.77828e-05
0 2764 6.77828e-05
0 2765 6.77828e-05
0 2766 6.77828e-05
0 2767 6.77828e-05
0 2768 6.77828e-05
0 2769 6.77828e-05
0 2770 6.77828e-05
0 2771 6.77828e-05
0 2772 6.77828e-05
0 2773 6.77828e-05
0 2774 6.77828e-05
0 2775 6.77828e-05
0 2776 6.77828e-05
0 2777 6.77828e-05
0 2778 6.77828e-05
0 2779 6.77828e-05
0 2780 6.77828e-05
0 2781 6.77828e-05
0 2782 6.77828e-05
0 2783 6.77828e-05
0 2784 6.77828e-05
0 2785 6.77828e-05
0 2786 6.77828e-05
0 2787 6.77828e-05
0 2788 6.77828e-05
0 2789 6.77828e-05
0 2790 6.77828e-05
0 2791 6.77828e-05
0 2792 6.77828e-05
0 2793 6.77828e-05
0 2794 6.77828e-05
0 2795 6.77828e-05
0 2796 6.77828e-05
0 2797 6.77828e-05
0 2798 6.77828e-05
0 2799 6.77828e-05
0 2800 6.77828e-05
0 2801 6.77828e-05
0 2802 6.77828e-05
0 2803 6.77828e-05
0 2804 6.77828e-05
0 2805 6.77828e-05
0 2806 6.77828e-05
0 2807 6.77828e-05
0 2808 6.77828e-05
0 2809 6.77828e-05
0 2810 6.77828e-05
0 2811 6.77828e-05
0 2812 6.77828e-05
0 2813 6.77828e-05
0 2814 6.77828e-05
0 2815 6.77828e-05
0 2816 6.77828e-05
0 2817 6.77828e-05
0 2818 6.77828e-05
0 2819 6.77828e-05
0 2820 6.77828e-05
0 2821 6.77828e-05
0 2822 6.77828e-05
0 2823 6.77828e-05
0 2824 6.77828e-05
0 2825 6.77828e-05
0 2826 6.77828e-05
0 2827 6.77828e-05
0 2828 6.77828e-05
0 2829 6.77828e-05
0 2830 6.77828e-05
0 2831 6.77828e-05
0 2832 6.77828e-05
0 2833 6.77828e-05
0 2834 6.77828e-05
0 2835 6.77828e-05
0 2836 6.77828e-05
0 2837 6.77828e-05
0 2838 6.77828e-05
0 2839 6.77828e-05
0 2840 6.77828e-05
0 2841 6.77828e-05
0 2842 6.77828e-05
0 2843 6.77828e-05
0 2844 6.77828e-05
0 2845 6.77828e-05
0 2846 6.77828e-05
0 2847 6.77828e-05
0 2848 6.77828e-05
0 2849 6.77828e-05
0 2850 6.77828e-05
0 2851 6.77828e-05
0 2852 6.77828e-05
0 2853 6.77828e-05
0 2854 6.77828e-05
0 2855 6.77828e-05
0 2856 6.77828e-05
0 2857 6.77828e-05
0 2858 6.77828e-05
0 2859 6.77828e-05
0 2860 6.77828e-05
0 2861 6.77828e-05
0 2862 6.77828e-05
0 2863 6.77828e-05
0 2864 6.77828e-05
0 2865 6.77828e-05
0 2866 6.77828e-05
0 2867 6.77828e-05
0 2868 6.77828e-05
0 2869 6.77828e-05
0 2870 6.77828e-05
0 2871 6.77828e-05
0 2872 6.77828e-05
0 2873 6.77828e-05
0 2874 6.77828e-05
0 2875 6.77828e-05
0 2876 6.77828e-05
0 2877 6.77828e-05
0 2878 6.77828e-05
0 2879 6.77828e-05
0 2880 6.77828e-05
0 2881 6.77828e-05
0 2882 6.77828e-05
0 2883 6.77828e-05
0 2884 6.77828e-05
0 2885 6.77828e-05
0 2886 6.77828e-05
0 2887 6.77828e-05
0 2888 6.77828e-05
0 2889 6.77828e-05
0 2890 6.77828e-05
0 2891 6.77828e-05
0 2892 6.77828e-05
0 2893 6.77828e-05
0 2894 6.77828e-05
0 2895 6.77828e-05
0 2896 6.77828e-05
0 2897 6.77828e-05
0 2898 6.77828e-05
0 2899 6.77828e-05
0 2900 6.77828e-05
0 2901 6.77828e-05
0 2902 6.77828e-05
0 2903 6.77828e-05
0 2904 6.77828e-05
0 2905 6.77828e-05
0 2906 6.77828e-05
0 2907 6.77828e-05
0 2908 6.77828e-05
0 2909 6.77828e-05
0 2910 6.77828e-05
0 2911 6.77828e-05
0 2912 6.77828e-05
0 2913 6.77828e-05
0 2914 6.77828e-05
0 2915 6.77828e-05
0 2916 6.77828e-05
0 2917 6.77828e-05
0 2918 6.77828e-05
0 2919 6.77828e-05
0 2920 6.77828e-05
0 2921 6.77828e-05
0 2922 6.77828e-05
0 2923 6.77828e-05
0 2924 6.77828e-05
0 2925 6.77828e-05
0 2926 6.77828e-05
0 2927 6.77828e-05
0 2928 6.77828e-05
0 2929 6.77828e-05
0 2930 6.77828e-05
0 2931 6.77828e-05
0 2932 6.77828e-05
0 2933 6.77828e-05
0 2934 6.77828e-05
0 2935 6.77828e-05
0 2936 6.77828e-05
0 2937 6.77828e-05
0 2938 6.77828e-05
0 2939 6.77828e-05
0 2940 6.77828e-05
0 2941 6.77828e-05
0 2942 6.77828e-05
0 2943 6.77828e-05
0 2944 6.77828e-05
0 2945 6.77828e-05
0 2946 6.77828e-05
0 2947 6.77828e-05
0 2948 6.77828e-05
0 2949 6.77828e-05
0 2950 6.77828e-05
0 2951 6.77828e-05
0 2952 6.77828e-05
0 2953 6.77828e-05
0 2954 6.77828e-05
0 2955 6.77828e-05
0 2956 6.77828e-05
0 2957 6.77828e-05
0 2958 6.77828e-05
0 2959 6.77828e-05
0 2960 6.77828e-05
0 2961 6.77828e-05
0 2962 6.77828e-05
0 2963 6.77828e-05
0 2964 6.77828e-05
0 2965 6.77828e-05
0 2966 6.77828e-05
0 2967 6.77828e-05
0 2968 6.77828e-05
0 2969 6.77828e-05
0 2970 6.77828e-05
0 2971 6.77828e-05
0 2972 6.77828e-05
0 2973 6.77828e-05
0 2974 6.77828e-05
0 2975 6.77828e-05
0 2976 6.77828e-05
0 2977 6.77828e-05
0 2978 6.77828e-05
0 2979 6.77828e-05
0 2980 6.77828e-05
0 2981 6.77828e-05
0 2982 6.77828e-05
0 2983 6.77828e-05
0 2984 6.77828e-05
0 2985 6.77828e-05
0 2986 6.77828e-05
0 2987 6.77828e-05
0 2988 6.77828e-05
0 2989 6.77828e-05
0 2990 6.77828e-05
0 2991 6.77828e-05
0 2992 6.77828e-05
0 2993 6.77828e-05
0 2994 6.77828e-05
0 2995 6.77828e-05
0 2996 6.77828e-05
0 2997 6.77828e-05
0 2998 6.77828e-05
0 2999 6.77828e-05
0 3000 6.77828e-05
0 3001 6.77828e-05
0 3002 6.77828e-05
0 3003 6.77828e-05
0 3004 6.77828e-05
0 3005 6.77828e-05
0 3006 6.77828e-05
0 3007 6.77828e-05
0 3008 6.77828e-05
0 3009 6.77828e-05
0 3010 6.77828e-05
0 3011 6.77828e-05
0 3012 6.77828e-05
0 3013 6.77828e-05
0 3014 6.77828e-05
0 3015 6.77828e-05
0 3016 6.77828e-05
0 3017 6.77828e-05
0 3018 6.77828e-05
0 3019 6.77828e-05
0 3020 6.77828e-05
0 3021 6.77828e-05
0 3022 6.77828e-05
0 3023 6.77828e-05
0 3024 6.77828e-05
0 3025 6.77828e-05
0 3026 6.77828e-05
0 3027 6.77828e-05
0 3028 6.77828e-05
0 3029 6.77828e-05
0 3030 6.77828e-05
0 3031 6.77828e-05
0 3032 6.77828e-05
0 3033 6.77828e-05
0 3034 6.77828e-05
0 3035 6.77828e-05
0 3036 6.77828e-05
0 3037 6.77828e-05
0 3038 6.77828e-05
0 3039 6.77828e-05
0 3040 6.77828e-05
0 3041 6.77828e-05
0 3042 6.77828e-05
0 3043 6.77828e-05
0 3044 6.77828e-05
0 3045 6.77828e-05
0 3046 6.77828e-05
0 3047 6.77828e-05
0 3048 6.77828e-05
0 3049 6.77828e-05
0 3050 6.77828e-05
0 3051 6.77828e-05
0 3052 6.77828e-05
0 3053 6.77828e-05
0 3054 6.77828e-05
0 3055 6.77828e-05
0 3056 6.77828e-05
0 3057 6.77828e-05
0 3058 6.77828e-05
0 3059 6.77828e-05
0 3060 6.77828e-05
0 3061 6.77828e-05
0 3062 6.77828e-05
0 3063 6.77828e-05
0 3064 6.77828e-05
0 3065 6.77828e-05
0 3066 6.77828e-05
0 3067 6.77828e-05
0 3068 6.77828e-05
0 3069 6.77828e-05
0 3070 6.77828e-05
0 3071 6.77828e-05
0 3072 6.77828e-05
0 3073 6.77828e-05
0 3074 6.77828e-05
0 3075 6.77828e-05
0 3076 6.77828e-05
0 3077 6.77828e-05
0 3078 6.77828e-05
0 3079 6.77828e-05
0 3080 6.77828e-05
0 3081 6.77828e-05
0 3082 6.77828e-05
0 3083 6.77828e-05
0 3084 6.77828e-05
0 3085 6.77828e-05
0 3086 6.77828e-05
0 3087 6.77828e-05
0 3088 6.77828e-05
0 3089 6.77828e-05
0 3090 6.77828e-05
0 3091 6.77828e-05
0 3092 6.77828e-05
0 3093 6.77828e-05
0 3094 6.77828e-05
0 3095 6.77828e-05
0 3096 6.77828e-05
0 3097 6.77828e-05
0 3098 6.77828e-05
0 3099 6.77828e-05
0 3100 6.77828e-05
0 3101 6.77828e-05
0 3102 6.77828e-05
0 3103 6.77828e-05
0 3104 6.77828e-05
0 3105 6.77828e-05
0 3106 6.77828e-05
0 3107 6.77828e-05
0 3108 6.77828e-05
0 3109 6.77828e-05
0 3110 6.77828e-05
0 3111 6.77828e-05
0 3112 6.77828e-05
0 3113 6.77828e-05
0 3114 6.77828e-05
0 3115 6.77828e-05
0 3116 6.77828e-05
0 3117 6.77828e-05
0 3118 6.77828e-05
0 3119 6.77828e-05
0 3120 6.77828e-05
0 3121 6.77828e-05
0 3122 6.77828e-05
0 3123 6.77828e-05
0 3124 6.77828e-05
0 3125 6.77828e-05
0 3126 6.77828e-05
0 3127 6.77828e-05
0 3128 6.77828e-05
0 3129 6.77828e-05
0 3130 6.77828e-05
0 3131 6.77828e-05
0 3132 6.77828e-05
0 3133 6.77828e-05
0 3134 6.77828e-05
0 3135 6.77828e-05
0 3136 6.77828e-05
0 3137 6.77828e-05
0 3138 6.77828e-05
0 3139 6.77828e-05
0 3140 6.77828e-05
0 3141 6.77828e-05
0 3142 6.77828e-05
0 3143 6.77828e-05
0 3144 6.77828e-05
0 3145 6.77828e-05
0 3146 6.77828e-05
0 3147 6.77828e-05
0 3148 6.77828e-05
0 3149 6.77828e-05
0 3150 6.77828e-05
0 3151 6.77828e-05
0 3152 6.77828e-05
0 3153 6.77828e-05
0 3154 6.77828e-05
0 3155 6.77828e-05
0 3156 6.77828e-05
0 3157 6.77828e-05
0 3158 6.77828e-05
0 3159 6.77828e-05
0 3160 6.77828e-05
0 3161 6.77828e-05
0 3162 6.77828e-05
0 3163 6.77828e-05
0 3164 6.77828e-05
0 3165 6.77828e-05
0 3166 6.77828e-05
0 3167 6.77828e-05
0 3168 6.77828e-05
0 3169 6.77828e-05
0 3170 6.77828e-05
0 3171 6.77828e-05
0 3172 6.77828e-05
0 3173 6.77828e-05
0 3174 6.77828e-05
0 3175 6.77828e-05
0 3176 6.77828e-05
0 3177 6.77828e-05
0 3178 6.77828e-05
0 3179 6.77828e-05
0 3180 6.77828e-05
0 3181 6.77828e-05
0 3182 6.77828e-05
0 3183 6.77828e-05
0 3184 6.77828e-05
0 3185 6.77828e-05
0 3186 6.77828e-05
0 3187 6.77828e-05
0 3188 6.77828e-05
0 3189 6.77828e-05
0 3190 6.77828e-05
0 3191 6.77828e-05
0 3192 6.77828e-05
0 3193 6.77828e-05
0 3194 6.77828e-05
0 3195 6.77828e-05
0 3196 6.77828e-05
0 3197 6.77828e-05
0 3198 6.77828e-05
0 3199 6.77828e-05
0 3200 6.77828e-05
0 3201 6.77828e-05
0 3202 6.77828e-05
0 3203 6.77828e-05
0 3204 6.77828e-05
0 3205 6.77828e-05
0 3206 6.77828e-05
0 3207 6.77828e-05
0 3208 6.77828e-05
0 3209 6.77828e-05
0 3210 6.77828e-05
0 3211 6.77828e-05
0 3212 6.77828e-05
0 3213 6.77828e-05
0 3214 6.77828e-05
0 3215 6.77828e-05
0 3216 6.77828e-05
0 3217 6.77828e-05
0 3218 6.77828e-05
0 3219 6.77828e-05
0 3220 6.77828e-05
0 3221 6.77828e-05
0 3222 6.77828e-05
0 3223 6.77828e-05
0 3224 6.77828e-05
0 3225 6.77828e-05
0 3226 6.77828e-05
0 3227 6.77828e-05
0 3228 6.77828e-05
0 3229 6.77828e-05
0 3230 6.77828e-05
0 3231 6.77828e-05
0 3232 6.77828e-05
0 3233 6.77828e-05
0 3234 6.77828e-05
0 3235 6.77828e-05
0 3236 6.77828e-05
0 3237 6.77828e-05
0 3238 6.77828e-05
0 3239 6.77828e-05
0 3240 6.77828e-05
0 3241 6.77828e-05
0 3242 6.77828e-05
0 3243 6.77828e-05
0 3244 6.77828e-05
0 3245 6.77828e-05
0 3246 6.77828e-05
0 3247 6.77828e-05
0 3248 6.77828e-05
0 3249 6.77828e-05
0 3250 6.77828e-05
0 3251 6.77828e-05
0 3252 6.77828e-05
0 3253 6.77828e-05
0 3254 6.77828e-05
0 3255 6.77828e-05
0 3256 6.77828e-05
0 3257 6.77828e-05
0 3258 6.77828e-05
0 3259 6.77828e-05
0 3260 6.77828e-05
0 3261 6.77828e-05
0 3262 6.77828e-05
0 3263 6.77828e-05
0 3264 6.77828e-05
0 3265 6.77828e-05
0 3266 6.77828e-05
0 3267 6.77828e-05
0 3268 6.77828e-05
0 3269 6.77828e-05
0 3270 6.77828e-05
0 3271 6.77828e-05
0 3272 6.77828e-05
0 3273 6.77828e-05
0 3274 6.77828e-05
0 3275 6.77828e-05
0 3276 6.77828e-05
0 3277 6.77828e-05
0 3278 6.77828e-05
0 3279 6.77828e-05
0 3280 6.77828e-05
0 3281 6.77828e-05
0 3282 6.77828e-05
0 3283 6.77828e-05
0 3284 6.77828e-05
0 3285 6.77828e-05
0 3286 6.77828e-05
0 3287 6.77828e-05
0 3288 6.77828e-05
0 3289 6.77828e-05
0 3290 6.77828e-05
0 3291 6.77828e-05
0 3292 6.77828e-05
0 3293 6.77828e-05
0 3294 6.77828e-05
0 3295 6.77828e-05
0 3296 6.77828e-05
0 3297 6.77828e-05
0 3298 6.77828e-05
0 3299 6.77828e-05
0 3300 6.77828e-05
0 3301 6.77828e-05
0 3302 6.77828e-05
0 3303 6.77828e-05
0 3304 6.77828e-05
0 3305 6.77828e-05
0 3306 6.77828e-05
0 3307 6.77828e-05
0 3308 6.77828e-05
0 3309 6.77828e-05
0 3310 6.77828e-05
0 3311 6.77828e-05
0 3312 6.77828e-05
0 3313 6.77828e-05
0 3314 6.77828e-05
0 3315 6.77828e-05
0 3316 6.77828e-05
0 3317 6.77828e-05
0 3318 6.77828e-05
0 3319 6.77828e-05
0 3320 6.77828e-05
0 3321 6.77828e-05
0 3322 6.77828e-05
0 3323 6.77828e-05
0 3324 6.77828e-05
0 3325 6.77828e-05
0 3326 6.77828e-05
0 3327 6.77828e-05
0 3328 6.77828e-05
0 3329 6.77828e-05
0 3330 6.77828e-05
0 3331 6.77828e-05
0 3332 6.77828e-05
0 3333 6.77828e-05
0 3334 6.77828e-05
0 3335 6.77828e-05
0 3336 6.77828e-05
0 3337 6.77828e-05
0 3338 6.77828e-05
0 3339 6.77828e-05
0 3340 6.77828e-05
0 3341 6.77828e-05
0 3342 6.77828e-05
0 3343 6.77828e-05
0 3344 6.77828e-05
0 3345 6.77828e-05
0 3346 6.77828e-05
0 3347 6.77828e-05
0 3348 6.77828e-05
0 3349 6.77828e-05
0 3350 6.77828e-05
0 3351 6.77828e-05
0 3352 6.77828e-05
0 3353 6.77828e-05
0 3354 6.77828e-05
0 3355 6.77828e-05
0 3356 6.77828e-05
0 3357 6.77828e-05
0 3358 6.77828e-05
0 3359 6.77828e-05
0 3360 6.77828e-05
0 3361 6.77828e-05
0 3362 6.77828e-05
0 3363 6.77828e-05
0 3364 6.77828e-05
0 3365 6.77828e-05
0 3366 6.77828e-05
0 3367 6.77828e-05
0 3368 6.77828e-05
0 3369 6.77828e-05
0 3370 6.77828e-05
0 3371 6.77828e-05
0 3372 6.77828e-05
0 3373 6.77828e-05
0 3374 6.77828e-05
0 3375 6.77828e-05
0 3376 6.77828e-05
0 3377 6.77828e-05
0 3378 6.77828e-05
0 3379 6.77828e-05
0 3380 6.77828e-05
0 3381 6.77828e-05
0 3382 6.77828e-05
0 3383 6.77828e-05
0 3384 6.77828e-05
0 3385 6.77828e-05
0 3386 6.77828e-05
0 3387 6.77828e-05
0 3388 6.77828e-05
0 3389 6.77828e-05
0 3390 6.77828e-05
0 3391 6.77828e-05
0 3392 6.77828e-05
0 3393 6.77828e-05
0 3394 6.77828e-05
0 3395 6.77828e-05
0 3396 6.77828e-05
0 3397 6.77828e-05
0 3398 6.77828e-05
0 3399 6.77828e-05
0 3400 6.77828e-05
0 3401 6.77828e-05
0 3402 6.77828e-05
0 3403 6.77828e-05
0 3404 6.77828e-05
0 3405 6.77828e-05
0 3406 6.77828e-05
0 3407 6.77828e-05
0 3408 6.77828e-05
0 3409 6.77828e-05
0 3410 6.77828e-05
0 3411 6.77828e-05
0 3412 6.77828e-05
0 3413 6.77828e-05
0 3414 6.77828e-05
0 3415 6.77828e-05
0 3416 6.77828e-05
0 3417 6.77828e-05
0 3418 6.77828e-05
0 3419 6.77828e-05
0 3420 6.77828e-05
0 3421 6.77828e-05
0 3422 6.77828e-05
0 3423 6.77828e-05
0 3424 6.77828e-05
0 3425 6.77828e-05
0 3426 6.77828e-05
0 3427 6.77828e-05
0 3428 6.77828e-05
0 3429 6.77828e-05
0 3430 6.77828e-05
0 3431 6.77828e-05
0 3432 6.77828e-05
0 3433 6.77828e-05
0 3434 6.77828e-05
0 3435 6.77828e-05
0 3436 6.77828e-05
0 3437 6.77828e-05
0 3438 6.77828e-05
0 3439 6.77828e-05
0 3440 6.77828e-05
0 3441 6.77828e-05
0 3442 6.77828e-05
0 3443 6.77828e-05
0 3444 6.77828e-05
0 3445 6.77828e-05
0 3446 6.77828e-05
0 3447 6.77828e-05
0 3448 6.77828e-05
0 3449 6.77828e-05
0 3450 6.77828e-05
0 3451 6.77828e-05
0 3452 6.77828e-05
0 3453 6.77828e-05
0 3454 6.77828e-05
0 3455 6.77828e-05
0 3456 6.77828e-05
0 3457 6.77828e-05
0 3458 6.77828e-05
0 3459 6.77828e-05
0 3460 6.77828e-05
0 3461 6.77828e-05
0 3462 6.77828e-05
0 3463 6.77828e-05
0 3464 6.77828e-05
0 3465 6.77828e-05
0 3466 6.77828e-05
0 3467 6.77828e-05
0 3468 6.77828e-05
0 3469 6.77828e-05
0 3470 6.77828e-05
0 3471 6.77828e-05
0 3472 6.77828e-05
0 3473 6.77828e-05
0 3474 6.77828e-05
0 3475 6.77828e-05
0 3476 6.77828e-05
0 3477 6.77828e-05
0 3478 6.77828e-05
0 3479 6.77828e-05
0 3480 6.77828e-05
0 3481 6.77828e-05
0 3482 6.77828e-05
0 3483 6.77828e-05
0 3484 6.77828e-05
0 3485 6.77828e-05
0 3486 6.77828e-05
0 3487 6.77828e-05
0 3488 6.77828e-05
0 3489 6.77828e-05
0 3490 6.77828e-05
0 3491 6.77828e-05
0 3492 6.77828e-05
0 3493 6.77828e-05
0 3494 6.77828e-05
0 3495 6.77828e-05
0 3496 6.77828e-05
0 3497 6.77828e-05
0 3498 6.77828e-05
0 3499 6.77828e-05
0 3500 6.77828e-05
0 3501 6.77828e-05
0 3502 6.77828e-05
0 3503 6.77828e-05
0 3504 6.77828e-05
0 3505 6.77828e-05
0 3506 6.77828e-05
0 3507 6.77828e-05
0 3508 6.77828e-05
0 3509 6.77828e-05
0 3510 6.77828e-05
0 3511 6.77828e-05
0 3512 6.77828e-05
0 3513 6.77828e-05
0 3514 6.77828e-05
0 3515 6.77828e-05
0 3516 6.77828e-05
0 3517 6.77828e-05
0 3518 6.77828e-05
0 3519 6.77828e-05
0 3520 6.77828e-05
0 3521 6.77828e-05
0 3522 6.77828e-05
0 3523 6.77828e-05
0 3524 6.77828e-05
0 3525 6.77828e-05
0 3526 6.77828e-05
0 3527 6.77828e-05
0 3528 6.77828e-05
0 3529 6.77828e-05
0 3530 6.77828e-05
0 3531 6.77828e-05
0 3532 6.77828e-05
0 3533 6.77828e-05
0 3534 6.77828e-05
0 3535 6.77828e-05
0 3536 6.77828e-05
0 3537 6.77828e-05
0 3538 6.77828e-05
0 3539 6.77828e-05
0 3540 6.77828e-05
0 3541 6.77828e-05
0 3542 6.77828e-05
0 3543 6.77828e-05
0 3544 6.77828e-05
0 3545 6.77828e-05
0 3546 6.77828e-05
0 3547 6.77828e-05
0 3548 6.77828e-05
0 3549 6.77828e-05
0 3550 6.77828e-05
0 3551 6.77828e-05
0 3552 6.77828e-05
0 3553 6.77828e-05
0 3554 6.77828e-05
0 3555 6.77828e-05
0 3556 6.77828e-05
0 3557 6.77828e-05
0 3558 6.77828e-05
0 3559 6.77828e-05
0 3560 6.77828e-05
0 3561 6.77828e-05
0 3562 6.77828e-05
0 3563 6.77828e-05
0 3564 6.77828e-05
0 3565 6.77828e-05
0 3566 6.77828e-05
0 3567 6.77828e-05
0 3568 6.77828e-05
0 3569 6.77828e-05
0 3570 6.77828e-05
0 3571 6.77828e-05
0 3572 6.77828e-05
0 3573 6.77828e-05
0 3574 6.77828e-05
0 3575 6.77828e-05
0 3576 6.77828e-05
0 3577 6.77828e-05
0 3578 6.77828e-05
0 3579 6.77828e-05
0 3580 6.77828e-05
0 3581 6.77828e-05
0 3582 6.77828e-05
0 3583 6.77828e-05
0 3584 6.77828e-05
0 3585 6.77828e-05
0 3586 6.77828e-05
0 3587 6.77828e-05
0 3588 6.77828e-05
0 3589 6.77828e-05
0 3590 6.77828e-05
0 3591 6.77828e-05
0 3592 6.77828e-05
0 3593 6.77828e-05
0 3594 6.77828e-05
0 3595 6.77828e-05
0 3596 6.77828e-05
0 3597 6.77828e-05
0 3598 6.77828e-05
0 3599 6.77828e-05
0 3600 6.77828e-05
0 3601 6.77828e-05
0 3602 6.77828e-05
0 3603 6.77828e-05
0 3604 6.77828e-05
0 3605 6.77828e-05
0 3606 6.77828e-05
0 3607 6.77828e-05
0 3608 6.77828e-05
0 3609 6.77828e-05
0 3610 6.77828e-05
0 3611 6.77828e-05
0 3612 6.77828e-05
0 3613 6.77828e-05
0 3614 6.77828e-05
0 3615 6.77828e-05
0 3616 6.77828e-05
0 3617 6.77828e-05
0 3618 6.77828e-05
0 3619 6.77828e-05
0 3620 6.77828e-05
0 3621 6.77828e-05
0 3622 6.77828e-05
0 3623 6.77828e-05
0 3624 6.77828e-05
0 3625 6.77828e-05
0 3626 6.77828e-05
0 3627 6.77828e-05
0 3628 6.77828e-05
0 3629 6.77828e-05
0 3630 6.77828e-05
0 3631 6.77828e-05
0 3632 6.77828e-05
0 3633 6.77828e-05
0 3634 6.77828e-05
0 3635 6.77828e-05
0 3636 6.77828e-05
0 3637 6.77828e-05
0 3638 6.77828e-05
0 3639 6.77828e-05
0 3640 6.77828e-05
0 3641 6.77828e-05
0 3642 6.77828e-05
0 3643 6.77828e-05
0 3644 6.77828e-05
0 3645 6.77828e-05
0 3646 6.77828e-05
0 3647 6.77828e-05
0 3648 6.77828e-05
0 3649 6.77828e-05
0 3650 6.77828e-05
0 3651 6.77828e-05
0 3652 6.77828e-05
0 3653 6.77828e-05
0 3654 6.77828e-05
0 3655 6.77828e-05
0 3656 6.77828e-05
0 3657 6.77828e-05
0 3658 6.77828e-05
0 3659 6.77828e-05
0 3660 6.77828e-05
0 3661 6.77828e-05
0 3662 6.77828e-05
0 3663 6.77828e-05
0 3664 6.77828e-05
0 3665 6.77828e-05
0 3666 6.77828e-05
0 3667 6.77828e-05
0 3668 6.77828e-05
0 3669 6.77828e-05
0 3670 6.77828e-05
0 3671 6.77828e-05
0 3672 6.77828e-05
0 3673 6.77828e-05
0 3674 6.77828e-05
0 3675 6.77828e-05
0 3676 6.77828e-05
0 3677 6.77828e-05
0 3678 6.77828e-05
0 3679 6.77828e-05
0 3680 6.77828e-05
0 3681 6.77828e-05
0 3682 6.77828e-05
0 3683 6.77828e-05
0 3684 6.77828e-05
0 3685 6.77828e-05
0 3686 6.77828e-05
0 3687 6.77828e-05
0 3688 6.77828e-05
0 3689 6.77828e-05
0 3690 6.77828e-05
0 3691 6.77828e-05
0 3692 6.77828e-05
0 3693 6.77828e-05
0 3694 6.77828e-05
0 3695 6.77828e-05
0 3696 6.77828e-05
0 3697 6.77828e-05
0 3698 6.77828e-05
0 3699 6.77828e-05
0 3700 6.77828e-05
0 3701 6.77828e-05
0 3702 6.77828e-05
0 3703 6.77828e-05
0 3704 6.77828e-05
0 3705 6.77828e-05
0 3706 6.77828e-05
0 3707 6.77828e-05
0 3708 6.77828e-05
0 3709 6.77828e-05
0 3710 6.77828e-05
0 3711 6.77828e-05
0 3712 6.77828e-05
0 3713 6.77828e-05
0 3714 6.77828e-05
0 3715 6.77828e-05
0 3716 6.77828e-05
0 3717 6.77828e-05
0 3718 6.77828e-05
0 3719 6.77828e-05
0 3720 6.77828e-05
0 3721 6.77828e-05
0 3722 6.77828e-05
0 3723 6.77828e-05
0 3724 6.77828e-05
0 3725 6.77828e-05
0 3726 6.77828e-05
0 3727 6.77828e-05
0 3728 6.77828e-05
0 3729 6.77828e-05
0 3730 6.77828e-05
0 3731 6.77828e-05
0 3732 6.77828e-05
0 3733 6.77828e-05
0 3734 6.77828e-05
0 3735 6.77828e-05
0 3736 6.77828e-05
0 3737 6.77828e-05
0 3738 6.77828e-05
0 3739 6.77828e-05
0 3740 6.77828e-05
0 3741 6.77828e-05
0 3742 6.77828e-05
0 3743 6.77828e-05
0 3744 6.77828e-05
0 3745 6.77828e-05
0 3746 6.77828e-05
0 3747 6.77828e-05
0 3748 6.77828e-05
0 3749 6.77828e-05
0 3750 6.77828e-05
0 3751 6.77828e-05
0 3752 6.77828e-05
0 3753 6.77828e-05
0 3754 6.77828e-05
0 3755 6.77828e-05
0 3756 6.77828e-05
0 3757 6.77828e-05
0 3758 6.77828e-05
0 3759 6.77828e-05
0 3760 6.77828e-05
0 3761 6.77828e-05
0 3762 6.77828e-05
0 3763 6.77828e-05
0 3764 6.77828e-05
0 3765 6.77828e-05
0 3766 6.77828e-05
0 3767 6.77828e-05
0 3768 6.77828e-05
0 3769 6.77828e-05
0 3770 6.77828e-05
0 3771 6.77828e-05
0 3772 6.77828e-05
0 3773 6.77828e-05
0 3774 6.77828e-05
0 3775 6.77828e-05
0 3776 6.77828e-05
0 3777 6.77828e-05
0 3778 6.77828e-05
0 3779 6.77828e-05
0 3780 6.77828e-05
0 3781 6.77828e-05
0 3782 6.77828e-05
0 3783 6.77828e-05
0 3784 6.77828e-05
0 3785 6.77828e-05
0 3786 6.77828e-05
0 3787 6.77828e-05
0 3788 6.77828e-05
0 3789 6.77828e-05
0 3790 6.77828e-05
0 3791 6.77828e-05
0 3792 6.77828e-05
0 3793 6.77828e-05
0 3794 6.77828e-05
0 3795 6.77828e-05
0 3796 6.77828e-05
0 3797 6.77828e-05
0 3798 6.77828e-05
0 3799 6.77828e-05
0 3800 6.77828e-05
0 3801 6.77828e-05
0 3802 6.77828e-05
0 3803 6.77828e-05
0 3804 6.77828e-05
0 3805 6.77828e-05
0 3806 6.77828e-05
0 3807 6.77828e-05
0 3808 6.77828e-05
0 3809 6.77828e-05
0 3810 6.77828e-05
0 3811 6.77828e-05
0 3812 6.77828e-05
0 3813 6.77828e-05
0 3814 6.77828e-05
0 3815 6.77828e-05
0 3816 6.77828e-05
0 3817 6.77828e-05
0 3818 6.77828e-05
0 3819 6.77828e-05
0 3820 6.77828e-05
0 3821 6.77828e-05
0 3822 6.77828e-05
0 3823 6.77828e-05
0 3824 6.77828e-05
0 3825 6.77828e-05
0 3826 6.77828e-05
0 3827 6.77828e-05
0 3828 6.77828e-05
0 3829 6.77828e-05
0 3830 6.77828e-05
0 3831 6.77828e-05
0 3832 6.77828e-05
0 3833 6.77828e-05
0 3834 6.77828e-05
0 3835 6.77828e-05
0 3836 6.77828e-05
0 3837 6.77828e-05
0 3838 6.77828e-05
0 3839 6.77828e-05
0 3840 6.77828e-05
0 3841 6.77828e-05
0 3842 6.77828e-05
0 3843 6.77828e-05
0 3844 6.77828e-05
0 3845 6.77828e-05
0 3846 6.77828e-05
0 3847 6.77828e-05
0 3848 6.77828e-05
0 3849 6.77828e-05
0 3850 6.77828e-05
0 3851 6.77828e-05
0 3852 6.77828e-05
0 3853 6.77828e-05
0 3854 6.77828e-05
0 3855 6.77828e-05
0 3856 6.77828e-05
0 3857 6.77828e-05
0 3858 6.77828e-05
0 3859 6.77828e-05
0 3860 6.77828e-05
0 3861 6.77828e-05
0 3862 6.77828e-05
0 3863 6.77828e-05
0 3864 6.77828e-05
0 3865 6.77828e-05
0 3866 6.77828e-05
0 3867 6.77828e-05
0 3868 6.77828e-05
0 3869 6.77828e-05
0 3870 6.77828e-05
0 3871 6.77828e-05
0 3872 6.77828e-05
0 3873 6.77828e-05
0 3874 6.77828e-05
0 3875 6.77828e-05
0 3876 6.77828e-05
0 3877 6.77828e-05
0 3878 6.77828e-05
0 3879 6.77828e-05
0 3880 6.77828e-05
0 3881 6.77828e-05
0 3882 6.77828e-05
0 3883 6.77828e-05
0 3884 6.77828e-05
0 3885 6.77828e-05
0 3886 6.77828e-05
0 3887 6.77828e-05
0 3888 6.77828e-05
0 3889 6.77828e-05
0 3890 6.77828e-05
0 3891 6.77828e-05
0 3892 6.77828e-05
0 3893 6.77828e-05
0 3894 6.77828e-05
0 3895 6.77828e-05
0 3896 6.77828e-05
0 3897 6.77828e-05
0 3898 6.77828e-05
0 3899 6.77828e-05
0 3900 6.77828e-05
0 3901 6.77828e-05
0 3902 6.77828e-05
0 3903 6.77828e-05
0 3904 6.77828e-05
0 3905 6.77828e-05
0 3906 6.77828e-05
0 3907 6.77828e-05
0 3908 6.77828e-05
0 3909 6.77828e-05
0 3910 6.77828e-05
0 3911 6.77828e-05
0 3912 6.77828e-05
0 3913 6.77828e-05
0 3914 6.77828e-05
0 3915 6.77828e-05
0 3916 6.77828e-05
0 3917 6.77828e-05
0 3918 6.77828e-05
0 3919 6.77828e-05
0 3920 6.77828e-05
0 3921 6.77828e-05
0 3922 6.77828e-05
0 3923 6.77828e-05
0 3924 6.77828e-05
0 3925 6.77828e-05
0 3926 6.77828e-05
0 3927 6.77828e-05
0 3928 6.77828e-05
0 3929 6.77828e-05
0 3930 6.77828e-05
0 3931 6.77828e-05
0 3932 6.77828e-05
0 3933 6.77828e-05
0 3934 6.77828e-05
0 3935 6.77828e-05
0 3936 6.77828e-05
0 3937 6.77828e-05
0 3938 6.77828e-05
0 3939 6.77828e-05
0 3940 6.77828e-05
0 3941 6.77828e-05
0 3942 6.77828e-05
0 3943 6.77828e-05
0 3944 6.77828e-05
0 3945 6.77828e-05
0 3946 6.77828e-05
0 3947 6.77828e-05
0 3948 6.77828e-05
0 3949 6.77828e-05
0 3950 6.77828e-05
0 3951 6.77828e-05
0 3952 6.77828e-05
0 3953 6.77828e-05
0 3954 6.77828e-05
0 3955 6.77828e-05
0 3956 6.77828e-05
0 3957 6.77828e-05
0 3958 6.77828e-05
0 3959 6.77828e-05
0 3960 6.77828e-05
0 3961 6.77828e-05
0 3962 6.77828e-05
0 3963 6.77828e-05
0 3964 6.77828e-05
0 3965 6.77828e-05
0 3966 6.77828e-05
0 3967 6.77828e-05
0 3968 6.77828e-05
0 3969 6.77828e-05
0 3970 6.77828e-05
0 3971 6.77828e-05
0 3972 6.77828e-05
0 3973 6.77828e-05
0 3974 6.77828e-05
0 3975 6.77828e-05
0 3976 6.77828e-05
0 3977 6.77828e-05
0 3978 6.77828e-05
0 3979 6.77828e-05
0 3980 6.77828e-05
0 3981 6.77828e-05
0 3982 6.77828e-05
0 3983 6.77828e-05
0 3984 6.77828e-05
0 3985 6.77828e-05
0 3986 6.77828e-05
0 3987 6.77828e-05
0 3988 6.77828e-05
0 3989 6.77828e-05
0 3990 6.77828e-05
0 3991 6.77828e-05
0 3992 6.77828e-05
0 3993 6.77828e-05
0 3994 6.77828e-05
0 3995 6.77828e-05
0 3996 6.77828e-05
0 3997 6.77828e-05
0 3998 6.77828e-05
0 3999 6.77828e-05
0 4000 6.77828e-05
0 4001 6.77828e-05
0 4002 6.77828e-05
0 4003 6.77828e-05
0 4004 6.77828e-05
0 4005 6.77828e-05
0 4006 6.77828e-05
0 4007 6.77828e-05
0 4008 6.77828e-05
0 4009 6.77828e-05
0 4010 6.77828e-05
0 4011 6.77828e-05
0 4012 6.77828e-05
0 4013 6.77828e-05
0 4014 6.77828e-05
0 4015 6.77828e-05
0 4016 6.77828e-05
0 4017 6.77828e-05
0 4018 6.77828e-05
0 4019 6.77828e-05
0 4020 6.77828e-05
0 4021 6.77828e-05
0 4022 6.77828e-05
0 4023 6.77828e-05
0 4024 6.77828e-05
0 4025 6.77828e-05
0 4026 6.77828e-05
0 4027 6.77828e-05
0 4028 6.77828e-05
0 4029 6.77828e-05
0 4030 6.77828e-05
0 4031 6.77828e-05
0 4032 6.77828e-05
0 4033 6.77828e-05
0 4034 6.77828e-05
0 4035 6.77828e-05
0 4036 6.77828e-05
0 4037 6.77828e-05
0 4038 6.77828e-05
0 4039 6.77828e-05
0 4040 6.77828e-05
0 4041 6.77828e-05
0 4042 6.77828e-05
0 4043 6.77828e-05
0 4044 6.77828e-05
0 4045 6.77828e-05
0 4046 6.77828e-05
0 4047 6.77828e-05
0 4048 6.77828e-05
0 4049 6.77828e-05
0 4050 6.77828e-05
0 4051 6.77828e-05
0 4052 6.77828e-05
0 4053 6.77828e-05
0 4054 6.77828e-05
0 4055 6.77828e-05
0 4056 6.77828e-05
0 4057 6.77828e-05
0 4058 6.77828e-05
0 4059 6.77828e-05
0 4060 6.77828e-05
0 4061 6.77828e-05
0 4062 6.77828e-05
0 4063 6.77828e-05
0 4064 6.77828e-05
0 4065 6.77828e-05
0 4066 6.77828e-05
0 4067 6.77828e-05
0 4068 6.77828e-05
0 4069 6.77828e-05
0 4070 6.77828e-05
0 4071 6.77828e-05
0 4072 6.77828e-05
0 4073 6.77828e-05
0 4074 6.77828e-05
0 4075 6.77828e-05
0 4076 6.77828e-05
0 4077 6.77828e-05
0 4078 6.77828e-05
0 4079 6.77828e-05
0 4080 6.77828e-05
0 4081 6.77828e-05
0 4082 6.77828e-05
0 4083 6.77828e-05
0 4084 6.77828e-05
0 4085 6.77828e-05
0 4086 6.77828e-05
0 4087 6.77828e-05
0 4088 6.77828e-05
0 4089 6.77828e-05
0 4090 6.77828e-05
0 4091 6.77828e-05
0 4092 6.77828e-05
0 4093 6.77828e-05
0 4094 6.77828e-05
0 4095 6.77828e-05
0 4096 6.77828e-05
0 4097 6.77828e-05
0 4098 6.77828e-05
0 4099 6.77828e-05
0 4100 6.77828e-05
0 4101 6.77828e-05
0 4102 6.77828e-05
0 4103 6.77828e-05
0 4104 6.77828e-05
0 4105 6.77828e-05
0 4106 6.77828e-05
0 4107 6.77828e-05
0 4108 6.77828e-05
0 4109 6.77828e-05
0 4110 6.77828e-05
0 4111 6.77828e-05
0 4112 6.77828e-05
0 4113 6.77828e-05
0 4114 6.77828e-05
0 4115 6.77828e-05
0 4116 6.77828e-05
0 4117 6.77828e-05
0 4118 6.77828e-05
0 4119 6.77828e-05
0 4120 6.77828e-05
0 4121 6.77828e-05
0 4122 6.77828e-05
0 4123 6.77828e-05
0 4124 6.77828e-05
0 4125 6.77828e-05
0 4126 6.77828e-05
0 4127 6.77828e-05
0 4128 6.77828e-05
0 4129 6.77828e-05
0 4130 6.77828e-05
0 4131 6.77828e-05
0 4132 6.77828e-05
0 4133 6.77828e-05
0 4134 6.77828e-05
0 4135 6.77828e-05
0 4136 6.77828e-05
0 4137 6.77828e-05
0 4138 6.77828e-05
0 4139 6.77828e-05
0 4140 6.77828e-05
0 4141 6.77828e-05
0 4142 6.77828e-05
0 4143 6.77828e-05
0 4144 6.77828e-05
0 4145 6.77828e-05
0 4146 6.77828e-05
0 4147 6.77828e-05
0 4148 6.77828e-05
0 4149 6.77828e-05
0 4150 6.77828e-05
0 4151 6.77828e-05
0 4152 6.77828e-05
0 4153 6.77828e-05
0 4154 6.77828e-05
0 4155 6.77828e-05
0 4156 6.77828e-05
0 4157 6.77828e-05
0 4158 6.77828e-05
0 4159 6.77828e-05
0 4160 6.77828e-05
0 4161 6.77828e-05
0 4162 6.77828e-05
0 4163 6.77828e-05
0 4164 6.77828e-05
0 4165 6.77828e-05
0 4166 6.77828e-05
0 4167 6.77828e-05
0 4168 6.77828e-05
0 4169 6.77828e-05
0 4170 6.77828e-05
0 4171 6.77828e-05
0 4172 6.77828e-05
0 4173 6.77828e-05
0 4174 6.77828e-05
0 4175 6.77828e-05
0 4176 6.77828e-05
0 4177 6.77828e-05
0 4178 6.77828e-05
0 4179 6.77828e-05
0 4180 6.77828e-05
0 4181 6.77828e-05
0 4182 6.77828e-05
0 4183 6.77828e-05
0 4184 6.77828e-05
0 4185 6.77828e-05
0 4186 6.77828e-05
0 4187 6.77828e-05
0 4188 6.77828e-05
0 4189 6.77828e-05
0 4190 6.77828e-05
0 4191 6.77828e-05
0 4192 6.77828e-05
0 4193 6.77828e-05
0 4194 6.77828e-05
0 4195 6.77828e-05
0 4196 6.77828e-05
0 4197 6.77828e-05
0 4198 6.77828e-05
0 4199 6.77828e-05
0 4200 6.77828e-05
0 4201 6.77828e-05
0 4202 6.77828e-05
0 4203 6.77828e-05
0 4204 6.77828e-05
0 4205 6.77828e-05
0 4206 6.77828e-05
0 4207 6.77828e-05
0 4208 6.77828e-05
0 4209 6.77828e-05
0 4210 6.77828e-05
0 4211 6.77828e-05
0 4212 6.77828e-05
0 4213 6.77828e-05
0 4214 6.77828e-05
0 4215 6.77828e-05
0 4216 6.77828e-05
0 4217 6.77828e-05
0 4218 6.77828e-05
0 4219 6.77828e-05
0 4220 6.77828e-05
0 4221 6.77828e-05
0 4222 6.77828e-05
0 4223 6.77828e-05
0 4224 6.77828e-05
0 4225 6.77828e-05
0 4226 6.77828e-05
0 4227 6.77828e-05
0 4228 6.77828e-05
0 4229 6.77828e-05
0 4230 6.77828e-05
0 4231 6.77828e-05
0 4232 6.77828e-05
0 4233 6.77828e-05
0 4234 6.77828e-05
0 4235 6.77828e-05
0 4236 6.77828e-05
0 4237 6.77828e-05
0 4238 6.77828e-05
0 4239 6.77828e-05
0 4240 6.77828e-05
0 4241 6.77828e-05
0 4242 6.77828e-05
0 4243 6.77828e-05
0 4244 6.77828e-05
0 4245 6.77828e-05
0 4246 6.77828e-05
0 4247 6.77828e-05
0 4248 6.77828e-05
0 4249 6.77828e-05
0 4250 6.77828e-05
0 4251 6.77828e-05
0 4252 6.77828e-05
0 4253 6.77828e-05
0 4254 6.77828e-05
0 4255 6.77828e-05
0 4256 6.77828e-05
0 4257 6.77828e-05
0 4258 6.77828e-05
0 4259 6.77828e-05
0 4260 6.77828e-05
0 4261 6.77828e-05
0 4262 6.77828e-05
0 4263 6.77828e-05
0 4264 6.77828e-05
0 4265 6.77828e-05
0 4266 6.77828e-05
0 4267 6.77828e-05
0 4268 6.77828e-05
0 4269 6.77828e-05
0 4270 6.77828e-05
0 4271 6.77828e-05
0 4272 6.77828e-05
0 4273 6.77828e-05
0 4274 6.77828e-05
0 4275 6.77828e-05
0 4276 6.77828e-05
0 4277 6.77828e-05
0 4278 6.77828e-05
0 4279 6.77828e-05
0 4280 6.77828e-05
0 4281 6.77828e-05
0 4282 6.77828e-05
0 4283 6.77828e-05
0 4284 6.77828e-05
0 4285 6.77828e-05
0 4286 6.77828e-05
0 4287 6.77828e-05
0 4288 6.77828e-05
0 4289 6.77828e-05
0 4290 6.77828e-05
0 4291 6.77828e-05
0 4292 6.77828e-05
0 4293 6.77828e-05
0 4294 6.77828e-05
0 4295 6.77828e-05
0 4296 6.77828e-05
0 4297 6.77828e-05
0 4298 6.77828e-05
0 4299 6.77828e-05
0 4300 6.77828e-05
0 4301 6.77828e-05
0 4302 6.77828e-05
0 4303 6.77828e-05
0 4304 6.77828e-05
0 4305 6.77828e-05
0 4306 6.77828e-05
0 4307 6.77828e-05
0 4308 6.77828e-05
0 4309 6.77828e-05
0 4310 6.77828e-05
0 4311 6.77828e-05
0 4312 6.77828e-05
0 4313 6.77828e-05
0 4314 6.77828e-05
0 4315 6.77828e-05
0 4316 6.77828e-05
0 4317 6.77828e-05
0 4318 6.77828e-05
0 4319 6.77828e-05
0 4320 6.77828e-05
0 4321 6.77828e-05
0 4322 6.77828e-05
0 4323 6.77828e-05
0 4324 6.77828e-05
0 4325 6.77828e-05
0 4326 6.77828e-05
0 4327 6.77828e-05
0 4328 6.77828e-05
0 4329 6.77828e-05
0 4330 6.77828e-05
0 4331 6.77828e-05
0 4332 6.77828e-05
0 4333 6.77828e-05
0 4334 6.77828e-05
0 4335 6.77828e-05
0 4336 6.77828e-05
0 4337 6.77828e-05
0 4338 6.77828e-05
0 4339 6.77828e-05
0 4340 6.77828e-05
0 4341 6.77828e-05
0 4342 6.77828e-05
0 4343 6.77828e-05
0 4344 6.77828e-05
0 4345 6.77828e-05
0 4346 6.77828e-05
0 4347 6.77828e-05
0 4348 6.77828e-05
0 4349 6.77828e-05
0 4350 6.77828e-05
0 4351 6.77828e-05
0 4352 6.77828e-05
0 4353 6.77828e-05
0 4354 6.77828e-05
0 4355 6.77828e-05
0 4356 6.77828e-05
0 4357 6.77828e-05
0 4358 6.77828e-05
0 4359 6.77828e-05
0 4360 6.77828e-05
0 4361 6.77828e-05
0 4362 6.77828e-05
0 4363 6.77828e-05
0 4364 6.77828e-05
0 4365 6.77828e-05
0 4366 6.77828e-05
0 4367 6.77828e-05
0 4368 6.77828e-05
0 4369 6.77828e-05
0 4370 6.77828e-05
0 4371 6.77828e-05
0 4372 6.77828e-05
0 4373 6.77828e-05
0 4374 6.77828e-05
0 4375 6.77828e-05
0 4376 6.77828e-05
0 4377 6.77828e-05
0 4378 6.77828e-05
0 4379 6.77828e-05
0 4380 6.77828e-05
0 4381 6.77828e-05
0 4382 6.77828e-05
0 4383 6.77828e-05
0 4384 6.77828e-05
0 4385 6.77828e-05
0 4386 6.77828e-05
0 4387 6.77828e-05
0 4388 6.77828e-05
0 4389 6.77828e-05
0 4390 6.77828e-05
0 4391 6.77828e-05
0 4392 6.77828e-05
0 4393 6.77828e-05
0 4394 6.77828e-05
0 4395 6.77828e-05
0 4396 6.77828e-05
0 4397 6.77828e-05
0 4398 6.77828e-05
0 4399 6.77828e-05
0 4400 6.77828e-05
0 4401 6.77828e-05
0 4402 6.77828e-05
0 4403 6.77828e-05
0 4404 6.77828e-05
0 4405 6.77828e-05
0 4406 6.77828e-05
0 4407 6.77828e-05
0 4408 6.77828e-05
0 4409 6.77828e-05
0 4410 6.77828e-05
0 4411 6.77828e-05
0 4412 6.77828e-05
0 4413 6.77828e-05
0 4414 6.77828e-05
0 4415 6.77828e-05
0 4416 6.77828e-05
0 4417 6.77828e-05
0 4418 6.77828e-05
0 4419 6.77828e-05
0 4420 6.77828e-05
0 4421 6.77828e-05
0 4422 6.77828e-05
0 4423 6.77828e-05
0 4424 6.77828e-05
0 4425 6.77828e-05
0 4426 6.77828e-05
0 4427 6.77828e-05
0 4428 6.77828e-05
0 4429 6.77828e-05
0 4430 6.77828e-05
0 4431 6.77828e-05
0 4432 6.77828e-05
0 4433 6.77828e-05
0 4434 6.77828e-05
0 4435 6.77828e-05
0 4436 6.77828e-05
0 4437 6.77828e-05
0 4438 6.77828e-05
0 4439 6.77828e-05
0 4440 6.77828e-05
0 4441 6.77828e-05
0 4442 6.77828e-05
0 4443 6.77828e-05
0 4444 6.77828e-05
0 4445 6.77828e-05
0 4446 6.77828e-05
0 4447 6.77828e-05
0 4448 6.77828e-05
0 4449 6.77828e-05
0 4450 6.77828e-05
0 4451 6.77828e-05
0 4452 6.77828e-05
0 4453 6.77828e-05
0 4454 6.77828e-05
0 4455 6.77828e-05
0 4456 6.77828e-05
0 4457 6.77828e-05
0 4458 6.77828e-05
0 4459 6.77828e-05
0 4460 6.77828e-05
0 4461 6.77828e-05
0 4462 6.77828e-05
0 4463 6.77828e-05
0 4464 6.77828e-05
0 4465 6.77828e-05
0 4466 6.77828e-05
0 4467 6.77828e-05
0 4468 6.77828e-05
0 4469 6.77828e-05
0 4470 6.77828e-05
0 4471 6.77828e-05
0 4472 6.77828e-05
0 4473 6.77828e-05
0 4474 6.77828e-05
0 4475 6.77828e-05
0 4476 6.77828e-05
0 4477 6.77828e-05
0 4478 6.77828e-05
0 4479 6.77828e-05
0 4480 6.77828e-05
0 4481 6.77828e-05
0 4482 6.77828e-05
0 4483 6.77828e-05
0 4484 6.77828e-05
0 4485 6.77828e-05
0 4486 6.77828e-05
0 4487 6.77828e-05
0 4488 6.77828e-05
0 4489 6.77828e-05
0 4490 6.77828e-05
0 4491 6.77828e-05
0 4492 6.77828e-05
0 4493 6.77828e-05
0 4494 6.77828e-05
0 4495 6.77828e-05
0 4496 6.77828e-05
0 4497 6.77828e-05
0 4498 6.77828e-05
0 4499 6.77828e-05
0 4500 6.77828e-05
0 4501 6.77828e-05
0 4502 6.77828e-05
0 4503 6.77828e-05
0 4504 6.77828e-05
0 4505 6.77828e-05
0 4506 6.77828e-05
0 4507 6.77828e-05
0 4508 6.77828e-05
0 4509 6.77828e-05
0 4510 6.77828e-05
0 4511 6.77828e-05
0 4512 6.77828e-05
0 4513 6.77828e-05
0 4514 6.77828e-05
0 4515 6.77828e-05
0 4516 6.77828e-05
0 4517 6.77828e-05
0 4518 6.77828e-05
0 4519 6.77828e-05
0 4520 6.77828e-05
0 4521 6.77828e-05
0 4522 6.77828e-05
0 4523 6.77828e-05
0 4524 6.77828e-05
0 4525 6.77828e-05
0 4526 6.77828e-05
0 4527 6.77828e-05
0 4528 6.77828e-05
0 4529 6.77828e-05
0 4530 6.77828e-05
0 4531 6.77828e-05
0 4532 6.77828e-05
0 4533 6.77828e-05
0 4534 6.77828e-05
0 4535 6.77828e-05
0 4536 6.77828e-05
0 4537 6.77828e-05
0 4538 6.77828e-05
0 4539 6.77828e-05
0 4540 6.77828e-05
0 4541 6.77828e-05
0 4542 6.77828e-05
0 4543 6.77828e-05
0 4544 6.77828e-05
0 4545 6.77828e-05
0 4546 6.77828e-05
0 4547 6.77828e-05
0 4548 6.77828e-05
0 4549 6.77828e-05
0 4550 6.77828e-05
0 4551 6.77828e-05
0 4552 6.77828e-05
0 4553 6.77828e-05
0 4554 6.77828e-05
0 4555 6.77828e-05
0 4556 6.77828e-05
0 4557 6.77828e-05
0 4558 6.77828e-05
0 4559 6.77828e-05
0 4560 6.77828e-05
0 4561 6.77828e-05
0 4562 6.77828e-05
0 4563 6.77828e-05
0 4564 6.77828e-05
0 4565 6.77828e-05
0 4566 6.77828e-05
0 4567 6.77828e-05
0 4568 6.77828e-05
0 4569 6.77828e-05
0 4570 6.77828e-05
0 4571 6.77828e-05
0 4572 6.77828e-05
0 4573 6.77828e-05
0 4574 6.77828e-05
0 4575 6.77828e-05
0 4576 6.77828e-05
0 4577 6.77828e-05
0 4578 6.77828e-05
0 4579 6.77828e-05
0 4580 6.77828e-05
0 4581 6.77828e-05
0 4582 6.77828e-05
0 4583 6.77828e-05
0 4584 6.77828e-05
0 4585 6.77828e-05
0 4586 6.77828e-05
0 4587 6.77828e-05
0 4588 6.77828e-05
0 4589 6.77828e-05
0 4590 6.77828e-05
0 4591 6.77828e-05
0 4592 6.77828e-05
0 4593 6.77828e-05
0 4594 6.77828e-05
0 4595 6.77828e-05
0 4596 6.77828e-05
0 4597 6.77828e-05
0 4598 6.77828e-05
0 4599 6.77828e-05
0 4600 6.77828e-05
0 4601 6.77828e-05
0 4602 6.77828e-05
0 4603 6.77828e-05
0 4604 6.77828e-05
0 4605 6.77828e-05
0 4606 6.77828e-05
0 4607 6.77828e-05
0 4608 6.77828e-05
0 4609 6.77828e-05
0 4610 6.77828e-05
0 4611 6.77828e-05
0 4612 6.77828e-05
0 4613 6.77828e-05
0 4614 6.77828e-05
0 4615 6.77828e-05
0 4616 6.77828e-05
0 4617 6.77828e-05
0 4618 6.77828e-05
0 4619 6.77828e-05
0 4620 6.77828e-05
0 4621 6.77828e-05
0 4622 6.77828e-05
0 4623 6.77828e-05
0 4624 6.77828e-05
0 4625 6.77828e-05
0 4626 6.77828e-05
0 4627 6.77828e-05
0 4628 6.77828e-05
0 4629 6.77828e-05
0 4630 6.77828e-05
0 4631 6.77828e-05
0 4632 6.77828e-05
0 4633 6.77828e-05
0 4634 6.77828e-05
0 4635 6.77828e-05
0 4636 6.77828e-05
0 4637 6.77828e-05
0 4638 6.77828e-05
0 4639 6.77828e-05
0 4640 6.77828e-05
0 4641 6.77828e-05
0 4642 6.77828e-05
0 4643 6.77828e-05
0 4644 6.77828e-05
0 4645 6.77828e-05
0 4646 6.77828e-05
0 4647 6.77828e-05
0 4648 6.77828e-05
0 4649 6.77828e-05
0 4650 6.77828e-05
0 4651 6.77828e-05
0 4652 6.77828e-05
0 4653 6.77828e-05
0 4654 6.77828e-05
0 4655 6.77828e-05
0 4656 6.77828e-05
0 4657 6.77828e-05
0 4658 6.77828e-05
0 4659 6.77828e-05
0 4660 6.77828e-05
0 4661 6.77828e-05
0 4662 6.77828e-05
0 4663 6.77828e-05
0 4664 6.77828e-05
0 4665 6.77828e-05
0 4666 6.77828e-05
0 4667 6.77828e-05
0 4668 6.77828e-05
0 4669 6.77828e-05
0 4670 6.77828e-05
0 4671 6.77828e-05
0 4672 6.77828e-05
0 4673 6.77828e-05
0 4674 6.77828e-05
0 4675 6.77828e-05
0 4676 6.77828e-05
0 4677 6.77828e-05
0 4678 6.77828e-05
0 4679 6.77828e-05
0 4680 6.77828e-05
0 4681 6.77828e-05
0 4682 6.77828e-05
0 4683 6.77828e-05
0 4684 6.77828e-05
0 4685 6.77828e-05
0 4686 6.77828e-05
0 4687 6.77828e-05
0 4688 6.77828e-05
0 4689 6.77828e-05
0 4690 6.77828e-05
0 4691 6.77828e-05
0 4692 6.77828e-05
0 4693 6.77828e-05
0 4694 6.77828e-05
0 4695 6.77828e-05
0 4696 6.77828e-05
0 4697 6.77828e-05
0 4698 6.77828e-05
0 4699 6.77828e-05
0 4700 6.77828e-05
0 4701 6.77828e-05
0 4702 6.77828e-05
0 4703 6.77828e-05
0 4704 6.77828e-05
0 4705 6.77828e-05
0 4706 6.77828e-05
0 4707 6.77828e-05
0 4708 6.77828e-05
0 4709 6.77828e-05
0 4710 6.77828e-05
0 4711 6.77828e-05
0 4712 6.77828e-05
0 4713 6.77828e-05
0 4714 6.77828e-05
0 4715 6.77828e-05
0 4716 6.77828e-05
0 4717 6.77828e-05
0 4718 6.77828e-05
0 4719 6.77828e-05
0 4720 6.77828e-05
0 4721 6.77828e-05
0 4722 6.77828e-05
0 4723 6.77828e-05
0 4724 6.77828e-05
0 4725 6.77828e-05
0 4726 6.77828e-05
0 4727 6.77828e-05
0 4728 6.77828e-05
0 4729 6.77828e-05
0 4730 6.77828e-05
0 4731 6.77828e-05
0 4732 6.77828e-05
0 4733 6.77828e-05
0 4734 6.77828e-05
0 4735 6.77828e-05
0 4736 6.77828e-05
0 4737 6.77828e-05
0 4738 6.77828e-05
0 4739 6.77828e-05
0 4740 6.77828e-05
0 4741 6.77828e-05
0 4742 6.77828e-05
0 4743 6.77828e-05
0 4744 6.77828e-05
0 4745 6.77828e-05
0 4746 6.77828e-05
0 4747 6.77828e-05
0 4748 6.77828e-05
0 4749 6.77828e-05
0 4750 6.77828e-05
0 4751 6.77828e-05
0 4752 6.77828e-05
0 4753 6.77828e-05
0 4754 6.77828e-05
0 4755 6.77828e-05
0 4756 6.77828e-05
0 4757 6.77828e-05
0 4758 6.77828e-05
0 4759 6.77828e-05
0 4760 6.77828e-05
0 4761 6.77828e-05
0 4762 6.77828e-05
0 4763 6.77828e-05
0 4764 6.77828e-05
0 4765 6.77828e-05
0 4766 6.77828e-05
0 4767 6.77828e-05
0 4768 6.77828e-05
0 4769 6.77828e-05
0 4770 6.77828e-05
0 4771 6.77828e-05
0 4772 6.77828e-05
0 4773 6.77828e-05
0 4774 6.77828e-05
0 4775 6.77828e-05
0 4776 6.77828e-05
0 4777 6.77828e-05
0 4778 6.77828e-05
0 4779 6.77828e-05
0 4780 6.77828e-05
0 4781 6.77828e-05
0 4782 6.77828e-05
0 4783 6.77828e-05
0 4784 6.77828e-05
0 4785 6.77828e-05
0 4786 6.77828e-05
0 4787 6.77828e-05
0 4788 6.77828e-05
0 4789 6.77828e-05
0 4790 6.77828e-05
0 4791 6.77828e-05
0 4792 6.77828e-05
0 4793 6.77828e-05
0 4794 6.77828e-05
0 4795 6.77828e-05
0 4796 6.77828e-05
0 4797 6.77828e-05
0 4798 6.77828e-05
0 4799 6.77828e-05
0 4800 6.77828e-05
0 4801 6.77828e-05
0 4802 6.77828e-05
0 4803 6.77828e-05
0 4804 6.77828e-05
0 4805 6.77828e-05
0 4806 6.77828e-05
0 4807 6.77828e-05
0 4808 6.77828e-05
0 4809 6.77828e-05
0 4810 6.77828e-05
0 4811 6.77828e-05
0 4812 6.77828e-05
0 4813 6.77828e-05
0 4814 6.77828e-05
0 4815 6.77828e-05
0 4816 6.77828e-05
0 4817 6.77828e-05
0 4818 6.77828e-05
0 4819 6.77828e-05
0 4820 6.77828e-05
0 4821 6.77828e-05
0 4822 6.77828e-05
0 4823 6.77828e-05
0 4824 6.77828e-05
0 4825 6.77828e-05
0 4826 6.77828e-05
0 4827 6.77828e-05
0 4828 6.77828e-05
0 4829 6.77828e-05
0 4830 6.77828e-05
0 4831 6.77828e-05
0 4832 6.77828e-05
0 4833 6.77828e-05
0 4834 6.77828e-05
0 4835 6.77828e-05
0 4836 6.77828e-05
0 4837 6.77828e-05
0 4838 6.77828e-05
0 4839 6.77828e-05
0 4840 6.77828e-05
0 4841 6.77828e-05
0 4842 6.77828e-05
0 4843 6.77828e-05
0 4844 6.77828e-05
0 4845 6.77828e-05
0 4846 6.77828e-05
0 4847 6.77828e-05
0 4848 6.77828e-05
0 4849 6.77828e-05
0 4850 6.77828e-05
0 4851 6.77828e-05
0 4852 6.77828e-05
0 4853 6.77828e-05
0 4854 6.77828e-05
0 4855 6.77828e-05
0 4856 6.77828e-05
0 4857 6.77828e-05
0 4858 6.77828e-05
0 4859 6.77828e-05
0 4860 6.77828e-05
0 4861 6.77828e-05
0 4862 6.77828e-05
0 4863 6.77828e-05
0 4864 6.77828e-05
0 4865 6.77828e-05
0 4866 6.77828e-05
0 4867 6.77828e-05
0 4868 6.77828e-05
0 4869 6.77828e-05
0 4870 6.77828e-05
0 4871 6.77828e-05
0 4872 6.77828e-05
0 4873 6.77828e-05
0 4874 6.77828e-05
0 4875 6.77828e-05
0 4876 6.77828e-05
0 4877 6.77828e-05
0 4878 6.77828e-05
0 4879 6.77828e-05
0 4880 6.77828e-05
0 4881 6.77828e-05
0 4882 6.77828e-05
0 4883 6.77828e-05
0 4884 6.77828e-05
0 4885 6.77828e-05
0 4886 6.77828e-05
0 4887 6.77828e-05
0 4888 6.77828e-05
0 4889 6.77828e-05
0 4890 6.77828e-05
0 4891 6.77828e-05
0 4892 6.77828e-05
0 4893 6.77828e-05
0 4894 6.77828e-05
0 4895 6.77828e-05
0 4896 6.77828e-05
0 4897 6.77828e-05
0 4898 6.77828e-05
0 4899 6.77828e-05
0 4900 6.77828e-05
0 4901 6.77828e-05
0 4902 6.77828e-05
0 4903 6.77828e-05
0 4904 6.77828e-05
0 4905 6.77828e-05
0 4906 6.77828e-05
0 4907 6.77828e-05
0 4908 6.77828e-05
0 4909 6.77828e-05
0 4910 6.77828e-05
0 4911 6.77828e-05
0 4912 6.77828e-05
0 4913 6.77828e-05
0 4914 6.77828e-05
0 4915 6.77828e-05
0 4916 6.77828e-05
0 4917 6.77828e-05
0 4918 6.77828e-05
0 4919 6.77828e-05
0 4920 6.77828e-05
0 4921 6.77828e-05
0 4922 6.77828e-05
0 4923 6.77828e-05
0 4924 6.77828e-05
0 4925 6.77828e-05
0 4926 6.77828e-05
0 4927 6.77828e-05
0 4928 6.77828e-05
0 4929 6.77828e-05
0 4930 6.77828e-05
0 4931 6.77828e-05
0 4932 6.77828e-05
0 4933 6.77828e-05
0 4934 6.77828e-05
0 4935 6.77828e-05
0 4936 6.77828e-05
0 4937 6.77828e-05
0 4938 6.77828e-05
0 4939 6.77828e-05
0 4940 6.77828e-05
0 4941 6.77828e-05
0 4942 6.77828e-05
0 4943 6.77828e-05
0 4944 6.77828e-05
0 4945 6.77828e-05
0 4946 6.77828e-05
0 4947 6.77828e-05
0 4948 6.77828e-05
0 4949 6.77828e-05
0 4950 6.77828e-05
0 4951 6.77828e-05
0 4952 6.77828e-05
0 4953 6.77828e-05
0 4954 6.77828e-05
0 4955 6.77828e-05
0 4956 6.77828e-05
0 4957 6.77828e-05
0 4958 6.77828e-05
0 4959 6.77828e-05
0 4960 6.77828e-05
0 4961 6.77828e-05
0 4962 6.77828e-05
0 4963 6.77828e-05
0 4964 6.77828e-05
0 4965 6.77828e-05
0 4966 6.77828e-05
0 4967 6.77828e-05
0 4968 6.77828e-05
0 4969 6.77828e-05
0 4970 6.77828e-05
0 4971 6.77828e-05
0 4972 6.77828e-05
0 4973 6.77828e-05
0 4974 6.77828e-05
0 4975 6.77828e-05
0 4976 6.77828e-05
0 4977 6.77828e-05
0 4978 6.77828e-05
0 4979 6.77828e-05
0 4980 6.77828e-05
0 4981 6.77828e-05
0 4982 6.77828e-05
0 4983 6.77828e-05
0 4984 6.77828e-05
0 4985 6.77828e-05
0 4986 6.77828e-05
0 4987 6.77828e-05
0 4988 6.77828e-05
0 4989 6.77828e-05
0 4990 6.77828e-05
0 4991 6.77828e-05
0 4992 6.77828e-05
0 4993 6.77828e-05
0 4994 6.77828e-05
0 4995 6.77828e-05
0 4996 6.77828e-05
0 4997 6.77828e-05
0 4998 6.77828e-05
0 4999 6.77828e-05
0 5000 6.77828e-05
0 5001 6.77828e-05
0 5002 6.77828e-05
0 5003 6.77828e-05
0 5004 6.77828e-05
0 5005 6.77828e-05
0 5006 6.77828e-05
0 5007 6.77828e-05
0 5008 6.77828e-05
0 5009 6.77828e-05
0 5010 6.77828e-05
0 5011 6.77828e-05
0 5012 6.77828e-05
0 5013 6.77828e-05
0 5014 6.77828e-05
0 5015 6.77828e-05
0 5016 6.77828e-05
0 5017 6.77828e-05
0 5018 6.77828e-05
0 5019 6.77828e-05
0 5020 6.77828e-05
0 5021 6.77828e-05
0 5022 6.77828e-05
0 5023 6.77828e-05
0 5024 6.77828e-05
0 5025 6.77828e-05
0 5026 6.77828e-05
0 5027 6.77828e-05
0 5028 6.77828e-05
0 5029 6.77828e-05
0 5030 6.77828e-05
0 5031 6.77828e-05
0 5032 6.77828e-05
0 5033 6.77828e-05
0 5034 6.77828e-05
0 5035 6.77828e-05
0 5036 6.77828e-05
0 5037 6.77828e-05
0 5038 6.77828e-05
0 5039 6.77828e-05
0 5040 6.77828e-05
0 5041 6.77828e-05
0 5042 6.77828e-05
0 5043 6.77828e-05
0 5044 6.77828e-05
0 5045 6.77828e-05
0 5046 6.77828e-05
0 5047 6.77828e-05
0 5048 6.77828e-05
0 5049 6.77828e-05
0 5050 6.77828e-05
0 5051 6.77828e-05
0 5052 6.77828e-05
0 5053 6.77828e-05
0 5054 6.77828e-05
0 5055 6.77828e-05
0 5056 6.77828e-05
0 5057 6.77828e-05
0 5058 6.77828e-05
0 5059 6.77828e-05
0 5060 6.77828e-05
0 5061 6.77828e-05
0 5062 6.77828e-05
0 5063 6.77828e-05
0 5064 6.77828e-05
0 5065 6.77828e-05
0 5066 6.77828e-05
0 5067 6.77828e-05
0 5068 6.77828e-05
0 5069 6.77828e-05
0 5070 6.77828e-05
0 5071 6.77828e-05
0 5072 6.77828e-05
0 5073 6.77828e-05
0 5074 6.77828e-05
0 5075 6.77828e-05
0 5076 6.77828e-05
0 5077 6.77828e-05
0 5078 6.77828e-05
0 5079 6.77828e-05
0 5080 6.77828e-05
0 5081 6.77828e-05
0 5082 6.77828e-05
0 5083 6.77828e-05
0 5084 6.77828e-05
0 5085 6.77828e-05
0 5086 6.77828e-05
0 5087 6.77828e-05
0 5088 6.77828e-05
0 5089 6.77828e-05
0 5090 6.77828e-05
0 5091 6.77828e-05
0 5092 6.77828e-05
0 5093 6.77828e-05
0 5094 6.77828e-05
0 5095 6.77828e-05
0 5096 6.77828e-05
0 5097 6.77828e-05
0 5098 6.77828e-05
0 5099 6.77828e-05
0 5100 6.77828e-05
0 5101 6.77828e-05
0 5102 6.77828e-05
0 5103 6.77828e-05
0 5104 6.77828e-05
0 5105 6.77828e-05
0 5106 6.77828e-05
0 5107 6.77828e-05
0 5108 6.77828e-05
0 5109 6.77828e-05
0 5110 6.77828e-05
0 5111 6.77828e-05
0 5112 6.77828e-05
0 5113 6.77828e-05
0 5114 6.77828e-05
0 5115 6.77828e-05
0 5116 6.77828e-05
0 5117 6.77828e-05
0 5118 6.77828e-05
0 5119 6.77828e-05
0 5120 6.77828e-05
0 5121 6.77828e-05
0 5122 6.77828e-05
0 5123 6.77828e-05
0 5124 6.77828e-05
0 5125 6.77828e-05
0 5126 6.77828e-05
0 5127 6.77828e-05
0 5128 6.77828e-05
0 5129 6.77828e-05
0 5130 6.77828e-05
0 5131 6.77828e-05
0 5132 6.77828e-05
0 5133 6.77828e-05
0 5134 6.77828e-05
0 5135 6.77828e-05
0 5136 6.77828e-05
0 5137 6.77828e-05
0 5138 6.77828e-05
0 5139 6.77828e-05
0 5140 6.77828e-05
0 5141 6.77828e-05
0 5142 6.77828e-05
0 5143 6.77828e-05
0 5144 6.77828e-05
0 5145 6.77828e-05
0 5146 6.77828e-05
0 5147 6.77828e-05
0 5148 6.77828e-05
0 5149 6.77828e-05
0 5150 6.77828e-05
0 5151 6.77828e-05
0 5152 6.77828e-05
0 5153 6.77828e-05
0 5154 6.77828e-05
0 5155 6.77828e-05
0 5156 6.77828e-05
0 5157 6.77828e-05
0 5158 6.77828e-05
0 5159 6.77828e-05
0 5160 6.77828e-05
0 5161 6.77828e-05
0 5162 6.77828e-05
0 5163 6.77828e-05
0 5164 6.77828e-05
0 5165 6.77828e-05
0 5166 6.77828e-05
0 5167 6.77828e-05
0 5168 6.77828e-05
0 5169 6.77828e-05
0 5170 6.77828e-05
0 5171 6.77828e-05
0 5172 6.77828e-05
0 5173 6.77828e-05
0 5174 6.77828e-05
0 5175 6.77828e-05
0 5176 6.77828e-05
0 5177 6.77828e-05
0 5178 6.77828e-05
0 5179 6.77828e-05
0 5180 6.77828e-05
0 5181 6.77828e-05
0 5182 6.77828e-05
0 5183 6.77828e-05
0 5184 6.77828e-05
0 5185 6.77828e-05
0 5186 6.77828e-05
0 5187 6.77828e-05
0 5188 6.77828e-05
0 5189 6.77828e-05
0 5190 6.77828e-05
0 5191 6.77828e-05
0 5192 6.77828e-05
0 5193 6.77828e-05
0 5194 6.77828e-05
0 5195 6.77828e-05
0 5196 6.77828e-05
0 5197 6.77828e-05
0 5198 6.77828e-05
0 5199 6.77828e-05
0 5200 6.77828e-05
0 5201 6.77828e-05
0 5202 6.77828e-05
0 5203 6.77828e-05
0 5204 6.77828e-05
0 5205 6.77828e-05
0 5206 6.77828e-05
0 5207 6.77828e-05
0 5208 6.77828e-05
0 5209 6.77828e-05
0 5210 6.77828e-05
0 5211 6.77828e-05
0 5212 6.77828e-05
0 5213 6.77828e-05
0 5214 6.77828e-05
0 5215 6.77828e-05
0 5216 6.77828e-05
0 5217 6.77828e-05
0 5218 6.77828e-05
0 5219 6.77828e-05
0 5220 6.77828e-05
0 5221 6.77828e-05
0 5222 6.77828e-05
0 5223 6.77828e-05
0 5224 6.77828e-05
0 5225 6.77828e-05
0 5226 6.77828e-05
0 5227 6.77828e-05
0 5228 6.77828e-05
0 5229 6.77828e-05
0 5230 6.77828e-05
0 5231 6.77828e-05
0 5232 6.77828e-05
0 5233 6.77828e-05
0 5234 6.77828e-05
0 5235 6.77828e-05
0 5236 6.77828e-05
0 5237 6.77828e-05
0 5238 6.77828e-05
0 5239 6.77828e-05
0 5240 6.77828e-05
0 5241 6.77828e-05
0 5242 6.77828e-05
0 5243 6.77828e-05
0 5244 6.77828e-05
0 5245 6.77828e-05
0 5246 6.77828e-05
0 5247 6.77828e-05
0 5248 6.77828e-05
0 5249 6.77828e-05
0 5250 6.77828e-05
0 5251 6.77828e-05
0 5252 6.77828e-05
0 5253 6.77828e-05
0 5254 6.77828e-05
0 5255 6.77828e-05
0 5256 6.77828e-05
0 5257 6.77828e-05
0 5258 6.77828e-05
0 5259 6.77828e-05
0 5260 6.77828e-05
0 5261 6.77828e-05
0 5262 6.77828e-05
0 5263 6.77828e-05
0 5264 6.77828e-05
0 5265 6.77828e-05
0 5266 6.77828e-05
0 5267 6.77828e-05
0 5268 6.77828e-05
0 5269 6.77828e-05
0 5270 6.77828e-05
0 5271 6.77828e-05
0 5272 6.77828e-05
0 5273 6.77828e-05
0 5274 6.77828e-05
0 5275 6.77828e-05
0 5276 6.77828e-05
0 5277 6.77828e-05
0 5278 6.77828e-05
0 5279 6.77828e-05
0 5280 6.77828e-05
0 5281 6.77828e-05
0 5282 6.77828e-05
0 5283 6.77828e-05
0 5284 6.77828e-05
0 5285 6.77828e-05
0 5286 6.77828e-05
0 5287 6.77828e-05
0 5288 6.77828e-05
0 5289 6.77828e-05
0 5290 6.77828e-05
0 5291 6.77828e-05
0 5292 6.77828e-05
0 5293 6.77828e-05
0 5294 6.77828e-05
0 5295 6.77828e-05
0 5296 6.77828e-05
0 5297 6.77828e-05
0 5298 6.77828e-05
0 5299 6.77828e-05
0 5300 6.77828e-05
0 5301 6.77828e-05
0 5302 6.77828e-05
0 5303 6.77828e-05
0 5304 6.77828e-05
0 5305 6.77828e-05
0 5306 6.77828e-05
0 5307 6.77828e-05
0 5308 6.77828e-05
0 5309 6.77828e-05
0 5310 6.77828e-05
0 5311 6.77828e-05
0 5312 6.77828e-05
0 5313 6.77828e-05
0 5314 6.77828e-05
0 5315 6.77828e-05
0 5316 6.77828e-05
0 5317 6.77828e-05
0 5318 6.77828e-05
0 5319 6.77828e-05
0 5320 6.77828e-05
0 5321 6.77828e-05
0 5322 6.77828e-05
